176 16
155 -0.058633026 -1.6225599 -0.46848834 -0.3352568 -0.59201163 0.15379277 -0.24588989 -0.7332184 -0.5852835 -0.103409246 2.0336401 0.04893666 -1.4235526 0.7616411 -0.27751032 0.8413681
9 -0.67794317 -0.9264178 -0.5182093 -1.6445996 0.16479996 -0.8019914 0.09148633 -0.2837827 -0.08003383 0.74598193 -0.7652671 -0.83501416 -0.6482161 1.4813403 0.18825728 1.0839306
170 0.37194172 0.3984413 -0.98970413 -2.0423253 0.7283453 0.7839566 -0.7745499 -1.483353 -0.17017938 2.5390997 1.2672104 -0.8619158 -1.8843628 0.99882346 -0.31852725 -0.59930295
16 -0.70496196 -0.85899776 -0.41485676 -1.6364571 0.19769129 -0.77439123 0.07797761 -0.31803662 -0.11857335 0.6897936 -0.67173237 -0.85125977 -0.6484742 1.5961347 0.17116958 1.0342573
25 -0.057986014 -1.6481827 -0.60955673 -0.49184045 -0.46967274 0.16207449 -0.24268582 -0.754347 -0.5520418 -0.14510205 2.0146015 0.033059295 -1.4238503 0.6047319 -0.29477924 0.8282371
15 -0.67668235 -0.8420976 -0.4616172 -1.6514794 0.20860058 -0.71608245 0.073768325 -0.3281568 -0.09205325 0.6498365 -0.78296036 -0.8773511 -0.6583837 1.5084511 0.14183444 1.1069114
66 -0.07085156 -1.6090068 -0.5598085 -0.38269824 -0.51179296 0.18561712 -0.16947402 -0.7589145 -0.52399117 -0.04918084 1.9538709 0.11703728 -1.4169025 0.65355426 -0.25408402 0.8386641
10 0.42541286 0.4474417 -0.8810005 -1.9193046 0.6478487 0.74399126 -0.7501966 -1.3699498 -0.16846408 2.5972903 1.2799435 -0.9126512 -1.9227068 1.0147449 -0.27374762 -0.6299028
166 -0.06890358 -1.6087539 -0.5013432 -0.44595182 -0.50038344 0.15282784 -0.2149204 -0.71130705 -0.52196556 -0.09391493 2.0321548 0.031855095 -1.3884919 0.6916368 -0.33070725 0.87431824
97 -0.67148596 -0.90790963 -0.49307433 -1.6801662 0.20675027 -0.78104997 0.10036617 -0.358384 -0.10536139 0.7143681 -0.7675695 -0.86089736 -0.658113 1.4950746 0.09937486 1.0449401
72 0.13264772 -0.15095824 -0.1743496 -1.3788412 -0.58923936 -0.8781824 1.2315927 -1.6137745 -0.06014609 2.331615 1.5517315 1.7976307 -0.7535499 2.3670793 1.5048426 0.7283655
48 0.30630207 0.34951004 -0.9324539 -1.9739052 0.73844546 0.7804474 -0.73326534 -1.4682701 -0.2123793 2.551292 1.2358588 -0.81347704 -1.9054011 1.0197098 -0.2999594 -0.59943664
79 -0.07822659 -1.5916116 -0.52594304 -0.4123373 -0.5154118 0.15961404 -0.2146079 -0.6911056 -0.46070912 -0.050005164 2.0388596 0.0323298 -1.4450479 0.6486936 -0.35424688 0.82593554
74 -0.71846294 -0.94466454 -0.50357753 -1.6839017 0.19593625 -0.8001386 0.08048368 -0.33482206 -0.10310656 0.774994 -0.6996443 -0.82436705 -0.6325187 1.4286422 0.11883691 1.0218002
146 -2.5591228 -1.0412211 -2.9148548 -1.3931663 0.92384386 -1.0576917 1.4382563 -3.4310741 -1.5819252 1.191831 1.3012339 0.57161766 -0.5777821 0.48722884 0.67175186 -0.19102444
129 -0.06140675 -1.6817449 -0.550929 -0.47701234 -0.49728885 0.22150992 -0.19636324 -0.69863224 -0.46421295 -0.09664478 2.0130517 0.012067776 -1.3776857 0.72766304 -0.27271512 0.85270745
160 -0.71385956 -0.87790644 -0.49201816 -1.711341 0.20998652 -0.78182113 0.06914397 -0.35295984 -0.11794991 0.7046421 -0.70142066 -0.83907974 -0.6399168 1.5148944 0.11085828 1.0721737
159 -2.1921616 -1.2152985 1.5467206 -0.94372135 -1.0400311 2.1822147 2.431392 -1.9125259 -0.5009102 1.2612193 0.003202284 -0.22383583 -2.885316 1.7767096 0.18495117 1.7264979
23 -0.05241609 -1.6172553 -0.56334996 -0.4512186 -0.52366406 0.07756053 -0.25533575 -0.74997914 -0.52926403 -0.067907386 1.962519 0.07485691 -1.425897 0.6885025 -0.31233436 0.8608856
70 -0.05032861 -1.543472 -0.5062997 -0.42051202 -0.5390327 0.17251274 -0.23587868 -0.7044033 -0.5149896 -0.07959551 1.9780515 0.0009169331 -1.4685119 0.71769494 -0.28410316 0.82290804
112 -0.7221449 -0.83989525 -0.5354986 -1.6847999 0.2144448 -0.7557228 0.040533587 -0.34761965 -0.11218461 0.72594374 -0.7089998 -0.81411046 -0.56048006 1.4714705 0.1269114 1.0516794
73 0.28146696 0.39201808 -0.9713581 -1.8938354 0.69972557 0.7650339 -0.67727387 -1.4540744 -0.19724943 2.5552077 1.1840162 -0.8510405 -1.9043839 0.9284796 -0.309275 -0.7096584
61 0.028086172 -1.844286 -1.8875794 -2.8114698 2.4379847 1.8889697 1.8582956 -0.71417695 1.7709221 -0.33924198 1.4464066 -0.9913087 -1.9953481 1.615729 -0.048957843 0.13491361
13 1.8871118 -3.6841273 1.2794085 -2.1662042 -0.3623782 2.3200552 -0.13992946 0.079523824 -0.9354956 2.495552 0.059388213 0.9668688 -1.0059901 2.942527 1.2677704 1.2564988
5 -0.01702962 -1.6252476 -0.60927206 -0.47482693 -0.5169555 0.113619246 -0.25729063 -0.7759928 -0.4849882 -0.13142246 2.0443847 -0.03283961 -1.4471885 0.6955796 -0.29399 0.82493144
128 -0.72110486 -0.85665184 -0.5345811 -1.7021129 0.20208628 -0.76287705 0.10388912 -0.33642653 -0.102039985 0.6147084 -0.6983891 -0.81927866 -0.64755934 1.5502023 0.1513907 1.0054004
103 -0.083538316 -1.617026 -0.54806805 -0.4093423 -0.5114819 0.20172678 -0.25883862 -0.7669265 -0.5013016 -0.11594033 1.9737025 0.041218393 -1.37639 0.65505505 -0.39208293 0.80357426
142 -0.71794605 -0.93680686 -0.5477201 -1.6599504 0.19332069 -0.7488753 0.09435674 -0.3868266 -0.02046708 0.7165397 -0.7473775 -0.82750255 -0.64243287 1.4707427 0.09634338 1.0290018
158 -0.6749046 -0.92380446 -0.44868523 -1.6608934 0.13879539 -0.746742 0.028173981 -0.36398885 -0.07211684 0.7067123 -0.6907665 -0.8125309 -0.6018181 1.4899098 0.16471937 1.0399725
12 -2.4169436 -2.1320198 -0.12007494 -3.077529 1.598696 0.5104274 -1.7772532 -2.5369422 0.46278808 0.7705406 0.658023 1.4453139 -0.99913394 0.25187415 -1.0777273 0.6823504
145 -0.072541505 -1.6171674 -0.5151878 -0.41359308 -0.5433739 0.08880037 -0.29434273 -0.75032073 -0.5354876 -0.092012756 2.012668 0.10330292 -1.4551305 0.7160664 -0.2875359 0.8951009
102 -0.7530478 -0.95132405 -0.4775309 -1.684737 0.20540385 -0.7693132 0.10380569 -0.36690575 -0.024046026 0.7566896 -0.7273591 -0.8275615 -0.58384275 1.4122769 0.16575608 1.0072733
108 -0.069894336 -1.571687 -0.5539597 -0.38635632 -0.5217507 0.14892638 -0.13837066 -0.72453725 -0.4906691 -0.057997346 1.9431247 0.09316684 -1.4139544 0.72187406 -0.305967 0.8215827
77 -0.68317705 -0.9619721 -0.50334734 -1.7166824 0.21864356 -0.837427 0.076466575 -0.31603813 -0.08520346 0.6727856 -0.7594634 -0.8159486 -0.61802554 1.4606184 0.14039584 1.0031686
101 -0.6995157 -0.8836278 -0.5307561 -1.6384621 0.17850593 -0.7699937 0.0828899 -0.32624274 -0.13077457 0.71700525 -0.73588604 -0.85211354 -0.6584023 1.5177469 0.15144102 0.97286916
49 -0.07398878 -1.5801932 -0.60642976 -0.4414589 -0.46199414 0.15512423 -0.2169209 -0.77464753 -0.50905514 -0.11686517 2.0024045 0.06776461 -1.4024327 0.5808017 -0.34695494 0.8728743
113 -0.63810134 -0.8799326 -0.5269475 -1.7338839 0.19841124 -0.81693846 0.04867708 -0.32388395 -0.19707537 0.69663703 -0.7217542 -0.8204188 -0.68220794 1.5088147 0.15900849 1.086681
54 0.86222774 -0.057591274 -1.5623746 -0.48776838 0.5848996 0.9378441 0.0013564506 -3.3687427 1.5221983 1.0487187 0.3739993 0.19959022 -0.934781 2.2108808 -0.5152375 2.4343066
105 0.95974034 -0.048274055 -1.524813 -0.58910614 0.46363166 0.8110369 0.021541007 -3.477852 1.6903551 0.8321429 0.37413743 0.11841553 -1.1441885 2.4261866 -0.67458 2.7580733
152 -0.7507554 -0.8703801 -0.46799734 -1.6875765 0.18442135 -0.82626754 0.14985305 -0.316089 -0.12462186 0.6936427 -0.673733 -0.8616143 -0.6422627 1.5061625 0.11992022 1.0290262
109 0.23101662 -0.14237426 -0.1337559 -1.324329 -0.6053595 -0.9433471 1.1472709 -1.5969766 -0.03646069 2.3149774 1.5042453 1.7097027 -0.7451703 2.3124495 1.4160534 0.70699346
8 0.27186605 -0.25190863 -0.17821968 -1.3359115 -0.6202154 -0.9761829 1.1514914 -1.7375026 0.04249309 2.494148 1.5855678 1.7655948 -0.6499681 2.341868 1.3983241 0.7523238
122 -0.030814 -1.5940064 -0.46131688 -0.43117088 -0.5430666 0.17917766 -0.21870774 -0.72851545 -0.5715662 -0.087643296 2.0222123 0.06539383 -1.4098809 0.7164161 -0.25741467 0.9047523
89 -0.12841123 -1.4478556 -0.48487115 -0.40586537 -0.5872022 0.08879494 -0.26619047 -0.69995123 -0.5810448 -0.063119985 1.9878474 0.088660695 -1.5051125 0.66467065 -0.34681726 0.8772849
33 -1.1218439 -2.7641542 0.61423945 -3.1590197 0.54833454 0.66430956 -0.46008557 -1.670198 -0.5687206 0.7674235 1.8408352 -0.3959878 -0.37358 2.1225324 2.3213108 -2.0635295
21 -0.74218535 -0.94848293 -0.5082964 -1.7029814 0.21240446 -0.73470515 0.13401465 -0.30272004 -0.12975504 0.7398333 -0.6973099 -0.7908916 -0.6707683 1.4661863 0.141973 1.0409577
87 -0.7006257 -0.9019052 -0.5002777 -1.6351182 0.2002738 -0.75300217 0.06917514 -0.32641897 -0.12531036 0.7029894 -0.70690244 -0.843515 -0.62068266 1.512602 0.12897392 1.0239829
27 0.8660158 -0.12686005 -1.5701237 -0.6189986 0.57289326 0.8208907 0.0574468 -3.324142 1.5183276 0.89065844 0.368135 0.1642071 -0.9654933 2.2873776 -0.63140947 2.618736
82 -0.7610334 2.0214834 -0.46984378 -2.3636909 -1.2239466 -0.047513705 -0.8973042 -2.186746 -0.36711258 -0.5424678 1.1582679 -0.028500792 -3.1129882 3.1447654 1.1762654 1.0897081
176 -0.67931116 -0.87177694 -0.5184334 -1.685854 0.17848091 -0.8398071 0.056228936 -0.3135259 -0.12501024 0.6693864 -0.73480433 -0.80598116 -0.6426426 1.5159988 0.18971539 1.0280974
76 -0.684351 -0.8862398 -0.5233952 -1.6594281 0.19455507 -0.72175705 0.0633042 -0.36952853 -0.088212505 0.69088006 -0.72350955 -0.8337801 -0.6139896 1.5039086 0.16761626 1.0280681
149 -0.035561077 -1.6040198 -0.50100195 -0.49319845 -0.51412874 0.12037133 -0.29470783 -0.742302 -0.51801324 -0.027249642 2.0134654 0.11799504 -1.4115334 0.66138536 -0.32184404 0.87774223
35 0.356645 0.45044163 -0.7534004 -1.8696599 0.739976 0.78022254 -0.771517 -1.3875482 -0.15818256 2.6273317 1.2234684 -0.83078665 -1.9118443 0.9371683 -0.28912324 -0.6605243
130 -2.191078 -2.0116494 -0.2205849 -3.1175644 1.5028787 0.558584 -1.6127887 -2.416957 0.51174563 0.7363477 0.593578 1.4204423 -0.9592909 0.1054571 -1.1902238 0.6633806
63 -0.69676316 -0.91207385 -0.47469422 -1.6902535 0.16798455 -0.7610359 0.07293413 -0.34546322 -0.09784337 0.7212132 -0.65167356 -0.8643336 -0.6044351 1.567768 0.13558143 1.0210323
88 0.0022836218 -1.8663652 -1.8805777 -2.7830973 2.3535538 1.863525 1.8463174 -0.72182435 1.7716291 -0.3550423 1.3758155 -1.1263193 -2.0085995 1.4473104 -0.16518976 0.020875558
139 -0.7394594 -0.8689729 -0.46247643 -1.6462705 0.1807528 -0.74756813 0.115728326 -0.2956178 -0.15470594 0.6905379 -0.7773279 -0.87689286 -0.67018265 1.4602075 0.13628769 1.0778247
58 -0.04202142 -1.5872983 -0.5412809 -0.47075653 -0.51857984 0.16672856 -0.2835857 -0.7281662 -0.4709022 -0.06458365 2.0366066 0.06762149 -1.4798955 0.6585844 -0.31846434 0.8581229
110 0.9355733 -0.11586304 -1.5956205 -0.5647922 0.5062438 0.7917241 0.08212106 -3.4062915 1.6188948 0.91007286 0.3944449 0.20314947 -1.0281771 2.28806 -0.62736 2.6285605
134 -0.056298822 -1.5426389 -0.58998084 -0.3715471 -0.5290645 0.14797342 -0.28510648 -0.7949879 -0.54773515 -0.06235472 1.9520006 0.069195345 -1.4137597 0.6608629 -0.30010486 0.87817264
136 1.8633051 -3.486378 1.1786196 -2.0004718 -0.264616 2.3552456 -0.15376799 0.061546855 -0.7910751 2.4849358 0.06399197 0.9197355 -0.9025237 2.8606944 1.1681088 1.2283971
37 -0.05989298 -1.6097481 -0.59558827 -0.4585045 -0.47525004 0.16020782 -0.28084078 -0.7712454 -0.4818643 -0.06017765 2.0012076 0.07674995 -1.3848046 0.634714 -0.34048602 0.8424735
141 -0.04850743 -0.94902277 1.3825363 -4.8123875 -0.25683364 -0.46599117 -1.6654276 -0.21843909 -1.7369219 1.9719236 1.5614488 0.31834355 -2.1021142 -0.9741062 0.24085982 2.4770534
32 -0.121110775 -0.8302259 1.3330177 -4.6819296 -0.3627544 -0.45763576 -1.5536859 -0.1662183 -1.8553151 1.947244 1.5529674 0.362511 -2.0726905 -0.82490146 0.41016966 2.4331594
81 -3.6418624 -0.9076861 -1.0927632 -2.648424 0.7444416 0.9152406 1.3926157 1.1550673 -0.6930615 2.8789787 2.1442811 0.8379404 -2.391832 0.7975225 -0.3270074 0.63665324
17 -3.5335312 -0.8057988 -1.1416197 -2.593846 0.8018816 0.88888043 1.2413334 1.2075672 -0.67925435 2.6904511 2.1382344 0.77329224 -2.3146968 0.7240576 -0.34672755 0.5161923
156 -2.299471 0.049079783 -0.8454337 -0.13183445 1.4925479 1.0084964 -1.2529099 -1.6521094 -1.7216388 2.0182858 0.96716064 0.33948082 -1.9988862 1.1606076 2.0453684 3.3594751
34 -2.2569566 -0.05590469 -0.88167596 -0.3870204 1.5562469 0.9655801 -1.1870615 -1.8282775 -1.6319284 2.1502635 1.008114 0.38603795 -1.9409049 1.1693305 1.8820723 3.358555
124 -0.040172376 -0.17254253 -2.8663812 -3.2030644 -0.4995562 1.5037098 1.449975 -0.5527431 -2.1046033 0.41102585 0.5474821 1.1413946 -1.6857756 3.038147 -0.044417877 -0.36404228
115 -0.23531514 -0.0010948228 -3.01226 -3.213928 -0.6654117 1.5832466 1.5947784 -0.29185057 -2.1774623 0.37418124 0.5064825 1.1747179 -1.8356543 3.0839844 0.026882242 -0.4912441
26 -1.09581 -2.545041 0.60383743 -2.8806894 0.49009454 0.5992738 -0.393143 -1.6464673 -0.47920296 0.65182906 1.7264702 -0.26645982 -0.25936803 2.0762203 2.1472666 -1.941809
52 -0.77370894 1.9124323 -0.45511255 -2.4136035 -1.2556899 -0.061189614 -0.86219615 -2.2972367 -0.24717435 -0.6595085 1.2351476 -0.032888364 -3.1176229 2.9024706 1.2453976 1.1122304
22 -0.7401643 -0.9389948 -0.4446221 -1.7572008 0.21067558 -0.8154179 -0.02436364 -0.3685952 -0.11286527 0.7193657 -0.6360561 -0.82877886 -0.5351652 1.4967024 0.13056335 1.009564
29 -0.7229028 -0.8755697 -0.527624 -1.6547173 0.16966897 -0.820336 0.056040492 -0.29943898 -0.06299882 0.72927934 -0.7452551 -0.84825915 -0.6588222 1.5102646 0.20910329 1.0296617
111 -0.673699 -0.9069637 -0.41747254 -1.6770954 0.10999146 -0.75855243 -0.0050801733 -0.35561424 -0.10031693 0.71346295 -0.70859337 -0.7822607 -0.6387481 1.5007726 0.20065506 1.0797889
121 0.13536626 -0.09332291 -0.17847474 -1.3791473 -0.71353334 -0.8649503 1.1331028 -1.5069705 -0.00073777133 2.5016654 1.5825511 1.6974518 -0.80147934 2.3312204 1.4758878 0.653029
143 -0.058520366 -1.6463441 -0.6762343 -0.4163264 -0.444158 0.11089461 -0.30513614 -0.75160974 -0.5328759 -0.06390122 2.012187 0.06380141 -1.4147999 0.6821892 -0.3709164 0.8143906
42 -0.10545406 -1.626684 -0.58303505 -0.42111272 -0.50232536 0.18888895 -0.22639607 -0.716416 -0.52189964 -0.07351288 1.9556594 0.06072725 -1.4515066 0.6449917 -0.35373405 0.8396181
148 -2.8103373 -1.1784285 -3.0280302 -1.5782559 0.8062347 -1.2199862 1.5649145 -3.5676854 -1.6890521 1.2492559 1.321461 0.7562438 -0.48606807 0.44386598 0.7086923 -0.13155794
18 -0.6295315 1.824035 -0.34231767 -2.2079492 -1.153078 -0.08660669 -0.9562167 -2.2033463 -0.20239687 -0.6164076 1.1768534 -0.1026039 -2.9970145 2.8350332 1.2028378 1.106086
150 -0.112270474 -1.5944749 -0.51264656 -0.43332562 -0.53861874 0.17811687 -0.19305062 -0.7322331 -0.59855765 -0.06382743 2.0406423 0.069335006 -1.394521 0.64636606 -0.26700947 0.9090747
164 -0.7396089 -0.8840621 -0.5081222 -1.665335 0.19972369 -0.82439435 0.05388487 -0.30120236 -0.07834738 0.6845112 -0.74269456 -0.8312002 -0.6218492 1.5703762 0.12324896 1.0291305
40 0.20640168 -0.23176363 -0.16474701 -1.361154 -0.61997277 -0.8945237 1.1937305 -1.5051911 0.07593961 2.4485476 1.5208559 1.7009108 -0.7475875 2.2783303 1.3609148 0.62913764
126 -0.038447853 -1.6445304 -0.6102738 -0.42568633 -0.5289148 0.13673356 -0.25556615 -0.7627362 -0.52374816 0.007340121 1.9740824 0.10486047 -1.4362614 0.6484942 -0.3800708 0.8072921
114 -1.09459 -2.6136477 0.5169742 -3.084946 0.5251209 0.5426308 -0.24003965 -1.7610372 -0.57154506 0.7428902 1.7593973 -0.40508744 -0.34754834 2.1652093 2.2470882 -1.9563721
7 -0.70643765 -0.95905304 -0.55368686 -1.6082627 0.17410848 -0.81946087 0.08339808 -0.3368982 -0.07694085 0.76546 -0.7470708 -0.8506009 -0.5526622 1.5161225 0.15976049 0.97989285
106 -2.2786818 -1.8414978 -0.24313083 -3.1159348 1.5744727 0.5601324 -1.6886295 -2.6040456 0.54806036 0.708064 0.56892186 1.5436002 -1.0303463 0.13264093 -1.217375 0.66039115
84 -0.06002087 -1.5573709 -0.58090407 -0.4305086 -0.44591343 0.05585018 -0.29156706 -0.726747 -0.5545826 -0.11110465 2.0402777 0.06903052 -1.4607847 0.63347226 -0.2863777 0.8755562
55 -0.67102295 -0.9785553 -0.42353576 -1.6297656 0.19358915 -0.79177564 0.06112966 -0.33409008 -0.13508868 0.74551445 -0.73260003 -0.8309287 -0.6365167 1.4673476 0.18245023 1.0885758
104 -0.73857296 -0.9420702 -0.46219468 -1.7005432 0.21915196 -0.80252814 0.038210563 -0.36416408 -0.14445715 0.6930006 -0.7277144 -0.8561306 -0.6710576 1.4820925 0.13912418 1.0651078
100 -0.07195085 -1.6064823 -0.5251962 -0.44172603 -0.50054705 0.1749988 -0.22910897 -0.69275826 -0.5121745 -0.04683328 2.0047011 0.08602742 -1.4471271 0.5981769 -0.32286835 0.8585628
85 -2.090909 -1.1509936 1.5061566 -0.93547595 -0.9442165 2.2959485 2.3290646 -2.0062764 -0.46791968 1.405043 -0.017472936 -0.19295509 -2.7804568 1.6891797 0.14749493 1.5611728
162 0.79429245 -0.009442213 -1.476261 -0.536289 0.54722124 0.9247745 -0.006275257 -3.4143357 1.4463699 0.9866917 0.37863567 0.20647696 -0.9631753 2.1492543 -0.50939965 2.499938
172 -0.03421165 -1.6112305 -0.6013677 -0.37085882 -0.5484295 0.12495306 -0.28693992 -0.7393694 -0.49388176 -0.07182921 1.9656843 0.11349739 -1.4102569 0.6678808 -0.39050236 0.8521568
180 0.24343358 -0.3285344 -0.13577318 -1.4098309 -0.690139 -0.93341476 1.1053785 -1.5156906 -0.022517024 2.4627926 1.5228556 1.720561 -0.69777864 2.3446262 1.4183655 0.7126446
174 -2.2245302 -1.7530347 -0.09398965 -2.849564 1.5914505 0.61722624 -1.6392844 -2.4565258 0.62304723 0.70315105 0.56875134 1.5066109 -0.94210535 0.11502439 -1.0881087 0.5823481
125 -2.2487185 -1.1903971 1.5132186 -1.0661405 -0.97629917 2.3121204 2.4102435 -2.0216396 -0.52409315 1.3976167 0.044233534 -0.15293068 -2.8149402 1.598346 0.19691615 1.5911363
36 -0.7026643 -0.93228453 -0.49215308 -1.6564391 0.19288552 -0.75054735 0.12635806 -0.3029772 -0.03778853 0.75624657 -0.749709 -0.8419473 -0.68825525 1.4276994 0.20854081 1.0956744
57 0.86055434 -0.11650935 -1.6959133 -0.59082407 0.56349635 0.7849069 -0.056440983 -3.4309018 1.537707 0.9785038 0.4131661 0.13312061 -1.0044059 2.2906687 -0.587007 2.6773515
43 0.35767734 0.3650334 -0.897996 -1.9937243 0.7398729 0.7263963 -0.7381085 -1.4485232 -0.16179015 2.6336894 1.2517396 -0.90456235 -1.9796432 0.997034 -0.369868 -0.65487766
154 -0.697991 -0.9807672 -0.4370113 -1.6696417 0.21894248 -0.75959665 0.12518962 -0.29545447 -0.100525126 0.7437692 -0.75149304 -0.83736604 -0.65432364 1.4631858 0.17355128 1.0759559
135 -0.7179106 -0.93431383 -0.41857898 -1.6819708 0.14485015 -0.7568783 0.07710477 -0.30558848 -0.029052382 0.6879487 -0.7563821 -0.8563203 -0.6857564 1.5103319 0.15454778 1.1087481
157 -0.0658594 -1.5978006 -0.57384384 -0.43577564 -0.528081 0.13890608 -0.24686532 -0.7495435 -0.56053525 -0.029154077 1.9958997 0.09045261 -1.380505 0.6708035 -0.23568109 0.8878242
165 1.9238493 -3.531264 1.2615187 -1.9675621 -0.2609896 2.4132543 -0.032946516 0.1290709 -0.79639345 2.4960158 0.021065302 0.9402797 -0.90155715 2.8900487 1.1489952 1.3239655
59 -0.68938315 -0.951923 -0.5065184 -1.700004 0.18199892 -0.74620515 0.09431235 -0.36844298 -0.076109424 0.7448108 -0.72022057 -0.87074095 -0.6354996 1.4565892 0.155964 1.0390381
96 -0.7331984 -0.86436903 -0.48465228 -1.6860149 0.16559249 -0.709897 0.07844148 -0.29530674 -0.18981546 0.68550324 -0.69363946 -0.8262562 -0.60252786 1.5426421 0.11482788 1.0848477
98 -2.7719343 -0.998072 -2.9567964 -1.3581629 0.90080476 -0.9806058 1.4574094 -3.3450296 -1.730995 1.1829087 1.2837523 0.5569339 -0.5626547 0.36949226 0.69758224 -0.07719701
75 -0.071749166 -1.6463854 -0.65109605 -0.43778986 -0.48000863 0.15827173 -0.20008205 -0.76310545 -0.52045614 -0.077312246 1.9825342 0.07348209 -1.4182267 0.73654884 -0.387128 0.8378353
38 0.34286982 0.4282719 -0.8922873 -2.10356 0.7275993 0.72521627 -0.778789 -1.496829 -0.21832289 2.5613496 1.2713884 -0.78949296 -1.9072031 0.99402255 -0.30272707 -0.48125485
47 -0.69324756 -0.90164113 -0.43310288 -1.6823857 0.20893 -0.7520778 0.08858979 -0.29378822 -0.14787039 0.7366066 -0.706644 -0.8315304 -0.6770233 1.4682379 0.1288591 1.0766041
123 -0.117220275 -1.9279947 -1.8905613 -2.8421333 2.3194063 1.7851155 1.7551216 -0.83880454 1.6829803 -0.3055759 1.4451158 -1.0014957 -2.003488 1.5668732 -0.15047987 0.130238
64 -0.06753129 -1.6115732 -0.53200316 -0.5169536 -0.49767703 0.17351358 -0.27590272 -0.72636795 -0.4699061 -0.1156288 2.0329392 0.05415227 -1.4403704 0.65573984 -0.25630996 0.86832255
24 -0.6904614 -0.9118169 -0.4345538 -1.6725813 0.14588237 -0.787573 0.084117845 -0.36090153 -0.10990114 0.62550426 -0.8146329 -0.8518545 -0.6106212 1.4446489 0.156249 1.0735304
151 0.2680583 -0.28429246 -0.14905085 -1.2900205 -0.7228475 -0.9914967 1.143569 -1.6151341 0.014701752 2.5531337 1.6337363 1.7900783 -0.6117115 2.3046167 1.4533557 0.67267895
119 -0.14556856 -1.6071447 -0.52897996 -0.39450866 -0.5144662 0.18054804 -0.19801037 -0.7388168 -0.57639736 -0.023257775 2.0620265 0.010332478 -1.4586643 0.6357767 -0.28387776 0.912394
80 0.30023035 0.39255157 -0.9227429 -2.0070877 0.74901575 0.72484136 -0.7511048 -1.5038143 -0.20224202 2.5291612 1.2354474 -0.83719534 -1.8272461 0.91410017 -0.38491023 -0.59251684
178 -0.04033968 -1.5071849 -0.50971544 -0.48789117 -0.5278839 0.12984288 -0.26239914 -0.7064381 -0.47464308 -0.12686887 2.039514 0.029971728 -1.4837444 0.628872 -0.36834344 0.8632908
161 -0.1019038 -1.5831027 -0.5638348 -0.4855949 -0.46744514 0.15466683 -0.33551177 -0.7902271 -0.49207136 -0.14691995 1.9729288 0.092925735 -1.4140165 0.5829048 -0.38445535 0.86288023
78 -0.6767546 -0.8688337 -0.44468206 -1.7436033 0.1459135 -0.8528177 0.07001916 -0.30802798 -0.12783143 0.68465376 -0.74720764 -0.8402505 -0.6258176 1.5038286 0.16370879 1.1168716
133 0.0108795045 -1.6583593 -0.52560914 -0.40576267 -0.50635546 0.12509258 -0.2802204 -0.6920902 -0.43735904 -0.10076152 1.9937748 0.04443505 -1.4822526 0.7028773 -0.35823563 0.8469768
53 -0.03134268 -1.5569639 -0.49856773 -0.39507583 -0.55934805 0.13991855 -0.1526196 -0.7492404 -0.49596408 -0.055553608 1.9899095 0.091335446 -1.4512296 0.7575547 -0.31363234 0.9132054
171 -0.69806594 -0.94376606 -0.49374864 -1.6923854 0.28443432 -0.7731473 0.10844321 -0.32231247 -0.12241315 0.7240263 -0.71196693 -0.7960062 -0.6005984 1.4841657 0.17075944 1.0620943
39 -0.118582696 -1.6150783 -0.5532546 -0.42204455 -0.5336585 0.16069221 -0.18340355 -0.70083696 -0.53951186 -0.089898154 1.9853072 0.05606602 -1.451923 0.70320964 -0.30340773 0.85179055
65 -0.06969731 -1.6415696 -0.50498265 -0.42594588 -0.5566069 0.14949176 -0.21278109 -0.7713304 -0.4629655 -0.07835983 1.9520297 0.10727423 -1.421686 0.72399163 -0.3470864 0.8445509
118 -0.7271012 -0.8893421 -0.46110165 -1.656618 0.16073671 -0.76181936 0.086949624 -0.3055062 -0.17075658 0.7143031 -0.72206914 -0.8533549 -0.65151834 1.485061 0.18367903 1.074977
56 0.4063401 0.40537462 -0.7807351 -1.9591529 0.7350255 0.7243352 -0.7927452 -1.4247613 -0.15403368 2.6178277 1.1982242 -0.758065 -1.9274497 0.96731263 -0.32776573 -0.56382984
28 -0.7099632 -0.9030777 -0.58162177 -1.645356 0.22895472 -0.84118 0.1201438 -0.3393089 -0.08987471 0.7213658 -0.7417527 -0.8486631 -0.7252172 1.5433034 0.11432353 1.0498157
44 -0.6765689 -0.9070813 -0.4258452 -1.7005371 0.22476654 -0.76363945 0.05352765 -0.3579192 -0.031333413 0.70736027 -0.68537736 -0.78500676 -0.6450527 1.4744623 0.19840786 0.9716033
6 -0.72882044 -0.85438925 -0.5800357 -1.7399338 0.18838178 -0.84040844 0.09149793 -0.31420225 -0.1049589 0.7057307 -0.69527274 -0.8478239 -0.65174824 1.4930875 0.100163475 1.0145173
175 -0.058937605 -1.594253 -0.56343085 -0.42348516 -0.5039212 0.15359889 -0.25340512 -0.76186407 -0.49974424 -0.06695602 1.9996285 0.066668406 -1.4171597 0.6824294 -0.30755207 0.9091999
127 0.38154575 0.3948879 -0.9948336 -2.0741131 0.76896125 0.7499143 -0.83408695 -1.4886047 -0.24345602 2.5563657 1.311137 -0.92858195 -1.9659052 0.98983485 -0.32683605 -0.61778444
3 -0.015992256 -0.016277224 0.02693578 -0.0075912094 -0.021617606 0.005324764 0.02659747 0.014678574 -0.0013634828 0.014787149 0.009167853 0.0082037905 -0.0040887324 -0.024610793 -0.030362701 0.0040555536
94 0.013140549 -0.0006642349 0.020101693 0.024825158 -0.022508586 0.0023058432 -0.02017818 -0.014777764 0.028351778 -0.024476359 -0.030745417 -0.013044521 -0.0006343628 0.027873795 0.013837393 0.029786391
19 0.030958163 -0.0034699347 -0.02940072 -0.02788234 -0.025169898 -0.01885672 -0.024211803 -0.013301593 -0.00014326454 -0.024951393 0.024275197 0.007866892 0.0041917446 -0.022368763 0.006913079 0.022942549
169 -0.0006283916 0.030072743 0.020647991 -0.018272433 -0.013631585 0.0129039865 0.0031848303 -0.0194397 -0.011412647 -0.024778377 0.02187718 0.0017127314 0.017728314 -0.02328894 0.02857783 0.00091048743
71 -0.0020158603 0.0035858043 0.018329546 0.010458245 -0.029285671 0.0043132254 0.014982672 0.0019074004 -0.021604579 0.028000541 -0.02618135 -0.005386067 -0.025777714 0.024883918 -0.008166744 -0.0014378662
163 -0.012754555 0.0054996526 -0.027421663 0.020586334 -0.017005118 -0.020103931 0.020422548 -0.021903995 -0.009591033 0.029031731 0.0022790423 0.029353678 0.02621308 -0.013421144 -0.021774504 -0.00777522
140 -0.0029244022 -0.028447254 -0.012601033 -0.013903988 -0.02103175 -0.01109621 -0.028550187 -0.029104503 -0.011171276 -0.00059722713 -0.0035165257 -0.01741123 -0.0004190002 0.008291918 0.019529792 0.00019916755
138 -0.009449007 -0.00060475105 -0.012972182 -0.012519361 0.030262312 -0.009659308 0.01163924 0.023115644 -0.031152025 0.006475396 -0.020781128 -0.011419588 -0.0043025473 -0.022946503 0.012942746 0.029009754
30 -0.01644409 -0.02013798 0.022113789 -0.0005030817 0.009471309 0.025603905 0.031183282 0.010328813 0.02292185 0.027078332 -0.00903064 -0.023348924 0.0102706365 0.02528502 -0.009161355 -0.017810093
99 -0.0039827772 0.0076856418 0.025796333 -0.011868428 -0.025240473 0.026101442 0.027846767 -0.028255347 -0.02103773 0.024958672 0.031210288 -0.030927684 0.00685524 0.026023433 0.0072931615 -0.025219057
144 -0.020190446 -0.012268934 0.030784167 0.0016098287 0.029617265 0.010987543 -0.014760825 -0.006653633 -0.010008307 0.022455491 -0.007483366 0.020294584 -0.007853936 -0.00573217 -0.02613193 0.01266744
107 0.019782418 0.004575283 0.014369763 0.018961737 -0.013211095 -0.008520535 0.015216488 0.026729332 0.012125982 -0.022070581 -0.0042229467 0.027534045 0.012868092 0.009569445 -0.024187079 0.0004830316
67 0.020140465 -0.026551219 0.015647637 -0.0112235695 -0.0038576163 0.03025941 0.023111869 0.01757346 -0.026933169 0.00029063568 -0.007728165 -0.017733224 -0.021110483 -0.022600686 -0.025983457 0.029684104
11 -0.0090053305 -0.004196772 -0.0046719965 0.02314635 -0.021489276 0.01270719 0.01870368 -0.029929157 -0.003731566 0.0042417804 -0.019374965 0.012538464 0.009564175 -0.0073130853 -0.002356078 -0.0021845174
117 -0.011127715 -0.01159828 0.007922788 0.006817728 0.015400338 -0.02110222 0.020766988 0.009138861 0.00769654 -0.0064972667 0.01490998 0.016595513 -0.028462412 0.014032562 -0.027063424 -0.0052374676
46 -0.02119497 0.0036671755 0.013867673 -0.011418739 -0.019228783 0.010982101 -0.012726897 -0.021377547 -0.016914098 -0.009653387 0.027624141 -0.020225564 0.0028794329 -0.004667588 -0.02257267 0.01897373
90 -0.012268856 0.007844061 -0.02733151 0.02386251 0.0063618226 0.028273853 0.0122573385 -0.027727129 0.016560903 -0.017255405 0.014199655 0.006271683 0.022216419 -0.0016203234 0.03029538 -0.015056629
147 0.01078556 -0.016603636 -0.019822178 -0.017216116 -0.025841333 0.025930796 -0.011419702 0.0018702119 0.027642047 0.014951013 0.01833391 0.01732537 0.01891362 -0.013775884 0.02516376 -0.013962219
93 0.016770078 0.0023922343 0.0026842013 -0.02257013 0.013203619 0.0084008165 -0.029048104 -0.0035937415 0.012686255 0.031235885 -0.008783815 0.0165238 -0.02682917 -0.024773015 -0.009148842 0.014656406
116 0.00859726 -0.002074684 0.028229907 0.02507136 -0.020880314 -0.028484235 -0.0142316045 0.0142550375 -0.014039669 0.009064102 -0.008775402 0.020439886 -0.01218959 -0.028706696 -0.006140251 0.0066001965
2 -0.030137861 -0.0026314296 -0.02906899 0.0016415918 0.0058102594 -0.0007238104 0.016777221 -0.024513142 0.0074321744 0.01437576 0.020399354 -0.00957765 0.029223697 0.022817763 0.024733571 -0.0011953103
50 -0.019805409 -0.023962043 0.017133843 0.007933881 -0.017971959 0.0021071725 0.010088277 -0.01563481 0.0045837127 -0.013565939 -0.007226672 -0.025285052 -0.011581583 0.021468228 -0.031153688 -0.02839766
168 0.016350765 -0.023426093 0.015870554 0.009450882 -0.030859323 0.009997573 0.004500507 -0.0077621145 0.0018349063 0.024304157 -0.005667042 0.020717897 0.00040317947 0.018048583 -0.023902813 -0.012494009
131 0.013020368 0.0076398184 -0.019578118 -0.021658435 0.02310255 -0.014090071 -0.013475387 -0.019902805 -0.0022808856 -0.016188517 -0.022769868 -0.0068327384 0.012771404 0.010668715 -0.0035136067 0.0019383704
92 0.019932304 0.011454371 0.029319597 0.030064955 -0.011713832 0.012897039 0.0054167835 0.008119188 0.0091353655 -0.027435575 0.019059679 -0.018708223 0.008783472 0.009065137 -0.0043436987 0.024228714
95 0.011643254 0.02084928 -0.015961876 -0.019808691 0.0170655 -0.014217635 -0.018268706 -0.025298323 -0.01811301 0.020156464 -0.01418216 0.02640564 0.0032037292 -0.02404172 0.003028737 -0.025877139
153 -0.01460007 0.001352927 0.011030873 0.029665072 -0.001090474 0.00027946496 -0.0040477724 -0.014511344 0.021359641 -0.0033706848 0.027733596 0.010921641 0.01682213 0.011240667 0.016698096 0.0040845647
69 0.007821817 0.004330384 0.019402284 -0.028431501 -0.0011813157 -0.0077861245 0.018390117 -0.023242414 -0.0019627893 -0.014084811 0.0017474083 0.022291083 -0.004469545 -0.007938864 -0.01322253 0.022040166
60 0.014529656 0.016751217 -0.030427966 -0.020656375 0.01553071 -0.0066543296 0.005365452 -0.02697497 -0.004488064 -0.02106625 -0.00016691121 0.013042731 0.019690752 0.0048104157 -0.00088910945 -0.015697015
86 0.025267519 -0.01984637 0.019450346 0.020810947 -0.024388503 -0.0019761948 -0.017688608 0.00632797 0.005168043 0.020206206 -0.011739198 0.0010701924 -0.02738464 0.027908219 -0.028527923 0.017329223
45 0.0135895545 0.0072497795 -0.016255729 -0.025334768 -0.009985361 0.008478536 0.0027503637 -0.02133361 0.023458656 0.008370147 -0.027624998 0.008963915 0.015613379 -0.0224596 -0.0268089 0.014384086
177 0.018782219 0.017230947 0.02385329 0.02373425 0.009441011 -0.026375663 0.02900941 0.020475721 0.0010343461 -0.027328193 0.01814423 0.01236349 0.00879702 0.004214943 -0.015370559 -0.006451613
179 0.0035484873 0.02656785 -0.025250677 0.00250016 0.0142793385 -0.00241532 -0.016171267 0.0047541736 0.008717273 0.014834419 0.028809572 -0.02207481 -0.028633265 0.0027335933 -0.017467683 -0.009394025
1 -0.00092229253 0.025065882 -0.0068218415 -0.029297525 0.0008532273 -0.0036441502 0.015495703 0.006018017 -0.014420612 0.006724022 -0.0017775496 -0.0040619564 0.0019719873 0.009974376 0.01967498 -0.0012799813
31 0.027444001 0.02990174 0.026258582 0.022785189 0.0005582881 -0.030765716 0.01237431 0.0125762345 0.018304015 -0.010168261 -0.02012895 0.027022796 -0.009215589 0.0033209212 -0.031023486 0.0131687485
41 0.011822922 0.004313191 0.009470371 0.0065618632 -0.028732825 0.005052957 -0.008023584 -0.013516965 0.0058999103 -0.024673885 0.022630133 -0.029375292 -0.0035558203 -0.019856974 -0.011077008 -0.022238627
91 0.0065946165 -0.01501447 0.020299232 0.02330274 0.022512296 -0.0015567809 -0.018189507 -0.008964098 -0.008872088 0.02134152 0.008248673 -0.0135770235 -0.026029 0.028655102 -0.024012683 0.024279088
68 0.02929851 -0.001300204 -0.0053481017 0.03078752 -0.025376478 0.014334768 -0.026628364 0.0057052267 0.013900478 0.009025864 -0.02620007 -0.0076182354 0.0023375684 -0.017997645 0.006480499 -0.0074731405
4 0.030836813 0.011818238 -0.008173914 0.02193282 -0.028853659 0.015574077 -0.015740024 -0.025884118 -0.00032047817 -0.030062461 -0.016507486 -0.008286501 0.024383284 -0.023564436 0.01787995 0.0020123557
20 -0.02109503 0.013801263 -0.017078305 0.009536183 0.022076953 0.030540705 -0.02620268 -0.0038125892 -0.016796442 0.029006468 -0.007948691 -0.014670472 0.029212108 0.009649716 -0.027286766 0.023445185
173 0.015017536 -0.02919918 -0.005936835 -0.010361467 0.015086545 0.011904736 -0.015133098 0.020605618 0.0075721294 -0.024790734 0.023760973 0.002309256 0.026668543 -0.0048137535 0.021167379 0.028446656
83 -0.005913727 -0.010901806 0.008887183 0.027450759 0.006865108 -0.021505548 -0.00154254 -0.0097173685 -0.008038173 0.014968951 0.023025775 -0.020948213 -0.0068602148 0.009472772 -0.014545636 -0.0027128474
120 -0.018670052 -0.028262401 -0.021942796 -0.019794926 0.025812162 0.021364678 0.010577701 -0.020987086 0.014336683 -0.007829683 0.020556271 -0.019590436 0.0008258177 0.025961332 -0.021615183 0.02758855
167 0.025872063 0.02040688 0.019338833 0.024404444 -0.027869249 -0.017737221 0.017367551 -0.00039936052 -0.011193201 -0.021778738 -0.020695945 0.0053044246 -0.014605219 0.027409608 -0.017681193 -0.023374043
51 -0.005242861 -0.020980509 -0.02784414 0.01282717 -0.0005456349 -0.030867014 -0.015038515 0.008171086 0.015930964 -0.026488278 -0.030908298 0.015539563 -0.0007811562 -0.017759806 0.015443667 -0.017649619
