43 64
钟晓鸿 0.16040626 -0.20476876 0.55095166 -0.11218488 -0.5678668 0.3352136 0.07672479 -0.12068075 -0.102272645 0.58379793 0.08417684 0.08206233 -0.6778435 -1.0276409 -0.08446524 0.4726208 -0.04662525 -0.3712961 -0.14694941 -0.27672225 -0.110363446 0.7109779 -0.35854352 0.039858613 -0.0671007 0.11012222 0.14096178 -0.73366433 -0.17549399 0.5876688 0.5345867 0.13152584 0.1260393 0.66562617 0.15835503 -0.8614541 0.53940445 0.53119105 0.32488272 -0.29031962 -0.027194139 -0.4121301 -0.106500894 -0.14550158 0.8124014 -0.1638245 0.45902985 0.31524166 0.0459222 -0.21698709 0.6881559 -0.4816454 -0.025902595 0.5583444 -0.20031457 0.1818743 -0.2979337 -0.116988726 0.12323579 -0.2801578 -0.14059137 0.3424662 0.45126233 -0.3675511
郑小霞 -0.14456722 -0.8646368 -0.19621031 -0.6055329 -0.0484156 -0.23014905 -0.21424268 -0.026858611 0.45575976 -0.14194596 0.011255935 -0.18444298 -0.6909779 -0.40868872 -0.44512546 -0.43505597 0.1274746 0.26520994 0.6528875 0.07654345 0.15220806 0.1725486 0.5076933 -0.17802252 -0.78095156 0.25056237 0.08978185 -0.58187294 -0.68601227 -0.25917268 0.7616028 0.3566904 0.03161109 0.43703684 -0.45512724 -0.5230999 0.22940975 0.799583 -0.15214886 -0.8062672 0.022846984 0.41403 -0.1426559 0.29613796 -0.24981777 -0.06343082 0.24041621 -0.091418825 0.20035721 -0.56848764 0.01876392 -0.15401196 0.5841602 0.3404348 -0.22689342 0.60660255 -0.23005056 0.43520513 -0.89323294 -0.52412605 -0.5575591 -0.097558975 0.50241786 -0.76705873
刘世会 -0.122760005 0.035999425 -0.2336137 -0.44282553 -0.59709007 -0.08528108 -0.0022812712 -0.16135845 -0.12279503 -0.028808365 -0.111229375 -0.33748987 -0.60226774 -0.3833799 0.57496274 0.15635352 -0.20784615 0.63102853 0.69446063 -0.096527964 0.213999 0.17758432 -0.12442263 0.1902343 -0.018902076 -0.6259349 -0.021258542 -0.14168598 0.041947935 0.28820425 0.5211982 0.29624856 -0.07201945 0.34242544 -0.31804997 -0.6046451 0.09113433 -0.31694615 0.67516935 -0.0058643427 0.35719836 0.30790237 0.26945952 0.25593925 0.60471165 0.46648812 0.31722054 0.18010317 0.66427577 0.3999795 0.11897569 -0.8112847 0.3920287 -0.027472788 -0.0027978336 -0.26365364 -0.22871566 -0.325568 -0.43949872 0.19420026 -0.59591913 0.27624947 0.47823608 -0.40589586
林翰章 0.12879963 -0.19245923 0.485088 -0.11765391 -0.50679004 0.29886332 0.043340724 -0.08675883 -0.11235731 0.5138895 0.08410874 0.056191973 -0.62645704 -0.94771725 -0.07324006 0.43867168 -0.07113584 -0.3053892 -0.12259823 -0.2581932 -0.11087851 0.67048365 -0.3475225 0.017368887 -0.07370963 0.08746114 0.12309452 -0.6771409 -0.17988385 0.54473066 0.4918026 0.11138749 0.11098325 0.61040074 0.13408864 -0.78187764 0.49785516 0.47009784 0.31709218 -0.26867238 9.511161e-05 -0.31756744 -0.09055868 -0.12850611 0.7310377 -0.15155539 0.44393414 0.26966056 0.06594358 -0.17779756 0.6207597 -0.4356932 -0.017085513 0.5109673 -0.1927469 0.17466477 -0.27445847 -0.065669276 0.07424157 -0.28243053 -0.14309654 0.2986679 0.4429364 -0.33637536
郭建 -0.15264574 -0.6366703 -0.13827984 -0.4474134 -0.049531497 -0.14792651 -0.1934335 -0.029408168 0.3231509 -0.06919051 0.03584696 -0.13394178 -0.50623256 -0.32957518 -0.3168653 -0.29522744 0.081740364 0.17217736 0.4825248 0.047223017 0.08890413 0.1291357 0.37296867 -0.12637897 -0.5844062 0.17193463 0.03942476 -0.42282534 -0.4972155 -0.16036917 0.5377076 0.2606579 0.032174073 0.33297893 -0.33265525 -0.38770607 0.18471757 0.58610976 -0.113258645 -0.5850152 0.014541611 0.29317254 -0.11227659 0.18628527 -0.16968596 -0.047750674 0.16642888 -0.08301886 0.14636973 -0.41970134 0.023313733 -0.10921401 0.4301806 0.25542668 -0.1436833 0.45600024 -0.16640459 0.31521136 -0.6648552 -0.3900471 -0.39106035 -0.05343101 0.38652438 -0.56661314
张亚立 0.6966547 -0.14637052 -0.20872326 -0.3709987 0.282188 -0.2191066 0.036944885 0.47401395 -0.37103304 0.026080653 0.57120436 -0.027755128 -0.51362675 -0.42571765 0.22763549 0.12777884 -0.21968126 0.47736 0.4485964 0.028847773 0.05349583 0.7097684 -0.5329723 -0.5121568 -0.4088451 -0.25688812 -0.122367695 -0.74824506 -0.33498207 0.2983497 0.8059843 0.24989483 0.19481999 0.28708413 -0.27888086 0.022643846 0.2720429 0.110306144 0.042362086 0.26257527 0.6709435 0.87806463 0.4598156 -0.022413708 0.27230072 -0.40925783 0.55087185 0.4360972 0.3945577 0.6864856 0.7007421 0.141712 0.15795207 0.037626907 -0.36635005 0.5529838 -0.409248 0.57361484 -0.92248344 -0.25141487 -0.70093966 0.23438364 0.9858295 0.09737457
王东 0.57095873 -0.71581674 0.046883687 -0.62924105 -0.35761937 0.1541903 0.0008579829 -0.053959195 -0.3216615 -0.3689139 0.56583935 0.39007148 -0.380414 -0.8360873 -0.63724476 -0.1874134 0.31447113 0.21019848 -0.20408443 -0.3642031 0.19509946 -0.13360937 -0.49676704 -0.46824113 -0.35809994 -0.4681229 -0.4194812 -0.9561906 -0.7165919 0.4692249 0.34860754 0.1805154 0.5156744 0.68445003 -0.40158713 0.014850475 0.59813815 -0.43577224 0.5100006 0.0799155 0.76923186 0.51363295 -0.4430853 0.56697005 0.7509406 -0.377269 0.45584726 0.3144866 -0.1921594 0.54609257 0.26994652 -0.5426961 0.43191734 0.08694553 -0.4917026 0.3049576 -0.13211226 -0.094862096 0.023574002 -0.19689584 -0.18185101 -0.4206233 0.73819023 -0.7809478
李郑祥 0.42864102 0.18991539 -0.4195834 -0.036814895 -0.28942207 -0.20064981 0.18350756 0.0052742735 -0.08737165 -0.2991555 0.34956887 -0.42776403 0.33312282 -0.16377732 -0.22144045 0.025903622 -0.2740507 0.57615167 0.23618734 -0.009832026 -0.10607412 0.13756528 -0.64301693 0.23208345 0.0067815976 -0.080466494 0.49916515 -0.54705656 -0.21611196 0.60997325 0.51670545 0.18916273 -0.24885146 0.07588307 -0.0043883775 -0.49436685 0.38557026 -0.42816368 0.5711622 -0.61517704 -0.054187365 0.566714 -0.21750598 0.102178454 0.14568198 -0.17973524 0.7672751 0.02182863 0.56901115 0.41683865 0.31299126 -0.5940265 0.048182577 0.46337306 -0.1588885 -0.28214207 -0.47158593 0.51001203 -0.5066134 -0.49333036 -0.4880568 -0.2403195 0.7041903 -0.122068204
张学凡 -0.11609434 -0.15059206 0.0003714549 -0.31861433 0.023533346 0.109883875 -0.39601997 0.056839425 0.299074 0.16353244 -0.014620468 -0.16182187 -0.4513676 -0.13467841 0.514251 0.0543766 -0.12590037 -0.30147442 0.3585124 0.083704 0.18549691 0.75127554 -0.04417548 0.44151178 -0.8706546 -0.23706377 -0.0019524979 -0.4916657 0.06146951 -0.24416803 0.3604244 0.17297922 -0.21513666 0.2196061 -0.29139906 -0.16472742 -0.3715931 -0.1761503 0.048428353 -0.72549826 0.5293654 0.36389175 0.40216073 -0.13196583 0.72149974 0.31465462 0.08806977 0.1982074 0.2798182 -0.37831503 -0.0070663695 -0.9290401 0.27896956 0.33101976 -0.5577539 -0.3541012 -0.09106888 -0.36032093 -0.27867967 -0.7157953 -0.018683115 -0.07516693 0.16457294 -0.08029199
朱文芳 -0.13330944 -0.14768283 -0.021997437 -0.33044064 0.04797946 0.110108025 -0.4372284 0.050163254 0.35395515 0.16700448 -0.032666627 -0.17200394 -0.4560325 -0.08829834 0.58889747 0.062953174 -0.14344794 -0.33629194 0.40936303 0.11992827 0.20866019 0.78404033 -0.024812387 0.48907903 -0.92203474 -0.26614353 -0.0077566556 -0.48890004 0.10438704 -0.2762023 0.3844479 0.19771206 -0.25495383 0.24629821 -0.30646282 -0.14099997 -0.44430637 -0.21126927 0.018652929 -0.76694745 0.567646 0.385261 0.46487844 -0.14459412 0.77694696 0.337583 0.065620825 0.20800471 0.30072594 -0.4148458 -0.0397668 -1.0047711 0.290553 0.33630326 -0.59935826 -0.37791285 -0.09950664 -0.4001592 -0.29576138 -0.75098056 -0.022442188 -0.08154548 0.14659232 -0.07256292
刘初汉 0.4357414 -0.05047077 0.05392866 -0.44469234 -0.20224655 0.2676812 0.3644451 0.35596472 -0.25108036 -0.08262355 -0.16329673 -0.16576652 -0.28118387 -0.8608526 -0.5291533 -0.29787585 -0.050059568 0.61125314 0.15556976 -0.46175128 0.6177955 0.43011028 0.30771896 0.4182629 -0.91040915 -0.15136738 -0.33492213 -0.5776058 -0.5881527 -0.30685395 0.39014187 -0.4337244 0.65433586 -0.13989164 -0.48345926 -0.54516613 0.06952423 0.49850953 0.34670922 -0.020605681 0.23370293 0.4417048 0.21745057 -0.11027573 0.6737151 -0.032250106 0.6994694 0.06801915 0.62943614 0.5834531 0.075044684 -0.6597642 0.68047696 0.54216117 -0.59825397 -0.30515367 0.36168298 -0.46232587 -0.5133072 0.16931541 0.10724993 -0.15067759 -0.24917743 -0.030604756
于宝明 -0.19936983 -0.25821194 -0.36094153 -1.0169529 -0.5339828 0.6146787 -0.006155223 -0.15341459 -0.14347628 0.39523503 -0.41911557 0.14747547 -0.15296131 -0.9889736 -0.123494476 0.33840248 0.07265284 -0.25473082 0.41245314 0.39674684 -0.0065026414 0.52912205 -0.36956343 0.5743116 -1.1128424 0.62505794 0.3390599 -0.07098458 -0.2117623 0.7470701 0.107104786 -0.6709131 -0.17887914 -0.12156612 0.15587324 -0.608154 -0.5049015 0.5534544 0.41110694 -0.2662225 0.22355127 0.42238122 0.11489324 0.15147552 0.14173208 -0.2817882 0.49214783 -0.5854986 0.69020677 0.051910203 -0.2210511 -0.74890286 0.011502368 0.22469437 -0.59751093 -0.47726968 0.16540654 0.18477112 -0.663702 -1.1454585 0.21861461 -0.09445692 0.50695974 -0.4805878
肖民 -0.5933542 -0.7044821 0.4608669 -0.5373757 -0.46899974 0.065819375 -0.6803722 0.5064342 -0.03229132 0.5607454 0.66231537 0.00443248 0.07050691 -0.0905758 -0.21687002 0.4548791 -0.5033413 -0.34484938 -0.32475927 0.09497634 -0.37736207 0.7677069 0.22390552 -0.02477447 -0.9745934 -0.65415436 -0.21200345 -0.19964427 -0.65584594 0.25389212 0.064755835 -0.1419642 -0.048234854 -0.33634448 0.28208396 -0.6923368 0.2469227 0.039942198 -0.07132472 -0.70992017 -0.18268856 1.0291346 0.1811423 -0.31627518 0.07510568 0.38582754 0.3510167 -0.07332679 0.8026779 0.14062841 0.49410182 -0.1689334 0.4635299 0.0074947616 -0.6089775 0.1756539 0.31537187 0.07683465 -0.33317682 -0.39907613 0.019529274 0.017103197 0.95173 -0.408263
曾岳雄 -0.55550957 -0.14610209 0.23924027 -0.20773014 0.5286261 0.6209944 -0.72432643 0.14447588 -0.2979709 0.31275606 -0.020865181 0.106820546 -0.71766007 -0.6792598 -0.33996153 0.3805743 -0.21914262 0.0010457525 0.37812126 -0.617783 0.5281048 0.6176127 -0.021412643 0.36366773 -0.5889494 -0.15659119 -0.5250344 -0.75852066 -0.180889 0.34521657 -0.19002673 -0.23835966 0.49835238 0.05991415 0.16653578 0.31317863 -0.0843794 0.26269922 0.66947335 0.20474339 0.35962716 0.1842229 -0.1304046 -0.4923901 0.33886364 0.6731779 0.28475592 0.6537822 -0.20681034 -0.21430793 0.6101726 -0.9524214 0.11976116 0.31513414 -0.25129992 -0.04090577 0.05357453 -0.24749045 -0.55391073 -0.60027343 0.12543762 -0.46601844 0.47982395 -0.56639475
廖远飞 -0.6034433 -0.26668543 0.25257102 -0.08238281 0.14025116 0.3579749 -0.47552136 0.49301517 -0.42647377 -0.21244079 0.13390072 0.052592047 -0.45998153 -0.7988431 0.42476 -0.24858628 -0.5760415 0.047957767 -0.34927478 -0.35610405 -0.079792246 -0.10692695 -0.5281946 0.12946223 -0.3368225 -0.17334759 0.003339945 -0.7488054 -0.17687099 0.41634196 -0.21036398 -0.44075438 0.23663622 0.10523219 -0.53386515 -0.5848204 0.60870457 -0.35051927 0.6557227 -0.6621101 -0.19973771 0.2517119 0.008514042 -0.2669717 0.5847314 -0.03592028 0.28150177 -0.29093397 -0.16905288 -0.013106666 0.15835774 -0.46282622 0.6798105 0.21179399 -0.31732458 0.10735585 -0.14737003 -0.49482358 -0.70179516 -0.1904036 -0.02471589 0.27027804 0.66519576 0.16775067
聂新平 -0.004899606 -0.012522178 0.056549564 -0.16247353 -0.33855802 0.12796092 -0.4370339 0.28225163 -0.42608166 0.30077899 0.06488242 -0.5048636 -0.4453776 0.09995712 0.33659723 0.020439107 -0.40768045 0.6377444 0.5736112 -0.52294123 -0.40421933 0.19002819 -0.2978138 0.46625212 -0.91312224 -0.37623537 -0.068402275 -0.021702161 -0.4977803 -0.11351395 0.5859608 -0.19488446 -0.22964476 -0.097055815 0.044466276 -0.21338066 0.29330948 -0.1993524 0.13174413 -0.36969477 0.4379471 0.6587459 0.3744642 0.104065515 0.4390618 0.111018576 0.14185074 -0.3261883 -0.31663617 0.53464615 0.3907658 -0.21731281 -0.1559697 0.27313712 -0.6020171 -0.35319477 0.28105673 -0.0363404 -0.8016626 -0.04211351 0.083653 -0.07604142 0.42744505 -0.6115206
贾兴东 -0.1891785 -0.50914484 0.12709448 -0.45839092 0.288393 -0.066738546 -0.39114287 0.7835056 -0.49619272 0.5849864 -0.0075705666 -0.11580946 -0.39933717 -0.34477997 -0.087056026 0.2126406 -0.1710958 0.24256732 -0.4450793 -0.1871765 0.18702285 0.21048847 -0.35150817 0.12362923 -0.5741593 -0.007868884 0.5850587 -0.39094856 0.3751897 0.028837642 0.6737302 -0.31630453 0.14276606 0.5877454 -0.38298064 -0.70799065 -0.23456536 0.6371551 -0.35438672 -0.4822983 0.05897668 0.51833147 0.4714332 -0.41626418 0.4323167 0.5636959 0.6116299 0.02075138 0.37907532 -0.12652485 -0.30776343 -0.7968618 -0.2877081 0.80133945 -0.3225693 0.13093114 -0.5075986 -0.37157154 -0.46131065 -0.2469423 -0.5303358 -0.3651167 -0.14386483 -0.14778246
胡晓清 -0.37073442 0.3075825 0.52259225 -0.18280719 0.2366954 0.3428241 -0.57999915 0.81491643 0.38406044 0.2880005 0.21132278 -0.33427495 -0.045636848 -1.0236934 -0.2948044 0.3481915 -0.7910156 0.2778537 0.64530677 -0.59458053 0.47938243 0.8847401 -0.13406982 -0.05199294 -0.9301675 -0.52637684 0.63505876 0.036686268 -0.25235325 -0.44088432 0.25816417 -0.17010409 -0.02575689 0.4443103 0.14298323 -0.6216104 0.8087425 -0.1755847 0.38177353 -0.34158677 0.34078783 0.42120618 -0.2527776 0.035898197 0.35003754 -0.33846748 0.19995847 0.11317165 0.5870479 -0.11390743 -0.2344827 -0.47438064 0.19408943 0.14272851 -0.74539554 -0.06043781 -0.20918073 -0.4594064 -0.9939881 -0.38842985 0.24082476 -0.42768267 -0.07462574 0.10247271
高瞻 0.06811488 -0.10899475 -0.3655785 -0.3641735 -0.1895057 0.42704505 -0.14058998 0.24798262 -0.280813 -0.090566605 0.041058786 -0.3190228 -0.04585291 -0.49835572 -0.27239412 0.3040968 -0.539242 0.13712987 -0.29962248 0.1909311 0.54993045 0.2949814 -0.6400031 -0.31640306 -0.48261583 0.09343099 0.26382717 -0.45182946 -0.54192775 0.4202469 0.63063914 -0.06130404 -0.2966193 0.04086084 0.05409173 0.1288629 0.07841017 -0.25481263 -0.04322529 -0.21597914 0.10139497 0.6171815 0.102380484 0.0697344 0.2880416 -0.20727506 0.53856397 -0.27615002 0.28291658 -0.34353077 -0.13642327 -0.198994 -0.098627746 0.5098282 0.19237454 -0.40808445 -0.5340904 0.3995651 -0.40314695 -0.6297075 0.09394391 -0.55175287 0.5101253 -0.5945504
许露露 -0.37238923 -0.44201374 0.22389118 0.078976244 -0.07062243 0.39830914 -0.23789656 -0.08548199 -0.3221698 0.52204955 0.47995305 -0.44422287 -0.45641592 -0.4210705 0.3046423 0.10722566 -0.38187513 0.03241048 -0.17322002 -0.6733548 0.69117653 0.026898172 -0.6664798 0.10693834 -0.38229385 0.31340188 -0.37697545 -0.2150135 -0.38181376 0.033964995 -0.023512108 0.38044202 0.24593781 -0.28659979 -0.6019875 -0.5054674 0.5023771 0.15904991 0.7939495 -0.4333015 0.63221556 0.8158819 -0.07961395 -0.03343816 0.63140893 0.6638979 0.13186796 0.44693798 0.7860582 0.40685412 0.39680892 -0.9759703 0.17246774 -0.011569753 0.041856036 -0.5535469 -0.10281903 0.16435705 -0.17420304 0.010791561 -0.46821034 -0.14002876 0.3829923 -0.25575572
李福民 0.4337565 0.2063915 -0.19659285 -0.264663 -0.507385 0.36119738 -0.34248894 0.02815363 -0.40121686 -0.14755549 -0.0033275075 0.19292463 0.020792926 0.17127669 -0.16083965 0.10375372 0.28135836 0.23088273 0.03276968 -0.25981945 0.32302424 0.012369323 -0.17527014 -0.41501984 -0.9860476 -0.5533201 -0.25131395 -0.51214635 -0.055781864 0.3769226 0.20670879 0.3234937 -0.096582524 0.44428346 0.17957708 -0.21459062 0.0010451307 -0.058152564 0.47418383 -0.06701407 -0.040753603 0.81723136 -0.27752185 0.3059837 0.07109687 0.33121836 0.40879 0.3685967 0.12171724 0.14815237 0.5363261 -0.124721095 -0.13653636 0.4459203 -0.5244486 -0.036104776 -0.32531986 0.031755146 -0.4010725 -0.33514625 -0.5789818 -0.12883766 0.60026264 -0.63217247
王爱朝 0.41355765 0.16696209 -0.15891604 -0.26858902 -0.46790195 0.33285937 -0.31364822 0.029500602 -0.36853874 -0.12944102 0.040068544 0.17833066 -0.0042749806 0.10540303 -0.17140776 0.121595606 0.24720475 0.21310633 3.6254583e-05 -0.23661205 0.29911324 0.023811398 -0.18714896 -0.37918773 -0.89121294 -0.51563907 -0.21992348 -0.51731575 -0.060927212 0.37698293 0.23750605 0.3038644 -0.063976936 0.42701948 0.16318135 -0.21652812 0.03196727 -0.05891043 0.40993306 -0.056742072 -0.010410264 0.7417816 -0.23479338 0.2655066 0.11552793 0.25791508 0.41041198 0.35277355 0.12563123 0.16053152 0.509142 -0.1342936 -0.10310863 0.41620943 -0.4948933 -0.030184427 -0.32510623 0.015354618 -0.38070202 -0.32668433 -0.5327442 -0.12582158 0.56079555 -0.58444834
邱宣 -0.18371008 -0.28464577 -0.17756517 0.072850265 -0.52277595 -0.30708537 -0.6058835 0.47721267 -0.29807934 -0.5606988 0.17706418 -0.17132552 -0.33449927 -0.5227541 -0.48660284 0.5043588 -0.61791885 0.4471219 -0.15948331 -0.624557 -0.106111966 0.8588597 0.07770674 -0.24283037 -0.29047564 -0.21518637 0.48452812 -0.63842165 -0.6833541 0.30953577 -0.06017773 0.4470292 -0.14098611 0.0145561285 -0.0091635045 -0.6644863 0.45902917 -0.054492306 0.39657193 0.21842986 0.62459195 0.6363486 0.18743554 -0.35262895 -0.06458968 0.2530001 0.40421683 -0.44176528 -0.1691065 -0.2184148 0.29210246 0.20726335 0.5185098 0.65529156 -0.19578789 -0.0031260322 -0.28299403 -0.25341043 -0.62993866 -0.7154938 -0.3388798 0.15036622 0.08096673 -0.3705734
凌冲 -0.451066 -0.56868917 0.21658456 0.107818045 -0.47175097 0.05214518 -0.4513993 0.10491147 -0.07633644 -0.043468017 0.13363597 -0.26949656 -0.104493044 -0.55558944 0.17304817 0.067107596 -0.3739964 -0.14241585 0.45430455 -0.41037992 0.23230796 0.59429866 -0.36483598 0.23901492 -0.625447 -0.48965648 0.4557071 -0.61141 -0.07627409 -0.13620858 0.13301435 0.30952755 -0.28920856 0.16954589 0.070081405 -0.25847992 -0.04147183 0.1496616 0.011114207 0.06230554 0.32247195 0.73843056 0.23364022 0.39586955 -0.044096615 0.18700776 0.46129942 -0.3530264 0.09661143 0.066723324 0.36363918 -0.04519416 0.22347324 0.053859483 0.14215167 0.2413896 0.0401661 0.1592289 -0.6751449 -0.16686559 0.16662951 -0.27971295 -0.043365445 -0.31011355
黄臻 -0.45618814 -0.48179656 -0.019030618 -0.5680904 -0.49951687 0.3741496 -0.33414027 0.4311181 -0.23609927 0.21178322 0.51236063 -0.41548976 0.1882414 -0.4715672 -0.28236097 -0.3898395 0.2354756 0.15360841 -0.22825128 -0.6685163 -0.39913255 0.58979875 -0.4471224 0.21270563 -0.6504064 0.4603037 0.16090894 -0.7990253 -0.6891359 0.518124 -0.04236723 -0.20003413 -0.32457665 0.059385285 -0.22826052 -0.48110992 0.49930444 -0.17705221 0.14706108 -0.3872167 -0.16673912 0.55749553 -0.51191807 0.5373749 0.40094686 -0.32703754 0.3204441 0.0118346205 0.112891965 0.2593127 0.14274865 0.30997342 0.5842834 0.71049184 -0.2908364 -0.33623713 -0.07913188 0.48484144 0.12415989 -0.69613725 -0.39633656 -0.47204983 0.4269601 -0.017558623
尹杰 -0.5618806 -0.20045558 0.413064 -0.7125038 -0.06015203 0.11553397 -0.77131605 0.46737534 0.36237362 -0.003291405 0.04298059 -0.61544263 0.107804775 -0.25859982 -0.110678434 0.41498494 0.37928715 0.42262068 0.63895875 0.08668719 -0.49598905 -0.0052881455 0.05051603 -0.2408657 -0.97886693 0.043789808 -0.03974597 -0.45755863 -0.052992586 0.68267334 0.5016044 0.4686714 -0.04180935 0.65185845 -0.45679775 -0.6671467 -0.07931043 -0.045890357 -0.32746017 -0.6420942 0.31400794 0.3405256 -0.30031154 -0.21602008 0.17418258 0.52538884 0.28281608 0.15564233 0.6183331 -0.0537062 0.7277033 -0.018390745 0.28144705 0.7021968 0.016220897 0.7569965 -0.19420445 0.01694233 -1.068804 -0.8419622 -0.104794346 0.2960924 0.06273112 -0.13131171
吴学龙 -0.38451695 0.19659202 -0.17811124 -0.6536015 -0.090687655 0.115236096 -0.2004401 -0.08677182 -0.06476911 -0.3017036 0.108409435 -0.4191156 -0.12313803 -0.08115815 -0.6247751 0.2659726 -0.0943453 -0.26624557 0.43963405 0.012285081 -0.4847612 0.19957161 -0.33845904 0.2712787 -0.21538132 0.37352934 -0.06844112 -0.14105321 -0.21983132 0.20714942 0.8160248 -0.44687152 -0.391105 0.49996045 0.2544293 -0.44126606 -0.37174922 0.054829612 0.68745434 -0.5321821 0.2893913 1.0612986 0.19352408 0.28674805 -0.013634327 -0.32951146 0.00029106726 -0.4967907 -0.10992192 0.4277131 0.024982736 -0.57177824 0.44451943 0.4099159 0.03710402 0.19411668 -0.5366059 -0.0852064 -0.9128209 -0.5011042 -0.23340444 -0.6178491 0.99297506 -0.82929397
张福通 0.39012104 -0.62440634 0.6245525 -0.49322334 0.010241248 0.15856618 0.077896744 -0.053208943 -0.34490296 0.72206986 -0.21673499 -0.5159265 -0.79595095 -0.7206206 0.32157898 -0.44684085 -0.23461755 -0.22150119 0.00489891 -0.10819965 0.04096735 0.86081964 -0.70446223 -0.35538903 -0.8262122 -0.17175967 -0.39104167 -1.1455369 -0.43147263 -0.0037769245 0.7445251 -0.40504494 0.18060665 -0.221604 -0.23491652 0.06517175 -0.25768775 0.26192194 0.9758847 -0.71533716 0.048840996 0.12021583 -0.5209873 -0.056611568 -0.052867718 0.64293665 0.70742 0.6311293 0.25303838 -0.24895068 0.42114827 -0.8649289 0.12295516 0.21973512 -0.0208559 -0.016569003 0.27288195 0.6924092 0.120675966 -0.54743886 -0.220755 -0.32843468 0.61639625 -0.013172851
沙新华 -0.14961542 -0.36581874 0.16973189 -0.06954401 -0.66427666 -0.22867304 0.24053152 0.17082928 0.004179989 -0.14797881 0.21382797 0.008301355 0.024012823 -0.17067753 -0.2522924 -0.12713271 0.19437437 0.47839126 -0.22078659 -0.47353864 0.4820956 0.58379847 -0.17968278 0.36792746 -0.48232502 -0.5097462 0.56480455 -0.6836561 -0.16538602 -0.37388584 0.36145142 0.26195166 0.11390846 -0.3851522 0.060383815 -0.73667496 0.37302172 -0.42736265 -0.16851813 -0.47460693 0.55281687 0.52216536 0.11055926 0.051254872 -0.18938085 0.17392133 0.581932 0.17112377 0.16171102 0.17684129 -0.1652325 -0.36190012 0.7635587 0.39651692 -0.525533 -0.31179821 -0.41958994 -0.2323732 -0.6948335 -0.74255383 -0.11822028 0.03224048 -0.12396535 -0.13839552
杨青 0.40418893 0.010259136 -0.009710494 -0.30031037 -0.08073182 0.4988111 -0.22052947 0.43505248 -0.17706628 -0.4641827 -0.0676015 0.09769209 -0.39082128 -0.15660389 -0.08678994 0.53793323 -0.5235981 0.1295379 -0.32985196 -0.018286226 -0.58205277 0.24658512 -0.20725575 0.36513057 -0.45875806 0.42943358 0.401644 -0.4608486 -0.5548875 -0.53493685 0.08839168 -0.28800052 0.359704 0.26327693 -0.38668147 0.011773501 -0.056637436 -0.3154723 0.7898925 -0.7217783 0.39614344 0.85509783 0.5408723 0.18669994 0.5087852 0.1764104 0.38789436 -0.57281554 -0.004801066 0.16003957 0.075339705 -0.9573188 -0.124682054 0.745762 -0.14381994 -0.34966397 -0.037849903 -0.22818775 0.10324621 -0.9753953 -0.3167094 -0.056310788 0.84735316 -0.6341168
苏剑 -0.22332397 -0.61245406 0.3999794 -0.33337978 0.24709417 0.29412082 -0.47212166 0.7180173 0.4487599 0.0015824375 0.2547947 -0.36318347 -0.36344013 -0.5691475 -0.32117215 0.73504996 -0.31881332 0.4081534 -0.41314617 -0.32426628 0.13407445 -0.15856388 0.20541246 0.37001356 -0.09743798 -0.052016523 0.10885637 -0.24818754 -0.16714403 0.63065195 0.61568385 0.33064693 -0.027103715 -0.24598475 0.022233773 -0.45621726 0.32472736 0.2389619 0.40793988 -0.13679865 0.048430298 0.6820705 0.52981657 -0.024672214 0.097959764 0.07064459 0.82264686 0.088418275 0.25206903 0.39620048 -0.11159517 -0.92837614 0.29330704 -0.0624927 -0.10391469 0.41141567 0.3066384 0.15547125 -0.06318988 -0.8328176 0.23291901 -0.57241374 0.42817423 -0.66225606
余璟 0.044283107 -0.65690345 -0.3817967 -0.79724574 -0.28176263 0.46168938 0.15678789 0.67123353 -0.14835325 -0.27339065 -0.4494673 -0.21107963 -0.38629216 -0.7687695 0.44701356 8.763463e-05 0.26544997 0.16133401 0.45918822 0.18080372 0.04836236 0.6195116 -0.09550319 0.36389533 -0.16254473 0.3479614 -0.012980741 -0.6966164 0.041555703 0.3160015 0.22851029 -0.3096087 0.41415688 0.3628448 -0.40115735 -0.5603818 0.29644907 0.00786388 0.46847534 -0.75096333 0.6308086 0.46320555 0.16558203 -0.4092877 0.10880079 0.7300933 0.40478975 0.063127555 0.0048562167 0.14722359 0.16916466 -0.024265492 0.12616408 0.28482246 0.20775898 0.36097604 -0.18706733 -0.13195412 -0.1631288 -0.8435998 0.25214416 0.26366177 -0.21887235 -0.5204657
王幼鹏 -0.10527805 0.014996958 -0.20192856 -0.402706 -0.5344181 -0.07745718 0.0042418083 -0.13704051 -0.102381125 -0.013984374 -0.072617956 -0.32035813 -0.5206383 -0.34264287 0.4887351 0.112068586 -0.17549892 0.56958157 0.6049253 -0.099435486 0.19218925 0.16576405 -0.11874549 0.14624226 -0.042800575 -0.56881326 -0.024998168 -0.14279053 0.021921562 0.22800179 0.48600194 0.25466442 -0.049080156 0.29072744 -0.29612735 -0.5471854 0.09972057 -0.28465384 0.60473824 -0.029260296 0.32844907 0.31523204 0.22150153 0.24401899 0.54033476 0.40605068 0.30242825 0.15732116 0.60786706 0.3584538 0.098582305 -0.7289326 0.3736694 -0.0014170524 -0.034725457 -0.22119404 -0.20077047 -0.26909575 -0.402574 0.16238724 -0.52835923 0.2122827 0.43019652 -0.36254358
王伟雄 0.09258131 -0.16594158 0.38120502 -0.11814887 -0.4053677 0.25172386 0.022926768 -0.05290986 -0.07756687 0.37975436 0.067566246 0.061338052 -0.49638084 -0.7358763 -0.083914265 0.36009693 -0.061394416 -0.24201767 -0.091719404 -0.19122866 -0.08812548 0.52447593 -0.26603043 0.030563409 -0.10593073 0.061194666 0.10349267 -0.5440763 -0.15927733 0.41624248 0.38815528 0.09538682 0.09341796 0.4846879 0.09176513 -0.6259159 0.36687806 0.36057958 0.25371313 -0.23580562 0.003912709 -0.22733772 -0.051927067 -0.08704522 0.58863795 -0.10848342 0.36174756 0.2070611 0.056721367 -0.14951843 0.4930986 -0.35822332 0.005542905 0.42445862 -0.17743027 0.11657561 -0.21044315 -0.09063108 0.030603897 -0.240357 -0.10903719 0.24069452 0.35087135 -0.28661108
詹有力 -0.09360533 -0.0073524225 -0.16400898 -0.37419176 -0.47045282 -0.044823363 -0.023615737 -0.106398135 -0.096143894 0.0015740988 -0.06775831 -0.26618278 -0.49081728 -0.33932906 0.41776812 0.12389006 -0.16775039 0.49062333 0.5372074 -0.08114481 0.15956053 0.17989801 -0.12031966 0.13757062 -0.075164445 -0.4868122 -0.009785767 -0.15826944 -0.0047814827 0.22119276 0.44998005 0.21320872 -0.047818508 0.2737183 -0.24293467 -0.4917058 0.08165763 -0.228759 0.533415 -0.04800444 0.28835168 0.29138592 0.19131322 0.21300325 0.48672754 0.34194446 0.27506495 0.12694557 0.52874374 0.31086522 0.1011383 -0.6516627 0.3264636 0.018651402 -0.05193129 -0.1890929 -0.17315201 -0.2343013 -0.37191018 0.09576511 -0.46543714 0.19023061 0.4131407 -0.34093592
钟伟民 0.06278667 -0.1602705 0.28266558 -0.16109505 -0.31699863 0.20841533 -0.03864559 -0.012839272 -0.09620113 0.29888752 0.05646198 -0.0102971 -0.4236907 -0.62557125 -0.053070758 0.26707873 -0.06464751 -0.1483953 -0.022030585 -0.16740565 -0.02577128 0.44270274 -0.22672032 0.028980723 -0.1664741 0.035584096 0.072138295 -0.46876985 -0.15932082 0.35058823 0.33028117 0.056834478 0.082614996 0.37319306 0.03094142 -0.503204 0.28933683 0.27377895 0.26367086 -0.22545157 0.062117826 -0.0763327 -0.061233602 -0.06456607 0.47542474 -0.044828355 0.32041943 0.15269142 0.09696615 -0.07121118 0.3885733 -0.36717656 0.0573681 0.33956584 -0.17052637 0.09003065 -0.1786893 -0.031889595 -0.044981733 -0.2567707 -0.109976664 0.12486982 0.3360237 -0.2716869
丁强 0.0035976684 0.002947852 0.0011608219 0.004188438 -0.0007198811 0.0021657678 0.005139371 -0.0016232814 0.0053062965 0.0015543394 0.0036680056 -0.0003065435 0.007088879 -5.2429612e-05 -0.0068416786 -0.004121343 0.00013018727 0.003951033 -0.00708302 0.0006482195 -0.004590803 0.001652943 -0.0065636965 0.0039593615 -0.0061203483 0.0016423282 0.005080477 -0.004300874 -0.00447769 0.002179702 -0.0064311596 -0.003876398 0.007273947 -0.006987615 0.006947378 0.0046186154 -0.0029775056 -0.006244285 0.0035095166 -0.0004984342 0.0025622463 -0.006412228 0.004273541 0.0061285147 -0.0024380514 0.003156456 0.003600508 -0.0040747575 -0.0031926348 0.004604847 -0.0018971747 0.004162187 -0.006230163 0.00658112 -0.005343076 0.00071463565 -0.0039986433 -0.0025135379 0.0014840919 -0.005878541 -0.00083313795 0.00512408 0.0004530008 -0.004724381
张陆 -0.043337263 -0.27645907 -0.049115695 -0.22628343 -0.03797809 -0.039551955 -0.09449471 0.014256822 0.12711693 -0.036865324 -0.0023909097 -0.0682644 -0.23864233 -0.17327589 -0.13677521 -0.11616897 0.02900011 0.075054236 0.21891871 0.012891952 0.046945587 0.10954012 0.115527816 -0.043003764 -0.30278128 0.06307386 0.025352435 -0.20682618 -0.23476976 -0.050039236 0.2557299 0.09410355 0.005729062 0.13034281 -0.14765301 -0.17789233 0.05798357 0.24332209 0.0019500959 -0.27491874 0.03130865 0.17104968 -0.03897981 0.071386866 -0.056834225 0.007854354 0.092817746 -0.03215698 0.09453781 -0.17072001 0.031483773 -0.10320682 0.18490593 0.13474861 -0.09841317 0.1760159 -0.08093501 0.1317985 -0.31076783 -0.20110072 -0.16484803 -0.02842176 0.18620923 -0.2581074
卢旭阳 -0.0018447106 0.0011733981 0.0017986714 0.0024884618 -0.0057887803 -0.0028801174 -0.007557028 -0.002259531 0.0032848131 -0.002147623 0.0023864713 -0.0020972115 0.0051031355 0.0011409449 0.0020203118 0.0016585223 0.0017408472 -0.0010307127 0.005380444 0.0064953533 -0.0067899246 -0.0025329208 -0.0018938312 -0.0064945794 -0.0027283954 -0.0042910273 -0.004693798 0.006806874 0.004209354 0.002684839 -0.0073789395 0.006190674 -0.0028999595 -0.0053022155 0.0039140387 0.0037048524 -0.0014011464 -0.0011314534 -0.005934331 -0.0007681675 -0.0063718474 -0.0020342672 0.0066908207 0.0065629524 -0.0028609824 -0.007581817 -0.00085811893 -0.0041688276 -0.0034436777 0.0058192075 -0.0014043207 -0.00727269 -0.00315339 -0.0016622106 -0.0044111484 -0.0036954524 0.0014939102 -0.0018714237 0.003775606 0.0015042714 0.005110924 -0.0038700684 0.002351568 0.0064689834
梁永生 3.580684e-05 -0.0044061462 -0.003644876 0.0022432453 0.005953713 -0.0041254233 0.0024755336 0.0061272257 -0.0047818944 0.0055426336 -0.0062405965 0.0014408744 0.00030259634 -0.0066079623 -0.007372691 -0.0050216503 0.0005116066 -0.00457498 -0.001898766 -0.0022159223 0.0051296377 -0.0058843666 -0.0009623133 0.006611555 -0.00029288323 0.004491558 0.0009205691 0.0040429416 -0.0027273188 0.0020213013 0.0058633303 -0.00571296 0.0011984601 0.005877786 0.00717608 -0.002160059 -0.0020385303 0.0020583614 0.0028655583 -0.004007576 -0.004592429 -0.0021072016 -0.0059592063 -0.0007653106 0.002643609 0.0014845271 -0.0017899459 -0.0034072956 -0.004738694 0.0055151614 0.00029509337 0.007127269 -0.005210357 -0.0039828774 -0.00068504934 -0.0069813714 -0.0022625434 -0.0068556652 -0.0037506747 -0.0044958405 -0.004659103 -0.0006485279 0.00072289596 -0.004934064
刘伟 0.0035882297 0.0052962964 -0.00035078186 0.0004831028 -0.0070212553 0.006064084 -0.003932952 0.004630406 0.0054494063 0.0058223936 -0.002730688 0.0071083 -0.0038846782 0.007709662 -0.00231699 0.004276092 0.0045125014 0.00071010087 0.007296299 0.00040213933 0.0003362676 0.0033202453 0.0034142346 0.0039035447 0.0027433187 -0.0073737954 -0.0010616166 0.0069053485 0.0008231127 0.007426488 -0.0064715496 -0.00039068641 0.006955845 -0.004015871 -0.00044384 -0.0025770334 0.0054484927 0.00444965 -0.002803363 0.0054331706 -0.0061844187 -0.0011752566 0.006886642 0.0055593885 -0.0051905685 0.0047311136 0.0073590428 -0.006280668 -0.0034197904 0.0021706151 -0.003318887 -0.006418829 -0.0003722334 0.0027948376 -0.005516651 0.0021857966 0.0036711064 -0.006326485 -0.0076259016 -0.0047890455 -0.00040344376 0.0054450436 -0.0055077244 -0.0037651588
高尔剑 -0.0027871158 -0.005826093 0.004758733 0.0062580127 0.0031928367 0.0014467479 -0.0005193232 0.007436928 -0.0013694247 -0.0065775057 0.005001733 0.006741435 0.00362983 0.0064447545 -0.00058013306 -0.0066742487 0.005469258 0.0039430535 -0.006426047 -0.0020996588 -0.00205536 -0.0076829577 -0.0014229488 -0.005154275 -0.0055505987 0.0035400575 0.0076566446 0.0051758476 0.0067637707 0.0051649874 -0.0071047437 -0.0038840536 -0.006485265 0.0076477667 -0.0025415332 0.0020629966 0.001488409 0.006682508 -0.0060295756 0.0047852607 -0.0072313272 0.00440222 -0.006244801 -0.00029626128 -0.006078908 -0.0062722857 -0.00068592385 -0.0058959424 -0.0022246786 -0.0040081064 0.0073109544 -0.0012238577 0.00023357102 -0.0045053083 4.0128445e-05 -0.00741604 0.0013747065 -0.0072353045 0.0016090788 -0.0031224932 0.007010583 0.0069224695 0.006238074 -0.0031954134
艾传荣 0.0011244324 0.0046887426 -0.0064721894 -0.0076807984 0.00156183 -0.0050838944 0.007706155 -0.0051476667 0.001579693 0.003925334 0.0012526334 -0.0028696621 -0.0064243716 0.0071498444 0.002287052 0.0030857362 -0.0047326004 0.0011686962 -0.0070116376 0.006505084 0.0064883064 -0.0024710882 -0.006843973 0.0034992064 0.0050565125 -0.0072990577 -0.002139877 0.00063122436 -0.003090221 0.0023635607 -0.0042278864 0.00121702 -0.0021593354 0.0021838024 -0.0044834013 -0.002790874 0.0034892461 -0.0006824306 -0.0070332326 0.0056525995 -0.003053081 -0.0005484928 0.003965289 0.0066979825 0.00477882 0.006949478 -0.0006230609 0.005146264 -0.007278752 -0.0019341728 0.007406068 0.0005764517 0.0017384137 -0.006792906 -0.0057815695 0.00019278328 0.001753768 0.007057441 0.0021239826 0.00405811 -0.0007403701 -0.005140996 0.0035810713 0.005651814
