64 64
林翰章 -0.14606623 0.08633837 0.16412513 0.14474542 -1.1221725 0.73662114 -0.6041165 -0.40775704 0.4257497 0.53644663 -0.37171018 -0.5462044 -0.5881616 -0.5968434 -0.090153955 0.92524004 0.37740165 -0.40660745 0.5810139 0.225887 -0.45434207 -0.1353807 -0.44763047 -0.9004959 -0.13323954 0.20462428 -0.71226394 0.25878796 0.0071106236 0.89776534 -0.664132 0.8973392 0.5569049 1.0645962 0.033828735 -0.8025477 0.24424647 0.6628509 0.002246765 -0.7944915 -0.07572507 -0.011857518 -0.13022909 0.1370953 0.74115914 0.040926576 0.3194797 0.08512264 0.52715105 0.08642814 1.4254153 -1.0451816 -0.58684844 0.94059205 -0.6010156 0.21977276 -0.29120657 0.34588605 -0.21076107 -0.53974766 -0.25706062 0.5070849 0.55081546 -0.41554105
刘世会 -0.15042675 -0.06951036 -0.6954131 -0.51614094 -1.044873 -0.028231347 0.7406397 -0.1772092 0.19425336 -0.22498222 -1.0010158 -0.6152951 -0.42305836 -0.6556897 0.5516559 0.17013332 -0.3246439 0.91684043 0.409485 -0.030378468 0.169231 0.14990991 -0.40620852 0.34028175 -0.8834043 -0.6784646 0.061980184 -0.36679175 -0.3530841 0.79019237 0.07983172 0.24830231 0.25540054 0.63112074 -0.14974089 -0.74376297 -0.15152708 -0.87883425 0.908199 0.4321079 0.3510276 0.18445383 0.48330995 0.4577649 0.42952433 1.2964375 0.88625956 0.30713657 0.66815597 0.5620473 0.5546094 -0.937078 -0.27702224 -0.21211699 -0.5132239 -0.9593767 0.02177345 -0.6117342 -0.5484364 0.10367705 -0.7543128 1.098116 0.826253 -0.34098393
王东 0.14392675 -0.83335465 -0.87401086 -0.6018323 -0.6272468 0.32743698 -0.3952261 0.5221393 0.25442958 -0.65725154 -0.24023485 0.3921904 -0.32792377 -0.6653014 -0.33815923 -0.5676491 -0.05411473 -0.0016176726 -0.15887308 -0.28433916 -0.14867263 -0.046985116 -0.089521304 -0.95244527 -1.116581 -0.539871 -0.10104265 -0.33906388 -0.20577618 0.8167921 -0.060697842 1.0445485 0.85300726 1.1126374 -0.5357602 -0.32425693 1.3370084 -0.620493 0.18584028 0.010256618 -0.27483898 0.255001 -0.9049098 0.7060255 0.6446114 -0.6042616 -0.1254968 0.3573305 0.29470003 -0.13953577 0.35440344 -0.4176679 0.47008166 -0.40706784 -1.0643508 -0.12363187 0.11999831 0.022946708 -0.3100986 0.07836837 -1.0095248 -0.2566138 1.042521 -0.9595787
郑小霞 -0.097858146 -0.6526195 -0.5777572 -1.094515 -0.34365952 0.056960825 -0.35051447 0.20932996 0.68723637 -0.37807935 -0.4854327 -0.084851265 -0.8621071 -0.92541534 -0.5259503 -0.51752824 0.137041 0.24718036 0.9083324 0.39734167 0.1882195 0.051649284 0.42236802 -0.17056786 -1.1239108 -0.05130029 0.03013569 -0.21777974 -0.68521494 0.22421378 0.3290835 0.25166312 0.12063394 0.6411635 -0.5048608 -0.54672277 0.2195154 0.9735957 0.11118548 -0.811568 -0.5699347 0.19622636 -0.1546723 0.21594986 -0.40930203 -0.14161168 0.030286089 -0.49122512 0.38954455 -0.5567524 0.14708312 -0.34177226 0.20441891 0.1852761 -0.6887748 0.38074824 -0.12615465 0.5632377 -1.1110995 -0.50291103 -0.6022859 0.18938075 0.7342824 -0.66471493
高尔剑 -0.07964215 -0.48347864 -0.26170075 0.4072266 -0.089977175 0.3742976 -0.26811892 0.700946 -0.044603422 -0.42581412 0.19017416 0.14107588 -0.44154048 0.26682866 -0.0032741092 -0.10540732 0.10618081 0.6365922 -0.4205358 0.06957706 0.065381266 -0.9312609 -0.37876797 -0.8178231 -1.2418272 -0.08319048 0.69505334 0.20245878 0.5808904 1.0684477 -0.6241623 -0.61512053 -0.069457136 0.9215739 -0.51448417 -0.016566627 0.46629348 0.40374509 -0.11992669 0.49190536 -0.52328575 0.76526505 -0.82896245 0.09940788 -0.08128615 -0.5038732 0.24899262 -0.3348409 0.17152119 0.110128865 1.2787787 -0.3446839 0.07320243 0.0018427622 -1.0320106 -1.0901127 0.25508356 -0.36261114 -0.22569136 -0.46324494 0.15328242 1.1332757 1.3900887 -0.32748315
杨青 0.49318784 0.5598704 -0.33472925 -0.20299011 -0.16681506 0.72214353 0.14975008 0.8145419 0.06807643 -0.30532056 -0.43073347 0.41593704 -0.50509864 -0.42392275 -0.04747121 0.2539143 -0.3324593 0.40380052 -0.09272872 0.2717463 -0.25087872 -0.46608332 -0.58935297 -0.015295876 -0.76397943 0.31544682 0.55658066 -0.06491775 -0.21823034 -0.43906185 -0.95695907 -0.4064839 0.8142366 0.69358987 -0.6282378 0.4312767 -0.43597454 -0.30269432 0.93035185 -0.9357703 -0.25970408 0.5300739 0.48457524 0.27023852 0.35794884 -0.08493707 0.3600995 -0.75966644 -0.035658497 0.20497565 0.60718244 -0.91490614 -1.0861137 0.5828194 -0.668693 -1.0593398 0.33437553 -0.26539883 -0.007027003 -1.2428328 -0.33239108 0.32320178 1.0638644 -0.46651188
朱文芳 -0.20637742 -0.27953053 -0.97884995 -0.1415133 -0.11846062 0.46418905 -0.32946298 0.9188291 0.44792888 -0.014909382 -0.7021831 -0.19526722 -0.9992567 0.05095478 0.35742584 0.0621502 -0.113893904 -0.25575396 0.32272187 0.3102099 0.12663473 0.5124976 0.06843552 0.010377939 -1.1636308 0.080241814 -0.2648214 -0.049540594 0.860261 0.17672932 -0.31094187 0.55922407 -0.27936566 0.6421026 0.01501829 -0.21982023 -0.779058 -0.17689034 0.04921264 -0.6697989 -0.25074226 0.7454346 0.19481432 -0.1629397 0.055373687 -0.1312321 0.71739423 0.41627318 0.58884555 -0.7012388 0.13038991 -1.0545596 -0.48431048 -0.034772646 -0.89770055 -0.48105183 0.08499339 -0.07447206 -0.8966924 -0.7219874 -0.5682576 0.44969168 0.9256554 0.70467854
钟晓鸿 -0.13571483 0.062231634 0.18117036 0.12614173 -0.8407113 0.57783604 -0.47695813 -0.3126382 0.3276307 0.43869945 -0.24428515 -0.39731687 -0.4677709 -0.4342934 -0.07786975 0.7529731 0.29307175 -0.34318635 0.43598065 0.15316667 -0.34834436 -0.14546873 -0.3520733 -0.67838955 -0.083147466 0.19260888 -0.54697925 0.18391646 0.011772749 0.68429637 -0.49896768 0.68677926 0.41026744 0.7797926 0.055762395 -0.62455624 0.193303 0.511614 -0.01232044 -0.6117236 -0.07331627 -0.015922753 -0.09520608 0.07998391 0.5618462 0.007983804 0.23688002 0.060970087 0.36691007 0.057982158 1.1400292 -0.7886373 -0.4753383 0.72590464 -0.4684342 0.19004786 -0.20234759 0.23876525 -0.17238078 -0.4279835 -0.2054377 0.4235463 0.44267467 -0.31471136
娄和儒 0.07861892 -0.6567033 0.31656578 -0.8241074 -0.025689973 0.78829736 -0.7355437 0.71577406 0.0449419 -0.062286112 -0.5719845 -0.15838566 -0.50215006 -0.80508596 -0.13025756 0.7090068 -0.5135076 0.35817632 -0.30988848 0.012485896 0.72672766 -1.0841662 -0.2605002 -0.8796227 -0.22808078 -0.3323611 0.04839952 -0.94010055 -0.39998674 0.8229819 -0.6679672 0.18055682 -0.32596496 0.4596776 0.50562036 -0.3792883 0.46469277 -0.46900427 0.7575564 0.12796879 -0.40541792 0.16788366 -0.2514078 0.27464154 0.0045697303 0.42258975 0.53254414 -0.56339854 -0.16771698 0.4793567 0.91108 -0.12095404 -0.12333523 -0.20099445 -0.7248979 0.6127112 0.3616774 0.5140912 -0.38663578 -0.4073336 -0.3194568 0.36519173 0.86802006 0.3915126
薛峰 -0.14781688 -0.03895768 -0.612399 -0.41616496 -0.92468935 -0.01382346 0.6778063 -0.17420214 0.19025846 -0.18410671 -0.9125927 -0.5636366 -0.35180977 -0.5859883 0.4850093 0.15915525 -0.29667816 0.79546744 0.35081708 -0.04101425 0.15984431 0.13505921 -0.34891582 0.3118345 -0.7565961 -0.59004843 0.060508724 -0.3336212 -0.30860123 0.66835296 0.08817552 0.21196252 0.24822329 0.53168494 -0.1159645 -0.6451842 -0.13447037 -0.80754757 0.82866895 0.39653307 0.3160257 0.16802087 0.4082901 0.40126267 0.38657233 1.1727072 0.79677844 0.29016542 0.5954416 0.4803116 0.4611152 -0.831036 -0.268562 -0.1843277 -0.4460066 -0.83573514 0.0421079 -0.5575351 -0.46354568 0.12461078 -0.66252536 0.96094996 0.6921694 -0.28625587
郑晓生汉 -0.22954513 -0.30912867 -0.9573658 -0.124909215 -0.08121823 0.46375686 -0.34211 0.9530314 0.4382976 -0.034474548 -0.69988537 -0.18215136 -1.0295278 0.030922242 0.34682283 0.039883494 -0.09947791 -0.23097159 0.32301217 0.2861211 0.12712061 0.52289635 0.11089297 -0.007414803 -1.1350896 0.12551801 -0.2819044 -0.040580485 0.88804173 0.1705369 -0.29430574 0.563809 -0.2663146 0.6309402 -0.006217249 -0.20311305 -0.7552784 -0.16039525 0.031334717 -0.6384312 -0.24508159 0.7402024 0.1662482 -0.20115666 0.03530923 -0.18715104 0.70864767 0.432458 0.59315926 -0.7397086 0.11260633 -1.0518802 -0.46250954 -0.065536454 -0.8520639 -0.4545376 0.09972283 -0.07093663 -0.90509385 -0.675641 -0.53984696 0.47146356 0.91822594 0.7219552
皮勇华 0.090788186 -0.76266164 -0.744696 -0.5537435 -0.523973 0.23734601 -0.37472734 0.42345995 0.2603767 -0.5996295 -0.21619256 0.35938388 -0.3078358 -0.58463895 -0.3093958 -0.55401564 -0.03829889 -0.016714703 -0.11406056 -0.2283047 -0.118575215 0.01682724 -0.006667574 -0.78470993 -0.99299884 -0.45699176 -0.08180599 -0.26225427 -0.19788405 0.6490012 0.027145118 0.916662 0.74096686 0.94412804 -0.5271864 -0.28116402 1.1541692 -0.4159659 0.09087949 -0.01351847 -0.23516215 0.20423831 -0.77369905 0.57965016 0.5097185 -0.5633023 -0.1867923 0.2895291 0.2662791 -0.19701579 0.21461244 -0.34711373 0.48163018 -0.36292514 -0.88856083 -0.06342487 0.08699335 0.043335903 -0.31849173 0.09798857 -0.8632701 -0.25129038 0.8358981 -0.8719205
廖远飞 0.054761704 -0.5030771 0.2981191 -0.76422477 0.085649066 0.7677227 -0.72163826 0.71332437 -0.006039539 -0.11482831 -0.53287274 -0.16806084 -0.56047297 -0.84641016 -0.04111136 0.60977584 -0.529093 0.26261196 -0.23297486 -0.016478166 0.63439 -1.016839 -0.41798317 -0.8382164 -0.16738328 -0.36419186 0.061387602 -0.903133 -0.41382182 0.7063902 -0.6282367 0.09176801 -0.231468 0.45555624 0.3839269 -0.47616276 0.41202596 -0.41638133 0.7198111 0.020176904 -0.50746965 0.059458062 -0.19892134 0.18717358 0.15187761 0.33003798 0.49703798 -0.5237141 -0.23671761 0.44038823 0.87796164 -0.15928777 -0.13597006 -0.141058 -0.71500915 0.5625627 0.22657137 0.42913362 -0.4375046 -0.3071754 -0.29836354 0.4154497 0.827327 0.3984371
顾楠洲 0.07446936 -0.60267746 0.30817497 -0.763401 0.039017957 0.7393461 -0.7117524 0.71126056 0.019931216 -0.08676651 -0.49731296 -0.15584926 -0.46803132 -0.7876065 -0.09774411 0.63315815 -0.49877828 0.29438117 -0.25811538 -0.0001659694 0.6633052 -1.0120574 -0.2998801 -0.8441667 -0.17979045 -0.3367015 0.07641234 -0.8837141 -0.3936511 0.7278884 -0.6217267 0.14730304 -0.29073662 0.419726 0.4540639 -0.39178488 0.4280864 -0.42466652 0.6922236 0.10477964 -0.42588514 0.1080455 -0.22088976 0.19842282 0.035851393 0.3613939 0.49843296 -0.5301064 -0.16463634 0.43349427 0.8349678 -0.084537305 -0.12012867 -0.18400194 -0.65143025 0.5933074 0.2853847 0.470783 -0.36545926 -0.351203 -0.26607788 0.36115995 0.7973992 0.38322726
梁永生 -0.067322254 -0.57521164 -0.7632914 0.040645625 0.06047972 -0.08215358 0.100181855 1.0248946 -0.45954114 0.57448137 -0.9355014 0.039599195 -0.314056 -1.1322602 -0.8558873 -0.35514864 -0.0061354428 -0.4612463 -0.03441125 -0.2802026 0.6431986 -0.38385144 -0.24936187 0.53371185 -0.6811845 0.21548182 0.07188739 0.05365025 -0.35646003 0.62046987 0.2562028 -0.3155858 0.31931505 1.0195686 0.8923058 -0.7327074 -0.0068677804 0.28295043 0.5397176 -0.5867583 -0.7137066 0.09463702 -0.60802585 0.04919793 0.37519556 0.42206514 0.31791064 -0.38298562 -0.38439372 0.6098007 0.66345394 0.405887 -0.68812066 -0.18372849 -0.53425914 -0.9021629 -0.25370413 -0.66915363 -0.8844947 -1.0366257 -0.8382989 0.18865597 0.64611304 -0.6315362
王策飞 0.08524517 -0.12705536 -0.08178683 -0.10586634 -0.8751374 -0.5564824 -0.66814476 0.16188566 0.6520854 -0.18518098 -0.19866396 0.048262797 0.011133544 0.15884775 -0.6776473 0.06431684 0.47549105 -0.37368944 1.0406096 -0.037401497 0.25678632 -0.70469683 -0.14278018 -0.6880338 -0.6432985 -0.17183141 0.37533793 -0.8377563 0.10119542 0.45165586 -0.6858411 -0.044658713 0.8711363 0.9212509 0.6176443 -0.717356 -0.42937458 -0.5502509 0.23248711 -0.20467104 -0.3793631 0.6557339 -0.31477225 -0.28413278 -0.48256692 -0.18067284 -0.021358963 -0.44210204 0.53608435 0.7821951 0.6948354 0.0798069 0.26430485 0.9463357 -1.5441145 0.54034376 0.5316738 0.84365445 -0.08400013 -0.9974558 -0.2243457 0.11517605 0.9186333 -0.79872155
艾传荣 0.03835287 0.6238452 -1.0274034 -0.8674761 -0.39859945 -0.22838973 0.49534997 -0.25020018 0.3022055 0.20537671 -0.19967888 -0.56379163 -0.8688619 0.44810778 -0.055046618 0.3217322 -0.4110836 0.16911228 -0.45368513 0.65251976 0.48977467 -0.52707523 -0.93455267 0.048125975 -0.30123776 -0.9594432 -0.0006088362 -0.074814595 -0.31584236 0.9276313 -0.7354135 0.06011384 -0.06290184 0.71344817 -0.30552036 -0.7368635 0.5132753 -0.08627789 -0.42616665 0.11939428 -0.8102411 0.3192501 -0.16394289 0.9068185 0.5060228 0.6086337 0.10565049 0.3357826 -0.6980253 0.035499226 1.5010012 -0.21765193 0.058860913 -0.31217963 -1.3721354 -0.30265227 0.2537897 0.7991006 -0.21127836 -0.16008398 -0.3879599 -0.30636334 1.0733465 0.22095993
凌冲 -0.6778885 -0.6799364 0.11694013 0.3904935 -0.65356094 0.22784485 -0.75742006 0.2477163 0.015442373 0.041028157 -0.32962573 -0.37869927 -0.5493204 -0.9721076 0.3180017 0.26682878 -0.75807744 -0.5541912 0.85222274 -0.44203463 0.4689436 0.4743528 -0.7868019 0.25044087 -1.1805733 -0.9419796 0.88110906 -0.7164042 0.38056067 -0.18269016 -0.27242598 0.5602799 -0.18352307 0.8803697 0.34574276 -0.2655813 -0.49424928 0.39898285 0.060605828 0.15607947 -0.16295838 1.0221251 0.2668374 0.8095952 0.07220461 0.24477427 0.663722 -0.614024 0.22502361 0.1599138 1.2114125 -0.41450027 -0.35226887 -0.11453884 -0.21357451 0.087913655 0.37602141 0.3231081 -1.0466865 -0.086994566 -0.09512057 -0.33212575 0.43618464 -0.39376464
刘伟 0.3706249 0.46298507 -0.46913576 -0.2619597 -0.9418787 0.7046718 -0.29904836 0.7297175 0.4698077 0.475982 -0.5749269 0.6085154 -0.7038654 0.43697402 -0.2867086 0.42224288 0.5283035 0.32928252 0.7674135 0.03478592 -0.0016780292 0.105168134 0.16984351 0.19904691 -0.16700932 -0.8235945 -0.12127696 0.52283204 0.04083124 1.2423587 -0.72276545 -0.110208966 0.9759037 -0.062205195 -0.10167727 -0.6640677 0.70727134 0.4556617 -0.06651397 0.3927813 -0.80944914 0.16973902 0.5229776 0.64214826 -0.32709387 0.45029986 0.9530603 -0.5997982 -0.16423742 0.4509983 0.16233686 -0.82150775 -0.09711235 0.41198325 -1.1634923 0.08349627 0.354608 -0.55992866 -1.0865679 -0.73699254 -0.4982868 0.8443006 0.03178628 -0.50155145
于宝明 -0.008080571 -0.17577274 -1.031022 -0.91049635 -0.3123709 0.5933518 0.583064 -0.38309985 -0.016030645 0.093601495 -0.4989852 -0.183935 -0.03549486 -0.63424504 0.35910404 -0.09044627 0.4010591 -0.2832807 0.87260264 0.6370045 -0.17667909 -0.5224626 -0.31304604 -0.20628242 -1.356223 -0.27352545 -0.27645048 0.35540068 0.26816246 0.52282387 -0.8678183 -0.19478264 -0.057609655 0.1907206 0.62143767 -0.5861126 -0.79952854 0.859461 0.5189789 -0.19224773 -0.51247394 -0.069362804 0.23971081 0.726396 -0.5054396 0.28401268 0.1699264 -0.7179601 0.7181068 0.61469007 0.45452696 -0.16832986 -0.6695427 -0.2153376 -0.97856253 -0.46688277 0.375607 0.22903419 -0.55712247 -0.8666923 -0.414287 0.17786248 0.8638944 0.43344656
贾丽巍 -0.037788693 -0.2052293 -1.0775771 -0.9433786 -0.28774843 0.58216476 0.6204164 -0.42552298 -0.005691038 0.08652296 -0.4577715 -0.19295828 0.0033279841 -0.6214808 0.39184135 -0.10827449 0.42102832 -0.30908304 0.9093847 0.6789026 -0.20610866 -0.5704519 -0.3118134 -0.20729816 -1.3796723 -0.31028524 -0.2961488 0.4108943 0.29482946 0.51702076 -0.9094965 -0.19161926 -0.07993 0.20244966 0.6505372 -0.6121752 -0.83860886 0.90428317 0.5023448 -0.1945439 -0.5236456 -0.07891877 0.28581387 0.770895 -0.537552 0.3014884 0.13100271 -0.7611906 0.7528172 0.6616167 0.4500848 -0.13240832 -0.66857046 -0.2549272 -0.9924516 -0.47432494 0.36409184 0.21067542 -0.5580305 -0.8760842 -0.41908118 0.17480169 0.898396 0.4674876
张亚立 0.69314927 0.1074467 -0.46677795 -0.27827036 0.23634022 -0.10984945 0.12391382 0.6055681 -0.3578836 0.03659851 0.39410987 0.17065993 -0.90772873 -0.47553888 0.30977654 0.20708787 -0.01813741 0.5831227 0.80249566 0.019321572 0.4138492 0.4007367 -0.69560593 -0.99302906 -0.6390763 -0.4910652 -0.25141132 -0.63460004 -0.014623909 0.63378614 0.22116981 0.4779312 0.51734823 0.41917172 -0.19087471 -0.180264 0.2446018 0.5497143 -0.067999676 0.89696145 0.18513726 0.897938 0.57367116 0.24678195 -0.019022917 -0.6827598 0.7773885 0.38766912 0.5408445 1.0738773 1.2788025 0.20392275 -0.11078618 -0.28336182 -0.90931576 0.48941737 -0.13836063 0.8385874 -1.483924 -0.067631274 -1.0976118 0.8528898 1.294312 0.4901189
张福通 0.6021849 -0.25430763 -0.015747193 -0.4298321 -0.28988144 0.42258623 0.46193886 -0.0554608 -0.31464076 0.5620938 -1.1375362 -0.6181464 -1.0407484 -0.7472945 0.4725422 -0.7136153 -0.13767254 -0.31599742 0.25889853 0.044590615 -0.029666683 0.36786795 -0.938426 -0.8022462 -1.2505742 -0.39011377 -0.48437172 -0.9163786 -0.17269728 0.31222978 0.07122819 -0.4363182 0.3403377 -0.01347708 -0.025177088 0.24817087 -0.60108477 0.36834222 1.1017038 -0.4800523 -0.79156435 -0.16827503 -0.7737089 0.1771271 -0.5202916 0.70834213 0.74290204 0.4773033 -0.1650522 -0.46602508 1.0935062 -0.9909991 -0.6142258 0.04670495 -0.29584503 -0.29935473 0.582798 0.9252168 -0.06936561 -0.60348976 -0.5497911 0.041987937 1.0006609 0.20680106
贾兴东 0.008220993 -0.27529722 -0.11677886 -0.64198786 0.0132815065 0.06576494 -0.2630448 0.97017217 -0.44917956 0.73687816 -0.6632173 -0.05455814 -0.6582789 -0.38721156 -0.03882425 0.17507386 0.032167327 0.3754899 -0.36222026 -0.121159576 0.38220134 -0.44290805 -0.48901758 -0.09362788 -0.905363 -0.3618638 0.7584487 -0.22693022 0.80930644 0.21890612 0.22689916 -0.42883125 0.47429612 1.1348934 -0.41918874 -1.0011209 -0.29882866 0.7312646 -0.35768375 -0.4218572 -0.57916224 0.34801602 0.28169575 -0.066207774 0.50928384 0.6663569 0.74318784 -0.061193943 0.4767704 0.20020142 -0.016039778 -1.0988002 -0.81779903 0.8402536 -1.1387486 -0.011781627 -0.20741455 -0.42609942 -0.6120423 0.010607122 -1.09728 -0.121176675 -0.0713398 0.16042593
徐志斌 -0.42571872 -0.24243571 -0.06764711 -1.0853244 -1.2831835 0.9028486 0.25556365 0.47826818 -0.37446398 -0.16303422 -0.9411017 0.03594578 0.17350122 -1.1228652 0.17549431 -0.58426917 -0.5637744 0.83519286 0.4838252 0.47041112 0.23682171 -0.43539336 0.017306983 -0.9181217 -0.33088207 -0.74650747 -0.35007522 -0.5391026 0.6435953 0.07477911 -0.82479435 -0.1452024 0.69015056 0.730783 -0.2510625 -0.45382637 0.21801715 -0.27825555 0.031922895 -0.07366612 -0.37346932 0.884915 0.11360367 0.109450854 0.0045881164 0.4028939 -0.15764117 -0.7726455 0.8484125 -0.37781054 0.709139 -0.835006 0.16771966 0.83023894 -0.20585598 -0.53374314 0.818446 -0.5995601 -0.15158646 0.41673753 -1.0434157 -0.45265585 0.6811555 -0.11477338
黄臻 -0.507731 -0.37449694 -0.2538965 -0.86682385 -0.7250393 0.7327734 -0.5184627 0.8554856 -0.22354236 0.3943917 0.33929667 -0.4911111 -0.011799595 -0.70441264 -0.26622853 -0.48833403 0.3994344 0.021843256 0.0388515 -0.7867594 -0.48329487 0.58340037 -0.5575123 0.4278957 -1.4033667 0.1937568 0.49446392 -0.8699963 -0.5756878 0.9109059 -0.5791474 -0.32315877 -0.29584706 0.3103984 -0.14910659 -0.7370275 0.5817024 -0.0016812856 0.08306849 -0.32180488 -0.77734166 0.4537844 -0.6911755 0.80056405 0.54765236 -0.3342463 0.5606478 0.10681394 0.23732556 0.37942314 0.6039291 0.47389978 0.2529042 0.7393222 -1.0274612 -0.73874986 0.16765596 0.4746018 0.0039527654 -0.8849919 -0.5978137 -0.34760436 0.52469754 0.09833843
周岸标 -0.6557968 0.3302583 -0.9469359 0.059772793 -1.0915575 0.85425496 -0.15917024 0.06167148 0.25928825 -0.89951813 -0.93860465 -0.46991473 -0.5137229 -1.1091185 0.42257586 0.17779575 -0.57238364 0.38555658 -0.17163491 -0.051090516 -0.74506456 0.1370965 0.26545438 0.24333669 -1.2959429 -0.98771566 0.835456 0.16600363 0.3000594 0.930886 -0.22460854 -0.05684515 -0.3964213 0.38994747 0.45308882 0.003433877 -0.66957283 0.6432652 -0.2075786 -0.3886877 -0.56248647 0.79752785 -0.3944183 0.6803521 0.5710358 -0.48017567 -0.40752 -0.069244504 -0.4548541 -0.2879702 1.1578093 -0.55163884 -0.65993744 0.24648115 -0.25909844 0.2733026 -0.073696434 0.03472233 0.39932325 -0.5441712 -0.2889284 0.6636222 1.1734532 -0.0638696
高瞻 0.3584748 0.10050906 -1.0763886 -0.48121494 -0.45368117 0.6255601 0.09320298 0.31866726 -0.22222267 -0.3883861 -0.4464896 -0.31094137 -0.034809545 -0.51602566 -0.529953 0.60369265 -0.63446367 0.10976189 -0.4159612 0.80583775 0.86637455 -0.03126463 -0.75265914 -0.9940134 -1.0123659 0.07410412 0.13694096 -0.21658684 -0.6351398 0.9766537 0.43169075 -0.0300652 -0.16245817 0.25745395 0.45405415 0.25099355 -0.14697362 -0.21912211 -0.3447586 0.12865712 -0.24258338 0.804735 0.15897596 0.21571675 0.18999957 -0.39198828 0.68550384 -0.62001115 0.45742938 -0.35376212 0.2402591 -0.23512034 -0.6315004 0.44696328 -0.1874372 -0.73910356 -0.41931322 0.6467398 -0.6399045 -0.9179575 0.020778311 -0.41667503 1.1375399 -0.77703625
肖民 -0.54122895 -0.45270893 -0.021859242 -0.48691055 -0.7836168 0.06574216 -0.68878686 0.8040193 0.20960225 0.40300366 0.11331212 0.17073038 0.09414169 0.15800714 -0.55176526 0.5319135 -0.40692338 -0.50501525 -0.41982776 0.2947802 -0.4592714 0.6652022 0.38934365 -0.30825076 -1.320242 -1.0130508 -0.30364466 0.2545614 -0.6866344 0.57678074 -0.5669516 -0.22627796 0.21866015 -0.21240097 0.46033245 -0.7420984 0.17650467 -0.016773457 -0.30802897 -0.5313932 -0.89691126 1.0238346 0.051516913 -0.30831844 -0.14178886 0.3847806 0.51204866 -0.25676262 0.87550414 -0.035146885 0.8780631 -0.21769384 0.09871686 -0.05398254 -1.3210942 0.11936235 0.67362297 0.25364417 -0.5273107 -0.35124215 -0.05619274 0.38289556 1.3149285 -0.463877
王爱朝 0.8435936 0.8046988 -0.6133177 -0.067386076 -0.71568525 0.45527864 -0.12149488 -0.031749554 -0.5304955 -0.5381052 -0.5000414 0.52402705 0.16890857 0.45241582 -0.24126196 0.08478246 0.61691517 0.19751781 0.2050342 -0.042407352 0.62040097 -0.2944188 -0.10624646 -0.82273734 -1.0459054 -0.6893766 -0.42700157 -0.33359617 0.3890159 0.5974968 -0.34374186 0.5470788 -0.057338763 0.7007797 0.55337447 0.007968213 -0.30838183 0.09699543 0.61614305 0.35766575 -0.4502998 0.71480453 -0.57019407 0.53729874 -0.24780473 0.29596287 0.28851056 0.41606185 -0.023468858 0.19041272 1.020224 0.38299263 -0.80479836 0.29347262 -0.7977374 -0.0065876613 -0.15054423 0.2762395 -0.27767533 -0.07541231 -0.8246322 0.110147625 0.56009513 -0.49004108
李福民 0.84151196 0.81101054 -0.67474216 -0.052661482 -0.76932305 0.47519025 -0.12405182 -0.003401637 -0.52665013 -0.55529356 -0.56917155 0.5181703 0.13673696 0.4098568 -0.280568 0.10030681 0.6353054 0.19771151 0.24211958 -0.06379247 0.6441099 -0.27435246 -0.11356733 -0.84059274 -1.1292527 -0.6956626 -0.43707123 -0.33254018 0.35452342 0.65488106 -0.381763 0.5732031 -0.033423673 0.75557065 0.5716275 -0.02756455 -0.3053676 0.10973776 0.64903754 0.35539585 -0.478108 0.7375651 -0.5997566 0.5632869 -0.22869816 0.31029606 0.33095637 0.4099449 -0.011933469 0.19177656 1.0865097 0.35168642 -0.8359164 0.32466775 -0.8703876 -0.025081063 -0.13718975 0.2911808 -0.34113267 -0.1184472 -0.85340416 0.14038973 0.6216947 -0.5404899
胡晓清 -0.035527032 1.0005132 0.11865562 -0.13181452 0.2822406 0.46136764 -0.37164283 1.0342195 0.58286786 0.09816283 -0.33814022 -0.35038042 -0.034836933 -1.0449536 -0.11569807 0.51220316 -0.9038947 0.29927215 1.027263 -0.294214 0.50696397 0.70768636 -0.57648236 -0.43619704 -1.1498649 -0.7889509 0.9162197 0.17568225 0.10154407 -0.043509223 -0.54951227 -0.34334648 0.084600344 1.0601978 0.5786632 -0.5487564 0.91942215 -0.5361856 0.7437849 -0.2577286 0.031407923 0.23047297 -0.6755303 0.3180027 0.19438304 -0.44465342 0.18604304 0.14845422 0.27751338 0.054320164 0.4909952 -0.46066284 -0.60350376 -0.16043012 -1.6049485 -0.21667163 -0.07030357 -0.22376978 -1.1342355 -0.75576276 0.079385 -0.12298119 0.31938368 0.57848394
刘初汉 0.10898293 0.5334147 -0.65580696 0.10659619 -0.7255463 0.45315686 0.5857038 0.5244505 -0.29738885 -0.5928078 -0.7768215 -0.21911754 -0.7285128 -0.7269227 -0.48639607 0.23767729 -0.042610202 0.58968174 -0.32041505 0.050673008 0.35403216 -0.23013474 0.45638183 -0.1885046 -1.3578966 0.40684 -0.11220515 -0.5353804 0.18875062 0.1632771 -0.073376045 -0.29605442 0.91960955 -0.15734029 0.17499334 -0.4697474 -0.114056125 0.61100006 0.54221284 -0.26827547 -0.36227837 0.125938 -0.30451557 0.10015913 0.5135538 -0.41226122 0.6623866 0.12278207 0.14311747 0.93903226 0.47727445 -0.8309551 -0.36515573 0.33920142 -1.0553602 -0.91053814 0.8293869 -0.14373069 -0.4136555 -0.258101 -0.6391873 0.16122976 -0.10784825 0.4746982
邓晓俊 0.11337648 0.6148626 -0.6863746 0.14741328 -0.7525359 0.46754405 0.66595083 0.54640096 -0.34295073 -0.6515291 -0.8307987 -0.23349343 -0.75332075 -0.76320374 -0.48896617 0.26353636 -0.05029324 0.6389618 -0.38680783 0.066579856 0.38910982 -0.28634775 0.4934359 -0.21166523 -1.4405656 0.44274706 -0.08608611 -0.55564713 0.2496902 0.14654985 -0.089991964 -0.35142928 0.97140825 -0.19776002 0.20441598 -0.47971058 -0.13637267 0.6533736 0.5684681 -0.26959828 -0.3932879 0.09796417 -0.34874645 0.108040534 0.54920536 -0.45116967 0.6831811 0.13797382 0.1346634 1.0176432 0.5017105 -0.8714296 -0.4251088 0.33053938 -1.1151456 -0.9883764 0.9148786 -0.1571811 -0.38853458 -0.24764307 -0.6712946 0.1580095 -0.16565606 0.5613511
吴学龙 -0.5933541 0.6120669 -0.7000413 -0.6151895 -0.22081876 0.21271901 -0.050183445 -0.17093167 -0.053687025 -0.7007727 -0.4821714 -0.8017906 -0.6549657 0.1438326 -0.88139105 0.48175249 -0.08208936 -0.31748363 0.5742567 0.05709772 -0.3672045 -0.5903877 -0.52513796 -0.081204206 -0.25611308 0.34170842 -0.24159954 -0.011571007 0.14377332 0.7529466 0.4445622 -0.26239568 -0.21999907 1.004815 0.46042165 -0.70000094 -0.57791543 0.25552434 1.0983326 -0.20838791 -0.13026187 1.2922194 -0.03829446 0.58763677 -0.36077005 -0.23366095 0.021210955 -0.5725202 -0.56992275 0.72578543 0.9346773 -0.75421256 0.1519689 0.16395088 -0.24468583 0.32136244 -0.47237122 0.086304255 -1.6037831 -0.33685604 -0.84252006 -0.31527105 1.6428676 -0.8583566
聂新平 0.62428063 -0.042265445 -0.41309822 -0.38896313 -0.87194175 0.50626224 -0.41263124 0.3753781 -0.8215969 0.5678695 -0.60331786 -0.6607255 -0.8516567 0.026591085 0.6368485 -0.14030571 -0.48261738 0.9550109 0.9080546 -0.37340963 -0.5186706 -0.33744615 -0.7569681 0.16876268 -1.4134594 -0.31061593 -0.29989976 0.1652931 -0.73793674 0.29583955 0.49037647 -0.422817 -0.15086211 0.14068292 0.15813076 -0.12585087 0.5673411 -0.232404 0.10689747 -0.3874801 0.18098131 0.628544 0.26087978 0.21901187 0.54392153 -0.020388756 0.10173397 -1.0004458 -0.64526504 0.7748853 0.8347255 -0.20960839 -0.9995912 0.406379 -1.2153312 -0.6767968 0.8707347 0.4717003 -0.89440364 0.012818137 -0.039013445 0.1658372 0.8640126 -0.9644263
曾岳雄 -0.7843163 -0.17889585 0.1768732 -0.31920046 0.18296115 0.85940784 -0.8427327 0.13228804 -0.048375573 0.2393813 -0.45526177 0.40161327 -0.8790451 -0.82299614 -0.7096471 0.45189813 0.20042087 -0.1254461 0.7431095 -0.71715605 0.7545724 0.5048743 0.15723568 0.1533175 -0.9343371 -0.46683577 -0.68662506 -0.85715765 0.08026612 0.629705 -0.92599076 -0.12293918 0.9192954 0.4102028 0.48980623 0.20161918 -0.19839323 0.47527012 0.75914323 0.6446799 0.08227747 0.104000576 -0.30456594 -0.28261667 0.05068395 0.8435337 0.36592045 0.6662569 -0.16269597 -0.21543325 1.1880624 -0.99251676 -0.024301203 0.35120168 -0.9973223 0.03736916 0.49224386 -0.3872828 -0.82413155 -0.7543655 -0.12672631 -0.31123474 0.56213176 -0.71959805
沙新华 -0.25132456 -0.347439 -0.14850865 -0.29188108 -1.0847381 -0.024133496 0.3213346 0.32575572 0.15180704 -0.29894227 -0.40543383 0.00465139 -0.3172423 -0.30744544 -0.46455273 0.22971506 0.13861603 0.57233894 -0.21015806 -0.37166363 0.8911352 0.27453667 -0.45091438 0.2056674 -0.81464005 -0.8651532 0.9309564 -0.90176713 0.019380126 -0.19587064 0.033383247 0.3933017 0.28469118 0.073183246 0.4162635 -1.2706848 0.2911454 -0.574217 -0.21285437 -0.6788897 0.3826047 0.844837 0.07084252 0.3489036 -0.4408523 0.30347902 0.90819585 0.028617656 0.20726965 0.3878092 0.17348255 -0.6472062 0.6596207 0.5015434 -1.1567329 -0.42746928 -0.5231248 -0.1782285 -1.3229328 -1.3500973 -0.6515983 0.30205706 0.17641446 -0.13687018
郭建 -0.12610102 -0.5937323 -0.53983 -1.0326053 -0.31197608 0.06432926 -0.28293076 0.14920753 0.64301926 -0.27696112 -0.45004165 -0.13497208 -0.86827946 -0.8926535 -0.38975033 -0.45691252 0.15779798 0.29799068 0.9457642 0.41997218 0.19456917 0.052584104 0.4121519 -0.059945792 -1.0325192 0.0020085638 0.031072546 -0.20748432 -0.59942394 0.17999059 0.30873352 0.1839475 0.043053918 0.57461697 -0.5028634 -0.5298894 0.099528685 1.0404525 0.061389282 -0.7669232 -0.5320522 0.14453377 -0.02838372 0.15936486 -0.42374244 -0.079348624 0.09707335 -0.5045333 0.3802586 -0.52399683 0.13250011 -0.3230431 0.13831559 0.23091668 -0.5559233 0.348775 -0.14212354 0.5533404 -1.0698633 -0.49944818 -0.52389777 0.3085901 0.6453651 -0.5077146
邱宣 -0.19840463 0.17757078 -0.7522489 0.20177826 -0.97103816 -0.3308434 -0.7384989 0.55875874 -0.30242085 -0.9111948 -0.23248453 -0.25122538 -0.44820067 -0.46823406 -0.78420734 0.76001596 -0.5764699 0.6079254 -0.12121151 -0.7442958 -0.29933113 0.8186348 0.13407071 -0.5706817 -0.555384 -0.45435253 0.37575474 -0.31190616 -0.59780896 0.86826265 -0.84147346 0.75656176 0.060430042 0.16850793 0.1754807 -0.85590947 0.41626433 -0.07950091 0.65984446 0.7142026 0.39882228 0.6085417 -0.006475157 -0.36446404 -0.3613247 0.37505078 0.5136806 -0.60183114 -0.28367305 -0.15327175 0.93741393 0.2361418 0.17525177 0.6341643 -0.594208 -0.26009563 -0.10581768 -0.17510538 -1.0012212 -0.94315475 -0.72224844 0.6061722 0.3766113 -0.2833301
余璟 0.5637409 -0.36763915 -1.1830906 -0.93565273 -0.6810601 0.7860361 0.42662457 1.1834174 0.061873734 -0.4967672 -1.1974722 -0.16727926 -0.4883835 -0.84003234 0.43172613 0.06501121 0.62147576 0.20221849 0.6123481 0.44099295 0.19076903 0.52192676 -0.21333645 0.12615457 -0.20609215 0.47493753 0.18494576 -0.60385484 0.24139254 1.1317768 -0.22795722 -0.3102645 0.57388836 1.0083196 -0.20529659 -0.7833318 0.76650447 0.004468089 0.6010479 -0.7470782 0.107842654 0.26407787 -0.30155125 -0.3352166 -0.07135062 0.83864224 0.5478733 0.12762389 -0.25489977 0.20319693 0.7106248 0.32158005 -0.5851662 0.20241539 -0.17807055 0.44798604 -0.22197509 0.16729033 -0.20658557 -1.2321619 -0.00794578 0.7361965 -0.15557863 -0.5363622
李郑祥 1.0319134 0.77093214 -1.066252 0.2069743 -0.44952548 -0.3204541 0.19627711 0.062279943 0.16970056 -0.6667736 0.06575752 -0.71994406 0.35890234 0.12709388 -0.35262808 0.17449853 -0.51619196 0.77169096 0.6591456 0.21252361 -0.46783203 -0.085747264 -0.74017787 0.10755969 -0.09679461 -0.41979533 0.88566047 -0.5410925 -0.17038707 0.98282075 0.45556766 0.4931686 -0.31064016 0.4282962 0.15834652 -0.7701198 0.5091986 -0.53728604 0.8385654 -1.1180985 -0.71647066 0.5984636 -0.46180573 0.08901888 0.14170575 -0.19059978 1.0661768 0.11551151 0.7572108 0.3644119 0.85209143 -0.904772 -0.47444147 0.91149944 -0.7507891 -0.38422456 -0.6916599 0.8801652 -0.7823358 -0.58391577 -1.0590737 -0.09062667 1.2180185 -0.07099897
钟海 0.12752023 0.37747264 -0.91088694 0.2955471 -0.4259117 0.27169403 -0.13742751 -0.19491687 0.3095368 -0.4565744 -0.6888058 -0.70797145 -0.6670773 0.12058644 -0.41344067 0.48566255 0.7201695 -0.46539104 0.5820182 -0.69957113 -0.36903626 -0.8687852 0.22218972 0.213883 -0.6476787 0.3940285 0.27324757 0.12743184 -0.65927947 0.40125462 -0.881385 0.2999434 0.31265497 0.006111259 -0.26389524 -0.15867446 0.23988754 -0.508412 0.021264717 -0.6149421 -0.5331102 -0.08575981 -0.7984935 -0.07965164 0.29607543 -0.29713222 0.92425716 0.1766532 0.91774833 -0.25527078 0.95481527 -0.29674682 -0.41793373 0.6843917 -1.3539739 0.29040736 0.8577928 0.5676382 -0.86193013 -0.9053701 -1.2337997 -0.11020541 0.2746599 -0.8447048
贾长胜 -0.34047973 0.15336649 0.049756393 -1.0149086 -0.4446907 -0.282 0.18898983 0.6142963 -0.1399239 -0.38070396 -1.1345958 0.3893481 -0.5760389 -0.66760266 0.23350033 -0.004515181 0.5595795 0.49290824 -0.41697317 0.102436885 0.7423739 0.28215313 -0.5869952 0.226684 -0.26635408 -0.09453549 -0.26425797 0.19402297 0.32886904 0.6799661 -0.42582664 -0.52452445 0.34423167 0.9482253 -0.5336178 -0.7747525 -0.34227613 -0.12041312 -0.3217625 0.4524907 -0.7038284 0.09598409 0.08499372 0.3297307 0.89352274 -0.23559843 0.08710029 -0.650465 0.108896576 0.33113393 1.4998355 -1.0626205 0.18318608 -0.5262404 -0.9714194 -0.7411727 0.7940053 0.4543497 -0.003798311 0.16980118 -0.033788133 0.7805153 0.83928716 -0.18618439
王幼鹏 -0.13517705 -0.034814294 -0.5748594 -0.39245236 -0.8286248 -0.013430763 0.60661095 -0.1680207 0.17162475 -0.19007385 -0.8032749 -0.4895007 -0.3384853 -0.50326157 0.43766472 0.12518798 -0.2317959 0.71929145 0.3071426 -0.02861635 0.13005024 0.12997824 -0.28721446 0.2645479 -0.66706425 -0.51927865 0.032013714 -0.2814229 -0.2600711 0.59303635 0.0834289 0.18911761 0.2231188 0.46856856 -0.12783507 -0.5604283 -0.121985205 -0.7028291 0.7324832 0.3509762 0.2860806 0.15737703 0.35653266 0.36819267 0.34950277 1.0171729 0.68254066 0.25794557 0.5171554 0.4049359 0.411889 -0.7403273 -0.20425254 -0.16307226 -0.39746752 -0.73236907 0.0320911 -0.47429225 -0.39324617 0.09977027 -0.5882184 0.85082984 0.63517207 -0.28821152
尹杰 -0.16111565 0.09861543 0.21795125 0.09543621 -0.79411304 0.55556625 -0.44447803 -0.3279905 0.3141535 0.4565121 -0.24380548 -0.40782902 -0.4274466 -0.42065734 -0.0016150322 0.70229125 0.28561842 -0.23077972 0.4457544 0.15639232 -0.33666235 -0.21609803 -0.38785073 -0.67281884 -0.071875595 0.18742791 -0.5796332 0.19828255 0.038662855 0.6491716 -0.46339563 0.6212411 0.41840628 0.70680565 -0.008954019 -0.56799424 0.20796743 0.48263866 -0.03627584 -0.5791675 -0.051469088 -0.004219016 -0.07273168 0.07680698 0.5144826 0.06562088 0.19314386 0.018168543 0.34274513 0.079676665 1.1003371 -0.8437575 -0.52004516 0.68395126 -0.38176253 0.18469158 -0.15679081 0.21981007 -0.18074724 -0.3949792 -0.20766577 0.41241997 0.42095357 -0.27394292
李喻春 0.12828554 -0.60055214 -0.66029054 -0.375595 -0.46289048 0.25160438 -0.28249463 0.40502694 0.1523337 -0.50518334 -0.1655428 0.31418303 -0.21104172 -0.47030127 -0.23487964 -0.43092757 -0.047470532 0.003542371 -0.16384146 -0.23826607 -0.1436399 -0.045015022 -0.07315494 -0.75650305 -0.8393293 -0.39020497 -0.059136216 -0.22736819 -0.09781225 0.6029067 -0.036437884 0.7906825 0.6410449 0.82044995 -0.38648912 -0.20106605 1.0223775 -0.5089532 0.14665715 0.024219863 -0.20832148 0.19087219 -0.7132731 0.54257405 0.50717217 -0.4916735 -0.10780918 0.2855461 0.21286453 -0.102125846 0.27461785 -0.32335907 0.3373436 -0.32681593 -0.7704569 -0.15029912 0.084788814 -0.01826045 -0.17428468 0.09391768 -0.74381095 -0.19842418 0.7904997 -0.7358812
张学凡 -0.19694784 -0.22711477 -0.82629335 -0.120242916 -0.074381456 0.3699659 -0.2913258 0.7772738 0.3942766 -0.040129475 -0.5578657 -0.14593038 -0.8462986 0.05374197 0.28762397 0.021949597 -0.04922389 -0.22485964 0.29330224 0.27351227 0.09170935 0.47076547 0.123210445 0.005874148 -0.9887227 0.094326794 -0.24342051 -0.014796603 0.7514021 0.12725687 -0.27172035 0.47965148 -0.24570201 0.5030691 -0.016143326 -0.17578283 -0.65681875 -0.106766455 0.0023643202 -0.5623343 -0.20986508 0.62167275 0.15176165 -0.16984256 0.019405238 -0.15242864 0.56868374 0.3582266 0.5288299 -0.64812875 0.090017244 -0.8703736 -0.37110785 -0.038922444 -0.74468523 -0.4010483 0.089577556 -0.062564656 -0.7569654 -0.599169 -0.44495997 0.38017097 0.763339 0.6182187
陈文清 0.032390058 -0.4585186 0.27273488 -0.6911592 0.10188248 0.6828958 -0.67184925 0.6136188 0.0074136243 -0.100163326 -0.45398384 -0.15132415 -0.53832763 -0.7425204 -0.024266928 0.5497479 -0.45611304 0.22223188 -0.18732078 -0.034478243 0.55306464 -0.8619963 -0.38461402 -0.7473658 -0.123201214 -0.36631852 0.04081879 -0.8081864 -0.37197366 0.63568527 -0.542766 0.114297986 -0.22818951 0.39926317 0.32715297 -0.42751136 0.348376 -0.32894677 0.60290897 0.06060448 -0.45664862 0.04321967 -0.17184694 0.18379737 0.14189501 0.30238363 0.43728188 -0.41564646 -0.23954707 0.37606317 0.80939925 -0.13264073 -0.107159995 -0.14159845 -0.62569517 0.5375717 0.17576528 0.40035346 -0.3893108 -0.23594293 -0.27405366 0.39267254 0.7274975 0.356076
王伟雄 -0.082661524 0.016502107 0.17068711 0.123474956 -0.7567988 0.5363996 -0.4562036 -0.20561194 0.2792076 0.3238593 -0.22251068 -0.3147589 -0.45374215 -0.3949403 -0.18716888 0.7364314 0.24765924 -0.39003918 0.40337107 0.10398551 -0.32349554 0.023956986 -0.2540579 -0.56572247 -0.032069746 0.14214267 -0.4262873 0.100403845 -0.06027259 0.63808924 -0.4521994 0.6633169 0.35605145 0.72388655 0.12981865 -0.61684716 0.1694909 0.46759748 0.060790952 -0.54219687 -0.091394 -0.080397174 -0.10928263 0.09521008 0.5361593 -0.04972343 0.30924496 0.1134584 0.32117316 0.045973707 1.011895 -0.53347623 -0.30816212 0.6923773 -0.4987176 0.20121923 -0.2012588 0.24294738 -0.143311 -0.3805866 -0.145591 0.39334878 0.29801327 -0.28742412
高泉 -0.1968737 -0.26816097 -0.8262153 -0.09490828 -0.068431325 0.3751218 -0.28735083 0.8012753 0.37705523 -0.02786651 -0.59083384 -0.15586188 -0.8828678 0.043647062 0.29312092 0.028435834 -0.092476696 -0.18295428 0.2482756 0.26288748 0.12344117 0.42407265 0.09317344 0.009251808 -0.961439 0.1038245 -0.23294486 -0.010861817 0.76597685 0.14055017 -0.26527947 0.4516563 -0.25505874 0.54875666 -0.022930041 -0.15233837 -0.66411364 -0.10216866 0.016804265 -0.5343919 -0.21749729 0.63303024 0.1351262 -0.17464101 0.009914486 -0.1422997 0.5980548 0.3596621 0.49672794 -0.616489 0.111414604 -0.8863721 -0.39418563 -0.06562129 -0.7235237 -0.40517938 0.096275836 -0.066469826 -0.76584274 -0.5737629 -0.46646962 0.39741957 0.7883359 0.61795056
苏剑 0.0545738 -0.56875926 0.27410173 -0.6710998 -7.977421e-05 0.66941434 -0.6206646 0.64882916 0.044653695 -0.04619433 -0.4605599 -0.15907726 -0.40430406 -0.67458135 -0.123193644 0.62617993 -0.47971076 0.34187555 -0.30537555 0.014061067 0.62833923 -0.9444813 -0.2043517 -0.72856355 -0.19538689 -0.2806797 0.0882856 -0.76700777 -0.33225733 0.70380646 -0.5603531 0.13088226 -0.3027107 0.37156206 0.44012207 -0.2981343 0.4112246 -0.40372968 0.6234934 0.13003464 -0.33227566 0.16351463 -0.20536526 0.20572746 -0.0071937605 0.3614163 0.4671109 -0.48274678 -0.1390236 0.39620766 0.747694 -0.10373391 -0.12157572 -0.18200228 -0.59211403 0.49106395 0.31620932 0.40987393 -0.3018459 -0.36548692 -0.22172095 0.29190263 0.7327983 0.33636385
詹有力 -0.12362952 -0.021829112 -0.4845048 -0.3358534 -0.7202468 -0.04878887 0.54483587 -0.15610524 0.1478171 -0.15407398 -0.70777017 -0.42968255 -0.30496055 -0.43319693 0.40745607 0.12155049 -0.22685614 0.6637606 0.28527385 -0.029884953 0.12887065 0.12539823 -0.2750879 0.27597198 -0.56753194 -0.48055375 0.04513461 -0.24292362 -0.24999703 0.51727897 0.08482186 0.15242688 0.1816868 0.39725432 -0.11387552 -0.50912744 -0.11375369 -0.65828 0.6570283 0.33311027 0.26527175 0.1301167 0.3417747 0.3213364 0.30363142 0.93328995 0.6140095 0.21546996 0.47047463 0.38668263 0.34558368 -0.65558493 -0.16890973 -0.16734508 -0.34828553 -0.67743325 0.04124385 -0.44785857 -0.36609158 0.10989663 -0.51576835 0.7879045 0.55441403 -0.24784456
钟伟民 0.0859554 0.09495716 -0.003124982 0.107477486 -0.85406333 0.51901144 -0.44715303 -0.23561025 0.31745818 0.31429952 -0.39674684 -0.53725547 -0.47661486 -0.53566223 -0.18306765 0.7583825 0.24183449 -0.3654761 0.4777879 0.26325253 -0.30787075 0.081991434 -0.27422655 -0.64840823 -0.024849262 0.11236927 -0.42123607 0.26350826 -0.16172326 0.75683755 -0.65141344 0.75314975 0.39399108 0.921286 0.067979515 -0.66897357 0.08501485 0.5178246 0.13633066 -0.6137252 -0.026752878 -0.10263712 -0.07793748 0.16406113 0.65560585 0.02147531 0.38430572 0.052803453 0.48657298 0.18639493 1.1139239 -0.71017724 -0.23687832 0.7122256 -0.5731268 0.10021829 -0.35949257 0.3971232 -0.19142614 -0.46483347 -0.102436274 0.35855198 0.36326924 -0.27427095
张陆 -0.08018625 -0.56430584 -0.44804832 -0.93678045 -0.2870306 0.052874316 -0.31041425 0.17394799 0.58524793 -0.30175343 -0.41765684 -0.081158884 -0.7480984 -0.79082453 -0.43459135 -0.44137034 0.11511766 0.23676783 0.8006642 0.3698643 0.17797004 0.053216346 0.36643738 -0.118421264 -0.9700785 -0.051778395 0.025050359 -0.16719943 -0.6260866 0.18122378 0.27971274 0.13255797 0.040907558 0.4422909 -0.4105002 -0.41792855 0.09575238 0.8944334 0.1047451 -0.68173486 -0.50736076 0.17415562 -0.0724866 0.128786 -0.43305308 -0.062336218 0.02689044 -0.4975871 0.3428977 -0.49025854 0.113146804 -0.28953037 0.14122692 0.17980628 -0.55511534 0.32901156 -0.095098235 0.5034631 -0.94629925 -0.43310767 -0.43138286 0.22527364 0.61620915 -0.5341415
裘颖颖 -0.019859627 -0.42131686 -0.33620077 0.39459315 -0.09108058 0.35080078 -0.28988475 0.61074567 -0.05694372 -0.35278553 0.13911863 0.09332982 -0.48512843 0.28628054 0.021073995 -0.0221084 0.09109504 0.55466455 -0.34635943 0.098228805 0.08997852 -0.8772986 -0.3442849 -0.7888677 -1.187624 -0.13353576 0.6004964 0.18856974 0.5427097 1.0119504 -0.54095966 -0.60046476 -0.020621562 0.82682526 -0.4855483 -0.0024693797 0.42917112 0.3557331 -0.0601757 0.48222458 -0.45381021 0.74434507 -0.7941442 0.091494516 -0.04144144 -0.43330225 0.24937448 -0.26707873 0.19471417 0.1426367 1.2082485 -0.25237104 0.062248494 0.044877272 -1.0498456 -0.99076426 0.25102916 -0.2731526 -0.23635978 -0.4004586 0.1066314 1.1023077 1.3229924 -0.31738794
陈强 0.44117305 0.49657473 -0.36656922 -0.23483638 -0.17932871 0.6600493 0.16531621 0.75158346 0.08526432 -0.27045858 -0.43644127 0.37866196 -0.50680953 -0.45136145 -0.06981559 0.18116239 -0.26214233 0.38347813 -0.023653664 0.26084775 -0.18185924 -0.43946192 -0.5393643 -0.06549576 -0.7574976 0.23868981 0.4810256 -0.10386596 -0.16579306 -0.3189082 -0.87408274 -0.35103053 0.77696425 0.67014384 -0.552705 0.3557127 -0.42509463 -0.22006227 0.8691719 -0.8618672 -0.28939673 0.47480106 0.41001964 0.24595761 0.2881005 -0.07584732 0.3543507 -0.6552215 -0.02025548 0.17794202 0.607219 -0.83194214 -0.99858725 0.5324907 -0.6823651 -0.9641996 0.31142843 -0.23031351 -0.07411199 -1.1753312 -0.35856336 0.29898024 1.0033201 -0.43725127
许露露 -0.15351105 0.05751792 0.17689937 0.12319993 -0.7383613 0.5054405 -0.4376928 -0.29472348 0.3045083 0.41966614 -0.19728328 -0.37388343 -0.39428553 -0.35279316 0.024111016 0.6247912 0.24753281 -0.2570623 0.40509206 0.13377109 -0.31929237 -0.17510912 -0.35413018 -0.62972313 -0.10660897 0.16212477 -0.50796276 0.20436072 0.061573803 0.57722163 -0.45205534 0.59566784 0.3632353 0.658159 -0.014080073 -0.50379825 0.1781555 0.42912358 -0.049911536 -0.5307197 -0.044204224 0.034060545 -0.07448507 0.074504904 0.46776062 0.02581187 0.16457133 0.029128214 0.35079148 0.043821022 0.9885722 -0.7714126 -0.46767795 0.60935855 -0.37499398 0.15280186 -0.13825046 0.21741912 -0.14071198 -0.35310775 -0.18141164 0.36953628 0.41241378 -0.25333658
卢旭阳 -0.13633083 0.07231442 0.17560561 0.11291596 -0.6908267 0.44537356 -0.40100956 -0.27470404 0.2814185 0.3703474 -0.18788004 -0.3380824 -0.35475624 -0.32261118 0.0027880021 0.5779493 0.24265754 -0.23226517 0.35066053 0.14938356 -0.310583 -0.1433177 -0.2983893 -0.5790394 -0.047646094 0.15826891 -0.48465183 0.20859009 0.05806673 0.53604245 -0.40888724 0.5496137 0.3344873 0.6018611 -0.020157123 -0.46649018 0.16630268 0.42170492 -0.07079894 -0.49274665 -0.051227413 0.0074204886 -0.057633374 0.06675516 0.43625653 0.0069501735 0.13585298 0.019642847 0.2866997 0.03967378 0.9011846 -0.70865965 -0.40611634 0.5651721 -0.31616908 0.15598243 -0.14452031 0.19501518 -0.10378666 -0.30509377 -0.14232719 0.33590046 0.34639353 -0.22423255
张谦 0.08864926 -0.5577927 -0.58029276 -0.36202672 -0.39897913 0.23260206 -0.27771187 0.36771238 0.14536172 -0.43153417 -0.14240797 0.267568 -0.20520158 -0.44616678 -0.21625319 -0.37060097 -0.056200046 -0.0016640485 -0.12232712 -0.2090534 -0.10513008 -0.017022802 -0.07157429 -0.66635334 -0.76356363 -0.35318792 -0.04507012 -0.21180375 -0.1157054 0.5424744 -0.045115422 0.6868897 0.55863947 0.74513584 -0.33726814 -0.20346782 0.91014653 -0.42862603 0.13241461 0.019452166 -0.19334891 0.16188961 -0.63162565 0.46920872 0.44429323 -0.42508844 -0.09265431 0.23715635 0.1895889 -0.09010892 0.2419413 -0.26623902 0.3026778 -0.28742677 -0.7026487 -0.119476 0.08639582 0.0044236113 -0.18967615 0.059952565 -0.65644187 -0.17434461 0.69754636 -0.62200874
丁强 -0.09873807 -0.009707112 -0.42563972 -0.2945628 -0.67214054 0.004078165 0.47024447 -0.090184525 0.13010655 -0.12901235 -0.6482946 -0.3832028 -0.26128462 -0.4220144 0.32759953 0.12748787 -0.21343608 0.58607876 0.251802 -0.029220328 0.12285399 0.108174324 -0.25672147 0.23403041 -0.5714102 -0.4286644 0.057387456 -0.2475188 -0.20623614 0.46773753 0.019887155 0.14378813 0.19162692 0.37235454 -0.057998013 -0.46974576 -0.11980494 -0.56265885 0.5822506 0.262172 0.22505996 0.12626316 0.32571408 0.29033425 0.26670378 0.8264462 0.5877219 0.1762428 0.41397572 0.36801863 0.34247127 -0.6088554 -0.20801792 -0.09825077 -0.3556285 -0.61318773 0.029419592 -0.407899 -0.3617424 0.036841057 -0.47681245 0.6932472 0.48955786 -0.1906662
徐忠平 -0.08624779 -0.041557908 -0.40402874 -0.29781684 -0.6213219 0.043316152 0.42507133 -0.075191125 0.14829448 -0.12129621 -0.60988563 -0.35641223 -0.24591693 -0.40033787 0.27867833 0.1373171 -0.18805474 0.54485047 0.2537529 -0.014226698 0.09776443 0.069253184 -0.21475427 0.15672867 -0.5251186 -0.38723087 0.0397913 -0.22484481 -0.19245137 0.46395963 0.0048197657 0.14156985 0.21009733 0.38759008 -0.06659014 -0.43985423 -0.061319143 -0.50767046 0.55288184 0.22272769 0.17923869 0.13297285 0.25067005 0.26708996 0.24012102 0.7445098 0.56179255 0.18751436 0.41885582 0.32457408 0.34970963 -0.5847861 -0.18563329 -0.07964709 -0.36937517 -0.541811 0.019566743 -0.36873868 -0.34539267 0.0149219595 -0.4848849 0.6276545 0.4820427 -0.18577285
吴远翔 0.032034058 -0.5300059 -0.4896347 -0.44315046 -0.3381931 0.14314897 -0.27351874 0.25725612 0.25003502 -0.41982877 -0.14690003 0.2127799 -0.25624666 -0.4056772 -0.24954888 -0.40183157 0.006958102 -0.011415768 -0.0105053075 -0.0861458 -0.061643526 0.033858784 0.0812826 -0.45672542 -0.70232314 -0.25968662 -0.043313053 -0.16030245 -0.18239285 0.39585632 0.0448947 0.57257015 0.4606097 0.60607547 -0.41023222 -0.19501331 0.706321 -0.08939953 0.023648432 -0.07527722 -0.18225692 0.124715306 -0.48025686 0.34847063 0.24402802 -0.39533162 -0.15388921 0.1303568 0.19128433 -0.19531883 0.111880325 -0.21849711 0.3459816 -0.19780129 -0.5914897 0.045834597 0.042522613 0.10082523 -0.28951338 0.0141994655 -0.5640736 -0.13695753 0.5294479 -0.5880539
张礼卫 0.11088082 0.07160885 -0.03962757 0.08039626 -0.66907185 0.41168994 -0.32842466 -0.16999334 0.24499422 0.24761216 -0.3410465 -0.4514805 -0.3639875 -0.45406634 -0.14380254 0.55831873 0.18227713 -0.25434405 0.3718198 0.22113779 -0.24607348 0.06982707 -0.22273336 -0.52363336 -0.041195028 0.09101476 -0.34111923 0.21648933 -0.15450943 0.5848834 -0.53261316 0.580728 0.31930128 0.7522404 0.033043925 -0.52124023 0.058126356 0.40698534 0.13807319 -0.5039362 -0.012798724 -0.08246268 -0.051038228 0.13006762 0.53563046 0.030820077 0.31464776 0.046076562 0.41193104 0.17489354 0.8755604 -0.58405316 -0.17719653 0.5706903 -0.46009773 0.025974259 -0.29092377 0.32413277 -0.15863943 -0.36236796 -0.0747646 0.2667572 0.29250365 -0.20751594
