64 64
林翰章 -0.666021 0.072611004 0.07644404 0.5750537 -0.2678193 0.0076402714 -1.1230544 -0.54105 0.124295 -0.87838393 0.03657866 -0.16739543 -0.20343049 0.22159041 0.011857926 -0.22802185 0.5072424 -0.7843835 -0.50330514 0.66174877 -0.79422003 -0.7694545 -0.4666613 0.5364425 0.13104565 -1.1395131 0.8407875 0.56609416 -0.32364404 -0.5421883 0.55048794 -0.24920811 0.14115672 0.8869862 0.2668484 0.067966044 -0.19012988 0.59189767 -0.33754346 0.5861533 -0.9669871 0.7471839 -0.91957986 -0.14520952 -0.685491 0.24888007 -0.1607439 0.6077033 0.7674313 0.7080612 1.0622152 -0.88401484 -0.12100699 -0.6145368 0.7172516 -0.7785436 0.24188076 -0.6477291 -0.57611334 0.28221357 0.32818314 -0.71064657 0.23664418 0.22160578
刘世会 -0.71190184 0.03428619 -0.1436061 0.25212097 0.24876468 -0.85423404 -0.994484 -0.21845847 0.1521042 -0.18844056 0.55096775 0.68679833 0.37497357 -0.71056914 0.24566287 -0.2598273 -0.0012219995 -1.0414648 -0.45862144 -0.3902904 -1.1344341 0.24277475 -0.24367245 0.93128026 0.17106032 -0.63518935 0.51208484 0.40752628 -0.10997133 0.60534894 1.3324236 -0.011174329 0.06011263 0.3715322 0.99727446 0.19931187 -0.6637471 0.074520275 -0.5432974 -0.7586951 -0.30106348 0.24183676 -1.281368 -1.3029195 0.06265852 -0.4234846 0.11313595 -0.0066338177 -0.20059426 -0.20064841 -0.036611017 -0.3134236 0.4324656 -0.9966016 0.18719694 0.78323823 0.002037808 0.18423203 -0.099734165 -0.64536786 0.48527053 -0.7156213 0.29820052 0.89564
王东 0.51724964 -0.15357701 0.35993138 -0.375718 -0.94174397 -0.14362125 -1.0366391 0.11236893 -0.4076777 -0.12070835 0.882404 0.6251394 -0.3781057 -0.2923517 0.020549808 0.70226693 0.8223217 -0.14509368 -0.4777739 0.579154 -0.89817363 0.34484726 0.5362356 -0.4022175 -0.224761 -0.2646313 0.658111 0.7539465 0.47711766 0.3945192 0.7470698 -0.86243075 -0.16535385 0.51764053 -0.17217304 0.4768725 0.0564066 -0.36039877 -0.5429305 -1.142612 0.31946403 -0.36617744 -0.42056367 -1.0403775 -0.105367124 0.35700276 -0.31339124 -0.36641535 -0.33352533 0.5436509 1.4797146 -1.2812752 0.06692083 -0.48926404 1.2296228 -0.18247391 0.30127388 -0.3831227 -0.7503073 0.27933288 0.558037 -0.08019024 0.050212495 -0.61885726
高尔剑 -0.5612717 0.006935778 1.3800912 -0.12153188 -0.16829361 0.24265987 -0.93294805 -0.5224544 0.81335855 -0.19487783 0.44517127 0.5165547 -0.100706875 0.2817909 -0.3226829 -0.41359743 0.900226 -0.8426406 -0.6498508 -0.89424264 -0.27009726 0.12603158 -0.033538297 -0.07526834 0.35625553 -0.14193472 0.3750393 0.4888201 -0.022306941 -0.24537374 0.7049167 -0.3831163 -0.21683191 1.2929792 0.26078707 -0.849826 -0.07549017 -0.6285168 -0.12615468 -1.245106 -0.28386652 0.4459727 -0.2665765 -0.45793667 -0.34585136 0.2757535 -0.7569605 -0.01874317 -0.2239217 0.98926777 -0.17320104 -0.7121266 -0.14947885 -0.23865837 0.08572027 0.25663453 0.21958755 0.45882338 -0.5889871 0.36603034 0.65910643 -0.4113255 0.12245837 -0.0101208715
杨青 0.6246928 -0.67805284 0.69390196 -1.0827861 0.43179598 -0.3645021 -1.1793277 -0.9449159 -0.76223403 0.008763648 0.653688 0.68630636 -1.1645318 0.069382615 0.5332197 0.06721209 -0.03428872 -0.33629832 -1.0452036 -0.86901563 -0.59382117 -0.49316135 0.10329495 1.0868776 0.64739746 0.236373 0.18667816 0.05475216 -0.71068335 -0.14784788 0.56435835 0.19403088 0.5486221 0.07399207 -0.058661606 0.077233315 0.12370386 0.4407244 -0.16775078 -0.30601144 -0.23740752 0.96858764 -0.014115195 -0.9627707 -0.5985545 0.22897711 -0.37837073 -0.5195102 -0.4180213 0.12075871 0.9301514 -0.83300614 0.30831194 -0.36358795 0.15677717 0.2844193 -0.73105705 0.2181528 -0.610836 0.10409749 0.1278409 -0.2609696 0.89930296 -0.30479404
郑小霞 -0.15645795 -0.65985656 -0.3615553 -0.9451264 0.14650711 -0.46128628 -0.8960282 -0.078948155 -0.37397346 -0.24747217 0.13643113 0.7083551 -0.37936643 0.47110286 -0.39399216 0.82773906 0.42336345 -1.5091912 -0.024318974 0.11294389 -0.26233634 0.24754049 -0.053629715 0.40796152 0.33206734 -1.2610012 0.54197013 -0.13157067 -0.26075327 0.008286898 0.5350319 0.48127192 0.5447295 0.60548264 0.14536755 0.6454753 0.4604731 -0.2061796 0.45163295 -0.93657833 -0.39970517 0.2796339 -0.80907124 -0.50276035 0.1707552 0.5689672 0.6027133 -0.5548979 0.3509353 -0.07519239 0.19855031 0.345079 0.075768195 -0.932567 1.1675085 -0.56302303 -0.09407636 0.32775483 -0.35487637 -0.115437254 0.45378914 -0.33369076 -0.6431735 -0.36718443
张陆 -0.167497 -0.66873217 -0.39536977 -0.92648524 0.19474044 -0.46589217 -0.8769754 -0.052924175 -0.354075 -0.24681884 0.12870477 0.7034899 -0.38665885 0.47066942 -0.40370902 0.84925896 0.4048351 -1.4771284 -0.0061311317 0.1013549 -0.24644923 0.23371778 -0.091490045 0.4132109 0.31153643 -1.2657849 0.54590446 -0.14463013 -0.3127985 0.0020013119 0.4808535 0.5105491 0.57464373 0.58646697 0.1687025 0.6536963 0.47391164 -0.21114834 0.4567638 -0.9090592 -0.37707308 0.2663008 -0.8006492 -0.46707913 0.24166857 0.5901224 0.6357434 -0.5927078 0.36429068 -0.09213269 0.17297119 0.38925883 0.10155881 -0.92133653 1.1434947 -0.57804626 -0.08548235 0.34699947 -0.34425512 -0.108981825 0.4619703 -0.32122013 -0.65819913 -0.3715818
朱文芳 -0.44675848 0.035556875 0.3866149 -1.1957538 0.43920305 -0.09456074 -0.98803055 -0.21125539 0.27672142 -0.4745178 0.7350619 0.5600974 -1.5360119 -0.44069093 0.628401 -0.2565575 0.80069304 -0.47627687 0.19968316 -0.14843307 0.19768529 -0.37853986 0.40817302 0.47763574 -0.63601464 -0.36095726 -0.29527703 0.76660794 0.3447097 -0.26806903 0.46230793 -1.1348581 -0.104000546 0.50595033 0.4185904 -0.5486957 -0.010824215 -0.04373824 -0.76745045 0.13054411 0.19952081 -0.2634622 -0.41863313 -0.60926414 0.4416119 0.0826804 0.19314434 -0.21815823 0.9022209 0.34141892 0.5476854 -0.26890552 0.23311552 -0.87163365 1.3549044 -0.042561866 -0.42671427 0.095137104 -0.085203744 -0.34284243 0.20147431 -0.24526145 -0.106488645 0.42537737
钟晓鸿 -0.52140087 0.079241745 0.053700216 0.54386675 -0.21375555 0.017623058 -0.85392153 -0.39456084 0.04356016 -0.7151808 0.019763585 -0.15745546 -0.13737172 0.19523048 -0.009763849 -0.15912178 0.41571936 -0.58122015 -0.44187915 0.5415239 -0.6085694 -0.66080385 -0.43513292 0.41393274 0.13335754 -0.9094482 0.64787424 0.39150417 -0.29789737 -0.5034521 0.39420378 -0.18970971 0.14192861 0.6738266 0.25926605 0.06927443 -0.14971615 0.4709638 -0.2341006 0.5551789 -0.7455042 0.59031034 -0.70638436 -0.08925915 -0.5449392 0.18351851 -0.13019563 0.48703113 0.6293276 0.58895844 0.8596609 -0.668884 -0.099992335 -0.4400393 0.4818595 -0.65681523 0.22879066 -0.53010356 -0.47612566 0.23418337 0.20636463 -0.5857726 0.21282603 0.19384235
娄和儒 0.35605043 -0.6340991 0.3540533 -0.45402083 -0.07468173 0.109284125 -0.6318659 -0.526057 -0.059632186 -0.29036328 0.20209609 0.3003204 -0.374994 0.59388113 0.9131911 0.10546012 0.76663333 -1.019222 0.4887415 0.2572308 -0.78465927 0.75501704 0.024178833 0.50971574 0.65787345 -0.56288487 0.48477274 0.7637577 -0.477188 0.25220254 0.944772 -0.2975007 0.0011546192 -0.10477176 -0.28643888 -0.21054858 0.16830535 -0.009430598 -0.38001773 -0.87327176 -0.5959489 0.601381 0.024525065 -0.12895246 -0.22335428 0.3781927 0.078803346 0.75198615 -0.15533757 0.051318217 0.23930335 -0.8039371 0.0108411815 0.21223526 0.98337066 0.86010534 0.3879481 -0.0118140625 0.42918873 -0.8821906 0.49623445 0.172742 0.65399027 0.4269173
郑晓生汉 -0.4100912 0.010791429 0.32654372 -1.0839556 0.32715267 -0.07648656 -0.9697037 -0.20015325 0.2566495 -0.4232427 0.66504025 0.49617776 -1.4206041 -0.39122307 0.5677013 -0.18048666 0.7522903 -0.4898356 0.15616645 -0.07780717 0.108644515 -0.31565434 0.35113308 0.45438507 -0.5355979 -0.34695086 -0.21807027 0.76759076 0.31679532 -0.22152635 0.47472966 -1.0325676 -0.06858458 0.4699136 0.36880648 -0.51531893 -0.014255216 -0.02411478 -0.7094464 0.043377917 0.16661268 -0.23363596 -0.38249442 -0.5860851 0.40080625 0.124429636 0.14410537 -0.1661201 0.8018581 0.31354138 0.5709477 -0.30891004 0.21795867 -0.8203538 1.2941642 -0.06279399 -0.4002927 0.009943778 -0.14343007 -0.28902566 0.22219406 -0.24116883 -0.10138265 0.34723395
薛峰 -0.58749396 0.012710959 -0.12534066 0.23175326 0.19424488 -0.76121217 -0.81879336 -0.17507008 0.09027532 -0.20521083 0.45532894 0.6375024 0.3686072 -0.59848464 0.22963662 -0.19291429 0.010532545 -0.9564742 -0.38911793 -0.3340557 -0.9944029 0.28835264 -0.22493403 0.8280751 0.13636151 -0.5874542 0.4456374 0.33590072 -0.12145318 0.52395296 1.1844257 0.029967798 0.065367974 0.30949196 0.8874467 0.20656222 -0.5790389 0.04861526 -0.47284693 -0.6858744 -0.2250388 0.20451857 -1.1268029 -1.1171551 0.0683219 -0.3598923 0.11473668 -0.021531045 -0.15964589 -0.17779635 -0.058359314 -0.3019255 0.39121914 -0.86903524 0.12013846 0.698546 0.041114047 0.19649273 -0.0677576 -0.5886398 0.43982765 -0.6389553 0.2999534 0.7812644
廖远飞 0.26527992 -0.6322363 0.3108238 -0.4106949 -0.035478424 0.066586904 -0.6369288 -0.64228857 -0.038180575 -0.430609 0.17887406 0.27862823 -0.42483947 0.6335322 0.9249514 0.15391582 0.7888512 -1.015694 0.50787354 0.24098736 -0.6423082 0.66182834 0.02141876 0.45751393 0.54312867 -0.5656111 0.55988216 0.60783213 -0.496576 0.24919784 0.95530576 -0.2873867 0.067613535 -0.06658034 -0.28956017 -0.093452916 0.106585875 -0.057667974 -0.24408278 -0.88711804 -0.5432152 0.7885754 -0.06733458 0.04249628 -0.1827726 0.29379115 0.038457446 0.7148161 -0.25015074 -0.023890993 0.15252858 -0.72914577 0.07763481 0.14767337 0.8466395 0.8367686 0.45091337 0.10389437 0.51695395 -0.9202849 0.54149854 0.17911991 0.6625449 0.4437121
顾楠洲 0.32719252 -0.59461224 0.32179356 -0.38254598 -0.03843888 0.114886425 -0.5735852 -0.54892164 -0.05664143 -0.3317323 0.20041876 0.2941947 -0.36226428 0.5867819 0.89024144 0.11435466 0.72632694 -0.95654714 0.46658263 0.23468755 -0.67567444 0.67833656 0.026761226 0.45867452 0.59321165 -0.51992035 0.49346507 0.6375138 -0.4636918 0.21883528 0.8777244 -0.28065506 0.03546178 -0.099262595 -0.2956174 -0.15017004 0.11440386 -0.024495503 -0.28232083 -0.81153053 -0.5413055 0.6649868 0.024487829 -0.02114287 -0.2214276 0.32054508 0.06953917 0.7109613 -0.20337085 0.0036256688 0.18024786 -0.7222804 0.039429065 0.21723689 0.85446554 0.80578154 0.4031302 0.028893698 0.4720097 -0.85728806 0.47246197 0.20535226 0.640241 0.43566605
王幼鹏 -0.5601496 0.020660445 -0.11690173 0.21949756 0.18677452 -0.69602376 -0.7731168 -0.18548231 0.09875299 -0.18000144 0.42223427 0.57176596 0.3168605 -0.5638714 0.2076067 -0.19802809 -0.00087416614 -0.85102093 -0.33946988 -0.29692042 -0.90457135 0.23124333 -0.19225447 0.7705987 0.112554654 -0.5338023 0.42486295 0.32159296 -0.09919522 0.48949987 1.1109822 0.0068071275 0.070572406 0.29884344 0.81730336 0.1842455 -0.5317561 0.053154718 -0.43187535 -0.59605473 -0.20942101 0.18291809 -1.0481932 -1.043201 0.042719826 -0.35186106 0.085398905 -0.0073682046 -0.15816638 -0.15508334 -0.042766325 -0.28709123 0.35606828 -0.820786 0.13730389 0.63412106 0.01664944 0.17370409 -0.07050958 -0.5302762 0.40459573 -0.5760501 0.26204342 0.7320498
梁永生 0.19737706 -0.19260505 0.6073759 -0.7939599 -0.726547 -0.3221942 -1.0320445 -0.40667462 0.056499675 0.40465522 0.6769171 -0.46032113 -1.0192411 -0.6810769 0.17996883 -0.23943512 0.2993991 -1.0862428 0.17744422 0.24504565 0.25158864 -0.68042123 -0.06012463 -0.031251904 0.6311691 -0.64936775 -0.10568355 1.0619352 -0.47187606 -0.0039459383 1.2389998 0.39823404 0.4800887 1.0124626 -0.030848356 -0.9675593 0.7064188 -0.67637974 0.36782575 -0.7370658 0.059007894 0.67840344 -1.0194533 -0.009499807 0.050748944 0.30848694 -0.4001055 0.84725 -0.5893827 0.07314091 0.5634808 -0.42729154 0.62514806 0.17868403 1.146813 -0.33071455 -0.36939877 0.09592539 -0.116968796 0.30430073 0.9399147 0.35241044 0.25645822 -0.7112278
王策飞 -0.24899729 -0.12280676 0.6014698 0.08811271 0.5374446 0.13935225 -0.76550853 -0.8451978 0.12629612 -0.07117904 0.6955225 0.71289396 0.0392446 -0.5317731 0.29918796 -0.6199202 0.49352843 0.14654717 0.17486306 0.6846168 0.022487478 -0.71304846 -0.26653817 0.90810764 0.0006161608 -0.28602415 1.0979807 0.330152 0.6717405 -0.42688236 0.5636038 -0.75266135 0.050102413 0.34869602 -0.14249453 -0.61708975 -0.20012417 -0.55207664 -0.28712887 -1.231324 -0.9699398 0.856234 -1.0815395 0.1322742 -1.0438458 -0.17523913 -0.75407135 -0.13757366 -0.5280319 -0.439801 -0.019146426 -0.48112884 0.056323193 -0.18093479 1.4142233 -0.23014371 -0.19352025 0.53790456 0.21588343 -0.00021633273 0.20911403 -0.18020502 -0.0485135 0.16288167
艾传荣 -0.7282506 0.6212666 -0.48839453 -0.001115466 0.30905402 0.20111607 -0.7218865 -0.54716116 0.024472302 0.5452975 0.06305332 -0.25335926 -0.02947376 -0.30760118 0.36923906 0.45619243 -0.20833847 -0.98878473 -0.5395202 -0.42842457 -0.4773428 -0.64623755 0.3117876 -0.15575404 0.6128766 -0.5486636 0.4765222 0.34968394 -0.22181661 -0.3270819 0.49142754 -0.6198975 -0.02808304 0.5494162 0.3415275 -0.36561495 0.08588457 -0.35444868 -0.2936482 -1.0672023 -1.1376213 -0.24343194 -0.66947037 -1.017258 -0.8096113 -0.57605916 0.25339434 0.29924452 0.06701582 -0.70282394 -0.011328535 -0.5291022 -0.12456514 -0.07965696 1.6100723 -0.3938053 -0.9855119 -0.49037555 -0.20839714 -0.028736394 0.19339517 0.53991926 -0.16426554 0.62366736
凌冲 -0.7482456 0.434857 0.75550354 -0.87691385 -0.056653198 -0.46834943 -1.2502288 -0.5569658 -0.5570619 -0.21548785 -0.07214647 0.31020245 -0.32454205 0.12919024 0.0409604 -0.53496665 0.20219266 -0.83594865 0.02249438 0.43251365 -0.19219513 0.45155996 0.09711508 0.27776417 0.9375686 0.2098244 0.1572012 -0.105551384 -0.2520367 0.27978247 0.68056494 0.25085655 0.41012883 0.6767358 -0.10322849 -0.56781816 0.20856306 0.3770845 -0.0944239 -0.68916243 -0.7631761 0.6605641 -0.55762553 -0.11344326 -1.2474086 -0.64314204 0.6248837 0.2736889 -0.14939621 -0.34353602 0.26291558 0.17113766 -0.62164384 -1.002252 1.178488 -0.15470806 -0.52333224 -0.043963376 -0.7709034 -0.16233459 0.2002179 0.46611547 -0.5825003 0.47786865
刘伟 -0.39607155 -0.69609976 -0.113861166 0.33043438 -0.846836 -0.23910886 -0.4515283 -0.046048943 0.18992169 -0.85186833 0.6703742 0.66700065 -0.35145563 -0.13059603 -0.65401965 -0.47089428 0.4302339 -1.3972594 0.7285868 0.3765729 -0.50906676 -0.013447073 0.43755183 0.18982525 0.62667537 -0.16620392 0.5487416 0.28059432 0.6172392 -0.06966781 0.8825385 -0.063533455 0.60581607 -0.31637147 -0.7687336 0.34240532 0.30999464 -0.15316276 0.19379902 -1.0467565 -0.6261753 0.45414665 -0.6103568 -0.67230487 -0.6193842 0.52523 -0.9293092 -0.21271648 -0.87654704 1.0080655 -0.42029384 -0.2100071 0.043463744 -0.5158591 0.916371 -0.5504755 -0.5669271 -0.6678951 -0.31969884 -0.65489477 0.518547 -0.35233915 0.43133312 0.09607854
于宝明 -0.16315955 -0.27454466 -0.5137234 -0.43341494 0.14700763 0.0017768721 -0.90109164 0.40927857 0.3172158 -0.34942773 0.8117312 -0.05895858 -0.61310273 0.15525118 -0.39444882 0.292313 0.2720349 -0.6877111 -0.25728232 0.06123704 -0.42888322 -0.29864654 -0.12368363 1.0431501 0.51563483 -0.19082496 0.79786676 0.97049147 0.13033819 -0.4100093 0.06255268 -0.39854288 -0.7992645 -0.39340836 -0.38076273 -0.10520253 0.55424434 0.18453512 0.23724365 -0.80004936 -0.8314165 0.26522976 -0.22395214 -0.9170634 -0.9403969 0.12333097 0.284836 -0.42104787 0.52395564 0.41639137 -0.28723702 -0.25439996 -0.41035932 -1.012764 0.30115998 0.46481377 -0.96677685 -0.49421397 -0.24378249 0.032188743 0.25730252 -0.1432795 -0.18117942 0.55652845
贾丽巍 -0.14233664 -0.2879355 -0.50322545 -0.39813936 0.115208544 -0.01043538 -0.88035214 0.4163307 0.32453635 -0.3289054 0.8265963 -0.02703889 -0.5828662 0.15773635 -0.38329986 0.28271592 0.24862099 -0.65947944 -0.2369917 0.059162676 -0.38895682 -0.29530644 -0.1593265 1.0468596 0.51537025 -0.14251485 0.7645791 0.9746403 0.1424622 -0.40357795 0.040985614 -0.41745064 -0.7799687 -0.41430652 -0.36019313 -0.10044233 0.53755474 0.17877722 0.24202044 -0.7395387 -0.7931167 0.25714266 -0.22087422 -0.9097636 -0.9216456 0.07850205 0.26171038 -0.43424967 0.5068077 0.38577193 -0.28998467 -0.24245864 -0.38248557 -1.0071565 0.23791876 0.4772122 -0.95494306 -0.49701896 -0.23095919 0.021244163 0.24486504 -0.14984508 -0.19921227 0.550788
张亚立 -0.85301435 0.78880787 0.7129545 -0.73845327 0.3266876 -0.29379487 -0.77836365 -0.4953262 0.4879106 0.30000958 0.33765343 0.10218376 -0.28679305 0.2975385 -0.119042225 0.551532 0.14577174 -0.97887284 0.33631206 0.51618654 -0.43067414 0.12023258 -0.45511648 0.516407 0.2247032 -1.0629461 0.61195964 0.9300228 0.36001393 0.20849079 0.6077192 -0.017372426 -0.08241626 -0.12889841 0.0064860587 -0.24196315 0.45400742 0.34602827 0.63643473 -0.49289492 -0.45228615 0.33275974 0.38351285 -0.2918649 -0.641488 0.4406023 -0.20197257 0.17489906 0.19489715 -0.8151718 1.0372022 -0.8619646 0.39863238 -0.6134726 1.3123931 -0.24777341 -0.992412 -0.5638381 0.08217264 0.50590426 -0.67226785 0.3480075 -0.57708454 -0.53258294
张福通 -0.8652813 -0.13470104 -0.17496862 0.1124186 0.2542212 -0.6607873 -0.2392076 -0.52686435 0.773994 -0.9213107 -0.36206713 0.17097892 -0.24963085 0.028749134 0.005016973 0.113551565 0.42784473 -0.9057937 0.30075148 0.113041975 0.052989215 0.13109662 0.7819531 0.85073847 -0.4603578 -0.7560669 0.96890414 0.9117686 -0.47487682 -0.56139225 1.5004106 0.59355265 0.38987568 -0.05970949 -0.15312149 0.4672346 0.5633402 0.36537808 -0.65477383 -0.45594084 -0.25749284 0.14631157 -1.1891375 -0.94180137 0.24081054 0.7364357 -0.1178381 -0.26289028 0.5879267 -0.15598258 -0.3344919 -1.2168999 0.46495715 0.26285583 0.35305843 -0.05287012 -0.5760007 0.22229111 -0.2345554 -0.32632554 0.3381488 -0.18674026 0.3807017 -0.80701447
贾兴东 0.17631225 -1.0018295 0.042006705 -0.055469725 0.53901124 0.05934462 -0.86708856 -0.9366828 -0.6121741 0.22005643 0.32084608 0.3623815 -0.20685405 0.7407216 -0.46918282 0.43418214 0.33905092 0.040364783 0.11724068 0.124325216 -0.33823153 0.7216025 0.6291683 0.47273943 0.94245535 -0.102929324 0.73059785 1.2494526 -0.30127105 0.56446207 0.563657 -0.2507902 0.18285649 0.53383446 -0.035695754 -0.7828841 -0.30687815 0.7846271 -0.8035481 -0.8976609 0.11516343 0.5450368 -0.9136035 -0.5672965 -0.8942793 -0.66564304 -0.10323303 0.1715021 0.6162555 -0.31720927 -0.16752607 -0.94267386 0.57858574 -1.3841116 0.5295689 -0.036052518 -0.37197 0.5660197 -0.59206295 0.5672119 -0.046862528 -0.21857682 0.30761883 -0.5543026
徐志斌 0.016060889 0.4370732 0.18074423 -0.16980456 -1.0079541 -0.6853834 -0.8727588 -0.7102962 0.61666733 -0.62936354 0.9271209 0.7304639 -0.8781825 0.20926511 -0.31729892 0.53162384 0.6584874 -0.51724625 0.501047 -0.81567216 0.37707615 0.47144374 0.5375017 0.1666852 -0.20768675 -0.5978517 0.86098427 0.48342064 0.83054674 0.3895366 0.7771728 -0.46035853 0.8590471 0.973661 0.70231026 -1.0277376 0.3474008 -0.3144154 0.4347362 0.40815467 -0.20703523 0.3503319 -0.29396138 -0.7226144 -0.9779611 -0.39425454 -0.5352555 -0.077360526 -0.5783674 0.46247533 0.12404993 -1.0136139 -0.142552 -0.770269 0.6490805 -0.39711425 -0.54723 -0.15807375 0.085344575 -0.69633055 0.42378032 -0.94438016 -0.332388 -0.3383619
黄臻 -0.54800695 -0.48400056 0.81795436 -0.53648925 0.037417255 -0.86369395 -1.0926324 -0.76148874 0.64905345 0.5736693 -0.25703245 0.8619033 -0.81431574 -0.043350104 0.22438551 -0.7274131 0.6575514 -0.35616592 -0.785189 0.28622237 -0.9636224 -0.42745632 0.19049515 0.5953201 -0.7657598 -0.0014019113 0.6433841 0.6809762 -0.4530406 -0.65679544 0.54442394 -0.35155964 -0.184906 0.29959348 -0.47767475 0.14976399 -0.4631079 0.33347008 -0.63348407 -0.96892333 -0.06637225 0.6512445 0.52066207 -0.2207056 -0.52076465 -0.054388415 -0.1937033 0.4583027 0.22375214 0.3327572 0.58627117 -0.5940757 -0.45968965 0.2512519 0.5369398 0.16043286 -0.89863944 -0.63802093 -0.057104833 -0.417591 -0.08438288 -0.728448 0.030548941 0.35746273
周岸标 -0.6972895 0.28423554 0.043456033 -0.053586476 -0.49097684 -0.78814733 -0.03519003 -0.009190819 0.1332845 -0.37027866 -0.20795459 -0.20889196 -0.36844102 0.18459757 0.4718288 0.5872437 0.60848504 -0.83578783 0.40334094 -0.12411143 0.30996937 0.48950973 0.1416825 0.953217 0.45777392 -0.38802892 0.3687599 1.0791168 -0.33541808 -0.10235003 0.5987537 0.34538692 -0.62891054 -0.29587185 0.0938994 -0.6741275 -0.021242771 0.06875639 -0.27332923 -0.9959044 -0.6358119 -0.54481876 -0.77493894 -1.1176378 -0.6788956 0.89347154 -0.37756455 -0.17557782 -0.5787889 0.41694087 0.99855924 -0.7029337 -0.27732787 0.19448107 1.4945084 0.052384026 -0.049496457 -0.5490889 0.42083296 0.42372763 -0.20020497 -0.81031996 0.5967023 0.2725524
高瞻 -0.6502376 -0.726502 -0.65272605 -0.96673626 -0.92797786 -0.75338775 -1.1844836 -0.64165634 0.5756314 0.2713675 -0.16210185 -0.2249226 -0.7744565 0.6285204 0.6670708 -0.076324426 0.5428788 -0.5553905 0.40377557 -0.3000437 -0.7476074 -0.2929866 -0.50579584 -0.4131932 -0.15386663 -0.17940219 0.9781772 0.3690186 0.36060375 0.47451666 1.1998463 -0.8007675 0.12807311 -0.17905897 0.47425595 -0.5295731 0.094596446 -0.5057283 -0.89527917 -0.1891834 -0.617662 0.8739791 0.045529637 -0.11219088 0.2675583 0.6862461 -0.12845786 -0.25431946 -0.003393762 -0.32233226 -0.0006608957 -0.10433625 0.6145613 -0.47494045 1.2829906 -0.13447246 -0.4316154 -0.42998743 -0.69564486 -0.5723101 0.16754863 -0.42079237 -0.5558056 -0.26135817
肖民 -0.4386837 0.5046198 0.88826144 -0.7265442 -0.2716982 0.3405818 -1.276159 -0.50859123 -0.56178296 0.28633326 -0.48683605 -0.18229295 0.09863079 0.02783653 0.12108187 -0.6198065 0.30536973 -0.6309714 -0.77910066 -0.044322424 -0.099061795 -0.3457552 0.5723978 0.5887448 -0.64968324 0.32675937 0.7145951 0.66233045 0.64105946 0.1994646 0.7200281 -0.6363958 0.22563298 0.7830454 -0.13776846 -0.08328285 0.13739006 -0.3321145 0.13811292 -0.33434576 -0.9194862 -0.5207176 -0.6379998 -1.1038718 -0.31435463 0.65832156 -0.5038421 0.4908891 0.76895136 -0.7832698 0.53498393 -1.0658429 -0.40034956 -0.5719569 0.6463556 -0.51402116 -0.34524947 0.35420132 -0.121513486 0.25541037 0.57263255 -0.8862307 -0.11908037 -0.767821
王爱朝 -0.29118186 -0.08774157 -0.7676719 -0.27417037 -0.3123044 -0.37638605 -0.45446536 -0.092555515 -0.5621647 -0.52231467 0.9217607 -0.35637873 -0.61219573 0.025552051 -0.28294405 -0.01780936 0.6913675 -1.129768 -0.64055336 -0.6769715 -0.18512279 0.21247521 0.55531394 0.6288163 -0.31321073 -0.55112636 0.8154466 1.0054312 1.00767 0.84658015 0.57624644 -0.36924258 -0.2373475 -0.06531702 -0.038915016 0.31233782 0.06459359 0.5959181 0.24751322 -0.4837631 -1.1078297 0.4080789 -0.5232674 -0.74887687 0.26749638 0.18625902 0.46066827 -0.119175784 0.30068323 -0.17559895 0.32098356 -0.3756263 0.08710586 -0.44200927 0.7304168 -0.79312646 -0.7000237 0.35846156 0.4635985 0.081267774 -0.26553187 0.5246404 0.30180457 0.1423455
李福民 -0.3007771 -0.08620603 -0.77594686 -0.28030398 -0.29338065 -0.34331813 -0.43559444 -0.10931173 -0.55914587 -0.5069902 0.9256551 -0.36455044 -0.64003444 0.041475277 -0.2584485 0.021726051 0.69159466 -1.1081103 -0.6240476 -0.681806 -0.15391448 0.22486894 0.58988804 0.61853594 -0.2916092 -0.5418615 0.80303085 1.0183165 1.0111473 0.84861565 0.5721273 -0.36312678 -0.2501323 -0.087169655 -0.025774699 0.276227 0.058730587 0.60131687 0.2303573 -0.46195233 -1.0816559 0.40906382 -0.5179217 -0.75217384 0.25729698 0.2207088 0.44590762 -0.113009885 0.29175007 -0.15919098 0.2992348 -0.3564834 0.122334436 -0.44453746 0.7271196 -0.78713804 -0.7101047 0.3442582 0.4821646 0.095640525 -0.28360784 0.5085185 0.30027434 0.12751065
胡晓清 0.15354899 -1.0840932 0.78953123 0.14822675 -0.7585213 0.13634782 -0.7213049 -0.039157435 0.57281727 0.3733265 0.26369274 0.7165117 -0.9082534 0.31667572 0.6998177 0.07979596 -0.35187674 -0.80741024 0.5663471 -0.04939726 -0.2297547 -0.1962278 0.2512148 0.61477715 0.04418029 -0.49483585 -0.019959895 0.9339331 0.09642146 -0.15170269 1.2261664 -0.68096447 0.81171185 0.42977524 0.13681832 -0.12508544 0.6602897 0.76572365 0.49556625 -0.69415736 0.012600578 -0.018858742 -0.40831122 -1.125695 -0.7291465 -0.29055503 -0.8608727 0.7467528 -0.084541984 0.49517438 0.9466997 -0.6588624 -0.020149123 -0.78504884 0.16158108 0.60928357 -0.4789294 0.052067414 0.298042 0.5541694 0.16291435 -0.02767016 -0.45034957 -0.33455232
刘初汉 -1.0247254 -0.3959693 -0.9461015 -0.95667726 0.47977552 0.5468665 -0.6069926 -0.37991247 -0.02628621 -0.67439693 0.49473765 -1.0061858 -0.7401921 0.02992899 0.6610678 0.041751467 0.5266769 -0.7390924 -0.0063328333 -0.13197185 -0.7612445 -0.42728928 0.28451037 0.19314696 -0.2560259 -0.24535891 0.63493675 0.28148976 0.19001633 0.2579913 0.38131905 0.23618972 0.4515228 0.03850477 0.4145155 -0.63284844 0.17073904 0.4033922 -0.08091519 -0.70984524 -0.38552332 0.32298046 -0.91856503 -1.0676953 0.028954854 0.74164927 0.027604569 0.8995119 -0.4293703 0.32255855 -0.046273187 0.180944 0.013952616 -0.9096661 0.74041086 0.5197719 -0.07658942 -0.61766434 0.08916027 0.2987066 0.4106864 -0.29935715 -0.25588983 0.29008865
邓晓俊 -1.0237758 -0.37771788 -0.95132285 -0.91497135 0.49118838 0.58775365 -0.58921504 -0.37035432 -0.031352676 -0.63724935 0.49282107 -1.0106527 -0.7333658 -0.017312566 0.62704545 0.054208502 0.48477402 -0.71858007 -0.011813741 -0.120317526 -0.7200369 -0.46700576 0.29064578 0.16893311 -0.24353682 -0.19747858 0.629315 0.28102434 0.17510974 0.24419326 0.31918696 0.23977716 0.42910817 0.028936869 0.40981066 -0.6447248 0.18193483 0.4047274 -0.07512671 -0.6717633 -0.39281145 0.33513495 -0.9122235 -1.0548496 0.013795819 0.7103047 -0.00035848934 0.8828026 -0.42929593 0.32377744 -0.060178034 0.1852591 0.045015078 -0.88471484 0.71116847 0.5069047 -0.10263602 -0.6111537 0.103261665 0.313648 0.41461712 -0.27341244 -0.25352514 0.29588768
吴学龙 0.17426279 -0.6304587 -0.2942821 -1.0384529 0.056046546 -0.45495713 -0.74063516 -0.99944687 0.10271933 -0.12900616 -0.025061274 -0.022380758 -0.26118347 0.81200993 0.6628808 0.46365398 -0.0612232 -0.9883305 -0.68505776 0.21579887 -0.004884973 -0.16897929 0.88664174 -0.26527664 0.3122093 -0.73182017 0.11388675 -0.11416781 0.59764725 0.62445134 0.71826637 -0.7985231 -0.59468067 0.30459297 -0.30579984 0.7324015 -0.055598136 -0.3625073 -0.60708326 -0.56964135 -0.40600228 1.2345186 -1.0037191 -0.9141379 -0.97187656 -0.41915205 -0.1958248 0.10105221 0.45964858 0.34495994 0.11384813 -0.28844273 -0.12679513 -0.9535312 0.53633916 0.49293053 -0.6206462 0.42807454 0.5873841 0.10275263 0.4665915 -0.9849466 -0.28266641 -0.58778375
聂新平 -0.69985765 -0.89598954 0.46562397 -0.51294714 -0.33859223 -0.756983 -0.9656866 0.39140865 0.5566493 -0.92737997 -0.36196366 -0.24232647 -0.26531115 0.18559141 -0.5487885 -0.77775013 0.76401013 -1.072091 0.065079816 0.3554699 -0.08548311 0.16958638 -0.28186974 0.3137691 -0.5507008 -0.023441102 1.0615283 0.9038749 0.12917873 0.41846177 0.9096634 0.09793396 -0.2624704 0.8316749 -0.59353095 0.44987947 -0.21601589 0.6507599 0.42647257 -0.9275225 -0.7968219 -0.103834055 0.47239137 -0.7311289 0.3224642 0.29473567 0.22616322 0.34064257 0.20942914 0.071936876 0.45856678 -1.2505171 -0.46945706 -0.67527455 0.7400226 0.52995765 -0.7128875 0.5252011 -0.906334 -0.59483314 0.31210217 0.72000396 0.47503203 -0.31829748
曾岳雄 -0.7056165 0.42270947 0.44627598 -0.16967039 0.39312956 -0.07207716 -0.5523782 -0.87044406 -0.23401283 0.2401998 0.5820682 0.8443285 -0.808795 -0.75758255 0.40845588 -0.4917855 0.53051037 0.22947028 -0.65816563 -0.22164232 -1.0192884 0.06969837 -0.06250854 0.9993447 0.121371284 -1.1482308 -0.56954944 0.3283496 0.4857977 -0.6544932 0.71100754 -0.32420692 -0.07706987 1.0406934 -0.47113523 0.28615266 0.15511937 0.23367196 0.13467543 -0.2658491 -0.18428747 0.26209265 -0.52109003 -0.93209094 -0.2687767 0.643663 0.6336346 0.83236057 -0.138483 0.24260451 0.08125204 -0.2289538 -0.6673648 -0.63793695 1.2857925 0.6874857 -0.26996762 0.2706754 -0.8000512 0.15193121 -0.52065 -0.19865252 0.27806664 -0.24271508
沙新华 -0.72796977 0.18896307 -0.39983276 0.14551845 -0.07890994 0.4605408 -1.4075 0.17048314 -0.46163145 0.3228744 -0.0493788 0.11249368 -1.2226394 -0.60699487 0.31748974 0.77035356 0.36782226 -1.1922929 -0.2176174 0.42448395 -0.5046251 0.8042842 0.24339294 0.84086853 0.5803663 -0.36348274 0.4055964 0.53173774 -0.5971522 0.30483833 0.2198532 0.32456902 0.5367592 0.23655699 -0.5776829 -0.39048728 0.14104278 0.8159217 -0.20795421 -0.28243384 -0.87864804 0.62258124 -0.4959957 -0.9472905 -0.10889925 -0.0008293117 -0.31030878 1.0559359 0.25709447 0.54098433 0.11000964 -0.05183888 0.7576565 -0.26502433 0.5243249 0.6055229 -1.1009403 -0.27405605 -0.15073743 0.17822894 0.65613157 0.06560361 0.5023636 -0.6545589
郭建 0.44155255 0.33173782 0.25169128 0.0145275965 0.73468274 -0.5109514 -0.6712848 -0.39230996 0.15269358 -0.5883717 0.6237603 0.39110792 -0.61685514 0.46632418 -0.14221287 0.5662697 -0.015742566 -1.0017548 0.11058999 -0.5447892 -0.93908596 -0.66323227 -0.1278813 -0.2161695 0.47748005 -0.18326242 0.02169976 0.79190767 -0.06404888 0.64796585 0.3374385 0.06795308 0.7945332 0.74652034 0.2925456 -0.8375191 0.9935496 0.049015205 -0.9150104 -0.88074976 -0.5385499 0.28130487 -0.8108711 -0.8172702 0.29333526 0.7805237 0.3965531 -0.15811251 0.40118393 0.48395726 0.6861527 -0.21562268 0.6597812 0.48546368 0.69772303 -0.62163377 -0.1774648 -0.4502633 -0.35409203 0.116577946 -0.14981514 -0.16911776 0.3274247 -0.30622
邱宣 -0.91706187 -0.60166883 0.18243319 0.18093324 -0.014110412 0.21520482 -0.5456682 -1.0901623 -0.06694226 -0.2838557 0.66047597 0.3315452 -0.28270578 -0.20635618 -0.16526066 0.17713426 0.6100247 -1.088125 0.44506234 -0.860538 -0.077571414 -0.568877 0.056191232 -0.22669037 -0.55539584 0.4315987 1.1990726 -0.23564129 -0.35992426 0.14392842 0.2040471 -0.20421259 -0.2095498 0.8117848 -0.11409058 -0.014946653 0.44766858 -0.04360145 0.27344427 -0.11627229 -0.3203543 0.5577261 -1.1103476 -1.14942 -0.9358255 0.11660213 -0.05152314 -0.73428553 -0.5288327 0.38660282 0.62485254 -0.97228765 0.36470577 -0.40656176 1.349827 0.7013066 0.029241862 0.64632195 0.4732658 0.594381 0.14233758 -0.2504147 -0.31985146 -0.28698507
余璟 0.12367183 -0.25700068 0.3066984 -0.018372852 -0.51502764 -0.680471 -0.6806609 -0.91127264 0.42451409 0.42874363 0.65558404 -0.07705511 -0.9499437 0.122128494 0.017801309 0.2952521 0.68383676 -0.19747579 -0.42727906 -0.56585085 -0.29741007 0.7457489 -0.74246067 1.00709 -0.2361399 -0.1628738 0.53178537 1.1126548 -0.36621797 0.29421148 -0.2836239 -0.4269531 0.74618006 0.46011823 -0.043116145 0.4874405 0.5958967 -0.61818886 -0.69362956 -0.8211851 -0.18615867 0.92864 -0.48617408 -0.17397368 0.5140987 -0.37866473 -0.472038 -0.5159417 0.18842456 -0.5178273 0.5307908 -0.3541547 0.36011004 -1.0236443 1.0239098 -0.47750378 -0.35784635 0.15106907 -0.13621321 -0.64423364 0.32856128 -0.4812932 -0.12298087 -0.095408425
李郑祥 0.24605021 0.1885861 0.91909134 -1.101099 -0.065696895 -0.6813442 -0.17999615 -0.011199859 -0.8642224 -0.02910432 -0.1897778 -0.18976472 -0.7094797 0.48575497 0.06664372 -0.090781 0.5288379 -1.0980624 -0.28116077 -0.28837377 -1.2357383 0.06692894 -0.48091984 0.3332828 -0.33858415 -0.7539014 0.8581383 -0.25465587 0.4080534 -0.7226887 0.90946746 -0.37407202 -0.27241373 0.40291703 0.14642903 0.3803772 0.78186893 -0.5552142 -0.21169166 -1.2633727 -0.92081714 -0.004577958 -0.047640845 -0.574198 -0.685853 -0.2796467 0.032394666 -0.6550804 0.678886 0.21038128 0.6358832 -1.4359392 -0.66366017 0.08835547 0.9907273 -0.3222235 -0.3896483 0.8123036 -0.042670827 0.39049527 0.14899933 0.07535439 0.81003284 0.25757486
钟海 0.3183076 -0.8266477 0.083835855 -1.0187365 -0.4511353 -0.46691006 -1.0295594 0.15416786 -0.0386373 -0.3206698 0.16112068 -0.036451247 0.158692 -0.5541427 -0.71145266 -0.32782814 0.3751537 -0.0090192985 -0.06706417 -0.6477257 -1.1688584 0.13191113 0.44545552 0.1092982 0.3403914 -0.7348154 -0.2763594 0.08316874 0.6672987 0.10467673 0.20461984 0.31529492 -0.5111171 0.7255892 0.695108 -0.72043025 0.48806515 -0.46766913 -0.4408474 -1.0524682 -1.2443609 0.54984623 -0.94578946 -0.89232063 -0.5571985 -0.47959927 -0.54679936 0.2735699 0.0018183753 -0.1736054 0.40285712 -0.14930199 -0.25979537 -0.51588094 1.3746928 -0.73254013 -0.68248856 0.067423314 -0.19300514 -0.5141422 -0.43016005 -0.6884374 -0.015476129 -0.5877906
贾长胜 -0.65751123 -0.51460284 -0.3793797 -0.47834393 0.70060354 0.33298168 -0.99156135 -0.5358669 0.8036142 -0.08649438 0.7475877 -0.5013913 -0.78740996 0.038117103 -0.6340513 -0.40758213 0.077025086 0.31269395 0.007454665 -0.28770003 -0.8746999 -0.13233733 0.34913683 0.848067 -0.5161602 -0.21863577 0.91641587 0.4628567 -0.68152297 1.1772437 0.5777322 -0.23671247 0.050343797 0.67896724 -0.46183512 -0.11446252 0.19268772 0.40817994 -0.079634614 -0.97519493 -0.39760497 0.027758503 -0.06217545 -0.07338959 -0.63405335 0.75381553 0.37254682 -0.38034776 0.15865946 0.75433075 0.6360929 -0.5782892 -0.37804282 -1.2222472 0.90433633 0.065352716 0.06410005 -0.019670997 0.024412999 0.597905 0.78996116 0.31928828 0.3370524 0.7647194
尹杰 -0.53024256 0.14029227 0.07705124 0.52386767 -0.10604096 0.013871048 -0.7984544 -0.35640645 0.099632666 -0.64890176 -0.016029457 -0.15932523 -0.09679918 0.18813941 0.0058668335 -0.18112098 0.35890254 -0.51188797 -0.41759932 0.48954397 -0.53418845 -0.56569374 -0.39392942 0.3590505 0.12726623 -0.85962284 0.5860726 0.3656364 -0.25865895 -0.47553456 0.3669071 -0.16176724 0.10854307 0.5960487 0.21329868 0.06371018 -0.13632518 0.39903614 -0.16659711 0.52348876 -0.6754086 0.5580289 -0.63382137 -0.0751747 -0.5284882 0.1323039 -0.113266475 0.46321115 0.61991453 0.5269906 0.78493637 -0.5752732 -0.09153476 -0.3931485 0.3891979 -0.6111344 0.1799225 -0.46036768 -0.39280456 0.27887285 0.1899763 -0.5269948 0.16488609 0.22833723
皮勇华 0.4083232 -0.109881885 0.2553672 -0.27442837 -0.7376974 -0.09606245 -0.76470876 0.10729519 -0.29133514 -0.11058828 0.6956065 0.49309355 -0.26237035 -0.22998507 -0.002171414 0.55718297 0.6458895 -0.06385906 -0.33840674 0.44614995 -0.672454 0.28247303 0.41289583 -0.35790423 -0.20275381 -0.19656946 0.50695974 0.5667383 0.36518052 0.33254665 0.53548294 -0.6749984 -0.15658705 0.397887 -0.1388099 0.36199218 0.05001638 -0.28937563 -0.4246265 -0.8847486 0.2811073 -0.30026248 -0.29132715 -0.76956147 -0.061790857 0.26056626 -0.2381105 -0.31473142 -0.27889055 0.44455883 1.1355728 -0.97487366 0.05021148 -0.36229402 0.94242364 -0.124732144 0.25622195 -0.31372568 -0.58288157 0.19539799 0.4325589 -0.05753008 0.029254807 -0.4595614
李喻春 0.41955718 -0.13212359 0.22564161 -0.27097142 -0.7491356 -0.09035877 -0.78138125 0.1138782 -0.32364383 -0.11412907 0.7223642 0.48292536 -0.2698169 -0.23224357 -0.0037036291 0.5829855 0.65429515 -0.07278379 -0.35863397 0.46646646 -0.7076553 0.2757877 0.4240181 -0.36044684 -0.19758211 -0.21200922 0.5113579 0.5823684 0.37137282 0.339627 0.5557743 -0.68890494 -0.16305451 0.3746045 -0.13370611 0.39738575 0.037290305 -0.2707034 -0.44106272 -0.8865088 0.28677666 -0.31395957 -0.30707702 -0.7970881 -0.057617806 0.27828658 -0.22389582 -0.3066767 -0.2706682 0.45798767 1.1772343 -0.99851733 0.0728828 -0.37367672 0.94849926 -0.12805192 0.2747568 -0.33036673 -0.5947871 0.22657943 0.4298276 -0.045102984 0.045626853 -0.4674128
张学凡 -0.361729 0.014024194 0.31412756 -1.0122793 0.32806188 -0.06689395 -0.8633023 -0.17312485 0.23907535 -0.4089189 0.6504008 0.47927567 -1.3132269 -0.38416842 0.52080864 -0.17847812 0.6980569 -0.42004445 0.15600938 -0.09698002 0.15885632 -0.30742225 0.36214665 0.4126564 -0.5051765 -0.31872967 -0.24365363 0.69279593 0.31696796 -0.21431904 0.41732496 -0.9633727 -0.07880029 0.43456528 0.35786775 -0.48969632 -0.0067789406 -0.0184502 -0.649463 0.08533953 0.18257548 -0.21423863 -0.35654354 -0.5424335 0.37968117 0.06931385 0.14479673 -0.14760251 0.7237677 0.29851276 0.46832016 -0.23668846 0.22520491 -0.7405207 1.1726991 -0.030290484 -0.37925223 0.03528261 -0.12171175 -0.29596108 0.17724743 -0.22137663 -0.08649757 0.32243377
陈文清 0.20330344 -0.54985 0.27595782 -0.34186038 -0.01460787 0.060291328 -0.55829835 -0.5873415 -0.03300605 -0.40324607 0.14303973 0.25308308 -0.382377 0.5685398 0.8132749 0.13864867 0.7055482 -0.91421807 0.43740913 0.21463117 -0.549505 0.5857104 0.020872165 0.42602724 0.477629 -0.5051 0.50533247 0.51004666 -0.4524267 0.21186273 0.8390023 -0.26379102 0.06744416 -0.04153219 -0.26311788 -0.071790755 0.055659626 -0.04037694 -0.20101935 -0.803394 -0.4815667 0.7328278 -0.06381542 0.052741148 -0.16523908 0.23368424 0.027317377 0.62141716 -0.23494679 -0.026151804 0.11567079 -0.61687964 0.053020157 0.13195717 0.7460602 0.7366074 0.399329 0.110408224 0.47231033 -0.81731296 0.4747569 0.1608664 0.599843 0.41243497
王伟雄 -0.3743113 0.0026154607 0.043242767 0.40696695 -0.28102174 0.008735431 -0.69570273 -0.38452995 -0.020266438 -0.5844637 0.07755868 -0.086844295 -0.2052475 0.15985744 0.026774844 -0.0981928 0.39619008 -0.4973404 -0.3844142 0.4752358 -0.5620418 -0.5796438 -0.33751816 0.441337 0.08071414 -0.6868689 0.5351585 0.36840263 -0.27703807 -0.4344626 0.36242568 -0.17076138 0.16624774 0.6069332 0.21826407 0.014265341 -0.1416857 0.49435958 -0.28950262 0.42370018 -0.62074304 0.51035166 -0.57025653 -0.10246318 -0.43295962 0.17326497 -0.1418646 0.47597852 0.47350758 0.5405803 0.7175912 -0.6403868 -0.06865947 -0.37056231 0.47596803 -0.49052393 0.19456261 -0.5210923 -0.43631983 0.06066128 0.14838475 -0.48665988 0.23209134 0.11034016
高泉 -0.34692088 0.027983457 0.30307403 -0.9527094 0.30323803 -0.09059323 -0.80728024 -0.15391287 0.22470619 -0.36730397 0.5780649 0.44969577 -1.2599272 -0.37614936 0.5117526 -0.1897509 0.6394002 -0.35350028 0.16690266 -0.09749988 0.12615898 -0.28879035 0.32106495 0.3837678 -0.5041673 -0.29516146 -0.25770295 0.65738255 0.2859658 -0.20766765 0.38589764 -0.93307793 -0.06540488 0.3916356 0.34027743 -0.46176317 -0.02840177 -0.036088377 -0.645019 0.116521105 0.18984316 -0.23806919 -0.32511556 -0.48445353 0.38674775 0.0899281 0.14847182 -0.16751301 0.73946637 0.2741849 0.4757007 -0.22812487 0.21127225 -0.7053295 1.1146511 -0.052753493 -0.34934232 0.028691737 -0.108227044 -0.27688494 0.17068549 -0.20741813 -0.09920668 0.3345524
苏剑 0.30782044 -0.5171406 0.32471573 -0.36266 -0.03631957 0.08781486 -0.5294744 -0.4474991 -0.050422404 -0.23790558 0.19358632 0.28547773 -0.31831837 0.46905085 0.7923098 0.034931846 0.6346334 -0.84888107 0.41753057 0.24534674 -0.6785008 0.61831254 0.03392778 0.44642395 0.56484455 -0.47004905 0.41824806 0.6584776 -0.39706814 0.17047462 0.82259756 -0.24060264 0.003239775 -0.0785487 -0.26799482 -0.1876039 0.12940702 0.0070971968 -0.33489212 -0.7448666 -0.5044256 0.5077658 0.026903536 -0.0937726 -0.23158702 0.3234399 0.064970925 0.67072713 -0.1343168 0.04233815 0.19725443 -0.6945413 -0.0003352438 0.21075174 0.84350014 0.7218947 0.3229252 -0.016035413 0.37009418 -0.74295557 0.40567613 0.16559581 0.57758725 0.39314225
詹有力 -0.4565216 0.022430625 -0.0864761 0.20756036 0.15146904 -0.5958521 -0.6142051 -0.12943901 0.08242461 -0.12794891 0.3513078 0.46468097 0.32946816 -0.48576498 0.16149317 -0.17266963 -0.03984714 -0.69850546 -0.3001511 -0.25409183 -0.74525 0.2043674 -0.19782412 0.6211085 0.0989273 -0.4100774 0.35147613 0.23636188 -0.06792168 0.42163205 0.9081827 0.022610733 0.050234854 0.23165473 0.7064125 0.15953507 -0.48869178 0.037959523 -0.3577269 -0.49636802 -0.15465482 0.15031718 -0.8592697 -0.85068464 0.043355085 -0.3246833 0.07499987 -0.016700894 -0.13857782 -0.15651512 -0.054049794 -0.23157646 0.2982057 -0.6865395 0.038386453 0.53591496 0.044959553 0.15930107 -0.057754766 -0.4449713 0.3267118 -0.49788606 0.23311628 0.62594205
钟伟民 -0.40163255 -0.009701545 -0.040053952 0.3712945 -0.3140974 0.07054362 -0.67211777 -0.47541878 0.042759508 -0.6302392 -0.063164465 -0.110752255 -0.1241773 0.1260432 0.03809499 -0.16549127 0.2308892 -0.6556439 -0.34593725 0.6332362 -0.6495325 -0.6935938 -0.28830904 0.4272319 0.007955211 -0.7639297 0.6231339 0.4424294 -0.2665883 -0.41662392 0.26919144 -0.18194813 0.031113567 0.7163515 0.13959129 0.09832992 -0.2067391 0.63146 -0.4579467 0.47741377 -0.8045226 0.49283 -0.7333271 -0.028439466 -0.49941543 0.1991522 -0.11890362 0.47621942 0.5371266 0.482905 0.7734802 -0.7890338 -0.12563282 -0.4773144 0.72453773 -0.6596328 0.18257591 -0.66787666 -0.46555492 0.14748876 0.32107055 -0.4683437 0.13967231 0.044060692
裘颖颖 -0.5409779 -0.03452887 1.2345905 -0.14136237 -0.1404539 0.18945834 -0.85731864 -0.40534917 0.7332736 -0.20022306 0.39600116 0.40617365 -0.09221054 0.2688676 -0.3184944 -0.3354946 0.77687305 -0.7797842 -0.6345042 -0.84777427 -0.23717205 0.16334629 0.067170724 -0.060977608 0.34147713 -0.10278656 0.38194418 0.5216736 0.016617049 -0.18013354 0.6876364 -0.350856 -0.24615157 1.1509584 0.13945128 -0.7295271 -0.08057006 -0.5335149 -0.0722091 -1.1977767 -0.3176204 0.4359741 -0.27357218 -0.48056677 -0.3518846 0.32914183 -0.7049333 0.018056363 -0.23248816 0.8696528 -0.10098596 -0.71369123 -0.14871457 -0.24859461 0.12134346 0.17204818 0.14525102 0.42598376 -0.53342545 0.31881714 0.6093759 -0.36108658 0.1037301 -0.056452613
陈强 0.41963446 -0.566291 0.5353803 -0.9261614 0.32329947 -0.31182513 -1.0465069 -0.76516306 -0.652911 -0.029705387 0.5758474 0.5616663 -1.0130211 0.01272747 0.44512442 0.026287494 0.017367555 -0.34160385 -0.87811315 -0.7312988 -0.5374139 -0.3701115 0.060724754 0.9834967 0.5428629 0.13401192 0.23511986 0.13739061 -0.5285096 -0.12643687 0.5309371 0.1349517 0.44639972 0.08846284 -0.045342803 0.046642974 0.120118566 0.36869267 -0.14852618 -0.38008764 -0.30478835 0.8019875 -0.069789395 -0.906293 -0.5368999 0.1925315 -0.31522298 -0.4022838 -0.33230868 0.13311817 0.7732568 -0.69711435 0.21970575 -0.39392027 0.22442836 0.2290344 -0.6206978 0.1765523 -0.579208 0.10023923 0.15961763 -0.21722735 0.7325232 -0.20454626
许露露 -0.46277145 0.09391958 0.07548432 0.3987198 -0.09418828 -0.022125484 -0.7565146 -0.32726884 0.09407375 -0.58473176 -0.0007439483 -0.11278224 -0.08116462 0.16910945 -0.017339323 -0.15913217 0.32762557 -0.52460545 -0.37171847 0.3992479 -0.4676258 -0.4695283 -0.32263052 0.29817027 0.11978073 -0.78098994 0.54005563 0.33993685 -0.19566865 -0.36489412 0.3702238 -0.13965137 0.09211243 0.52644765 0.1973327 0.08093038 -0.121471606 0.3098539 -0.14090581 0.39935082 -0.6072972 0.511231 -0.5954447 -0.11602493 -0.4384824 0.1366732 -0.088212185 0.3698258 0.5300212 0.43538216 0.6879771 -0.5050123 -0.0755345 -0.38524634 0.3733612 -0.5361485 0.14264342 -0.3507506 -0.3344209 0.23032476 0.19198777 -0.47378156 0.1367015 0.17712422
卢旭阳 -0.46683076 0.120806694 0.0668574 0.45669904 -0.097421356 0.009151347 -0.75935054 -0.33912483 0.094883546 -0.5951184 -0.011415741 -0.13668962 -0.058429457 0.16253297 -0.0030876328 -0.16237304 0.32268745 -0.49649844 -0.38735303 0.4432995 -0.5060817 -0.52986366 -0.37160692 0.30665866 0.13339792 -0.8139175 0.55322164 0.31590864 -0.22575055 -0.40282303 0.3490136 -0.16724308 0.08685295 0.5651427 0.21844065 0.06521662 -0.14518425 0.3233364 -0.16027887 0.46374977 -0.6313028 0.51650083 -0.6091275 -0.072510816 -0.4910457 0.116643816 -0.11783043 0.411176 0.55195177 0.46442425 0.7318357 -0.5186011 -0.08183186 -0.39912292 0.3614854 -0.5670616 0.19287246 -0.41609544 -0.35597122 0.26703832 0.19366258 -0.51287335 0.14047426 0.22195175
张谦 0.33686987 -0.107416436 0.21262456 -0.22822446 -0.6235161 -0.09079272 -0.6761257 0.06603699 -0.24799658 -0.09812094 0.5918781 0.4187938 -0.21508622 -0.201071 -0.00813627 0.4706322 0.553253 -0.07300485 -0.30846515 0.37488154 -0.60095674 0.21785507 0.36671075 -0.29939908 -0.1527154 -0.16925764 0.45312244 0.4807545 0.32023832 0.296436 0.49088997 -0.5660168 -0.12307479 0.34435764 -0.09254677 0.29746208 0.027678553 -0.24799637 -0.39174634 -0.77960885 0.22080053 -0.2319244 -0.29330048 -0.675747 -0.0668839 0.23541626 -0.2092394 -0.26353654 -0.25395095 0.37801754 0.9710032 -0.83682805 0.069903426 -0.3215547 0.8036006 -0.11058579 0.22327355 -0.26519778 -0.5010475 0.1885371 0.38248032 -0.07136266 0.041319404 -0.4032112
丁强 -0.40852058 0.02438234 -0.087383755 0.15160358 0.1565408 -0.53925216 -0.5824267 -0.117403746 0.060289305 -0.122072965 0.3026802 0.42368564 0.2278678 -0.409081 0.13760926 -0.1357649 -0.011022628 -0.66027397 -0.28139096 -0.2274086 -0.6691403 0.18650785 -0.14899352 0.5761465 0.10862025 -0.3906525 0.3106136 0.23677504 -0.078839585 0.36546504 0.81603044 0.032322757 0.059060536 0.22011875 0.61141765 0.15151803 -0.3968664 0.047078595 -0.30790317 -0.45393884 -0.17216253 0.14131312 -0.77136254 -0.79706925 0.043617055 -0.25843984 0.08056635 -0.006469874 -0.09855114 -0.13620798 -0.018880744 -0.18940316 0.2604279 -0.59318507 0.08988323 0.47989833 0.005074984 0.14796133 -0.0467204 -0.39825487 0.2963987 -0.43707123 0.20573118 0.5329428
徐忠平 -0.42928502 0.008365224 -0.08008362 0.13528264 0.1564405 -0.5099521 -0.5821973 -0.117647976 0.0806546 -0.12575114 0.3138888 0.42900285 0.20855653 -0.43772018 0.16241321 -0.15245476 0.013220562 -0.63853395 -0.25796807 -0.24603026 -0.6815509 0.14136162 -0.12964948 0.58728325 0.077227876 -0.40042236 0.29827926 0.26277927 -0.07752382 0.36875167 0.8361053 0.0080691185 0.025711833 0.22585975 0.6224103 0.13271989 -0.39282158 0.033398483 -0.31757694 -0.44353628 -0.18080708 0.12484039 -0.77561283 -0.7973263 0.06308118 -0.2401476 0.056163907 0.002729611 -0.12394069 -0.09728824 -0.03640775 -0.19864544 0.2743274 -0.6044372 0.11225856 0.49414733 -0.010096721 0.12768993 -0.030438052 -0.3902229 0.28233728 -0.42895958 0.21991068 0.53197145
吴远翔 -0.13859454 -0.45155415 -0.28379354 -0.6657429 0.10738005 -0.31187293 -0.64758563 -0.048950642 -0.255237 -0.18433034 0.09565233 0.48245394 -0.28141794 0.3435674 -0.27668506 0.59062856 0.29377797 -1.0555649 -0.026056925 0.08004633 -0.19707316 0.14955337 -0.06823117 0.2993252 0.2431815 -0.9010682 0.410269 -0.06546205 -0.1950645 0.006230875 0.36263266 0.32466432 0.39475715 0.3997352 0.09829405 0.42601886 0.31921628 -0.13618751 0.3179622 -0.64656425 -0.29119727 0.1919068 -0.5618746 -0.34050897 0.1368615 0.43786666 0.43716383 -0.3909637 0.26704952 -0.057972413 0.15398839 0.23203896 0.06315884 -0.6509831 0.8245718 -0.41653448 -0.08514761 0.20830448 -0.25230867 -0.074188985 0.32218152 -0.21651313 -0.46557218 -0.24883701
张礼卫 -0.29641178 -0.038464457 -0.023952544 0.16624041 -0.23612924 0.025331847 -0.56351316 -0.39537027 0.049612988 -0.45949763 -0.0022386129 -0.031147424 -0.14719276 0.056971785 0.045964547 -0.11754413 0.18322636 -0.57452285 -0.22648177 0.43320838 -0.51331747 -0.47618574 -0.14686966 0.346462 0.0009862606 -0.57248384 0.49611726 0.40288794 -0.16794537 -0.2563327 0.26307788 -0.14580432 0.008647245 0.56240296 0.092518814 0.04741603 -0.12473384 0.4506487 -0.37213054 0.23398434 -0.62882143 0.36775342 -0.60479146 -0.10178864 -0.38055584 0.17228413 -0.07312664 0.32100195 0.37137213 0.32105738 0.56654054 -0.6442595 -0.07583693 -0.4138374 0.6630514 -0.45297307 0.07658548 -0.47195414 -0.34904155 0.11174204 0.29337928 -0.32367057 0.078164734 0.0032474992
