176 16
78 0.4402239 -0.25384164 -0.91060543 0.25419042 1.0046475 2.2216892 0.29156798 1.1737245 0.2782956 0.52752197 -0.18854213 -1.0753939 0.036654457 0.5857288 0.119604275 0.3353898
87 0.40885302 -0.30649543 -0.95061857 0.19313578 1.114757 2.2997158 0.3173429 1.1922985 0.30365705 0.5365972 -0.22847082 -1.1115514 0.04276712 0.6206694 0.14336741 0.32413775
164 0.4139231 -0.22746827 -0.85940313 0.24597874 0.941643 2.1220992 0.30173275 1.0904458 0.22850806 0.4309644 -0.2408087 -1.0373473 0.0016585701 0.5507384 0.12631638 0.28715616
122 0.9025597 -0.14627236 0.22463343 -1.4006624 1.0754212 1.4207227 0.43987814 -0.64209604 0.58920735 1.215293 -0.68750167 0.23328665 0.5491263 -1.0158019 0.9513885 -0.6326458
70 0.8969818 -0.12832868 0.19914742 -1.4017482 1.0326463 1.4209832 0.48016512 -0.62776566 0.52659744 1.21043 -0.6485544 0.21132171 0.54212487 -0.9305003 0.93423736 -0.6262275
40 0.7358795 -1.1420133 -1.3688027 -0.3514022 1.2049565 1.3293765 -0.92224735 0.37491357 1.1465014 1.321127 1.7946817 -0.8262073 -0.64708114 -1.9515134 0.38098538 0.8219021
158 0.42153382 -0.26202196 -0.91873085 0.21127711 1.0225669 2.2465043 0.30324554 1.1661203 0.24483311 0.49238294 -0.24849509 -1.0508728 0.055075943 0.6209237 0.14520198 0.34249207
142 0.38022175 -0.29673868 -0.8648932 0.24569738 1.0188683 2.1880295 0.2545661 1.1282297 0.25940704 0.4614497 -0.19412446 -1.0433344 -0.017790137 0.57281846 0.10086315 0.32151103
25 0.9044323 -0.10293541 0.27812308 -1.3894783 1.078363 1.3589946 0.47543573 -0.6789229 0.58235383 1.1766119 -0.6688551 0.27610883 0.5880707 -1.012659 0.9823661 -0.65794
133 0.83903474 -0.14755982 0.23313501 -1.2941155 1.0087408 1.2985578 0.46457982 -0.6034065 0.5690514 1.1629084 -0.61720955 0.2752645 0.50107205 -0.9406807 0.86085147 -0.61736596
150 0.84183264 -0.07355886 0.25795388 -1.3530416 1.0047073 1.3786937 0.48854378 -0.6193793 0.6161564 1.1655921 -0.6488493 0.22625004 0.48887336 -0.942569 0.9465503 -0.61398596
76 0.37464797 -0.24848634 -0.8746381 0.23431225 0.9903748 2.129673 0.2612404 1.080198 0.2799616 0.52033985 -0.21730584 -1.0288938 0.03239238 0.59344363 0.09188273 0.3012328
53 0.82956 -0.121899955 0.20212984 -1.3717791 1.0539405 1.3940725 0.4618031 -0.60572207 0.5747161 1.1596551 -0.6281217 0.20299944 0.50218326 -0.9409229 0.9101255 -0.62604535
100 0.84856915 -0.10069801 0.21018125 -1.3545929 1.0231141 1.4005554 0.4431627 -0.58233756 0.5716941 1.1664169 -0.6002004 0.19601078 0.48271242 -0.97470033 0.9285086 -0.6018037
48 0.81834346 0.17046082 -0.15258071 -1.3572698 0.7385463 1.1002957 -0.84650326 0.019710498 0.786965 1.8580137 -1.649206 -1.3215653 -1.3095257 -0.5676341 -1.64149 0.80847704
66 0.89063126 -0.09733858 0.17454885 -1.319625 1.0276967 1.3338311 0.42476904 -0.556481 0.59265465 1.1518502 -0.6573532 0.1972414 0.50115746 -0.978375 0.85811234 -0.6015161
58 0.916439 -0.12072157 0.2783096 -1.3481984 1.0905106 1.3645627 0.5020142 -0.6376693 0.59147 1.1708897 -0.6653734 0.2774736 0.5825804 -0.9857648 0.97931176 -0.6637499
127 0.7607514 0.1806008 -0.16162953 -1.2935181 0.67188185 1.0624927 -0.8105341 -0.013684279 0.7675283 1.8481705 -1.6609931 -1.3570929 -1.3681498 -0.51014733 -1.7311585 0.8724601
29 0.38774368 -0.2133156 -0.8900608 0.19418675 0.9905064 2.138112 0.31086096 1.1076224 0.25761664 0.50110584 -0.20024548 -1.0501556 -0.0317611 0.5309883 0.107945494 0.3114454
170 0.70319474 0.15399137 -0.16887029 -1.2221452 0.6762563 0.98643816 -0.7879528 -0.026657216 0.741472 1.7717335 -1.6032902 -1.290338 -1.2831888 -0.49829584 -1.6918298 0.84727603
59 0.40891334 -0.26101518 -0.909118 0.22312064 1.0198828 2.2070026 0.29734814 1.1150559 0.28557855 0.5165445 -0.19066794 -1.0260928 0.026300412 0.5607063 0.14332694 0.30393404
126 0.92333376 -0.13146122 0.23150294 -1.3461637 1.0849572 1.3895491 0.44651207 -0.5923099 0.57595843 1.1615286 -0.6123085 0.24011604 0.47810653 -1.0107087 0.94898885 -0.6071893
37 0.91321015 -0.12383952 0.2058709 -1.4125735 1.1089964 1.4090422 0.46666217 -0.64999855 0.5914094 1.2319143 -0.6733729 0.2460589 0.5246193 -1.0137997 0.975241 -0.66402256
64 0.81902283 -0.10996703 0.21932799 -1.2896229 0.9909276 1.3371537 0.39994892 -0.55584157 0.53828067 1.1301568 -0.60478884 0.17356047 0.44054788 -0.9200933 0.8563826 -0.5276022
118 0.40248367 -0.27305138 -0.85809356 0.26168415 0.95345455 2.2100656 0.28422594 1.1464746 0.24906029 0.45163822 -0.16933735 -1.0597783 0.014195421 0.5888697 0.16366228 0.2850883
79 0.88726276 -0.14400978 0.23550579 -1.415871 1.0998076 1.4472891 0.4579553 -0.62660664 0.61308795 1.2101829 -0.70661676 0.24951491 0.56637955 -1.0271064 0.93613964 -0.66813576
43 0.7416766 0.19251962 -0.1687536 -1.3272655 0.6470238 1.0966834 -0.79314643 -0.04268556 0.7498179 1.8317846 -1.6351337 -1.3697146 -1.3432816 -0.5167388 -1.6827077 0.8622589
171 0.35579914 -0.23141146 -0.8677848 0.20770524 0.89840025 2.0127354 0.29539573 1.0705147 0.22873011 0.4634786 -0.19417088 -1.0056051 -0.022528866 0.5393352 0.13907643 0.3050098
154 0.38626137 -0.31842396 -0.91060793 0.18727626 1.0337061 2.2907665 0.3132346 1.1642659 0.3121946 0.54084384 -0.26201484 -1.1104409 0.053821415 0.6099057 0.109015405 0.32185218
55 0.4300544 -0.2581576 -0.8730587 0.21023768 1.0359912 2.2026064 0.3202053 1.1275781 0.25232524 0.48571056 -0.23550516 -1.0139573 0.01071055 0.5726376 0.17945077 0.2763823
28 0.36743554 -0.24425898 -0.9280973 0.23752956 1.0504546 2.2635896 0.29224327 1.146461 0.27829823 0.48069656 -0.23068663 -1.0598636 0.06613578 0.6784218 0.13684921 0.30605102
139 0.3747075 -0.2642251 -0.8811001 0.25889155 0.99651176 2.134069 0.34724164 1.1150315 0.29130036 0.50770885 -0.16103272 -1.0090595 0.015223181 0.57528746 0.118203156 0.31980664
123 3.3416252 -0.07119417 0.46575505 -1.1975818 0.062355045 1.1700232 -0.91125184 1.216414 -0.40842906 1.989641 0.46742463 -1.0419943 -0.3278799 -1.2884927 -0.21732847 -0.40553984
180 0.68256557 -1.0526632 -1.2897263 -0.35110188 1.1030536 1.2664173 -0.9301286 0.38783574 1.1079452 1.2328968 1.7694824 -0.8063653 -0.5687207 -1.8787662 0.35965762 0.8041075
175 0.9088217 -0.12891504 0.23218459 -1.3799278 1.0395107 1.3549544 0.47276407 -0.637762 0.55186343 1.2160474 -0.6327894 0.29391548 0.59555924 -0.99559736 0.9523717 -0.66639966
162 0.20808181 0.6146151 -1.078958 -2.4819856 -0.42139024 2.6100512 -0.22350118 -0.6711036 -0.7288602 1.5616944 0.013287906 -1.4673475 -0.67356133 -0.2736862 -0.09040281 0.12344686
149 0.88422084 -0.13182041 0.2587879 -1.4348116 1.0789114 1.3974178 0.49903688 -0.6185336 0.5718074 1.2443224 -0.6931736 0.28856444 0.6061405 -0.97445023 0.9495029 -0.660726
6 0.37319997 -0.26102787 -0.8476547 0.2519125 0.96253383 2.0733268 0.32133424 1.1001328 0.28315264 0.42241687 -0.16844274 -1.0047047 0.036297135 0.5665967 0.1626153 0.2663569
16 0.43429545 -0.2537865 -0.87967604 0.2380719 0.9872497 2.1749408 0.3440926 1.1086278 0.2622475 0.47254083 -0.22627239 -0.9998437 0.060594067 0.5440661 0.121639855 0.34209928
8 0.7478144 -1.1424862 -1.4005281 -0.3176043 1.2177892 1.3884714 -0.9832925 0.37696746 1.1214944 1.2598317 1.8456011 -0.83713645 -0.70440835 -1.9535732 0.38897726 0.83797497
52 0.8380528 -0.33801755 -0.092917696 -2.0410204 1.9748005 0.05249482 -1.1984125 2.0888891 1.1460983 1.9958621 0.25403276 -1.1836619 0.35337102 -1.1628591 0.17565353 0.6922151
10 0.726218 0.1776545 -0.20707856 -1.2337364 0.63729686 1.0801522 -0.78653944 -0.009207384 0.6631449 1.7229292 -1.5482863 -1.2745733 -1.2380575 -0.53476995 -1.6022583 0.7599662
54 0.18785438 0.7024115 -1.1092604 -2.6216643 -0.5418131 2.7329516 -0.25458387 -0.77147526 -0.8501497 1.6372161 0.05941164 -1.5526028 -0.7267007 -0.32066867 -0.11151702 0.063922286
38 0.68608874 0.13174205 -0.16293177 -1.2746918 0.6613078 1.0137546 -0.76969296 -0.03402254 0.7447281 1.725948 -1.5160553 -1.2532243 -1.2534012 -0.5313852 -1.5951937 0.79489356
33 1.3893385 0.053977143 -2.1705787 -0.4235298 1.1082094 1.6713979 -0.33910844 0.15332189 -2.0012374 1.0768244 -2.0779326 -1.441274 1.0898876 -0.9907618 0.189388 0.018900046
165 1.6693764 0.15700996 -1.483051 -0.5171134 1.1336205 1.1125202 -1.071054 1.5098135 0.85217637 -0.04073123 -1.2459002 -0.6226768 0.2070523 -2.4507635 -0.5360767 -1.370607
109 0.7191172 -1.0470996 -1.201535 -0.36838174 1.0633974 1.1434407 -0.92920727 0.3377311 1.0721055 1.2225604 1.7066339 -0.7547207 -0.5868212 -1.8320047 0.39326298 0.7523853
130 0.49879333 -1.1345025 -1.59528 0.17091228 0.7388234 0.57793546 1.2863472 0.16644517 0.19522794 1.7453651 -0.0073344964 -1.6635451 -0.3212161 -1.9149547 -1.2658275 0.27339184
174 0.48204002 -1.2252742 -1.8247981 0.24052055 0.8275334 0.7569193 1.4411309 0.24192123 0.24863318 1.9352868 -0.12255961 -1.8881183 -0.36015633 -2.077345 -1.4549636 0.31376624
5 0.9267466 -0.12847894 0.23908117 -1.4218345 1.0096693 1.3897961 0.4503177 -0.6155203 0.593527 1.1796794 -0.6142789 0.22918294 0.48977876 -0.96355015 0.9389671 -0.64388436
75 0.84740686 -0.109306104 0.27087083 -1.3671162 1.0410165 1.3527039 0.48605666 -0.5875062 0.58421373 1.1972306 -0.62630033 0.23342432 0.52194077 -0.9550655 0.9044953 -0.58661956
85 1.6862518 0.9730587 -0.32898727 0.7547899 -1.0397564 2.2808661 0.77898794 0.10349289 1.1086655 2.0443642 -0.4004585 -0.7867494 -0.71290505 -1.8864951 0.27905452 0.5181179
152 0.37207448 -0.2706202 -0.8160254 0.1414589 0.9414075 2.0710146 0.31604296 1.0476778 0.25670624 0.4728294 -0.18041745 -0.94358546 0.03630039 0.52012634 0.121056095 0.30222675
159 1.7221719 0.99827385 -0.3195657 0.80524117 -1.0866808 2.4191835 0.8484441 0.08048531 1.1304967 2.1296809 -0.39089882 -0.78331697 -0.65086246 -1.9282143 0.30460125 0.49568042
105 0.19477668 0.5984594 -0.98253495 -2.3590717 -0.38437572 2.462355 -0.19481859 -0.6094985 -0.65565985 1.472597 0.01965653 -1.3738556 -0.7060032 -0.30639488 -0.07891237 0.10736055
146 1.081156 -0.070984274 0.6071394 -0.7476666 1.4465075 1.7912188 -0.6033478 0.050483897 0.21136013 -0.2110827 -0.16050261 -1.7218045 -2.028727 -2.683403 1.3827872 -0.28114223
98 1.1041617 -0.03855163 0.57146806 -0.7033951 1.4077193 1.7318456 -0.6085298 0.12348944 0.18426833 -0.18319927 -0.16755593 -1.7258245 -1.9512526 -2.5852554 1.3176446 -0.24716447
112 0.40853593 -0.3147219 -0.91606754 0.23177876 0.9946053 2.1890163 0.30670962 1.1433614 0.26409075 0.48030132 -0.1653177 -1.0179151 0.04631798 0.6210092 0.16358012 0.312579
102 0.37404463 -0.3199219 -0.9206861 0.18734366 1.0283772 2.1740339 0.31849954 1.064204 0.28612307 0.52718246 -0.17572509 -1.0599313 0.02341586 0.568625 0.09916794 0.33801067
88 3.2001498 -0.08130154 0.49307892 -1.1581047 -0.0036621406 1.0863336 -0.8188003 1.1770179 -0.42263538 1.9547783 0.44086954 -1.0249038 -0.3366015 -1.226611 -0.2200987 -0.3437846
49 0.8543739 -0.09225264 0.20189014 -1.3476189 1.0350536 1.3382484 0.42824912 -0.61861396 0.5452923 1.1814404 -0.5907063 0.21724162 0.5158258 -0.99972683 0.9139322 -0.60254323
172 0.91232526 -0.09322863 0.22766972 -1.3215696 1.0171491 1.3854175 0.45908922 -0.62988245 0.5997186 1.1905149 -0.6121634 0.20845361 0.47021687 -1.0027363 0.9111076 -0.61523175
110 0.1779473 0.65465003 -1.0813789 -2.482366 -0.47298786 2.5740657 -0.21255094 -0.73092645 -0.766311 1.5676403 -0.0017226764 -1.4450493 -0.72972536 -0.28558716 -0.13083099 0.081952564
57 0.11170997 0.5904885 -0.9939944 -2.4045181 -0.48050478 2.4300551 -0.18692017 -0.70795226 -0.75013936 1.4247245 0.05777726 -1.3736302 -0.7135681 -0.27057865 -0.15578315 0.06566988
89 0.87304085 -0.13605887 0.27013186 -1.4195641 1.0088893 1.3672394 0.44346857 -0.6394225 0.5999446 1.1657436 -0.6718945 0.23218472 0.5073197 -0.98083806 0.9430844 -0.63734555
13 1.6791098 0.088198185 -1.5643243 -0.51718736 1.1344492 1.2431289 -1.0588442 1.5685501 0.93266726 0.025830636 -1.2790241 -0.7343237 0.287452 -2.509095 -0.5779167 -1.3999759
12 0.5069154 -1.1362407 -1.669536 0.12975506 0.8344727 0.7207063 1.3679578 0.22673067 0.21967794 1.8143064 -0.09614578 -1.697696 -0.36729625 -1.9966289 -1.324647 0.30190706
141 -0.5902166 -2.3574522 0.2332771 0.2067016 2.050624 2.2862394 0.5157481 -0.59318894 1.0782955 1.0609151 -1.9693482 -1.3712204 0.69466126 -0.87860733 -0.36593857 0.9727722
32 -0.6091905 -2.3276777 0.30189255 0.1788721 1.9652184 2.2448342 0.55783373 -0.6113712 1.1126816 1.0622863 -1.9629672 -1.4088336 0.6730553 -0.86963964 -0.40012947 0.98337907
119 0.9036247 -0.10107062 0.2868553 -1.4277436 1.0680755 1.3652707 0.4438583 -0.6781539 0.66058415 1.2114068 -0.660808 0.23555334 0.5079332 -0.99587727 0.93020606 -0.6647874
114 1.4075106 0.031111024 -2.157146 -0.4564624 1.0267676 1.6349047 -0.2878474 0.1565635 -2.0878196 1.0745821 -2.075299 -1.3698877 1.1280181 -0.9566022 0.20192862 0.060167834
160 0.35059878 -0.3022009 -0.9352648 0.26089057 1.0402031 2.2717717 0.33522803 1.1866466 0.28282517 0.4957011 -0.22722287 -1.0612357 0.048819505 0.6913432 0.12759988 0.3167722
81 0.8154934 -0.87161523 -1.2182561 -0.6828436 0.59545547 2.1901684 0.73525876 1.1302499 0.063624084 0.73079354 -1.8535321 0.87354636 0.75161576 -1.7478075 -1.2544262 1.8127794
17 0.83320975 -0.96355915 -1.2185688 -0.6622782 0.64796203 2.2131534 0.74541014 1.137686 0.017395072 0.73108506 -1.910346 0.93839675 0.860667 -1.733822 -1.2747372 1.8698701
156 0.62785363 -0.29112828 -0.27094734 -0.3305546 1.44338 1.3170063 1.7251761 1.2705679 2.1029246 0.6847948 -0.8763072 -0.9415221 -2.1414807 -1.6601748 -0.9461841 -0.8223619
34 0.59771866 -0.29344097 -0.2708889 -0.30197507 1.3338357 1.2397349 1.6516263 1.2025827 1.9965987 0.62135816 -0.87764484 -0.9608224 -2.0448549 -1.5548834 -0.87438434 -0.7740656
124 2.068339 -1.8751624 -1.186787 -0.7526675 2.2888103 2.1971903 -0.7197147 0.24053206 -0.97382635 0.7021616 0.6699349 0.625717 -1.1944761 -0.14426814 -0.17086262 -0.17428909
115 2.222452 -1.9385686 -1.1621063 -0.76320654 2.361964 2.2411897 -0.74985975 0.24573056 -1.0380126 0.75979555 0.6363281 0.716942 -1.1889192 -0.2116442 -0.25046465 -0.12917697
128 0.39383626 -0.28472123 -0.90340275 0.24848562 1.0024276 2.114731 0.3153529 1.1673378 0.25371853 0.41396683 -0.19758263 -0.99831593 0.023518926 0.6322922 0.11814557 0.33214143
56 0.7485541 0.16857302 -0.16089721 -1.3753611 0.72017795 1.133816 -0.82942694 -0.014360139 0.75857586 1.8684675 -1.7180265 -1.3326597 -1.3405858 -0.54138654 -1.7468421 0.7999728
80 0.7338964 0.17473558 -0.19375409 -1.3270779 0.68793964 1.0843494 -0.8115858 -0.04825788 0.73990756 1.8379762 -1.5909772 -1.3032966 -1.3104104 -0.53453016 -1.6826704 0.82485944
143 0.9318725 -0.14525309 0.2194552 -1.3735712 1.058227 1.3731395 0.451033 -0.6304169 0.60514843 1.2004567 -0.5927112 0.2527736 0.52900064 -0.98926383 0.9354064 -0.6181793
7 0.3341765 -0.26320127 -0.8782968 0.27501804 0.9870782 2.07302 0.28817278 1.0648687 0.2953463 0.41287735 -0.16797675 -0.9692885 0.018806353 0.591516 0.12792176 0.35836604
121 0.6963106 -1.0909904 -1.3514146 -0.3301269 1.1016828 1.2887266 -0.9297777 0.35342082 1.1362889 1.2776417 1.7947241 -0.78126764 -0.6011422 -1.8957281 0.36015558 0.8136483
111 0.33579716 -0.26551774 -0.81949574 0.19617446 0.957535 2.0527995 0.26543176 1.0885911 0.26131186 0.48225817 -0.1717292 -0.9727341 -0.0085404385 0.5397414 0.06546264 0.3467948
82 0.8486195 -0.38868353 -0.018107926 -1.9936403 1.9630172 0.0013016199 -1.2297696 2.1053126 1.1234194 1.9741325 0.31618723 -1.2208071 0.31824908 -1.1196842 0.17824955 0.66789263
18 0.90410465 -0.33507457 -0.014443601 -1.9690605 1.903085 0.120430514 -1.1717093 2.0135353 1.0801555 1.9762775 0.2584496 -1.2011582 0.2879299 -1.1083902 0.1414554 0.64572835
96 0.34847173 -0.26441675 -0.9072492 0.20769997 0.9585447 2.2722943 0.31979483 1.1208963 0.22481956 0.47671402 -0.19730201 -1.0898851 0.0040756688 0.6158934 0.15361674 0.3758451
113 0.40452796 -0.2767681 -0.876435 0.21434256 0.94979465 2.1135075 0.3168129 1.0474259 0.2525248 0.514101 -0.23754972 -0.9985373 -0.00790032 0.55643594 0.11634801 0.3162118
65 0.8919599 -0.10411537 0.22526923 -1.2859943 1.0186652 1.3219687 0.42122626 -0.5387258 0.56369764 1.1266223 -0.5581446 0.19538026 0.48727298 -0.92057675 0.87224185 -0.5798542
63 0.4113299 -0.25550687 -0.8195985 0.17294611 0.9339499 2.1233306 0.32284653 1.0730133 0.27193865 0.47095245 -0.22062199 -1.0507126 0.023092616 0.5430032 0.08039958 0.29249126
26 1.3752128 0.081552535 -2.0309086 -0.42115393 0.98968315 1.595903 -0.31827968 0.16481271 -1.9238596 0.9851536 -1.9196403 -1.308949 1.0456182 -0.95101374 0.23746115 0.03854131
135 0.337238 -0.31231517 -0.9088934 0.23442191 0.9806424 2.1219823 0.28344053 1.099946 0.27003032 0.47127616 -0.19941235 -1.0212153 0.06725258 0.5973309 0.12340791 0.33683535
22 0.39589977 -0.25594273 -0.92673314 0.17750768 1.0147315 2.2681947 0.30979705 1.1396078 0.30105704 0.50305915 -0.24370289 -1.1047792 0.05761558 0.5915351 0.115972534 0.31286836
129 0.8833452 -0.12140303 0.24394116 -1.3606912 1.0437583 1.389022 0.45951352 -0.5911739 0.5656364 1.1774908 -0.6384031 0.23845209 0.4848255 -0.9441375 0.9111484 -0.5936839
148 1.0970471 -0.020278778 0.5725126 -0.698336 1.3637242 1.6958432 -0.57136804 0.10203199 0.23158963 -0.09586286 -0.1796102 -1.6312648 -1.8912431 -2.5528204 1.2590158 -0.30640247
136 1.6267948 0.12686038 -1.4365124 -0.51035064 1.1357723 1.0804579 -1.0530937 1.5445329 0.8980505 -0.061299037 -1.1560714 -0.6383676 0.27969006 -2.4605904 -0.506691 -1.3995545
15 0.38951436 -0.2987325 -0.9463107 0.26006848 1.0640777 2.2207046 0.36042655 1.1496308 0.26235548 0.5257726 -0.16955289 -1.050116 0.05391387 0.6646951 0.13419805 0.3592896
125 1.7566396 1.0344421 -0.34372482 0.8187326 -1.1431297 2.3923213 0.8488862 0.12408423 1.1491073 2.1232994 -0.41932923 -0.7337842 -0.6795308 -1.8937179 0.29068154 0.5233706
134 0.8804043 -0.09154645 0.21699944 -1.3193055 1.0175802 1.3716308 0.4201199 -0.53071135 0.58190936 1.1369183 -0.64020616 0.17844616 0.49730533 -0.9256482 0.8695903 -0.61091566
108 0.9247777 -0.15801509 0.26987395 -1.3622005 1.0538592 1.3839549 0.4632737 -0.6345937 0.5659627 1.1471177 -0.6669761 0.24575497 0.5332342 -1.0330982 0.98738533 -0.6660791
178 0.89641494 -0.12904333 0.24015743 -1.3642099 0.9874805 1.3957384 0.4566307 -0.6016285 0.5882462 1.1750822 -0.62902933 0.22459537 0.500562 -0.9680623 0.9402362 -0.59641194
101 0.38790005 -0.22893281 -0.8846253 0.2323604 0.9325302 2.1483223 0.33660337 1.1022868 0.22739784 0.47597885 -0.1606041 -1.0240567 0.037432455 0.5835052 0.17753212 0.30630144
145 0.84191066 -0.14473715 0.23348282 -1.2795819 0.9997614 1.3756746 0.45660543 -0.54188895 0.595925 1.1411271 -0.583862 0.19597366 0.46037075 -0.92913187 0.8674513 -0.6004798
74 0.4032716 -0.30122873 -0.8292572 0.21639556 0.98004735 2.1185153 0.29758456 1.0586134 0.22391586 0.44992602 -0.17884804 -0.983265 0.04130931 0.60168844 0.10685372 0.27905145
39 0.80665404 -0.12711355 0.24254388 -1.2780483 0.98870707 1.2930106 0.46410477 -0.5741574 0.5455484 1.1631304 -0.64803725 0.236579 0.5030271 -0.93031317 0.8545836 -0.60863596
61 3.3944786 -0.10101759 0.54970616 -1.151091 -0.013010589 1.161816 -0.9242181 1.2069895 -0.47202277 2.0100803 0.4710139 -1.0633973 -0.38909036 -1.283488 -0.26472864 -0.34316093
47 0.33715004 -0.3111235 -0.89354515 0.26715532 0.96932036 2.1117876 0.31278396 1.126652 0.2258263 0.4334993 -0.16086797 -0.98292685 0.04434509 0.58135146 0.12929592 0.33186027
104 0.40888077 -0.23825178 -0.9184659 0.22369434 1.0006155 2.1428442 0.33412355 1.1233557 0.26481345 0.47314304 -0.19020651 -1.0215313 0.0016980509 0.607981 0.159542 0.33097556
72 0.73242617 -1.1181598 -1.3590834 -0.32168278 1.1354402 1.3196535 -0.9282085 0.3364237 1.0918409 1.2614292 1.7390856 -0.7458278 -0.5887826 -1.8133011 0.3847947 0.7748645
106 0.5121267 -1.1619622 -1.69523 0.16996644 0.8085783 0.66808337 1.3492762 0.25020328 0.24601763 1.7727776 -0.08687174 -1.7488682 -0.3708755 -2.0182204 -1.3443618 0.29616138
155 0.85478795 -0.100584924 0.23592429 -1.3757808 1.0602432 1.365163 0.4434099 -0.6362186 0.5626951 1.1311178 -0.6463089 0.22370303 0.5169933 -0.9304069 0.92542857 -0.6546996
97 0.38267493 -0.31680536 -0.8800114 0.23795141 0.9975168 2.1171317 0.32943925 1.1243256 0.30115458 0.45161003 -0.15516773 -1.0178971 0.03089871 0.5217272 0.12949622 0.30047062
9 0.3541684 -0.25313848 -0.85775757 0.2061688 0.93638295 2.0774486 0.29517633 1.084308 0.29125947 0.46969303 -0.2118661 -1.0124276 0.06352428 0.54595286 0.113024786 0.30329314
103 0.87701696 -0.09927246 0.17184637 -1.3311682 1.0492089 1.397597 0.43886167 -0.59801215 0.56937134 1.2000319 -0.63365865 0.20693536 0.50363153 -0.9736956 0.924728 -0.5777506
161 0.8343694 -0.09873204 0.2360531 -1.2566605 0.93975437 1.2567141 0.39039657 -0.56936187 0.5219054 1.0839734 -0.5847746 0.15961832 0.46809196 -0.9559999 0.85502386 -0.57194704
21 0.3810061 -0.28385872 -0.87193304 0.24241444 0.9873393 2.1313078 0.32904756 1.1114241 0.262658 0.42169693 -0.15988813 -0.97791165 0.056718357 0.6173144 0.16867204 0.3126457
27 0.17129964 0.63339216 -1.063364 -2.4314795 -0.46623418 2.5079079 -0.17227207 -0.7178271 -0.75505984 1.5270425 0.012761752 -1.4510549 -0.6939912 -0.25155315 -0.12654506 0.087606445
36 0.4116173 -0.26694006 -0.84980303 0.20870915 0.96308374 2.1171415 0.30085954 1.0219016 0.2514529 0.4635308 -0.19796266 -1.0074223 0.055960827 0.5343519 0.11883414 0.27735496
77 0.38048682 -0.2703087 -0.86929876 0.2251324 0.96296483 2.0514362 0.29582837 1.0702369 0.2514739 0.4187038 -0.19871464 -1.0168883 -0.014164838 0.6311631 0.09687125 0.34834823
166 0.8899517 -0.09063669 0.2946814 -1.3848262 1.0316118 1.3501523 0.45721716 -0.666752 0.58107257 1.1755536 -0.6660672 0.23768136 0.5275251 -0.97636366 0.91753936 -0.65422165
23 0.8098978 -0.12000635 0.19381653 -1.2821238 0.9777794 1.2636946 0.41989157 -0.60282135 0.5339782 1.1275548 -0.5753114 0.21214592 0.5082009 -0.92124707 0.8709271 -0.6003658
35 0.60890263 0.12826034 -0.12948936 -1.1664746 0.6168865 0.95011926 -0.7598125 -0.059003774 0.6774941 1.6690234 -1.5437758 -1.2451681 -1.2447709 -0.46516836 -1.577724 0.7625206
44 0.3788695 -0.27340856 -0.815051 0.24851857 0.99297744 2.0772886 0.318439 1.0692663 0.25070134 0.464468 -0.122765616 -0.9658342 -0.022259822 0.6039771 0.13943188 0.32211953
157 0.8442151 -0.1259435 0.22815916 -1.2953194 1.0062467 1.3056455 0.42172164 -0.5897442 0.5771118 1.1247082 -0.57149214 0.21789671 0.47178754 -0.93803334 0.88597375 -0.554815
42 0.8667629 -0.1359045 0.24606808 -1.3405371 1.0670743 1.3621202 0.3984153 -0.63484985 0.56179434 1.1367861 -0.5873229 0.19870208 0.52774 -0.9801685 0.914957 -0.57413507
84 0.8283327 -0.12905338 0.22628865 -1.3157498 1.0142289 1.3240283 0.41539806 -0.54952866 0.5682754 1.1440387 -0.6280642 0.20880297 0.5154934 -0.9123887 0.87288195 -0.5886492
151 0.64207876 -1.0594976 -1.2618576 -0.3204916 1.0766305 1.155924 -0.8998266 0.32380858 1.0218672 1.1265157 1.702579 -0.72578955 -0.6262247 -1.7566339 0.32925934 0.7235397
24 0.3792825 -0.2325847 -0.86315733 0.18829882 0.95794845 2.0744867 0.31107503 1.0686456 0.2600866 0.47735053 -0.17813616 -0.9902298 0.025082232 0.56178164 0.1550506 0.2654999
176 0.3626423 -0.26051015 -0.78337497 0.18914612 0.955246 2.0253572 0.2959115 1.0469011 0.258515 0.49155587 -0.19502084 -0.98350805 -0.00029153176 0.5371335 0.09122786 0.32960913
73 0.7040244 0.12889169 -0.1469819 -1.1985933 0.65514386 0.96317077 -0.80070645 -0.0262428 0.69601405 1.7259784 -1.5430862 -1.2192425 -1.2673881 -0.49081087 -1.6064665 0.81478745
3 0.002166786 0.013967678 0.01407065 -0.0036172029 0.001263188 -0.004183596 -0.023236632 0.012974709 -0.020262914 0.005314575 0.011707145 0.0055011506 -0.027409902 -0.014154875 0.029402804 0.020887747
94 0.026704496 -0.002667186 0.00527772 -4.630094e-05 -0.009928112 -0.00975526 0.013865804 -0.0010961703 -0.022133451 0.028207406 0.006654801 -0.011197236 -0.014168628 0.00541276 0.015718127 0.017160812
19 -0.01950728 -0.02134026 0.012474475 0.021492695 0.030257221 0.0030560761 -0.01488952 -0.022066688 -0.0016493582 0.0038425243 0.012068275 0.018348694 -0.0014239681 -0.029665066 -0.013467543 -0.0016281946
169 -0.013223637 0.027581412 -0.001840271 0.013489856 -0.028016543 0.008528425 0.018923407 0.01514239 -0.031057557 0.021359766 -0.01096955 -0.015671989 0.0009261451 -0.02270549 -0.026458291 -0.030554794
71 0.013448821 0.005308654 -0.02292542 -0.022486445 -0.023293406 -0.018793797 -0.0044010277 -0.01069581 -0.015259577 -0.0042289793 0.029153641 -0.016786348 -0.0099579785 0.0035455786 -0.013980293 -0.026137756
163 -0.014629212 0.026362574 -0.02428164 -0.0023019903 0.027938861 0.013159618 0.0120004 -0.010065346 -0.022656064 0.024239335 -0.028571958 -0.027747637 -0.0022187943 0.014993995 0.025109032 0.027174555
140 -0.006385927 -0.008220867 -0.005278793 -0.023051752 -0.0033000053 -0.020514011 0.0014681929 -0.0040538497 0.023932923 0.023289219 0.0057185623 -0.010678448 -0.017285913 0.014475519 -0.022565447 0.027158855
138 0.022259513 -0.011034352 -0.028834177 -0.022228401 0.014581136 0.020113077 -0.026626555 -0.0075416234 0.015390469 0.0040500173 0.011920227 0.017907524 0.003648348 0.009486439 -0.030928724 -0.0005366225
30 -0.008936337 0.020898946 0.028388042 -0.030613286 -0.0036195125 -0.005097635 -0.017192835 -0.011858541 0.028675742 0.0006056606 -0.006635224 -0.013720995 0.0059657576 0.015465988 0.0114039965 0.016648505
99 -0.0013899493 -0.020657472 -0.012656179 -0.03033443 0.0021942412 -0.02619758 0.019388827 0.024054177 -0.014800872 0.0033212649 0.03019322 0.0064982665 -0.015384591 0.001567228 0.0060183536 -0.020323223
144 0.010373853 0.009263134 -0.007815481 0.03057675 -0.002595963 0.025156237 -0.0022190192 -0.007226463 -0.017083734 -0.019671965 -0.023998097 -0.02954315 0.020149985 -0.025767026 -0.0025471468 -0.026983302
107 0.002685186 0.027740644 0.02137521 -0.025277985 0.004994916 0.02208728 0.0032980277 0.018186418 -0.004695258 0.008620847 0.022549778 0.012845021 0.0025450303 0.0062113665 0.03050102 -0.023104211
67 -0.017598763 0.022234183 0.0004847222 0.009263292 0.013982952 0.028572641 0.022892138 0.008700793 0.009837089 -0.011232297 0.030939886 -0.02118776 -0.022172421 0.004150822 0.010102276 -0.023250334
11 -0.0019619963 0.0053490405 0.0003945917 -0.011408757 -0.0072694197 -0.007904438 0.007899289 0.0042146365 -0.01971551 0.009132564 -0.008734527 -0.0015742147 0.018572202 0.0037359046 -0.023190336 -0.007301441
117 -0.01142167 -0.00019867356 -0.011002669 0.020984896 -0.0016195762 0.010282223 -0.02524342 -0.0010753835 -0.017687088 -0.013624528 0.025553644 -0.013635846 -0.021823214 0.013577249 -0.006807579 -0.009879353
46 -0.012227307 0.015851831 0.015891714 0.013865543 0.026116585 0.02442771 -0.0028099578 -0.0009090917 0.007315826 0.018824901 0.008748942 -0.009136089 0.027996892 -0.03030164 0.020355672 -0.009288045
90 -0.008089287 0.00038184147 -0.0057579726 -0.014232836 0.017470721 -0.0038749871 0.022441357 -0.0041245525 -0.030729327 0.0046930374 -0.01718173 -0.0038494947 -0.030465735 -9.304716e-05 -0.008633233 -0.0012237242
147 0.019358747 0.018664367 -0.025217593 0.011385 -0.005052937 0.013675862 -0.027365206 0.02582563 0.02317902 0.02598701 -0.024189444 0.015287137 0.010719087 0.00920822 -0.01921714 0.02403587
93 0.004296984 -0.019127574 0.008043645 -0.0039566117 0.0073724836 -0.029646654 0.00278161 -0.0035785362 0.011505038 -0.006952522 -0.011306336 0.017073797 0.02393132 -0.015473236 -0.014144235 -0.0058410885
116 0.027600702 0.027912548 0.019164665 0.008416833 -0.029753383 0.017848577 0.013743032 0.014311542 -0.0140130045 -0.00205378 -0.009430022 -0.015871227 0.0057455353 -0.011590474 0.005638292 0.005759966
2 0.020453654 -0.01302188 0.025717478 -0.011626831 0.0031714772 -0.01793603 -0.008008573 0.023031479 -0.019340385 0.030593758 -0.010339389 -0.012104672 0.0035255493 0.030628962 0.022493258 0.0012585082
50 -0.016201362 0.006575158 0.016479043 -0.0032576062 0.019068073 0.0037260235 -0.014413991 -0.02051902 -0.010984247 -0.012409364 0.014684887 -0.0047363727 0.009393986 -0.01702829 0.02389167 -0.030691175
168 0.0034158023 0.0069052954 0.018007513 -0.031048007 -0.024678372 0.0054707904 -0.020411626 0.006142485 -0.022722393 0.012556719 0.026672529 0.023317406 -0.014410026 -0.02028903 -0.026922127 0.030567871
131 0.027888624 -0.026800036 -0.016587632 0.008499479 -0.022173446 -0.0010340126 -0.027229339 0.0052308035 -0.023309784 0.027291968 -0.0058552665 -0.008895518 -0.0031125036 -0.024983032 -0.00054994575 -0.021982605
92 -0.026388956 -0.008470678 -0.015663909 -0.011207309 0.014726154 0.02040093 -0.0014252038 -0.0074605215 0.013223755 0.011719859 -0.026373882 0.01174811 0.018675862 -0.018654972 0.030435668 0.018888397
95 -0.014273338 -0.008403629 -0.009964662 0.028271783 0.0062935767 -0.0041444716 -0.019801015 0.027847596 0.012867319 0.007564556 0.019440964 -0.027130494 -0.0046559167 -0.006865795 0.012730633 -0.0033802202
153 0.014517335 -0.022263108 0.024626859 0.009929749 0.027688915 0.015976587 -0.02771815 -0.029649906 0.014325153 -0.0070444895 0.008330112 -0.025527917 -0.029329922 0.003244053 -0.011319553 -0.030647015
69 0.030049616 -0.01774635 0.01984395 -0.00075351825 0.01678195 0.025298975 0.0017710235 -0.019398937 -0.021965101 -0.005040009 0.00096237357 0.013795607 -0.013041663 -0.011861884 0.022778088 0.00090491975
60 -0.027703479 -0.017217007 0.021067921 -0.0027050069 -0.030209051 0.0053734398 -0.001345449 -0.006489126 -0.011014127 -0.0019671496 -0.01999745 -0.009811249 -0.010959776 -0.005867353 -0.00084491377 0.0038783078
86 -0.008546775 -0.025605544 0.020025097 0.008368404 0.014477348 0.019988807 -0.026597876 0.00043033517 0.0044677462 0.0062443544 0.028656108 -0.003910639 0.0021026956 -0.0024476552 1.12377575e-05 0.022790369
45 0.024393275 -0.02756806 0.010725517 -0.005066759 0.0019146712 -0.00801851 0.0007385815 -0.01695261 0.004856211 -0.016740998 -0.024390057 0.02286856 -0.0137889 0.0055122576 0.026492817 0.018444229
177 0.022850446 -0.013884016 -0.016163956 -0.025477061 0.013754683 -0.008862811 -0.006967884 0.012241847 -0.021835996 0.006369084 0.015698867 -0.012046878 0.012939572 -0.027385453 -0.03063265 -0.0056014494
179 0.0031925554 -0.015152226 -0.0051363837 0.017885229 0.017869115 -0.005694805 0.011017983 0.015351686 -0.027194329 -0.025187852 0.027512763 -0.014928963 -0.015602261 -0.01941009 -0.008883552 -0.030695572
1 0.013608736 -0.00076121814 -0.005631546 0.022756044 0.022741176 -0.008378282 -0.0023153876 -0.01194358 -0.018820662 0.005378165 -0.008829086 0.00508429 0.0021331403 -0.027132792 -0.027622875 0.004890859
31 0.0030525292 -0.0028563263 0.00056084956 0.0027008732 0.008719241 0.029183624 -0.007881468 -0.010951181 0.016451763 0.016108094 -0.017092457 0.025285555 -0.02532602 -0.0062303143 0.020348873 0.020751173
41 0.022203289 0.028840339 -0.030984739 -0.009451668 0.014729462 0.017523738 0.030788563 -0.02830904 0.005263765 0.030313997 -0.028605932 0.021899516 -0.011729988 -0.004505463 -0.013372804 0.010149934
91 0.025428466 -0.011537746 0.005080533 0.012276605 0.02963595 0.0027901775 -0.0060383333 0.0031546345 0.012924363 -0.021649886 0.019469967 0.028992366 0.025951222 0.009697343 -0.029239116 0.00063313893
68 0.018350795 -0.02031959 0.009837794 0.0041741775 0.0038997144 0.005660324 -0.021568663 -0.022480141 0.016685912 -0.012407803 0.016439484 0.01960416 -0.022926541 -0.015482418 0.01910568 0.029410664
4 -0.023628803 0.0015546407 -0.026947286 -0.018931508 0.02332503 -0.0048840563 0.008836345 0.016508726 -0.008315813 0.015802236 -0.028967956 -0.0004497377 -0.0063761743 0.025296222 0.009094577 0.025067495
20 -0.017544456 -0.01919227 0.0018914763 -0.0033541783 -0.015130655 0.027976472 0.029709386 0.010679235 -0.011739254 -0.011392183 0.006882622 0.0048127333 0.0066870553 0.0037723007 -0.027724843 0.027021823
173 0.028635228 -0.0058371313 -0.016058967 0.009729775 -0.004725176 0.026222851 0.02598312 -0.029783318 -0.008581297 -0.021476535 -0.012559735 -0.025239863 -0.030350046 0.008108413 0.02040845 -0.01473935
83 0.0044169077 0.006016449 0.026399821 -0.02230134 -0.0030404744 0.009162355 -0.016666293 0.005382668 0.028949311 0.012730582 6.1335115e-05 -0.017189652 -0.013475541 -0.024562176 -0.014492206 -0.029945476
120 -0.029261699 0.01610506 -0.013535434 0.014387457 0.023743473 0.0022150534 0.026836667 -0.027792014 0.012717061 0.004377331 0.002361942 -0.016542975 -0.017074848 -0.0138596175 0.0018019718 0.022791725
167 0.00586992 -0.010877406 0.014751165 -0.0064394856 -0.008168513 0.006358678 -0.011144982 -0.010535311 -0.0037236158 0.031140253 -0.00020982837 0.009614151 -0.028899666 0.005293279 -0.0052842232 -0.012916246
51 -0.0036523882 -0.025478356 0.025033785 0.019154256 -0.0062958105 0.029524654 -0.009359942 0.0059281765 -0.0075235222 -0.011300568 0.022956561 0.01215451 0.0039286837 0.0015037159 -0.008637549 0.026714485
