131 16
25 0.61100835 -0.03245676 -0.099940576 -1.4658362 1.35608 1.0262728 0.4255485 -0.9156607 0.5819992 0.89720136 -0.54714245 0.38726208 0.7245421 -1.2536552 0.94686234 -0.83032525
76 0.20538755 -0.43200436 -1.0838985 -0.011517755 1.2108786 2.0029104 0.53782916 0.73890936 0.43433017 0.33283773 0.0648261 -0.95771486 0.1684627 0.65749836 0.027618952 0.3033495
5 0.5816227 -0.060081415 -0.106162615 -1.5143336 1.2732042 1.0280527 0.47582427 -0.9159098 0.6133053 0.86484027 -0.48770285 0.41963348 0.6430351 -1.1804488 0.95065427 -0.866441
24 0.23790726 -0.44266888 -1.1605667 -0.031246563 1.2578583 2.109817 0.64174426 0.80641645 0.47944903 0.31596744 0.04191318 -1.01485 0.14544757 0.67438775 0.05374632 0.3282698
119 0.5924984 -0.008742514 -0.08911991 -1.4763914 1.3033175 1.0361269 0.40982762 -0.9310962 0.6244766 0.9226735 -0.5578112 0.3557813 0.6680443 -1.228873 0.92086434 -0.8524362
105 -0.35955548 0.6537269 -1.5968101 -2.515506 -0.22248273 2.5741222 0.22075069 -1.143509 -1.117469 1.067553 -0.049133535 -0.95524913 -0.5297547 -0.4320726 -0.4455941 -0.42336
52 0.7063244 -0.74301136 0.00180484 -2.026939 3.0015576 -0.29045016 -1.3083862 1.6988173 1.5706565 1.8904351 0.28049326 -1.4928912 0.5321585 -1.2554059 -0.017554546 0.39481688
16 0.3160792 -0.45375553 -1.1261791 -0.05084047 1.264865 2.1295824 0.5752238 0.7765899 0.41731837 0.30027443 0.08257972 -0.96256155 0.121097304 0.58295697 0.024939409 0.3437969
6 0.2551922 -0.4348177 -1.1090622 -0.04469386 1.2316631 2.0301397 0.5960602 0.7642993 0.4543746 0.313813 0.054895964 -1.0003635 0.13318546 0.54464626 0.050504077 0.28134242
104 0.26716107 -0.44706857 -1.1688256 -0.036819622 1.2721366 2.0588007 0.6029568 0.76904225 0.45399657 0.3630267 0.048835073 -1.0274259 0.113929875 0.6326292 0.028514033 0.3908892
98 0.765027 -0.2097108 0.48503214 -0.7379029 1.6285094 1.5474794 -0.45467252 -0.3656111 0.33650944 -0.40180862 -0.12783779 -1.7816087 -2.0427618 -2.5156825 0.9863739 -0.3161038
39 0.5597511 -0.048493523 -0.05254646 -1.4409727 1.3009738 0.95595306 0.45936778 -0.851536 0.6074128 0.91782993 -0.53031856 0.39846683 0.6580658 -1.2335894 0.92041767 -0.8798247
63 0.3145445 -0.46451068 -1.0779724 -0.06405221 1.1971076 2.0601554 0.5494734 0.745442 0.392755 0.3048566 0.06525148 -0.9752644 0.1404514 0.5968685 -0.0026978736 0.2989405
77 0.26548663 -0.4439321 -1.115349 -0.03488095 1.2337738 1.9979656 0.58100307 0.7815951 0.48252103 0.28735846 0.06909591 -1.0021807 0.10977446 0.67097825 0.045703255 0.352001
134 0.60305566 0.0045631253 -0.04409009 -1.4784626 1.2754843 1.003771 0.42642868 -0.88153166 0.6059497 0.8916418 -0.55638415 0.3667486 0.68828624 -1.2157682 0.9434091 -0.86202246
49 0.515159 0.036460757 -0.11432027 -1.3933644 1.1768007 0.9264728 0.39790192 -0.8917271 0.5328839 0.8771982 -0.46021858 0.36260015 0.60376084 -1.1671317 0.86204237 -0.7969119
43 0.4284293 0.19648497 -0.13201076 -1.5477841 1.1956303 1.167581 -0.85864025 -0.5880583 0.54659337 1.8251141 -1.563265 -1.1117764 -1.3482062 -0.54154986 -1.8330231 0.7356411
38 0.3341412 0.16745977 -0.17180984 -1.485866 1.1417863 1.0802153 -0.8226439 -0.5662709 0.50525016 1.6817611 -1.469884 -1.0227745 -1.2569742 -0.49820185 -1.7727623 0.66242266
174 0.103350826 -0.92237836 -1.8852819 0.15616152 0.89158505 0.2861869 1.2808907 0.14601798 0.20288146 2.3869073 0.10901891 -2.2883139 -1.1744869 -1.8658563 -1.0165217 0.2068106
161 0.57416534 -0.01816564 -0.08668417 -1.392445 1.2187585 0.94397205 0.42921966 -0.8501914 0.5709045 0.8555219 -0.47598064 0.33614263 0.6399386 -1.2413216 0.9094702 -0.84941965
61 2.8519244 -0.00048544022 0.24051298 -1.6542177 0.35570663 1.6082929 -0.98492867 1.0543966 -0.2533152 1.9758493 0.6964339 -1.2323154 0.013936556 -1.1374811 -0.42596662 -0.8422766
151 -0.2990295 -1.1194768 -1.2035103 -1.4004004 1.4941478 1.2477237 -0.82929933 0.19538204 0.37244546 0.5471979 2.3751557 -1.014095 -0.61930525 -2.2109966 -0.70806426 -0.2587056
122 0.57777214 -0.023874687 -0.12488257 -1.446105 1.2622001 0.9752369 0.44928902 -0.9073166 0.5864167 0.88517517 -0.5310001 0.41868627 0.69926286 -1.2486777 0.95653474 -0.87185156
145 0.533498 -0.061783925 -0.07760722 -1.3952699 1.235833 0.9913999 0.45506516 -0.8654897 0.5955442 0.8789474 -0.45464277 0.35555652 0.6219336 -1.1583437 0.89066195 -0.82673365
73 0.38311642 0.16758822 -0.11627488 -1.4457452 1.1067034 1.0626037 -0.8811305 -0.59460926 0.4498249 1.7366955 -1.5295582 -0.9810094 -1.3064945 -0.4700933 -1.808241 0.7034898
96 0.2459258 -0.4717131 -1.1136978 0.013862606 1.19395 2.0920124 0.6162855 0.75815856 0.40234888 0.3160637 0.07226115 -0.99493825 0.09812632 0.61744076 0.039788194 0.37805796
150 0.5788872 0.039227672 -0.073468685 -1.4113518 1.1845773 0.957404 0.45934045 -0.88594013 0.594974 0.8461809 -0.53977466 0.41771317 0.6110649 -1.2567283 0.9306285 -0.84021723
129 0.63360566 0.004287826 -0.030083146 -1.4844666 1.2558494 0.98578215 0.44398138 -0.89814883 0.617076 0.93635064 -0.5133408 0.4237752 0.6377262 -1.2997204 0.9779336 -0.8605402
37 0.57668823 0.012041359 -0.07256781 -1.4253649 1.2477454 0.8865072 0.4510414 -0.9261747 0.58742803 0.8661486 -0.52616525 0.48363763 0.68288237 -1.2180507 0.99018586 -0.89282316
109 -0.27247593 -1.0543436 -1.1301501 -1.2121694 1.3465221 1.1875519 -0.71802276 0.20473665 0.33814678 0.5032486 2.1872933 -0.9416708 -0.52828634 -1.9840442 -0.6164671 -0.19939432
127 0.3975259 0.19697942 -0.13259828 -1.4614092 1.0749279 1.0652115 -0.8516663 -0.53715444 0.43178988 1.7278304 -1.4807714 -1.0481431 -1.2727246 -0.4560264 -1.7828239 0.70124453
143 0.6345994 -0.03217433 -0.09578606 -1.4956114 1.2921201 1.0158157 0.4606229 -0.9295512 0.6395247 0.925691 -0.51979595 0.4114086 0.653052 -1.2765789 0.92192477 -0.8697959
13 0.9178224 -0.2456256 -1.2436041 -0.34445432 1.6221004 1.2961403 -1.0984805 1.8617265 0.9537624 -0.37050286 -1.0644351 -1.0412302 0.60991585 -2.622727 -0.14301631 -1.776574
21 0.22142705 -0.44973275 -1.1111032 -0.035549026 1.2029867 2.0127628 0.5602942 0.7503079 0.43987957 0.29286125 0.09702683 -0.9656465 0.14421132 0.6194824 0.0411414 0.33585647
97 0.21188845 -0.45636004 -1.0795016 -0.032155097 1.1675483 1.965629 0.583119 0.76417315 0.43534672 0.28605363 0.085403785 -0.96042246 0.121269524 0.65052754 0.0059187072 0.33919305
23 0.5582928 -0.012343896 -0.058048557 -1.4665296 1.2989331 0.90940404 0.4217415 -0.90970427 0.6308593 0.91542536 -0.50066316 0.39288923 0.6776929 -1.2317997 0.9706951 -0.8652947
85 1.8473094 0.98590225 -0.7250139 0.63688767 -0.70234555 2.7348316 0.7429103 -0.41318074 0.7060495 1.9429338 -0.2669658 -1.0570259 -0.8388966 -2.2758007 0.111128464 -0.07642318
26 0.9950915 0.0417152 -2.1897645 -0.23473309 1.520276 1.4420941 -0.5153108 -0.18182568 -2.0731573 0.52291906 -1.52775 -1.6622155 0.7473438 -1.209845 -0.17674161 -0.59510374
40 -0.3248851 -1.0851486 -1.0277454 -1.1880084 1.3650033 1.0912391 -0.77012306 0.19340652 0.2967041 0.41434863 2.2736175 -0.8899527 -0.5836583 -1.976129 -0.6124462 -0.20930636
126 0.6053325 -0.012504651 -0.039138902 -1.3940393 1.245784 0.9567769 0.43276453 -0.86499125 0.5612884 0.81042814 -0.4890096 0.4045671 0.58076406 -1.2243989 0.93904734 -0.8185905
47 0.19330218 -0.5125716 -1.1669323 0.038188577 1.2728944 2.1000051 0.6258795 0.8438075 0.4450977 0.30454296 0.083670676 -1.0354561 0.1014468 0.71888083 -0.0099096075 0.40129983
57 -0.37136692 0.6111781 -1.5896963 -2.53561 -0.24708761 2.5521188 0.25992772 -1.2171792 -1.1520985 1.0414063 0.008427946 -0.9231505 -0.53978354 -0.46176046 -0.45600185 -0.49650595
55 0.2323507 -0.44498143 -1.1142948 -0.0035159746 1.2302463 2.0236979 0.60068536 0.74340546 0.41940475 0.33082357 0.025469117 -0.97780526 0.11986683 0.610093 0.03920607 0.32718447
15 0.20515956 -0.4233814 -1.1295514 -0.020131666 1.1799946 1.990099 0.5757986 0.7067523 0.37665653 0.35142297 0.07375776 -0.97812593 0.13757585 0.66514987 0.005775569 0.36984518
158 0.2600265 -0.41907004 -1.1038278 -0.041098304 1.1650122 1.9843879 0.5459607 0.762159 0.41369843 0.35429633 0.043694764 -0.95871943 0.11862064 0.57752335 0.0018520096 0.35689232
111 0.21633896 -0.4805128 -1.1031734 -0.021437023 1.2471352 2.0354865 0.51560307 0.8077701 0.39120543 0.31948894 0.08551139 -1.0003283 0.12910728 0.61409736 -0.014555861 0.34943697
35 0.34325084 0.15731706 -0.12632751 -1.4754437 1.1874393 1.1198839 -0.86943424 -0.583604 0.48915547 1.7904521 -1.5586764 -1.1011546 -1.3426161 -0.48705375 -1.8243126 0.69846225
79 0.5322585 -0.025284825 -0.093100786 -1.384839 1.2611198 0.98865986 0.41640198 -0.82606125 0.59677714 0.8119389 -0.4879915 0.37044102 0.63496286 -1.2012984 0.92762387 -0.8660755
80 0.36229354 0.17556584 -0.17548157 -1.5312762 1.2129245 1.1690466 -0.85808754 -0.6181409 0.5123247 1.8037783 -1.5190935 -1.069863 -1.3458225 -0.5332012 -1.8372965 0.7144558
125 1.7718555 0.8829581 -0.7567939 0.4959362 -0.5490554 2.710302 0.7555083 -0.35928607 0.7060617 1.9061127 -0.24082346 -0.98710656 -0.7448242 -2.1463232 0.116379246 -0.108336225
146 0.7626294 -0.24486157 0.5600523 -0.78430355 1.6760727 1.6377928 -0.4797903 -0.48686102 0.34678596 -0.4274705 -0.106886454 -1.8116792 -2.149569 -2.6484597 1.0852729 -0.3331374
162 -0.34161282 0.6244063 -1.6049185 -2.525931 -0.19213821 2.5672832 0.20830645 -1.1963563 -1.1110874 1.0951805 -0.07177339 -0.9584543 -0.47845706 -0.4076416 -0.4262464 -0.4079707
152 0.23299016 -0.48226503 -1.0256745 -0.060948372 1.1956972 1.9591979 0.55843705 0.7179685 0.42658427 0.31875613 0.048532344 -0.91611534 0.14316165 0.5422926 0.0006504066 0.33155438
84 0.5731454 -0.004026643 -0.085934006 -1.4387087 1.2743536 1.0124643 0.45301262 -0.8616392 0.63048387 0.8868411 -0.4999227 0.37295958 0.66147214 -1.2455418 0.98510736 -0.87899965
133 0.5176014 -0.03665924 -0.0544359 -1.4103489 1.2414788 0.9514588 0.48847547 -0.9452479 0.59088343 0.8665224 -0.47789392 0.4518624 0.60044825 -1.1766483 0.9356725 -0.860406
27 -0.3979286 0.6646251 -1.5816916 -2.4480324 -0.33937222 2.4635034 0.25138503 -1.1851826 -1.1585478 1.0035973 0.008603173 -0.94597375 -0.52699345 -0.35779887 -0.43723294 -0.44650868
172 0.56000835 -0.011513393 -0.09227751 -1.3665128 1.2261798 0.9525866 0.44098586 -0.91919917 0.57130885 0.8533399 -0.49906304 0.36258852 0.57447004 -1.1993775 0.87478 -0.8047019
29 0.23923802 -0.42344213 -1.1461744 -0.012764284 1.2506994 2.0296602 0.5828131 0.81380147 0.42748302 0.36062285 0.09225053 -1.0350984 0.06930831 0.6595374 -0.023848863 0.37960657
8 -0.2833963 -1.0835829 -1.1492697 -1.3726921 1.4524918 1.3179975 -0.8319958 0.15598947 0.31764835 0.50297296 2.3673549 -0.924001 -0.59009624 -2.1657715 -0.66655993 -0.22672032
108 0.6170829 -0.028393868 -0.10520642 -1.3997784 1.213065 1.0050902 0.43905094 -0.8630174 0.5578851 0.8569511 -0.5146395 0.34552565 0.63315886 -1.2597077 0.9457617 -0.85552573
139 0.24762559 -0.40874937 -1.1095296 -0.072105326 1.1866724 2.0438027 0.5657027 0.7414478 0.3882685 0.36001807 0.06300675 -0.97038466 0.109886155 0.557241 -0.0063861916 0.31941256
113 0.27607113 -0.48114982 -1.1764374 -0.04085406 1.2485955 2.1028445 0.58440405 0.76436085 0.4394907 0.3874126 0.062383343 -1.015632 0.0937525 0.5970673 0.0037186588 0.34392715
78 0.26246735 -0.42353153 -1.1453768 0.007896203 1.2102841 2.1058903 0.5965936 0.8109919 0.46349815 0.33867872 0.07998463 -1.0363008 0.13141155 0.63685316 0.012815796 0.3640311
141 -0.99434096 -2.2115033 0.10507478 0.22274964 2.4802678 2.0027103 0.33116072 -1.296347 0.8547478 0.984139 -1.9093981 -1.1769595 1.3704324 -0.8773293 -0.70027214 0.44373095
32 -0.90809125 -2.0490427 0.08809436 0.14375588 2.320755 1.9545366 0.3573581 -1.1635336 0.8609848 0.95002246 -1.776142 -1.1517725 1.2525468 -0.78435916 -0.7019304 0.4430685
114 1.0139525 0.023786897 -2.314079 -0.24362563 1.5597452 1.4702235 -0.526267 -0.18974932 -2.2626476 0.5364547 -1.6682459 -1.7540678 0.83293825 -1.2006975 -0.19270095 -0.6257145
81 0.9977234 -0.9917245 -1.0475351 -1.2428485 0.6827851 2.413275 0.65650314 0.751894 -0.0364293 0.12563616 -1.9688773 0.74815005 0.6430384 -2.0976293 -1.5166744 1.2751234
17 1.0502357 -1.0400352 -1.057207 -1.2917986 0.7489931 2.4333498 0.62887347 0.7701902 -0.04453487 0.1777262 -1.9071162 0.7247026 0.64743525 -2.086204 -1.5013956 1.2669188
156 -0.10397413 -0.07083221 -0.832497 -0.5894016 1.8442396 1.038914 1.9212656 0.8190766 1.9871064 0.13117942 -0.404191 -0.94888324 -2.0013344 -1.9425141 -1.1717353 -1.237318
34 -0.07392039 -0.04677974 -0.84259576 -0.6420438 1.8271878 1.0323832 2.0047643 0.85467327 2.0675683 0.12086998 -0.48687539 -1.0155163 -2.1107762 -1.9669029 -1.233059 -1.2949538
124 1.7088943 -1.7410853 -1.0390183 -0.97018296 3.0943244 2.153946 -0.9070811 -0.009970265 -1.4317346 0.7237255 0.6683769 0.73085326 -0.866441 -0.037892237 -0.25650722 -0.49925956
115 1.7544503 -1.7818233 -0.9737321 -0.821246 3.0673022 2.0506938 -0.9578373 0.035651483 -1.547279 0.63801885 0.71338046 0.84161603 -0.85689276 0.028195694 -0.2923315 -0.42537642
53 0.51045954 -0.010987443 -0.16493973 -1.3935145 1.2014139 1.0364652 0.4245194 -0.8313353 0.56001186 0.84801245 -0.43928558 0.29511306 0.5424232 -1.1696596 0.842607 -0.8052635
9 0.25934356 -0.43015555 -1.1183654 -0.024609247 1.1729085 2.036465 0.53116465 0.7545913 0.4323535 0.35584494 0.036073174 -1.0075244 0.1392099 0.6144023 0.0017187465 0.34106153
130 0.12783459 -0.9321262 -1.7972368 0.09999034 0.9079092 0.26077402 1.1617956 0.15545678 0.19754143 2.2817054 0.2300601 -2.2540982 -1.1821979 -1.7740341 -0.980246 0.21694297
7 0.21289739 -0.40332806 -1.079235 -0.04265148 1.2089233 1.9281081 0.5320548 0.667646 0.47605368 0.3464757 0.025793461 -0.9374481 0.12265217 0.5618317 0.0164515 0.35124546
123 2.9521232 0.03183952 0.2785113 -1.7161067 0.3750369 1.5121326 -1.053635 1.1628362 -0.21236715 2.0233955 0.7888883 -1.2213724 0.083634704 -1.1977313 -0.37942195 -0.93681544
165 1.001011 -0.20537426 -1.2005452 -0.37567103 1.6879641 1.3048049 -1.1382105 1.9196259 0.9811709 -0.39089826 -1.0661672 -1.0207131 0.55778927 -2.6997375 -0.08958179 -1.8068867
171 0.25255567 -0.43091267 -1.2127113 -0.023946118 1.2311274 2.1251254 0.6318653 0.84307694 0.42167562 0.36105612 0.03418057 -1.0669957 0.073083766 0.7318981 0.029141126 0.39206693
118 0.27686134 -0.4935384 -1.1231433 -0.005215869 1.2217029 2.1222458 0.5612445 0.8012392 0.3906585 0.3053176 0.079175316 -1.0062394 0.17797844 0.62666786 0.06566113 0.3282818
18 0.6507972 -0.656559 0.042289227 -1.7756529 2.673847 -0.2389424 -1.1233166 1.5174283 1.3773701 1.6867594 0.24480811 -1.3509494 0.45518306 -1.0779378 0.005391254 0.3516645
155 0.5204525 0.027340978 -0.07778707 -1.3862407 1.2111899 0.95465195 0.43284327 -0.9058782 0.57706136 0.8008226 -0.52462375 0.36628667 0.5856672 -1.1555053 0.9057028 -0.83260113
56 0.370144 0.16069353 -0.13265097 -1.4809934 1.219068 1.1277052 -0.8468204 -0.51596165 0.54515475 1.7474378 -1.4989696 -1.045086 -1.2773535 -0.5511967 -1.7791923 0.6362869
176 0.23187965 -0.48735332 -1.11386 -0.024213117 1.2925131 2.0973141 0.596778 0.7581204 0.4226285 0.37430426 0.033025395 -1.0335277 0.14175859 0.613815 -0.00085264444 0.3730026
58 0.561703 -0.029331602 -0.04552347 -1.3595055 1.2310538 0.89097273 0.4137533 -0.8541682 0.5604984 0.8532244 -0.4645431 0.3663177 0.6496131 -1.1383368 0.8923933 -0.7796671
175 0.57345575 -0.014630261 -0.08023281 -1.3753877 1.2110559 0.953144 0.44430524 -0.86666894 0.56702393 0.888573 -0.4726943 0.38647038 0.6123346 -1.1661776 0.9007535 -0.8079414
100 0.5416656 -0.012527307 -0.10686462 -1.4371564 1.28072 1.0293553 0.45856842 -0.8889451 0.60765076 0.8721626 -0.5229393 0.40479648 0.6381216 -1.2204006 0.93547755 -0.8393968
112 0.25583264 -0.4805559 -1.1218337 -0.025181992 1.1855961 1.9689602 0.5454352 0.80820584 0.427509 0.33810544 0.091320775 -0.9751738 0.14090878 0.6669201 0.015456306 0.3327333
22 0.2564557 -0.41929507 -1.1475178 -0.08077182 1.2149576 2.0810366 0.57900345 0.77942234 0.45354024 0.33955157 0.031356763 -1.0128281 0.112666905 0.635824 -0.0238249 0.3133048
101 0.2558889 -0.42602512 -1.1778529 -0.012590532 1.1811244 2.0869896 0.62004405 0.8077859 0.40084007 0.36519423 0.104908414 -1.0458207 0.12527904 0.6476046 0.02060297 0.36884695
106 0.1390378 -0.91241354 -1.8393799 0.1383362 0.90832657 0.3094406 1.2168672 0.19216196 0.2385373 2.2695458 0.23553333 -2.2662187 -1.2110981 -1.8270481 -0.9676251 0.19947189
74 0.22750252 -0.45577875 -1.0481108 0.016969573 1.1610038 1.9490652 0.55664515 0.73633397 0.38021132 0.27032673 0.12228064 -0.93776137 0.12211483 0.67729133 -0.0068332315 0.3129295
180 -0.22959831 -1.0395818 -1.0583618 -1.2619599 1.3897315 1.2099503 -0.7625161 0.24907221 0.3354124 0.50807256 2.2879536 -0.95531493 -0.5364325 -2.0654762 -0.61448264 -0.22975859
10 0.38487408 0.22871564 -0.11760361 -1.5454111 1.1855966 1.0828533 -0.98541397 -0.58395916 0.49360147 1.8512055 -1.6243685 -1.1419207 -1.4289894 -0.5159292 -1.9899662 0.761722
33 0.96580553 0.06395623 -2.2364342 -0.19127443 1.51177 1.391167 -0.58430976 -0.24767932 -2.1917913 0.5040259 -1.5965137 -1.6950219 0.77973247 -1.198201 -0.19685262 -0.65729356
28 0.20860064 -0.41785756 -1.1165262 -0.02443281 1.228761 2.0631454 0.5533891 0.76946545 0.4582209 0.29882246 0.05989389 -0.9816126 0.17705077 0.7016154 0.054837137 0.32315803
136 0.8942202 -0.1929136 -1.0779465 -0.27489176 1.5567263 1.1359693 -1.0501072 1.859854 0.90952677 -0.4577462 -0.98713464 -0.97772825 0.5513775 -2.5290773 -0.07814803 -1.7432199
12 0.11653538 -0.86245036 -1.7648804 0.076091535 0.8990603 0.23693947 1.1716422 0.14645086 0.16418695 2.2661476 0.17404741 -2.1924365 -1.1637003 -1.8131907 -0.95745295 0.1887902
103 0.57916677 0.037169833 -0.07945597 -1.3771244 1.2060779 0.9228735 0.43722677 -0.89802045 0.5998306 0.8770085 -0.50782037 0.42985046 0.6316833 -1.2026793 0.94010615 -0.80823857
164 0.27664384 -0.43679082 -1.1663771 -0.0015395486 1.219396 2.1095707 0.592133 0.75085485 0.40115228 0.32663932 0.0068609063 -1.0595213 0.10533883 0.59349066 -0.00043450002 0.32757437
159 1.81413 0.9364185 -0.7163061 0.6159332 -0.66802466 2.751907 0.75060993 -0.41481155 0.6866156 1.9652 -0.20739374 -1.0297401 -0.79205984 -2.2408733 0.0894119 -0.08839859
36 0.25907603 -0.4262555 -1.1046293 -0.021922577 1.2048405 2.0559304 0.5864243 0.71877664 0.41854522 0.29108906 0.028455263 -1.0196786 0.1468937 0.61690515 0.009243751 0.30804968
88 2.7450495 0.010773057 0.23013528 -1.6152763 0.36399207 1.4563149 -0.94551444 1.0802712 -0.20645845 1.9320887 0.67657185 -1.2096236 0.00796173 -1.185132 -0.41115028 -0.83534896
72 -0.21512878 -1.0564557 -1.0965184 -1.2948582 1.4382201 1.2512442 -0.7753898 0.18537477 0.33289343 0.52615696 2.174654 -0.93384874 -0.60466886 -2.0052192 -0.62052363 -0.24025728
142 0.23420718 -0.42906776 -1.1190392 0.005367497 1.2085493 2.080817 0.5605993 0.7724541 0.39277872 0.2907582 -0.009753459 -0.9937455 0.14743996 0.6254472 0.0043925773 0.34165668
154 0.21440499 -0.4716479 -1.0575972 -0.057168815 1.155961 1.9745728 0.52697545 0.7332569 0.45151573 0.36600092 0.03782831 -0.9988631 0.13226065 0.57701856 -0.0075271274 0.32246158
59 0.2282009 -0.39736995 -1.0614008 -0.011919376 1.1304828 1.9191918 0.52269876 0.73128426 0.41817698 0.31802273 0.065391436 -0.9314812 0.11116375 0.56810045 0.0053899838 0.30217558
128 0.29233 -0.43793324 -1.1191823 -0.03163852 1.2013074 1.9985394 0.5772183 0.8233838 0.40329766 0.28925645 0.09313734 -0.9386237 0.08319276 0.70195025 0.019914841 0.37158877
42 0.5586106 0.018814629 -0.06422502 -1.4217716 1.1976045 0.94930863 0.38297135 -0.90882164 0.5751411 0.89158475 -0.47443745 0.35161832 0.62977844 -1.1470668 0.86103165 -0.7771647
110 -0.28977415 0.5878972 -1.5288702 -2.41679 -0.11907436 2.430196 0.17333071 -1.1191494 -1.0455647 1.0762339 -0.08900425 -0.9008548 -0.5099981 -0.4425601 -0.45803884 -0.42633873
135 0.21356417 -0.4572033 -1.1325129 -0.041557632 1.1925865 2.047796 0.56030387 0.70872265 0.4071174 0.33440098 0.04809962 -0.95744276 0.16687794 0.7011433 0.058448862 0.3470486
89 0.5630095 -0.019191852 -0.10561193 -1.472148 1.2188321 0.96672857 0.41942987 -0.88177806 0.5876438 0.85528386 -0.5423745 0.3483329 0.60392 -1.2642345 0.92294747 -0.83790463
102 0.2325923 -0.44373983 -1.1665558 -0.06803281 1.2109843 2.0593197 0.5794761 0.71208805 0.40881538 0.37558824 0.07322013 -1.0291668 0.12998965 0.63899153 -0.018412618 0.3181474
66 0.5499051 -0.021659173 -0.15689872 -1.4260746 1.2771862 0.9830019 0.4276489 -0.86727446 0.589039 0.8601726 -0.51839244 0.3465131 0.63098425 -1.234785 0.87756395 -0.8421558
70 0.5225964 -0.019890303 -0.06274632 -1.370285 1.1537684 0.90303 0.44031182 -0.8809571 0.535502 0.837666 -0.47145435 0.3807033 0.5842801 -1.1296408 0.89218384 -0.7866624
64 0.53027517 -0.014876357 -0.1241563 -1.4244864 1.2760183 1.0031476 0.4040569 -0.8387675 0.57337695 0.8622724 -0.48386562 0.32327145 0.60750884 -1.1890384 0.9107848 -0.7852262
44 0.273802 -0.4263998 -1.1089207 -0.04040217 1.2618852 2.0878801 0.62935627 0.72347695 0.43096596 0.3698004 0.033417556 -0.96920943 0.07682859 0.62561834 0.014514531 0.3380733
121 -0.23084995 -1.0299622 -1.0935413 -1.2036649 1.3313386 1.2265025 -0.72482824 0.17888579 0.30793548 0.5184536 2.1993818 -0.875504 -0.54059166 -1.9637278 -0.62729996 -0.19849621
157 0.5212613 -0.00877327 -0.118532516 -1.322956 1.1559327 0.95296526 0.3953091 -0.80904186 0.5502612 0.8163488 -0.46263164 0.29626548 0.5578418 -1.1244783 0.82139677 -0.7328724
166 0.5645643 -0.00084346114 -0.078319035 -1.4320017 1.2341387 0.9835037 0.4699581 -0.9300961 0.5847225 0.8705385 -0.5150615 0.36594212 0.6409993 -1.2118042 0.9021809 -0.88105357
82 0.64050865 -0.73805636 0.0057424586 -1.8362837 2.764445 -0.2421715 -1.2158962 1.5527016 1.3990626 1.7023576 0.34815192 -1.3886462 0.42543578 -1.1208601 -0.011810832 0.33689612
54 -0.3340825 0.6357336 -1.5011756 -2.3863955 -0.26110104 2.4261594 0.195468 -1.1612602 -1.10821 1.015823 -0.0035392263 -0.89287156 -0.46553373 -0.40585014 -0.41284093 -0.47595462
178 0.5787321 -0.05032298 -0.13729517 -1.3554922 1.197834 1.0293287 0.44576016 -0.8255063 0.58803916 0.862093 -0.48105115 0.34675276 0.60400885 -1.1643528 0.8988153 -0.7658926
65 0.6068745 -0.0016540335 -0.09115467 -1.3961655 1.251216 0.9672253 0.42182568 -0.8625027 0.5621793 0.8564333 -0.4667398 0.36321247 0.6206989 -1.2036055 0.8820891 -0.8051915
160 0.24786255 -0.46274573 -1.1407896 -0.01992927 1.233426 2.0772855 0.57237583 0.80434394 0.4399951 0.3643396 0.08060097 -0.993574 0.10960354 0.67220217 0.01578766 0.32436085
148 0.8149733 -0.1872937 0.61188984 -0.70735145 1.6432743 1.5568986 -0.48237124 -0.43718532 0.35978612 -0.43459982 -0.16330506 -1.8001165 -2.1369874 -2.6457424 1.086865 -0.35522592
170 0.36416453 0.22292982 -0.12838542 -1.4902047 1.1355114 1.0267154 -0.8688732 -0.5763746 0.5084525 1.7573142 -1.5231491 -1.0404478 -1.2863772 -0.50289315 -1.8149519 0.70744044
87 0.20914851 -0.42703664 -1.0997744 -0.071122184 1.1946243 1.9569334 0.51328075 0.73515475 0.4043656 0.33432937 0.08187769 -0.9941227 0.08773615 0.59187603 -0.0012595194 0.3112454
149 0.52566314 -0.018841365 -0.14959538 -1.4031916 1.2265092 1.0305585 0.45421204 -0.81020546 0.541308 0.8833029 -0.52759016 0.3289823 0.64907837 -1.1863843 0.87656754 -0.8001519
48 0.36097926 0.1974574 -0.13495734 -1.4250623 1.0948148 1.0257117 -0.8304403 -0.548708 0.4875972 1.692378 -1.4658055 -1.0158931 -1.2338809 -0.4900452 -1.7071025 0.6474171
75 0.52727836 0.02410638 -0.083625354 -1.4054401 1.180578 0.95461744 0.47566453 -0.8845565 0.55229586 0.8916406 -0.5183204 0.38554272 0.6238139 -1.2008846 0.8715595 -0.7986592
