131 16
73 0.7093943 -0.015100779 -0.28373498 -1.6916877 0.8504835 1.018855 -0.74808395 -0.31285945 0.89701754 1.6684554 -1.5964878 -0.82165295 -1.3875765 -0.27148205 -1.9372064 0.79417574
44 0.57451 -0.23812082 -1.1247128 -0.025828972 1.0012484 2.0346084 0.4478483 0.92516536 0.24339393 0.50870377 -0.11091704 -1.0148567 -0.10963277 0.6625438 0.35167423 0.6945768
119 0.7813556 0.026795689 -0.016851086 -1.5716752 0.9815083 1.1598835 0.3731499 -0.85206336 0.6034822 1.039702 -0.5225657 0.4121948 0.66162294 -0.8871617 1.0103592 -0.60285366
97 0.55174714 -0.2139011 -1.1062574 0.016741298 0.9650898 1.9776882 0.45930663 0.962507 0.308684 0.46708775 -0.11043175 -1.0611442 -0.07446375 0.6431996 0.3789385 0.64534783
143 0.83090526 0.026169466 -0.041276522 -1.5496225 0.9677453 1.1188568 0.37998298 -0.81728816 0.53600776 1.0626645 -0.4949782 0.41144738 0.6330902 -0.86607057 0.97013646 -0.58574855
8 0.047956243 -1.5387251 -1.8651752 -2.2648125 0.6488128 1.2761093 -0.5659726 0.034068953 0.8054064 0.5234769 1.9561511 -0.4075644 -0.38993457 -1.7418195 -0.09625649 0.35360897
78 0.59814703 -0.1935453 -1.1497337 0.015901655 0.93123776 1.9596012 0.3984296 0.9788687 0.25466135 0.4820889 -0.10028154 -1.0430247 -0.11972073 0.60752714 0.3142044 0.6714355
103 0.82707524 0.04417398 -0.02858146 -1.6194872 1.0193802 1.1728071 0.38659996 -0.9127989 0.5592614 1.0943986 -0.5095287 0.49682635 0.68773156 -0.93902975 1.1166092 -0.6100814
16 0.5603589 -0.18946333 -1.132413 0.003927727 0.91745985 1.9636375 0.42945477 0.95484716 0.22687438 0.42355046 -0.07985901 -1.0063342 -0.11067673 0.6500346 0.33685267 0.71927935
159 1.8876158 1.2613935 -0.8327007 0.16527838 -1.229509 2.4828784 0.51460856 -0.30969077 0.978943 2.1851625 -0.80541044 -0.5306053 -0.7086056 -2.2147634 0.34926924 0.71894485
7 0.5293192 -0.14999951 -1.1502745 0.033785008 0.9211453 1.9514462 0.40877867 0.9122001 0.29688257 0.407277 -0.16968052 -0.99149877 -0.08051779 0.61406016 0.36512777 0.6811883
152 0.55696565 -0.23274232 -1.117414 0.014885552 0.93769014 2.0031428 0.42365983 0.98873633 0.26316765 0.45455438 -0.121820875 -1.0264832 -0.11945735 0.64198124 0.29644048 0.71635604
63 0.5563952 -0.20162363 -1.0914823 0.02586997 0.9213928 2.0122128 0.4431753 1.0080152 0.28840318 0.40624967 -0.11414975 -1.0878034 -0.036803957 0.70879495 0.36528 0.67160165
26 1.2258903 -0.31480572 -2.1980827 -1.1996894 0.91486734 1.78953 -0.42453316 0.19979095 -2.5931697 0.4919598 -1.7326072 -1.3612005 0.98953956 -0.95849884 0.039972547 -0.11665266
13 1.5331936 -0.014911721 -1.5088887 -0.70702 0.980141 1.4757451 -1.217244 1.5717734 0.76542395 -0.28454578 -1.3031973 -0.8733105 0.13191001 -2.4035316 -0.27563992 -1.4034151
170 0.678898 -0.0046853675 -0.31999025 -1.7496382 0.89312375 1.0538892 -0.6865101 -0.28287295 0.9234238 1.659784 -1.4713935 -0.8661348 -1.2766289 -0.3229294 -1.7720072 0.7680096
42 0.8115854 0.001481594 0.010664418 -1.6277932 1.0538794 1.1934079 0.34447682 -0.8958694 0.60514903 1.0711597 -0.45347366 0.43905678 0.69646883 -0.8987901 1.0684813 -0.5858224
53 0.79732084 0.027450336 -0.00025599456 -1.6918536 1.035906 1.18037 0.40891573 -0.91926825 0.6169945 1.1166928 -0.49431974 0.47170833 0.6727803 -0.9164689 1.076528 -0.6645548
126 0.7810048 -0.0024014178 0.013362746 -1.5804507 1.0283825 1.148165 0.3856331 -0.81960267 0.5870515 1.063065 -0.49415925 0.42701873 0.6062451 -0.8683649 1.0060889 -0.54011965
66 0.8102015 0.015242281 -0.0027505213 -1.6259692 1.0307456 1.0977834 0.38364354 -0.8740942 0.6313929 1.0890111 -0.52728194 0.4698475 0.70262665 -0.9468848 1.026899 -0.6438372
23 0.8036062 0.019885017 -0.011722296 -1.6132432 1.0023232 1.1630926 0.37509552 -0.8925539 0.6055163 1.1423459 -0.5065731 0.44561696 0.6845231 -0.9214722 1.0278214 -0.61021227
178 0.7705818 -0.0023042536 0.016237253 -1.515087 0.9126873 1.0758117 0.37778395 -0.81808156 0.5610961 1.0306236 -0.4626371 0.439022 0.6197819 -0.8614621 1.0002873 -0.5758055
77 0.58929443 -0.25148973 -1.1883444 -0.037233934 1.0303631 2.0625176 0.4483175 0.9837407 0.32796523 0.4713915 -0.11968747 -1.0883257 -0.11408458 0.7016799 0.37556124 0.74433357
76 0.5426076 -0.20377648 -1.1613756 0.04028786 1.0137392 2.0707328 0.42309958 1.0034207 0.32265347 0.51477104 -0.14719158 -1.12065 -0.05260871 0.6895601 0.35858718 0.6798893
158 0.5335013 -0.178676 -1.1142502 -0.040152907 0.91244686 1.9502528 0.43066326 0.9445023 0.2889656 0.50026447 -0.13802007 -1.0451652 -0.07964206 0.5828184 0.3555209 0.68138766
29 0.5321374 -0.20209616 -1.1396831 0.028155603 1.0223966 1.986765 0.43545875 0.98299176 0.27679986 0.48792726 -0.061196305 -1.0951002 -0.09676205 0.70227057 0.40002614 0.6747495
88 3.0119832 0.32299566 0.7516007 -1.472793 0.24182254 1.5570376 -1.3686897 0.73132336 -0.47494787 1.8870337 1.193656 -1.0948591 -1.271198 -1.0215942 -0.13068429 -0.03977358
133 0.765773 0.0069080456 0.012839817 -1.5333601 0.99184656 1.1500372 0.4090229 -0.8474037 0.5885508 1.0891899 -0.5174027 0.4382422 0.63224924 -0.85423446 0.9987621 -0.6051872
70 0.810687 0.0024782817 -0.00605717 -1.6085907 0.9542688 1.1510527 0.4103487 -0.86914295 0.5438747 1.0942285 -0.4782422 0.46389478 0.69019186 -0.915965 1.0605818 -0.6064737
58 0.8400324 -0.0002039942 -0.007234753 -1.6195428 1.0430456 1.1868303 0.4099884 -0.8882494 0.5583626 1.1117272 -0.4954694 0.43582672 0.6859765 -0.908708 1.0497986 -0.59233487
174 0.20767719 -0.8422079 -1.5862441 -0.0751006 0.91755366 0.89823073 1.2666408 0.19722705 -0.16853322 2.149736 0.43071225 -2.3879778 -1.0914235 -2.198947 -1.3218459 0.3111046
57 -0.05985332 1.4489987 -1.4127924 -2.7963605 -0.92429316 2.2523909 0.037676577 -0.560519 -0.9722188 0.88133883 -0.48617908 -1.150609 -0.7679487 -0.35377526 0.21843457 0.097760506
114 1.2259712 -0.37878478 -2.2467945 -1.2658694 0.93483585 1.7783647 -0.4313409 0.16855177 -2.7570236 0.54953957 -1.8292534 -1.4077419 1.039057 -0.92538685 -0.022307843 -0.12953465
118 0.57939434 -0.23005705 -1.1552709 -0.020999344 0.9671096 2.1034946 0.4363999 0.98185885 0.2605082 0.5191267 -0.12863404 -1.1148897 -0.10343608 0.64428604 0.38271287 0.68441224
160 0.5355788 -0.19938141 -1.1239473 -0.009403481 0.92817503 2.0119822 0.4070619 0.95124483 0.31852788 0.5186192 -0.15475048 -1.0344777 -0.0893408 0.6606304 0.34203672 0.6481273
165 1.5646347 0.04010152 -1.4622319 -0.6133428 1.019824 1.299639 -1.2881415 1.6939672 0.80978054 -0.49360192 -1.3244731 -0.816573 0.01881887 -2.579235 -0.2781803 -1.5385305
15 0.5546262 -0.20283253 -1.1799511 0.018203462 0.9865928 1.9797857 0.42618954 1.0137339 0.26539525 0.47190896 -0.13929857 -1.0956476 -0.1014495 0.6725405 0.31611997 0.7085886
52 0.595537 -0.49704853 -0.11832671 -2.1748605 2.2798927 -0.10445757 -1.0395181 1.789889 1.483145 1.8220912 0.29258257 -1.3734466 0.24343203 -1.1174886 0.26950485 0.6662915
39 0.7747575 -0.011047433 -0.0146605745 -1.5680722 0.9802593 1.149799 0.37977046 -0.7951453 0.54240966 1.1046854 -0.5089021 0.4112989 0.61843944 -0.8887121 0.9705362 -0.57204777
110 -0.038183346 1.3829538 -1.3517231 -2.6657982 -0.8254402 2.096551 -0.03517725 -0.5208741 -0.86980873 0.8897045 -0.45998982 -1.1026921 -0.75113535 -0.30282348 0.20689695 0.10839963
59 0.5355397 -0.18955539 -1.1142843 0.027957657 0.91879225 1.9456025 0.37427166 0.9509647 0.26185676 0.4568212 -0.09855166 -1.0282983 -0.114966184 0.63037497 0.32912233 0.67595303
21 0.55260664 -0.19215597 -1.1031659 -0.030383965 0.90244246 1.9318058 0.4100046 0.93262506 0.26886335 0.43181443 -0.10132144 -1.0146028 -0.07367956 0.54957634 0.36676064 0.62758774
112 0.58572 -0.21886547 -1.1747547 -0.038796946 0.9111988 2.0104785 0.42426765 0.94422024 0.25254732 0.48415706 -0.11557467 -1.0059259 -0.07000141 0.6635168 0.37977666 0.6592517
28 0.506106 -0.18295258 -1.1109313 0.011190452 0.9359292 1.9588832 0.38875076 0.8991126 0.25110728 0.45969948 -0.11689897 -1.0047925 -0.02158822 0.6660098 0.38142535 0.6356158
64 0.77799326 0.06533683 0.01943359 -1.55597 0.9028659 1.1015269 0.33671418 -0.86258084 0.5250457 1.0451809 -0.51217115 0.44220006 0.61167365 -0.9270685 0.9996848 -0.5745562
108 0.8375961 -0.0003854467 0.03682751 -1.5923315 0.9759261 1.1697855 0.36839586 -0.87241113 0.56462795 1.0679309 -0.5273696 0.3888362 0.60545605 -0.95066303 1.0479074 -0.62490827
38 0.69188523 0.0063637914 -0.28341606 -1.7720476 0.83091146 1.0582886 -0.7157612 -0.34259436 0.94906086 1.685034 -1.5839655 -0.8377062 -1.3561966 -0.288567 -1.9285929 0.79044545
72 0.105477326 -1.4463913 -1.7471639 -2.1127617 0.6079439 1.2356786 -0.5147724 0.04146491 0.7949034 0.5214483 1.7610089 -0.39508742 -0.40057862 -1.6230099 -0.09163358 0.31799614
162 0.03766977 1.3230987 -1.3299872 -2.688552 -0.7384095 2.152107 -0.029021453 -0.50766116 -0.80352414 0.94659 -0.45981422 -1.1346544 -0.7098199 -0.37617305 0.23568372 0.13490343
98 0.8875877 -0.56303024 0.17380863 -1.1504477 1.3252943 1.6378416 -0.35307056 -0.5175695 -0.038053036 -0.45057943 -0.28811505 -1.4853046 -1.9874519 -2.7845044 1.3844172 -0.11207526
40 0.06080872 -1.5183743 -1.7485515 -2.1955383 0.6394937 1.1902518 -0.5575245 0.016178463 0.7775971 0.51585054 1.8495861 -0.3901419 -0.4069822 -1.6656795 -0.114290446 0.32884467
75 0.78316003 0.027389742 0.05525936 -1.610289 1.0064689 1.1088657 0.39654967 -0.851733 0.583023 1.0943316 -0.50325805 0.46462592 0.697881 -0.92999625 1.0382972 -0.6191039
149 0.7862857 0.044127274 0.038738985 -1.6080236 0.9629973 1.1579616 0.39301798 -0.8569487 0.5498218 1.125477 -0.530082 0.45177215 0.6875704 -0.91101414 1.0419785 -0.61058
12 0.24316692 -0.7778278 -1.5111744 -0.22025917 0.94418716 0.9376376 1.1917062 0.155264 -0.19405413 2.0713909 0.4185761 -2.2850976 -1.0734649 -2.064486 -1.2097945 0.3175146
85 1.8659341 1.2705632 -0.84425175 0.17146781 -1.232542 2.3928945 0.4856518 -0.31625962 0.94878143 2.1283684 -0.8427456 -0.5477987 -0.73614293 -2.181201 0.35979128 0.72504205
24 0.5292283 -0.1934248 -1.141204 0.007669382 0.9210736 1.9576275 0.42050633 0.945585 0.25349432 0.42576206 -0.1323214 -1.018796 -0.12583263 0.66142035 0.3410959 0.6473744
79 0.8073441 0.031988934 0.03481396 -1.6079521 0.99812037 1.1714094 0.36321068 -0.8671725 0.57648546 1.0987517 -0.5284157 0.46968544 0.6989476 -0.913817 1.068846 -0.6432009
56 0.63377583 0.00011445705 -0.21518774 -1.6247107 0.821461 0.9441022 -0.69835067 -0.27282026 0.8907139 1.589474 -1.531764 -0.7815187 -1.2784451 -0.2610653 -1.832333 0.72300583
87 0.50540894 -0.18521644 -1.1388272 -0.05485262 0.9174795 1.9313648 0.41810003 0.9218365 0.26269537 0.45889556 -0.12023463 -1.0071017 -0.08210816 0.6283725 0.34394607 0.62152964
135 0.5428017 -0.18546245 -1.1800504 -0.061389722 0.9031199 2.0439932 0.41915777 0.85553 0.22339673 0.5443126 -0.20632802 -1.0557139 -0.030166 0.64282405 0.38006267 0.677783
123 3.1183014 0.30490744 0.74546874 -1.5768368 0.33465886 1.6604229 -1.488276 0.76074034 -0.45565045 1.9369879 1.323795 -1.1319238 -1.3120301 -1.0608015 -0.09735091 -0.05364408
18 0.58317304 -0.49653077 -0.06309206 -2.0311704 2.219393 -0.10654708 -0.9898209 1.7800752 1.4101523 1.7109641 0.3072882 -1.3442392 0.24111587 -1.0577655 0.2911622 0.6276472
100 0.72850466 0.04335335 0.050953556 -1.5535878 0.9404918 1.0772041 0.37579045 -0.86646396 0.58602375 1.0208029 -0.49080077 0.48757946 0.6416018 -0.86241275 1.0067335 -0.6064272
84 0.75132936 0.026535092 0.060281653 -1.5130533 0.9294916 1.0827439 0.37951493 -0.8272245 0.5430399 1.0330343 -0.502213 0.44751963 0.67864203 -0.8666532 1.0194637 -0.5967152
141 -0.8505228 -2.0106025 0.07637236 -0.24231476 2.175018 2.2507718 0.40264344 -0.48630688 1.2791365 0.6753558 -1.8631146 -1.317547 0.8684965 -1.2202383 -0.18811433 0.8669598
32 -0.8071197 -1.993431 0.07538293 -0.32907954 2.1914492 2.3816776 0.48764163 -0.49857664 1.3365195 0.7676179 -1.9099835 -1.3789806 0.8644801 -1.2064701 -0.22109295 0.8852463
81 0.646075 -0.6817845 -1.3453016 -1.2016366 0.47271833 2.3795 0.7718683 0.78705066 0.07687694 0.15153283 -2.0424623 1.1293486 0.66267973 -1.9270091 -1.175947 1.721896
17 0.6980341 -0.7359574 -1.3702368 -1.1864489 0.47571567 2.380732 0.7769747 0.84352857 0.0003863913 0.13443212 -2.0768738 1.2171515 0.7608106 -1.915989 -1.2008224 1.7963244
130 0.29767048 -0.8260095 -1.5548586 -0.218505 0.97808343 1.0041472 1.2226509 0.14536637 -0.18309012 2.1290565 0.3938637 -2.3636956 -1.0591904 -2.0776677 -1.1840539 0.33875036
156 0.76826644 0.013389515 -0.9975094 -0.6675098 1.6620618 1.18647 1.7432327 1.2275943 2.0776312 0.1923474 -0.53905874 -0.76494586 -2.220547 -1.9541268 -0.7729166 -0.93316305
34 0.8195086 -0.012195786 -1.0056918 -0.747535 1.5928696 1.2412931 1.6754689 1.199761 2.0456672 0.25638595 -0.59228843 -0.8338973 -2.177176 -1.89286 -0.7367046 -0.8442741
124 1.8490591 -1.8370447 -1.0353553 -1.1068172 2.1559014 2.173533 -0.8621618 -0.033297908 -1.446802 0.57084453 0.4778405 0.8766791 -1.125088 -0.057107646 -0.26362243 0.0781784
115 1.9095013 -1.8487064 -1.0493776 -1.1171368 2.166904 2.2267475 -0.8852005 0.0031659487 -1.4940159 0.5985223 0.46364942 0.85032445 -1.0973914 -0.10404294 -0.29496488 0.15471531
102 0.54725695 -0.22213978 -1.1800866 -0.0012015121 0.92812943 1.9881271 0.44932276 0.9294458 0.24781957 0.47162414 -0.10709255 -1.0650696 -0.07583173 0.61682904 0.32172975 0.6525615
155 0.7525118 0.056748983 0.033625614 -1.5309478 0.9596202 1.0763077 0.36094093 -0.8424772 0.55903596 1.0003831 -0.48982832 0.40722984 0.6008815 -0.8292013 1.000106 -0.6049988
27 0.03227628 1.350913 -1.3932716 -2.7251122 -0.7452121 2.2090948 0.009508716 -0.51421845 -0.8187303 0.93783665 -0.46978462 -1.1794415 -0.7533608 -0.38038698 0.23958702 0.109855786
148 0.8137481 -0.5464252 0.21640065 -1.0785108 1.2705169 1.5622668 -0.34444442 -0.53220284 -0.05432972 -0.44038916 -0.30688488 -1.4610406 -2.000441 -2.7157328 1.2945004 -0.08817858
146 0.81191885 -0.57506543 0.17659952 -1.1449773 1.2779822 1.6385838 -0.34122303 -0.5322159 0.0015007113 -0.39148033 -0.26026437 -1.4737474 -1.9821488 -2.7292943 1.3286816 -0.06627001
25 0.80977976 0.0512977 0.07273717 -1.6152484 1.0135441 1.1029421 0.40056777 -0.9234728 0.60569805 1.0581728 -0.5269033 0.51465076 0.7466134 -0.95012933 1.1203331 -0.6311838
22 0.55502766 -0.14128259 -1.1268581 -0.04179632 0.8376722 1.9510729 0.40392914 0.92710465 0.25094125 0.42475602 -0.11774751 -0.98057497 -0.07912246 0.62612736 0.33480605 0.62380105
36 0.56159216 -0.22761633 -1.1175522 -0.024596103 0.9549531 1.9953893 0.40867874 0.8719467 0.243146 0.46312636 -0.1297064 -1.0619389 -0.09417184 0.63071424 0.3154457 0.6533756
171 0.5495125 -0.17872955 -1.154552 -0.06319189 0.9103615 2.014427 0.41221467 0.95113504 0.2667203 0.48403424 -0.17201747 -1.0386858 -0.13149686 0.637437 0.37469694 0.6840808
10 0.6259414 -0.02825905 -0.3415882 -1.6707897 0.8647864 1.0290887 -0.7191729 -0.27183732 0.88638234 1.5713221 -1.5448233 -0.839725 -1.3062496 -0.26196095 -1.8927975 0.7729211
54 -0.11898049 1.4719104 -1.3458183 -2.6914725 -0.95914906 2.108848 -0.0353253 -0.5696592 -0.9409092 0.8737411 -0.45815 -1.1585217 -0.7597055 -0.28194672 0.16727208 0.109848164
89 0.8284209 0.0039172177 0.003907116 -1.6303701 0.975772 1.169065 0.36682594 -0.83260953 0.5827974 1.0692413 -0.56047565 0.4375824 0.6513478 -0.904626 1.0403953 -0.5998672
157 0.73373324 0.0054084086 -0.015063282 -1.522385 0.9516518 1.115293 0.35025927 -0.8091779 0.56449664 1.0352536 -0.4891194 0.36958095 0.5690414 -0.8340328 0.91639537 -0.50040746
55 0.6013241 -0.22122741 -1.1296172 0.0041207066 0.98242515 1.956782 0.4016501 0.97572976 0.25300947 0.4907346 -0.14009926 -1.0388942 -0.14760947 0.5650693 0.33793765 0.6484983
101 0.52033037 -0.19811739 -1.1110464 -0.0033438937 0.89873034 1.9574199 0.42943314 0.95351225 0.27238113 0.47026792 -0.10529022 -1.0310003 -0.05402909 0.648276 0.35716286 0.6946178
35 0.6656325 -0.03831457 -0.2826167 -1.6398659 0.84390837 1.0433029 -0.67385256 -0.30732158 0.8973633 1.6207201 -1.5420885 -0.85367876 -1.3756678 -0.34241855 -1.8469268 0.71546835
113 0.54988444 -0.19702943 -1.1074507 0.001849972 0.90364647 1.9138035 0.42676347 0.9224424 0.31176302 0.4966533 -0.121627554 -0.9884376 -0.12812199 0.64417505 0.34032044 0.66422015
109 0.15352362 -1.5185926 -1.8382142 -2.2184882 0.6926826 1.3132108 -0.54179245 0.09353921 0.8464944 0.5911457 1.8213701 -0.43736067 -0.34732985 -1.7021307 -0.065471426 0.35524032
37 0.8055677 0.04928241 0.00056516443 -1.5603962 0.96987414 1.1074911 0.4056415 -0.8846624 0.56919515 1.0899888 -0.5106057 0.46603304 0.6468602 -0.9127049 1.052708 -0.63894534
180 0.0061353627 -1.4810854 -1.7266004 -2.158133 0.5848249 1.1341348 -0.5552387 0.072279215 0.79656565 0.5045408 1.9151601 -0.42097524 -0.39164984 -1.6427689 -0.18290429 0.3627378
9 0.5690367 -0.15984605 -1.0970556 -0.04108034 0.8860302 1.9445231 0.37602296 0.896923 0.25264388 0.45434436 -0.14317912 -0.9846397 -0.0612044 0.6107512 0.37990192 0.6029392
161 0.8017842 0.02140396 0.009361725 -1.5966744 0.9733177 1.1381034 0.37546825 -0.85241485 0.55683655 1.0609457 -0.4846073 0.39961642 0.6645437 -0.93137425 1.0384803 -0.6095042
139 0.51354253 -0.17735237 -1.0964812 0.033639316 0.91017723 1.9649153 0.43928093 0.9181929 0.25665748 0.48154783 -0.11303823 -1.024717 -0.11747907 0.65711755 0.32880494 0.68296397
80 0.6958472 -0.011788237 -0.28537074 -1.716821 0.8688877 1.0757654 -0.70358527 -0.3131868 0.9269158 1.6674471 -1.4735488 -0.8192915 -1.3337113 -0.3088045 -1.8209149 0.7848638
104 0.58557606 -0.17473832 -1.159511 0.021002313 0.9435643 1.9839348 0.4786772 0.94543093 0.26409602 0.50041574 -0.108885065 -1.069058 -0.13873515 0.67197573 0.3720605 0.69601274
43 0.7031943 -0.0009328809 -0.26705566 -1.695062 0.8272625 1.0010934 -0.6649751 -0.29025224 0.93591404 1.6487976 -1.4981087 -0.8546092 -1.3328578 -0.3436515 -1.8368149 0.7788814
172 0.8190398 0.03212375 0.02239033 -1.5941569 1.0020367 1.1501216 0.43200463 -0.92559546 0.62039566 1.09024 -0.52951986 0.5149131 0.702819 -0.9303907 1.0624086 -0.6275749
121 0.048395783 -1.3686892 -1.6660482 -1.9899118 0.56785667 1.1596692 -0.48357353 0.026988223 0.75546116 0.5130608 1.6600853 -0.38012287 -0.33073127 -1.5632981 -0.13732347 0.34091184
82 0.66007054 -0.5269374 -0.049445175 -2.2254012 2.4139166 -0.090329155 -1.0875148 1.868284 1.5457911 1.8767614 0.28269264 -1.4568365 0.24861248 -1.1408974 0.34478712 0.6222626
176 0.5267729 -0.21772383 -1.0981839 -0.00978547 0.9497507 1.9743745 0.42312267 0.96579677 0.27419898 0.49663082 -0.042993166 -1.050661 -0.12140662 0.651594 0.34066647 0.7120855
65 0.84716034 0.03662859 0.037897695 -1.6139215 1.0331138 1.104599 0.39149186 -0.8677605 0.5861124 1.0934627 -0.50281656 0.50486296 0.7266567 -0.87381923 1.0359408 -0.60703856
48 0.6747228 -0.015707742 -0.23623823 -1.6497465 0.8444539 0.94308674 -0.7235385 -0.2826285 0.93409294 1.623898 -1.5298762 -0.8184656 -1.3344606 -0.28217602 -1.875632 0.77116585
151 0.0065418445 -1.4559408 -1.7362338 -2.126595 0.55894077 1.1180053 -0.568362 -0.01865468 0.73446035 0.44278792 1.8168724 -0.37531373 -0.4111143 -1.6111783 -0.15135385 0.30559114
166 0.75365156 0.03323149 0.04037382 -1.5020249 0.91743 1.0455737 0.37162802 -0.84475815 0.5243986 0.9965385 -0.49393737 0.42104566 0.6456245 -0.8533888 0.94909704 -0.6094244
142 0.5089285 -0.21951893 -1.08538 0.060610596 0.92828035 1.8978447 0.37489784 0.970747 0.26639426 0.4033419 -0.10810494 -1.0143244 -0.14591666 0.62650377 0.28236777 0.6661981
61 2.7849333 0.2495362 0.61981046 -1.439321 0.31193766 1.6190655 -1.2899679 0.61430854 -0.41526777 1.7626038 1.101931 -1.0566648 -1.208643 -0.9841892 -0.08028036 0.006935986
106 0.29297218 -0.78542465 -1.4836805 -0.16732986 0.90770876 0.9219887 1.1650503 0.14839192 -0.18782243 2.0566866 0.4089973 -2.2746918 -1.0024222 -2.0954983 -1.123247 0.30651098
105 -0.07149982 1.4413835 -1.3642747 -2.7764275 -0.8400435 2.1846118 -0.03511953 -0.47586805 -0.8643833 0.8942775 -0.45951337 -1.1926539 -0.80132335 -0.33110034 0.23762824 0.1519487
175 0.780713 0.010375209 -0.009994025 -1.5276489 0.9330132 1.0647175 0.34553838 -0.81868094 0.49757 1.0256507 -0.4612188 0.45887986 0.63620377 -0.8872885 0.96889657 -0.62555975
6 0.5741813 -0.17425928 -1.0720998 -0.027112434 0.8991584 1.9026772 0.4224796 0.9222143 0.29543826 0.45814252 -0.17394707 -1.0033053 -0.09666721 0.5252543 0.33580592 0.6126114
122 0.7219698 -0.02504051 -0.030903982 -1.4734088 0.92588 1.0595126 0.34696344 -0.7952536 0.528674 1.0047832 -0.5129379 0.40019694 0.6200129 -0.87259734 0.9084092 -0.5573388
49 0.73996097 0.06979804 0.03428719 -1.5398353 0.9453323 1.0687091 0.389305 -0.9276929 0.5646721 1.0547211 -0.4898337 0.48024094 0.6925834 -0.9354339 1.0402465 -0.6322248
129 0.76416993 -0.0010687449 0.00872073 -1.5052332 0.9600295 1.1027362 0.38195208 -0.7720772 0.53927463 1.0184643 -0.4794958 0.4168515 0.58344316 -0.8768737 0.9618852 -0.55426645
164 0.5711968 -0.20359758 -1.1308228 0.039071582 0.9314114 1.9780078 0.4173899 0.9576255 0.24157587 0.4268429 -0.13616166 -1.0706553 -0.11252012 0.6223278 0.34342632 0.6518097
47 0.543051 -0.21904123 -1.1070864 -0.05806344 0.91933703 1.9947842 0.4233775 0.91302234 0.23172379 0.48535818 -0.16306753 -0.9923449 -0.0820096 0.60212034 0.35361582 0.6707891
145 0.77772164 0.029532082 0.02249842 -1.5681721 0.933754 1.1494325 0.40421656 -0.85684186 0.56417745 1.0823148 -0.4985234 0.4196176 0.6357374 -0.89459974 1.0112597 -0.61792666
125 1.7796996 1.1747657 -0.7665201 0.1762154 -1.1605519 2.2485127 0.4500896 -0.23705038 0.8848736 1.9782041 -0.7351652 -0.4529885 -0.66233116 -1.9773539 0.33033237 0.6656978
128 0.54325134 -0.19538134 -1.1081796 -0.036977828 0.9124947 1.9210373 0.45932758 0.9184264 0.27244532 0.4487008 -0.11755772 -0.9774436 -0.088233285 0.6234674 0.38164395 0.6643313
74 0.56010354 -0.21035159 -1.1100847 -0.02473489 0.89549226 1.9451399 0.4251486 0.8873184 0.18403374 0.436277 -0.08887029 -1.0051789 -0.100648224 0.644714 0.31606376 0.6136814
5 0.7954015 -0.010588731 0.0066606747 -1.5949378 0.9350793 1.139666 0.37890154 -0.84007186 0.5811208 1.0344507 -0.5017488 0.4286385 0.5957822 -0.84372634 0.98244363 -0.5633169
134 0.79925746 0.041394413 0.03161454 -1.6070629 0.9687874 1.1261508 0.36838922 -0.83228004 0.6023837 1.0702846 -0.47626984 0.40768236 0.61876994 -0.9152982 1.0115631 -0.61102706
96 0.5040368 -0.21172698 -1.113546 -0.015445116 0.8940944 1.9875411 0.45019144 0.9236474 0.23556694 0.4752114 -0.110287815 -1.0687343 -0.11545875 0.6192518 0.35903823 0.7060206
127 0.67691964 0.0047781207 -0.27199087 -1.6061978 0.76947314 0.9889157 -0.6417714 -0.30024204 0.82520056 1.5832884 -1.4397159 -0.83057714 -1.2764686 -0.30045664 -1.7512039 0.7387973
150 0.75433683 0.07224928 0.051046886 -1.4864932 0.9021965 1.071141 0.39242202 -0.8473655 0.5646936 1.0287559 -0.5127407 0.43102622 0.6461377 -0.8628444 1.0403913 -0.5954608
33 1.1790336 -0.34208313 -2.1190624 -1.2008249 0.9698656 1.7625906 -0.41990036 0.14185685 -2.4316068 0.56106097 -1.6627009 -1.3342232 0.9085375 -0.91610986 0.007937297 -0.13987745
136 1.5158168 0.010531286 -1.4059169 -0.77424073 1.049603 1.5052266 -1.0908124 1.5090374 0.7977707 -0.22544955 -1.2245324 -0.8537599 0.046189625 -2.3634534 -0.20715533 -1.334717
154 0.5285165 -0.20790468 -1.0782411 -0.040455453 0.8749279 1.9279071 0.38627115 0.921394 0.2876922 0.4919801 -0.1159238 -1.0305761 -0.075110085 0.63434714 0.34856325 0.6415979
111 0.48252696 -0.19801295 -1.0011654 -0.0529519 0.8917228 1.8243562 0.3501648 0.87195814 0.24055718 0.4578513 -0.08682482 -0.93859684 -0.11551123 0.56974304 0.29996574 0.62978643
