131 16
160 0.52388704 -0.23273264 -0.89335966 -0.1233838 0.7558084 2.2169526 0.73304284 1.1227529 0.33429188 0.43948483 0.20232555 -0.8683374 0.07492256 0.78442603 0.29293525 0.37753564
145 0.6883744 0.060636867 0.40922174 -1.6247721 0.93304354 1.0548286 0.87190014 -0.6755933 0.74912935 0.945147 -0.6018761 0.4082203 0.6289274 -1.1746043 0.97459567 -0.75985056
73 0.8364694 0.39694062 -0.044679917 -1.7162371 0.7918231 1.0153196 -0.57552904 0.074903615 0.81392866 1.5526335 -1.7709278 -1.1592548 -1.1604922 -0.5512654 -1.794781 0.92752653
118 0.5316706 -0.23968436 -0.8521356 -0.15996003 0.7270834 2.1562312 0.68805975 1.0593853 0.25739083 0.42672122 0.19899455 -0.8533199 0.09107171 0.72981197 0.29492274 0.3840286
104 0.532212 -0.2416214 -0.9130336 -0.13686126 0.82271314 2.0781202 0.7310995 1.0816237 0.2962615 0.4302422 0.186587 -0.8459191 0.054853946 0.76822424 0.25935462 0.42348045
48 0.83957046 0.435125 -0.039111275 -1.7139047 0.77399486 0.9635288 -0.5521461 0.0760606 0.81867015 1.5266031 -1.7546991 -1.1579098 -1.1330537 -0.5661001 -1.7576432 0.8717455
78 0.54229283 -0.22491983 -0.89559686 -0.14629467 0.7694153 2.1668875 0.70089257 1.1161139 0.3364014 0.50376594 0.2320628 -0.9176299 0.09846793 0.71200997 0.23844698 0.43712124
15 0.57389647 -0.19222084 -0.9329095 -0.122023866 0.7658698 2.2110107 0.7650839 1.0933932 0.30412248 0.5167724 0.17649716 -0.89450425 0.088256456 0.75473684 0.27649164 0.42952424
49 0.63241106 0.10260224 0.32250002 -1.6209157 0.9428097 1.0778127 0.8823815 -0.7252299 0.69819236 0.9720781 -0.58468914 0.38510936 0.6318529 -1.1379083 0.94866675 -0.6853992
80 0.80537623 0.4367375 -0.045226153 -1.7879063 0.81993085 1.0183499 -0.5662197 0.042826727 0.86996293 1.5640671 -1.7228487 -1.1832453 -1.1856719 -0.58655846 -1.791614 0.90581346
112 0.56832755 -0.25750256 -0.9102252 -0.11763987 0.78608155 2.215537 0.7268709 1.1514552 0.3479247 0.45563588 0.18494834 -0.87411 0.12670732 0.8289472 0.31875944 0.38470855
180 -0.18335585 -0.7739112 -0.8069094 -2.1914258 0.9612262 1.5039421 0.049021024 0.39240402 0.7246114 0.45214006 2.0095627 -1.0415331 -0.22761331 -1.8151661 -0.9078296 0.8436363
29 0.5626799 -0.21435016 -0.90628374 -0.13525115 0.81156385 2.1967528 0.74797076 1.1209836 0.31278858 0.48840562 0.23324329 -0.8619205 0.05294531 0.75294054 0.2504272 0.430634
121 -0.18597828 -0.7530614 -0.834501 -2.0677242 0.8439209 1.382865 0.01739214 0.32976234 0.65690815 0.41851678 1.9899538 -0.8990491 -0.22556365 -1.7189044 -0.8726759 0.8035568
52 1.1223646 -0.08904326 -0.16271375 -2.4103253 2.2785554 -0.0504552 -0.9956092 1.8993944 1.3819011 1.9298745 0.3562336 -1.1247816 0.25943327 -0.82310325 0.52227205 0.61167103
10 0.8586933 0.40205956 -0.099008165 -1.6913619 0.79144067 1.0640036 -0.5292623 0.11338255 0.7848768 1.5421203 -1.6291238 -1.2095598 -1.1141673 -0.59933287 -1.742213 0.8642506
33 1.2284725 0.24143794 -1.8296976 -1.1569636 1.3533108 2.0406997 -0.11040159 0.29394075 -2.106499 0.26694885 -1.989003 -1.665472 1.1256268 -1.1268641 0.3221556 -0.035663586
146 0.7950931 -0.82163745 0.9397191 -0.8823463 1.478887 2.269539 -0.17160015 -0.20311052 0.3201264 -0.73132795 -0.11957764 -1.5035117 -2.0048602 -2.5891738 1.0756873 0.027720947
108 0.69022185 0.027868934 0.34435686 -1.5692508 0.92393273 1.0597788 0.8207634 -0.6227892 0.73136187 0.93868923 -0.62760544 0.31721166 0.5851926 -1.1430644 0.89004743 -0.68654776
24 0.55623245 -0.2041916 -0.94243234 -0.1623113 0.7633914 2.231281 0.7323543 1.0986253 0.27449358 0.46433204 0.1631751 -0.8922288 0.08624918 0.77758443 0.28006002 0.38291475
149 0.61553895 0.072733335 0.36303392 -1.5335428 0.87372696 1.0189172 0.8242742 -0.62707305 0.69039655 0.9120624 -0.5946891 0.38260874 0.59838295 -1.121805 0.92684317 -0.69008476
178 0.71143484 0.051155485 0.3453538 -1.6317552 0.91684085 1.0412581 0.8402474 -0.66055685 0.7505118 1.0041609 -0.5832545 0.39781782 0.6429526 -1.1173595 0.94939613 -0.6563147
57 -0.12214831 1.1854972 -1.4065164 -3.2324648 -0.651695 2.1698644 0.43917382 -0.5714094 -0.60115355 0.6757342 -0.32275105 -1.4554048 -0.54542744 -0.26059216 0.12892586 -0.20639706
76 0.54786545 -0.22740014 -0.8745604 -0.12863614 0.8189009 2.2477841 0.68753165 1.1280676 0.3614678 0.48536184 0.18756849 -0.8821817 0.11044367 0.8218889 0.26577953 0.4089005
8 -0.1818249 -0.7480725 -0.757938 -2.1421514 0.893351 1.4500942 -0.030697782 0.34484425 0.6764623 0.36107352 1.9584912 -0.93812186 -0.21759778 -1.7937266 -0.8154986 0.8398907
125 1.6372408 1.0734113 -0.28713888 0.07591035 -1.4514686 2.6566775 0.93003315 -0.09382664 1.0639459 1.913247 -0.31002674 -0.88366824 -0.5278468 -2.03338 0.25692263 0.42885444
134 0.6456068 0.092603214 0.31839478 -1.5608574 0.8714463 1.0811534 0.7927439 -0.605763 0.6543151 0.8763874 -0.57331806 0.31400314 0.5822774 -1.0112187 0.90448594 -0.6511715
154 0.5698926 -0.2723405 -0.9197903 -0.21005976 0.7905658 2.2968154 0.7220362 1.1519214 0.35360855 0.50306654 0.19598143 -0.9305431 0.101701826 0.743432 0.25024283 0.43145046
7 0.5456444 -0.20773163 -0.938507 -0.18938808 0.8277108 2.2720408 0.7113693 1.0889518 0.36172163 0.43845364 0.20816107 -0.8658507 0.107236885 0.7512478 0.3237976 0.43728113
54 -0.15592569 1.2251348 -1.3205141 -3.085669 -0.74130744 1.9949899 0.30093157 -0.6104186 -0.63553566 0.6503869 -0.29245782 -1.4438634 -0.52783185 -0.2222506 0.12661564 -0.19165464
128 0.575561 -0.23659529 -0.8927466 -0.15322286 0.778221 2.1700146 0.72314596 1.093615 0.30210945 0.44524696 0.1657294 -0.8560553 0.06916233 0.74777496 0.27954155 0.42169732
16 0.5624611 -0.20276731 -0.8818382 -0.18047678 0.745206 2.132008 0.6839824 1.0632398 0.26545778 0.40964967 0.2390942 -0.84255147 0.075559534 0.70396215 0.26349297 0.420089
12 0.2656172 -1.1272795 -1.7945118 0.062093955 1.5334113 0.7320977 1.2831656 0.15185276 0.22512385 2.2623045 0.22449404 -1.956506 -0.7012913 -1.8731737 -1.3567955 0.43002513
65 0.6974198 0.06263156 0.3505098 -1.5498501 0.9311876 1.0293825 0.77807397 -0.62485194 0.6996068 0.9227082 -0.5674242 0.33878833 0.5855394 -1.1001638 0.8541646 -0.6168372
42 0.62109256 0.057647437 0.3726324 -1.556091 0.9580161 1.0090177 0.8179978 -0.7067114 0.7262513 0.90280324 -0.58468413 0.39186192 0.6740806 -1.099029 0.944912 -0.67488456
164 0.5369445 -0.20649536 -0.88366467 -0.12913357 0.7419776 2.1157272 0.680866 1.0652107 0.27426183 0.4225882 0.19165921 -0.88761854 0.057964385 0.7484006 0.26860917 0.37517717
119 0.6074646 0.078081064 0.33484906 -1.5450768 0.9076352 1.014912 0.7829529 -0.64950216 0.72802556 0.88704723 -0.6034191 0.32380283 0.59550226 -1.0597806 0.8885815 -0.66189784
162 -0.09111974 1.1550384 -1.31136 -3.0846488 -0.6185027 2.0687587 0.3432707 -0.54007804 -0.5304606 0.6820089 -0.32980132 -1.4176934 -0.4789481 -0.25022182 0.17051233 -0.1298769
23 0.6559303 0.060939997 0.32118165 -1.5813159 0.9405737 1.048221 0.8053568 -0.6549475 0.74416 0.976749 -0.60329187 0.33133277 0.6213831 -1.1506208 0.9082397 -0.69640213
44 0.50634956 -0.2212594 -0.8058517 -0.1882794 0.7755001 2.041499 0.68023545 1.0144542 0.3120772 0.45773792 0.23312226 -0.79482657 0.04996011 0.73189735 0.24210666 0.4012637
101 0.57119256 -0.22624736 -0.90218925 -0.12815206 0.75735325 2.2475283 0.74809647 1.1459593 0.3201173 0.45681718 0.21661702 -0.89922976 0.097693376 0.73339325 0.30124682 0.41512507
155 0.6507793 0.08977321 0.34109095 -1.5868644 0.946439 1.0949339 0.82269305 -0.6551951 0.73779434 0.9536954 -0.6205939 0.30114937 0.5736662 -1.0455991 0.88437015 -0.67601585
143 0.6625664 0.054416284 0.29549643 -1.5393674 0.89455706 1.0412195 0.8551668 -0.66280687 0.70126987 0.9280528 -0.58725154 0.36803523 0.61316717 -1.0432166 0.86923236 -0.6481106
66 0.6245757 0.06775474 0.24094905 -1.4474422 0.8464451 1.0237185 0.7817254 -0.5854783 0.6298357 0.8572236 -0.5584533 0.3010287 0.58638334 -1.0193834 0.84214777 -0.6074143
89 0.6989105 0.070863776 0.35629764 -1.6182709 0.8478648 1.0544649 0.80981433 -0.6631056 0.7108961 0.9461587 -0.5871407 0.35843995 0.5843364 -1.1227474 0.95693415 -0.6959302
157 0.6551284 0.0439885 0.357209 -1.5903355 0.93250424 1.0862213 0.8197694 -0.68802285 0.7357892 0.9589191 -0.591602 0.35736305 0.58913064 -1.102412 0.8918424 -0.631614
26 1.2314881 0.24895988 -1.7000798 -1.1394466 1.2199152 1.952121 -0.1172735 0.28968275 -2.0297337 0.23693176 -1.906808 -1.5486197 1.0811961 -1.1233749 0.3065367 0.016544662
79 0.65803987 0.029343976 0.30984247 -1.623452 0.9860393 1.1519481 0.8267272 -0.58745676 0.74865013 0.9534454 -0.5848061 0.33241647 0.5996518 -1.1049265 0.88698995 -0.65644896
106 0.30841416 -1.1143848 -1.8128113 -0.027437543 1.5204346 0.7622029 1.2410909 0.17060846 0.25493228 2.2361765 0.22261074 -1.9599019 -0.66132796 -1.8864571 -1.3309828 0.4325753
40 -0.18872568 -0.80151683 -0.7634202 -2.0466418 0.94651794 1.4168792 0.036873393 0.3767559 0.67205787 0.34366748 1.942981 -0.9552898 -0.2632116 -1.7254684 -0.80808085 0.79129654
75 0.63430804 0.07797279 0.37611118 -1.5443722 0.8952641 1.0178277 0.77692187 -0.5986799 0.6747923 0.8860089 -0.54709893 0.33269137 0.5699746 -1.0765992 0.9107302 -0.6596589
85 1.7099906 1.1365583 -0.27790377 0.06678892 -1.5383121 2.7298288 0.9081443 -0.13211052 1.0760506 2.0029364 -0.32075518 -0.9871654 -0.6075132 -2.1528075 0.250836 0.4812591
123 3.079461 -0.18011573 0.38706306 -1.2414638 0.19732489 2.1698446 -1.4953153 0.08344151 -0.6977644 1.3593715 0.8700216 -1.0517608 -0.45300272 -1.0300524 -0.32321912 -0.31322232
13 1.2458525 -0.033979964 -1.2260548 -0.67787516 0.98648304 1.3239249 -1.172702 1.314061 1.3305439 0.00488134 -1.3130455 -1.2322159 0.63227695 -2.4589074 -0.1552329 -1.8028402
172 0.67110264 0.09502957 0.34625414 -1.5649322 0.8981781 1.069039 0.86062926 -0.6979457 0.7138883 0.9143692 -0.57246625 0.37191018 0.58049697 -1.0965229 0.9488505 -0.6917594
98 0.82421243 -0.7883864 0.9066656 -0.9125158 1.4825596 2.2496293 -0.18343352 -0.16705579 0.3282527 -0.71243495 -0.11478536 -1.4800701 -1.8719339 -2.561585 1.1294478 0.0035419676
111 0.5128051 -0.22594966 -0.8747304 -0.18056285 0.8013804 2.1758432 0.640607 1.1154526 0.26219198 0.42367736 0.19066384 -0.86342233 0.1001136 0.7577926 0.27239516 0.3963898
39 0.6721868 0.08590426 0.3672509 -1.5874077 0.87683153 1.0526944 0.8644569 -0.6741933 0.69392014 1.0284282 -0.6137695 0.37487063 0.58877784 -1.1480697 0.88440883 -0.7016627
61 3.1460352 -0.19993329 0.41993353 -1.2707826 0.19189729 2.257879 -1.5187565 0.036957417 -0.7457484 1.3895257 0.86054796 -1.0772951 -0.54727453 -1.0234056 -0.35128587 -0.2808474
136 1.2819103 -0.04287985 -1.2122788 -0.7481123 1.1086915 1.4410363 -1.1139257 1.366725 1.3762919 0.024071682 -1.3148644 -1.2841403 0.6014029 -2.5372505 -0.13053712 -1.7852474
126 0.67761093 0.05163694 0.33777848 -1.5965279 0.94790703 1.1055248 0.8343431 -0.64514774 0.6715099 0.9006677 -0.60297745 0.3751206 0.5960109 -1.0965422 0.93314725 -0.64123535
141 -0.793164 -2.0901127 0.42214936 -0.3610576 2.0174215 2.4933991 0.78206676 -0.59808916 1.4813994 0.48275396 -2.0816426 -1.4336743 1.016138 -0.909856 -0.44965196 0.79266566
32 -0.8198203 -2.091731 0.4791722 -0.33732235 1.9484866 2.4568465 0.83246213 -0.6237572 1.5062907 0.47767472 -2.0890756 -1.4323872 1.0154562 -0.8770032 -0.501322 0.81566226
96 0.51525754 -0.23366712 -0.82461125 -0.13145082 0.70982385 2.1759613 0.7267561 1.0606161 0.31599244 0.4431254 0.22359006 -0.8594137 0.03555273 0.74166787 0.28673267 0.43975466
81 0.9035968 -0.7044965 -1.0689155 -1.0192105 0.27225447 2.615478 1.3632743 0.77621806 -0.06217325 -0.09908657 -1.8118368 0.73538625 0.56339824 -2.2579892 -1.6513299 1.9395692
17 0.8905467 -0.7314247 -0.93689597 -0.95851016 0.29551584 2.3601148 1.1745431 0.68638486 -0.08872791 -0.044306044 -1.6442777 0.6839489 0.5482572 -2.0845306 -1.5111176 1.7735306
156 0.45426488 -0.08435033 -0.40931317 -0.8268077 1.9712688 1.1580861 2.1014488 1.2569689 2.1715868 -0.061495785 -0.45250648 -0.6679991 -1.9138249 -1.7002158 -0.93840206 -0.665026
34 0.47567013 -0.08452069 -0.42534563 -0.8168186 1.9998149 1.1067394 2.23048 1.3464676 2.30659 -0.14690083 -0.49843374 -0.7844729 -2.1046839 -1.7971293 -1.0024637 -0.7282617
124 1.7996018 -2.109251 -0.88525844 -1.527893 2.7172906 2.1695414 -0.46838307 0.0051505566 -0.8406729 0.69899964 0.4237064 0.9511178 -0.9794241 -0.16848585 -0.37330955 -0.529229
115 1.7211083 -1.975089 -0.85709655 -1.4230293 2.5654213 2.1066663 -0.43041196 0.0610834 -0.7989736 0.66597867 0.39925972 0.8619838 -0.90486294 -0.17531832 -0.3944141 -0.42383695
122 0.6540123 0.033554945 0.3203472 -1.5447981 0.9104763 1.0130774 0.80410165 -0.65795094 0.69721055 0.9162196 -0.6369801 0.37594837 0.6279508 -1.132544 0.9001677 -0.68823254
150 0.6539181 0.08998953 0.36110902 -1.454852 0.823311 0.9976148 0.79175586 -0.6227279 0.7033611 0.89552116 -0.5920896 0.35599867 0.54047376 -1.0704104 0.89279914 -0.6346696
151 -0.23670624 -0.7968849 -0.8149349 -2.1083553 0.8709073 1.3394103 -0.06005803 0.30673933 0.6130592 0.31230977 1.9950534 -0.91426194 -0.25272354 -1.7487258 -0.89407843 0.80063444
58 0.68498987 0.056433424 0.35127097 -1.5430213 0.93799984 1.0328907 0.80757165 -0.66847926 0.6614586 0.9164368 -0.5950814 0.3472577 0.6187266 -1.077118 0.9121587 -0.67501754
27 -0.084491804 1.104124 -1.2861316 -2.9252653 -0.58143085 1.9894131 0.39327675 -0.5389274 -0.5368128 0.64944804 -0.31741112 -1.3780477 -0.4925935 -0.2324642 0.13203576 -0.142697
84 0.6680025 0.08799264 0.42092514 -1.6182979 0.887037 1.0371614 0.8640792 -0.73452055 0.6984134 0.986804 -0.62216526 0.46562847 0.66389304 -1.0940524 0.98778355 -0.71516174
36 0.5683272 -0.25552893 -0.9126568 -0.12121296 0.79780114 2.2196286 0.75116044 1.0523282 0.2688108 0.43742588 0.21928015 -0.88792735 0.08596755 0.7693466 0.24078456 0.39195812
170 0.8066586 0.39640886 -0.09072148 -1.6704022 0.78588665 1.0269659 -0.5097561 0.078244865 0.8006203 1.493179 -1.6124891 -1.1679142 -1.0855875 -0.57892305 -1.6654533 0.84814644
21 0.54670626 -0.24547371 -0.886809 -0.094204195 0.7597673 2.1474204 0.69502306 1.1126184 0.29010963 0.3991939 0.2172455 -0.86558187 0.085769765 0.7679916 0.28294367 0.40717486
47 0.5278937 -0.2596711 -0.8597887 -0.11697801 0.7561442 2.18514 0.73775566 1.1126672 0.3068702 0.422439 0.21497591 -0.8384105 0.06695156 0.7449974 0.2935003 0.4097051
87 0.49259833 -0.23586126 -0.8626372 -0.14606886 0.78229463 2.0716193 0.6541523 1.0686623 0.3123807 0.39594227 0.18748558 -0.84284735 0.09102887 0.7428236 0.2753661 0.34830764
102 0.534813 -0.22308739 -0.8753729 -0.19317058 0.76837915 2.1135323 0.6964112 1.0294821 0.29724482 0.44328657 0.18796925 -0.8528683 0.08895896 0.7251323 0.25579026 0.3771773
28 0.50517184 -0.17312934 -0.8782998 -0.19449052 0.73391294 2.1506944 0.64125794 1.0261773 0.30410662 0.4538433 0.2161995 -0.8378024 0.11223991 0.7650618 0.27888376 0.3822206
133 0.6628582 0.04856379 0.33318636 -1.5468769 0.9124918 1.1356151 0.8742976 -0.64803046 0.72736603 0.9689585 -0.58892524 0.34171423 0.5433873 -1.0951092 0.8949642 -0.6756402
6 0.49127054 -0.22360168 -0.8187418 -0.12566328 0.73350376 2.0027544 0.70180357 1.0514159 0.33150825 0.39085302 0.18121764 -0.84427905 0.04691995 0.6631103 0.2406279 0.37036404
88 3.0859008 -0.1755462 0.40303952 -1.2968811 0.17785436 2.208928 -1.3989409 0.06045959 -0.67863363 1.4045491 0.79857135 -1.0478766 -0.49038076 -1.0932118 -0.30158278 -0.3166599
165 1.1998458 -0.026862659 -1.1914103 -0.6990373 1.0393575 1.3178936 -1.0663316 1.278911 1.2553804 0.0070949974 -1.2334428 -1.1761428 0.5058782 -2.3545182 -0.15973537 -1.6525623
18 1.1047069 -0.08215246 -0.08427653 -2.281608 2.2165527 -0.17591052 -1.0374434 1.9212052 1.3327568 1.8711246 0.39383116 -1.1044225 0.23485337 -0.7273465 0.49900046 0.6127513
5 0.64761305 0.05615209 0.33493412 -1.5880765 0.85511786 1.0343782 0.8054975 -0.6435896 0.70659846 0.8687701 -0.6001838 0.34028855 0.53579736 -1.0517797 0.88632816 -0.65869266
166 0.664041 0.06483063 0.33255768 -1.5274179 0.90303457 1.079656 0.83436155 -0.6651841 0.6923271 0.9280289 -0.6181021 0.28274903 0.5824448 -1.0807246 0.8425863 -0.67248046
142 0.5404552 -0.2250179 -0.903843 -0.098622695 0.76302576 2.2774234 0.6981823 1.1453822 0.27568126 0.41414064 0.17317227 -0.90682566 0.092883326 0.7949537 0.2772096 0.4161809
97 0.6165456 -0.2387925 -0.91257143 -0.13634247 0.7790738 2.2998145 0.74894464 1.1685307 0.33498037 0.43279967 0.21867853 -0.8935405 0.104030855 0.7559945 0.32181332 0.37789813
139 0.5063584 -0.19344988 -0.90315825 -0.17235014 0.77840906 2.1935287 0.74429953 1.0741798 0.27149755 0.44708088 0.15211983 -0.8641387 0.10125466 0.75872016 0.28771845 0.3922627
171 0.4948115 -0.20800596 -0.8780766 -0.15519503 0.72893804 2.0495253 0.6474272 1.0934097 0.25990078 0.42147207 0.16903293 -0.8861252 0.04511246 0.7571483 0.2783709 0.40400484
135 0.547053 -0.26343796 -0.9090909 -0.16747722 0.781388 2.2200284 0.6851486 1.0650781 0.31769043 0.48926443 0.14077076 -0.8832244 0.113662764 0.73720115 0.27122203 0.42283756
130 0.33714062 -1.0919032 -1.7494028 0.038430896 1.4692081 0.7213256 1.2689484 0.10191305 0.21654518 2.2449582 0.18142328 -1.9207803 -0.6930174 -1.8458812 -1.2982179 0.38630125
175 0.6264537 0.06433224 0.28506196 -1.5558622 0.8797568 1.0584239 0.82339925 -0.6304724 0.6620131 0.9392038 -0.5521851 0.3508376 0.6074825 -1.0467436 0.8914402 -0.6671446
129 0.65367615 0.066003494 0.38103703 -1.572268 0.9203982 1.0127119 0.82318354 -0.64308304 0.68379414 0.8977724 -0.61195606 0.41370395 0.5932874 -1.0778776 0.90884936 -0.6708337
9 0.544343 -0.19061892 -0.8370274 -0.17037903 0.72290313 2.0805888 0.637114 1.0520226 0.30598554 0.42066154 0.1961452 -0.82721716 0.08337691 0.7435401 0.28938982 0.35187516
174 0.32295147 -1.0921563 -1.7987852 -0.032901723 1.4927733 0.84859836 1.2478265 0.12871747 0.24012235 2.3134093 0.15089892 -1.9561305 -0.6164387 -1.9126393 -1.3071591 0.4002519
100 0.576971 0.104317695 0.32859707 -1.5511833 0.8867055 1.0224334 0.832057 -0.62504506 0.7282982 0.907607 -0.5801292 0.33511108 0.6015074 -1.0685017 0.9212605 -0.653329
56 0.84511244 0.39029086 -0.06257877 -1.8110508 0.8479358 1.0860114 -0.55220574 0.11302263 0.82070404 1.5457299 -1.729224 -1.2097961 -1.123421 -0.60987175 -1.7666762 0.84187156
53 0.61146337 0.105677135 0.33153835 -1.5533314 0.8674763 1.0426356 0.8702651 -0.67794776 0.70917046 0.9358611 -0.5406345 0.4167562 0.6130925 -1.0281917 0.96556616 -0.6968304
158 0.5028903 -0.22067164 -0.8655597 -0.122168295 0.7568335 2.066764 0.68054 1.0863531 0.31895298 0.43409985 0.1677772 -0.8442416 0.101959206 0.7253826 0.26209557 0.40131786
43 0.79646343 0.4001285 -0.059774637 -1.6338485 0.70726717 0.9513862 -0.47652304 0.09207724 0.779252 1.3997059 -1.5585527 -1.1142209 -1.0662022 -0.5743593 -1.6020408 0.82135415
77 0.5560304 -0.20926951 -0.839878 -0.23489454 0.75310487 2.0446486 0.6586707 1.0027416 0.31849042 0.42572019 0.1545691 -0.82290936 0.051168874 0.73240685 0.25202715 0.40199974
105 -0.1643743 1.2042795 -1.3244904 -3.0883737 -0.63903624 2.0278602 0.36700585 -0.5544684 -0.56524676 0.6440333 -0.37114885 -1.420213 -0.54889184 -0.20351255 0.15765105 -0.14479847
74 0.54310894 -0.26057458 -0.86737704 -0.16746093 0.8316171 2.1822305 0.7510432 1.0679187 0.3348035 0.4272934 0.15526268 -0.8785912 0.06792653 0.7067669 0.20929058 0.35323367
25 0.65661705 0.09332841 0.34921375 -1.5011117 0.86414665 0.9908106 0.74728644 -0.64531386 0.64322245 0.8819585 -0.56844527 0.3200196 0.5596314 -1.0843205 0.87271345 -0.60255355
82 1.0533079 -0.12082109 -0.11535928 -2.2851403 2.191351 -0.09865234 -0.9792579 1.8329096 1.3251563 1.8135931 0.3950208 -1.0615901 0.26893327 -0.74447805 0.554714 0.54355174
159 1.6198541 1.0723897 -0.2594945 0.07491314 -1.4756676 2.6798325 0.927514 -0.13450114 1.0454834 1.9403993 -0.247208 -0.9248519 -0.5496991 -2.0592363 0.24390653 0.4357456
37 0.68868464 0.07382779 0.28123364 -1.5771735 0.95057595 1.0666013 0.83601934 -0.6368295 0.7208744 0.9742166 -0.6266277 0.34866834 0.5714258 -1.1256722 0.89628285 -0.67849815
110 -0.08516447 1.2144862 -1.3272167 -3.172679 -0.6295985 2.0516264 0.35573024 -0.59155226 -0.58132774 0.7163297 -0.37570143 -1.3795805 -0.5391316 -0.20206489 0.15495507 -0.20000944
127 0.82680315 0.40981415 -0.03779116 -1.7012235 0.80145574 0.9475125 -0.5795652 0.12622786 0.8219952 1.5212605 -1.6515107 -1.1915472 -1.1361135 -0.5311705 -1.7310464 0.9123232
63 0.56119967 -0.23145023 -0.8390419 -0.18562686 0.7402629 2.1477087 0.6869304 1.0791334 0.31183577 0.4093406 0.20520729 -0.8553345 0.0899916 0.76061374 0.24659726 0.36355448
176 0.50327855 -0.21215485 -0.8321862 -0.11903096 0.7466664 2.1145291 0.7364715 1.0632975 0.2967138 0.45287248 0.2229133 -0.84940577 0.08295581 0.76707035 0.27809915 0.41171312
70 0.6921054 0.04636946 0.31223917 -1.5786537 0.89282227 1.01796 0.78056383 -0.648047 0.6438316 0.928783 -0.5738874 0.35838562 0.61593866 -1.1067269 0.9127369 -0.69752645
161 0.634179 0.064513564 0.3548071 -1.5269772 0.9024291 0.9987821 0.80147135 -0.6252858 0.6918928 0.895833 -0.56373936 0.31371087 0.60693526 -1.0617304 0.91365856 -0.65917456
148 0.7784422 -0.732847 0.87211365 -0.7980786 1.363817 2.1560512 -0.15443821 -0.15053014 0.32869875 -0.65715593 -0.14119078 -1.4255737 -1.8686465 -2.4667642 0.9810148 0.02449364
113 0.5543562 -0.24505426 -0.85327005 -0.14024258 0.73212403 2.0947707 0.69686514 1.0422498 0.3252293 0.4602096 0.23442835 -0.810344 0.05963357 0.7287753 0.27103752 0.39528754
152 0.52108765 -0.23566736 -0.79234326 -0.19534624 0.7271562 2.0544953 0.6716397 0.9967464 0.30080917 0.41853172 0.21380112 -0.78721726 0.04764044 0.65042466 0.25130472 0.3574306
114 1.1463647 0.20505196 -1.6631584 -1.1079729 1.1862179 1.8318983 -0.12377942 0.28388906 -2.0295472 0.2191605 -1.9009548 -1.5169404 1.0475144 -1.0545864 0.25450802 0.010202767
55 0.5613347 -0.21166953 -0.85835177 -0.15326855 0.77991277 2.1298492 0.6898741 1.0924361 0.2973575 0.432745 0.15582478 -0.83630216 0.044106133 0.69894147 0.27710614 0.3882027
35 0.76153314 0.3495476 -0.055171944 -1.6480322 0.79627055 0.95905995 -0.51730824 0.083041444 0.78562194 1.529401 -1.6399658 -1.1954839 -1.121539 -0.5643222 -1.7105772 0.8608451
103 0.63725334 0.11101013 0.33080137 -1.5397664 0.8869774 0.976844 0.76796156 -0.6551005 0.6785483 0.8981597 -0.56939775 0.37551 0.57159 -1.0536398 0.92349887 -0.6582499
72 -0.13574016 -0.75806904 -0.8086115 -2.1489527 0.91268665 1.4349123 -0.032121032 0.37466413 0.69609475 0.428492 1.9446696 -0.9806464 -0.24789171 -1.7890279 -0.82284683 0.80569804
109 -0.21418497 -0.80296856 -0.8261122 -1.9364482 0.858971 1.2868448 -0.004544646 0.36681786 0.63391507 0.35393435 1.9500884 -0.96202624 -0.23887698 -1.682936 -0.8565209 0.81688076
38 0.76755804 0.34242707 -0.09295995 -1.6370313 0.7668827 0.9742914 -0.49197614 0.098690435 0.77740276 1.4190352 -1.564319 -1.136342 -1.0415586 -0.539357 -1.649064 0.82645196
22 0.5280806 -0.19274783 -0.8282887 -0.1481111 0.6832625 2.0409896 0.61824906 1.0530423 0.30878732 0.3859882 0.18500665 -0.82654095 0.091152206 0.69804865 0.24912016 0.3560145
64 0.6333488 0.07872672 0.34956634 -1.504469 0.8646122 1.0061549 0.7636091 -0.6172977 0.67003345 0.907943 -0.53676546 0.36547476 0.56132317 -1.0665371 0.8830134 -0.6109687
59 0.5092317 -0.2336445 -0.841569 -0.13747275 0.7587531 2.021715 0.6252588 0.9901891 0.29578036 0.43318456 0.17809711 -0.7985045 0.054639272 0.6571235 0.22088006 0.33001497
