131 16
21 -0.032453123 -0.31850463 -0.9469375 0.20016149 1.0329586 2.1513736 0.6920165 1.1340394 0.49594676 0.5339318 0.19045034 -1.2209839 0.14226127 1.0595093 0.010338625 0.44734508
96 -0.060010716 -0.2996612 -0.82679343 0.17625493 0.9296273 2.000722 0.65346134 1.0104871 0.41846198 0.52515215 0.16824909 -1.1121879 0.124252595 1.0316302 0.024674002 0.44738585
75 0.756528 0.15184322 -0.0150246965 -1.7235516 1.0990808 1.2267748 0.64416766 -0.5741071 0.81317765 1.0692365 -0.49642885 0.10447865 0.6807819 -1.0274866 1.0753573 -0.7404588
16 -0.0017658465 -0.2930855 -0.8794151 0.18206622 0.9853951 1.9970639 0.6583591 0.9830687 0.40173823 0.52160585 0.08265654 -1.1146187 0.16707164 0.91154605 -0.0065866373 0.4308682
37 0.7434758 0.12411448 -0.07103243 -1.5648986 1.0622889 1.1835556 0.5755954 -0.54312724 0.7914694 1.0231663 -0.53350294 0.07020331 0.59138894 -0.97527355 0.9772533 -0.71242017
97 0.023129659 -0.32572842 -0.8603388 0.19231431 1.0049636 2.0126913 0.6312976 1.0972079 0.44578567 0.50313514 0.18222544 -1.1303647 0.14063801 0.9636363 0.031592898 0.37625816
134 0.74017435 0.15802549 -0.022553928 -1.661919 1.0764799 1.2212782 0.61701167 -0.546419 0.82266515 1.0236602 -0.5620695 0.050020885 0.694872 -0.9280874 1.0337775 -0.7520678
101 -0.020044273 -0.2928824 -0.8305566 0.22289833 0.9448948 1.8981981 0.63269323 1.0123805 0.37368342 0.48058107 0.14473805 -1.070576 0.17520103 0.9809738 0.05328696 0.36667088
119 0.71546245 0.14615573 -0.030657297 -1.5549971 1.0247688 1.1923311 0.5568479 -0.53282404 0.7849064 0.93498236 -0.5222933 0.06581766 0.61311233 -0.88846695 0.98661226 -0.7177102
106 0.41476315 -0.8119643 -1.9476924 0.16847655 1.0795219 0.5221887 1.3181616 0.0598628 -0.33187926 2.0012577 0.1608671 -2.2958567 -0.96015257 -2.2809927 -1.4335065 0.52586204
87 -0.034311872 -0.28956413 -0.9136193 0.13018169 1.0602229 2.0460317 0.6353457 1.0570453 0.4562975 0.5664429 0.10551627 -1.2012355 0.13009876 1.0130147 0.017321996 0.37425148
38 0.44024637 0.1396985 -0.23059669 -1.5283055 0.8085509 0.9768456 -0.67338604 -0.04568511 0.8239572 2.068223 -1.512259 -1.0932703 -1.009179 -0.421095 -1.8113103 0.9054247
40 0.03575712 -0.7524168 -1.0688355 -1.0049553 0.4462622 1.5827359 -0.031464208 0.4266576 1.4094378 1.3064338 2.2612507 -0.6381021 -0.31953385 -1.8350072 -0.23927315 0.7155736
155 0.71418 0.16290082 0.010704799 -1.5939875 1.0053642 1.1204205 0.5493146 -0.5942322 0.77412057 0.9573313 -0.4731033 0.07870937 0.56470186 -0.9145158 0.9760606 -0.7415577
161 0.7263707 0.12430192 0.012294755 -1.5027866 0.946359 1.0881354 0.55483514 -0.5189813 0.75510204 0.9502728 -0.4687864 0.06883075 0.62996775 -0.9307187 0.9638617 -0.677571
149 0.7235693 0.123011775 -0.028908292 -1.6504014 1.0457861 1.1891094 0.582616 -0.55168694 0.7439777 1.0145692 -0.4942544 0.10746345 0.66943634 -0.97727686 1.0316141 -0.73961955
146 0.21004826 -0.37008438 0.68745315 -0.5778751 1.3372577 2.3718026 -0.030058218 0.014975743 0.4863217 -0.05259427 0.09155227 -1.6815702 -2.050501 -2.539419 1.1801046 -0.03512105
25 0.72053176 0.11104454 -0.01681765 -1.489652 1.0351734 1.1638296 0.56129986 -0.51562196 0.7399795 0.9471076 -0.49254534 0.04581479 0.6149983 -0.9429346 0.968821 -0.6387344
47 -0.042857517 -0.30410138 -0.86362344 0.21692754 0.93791884 2.0051253 0.66759413 1.0441225 0.3686753 0.5210964 0.13426773 -1.117399 0.13939822 1.0095807 0.014704043 0.42676142
53 0.71904534 0.14269947 0.00019370718 -1.659295 1.0604594 1.1874468 0.6057504 -0.58882135 0.8409195 1.0111969 -0.47734782 0.09856166 0.6075561 -0.96160334 1.0503756 -0.7678494
166 0.6995478 0.13185632 -0.0052621206 -1.5134776 1.0001585 1.1619895 0.58528185 -0.5344394 0.78400207 0.9515714 -0.46022385 0.047823597 0.5975609 -0.91424763 0.9679194 -0.70139515
59 -0.009944674 -0.2620487 -0.85583705 0.17240423 0.9503231 1.9623588 0.5881053 1.0126904 0.39066163 0.5345017 0.09100403 -1.0919127 0.14911546 0.99523646 -0.020181209 0.41767094
170 0.4525952 0.20882766 -0.24965541 -1.5475533 0.76130223 1.0090353 -0.68381345 -0.06854421 0.7904718 2.1088245 -1.5654516 -1.0835968 -0.994151 -0.42608204 -1.8337344 0.95695543
139 -0.05173152 -0.27572125 -0.88877696 0.1940118 0.9812348 2.0297728 0.6775552 1.0335453 0.4260975 0.5964199 0.15852496 -1.1632175 0.114283234 1.0292556 -0.026211241 0.44486582
113 -0.009201987 -0.29853123 -0.89278555 0.2081729 0.9475992 1.9898329 0.7034955 1.0297709 0.43193725 0.5440274 0.11731137 -1.1158365 0.13009894 1.0021541 0.009367565 0.41588154
54 -0.33894256 1.2084209 -1.2877657 -2.2870011 -0.43459392 2.2886953 0.5074422 -0.6914614 -0.4499196 0.94041026 -0.35658744 -1.6934867 -0.72116566 -0.07635902 -0.27673092 0.28503704
89 0.7672424 0.091130465 0.027770331 -1.6211793 0.9922718 1.155134 0.55107814 -0.550047 0.8334862 0.99228394 -0.49761075 0.119712956 0.60733694 -0.9967205 1.0217854 -0.71105397
114 1.1182191 -0.027435958 -2.1883702 -0.6724629 1.238658 1.9087431 -0.2891913 0.061374586 -2.1470637 0.82462716 -1.6097138 -1.8784844 1.1904238 -1.0887425 0.06875491 -0.24376911
78 0.00010160211 -0.25950295 -0.8511192 0.1931605 0.94396937 1.9641944 0.60447913 1.0390253 0.40198982 0.5415388 0.14474323 -1.1195662 0.13504052 1.0152029 -0.0058016977 0.42282847
9 -0.0032886274 -0.29040387 -0.82423604 0.17938542 0.93886805 1.9523749 0.5717218 1.0183365 0.4372405 0.51060265 0.13288544 -1.0859127 0.14637566 0.9905133 0.007067469 0.3800048
159 1.50192 1.1882759 -0.6062997 0.35366747 -1.2905372 2.4886324 1.237253 0.37589547 1.330378 2.2935045 -0.3759921 -0.76436055 -0.562292 -1.5979927 0.26290238 0.31315544
178 0.74987423 0.08979375 -0.011726573 -1.5688438 1.017094 1.2003688 0.5800618 -0.5229789 0.80483 0.9783773 -0.5153825 0.087391116 0.58448833 -0.9660338 1.0036838 -0.67895985
76 -0.028672853 -0.28545848 -0.87594855 0.25068286 0.96370375 2.025955 0.6279782 1.0448565 0.41097525 0.5328042 0.13482599 -1.1232274 0.17796566 1.0389593 -0.005770638 0.40422887
43 0.4827652 0.18375032 -0.1992816 -1.5479045 0.7763763 1.0113652 -0.64618826 -0.034352724 0.8585761 2.0708878 -1.5366422 -1.064928 -0.998547 -0.47654572 -1.753402 0.9261492
49 0.6973482 0.14043346 -0.050789624 -1.5662293 1.0388318 1.1547153 0.5685093 -0.5658689 0.7797824 1.0058768 -0.47712612 0.06772663 0.6182504 -0.9958638 0.97063726 -0.6865506
128 -0.0164102 -0.31923863 -0.8658522 0.19395366 1.0062543 1.9865863 0.6568355 1.0699779 0.4608132 0.5066167 0.095931716 -1.1534714 0.1728122 0.98405206 0.028402122 0.41029686
165 0.8784138 -0.31638777 -1.2335136 -0.48410073 2.0999076 1.3573393 -0.97963065 1.97697 1.2295617 -0.41430822 -1.4562002 -1.2174731 0.18887004 -2.3401678 -0.17921746 -1.4573832
133 0.7130999 0.07573935 0.004755505 -1.5626978 1.058878 1.1801193 0.5900254 -0.55670244 0.797542 1.0075941 -0.5322134 0.13337985 0.62968206 -0.920751 0.9715596 -0.7166172
135 -0.03945799 -0.3125266 -0.86273974 0.17368864 0.93929845 1.930291 0.57731915 0.9828028 0.4096063 0.5402378 0.086743176 -1.089477 0.19961244 1.0028574 0.003410399 0.40892327
171 -0.062369946 -0.2869775 -0.84462327 0.18067247 0.94931 1.8955853 0.6089103 1.0554616 0.4264645 0.49029848 0.0924156 -1.1546062 0.10752635 0.9417996 0.01495799 0.40770337
108 0.81664956 0.11344179 0.024219414 -1.6275675 1.0333842 1.1609474 0.5686659 -0.5814119 0.7791217 0.95104706 -0.5031159 0.12528057 0.6742387 -1.0400999 1.1320916 -0.8296663
157 0.70258063 0.13026722 -0.008166167 -1.6364158 1.0589069 1.1420281 0.61138105 -0.61915636 0.8385104 0.98905116 -0.49026006 0.16509946 0.64793795 -0.9695259 1.0558733 -0.72420603
64 0.72485155 0.16147667 0.003918222 -1.5743483 0.9801842 1.1563388 0.5595218 -0.5620486 0.73605645 0.9468164 -0.4831947 0.10567292 0.61895037 -0.9305921 1.0467353 -0.71411204
110 -0.3618506 1.2664744 -1.3306098 -2.3615916 -0.45914587 2.308413 0.5705939 -0.752439 -0.4731934 0.9613314 -0.37199727 -1.6693778 -0.74613225 -0.00065909687 -0.24085192 0.2689721
39 0.69022375 0.08069654 0.034599427 -1.5528352 1.0596364 1.1400653 0.56817967 -0.5233266 0.7683237 0.9854813 -0.49766237 0.1002987 0.6153661 -0.91587794 0.9967157 -0.7352377
127 0.465137 0.20463824 -0.1965676 -1.5075883 0.7191097 0.96481675 -0.67603326 -0.067561194 0.7493917 2.028297 -1.604953 -1.0361657 -0.9769046 -0.40019894 -1.7827277 0.9352564
172 0.7945815 0.13412662 0.00093331985 -1.6482743 1.0993526 1.2240655 0.5895236 -0.59655136 0.8145506 1.01727 -0.51003313 0.08167921 0.6109982 -1.0004742 1.0497503 -0.7488822
123 3.148628 0.19647433 0.51444656 -1.4741082 0.046463963 2.038696 -1.0408198 1.0722712 -0.3481314 1.6355765 0.81082606 -1.7853256 -0.7623323 -0.65008825 -0.12833779 -0.17488542
109 0.09339333 -0.7519416 -1.106287 -1.0003716 0.4412401 1.6796497 -0.06816909 0.47076276 1.4172022 1.2729896 2.294136 -0.67933863 -0.31599444 -1.8408555 -0.17817457 0.69853073
175 0.73981297 0.109474994 -0.024804903 -1.6193067 1.066447 1.1561592 0.6047503 -0.5550175 0.7868937 1.025291 -0.49005672 0.12631568 0.66013175 -0.97277224 1.0217297 -0.7500298
105 -0.3976007 1.3383667 -1.317619 -2.3933804 -0.5126662 2.300796 0.5622803 -0.74870235 -0.4662921 0.92409784 -0.3962333 -1.71173 -0.8038965 -0.03447779 -0.22317943 0.30082348
111 -0.068125494 -0.31446612 -0.8732085 0.21646158 1.0017788 2.080832 0.67095906 1.0778509 0.39090028 0.5178139 0.16454817 -1.1372577 0.15443932 1.0512313 0.015121946 0.43673837
8 0.07101646 -0.7287086 -1.1651456 -1.0883839 0.42383042 1.6849064 -0.09269255 0.47144362 1.49107 1.388473 2.40053 -0.66749203 -0.33758673 -1.9535263 -0.29085484 0.77184623
18 0.41467902 -0.22945428 -0.2178523 -2.0593872 2.342177 -0.23586336 -0.7949816 1.9969329 1.8345238 1.9677867 0.49454206 -1.3359684 0.3693686 -0.6664042 -0.1497585 0.64676464
27 -0.40702274 1.3230289 -1.3931345 -2.4916742 -0.48628822 2.4116786 0.6140134 -0.8009086 -0.46293202 1.011621 -0.43846452 -1.7868134 -0.7915489 -0.014311381 -0.29202762 0.3270724
126 0.71515083 0.10007352 0.01432906 -1.569324 1.0418136 1.144783 0.56969553 -0.54500365 0.7533584 0.9369609 -0.45618746 0.117187366 0.5742261 -0.93487513 1.0024974 -0.6783016
63 0.024735805 -0.3146754 -0.817674 0.14965735 0.9630899 2.0141585 0.63222444 1.0471107 0.44065094 0.51390153 0.120869994 -1.1243838 0.22345638 1.0084525 0.014446927 0.39007416
104 0.0055687916 -0.25573578 -0.8748363 0.13921443 0.9782551 1.9777353 0.67497164 1.00004 0.4383578 0.5456089 0.11557497 -1.1064394 0.111234516 0.97516274 0.04125096 0.41501918
61 2.8723512 0.13535881 0.49911794 -1.3859558 0.06678458 1.9443763 -0.9553204 0.9279493 -0.33440876 1.4928559 0.7642986 -1.667452 -0.7732196 -0.6060477 -0.12012325 -0.12858444
151 0.022308858 -0.7365516 -1.1131399 -0.98529047 0.43369648 1.6046034 -0.057073303 0.41949642 1.358924 1.2334797 2.231921 -0.6806565 -0.3766086 -1.8114338 -0.25837144 0.67451495
121 0.050441615 -0.6543002 -1.0286353 -0.9542902 0.36096436 1.5068663 -0.031088792 0.38672778 1.3384602 1.2543879 2.1169162 -0.57094383 -0.25970396 -1.71563 -0.21802549 0.667489
52 0.37818447 -0.24206065 -0.29692453 -2.0162654 2.3331432 -0.18675034 -0.7219437 1.9739902 1.8100479 1.8980888 0.45121706 -1.2814822 0.4190876 -0.6511209 -0.10044739 0.6296059
80 0.4124763 0.1497274 -0.22069323 -1.5107582 0.7981433 0.98156786 -0.66790855 -0.0699193 0.80441564 2.041404 -1.4841726 -1.0324823 -1.0008911 -0.44048625 -1.7844634 0.9274717
70 0.81284505 0.15250494 0.007900896 -1.7009447 1.0260214 1.1965346 0.6248223 -0.63136625 0.7879187 1.1005194 -0.51405954 0.12450035 0.64910287 -0.9732982 1.0743346 -0.75627404
158 0.014519674 -0.28218302 -0.8762651 0.19291869 0.9779777 2.0391 0.61269706 1.0849688 0.3999467 0.5487071 0.13045934 -1.1245122 0.19493324 1.0535686 0.042206965 0.41656175
6 0.021756172 -0.28977498 -0.8577648 0.19486526 1.0415266 2.06157 0.66872185 1.0967264 0.4588719 0.5302229 0.08271391 -1.1796452 0.14531589 1.015155 0.042040184 0.37168506
141 -1.1436378 -2.0614686 0.21810691 -0.041176043 1.9599441 1.9292871 0.5766331 -0.6855329 1.3248919 0.90265 -1.8531011 -1.4739826 1.2062659 -0.935199 -0.54820794 0.9245884
32 -1.1492487 -2.0797293 0.2592611 -0.0733639 1.9176562 1.9436678 0.6169762 -0.7023066 1.3555732 0.9426714 -1.8443465 -1.5181607 1.1933458 -0.9341536 -0.61332583 0.97271353
81 0.6990518 -0.423358 -1.3337004 -0.9141501 0.23739856 2.466205 1.2179781 1.055839 -0.012885987 0.37188998 -1.7441341 0.41500762 0.7173894 -1.7441674 -1.1283264 1.8005339
17 0.80226505 -0.50829667 -1.347496 -0.9689066 0.25408056 2.5429518 1.2387203 1.1396835 -0.031429466 0.41042393 -1.8217881 0.5274114 0.7625072 -1.8506702 -1.2381741 1.9668267
72 0.046529412 -0.69628704 -1.0681946 -0.9489978 0.37037885 1.5454879 -0.071026005 0.42404765 1.3936917 1.258072 2.2696662 -0.62987185 -0.37296608 -1.8074251 -0.20805746 0.6800376
156 0.10948275 0.22183163 -0.5959005 -0.53351116 1.6784681 1.0061543 2.168926 1.1973537 2.3075519 0.32144836 -0.51863194 -1.3159891 -2.069647 -1.5126032 -1.1081533 -0.45383298
34 0.12122579 0.20694382 -0.5690167 -0.5171457 1.6444472 0.9262291 2.1393907 1.2250074 2.334649 0.25750455 -0.5779354 -1.395614 -2.1307664 -1.5411823 -1.1041486 -0.48200536
124 1.591453 -1.7252098 -0.9575921 -1.2841809 2.9823217 2.2648437 -0.84851694 0.37736776 -0.7878018 1.0031918 0.7835287 0.69946146 -0.91155314 0.08864976 -0.19404204 0.020447975
115 1.6114658 -1.6476299 -0.932309 -1.2339036 2.9074492 2.3089287 -0.7807476 0.43189242 -0.7282761 1.0484616 0.75234663 0.60830444 -0.7836867 0.03928573 -0.18163632 0.0811432
125 1.5189664 1.1626387 -0.59086525 0.32960162 -1.249496 2.4264665 1.2178465 0.3937401 1.3360524 2.2567992 -0.3791132 -0.70054454 -0.54167914 -1.5178766 0.28856882 0.2918507
26 1.0626884 0.024100583 -2.0739317 -0.6820009 1.158879 1.8677802 -0.27569818 0.04952716 -1.983826 0.75743556 -1.4396167 -1.769748 1.0878857 -1.071241 0.08587995 -0.19016016
44 0.010843204 -0.27789253 -0.83083475 0.21171008 0.9851804 2.032487 0.6588234 1.0497899 0.4167994 0.5470414 0.13160492 -1.1363442 0.115494594 1.0390824 0.0016680809 0.42911974
22 0.00545082 -0.26131594 -0.87577945 0.1668146 0.9560071 1.9975532 0.63694954 1.0635428 0.44442698 0.5060955 0.10823606 -1.1524923 0.13566835 0.95392996 -0.011705702 0.36807707
150 0.7758602 0.1464245 0.019346604 -1.6591421 1.0454817 1.142002 0.60572773 -0.58350796 0.85207534 1.0133611 -0.48894244 0.17635053 0.64438355 -0.9921406 1.0751874 -0.76463085
152 -0.025892798 -0.28630653 -0.8480078 0.15728189 0.95508486 2.007975 0.6562852 1.0431341 0.4105496 0.51900625 0.13433576 -1.1317962 0.13269015 0.9969765 0.006088874 0.4188553
136 0.806071 -0.32080403 -1.1295329 -0.4666889 2.0255365 1.3068848 -0.860921 1.8778334 1.2289636 -0.37189865 -1.3267598 -1.198295 0.20846978 -2.2554622 -0.14451593 -1.4317001
28 -0.030672498 -0.27025962 -0.86915195 0.17471848 1.0158026 2.053292 0.619373 1.0474869 0.45072904 0.5453888 0.15289046 -1.1591874 0.18229663 1.0294434 0.045504242 0.38819364
160 -0.031184467 -0.31543714 -0.83568996 0.17468046 0.9800205 1.9368639 0.6088807 1.020124 0.45283288 0.53649014 0.096215196 -1.0866795 0.1722913 0.9479394 0.015479194 0.35494763
73 0.4695624 0.13290453 -0.24116084 -1.5203887 0.8282265 1.0845591 -0.6882038 -0.037671775 0.7855424 2.1084404 -1.5942987 -1.098813 -1.0338475 -0.38701048 -1.8421512 0.9623468
122 0.6850864 0.09471479 -0.04861459 -1.5181613 1.0077685 1.1247673 0.5600635 -0.5247024 0.77328 0.9419414 -0.52383405 0.09197667 0.6416211 -0.94473493 0.97374004 -0.69968957
102 -0.043640207 -0.31904453 -0.89756316 0.184263 1.0004896 1.9787102 0.6713967 1.0112804 0.44253328 0.5424554 0.133372 -1.1412151 0.19816644 1.0112538 -0.0013842434 0.39481315
13 0.85730076 -0.3747361 -1.265341 -0.49378458 2.0697765 1.4693673 -0.9049259 1.9273629 1.2802018 -0.3368672 -1.4159688 -1.2829947 0.25770852 -2.32182 -0.18481064 -1.4785025
12 0.40448394 -0.7050092 -1.6667932 0.03834641 1.0414695 0.5595784 1.1864825 0.05404849 -0.24814813 1.8454442 0.10303894 -2.0007107 -0.8354038 -2.0434818 -1.2199327 0.4606959
148 0.29721254 -0.3231307 0.69562817 -0.60109746 1.3668126 2.371664 -0.065374136 0.045497283 0.51718926 -0.01117777 0.0632361 -1.6877298 -2.0443704 -2.6264412 1.1645093 -0.121385746
164 0.004019593 -0.2921342 -0.8669796 0.22689965 0.946456 1.98824 0.6233037 1.0327891 0.38031527 0.47991937 0.1583931 -1.1129496 0.13280067 1.0050174 0.028930767 0.37980586
82 0.4184538 -0.28808764 -0.2320736 -2.016949 2.3175862 -0.26161325 -0.81319886 2.0113 1.8231148 1.9202964 0.5282874 -1.2964911 0.37318602 -0.6738381 -0.12394097 0.6293488
154 -0.027890889 -0.3119091 -0.84732383 0.20616955 0.9143242 1.9320967 0.64027387 1.0366884 0.42396095 0.4967021 0.113177665 -1.1166576 0.16961624 0.91407996 0.022485977 0.36376044
10 0.4454085 0.1718052 -0.21557172 -1.4352055 0.77745384 0.9556288 -0.7134729 -0.004863784 0.76936287 2.0218363 -1.5000757 -1.0776372 -0.99854344 -0.40112096 -1.8035481 0.9021929
88 2.9187558 0.17099306 0.4996475 -1.4205968 0.03351557 1.8728402 -0.9159951 0.98306024 -0.35695082 1.5299585 0.7139642 -1.6624982 -0.72328126 -0.6172827 -0.108980484 -0.16717127
55 -0.003476088 -0.30385283 -0.8645261 0.24244353 1.0198755 2.0387533 0.64938164 1.0713776 0.41287303 0.49890107 0.1318743 -1.1347654 0.12997967 1.0207735 0.0633422 0.37806892
174 0.39709136 -0.7444272 -1.8242602 0.082223706 1.0373427 0.712719 1.2740245 0.08802118 -0.2380726 1.9560984 0.101358 -2.1133401 -0.78437805 -2.1015406 -1.2736785 0.48566866
85 1.5752163 1.2184963 -0.5767988 0.3398811 -1.34085 2.4512448 1.1973469 0.34634644 1.3277946 2.3192434 -0.38155845 -0.75058866 -0.5696175 -1.6187091 0.32997477 0.327575
84 0.7882119 0.14004247 0.075130634 -1.6894736 1.0775989 1.215293 0.6018917 -0.59761804 0.8396452 1.029793 -0.5141496 0.12199383 0.6160108 -1.0267489 1.1158458 -0.78762114
57 -0.4023948 1.2612288 -1.2898694 -2.399763 -0.5221442 2.320127 0.5939115 -0.79330635 -0.4789143 0.9221251 -0.40213805 -1.6670842 -0.78829366 -0.03743187 -0.3058175 0.27603513
48 0.4488604 0.14602336 -0.21343952 -1.4666123 0.818313 0.9696035 -0.62602067 -0.0056088497 0.8276798 2.0125055 -1.4896004 -1.0712469 -0.95099413 -0.4485682 -1.7027903 0.87201405
130 0.41148242 -0.7608784 -1.7085246 0.072117634 1.0742747 0.5575848 1.2122592 0.0434933 -0.25527042 1.8603963 0.07888859 -2.1021292 -0.84291613 -2.0239964 -1.2506719 0.4574156
15 0.022015238 -0.2663584 -0.8280513 0.15740356 0.9427237 1.914757 0.6429791 0.9433881 0.38607952 0.5622231 0.10143955 -1.0494711 0.18242545 0.9298787 0.0352832 0.39617127
35 0.38935408 0.13294166 -0.17327927 -1.3900948 0.7283318 0.88635266 -0.6856132 -0.04771923 0.751272 1.983404 -1.5210553 -1.0081697 -0.97629946 -0.37371364 -1.7646439 0.8933701
33 0.98110414 0.0278258 -2.1208537 -0.6462638 1.2118729 1.9096314 -0.24913704 0.051666327 -1.9191242 0.7878429 -1.4551321 -1.8293482 1.0721151 -0.9859196 0.04668643 -0.22825763
66 0.7400194 0.10760233 -0.03238819 -1.6029199 1.0865352 1.1961553 0.5865867 -0.5746516 0.7975595 0.9669742 -0.49909586 0.09381052 0.65993667 -0.96839595 1.0567644 -0.74313825
29 -0.025542218 -0.26663122 -0.84992105 0.1887708 0.9882382 1.9454817 0.6532765 1.0380709 0.44357985 0.5243158 0.16576317 -1.1227328 0.11614884 0.94874173 0.016244482 0.39527628
79 0.71520716 0.10936847 0.016619762 -1.5738565 1.0322877 1.1963764 0.58772236 -0.5719309 0.80153096 0.98610747 -0.52945733 0.12729618 0.67947406 -0.9567327 1.0365463 -0.735498
98 0.26802683 -0.33594668 0.7017607 -0.60720134 1.3624775 2.4082253 -0.039066523 0.025711752 0.46976697 -0.02420804 0.07409271 -1.7478203 -2.0849833 -2.5484674 1.1961632 -0.024691125
36 0.026360529 -0.26799437 -0.8327099 0.14901574 0.92968976 1.9751586 0.6209858 0.96155596 0.40679842 0.51798856 0.11528648 -1.108129 0.121718764 0.9131793 -0.02670893 0.39351654
42 0.69136107 0.1119219 0.015098556 -1.5048362 1.0001819 1.0809954 0.54028326 -0.5726465 0.77777773 0.92713726 -0.4319453 0.1123487 0.64737356 -0.9077166 0.9632859 -0.6746993
100 0.69982994 0.15797368 -0.0064027696 -1.5463552 1.0044935 1.1582019 0.5511627 -0.49395475 0.7725125 0.9174523 -0.46505 0.07082573 0.58245367 -0.89717734 1.0210463 -0.7197951
162 -0.40590462 1.4037149 -1.3574173 -2.5352652 -0.5963243 2.3956773 0.5561776 -0.8348163 -0.51048386 0.9572879 -0.3921091 -1.7670676 -0.8099069 0.0069643836 -0.22824481 0.3009734
7 -0.019365989 -0.2929658 -0.90816057 0.24989584 1.0115008 1.9905355 0.6326236 1.0250174 0.4173841 0.4838777 0.13640298 -1.0877624 0.16242413 1.0271367 0.016493497 0.434818
129 0.68750024 0.109640494 -0.014819671 -1.4928674 0.9866647 1.1394273 0.5828465 -0.49178958 0.7513374 0.9301512 -0.46880525 0.107239395 0.55993724 -0.90514183 0.9485714 -0.6565443
142 -0.032166168 -0.289982 -0.83475953 0.24523142 0.9742043 1.9755769 0.60658145 1.0703533 0.42207855 0.48095724 0.11815207 -1.117836 0.1319865 0.980444 -0.004616079 0.38711885
176 -0.019508235 -0.29345945 -0.8332215 0.17809969 0.9940449 1.9716359 0.6672102 1.023282 0.41056654 0.55313665 0.11671963 -1.1303135 0.14974128 0.9436261 0.012574125 0.40841058
58 0.7510972 0.12691501 -0.015732631 -1.5493671 1.0251337 1.1451802 0.58895713 -0.5468983 0.7570532 0.99550277 -0.45577335 0.06956358 0.613681 -0.9183518 0.99337906 -0.68463194
56 0.42547426 0.17343658 -0.23292446 -1.5182905 0.79616797 1.0196823 -0.6584733 -0.00875933 0.8295099 2.0980847 -1.5557935 -1.0708725 -0.99162245 -0.43825403 -1.8144152 0.89965284
118 0.016927527 -0.31247377 -0.85523486 0.24138027 0.9417814 2.0443282 0.61186886 1.0887313 0.361747 0.50697196 0.14562216 -1.1682467 0.14922033 1.0119599 0.028375406 0.3950387
103 0.763536 0.16428772 -0.034477357 -1.6528674 1.0636474 1.1758562 0.5541145 -0.59104365 0.77411914 1.0212991 -0.46529308 0.11581841 0.63151294 -0.95292294 1.0765188 -0.73618835
77 -0.0028487253 -0.32228237 -0.8152038 0.21395221 0.965349 1.897688 0.6350409 0.9791585 0.45406243 0.49810913 0.102491096 -1.1216918 0.11369273 1.0075905 -0.017259156 0.42454627
143 0.75274324 0.1333773 0.008217908 -1.5637109 0.9828883 1.1112142 0.57238895 -0.58089745 0.7750899 0.95532733 -0.48226514 0.13542925 0.6080503 -0.90452665 0.9949028 -0.72190225
65 0.7242043 0.13603988 -0.01420457 -1.5758177 1.0180379 1.1473494 0.5769076 -0.58956885 0.732699 0.97573745 -0.47202945 0.07385083 0.6140332 -0.904159 0.96479493 -0.6686604
145 0.7487012 0.14510609 0.03776116 -1.5906041 0.96719426 1.1372417 0.59761965 -0.5547588 0.8205603 0.99757016 -0.45894137 0.12509924 0.6076805 -0.9424891 1.0113721 -0.7694681
24 -0.014759469 -0.26531413 -0.8794753 0.15570109 0.9579093 1.9709905 0.6534149 0.9834184 0.40803137 0.52702993 0.1108271 -1.1132157 0.13254733 0.9256346 0.038381726 0.34770924
23 0.7043607 0.11195804 -0.009590152 -1.6087447 1.0416534 1.1225497 0.5798382 -0.6118718 0.79440796 0.99348336 -0.43542072 0.10784054 0.66991943 -0.95974743 1.0688862 -0.77078086
180 0.034011155 -0.7009966 -1.0333349 -1.0010957 0.3455542 1.5678871 -0.08113038 0.4358833 1.3600372 1.2374251 2.3415434 -0.62232447 -0.28845224 -1.8276141 -0.2264061 0.6963979
112 0.0035457977 -0.3177846 -0.8637228 0.16497084 0.9461954 1.9329357 0.59780574 1.0555645 0.42089462 0.52638465 0.16220622 -1.1093471 0.12417473 0.96251756 0.00077373564 0.40094933
5 0.7429784 0.097918406 -0.0015556476 -1.6238444 0.9983897 1.113706 0.6089475 -0.5744976 0.80162984 0.95931834 -0.50667745 0.15244024 0.6536016 -0.86522704 0.9941843 -0.72804445
74 0.026212055 -0.2715364 -0.7751362 0.1420103 0.9149625 1.8548901 0.62718093 0.89590526 0.34421858 0.49822882 0.08522959 -1.0364676 0.1432371 0.89405125 -0.0032165057 0.3300313
