131 16
121 -0.46536267 -1.1488056 -0.82003057 -1.9071862 0.56320685 2.0274868 -0.39705554 0.12149681 0.87605995 1.1489012 2.3618176 -0.098173186 -0.064562276 -1.552453 -0.63649905 0.26973507
139 -0.18873367 -0.21306339 -0.5580535 -0.005189878 0.9789761 2.1293545 0.8403225 1.0179496 0.6535777 0.36251205 0.11368311 -0.78215265 -0.23873241 0.670711 -0.099302724 0.39675307
43 0.48509207 0.014806977 0.16172236 -1.7501594 0.59324765 0.9962093 -0.39098215 -0.2878651 0.9279594 1.8966037 -1.7892251 -0.8438919 -1.2702261 -0.36985323 -1.8745284 0.9546081
111 -0.17199402 -0.23091973 -0.550964 -0.031085284 0.9996017 2.178614 0.82409173 1.0384831 0.67817867 0.40022135 0.15415837 -0.8102049 -0.26283455 0.6218553 -0.08199273 0.38598147
160 -0.1880477 -0.24533229 -0.5344924 0.00510587 0.96120936 2.1005533 0.79584736 1.0420282 0.7226112 0.38422528 0.11543807 -0.8140741 -0.286076 0.67130756 -0.108132035 0.3704062
175 0.5207879 -0.021804303 0.43073896 -1.7836034 1.01527 1.2725859 0.72475946 -0.8164478 0.74724054 0.83452046 -0.6944282 0.51008034 0.67372566 -0.69216895 0.9427919 -0.7318068
166 0.5151467 0.01781316 0.48796842 -1.7161529 0.9626209 1.2439265 0.699522 -0.82534933 0.7440795 0.7498903 -0.69153607 0.4626277 0.6302383 -0.689385 0.93574333 -0.73561007
38 0.45602173 -0.01502004 0.17419696 -1.7139231 0.6331483 0.98374015 -0.38298473 -0.26068333 0.9869502 1.8823731 -1.7863426 -0.8264521 -1.2779416 -0.34563753 -1.8985078 0.93470454
123 3.0342276 -0.08898315 0.7456472 -1.8360758 0.116721906 2.2711995 -0.94940555 1.0768236 -0.034804877 1.49886 0.8294568 -0.8899628 -0.9261422 -1.0959612 0.07492275 -0.2997846
27 -0.37100986 1.0592215 -1.2970275 -3.2495472 -0.66273385 2.5517783 0.116302066 -0.6794214 -0.66496384 1.0369033 -0.4088566 -1.3561127 -0.74221 -0.105594166 -0.2869752 -0.31752592
9 -0.16794753 -0.22695492 -0.5702 -0.03935958 0.995246 2.2268226 0.8194295 1.0612781 0.73988014 0.40757063 0.103044406 -0.87417495 -0.26003438 0.6442378 -0.099802025 0.41991356
101 -0.13863851 -0.20253527 -0.5475273 -0.03439235 0.9345919 2.1746182 0.84548235 1.0623378 0.6960238 0.40132073 0.14061809 -0.8345253 -0.27365312 0.6173816 -0.07652551 0.4150938
37 0.4999598 -0.008928386 0.36969346 -1.7368145 0.98920774 1.2200327 0.70172316 -0.7917739 0.73953533 0.8261962 -0.691151 0.45119777 0.6202603 -0.6803949 0.8945385 -0.70839447
142 -0.19747318 -0.24352363 -0.55489904 0.006925432 1.0417844 2.2159016 0.82034075 1.1069821 0.7405899 0.35084763 0.18306197 -0.8812537 -0.29009116 0.60850006 -0.076572075 0.37687752
49 0.43738315 0.039543614 0.3993272 -1.6204978 0.88023204 1.120405 0.6675738 -0.8120675 0.68512094 0.7797599 -0.6032517 0.4128768 0.5646027 -0.6753497 0.85577977 -0.64753073
149 0.4933819 -0.0061852327 0.41020823 -1.7332222 0.98142457 1.277864 0.68076456 -0.7056566 0.730405 0.79883194 -0.6513441 0.4356377 0.6164814 -0.72001016 0.9131193 -0.69585323
26 1.0421746 0.0023756824 -1.8279638 -1.12724 1.4793392 2.595155 -0.12685063 0.28089288 -1.636467 0.5089745 -2.1830215 -1.134501 1.2056248 -0.9048879 -0.020227456 -0.04787908
159 1.2369205 0.9051576 0.020062415 0.14612223 -1.2634834 2.8647158 0.9172319 -0.28803027 1.4991083 2.275864 -0.6065316 -0.5441572 -0.9550926 -1.9628062 0.25604478 0.12399725
25 0.5510839 0.038625512 0.48275524 -1.7758948 0.977408 1.2539228 0.70257103 -0.81508714 0.7708062 0.82898974 -0.7331461 0.44909975 0.63910306 -0.6993544 0.93329036 -0.67306244
145 0.520745 0.0069345273 0.52947 -1.7187032 0.8986501 1.1775805 0.71171 -0.8128963 0.77517736 0.77917343 -0.6338646 0.5201199 0.61451733 -0.6938741 0.97762805 -0.75394666
82 0.40989256 -0.3294774 0.23638749 -2.3797266 2.184827 0.070892796 -0.984469 1.9488847 2.0368369 1.8343487 0.52876806 -1.2465785 -0.1488031 -1.0312455 0.105554275 0.4356808
135 -0.20613725 -0.27069739 -0.56435454 0.00089359493 0.9459607 2.1118143 0.8068023 0.99444014 0.7003009 0.3909965 0.17967753 -0.8256422 -0.23668216 0.64203495 -0.0616733 0.4014266
106 0.69111305 -1.1307964 -1.6013131 -0.21685329 1.0816827 0.91733164 1.0802612 -0.061721 0.087342225 2.199598 0.003976712 -1.9421777 -0.58798754 -1.9295667 -1.1275277 0.085901156
70 0.5067647 0.00896259 0.42206722 -1.6449333 0.8473487 1.1417629 0.64283925 -0.78823906 0.63249433 0.74535304 -0.6108895 0.43966806 0.5638814 -0.6569617 0.90587837 -0.656487
64 0.46417534 0.03558187 0.46242723 -1.689883 0.8975833 1.1856143 0.6555571 -0.8029749 0.70218647 0.75204957 -0.6191358 0.45047814 0.54841936 -0.6799455 0.93920296 -0.65966314
87 -0.17633145 -0.20971395 -0.54531354 -0.035858236 0.9965456 2.0495687 0.7938679 1.0419981 0.7254205 0.37592727 0.15770341 -0.8506199 -0.3163535 0.64911646 -0.09524188 0.35869056
10 0.45351353 0.037444625 0.1235926 -1.7616102 0.6472969 1.0304804 -0.41174722 -0.24186888 0.930532 1.905492 -1.7520798 -0.87595177 -1.2948598 -0.34883845 -1.8960885 0.89715374
157 0.46878767 0.026839644 0.42924026 -1.6499133 0.90573215 1.2131007 0.66708374 -0.75384283 0.733609 0.73708874 -0.64105064 0.42560425 0.55653465 -0.59530777 0.9006992 -0.64110297
143 0.538441 0.004815317 0.44900754 -1.7671787 0.953006 1.2206771 0.70046806 -0.81831443 0.7886805 0.81481254 -0.63611203 0.474876 0.6194914 -0.68708843 0.9397497 -0.71896607
146 0.54135126 0.10238567 1.083121 -0.95014614 1.3605216 2.16708 -0.40172002 -0.5383866 0.70299774 -0.3576777 -0.14319004 -1.2404641 -2.14843 -2.7722385 0.8457504 -0.11515084
36 -0.13943864 -0.2512985 -0.56140727 -0.04322974 1.0183822 2.2052143 0.83168375 0.99168813 0.70338297 0.39715907 0.14585309 -0.8755003 -0.23787813 0.6255196 -0.09495414 0.3569641
13 1.1585269 -0.5058645 -0.9363327 -0.63943607 1.8187898 1.7866623 -0.8617083 1.8327147 1.1608481 -0.09550538 -1.005403 -0.37307885 0.5358535 -2.4702666 -0.28472498 -1.6422951
23 0.47697374 -0.0024921366 0.38920736 -1.7273822 0.95445067 1.1951846 0.69371164 -0.7970518 0.7326964 0.8109858 -0.64086556 0.44647235 0.6470947 -0.6732807 0.91341835 -0.7088212
100 0.4697349 0.040824056 0.45206854 -1.7100153 0.908521 1.1566311 0.6735495 -0.78122306 0.72237563 0.7463421 -0.62273085 0.49950972 0.58912206 -0.626589 0.93683994 -0.69057333
152 -0.13989529 -0.21733981 -0.5417399 -0.06920675 0.98769885 2.1834974 0.87626666 1.0788313 0.73293287 0.4033989 0.16465116 -0.84619963 -0.345358 0.64095575 -0.11925034 0.4015931
165 1.1349043 -0.47652903 -0.9045159 -0.7055848 1.846954 1.8344066 -0.7482102 1.7561905 1.1413119 -0.03338798 -0.9294901 -0.30219162 0.44826716 -2.3512816 -0.22080363 -1.5372094
47 -0.14433828 -0.22043407 -0.50218886 -0.12595062 0.8972411 2.00722 0.7449095 0.915804 0.6440895 0.40993342 0.17662781 -0.7476827 -0.2998881 0.49632606 -0.070021085 0.3415313
150 0.48945484 0.015282074 0.39763424 -1.7541859 0.93461615 1.2811887 0.70637065 -0.77375895 0.75699633 0.8307868 -0.672711 0.40892884 0.5531712 -0.6909256 0.877267 -0.66086936
57 -0.38173884 0.9982065 -1.196074 -3.08526 -0.69705075 2.3677573 0.10278319 -0.6393725 -0.6701197 0.91753954 -0.32104525 -1.2489816 -0.7089023 -0.118564844 -0.26932156 -0.34182778
112 -0.10837954 -0.2780931 -0.58969915 -0.03970793 1.0377873 2.1910923 0.83597606 1.0759078 0.7258748 0.41724125 0.17328517 -0.8155254 -0.25818387 0.6750543 -0.05720056 0.3501639
21 -0.15673396 -0.23427112 -0.6021873 -0.044585887 0.9786501 2.17335 0.8122143 1.085112 0.70201993 0.35490277 0.16274774 -0.82610816 -0.2555525 0.65684557 -0.10512319 0.42464042
74 -0.12178329 -0.23926154 -0.5297502 -0.07393403 0.9870989 2.1297598 0.81747866 0.9772593 0.68833786 0.41953287 0.15974294 -0.8449575 -0.3170047 0.5796083 -0.12485204 0.33359313
52 0.35220438 -0.2955102 0.16946721 -2.302054 2.1101441 0.010973069 -0.9389499 1.8849003 1.9790227 1.7972398 0.45044866 -1.1857898 -0.10106831 -1.0315021 0.04900721 0.48011756
96 -0.20500979 -0.20776227 -0.5315327 -0.05525239 0.87332463 2.1413825 0.84964836 0.98425144 0.688595 0.38193706 0.17948686 -0.80283624 -0.31165642 0.62711203 -0.07341042 0.41795683
55 -0.16137566 -0.17498876 -0.5640234 0.038029287 0.986288 2.1745074 0.85011446 1.1579674 0.72392476 0.3604887 0.17922081 -0.895343 -0.32444873 0.7021663 -0.06286614 0.40136227
77 -0.1550662 -0.23921375 -0.5807966 -0.08692017 1.0062913 2.1502314 0.8366794 0.99383014 0.723661 0.37789038 0.12052462 -0.85648686 -0.28835773 0.6539077 -0.0880797 0.38538143
48 0.4225525 -0.0015660521 0.10326073 -1.6201602 0.62394065 0.9583918 -0.33062714 -0.21119031 0.9081875 1.7863667 -1.6130075 -0.8058361 -1.16877 -0.3254902 -1.7258775 0.8554133
85 1.3301677 0.9685769 0.020759024 0.16145818 -1.3248979 2.8662038 0.8789805 -0.3033638 1.5096256 2.333002 -0.67104745 -0.5731606 -1.0273178 -2.011355 0.29527763 0.1441994
75 0.46937463 0.027698698 0.4225446 -1.734446 0.9124502 1.1742828 0.69833076 -0.7818794 0.67742336 0.80325043 -0.6469569 0.47804013 0.6374615 -0.6385145 0.900148 -0.66763955
148 0.5410072 0.1380017 1.0186617 -0.9323583 1.3166901 2.0976286 -0.3496495 -0.49996808 0.73350555 -0.24130593 -0.151843 -1.173663 -2.0369284 -2.6786277 0.7703481 -0.12897722
114 1.0423405 -0.06662471 -1.8000904 -1.1990644 1.5472075 2.6819537 -0.089998156 0.30760634 -1.562242 0.6141008 -2.15315 -1.1852212 1.1179906 -0.87856406 -0.04851306 -0.04707951
16 -0.14900436 -0.23246013 -0.55613565 0.03315096 0.99761206 2.125116 0.83068925 1.063199 0.6933065 0.3401739 0.17705958 -0.81324506 -0.24987973 0.66125053 -0.07547723 0.421551
158 -0.16705197 -0.19384626 -0.588143 -0.09581226 0.9503846 2.173159 0.8372213 1.0544397 0.73083353 0.43134633 0.10294783 -0.8301258 -0.23793101 0.6055602 -0.10727554 0.40992486
78 -0.16359729 -0.18033451 -0.5580216 -0.037570868 0.96781206 2.1534202 0.81993395 1.0568942 0.71652794 0.39765134 0.18120593 -0.84345764 -0.28856596 0.6659851 -0.085210666 0.38096914
39 0.5058742 0.0070301197 0.48840988 -1.7851424 0.9726291 1.1830614 0.6950005 -0.8040292 0.7131273 0.81824875 -0.7101526 0.51542157 0.64769197 -0.66579926 0.9424492 -0.75743055
141 -1.300368 -2.4300642 0.7079331 -0.41060957 1.7086813 2.4052112 0.5977773 -0.6042589 1.192326 0.639857 -1.979446 -1.0876306 0.8254891 -0.6716209 -0.5822332 0.8147021
32 -1.3746934 -2.5246708 0.7568811 -0.36086524 1.7505099 2.4902587 0.72146046 -0.6090873 1.27147 0.6631142 -2.032071 -1.1636064 0.86429214 -0.5896376 -0.646281 0.894171
7 -0.19368452 -0.16793536 -0.6189327 -0.0032950067 0.9864633 2.1375995 0.83787644 1.0490757 0.7491684 0.37620342 0.094945855 -0.8350312 -0.27045435 0.6694171 -0.11742697 0.44530138
81 0.4892474 -0.5546217 -0.75388926 -1.0132877 0.284878 2.6935768 1.116536 0.86931247 0.20345595 0.124894485 -1.8792423 1.0675653 0.7005882 -1.7832057 -1.3972714 1.677226
17 0.5899466 -0.652781 -0.7471392 -1.0720817 0.33578733 2.8216023 1.1564335 0.91778386 0.21687175 0.18749131 -1.9406637 1.140252 0.7606969 -1.8823692 -1.461826 1.7661644
156 0.1655419 -0.08336258 0.05780237 -0.8707831 1.3309408 0.9678291 2.0014873 0.9985521 2.4066854 0.32627198 -0.6584657 -0.47434658 -2.2824178 -1.9154036 -1.279078 -0.8393593
34 0.174139 -0.08421246 0.025542283 -0.8666439 1.2114072 1.0098218 1.9060055 0.9369945 2.2588172 0.29055202 -0.66720533 -0.5085197 -2.147414 -1.7529416 -1.1705698 -0.8062512
124 1.7003589 -1.7143008 -1.1672664 -1.0855753 2.5722136 2.7548296 -0.462805 -0.19854072 -0.8756446 0.89551926 0.4453032 0.96803325 -1.1862127 0.16531 -0.09561714 -0.31615013
115 1.7057151 -1.681276 -1.1466252 -1.0712779 2.5246239 2.7247078 -0.4625637 -0.19783953 -0.89935046 0.9059032 0.41495624 0.97933483 -1.1277417 0.117287144 -0.13273951 -0.25635573
155 0.45684436 0.026819628 0.42631495 -1.6680782 0.9167232 1.195409 0.66520923 -0.76493716 0.75117767 0.77663964 -0.63245195 0.3825031 0.5201392 -0.6026299 0.8336886 -0.67103434
65 0.5108888 0.024269508 0.41863132 -1.7021903 0.96311647 1.1769801 0.68095464 -0.78893775 0.69303304 0.76490146 -0.63795346 0.43458268 0.6006637 -0.64911735 0.8822734 -0.65847826
54 -0.3613916 1.0264666 -1.20662 -3.1184947 -0.67619765 2.4532218 0.056102682 -0.64162713 -0.6323518 1.0129788 -0.36168715 -1.3017086 -0.6981444 -0.13984613 -0.2996235 -0.30465245
102 -0.17245913 -0.24983667 -0.5977836 -0.043027733 1.0111678 2.1865072 0.87582886 1.026393 0.7280478 0.43063736 0.118347906 -0.86099106 -0.24886486 0.6413242 -0.121904746 0.4102205
109 -0.5491323 -1.2325836 -0.8776012 -1.8403258 0.54163635 1.9888086 -0.38838303 0.11148668 0.8439029 1.0452651 2.573773 -0.10311335 -0.08157207 -1.5812377 -0.60049415 0.23857857
58 0.489237 -0.0025374298 0.4847236 -1.6353979 0.9474833 1.135623 0.6897599 -0.7684314 0.7485342 0.75317866 -0.6009847 0.4582004 0.5903705 -0.6310174 0.91374356 -0.65608054
154 -0.18656564 -0.25933322 -0.5439628 -0.04976858 0.94872963 2.1501033 0.82485574 1.016133 0.73027724 0.39847 0.12333112 -0.84474987 -0.25834692 0.61162174 -0.09789446 0.35891727
89 0.49558517 -0.001863951 0.4276869 -1.682845 0.847602 1.1787156 0.65117204 -0.7609787 0.7021309 0.74039394 -0.6303874 0.4347231 0.57776654 -0.62070906 0.91493225 -0.6775933
63 -0.15085603 -0.23159143 -0.5038501 -0.105725884 0.898651 2.074354 0.8106491 0.97421914 0.6780278 0.3637331 0.14538261 -0.825643 -0.22470252 0.5894344 -0.12280484 0.35157487
15 -0.14958045 -0.18998216 -0.5465429 -0.0059628366 0.90609735 2.021385 0.79484785 0.95001125 0.6310307 0.4123381 0.0916159 -0.8155357 -0.2874107 0.6249956 -0.12719734 0.4167145
72 -0.40662307 -1.1034515 -0.74895895 -1.8792953 0.5888764 1.9762405 -0.38641173 0.12638842 0.851998 1.098633 2.2184818 -0.1299201 -0.12813976 -1.493692 -0.5783588 0.22631364
84 0.46512252 0.0157571 0.39122474 -1.7015421 0.8972513 1.249172 0.68103176 -0.7385473 0.71249175 0.8073917 -0.669074 0.39123687 0.5689031 -0.62568617 0.8533799 -0.64600503
110 -0.3168735 0.9985979 -1.2037338 -3.0522282 -0.6090292 2.406702 0.074585535 -0.6144716 -0.61531025 1.0036082 -0.38274416 -1.2234808 -0.69509065 -0.108589664 -0.26277155 -0.3083903
162 -0.39149588 1.0317574 -1.2069477 -3.0936167 -0.6885264 2.334333 0.044369057 -0.65150607 -0.65205795 0.94944674 -0.3738111 -1.2574525 -0.67631596 -0.02622875 -0.26086223 -0.2735587
126 0.49751627 -0.002022882 0.4278523 -1.6962514 0.9254114 1.2358028 0.6969772 -0.7519054 0.73866504 0.8064555 -0.6372736 0.4166742 0.5311021 -0.6601719 0.8692784 -0.63133615
61 2.8636532 -0.12301372 0.74553066 -1.682548 0.07372714 2.201324 -0.90368634 0.9530001 -0.089150995 1.3711792 0.80774415 -0.8257222 -0.92336845 -1.039865 0.089957595 -0.258699
130 0.6679795 -1.2043716 -1.6477009 -0.1567357 1.1107485 0.91412616 1.1684796 -0.08459569 0.07782585 2.3122113 0.018336551 -2.0704837 -0.6093937 -1.9307209 -1.1899052 0.12303125
174 0.6527485 -1.1972171 -1.7105781 -0.084266655 1.0654992 0.8670775 1.1487257 -0.04906056 0.04880921 2.3528702 0.009326436 -2.0914562 -0.5849879 -1.9798332 -1.2381366 0.123653814
151 -0.49629813 -1.1383815 -0.8324512 -1.8394634 0.57923925 1.9179198 -0.3679849 0.13299984 0.808906 1.0536288 2.3005486 -0.15467668 -0.12798479 -1.4575585 -0.6414611 0.24513775
128 -0.14183347 -0.2198956 -0.6081721 -0.026895465 0.9430975 2.116196 0.8480412 1.0683563 0.68428296 0.41038334 0.15974969 -0.85352314 -0.30428678 0.6448331 -0.1226156 0.445962
6 -0.124366246 -0.2142769 -0.5365064 -0.055393383 0.9894025 2.1523907 0.83417475 1.0579289 0.7327985 0.39893547 0.102843836 -0.86696804 -0.2827887 0.58373445 -0.08130945 0.3616195
42 0.49297687 0.013511688 0.42450505 -1.6790246 0.97886217 1.2573073 0.67432815 -0.7949571 0.7666041 0.78098637 -0.6301003 0.40932846 0.6093818 -0.66560686 0.9035958 -0.6560686
79 0.5330803 0.0055458667 0.44743907 -1.7518294 0.9676909 1.323759 0.6804337 -0.77280986 0.7746806 0.8221379 -0.6910094 0.46432406 0.6075161 -0.76861244 0.93336755 -0.7148553
22 -0.1493589 -0.19977401 -0.5625752 -0.06872337 0.95967793 2.167673 0.84346133 1.0644867 0.7786433 0.40188146 0.14507723 -0.8386256 -0.26539627 0.6017319 -0.116229564 0.36744648
73 0.44640917 -0.0063510463 0.09961835 -1.6429895 0.59365374 0.9797022 -0.38426444 -0.2483738 0.8322493 1.7913789 -1.6633483 -0.75880194 -1.2142454 -0.30563214 -1.7699643 0.86967546
29 -0.17080735 -0.1795856 -0.55493706 -0.05983994 0.98374337 2.0651023 0.8479775 1.0316715 0.7198335 0.43257424 0.15285452 -0.845831 -0.33548835 0.6199986 -0.11502522 0.40252703
12 0.6675939 -1.1788385 -1.7162359 -0.18893126 1.1449231 1.0149477 1.1767077 -0.047239617 0.059348576 2.3671973 0.052853614 -2.104037 -0.63047224 -1.9728881 -1.204619 0.13131376
103 0.54489654 0.04876124 0.42390212 -1.722945 0.9599003 1.1937191 0.637866 -0.78527576 0.73190916 0.7828467 -0.62524325 0.48176312 0.56092036 -0.71578044 0.95411754 -0.69797647
108 0.5549858 -0.017569238 0.4388584 -1.7217348 0.9241529 1.2551146 0.69130504 -0.74349874 0.72112596 0.77640355 -0.6775183 0.42050824 0.595533 -0.69987273 0.92300016 -0.69974834
53 0.44362262 0.021948347 0.38917387 -1.5979239 0.87587476 1.161739 0.62719417 -0.71484554 0.70747834 0.730146 -0.5974778 0.39101294 0.49988127 -0.6346354 0.8242415 -0.63228375
170 0.40524513 0.050631866 0.1258214 -1.6902436 0.56102043 0.8779348 -0.4645396 -0.26606095 0.87351567 1.854986 -1.7095542 -0.8126852 -1.2211499 -0.28096396 -1.8789209 0.96614033
97 -0.14836772 -0.23447287 -0.5331384 -0.059308637 0.9651909 2.1018074 0.8256801 1.0214933 0.72705406 0.3630873 0.19696139 -0.8038419 -0.28441182 0.5930534 -0.064911135 0.33529347
172 0.50356257 0.008299047 0.448711 -1.7274806 0.96180457 1.2064747 0.70689064 -0.86766016 0.7444211 0.77504903 -0.6581521 0.4906772 0.5908957 -0.6623572 0.93735695 -0.71696913
178 0.53163457 -0.02288946 0.45646068 -1.7446399 0.9684349 1.2427588 0.73290986 -0.8425884 0.7557773 0.79697007 -0.6857375 0.48886117 0.6255227 -0.68893164 0.98454183 -0.6935639
119 0.4846991 -0.00017543798 0.4082377 -1.6793814 0.95961446 1.2357116 0.63777304 -0.7443228 0.72054297 0.7418352 -0.67013747 0.39801335 0.600808 -0.614287 0.8735729 -0.66587913
133 0.4578412 -0.017930102 0.42054662 -1.6353989 0.9222496 1.1504604 0.6649224 -0.79227656 0.7134788 0.78285474 -0.7067363 0.44486454 0.5525796 -0.66038233 0.8174259 -0.6877979
24 -0.14722471 -0.1866082 -0.61926657 -0.019738305 0.9721155 2.1746578 0.8650677 1.051479 0.66726243 0.39960605 0.1419992 -0.8307012 -0.291677 0.6876354 -0.07075515 0.36817634
98 0.6239718 0.08613205 1.0240761 -1.0495713 1.4220448 2.2572708 -0.39974967 -0.4613365 0.7228997 -0.22774602 -0.12411964 -1.2880993 -2.105532 -2.7301269 0.819407 -0.107585095
80 0.40724993 0.0033068846 0.14005087 -1.652396 0.5979449 0.8890357 -0.42626747 -0.28576073 0.8797256 1.861001 -1.7500664 -0.7797244 -1.2536763 -0.2569613 -1.9162652 0.98043704
35 0.4005106 0.009443161 0.1397805 -1.6497824 0.57125926 0.9712943 -0.38634837 -0.22920977 0.8640102 1.7918108 -1.6747059 -0.82445043 -1.244692 -0.2994361 -1.7848665 0.855637
5 0.5402013 -0.0016842264 0.43886656 -1.7078476 0.88729227 1.1765614 0.6571825 -0.7839404 0.71370906 0.74805415 -0.68173623 0.44835624 0.5493468 -0.62186646 0.8777298 -0.67823595
44 -0.0920415 -0.18806149 -0.49593425 -0.080202945 0.9654512 2.1199086 0.8196654 0.9720052 0.67205894 0.42676154 0.111145586 -0.76531315 -0.2898302 0.593291 -0.07665502 0.3863013
180 -0.44389766 -1.0723258 -0.7560862 -1.8215667 0.5467323 1.9755129 -0.31786415 0.12493411 0.78074056 1.0615288 2.2317405 -0.15582764 -0.073295936 -1.4672769 -0.6136313 0.24610598
8 -0.50029874 -1.048098 -0.7750148 -1.7038336 0.4650439 1.8264753 -0.35018992 0.10266497 0.7515239 0.9677445 2.2360916 -0.09978866 -0.09024833 -1.436404 -0.60323 0.25553247
171 -0.12902798 -0.176735 -0.5533805 -0.108348735 0.93767935 2.0835068 0.77830136 1.0155395 0.6728343 0.40188712 0.1149976 -0.80805355 -0.30146402 0.60853136 -0.041608866 0.3511258
127 0.4370864 0.020688828 0.12541544 -1.6031146 0.5592119 0.8889558 -0.3543996 -0.2429662 0.8291726 1.7709613 -1.6336577 -0.79768276 -1.1787808 -0.30376568 -1.7421495 0.88054514
176 -0.17715386 -0.2336702 -0.51014686 -0.033851527 0.9703718 2.1262622 0.8282279 1.0122612 0.6874349 0.3988523 0.16423199 -0.8117862 -0.26345652 0.619415 -0.088948414 0.40934664
40 -0.5034794 -1.1233968 -0.7310873 -1.8246207 0.5283164 1.8651383 -0.38004488 0.09020167 0.8185387 1.0342426 2.3076444 -0.09343444 -0.11223039 -1.5400375 -0.60096306 0.24605004
76 -0.20201235 -0.19528024 -0.5768131 0.023789987 0.95404327 2.163854 0.8028716 1.0452043 0.71254957 0.42128462 0.13219637 -0.8731201 -0.24731052 0.70181173 -0.12425053 0.39798167
66 0.5245141 0.02607947 0.4019066 -1.6764239 0.91689384 1.1361941 0.6831833 -0.765538 0.7338569 0.7472211 -0.67351806 0.47427726 0.61317575 -0.69861734 0.89468503 -0.71747357
134 0.4913189 0.014805931 0.45022652 -1.6626174 0.9293961 1.1950347 0.68150115 -0.77336514 0.737903 0.7544887 -0.70412475 0.42575583 0.60433966 -0.66060644 0.883103 -0.6929819
125 1.2250838 0.9236998 -0.032473046 0.1722515 -1.2823496 2.7768657 0.89287335 -0.24558522 1.4406857 2.2020972 -0.6019424 -0.50928634 -0.91529125 -1.8303561 0.28391525 0.12867104
136 1.066619 -0.4359408 -0.82510316 -0.63220257 1.7330012 1.7091424 -0.73323685 1.6895813 1.1005038 -0.058454137 -0.9051323 -0.33812404 0.45830372 -2.2775874 -0.22810093 -1.5257809
33 0.94978684 -0.015639236 -1.708116 -1.0310296 1.4034044 2.417558 -0.13111648 0.24781846 -1.4837201 0.53195375 -2.0269356 -1.0948753 1.047377 -0.8666686 -0.095908985 -0.04759998
105 -0.38055155 1.0145173 -1.1763422 -2.9994106 -0.65388 2.2959495 0.056937106 -0.5752736 -0.60123485 0.9349594 -0.38149914 -1.2387027 -0.71973485 -0.06972485 -0.27525088 -0.24742803
59 -0.16679141 -0.17446648 -0.5434645 -0.07024121 0.9458336 2.0379715 0.7673164 0.97426254 0.6765263 0.40456998 0.13112481 -0.81126916 -0.2760246 0.6249067 -0.08890714 0.359755
104 -0.13693225 -0.1536987 -0.5910776 -0.015856368 0.94082063 2.1030967 0.8736856 1.0479933 0.71880996 0.40492353 0.14552633 -0.83017015 -0.2896161 0.64226174 -0.055900715 0.3947728
161 0.50692546 -0.012514446 0.42268208 -1.7554846 0.9557023 1.3011472 0.6962546 -0.79962915 0.72827405 0.8336649 -0.6446874 0.36773404 0.57576215 -0.69170207 0.8941033 -0.6766733
28 -0.19637969 -0.23799552 -0.5694585 -0.01849877 1.0674736 2.2093108 0.8416106 1.0570796 0.7654085 0.39512345 0.12696071 -0.841272 -0.26866868 0.6389529 -0.11186283 0.4017027
88 2.76276 -0.10260889 0.6964423 -1.6003312 0.018400477 1.9768856 -0.86807764 0.99208534 -0.11782541 1.3413196 0.7848586 -0.7851808 -0.85030514 -0.96472454 0.06180192 -0.25697103
18 0.4541032 -0.3053505 0.23595221 -2.284583 2.1082997 0.11017364 -0.9029428 1.8680214 1.9191718 1.7939422 0.48741373 -1.2082042 -0.10812248 -1.029978 0.1219142 0.42953783
122 0.50041294 -0.00039186736 0.4127262 -1.7641472 0.959058 1.253127 0.7133956 -0.83000153 0.7342005 0.791355 -0.73554003 0.4775123 0.6131401 -0.73085356 0.9146629 -0.7103071
129 0.524069 -0.019649534 0.43459588 -1.6167616 0.91170007 1.1371291 0.67922986 -0.7236563 0.6922692 0.7573983 -0.6303747 0.47198668 0.5461804 -0.6743079 0.85103637 -0.6381841
118 -0.1622226 -0.22128773 -0.52704406 0.00045702117 0.9695618 2.2067003 0.836127 1.1085019 0.7063406 0.35240084 0.11377039 -0.86406887 -0.24298877 0.6518036 -0.05007944 0.38175842
56 0.44116557 -0.014612224 0.16679892 -1.6882255 0.6600056 1.0302745 -0.3730933 -0.19837308 0.9351115 1.8387959 -1.735776 -0.7490738 -1.1842257 -0.3152148 -1.8119211 0.87223524
164 -0.14175001 -0.20889097 -0.5911873 -0.07880714 0.95779276 2.1106322 0.7890707 1.005876 0.64132804 0.36103052 0.16380969 -0.81647795 -0.26428205 0.6060269 -0.094502054 0.3609602
113 -0.103437774 -0.22207268 -0.58317983 -0.026436461 0.9379507 2.0890155 0.82646495 0.99965173 0.6632181 0.4268412 0.1445296 -0.8038561 -0.26852602 0.60492706 -0.06402874 0.36192834
