131 16
129 0.6985367 0.001900111 0.20242241 -1.5979716 0.84968245 1.5897224 0.4842235 -0.5823049 0.6099534 0.9695742 -0.62690973 0.21368776 0.69582254 -0.9516755 0.9698619 -0.7908753
180 -0.5046022 -0.91654766 -1.2496077 -1.5650976 0.31281063 2.1711686 -0.527991 0.29643235 1.0935334 1.1539335 2.33586 -0.5252968 0.11056409 -1.7644734 -0.7120194 0.19922253
63 0.12270894 -0.25352496 -0.76158196 0.2608802 1.1481252 2.2870483 0.6532169 0.7289697 0.33676007 0.36166728 0.12277874 -1.1792371 -0.012912753 0.84704006 -0.28201655 0.3993528
119 0.6842463 0.02807001 0.20533837 -1.5658499 0.82923746 1.5463694 0.41739824 -0.63126975 0.59425104 0.9485328 -0.6356516 0.14574243 0.670681 -0.90652215 0.9279852 -0.78509754
166 0.71569526 0.02218346 0.21757752 -1.5191289 0.8133977 1.4988885 0.46075532 -0.63853276 0.5486084 0.9423616 -0.6812476 0.1619432 0.7112084 -0.9416053 0.9224081 -0.8223261
84 0.6697022 0.008837171 0.21278892 -1.5927521 0.83413804 1.6318359 0.5038769 -0.6373761 0.6169279 0.9977375 -0.6566745 0.185052 0.7313692 -0.94337904 0.99268687 -0.7923037
35 0.342907 0.05338842 0.06696105 -1.3895186 0.82995534 1.064291 -0.6355515 -0.28576493 0.84172094 1.9629762 -1.6560822 -1.0175425 -1.4117599 -0.3927542 -2.0359433 1.0248308
74 0.09607249 -0.23463985 -0.80063736 0.24409735 1.1253005 2.2557127 0.67259836 0.6914217 0.31844875 0.389639 0.1764103 -1.1309551 -0.035027225 0.82191575 -0.2924647 0.37800524
89 0.7388514 0.005409031 0.2169776 -1.5534623 0.7600745 1.5456157 0.44198605 -0.5888403 0.59488076 0.9652912 -0.62234694 0.18038647 0.66015714 -0.9553825 0.9601467 -0.78084815
43 0.42666578 0.098815545 0.1491914 -1.3946108 0.7834183 1.0289125 -0.58841515 -0.28349558 0.92728835 1.9034983 -1.5806028 -0.97612005 -1.439014 -0.55340475 -1.9490968 0.9583635
143 0.7620487 -0.0012847239 0.15738904 -1.57164 0.829266 1.485936 0.43150878 -0.59443516 0.5879162 0.97772557 -0.62961334 0.21552688 0.73787147 -0.96495914 0.94199103 -0.8211838
37 0.73917365 0.031843375 0.1663373 -1.5557749 0.83849424 1.545506 0.4431441 -0.611453 0.55805933 0.9634747 -0.6793571 0.18670629 0.6419408 -0.97488165 0.95121485 -0.820878
139 0.11909345 -0.1994517 -0.8199546 0.25962615 1.1469041 2.2451806 0.64708126 0.70788217 0.25578663 0.3889556 0.14320825 -1.1220583 -0.030809611 0.7933358 -0.22720712 0.37687588
155 0.69006926 0.033117432 0.19189769 -1.5126837 0.8082796 1.5453261 0.43227178 -0.5983123 0.58993214 0.9353427 -0.66686285 0.15411267 0.6478821 -0.9360891 0.8800356 -0.7679475
154 0.058323823 -0.23951569 -0.7838596 0.2888964 1.0662891 2.1757739 0.6325974 0.7076223 0.33264968 0.38440096 0.1403806 -1.1347119 -0.01309577 0.8264543 -0.2530425 0.40433845
59 0.074541114 -0.22781917 -0.84017074 0.29178733 1.1203995 2.138679 0.5994501 0.7258039 0.28479087 0.3787876 0.15318273 -1.1070048 -0.04691287 0.808 -0.3000722 0.42551523
105 -0.17028569 1.1798619 -1.294223 -2.652644 -0.57321125 2.4807615 0.15391679 -0.8646447 -0.73251873 1.0421677 -0.34212157 -1.3768586 -0.6865639 0.15552077 -0.47544912 0.124124035
97 0.10143539 -0.2283552 -0.8547112 0.32424036 1.1200029 2.2831812 0.6905594 0.78880984 0.30640867 0.334726 0.18408689 -1.1659497 -0.043468613 0.8749457 -0.28314716 0.4219709
7 0.09959502 -0.20545265 -0.83499074 0.26158404 1.1527803 2.1955752 0.6226189 0.6654608 0.31585896 0.34683934 0.12480098 -1.0708917 0.00057890115 0.7765462 -0.20386778 0.40118462
33 1.1817117 0.20976698 -2.0694282 -0.50393575 1.1919638 2.126146 -0.64822817 -0.054159123 -2.2590036 0.7895463 -1.5708531 -1.6861383 1.0632081 -0.9895815 -0.0028463798 -0.40978882
176 0.0806867 -0.21763755 -0.73078996 0.27198243 1.0969741 2.1215904 0.64282596 0.6697419 0.26321107 0.36070317 0.16184673 -1.0469964 -0.014155961 0.7783522 -0.2062562 0.39635095
29 0.059548613 -0.19272384 -0.7807745 0.2672997 1.1308753 2.147877 0.6586667 0.7127932 0.30426243 0.3816814 0.1499555 -1.1003823 -0.042440765 0.84151363 -0.24170595 0.44551498
10 0.40603378 0.06875345 0.015335414 -1.3816613 0.8528203 1.2156155 -0.58281803 -0.23584697 0.83109564 1.8554794 -1.488095 -1.025758 -1.3161031 -0.52992404 -1.8749099 0.88339007
125 1.3968772 1.2312319 -0.21776019 0.77042663 -1.1748766 2.9151652 0.5543328 -0.34233215 1.0016464 2.2914271 -0.44709226 -0.8360822 -0.5578462 -2.0120592 -0.14457132 0.23551123
24 0.05724524 -0.1957123 -0.76574546 0.2527117 1.0929714 2.1643648 0.6571058 0.6711127 0.31128487 0.37761393 0.12506673 -1.1140286 -0.04592758 0.8315649 -0.22668408 0.39929694
18 0.9023786 -0.4028426 -0.08277647 -1.8962941 2.5386758 0.37734708 -1.0600879 1.7892535 1.4706962 1.9051065 0.57169795 -1.1977487 0.052852187 -0.94443023 0.025030477 0.51261103
64 0.66896045 0.011888745 0.21062626 -1.5382463 0.7994397 1.5083256 0.4251791 -0.623371 0.532061 0.93143165 -0.5873157 0.21124755 0.7090215 -0.93856776 0.998878 -0.7539414
57 -0.12406066 1.1087005 -1.299534 -2.6236906 -0.59221256 2.5141068 0.17210159 -0.85667133 -0.76931643 1.0389287 -0.2908385 -1.3655238 -0.6903236 0.085731275 -0.5567912 0.09786918
98 0.43405688 -0.119641565 1.1217475 -0.5916158 1.3905301 2.3477712 -0.43861538 -0.2742362 0.5618804 -0.19756787 -0.17294712 -1.849034 -2.1345627 -2.8414888 0.38838458 -0.09825529
106 0.68601674 -1.1384541 -1.8349153 -0.13190186 1.0084157 0.8234968 1.164339 0.38622788 -0.16009548 1.8956336 0.19908477 -2.1495552 -0.6199875 -2.0219014 -1.6707499 0.4644682
88 2.73654 -0.03766702 0.63617134 -1.5092337 0.21211138 2.2735043 -1.6169682 0.6147572 -0.6319028 1.7251701 0.9339289 -1.1432619 -0.7940412 -0.8247714 -0.4531122 -0.1873946
15 0.08013577 -0.21685745 -0.8211493 0.3289257 1.1251409 2.177747 0.6621341 0.7072403 0.26060137 0.3767383 0.15387951 -1.1073613 -0.035257857 0.89286727 -0.26846614 0.46362582
48 0.4072888 0.101209484 0.07606781 -1.421173 0.80656075 1.0730711 -0.6032429 -0.27504548 0.8802628 1.903964 -1.6005567 -0.97780496 -1.3381469 -0.4919655 -1.923291 0.93258923
164 0.12921354 -0.18464354 -0.77774954 0.26339614 1.1131889 2.2082007 0.6545942 0.70370513 0.31219894 0.3524689 0.1176459 -1.1103877 -0.053251877 0.7853871 -0.2204662 0.3710917
175 0.6738035 -0.04964516 0.14755732 -1.5700773 0.87651265 1.5601119 0.46695158 -0.5661826 0.59930444 0.9855999 -0.5851109 0.20586683 0.71405923 -0.9591704 0.89373106 -0.77372867
127 0.41314483 0.08245272 0.06562354 -1.3596069 0.78826815 1.1375961 -0.53564554 -0.25360125 0.8606506 1.8599871 -1.535851 -0.98763615 -1.3418896 -0.50797004 -1.8834699 0.93297935
170 0.3802336 0.07920364 0.053900905 -1.3578476 0.8147449 1.0748256 -0.5442511 -0.28942963 0.8462482 1.8653247 -1.5182164 -0.97652364 -1.3356291 -0.5106583 -1.9033366 0.9368172
42 0.6479853 0.020450726 0.17910413 -1.4919301 0.78106564 1.5069274 0.42013896 -0.6369239 0.54773057 0.92168814 -0.57993776 0.15976879 0.70141774 -0.9022461 0.8900341 -0.7007728
54 -0.13262595 1.1554351 -1.2873379 -2.5651197 -0.61317396 2.426882 0.122686565 -0.86327314 -0.77474207 1.0645685 -0.2999052 -1.3846037 -0.702045 0.1395314 -0.59022474 0.13544126
134 0.7501727 0.029878909 0.26113907 -1.688815 0.8941571 1.6283464 0.46691665 -0.6220742 0.66087484 1.0152208 -0.7100726 0.2029092 0.7434397 -1.012507 1.0078053 -0.84586585
36 0.10555083 -0.26634824 -0.73731613 0.28151467 1.1241285 2.1551602 0.60253745 0.6467665 0.2919473 0.32845122 0.12408716 -1.0761856 -0.010401199 0.78273284 -0.26228306 0.39403588
112 0.11447936 -0.2579199 -0.8343104 0.2751564 1.104656 2.2164118 0.62494177 0.73980576 0.29369625 0.36372676 0.2111104 -1.0828682 -0.0020684171 0.84988296 -0.21338609 0.3914385
82 0.8280288 -0.43099183 -0.13426438 -1.8997797 2.5505385 0.36318 -1.0748851 1.7858055 1.4915019 1.851098 0.5445028 -1.1857063 0.071848676 -0.93020684 0.032517906 0.48887688
25 0.6953628 0.006382921 0.17805517 -1.4799598 0.82907254 1.5036118 0.40913984 -0.55613285 0.55636525 0.9009366 -0.6163319 0.13187799 0.6752111 -0.95108944 0.88438964 -0.73276645
21 0.0834603 -0.1909414 -0.7659261 0.28332198 1.0469843 2.1369755 0.6406608 0.7010493 0.32516345 0.33374673 0.10511505 -1.1093513 -0.02586421 0.7819654 -0.23661807 0.4119858
165 1.0041808 -0.1945722 -1.3019413 -0.30345353 1.2368504 1.5444047 -0.86076385 1.6670529 1.1928988 -0.16621421 -1.2607509 -1.0712122 0.30513084 -2.2837946 -0.38458088 -1.422108
136 1.0448958 -0.1896298 -1.2489275 -0.3946707 1.3085306 1.6367602 -0.8620271 1.6924291 1.2573403 -0.10601606 -1.2886604 -1.1356828 0.36651564 -2.3322103 -0.345109 -1.4875792
79 0.7004922 0.014668427 0.22409718 -1.5571332 0.8264506 1.6328107 0.45716715 -0.6250149 0.6262273 0.974174 -0.67379093 0.2051659 0.73707336 -1.012566 0.9959996 -0.82884973
85 1.3396672 1.1934332 -0.23265769 0.7184926 -1.1286978 2.8067932 0.51751316 -0.3650645 0.96008587 2.2310157 -0.4511198 -0.84845775 -0.5482556 -1.9901013 -0.15111159 0.26296088
66 0.6620635 0.0020817937 0.17208387 -1.4716552 0.81573635 1.478863 0.45876122 -0.5887728 0.57113034 0.878599 -0.6119141 0.17516367 0.6733039 -0.9314659 0.91614836 -0.76445204
171 0.099771045 -0.18581484 -0.76677275 0.21916988 1.0545653 2.0926318 0.5994624 0.6817832 0.25075695 0.38426355 0.1197451 -1.0845068 -0.046352275 0.78267384 -0.17841947 0.3852368
111 0.05257652 -0.23049557 -0.7453778 0.3083441 1.1443026 2.1810293 0.5907919 0.7580056 0.3260684 0.36964285 0.20352648 -1.1503316 -0.08631217 0.858678 -0.27096224 0.41511235
78 0.09935706 -0.19663008 -0.7934286 0.328299 1.0907611 2.1426163 0.6501957 0.7158416 0.2978463 0.37133056 0.158066 -1.1225573 -0.023688598 0.81021464 -0.25089854 0.39903152
8 -0.5099815 -0.87769234 -1.2199323 -1.4479195 0.32671592 1.9878596 -0.52668995 0.2886788 1.0297284 1.0479938 2.250022 -0.46571872 0.11832531 -1.6251429 -0.6210952 0.21052991
150 0.7054668 0.051400896 0.18562302 -1.5891858 0.7893948 1.5153699 0.4568237 -0.6020023 0.58658206 0.9440868 -0.63527393 0.20978488 0.7014124 -0.95542115 1.0052991 -0.8139957
114 1.1412473 0.11617361 -1.9165376 -0.54137063 1.1648821 2.1005363 -0.55089414 0.0015250051 -2.0743072 0.793838 -1.4874359 -1.5628865 1.0118306 -0.94248974 -0.006270099 -0.3341273
158 0.13235773 -0.19111456 -0.77537936 0.2542662 1.0851105 2.2055976 0.61614805 0.7267408 0.2915014 0.36848447 0.106379576 -1.0599916 -0.019582486 0.8419628 -0.24452688 0.41811562
146 0.38704297 -0.112300485 1.0011084 -0.6041626 1.2538742 2.2235785 -0.36473998 -0.28270587 0.5592163 -0.13196082 -0.16299812 -1.6824387 -1.9541827 -2.673886 0.34305698 -0.12688197
123 2.6277297 -0.024546038 0.6158115 -1.4262323 0.23167783 2.1757686 -1.6186862 0.5795893 -0.5816124 1.6254356 0.8960477 -1.0663925 -0.76901186 -0.79902697 -0.4241476 -0.1855211
121 -0.47765785 -0.8639768 -1.1980692 -1.3441135 0.2824282 1.9341632 -0.43622646 0.26594457 0.98376775 1.0302799 2.1092882 -0.46917662 0.10585352 -1.5579345 -0.65547043 0.2186931
141 -0.93820506 -2.1648068 0.78960556 -0.10016432 1.9122448 2.4009933 0.40791595 -0.53581166 1.4704725 0.61733913 -1.8506888 -1.3469785 1.2121841 -0.82932365 -0.5938197 0.85209334
32 -0.92236733 -2.1489809 0.81791866 -0.1177612 1.8799521 2.3990157 0.4690735 -0.51611906 1.5074104 0.61779463 -1.8313651 -1.3709161 1.1954414 -0.8349037 -0.60245234 0.83357745
81 0.55399984 -0.63893306 -1.2829496 -0.70622116 0.4432833 2.8452737 1.032286 0.83126247 -0.21344462 0.19307147 -1.9065276 0.8765888 0.85100967 -1.9653653 -1.5440961 1.5772463
17 0.638599 -0.6140907 -1.1796046 -0.74389064 0.4306958 2.6746724 0.8942791 0.7718997 -0.23881899 0.2991044 -1.7215766 0.7917926 0.7618495 -1.8648305 -1.443992 1.441108
109 -0.48087746 -0.89359236 -1.1762528 -1.4112543 0.23808917 1.9031373 -0.5704655 0.30178666 1.0583597 1.0265917 2.282963 -0.44437912 0.096803896 -1.6380199 -0.5940427 0.18929721
135 0.091916285 -0.28279647 -0.85388184 0.298789 1.2030333 2.3172553 0.63189137 0.75501674 0.31721902 0.40371147 0.19444078 -1.1739471 -0.029755538 0.9071572 -0.23789239 0.4455259
156 0.21956626 0.015013337 -0.10607133 -0.5798848 1.7018458 1.4288822 1.9552373 0.9836267 2.459131 0.33199298 -0.24350874 -0.7230256 -1.99054 -1.8124222 -1.5643952 -0.8886428
34 0.3043885 0.0005585849 -0.14560169 -0.6730741 1.6436498 1.5813824 1.9391173 0.9394784 2.394809 0.44078034 -0.3173091 -0.8208634 -1.9013995 -1.7279955 -1.4992495 -0.83917314
124 1.7271167 -2.0285103 -0.8897289 -1.0705156 2.5905423 2.5224855 -0.67801374 -0.07426397 -1.2297508 0.81922084 0.8564194 0.6994303 -0.9075754 0.011943842 -0.26776788 -0.0824278
115 1.708334 -2.0161638 -0.86659247 -1.0065045 2.5707078 2.517026 -0.6596752 -0.037159897 -1.2103015 0.80856204 0.8483726 0.71834064 -0.8757296 0.0097757755 -0.3045256 0.010522775
126 0.6560966 -0.011937901 0.2223152 -1.5229917 0.819217 1.4739275 0.4438098 -0.62199503 0.5074526 0.8739472 -0.62688136 0.22636586 0.645905 -0.8836592 0.9252091 -0.72369117
162 -0.16546151 1.19961 -1.3765067 -2.7308693 -0.65576005 2.530673 0.14519148 -0.89376426 -0.7947509 1.0725354 -0.29246575 -1.4458805 -0.7060566 0.15517436 -0.54588634 0.14082325
56 0.37412083 0.06408596 0.08730205 -1.4510319 0.85173213 1.1419171 -0.5797586 -0.2603174 0.8870942 1.9387653 -1.5889155 -0.97816503 -1.4069687 -0.49123603 -2.0133681 0.95610875
23 0.66466635 0.0050276923 0.15968059 -1.547347 0.8079536 1.4694457 0.39861286 -0.59828377 0.5370513 0.96698177 -0.58429646 0.15916158 0.69021636 -0.91206336 0.9131858 -0.76279616
128 0.120753825 -0.23399825 -0.7655757 0.19007722 1.080878 2.0790682 0.5982504 0.6901621 0.31389913 0.37425843 0.14597772 -1.067615 -0.053792648 0.7018237 -0.23193394 0.39322174
113 0.1095773 -0.24271442 -0.7803731 0.21171063 1.0567518 2.0950062 0.6112802 0.6219563 0.302818 0.41197383 0.09409796 -1.0127976 -0.019133907 0.6980406 -0.22816285 0.37818787
102 0.07166252 -0.24798112 -0.84610814 0.31103632 1.1593196 2.2401903 0.6964243 0.7057717 0.3150893 0.38873482 0.14551263 -1.1787912 -0.0023158914 0.8685106 -0.272924 0.43095636
130 0.66660833 -1.1355453 -1.8029273 -0.06223388 0.9713817 0.7308859 1.1195743 0.39340627 -0.19211137 1.8756067 0.21685727 -2.1211839 -0.6430449 -1.9117006 -1.707481 0.5138626
49 0.62886757 0.014857618 0.16142221 -1.5073323 0.82904655 1.5269389 0.45718306 -0.61669797 0.5525374 0.92002714 -0.5734794 0.1793262 0.7022777 -0.9108504 0.9423769 -0.7660106
161 0.67513007 0.0003060841 0.21630093 -1.5013204 0.7881365 1.4861789 0.44331297 -0.5849445 0.577649 0.8988056 -0.60633755 0.16075115 0.7290081 -0.9692373 0.9745116 -0.7955261
157 0.63553786 -0.0031646108 0.1241663 -1.4693868 0.7894427 1.517229 0.41313347 -0.5694633 0.5114291 0.9119208 -0.5858257 0.119277 0.6430345 -0.85050327 0.83053446 -0.6600748
174 0.6069285 -1.1170876 -1.7866956 -0.07676402 0.97845817 0.8044334 1.1204865 0.39392692 -0.14809678 1.8541223 0.17319229 -2.06904 -0.5599975 -1.9348282 -1.6498368 0.46316472
160 0.051696222 -0.22058535 -0.74101484 0.29261422 1.0642246 2.0492344 0.59939134 0.7010074 0.322723 0.35296297 0.09274639 -1.0559608 -0.024864048 0.8158665 -0.24581242 0.36508766
151 -0.45579356 -0.82601833 -1.1237173 -1.3320804 0.32199112 1.8564179 -0.4647896 0.26252964 0.9558513 0.9736539 1.9973385 -0.49291915 0.029307872 -1.488218 -0.6506378 0.19200279
122 0.702053 -0.004842803 0.19503085 -1.5497106 0.79837805 1.5234085 0.46484283 -0.6437536 0.5584272 0.93661577 -0.6620224 0.24351981 0.7317277 -0.9710872 0.98580945 -0.8181098
142 0.07847303 -0.18322629 -0.7825957 0.32689837 1.0563947 2.1392822 0.5782032 0.7165933 0.23801833 0.30188647 0.11915855 -1.1079241 -0.06417804 0.76940984 -0.26580712 0.38159946
172 0.7343918 0.022322264 0.1806357 -1.5480804 0.82128745 1.5075576 0.41598415 -0.6102336 0.5600697 0.95128715 -0.6316622 0.17865032 0.66511995 -0.9857607 0.9165231 -0.7823179
145 0.6986899 -0.033400342 0.20831844 -1.4840239 0.7793822 1.5255706 0.45608807 -0.5699381 0.58406496 0.9098851 -0.5936095 0.20413056 0.7272815 -0.98102957 0.95229185 -0.84066164
9 0.07901698 -0.24637981 -0.8075156 0.31637105 1.1304204 2.2356136 0.60874707 0.7264683 0.32333642 0.35735798 0.14409535 -1.1376631 -0.008683729 0.86924595 -0.2606125 0.42018408
118 0.07879961 -0.23503724 -0.71445024 0.28816852 1.056581 2.1635637 0.57967925 0.68982595 0.3019625 0.31926697 0.134789 -1.091663 -0.00561847 0.7742365 -0.19875084 0.36241677
12 0.60408276 -1.1073196 -1.817731 -0.030752836 0.95727783 0.68354857 1.1461664 0.4055517 -0.21766706 1.8715128 0.2377881 -2.1107392 -0.66111946 -1.8961105 -1.7369896 0.53451204
96 0.05731076 -0.24690607 -0.7629852 0.2612449 1.0622783 2.2370343 0.64790434 0.6477493 0.27710816 0.35975 0.15302958 -1.0728688 -0.01146915 0.80167514 -0.20451672 0.44727865
110 -0.08471303 1.1154869 -1.2904018 -2.5366235 -0.5287129 2.4208632 0.13838989 -0.83525074 -0.7761999 1.0346766 -0.3432409 -1.3040383 -0.6466376 0.12012131 -0.5128771 0.08721609
101 0.11310409 -0.19583242 -0.78243345 0.26209044 1.0674723 2.1358535 0.6557477 0.7278555 0.2778818 0.38003403 0.18275271 -1.0750226 0.008389758 0.81668574 -0.19943067 0.39707303
47 0.065904744 -0.2478965 -0.7127853 0.27170545 1.0717586 2.062901 0.58845955 0.6636259 0.28244 0.35591105 0.16592078 -1.0478594 -0.05925916 0.7440692 -0.22884251 0.39634764
77 0.11165274 -0.22888824 -0.7755775 0.25669006 1.1089332 2.1448636 0.6243201 0.6605363 0.3049348 0.32591745 0.14069319 -1.0699894 -0.04378041 0.8480649 -0.21689108 0.42000997
87 0.06888851 -0.19759442 -0.84441775 0.23972005 1.1609366 2.1888776 0.644784 0.72946435 0.3138696 0.39592087 0.13029172 -1.1790035 -0.037444618 0.84166837 -0.25069705 0.38932055
65 0.65694106 -0.0052358834 0.18413249 -1.5657536 0.8517663 1.5284183 0.47212023 -0.63443846 0.5636349 0.904523 -0.61509854 0.2091098 0.7381845 -0.9087323 0.9427245 -0.7619264
178 0.6735709 0.0037550877 0.15043993 -1.488995 0.7507496 1.521478 0.47652596 -0.5692066 0.59907395 0.93023926 -0.64118725 0.19156973 0.66380227 -0.9235231 0.9129045 -0.72346205
5 0.70812356 -0.03482303 0.1906905 -1.5384709 0.800928 1.5261036 0.451924 -0.5848569 0.5855664 0.9005103 -0.63782895 0.18830684 0.65809137 -0.8860359 0.9070592 -0.77766556
44 0.13033482 -0.24708551 -0.80947423 0.29891267 1.2040954 2.2643914 0.67097306 0.7221077 0.27137145 0.39137378 0.15359634 -1.0942277 -0.045435887 0.85448617 -0.26588848 0.42706102
13 1.0825763 -0.25156453 -1.4066485 -0.31101406 1.3151084 1.6209495 -0.94898325 1.8529038 1.3734555 -0.21757269 -1.3683797 -1.1732965 0.45392296 -2.525462 -0.37468886 -1.6667414
55 0.09367758 -0.23532349 -0.77071697 0.29770142 1.1407651 2.1761777 0.6267641 0.7234296 0.31049186 0.3711411 0.10947947 -1.1146957 -0.035984762 0.7966648 -0.23947795 0.40906292
61 2.5679634 -0.054255906 0.55853444 -1.4587641 0.22957335 2.2740188 -1.5627177 0.5211494 -0.61385185 1.6321265 0.8771855 -1.1321777 -0.7841141 -0.760813 -0.468219 -0.14570731
149 0.6855263 0.0032538758 0.2023032 -1.6016225 0.82639086 1.5823555 0.46758276 -0.5963608 0.57424307 0.9863649 -0.66489136 0.20300461 0.74045026 -1.0057948 0.9790377 -0.8096375
148 0.41909236 -0.09041589 1.0598987 -0.580869 1.3014921 2.20376 -0.360408 -0.27061793 0.6048718 -0.1069093 -0.16995773 -1.6787912 -1.9902489 -2.7251887 0.32478136 -0.1512575
40 -0.46808043 -0.8813695 -1.1796987 -1.4332744 0.3329532 2.0086844 -0.4877614 0.24900377 1.0058651 1.0841366 2.1384182 -0.5496191 0.03155209 -1.6851587 -0.6602941 0.17569847
133 0.64407444 -0.011826315 0.20462458 -1.4414152 0.8002028 1.4621986 0.42706072 -0.57671696 0.55948496 0.9135574 -0.64945704 0.15109067 0.60607386 -0.9030576 0.85069466 -0.76968277
108 0.68975884 -0.010220476 0.14790128 -1.4826955 0.7825054 1.5289571 0.41602084 -0.5548974 0.51819634 0.8781447 -0.6429833 0.12658755 0.66969013 -0.9464987 0.9191669 -0.7702193
76 0.055066172 -0.21147303 -0.74921745 0.27163535 1.073157 2.0827649 0.5769721 0.6684122 0.30301833 0.37625372 0.12302728 -1.0592189 0.035691377 0.79545486 -0.23649609 0.3791735
159 1.2939336 1.1787794 -0.22658779 0.7593758 -1.1288016 2.8106818 0.5522023 -0.35724625 0.96024 2.22323 -0.40202475 -0.826482 -0.52511734 -1.9324366 -0.1842548 0.2469133
100 0.655467 0.0117832925 0.19934338 -1.4552128 0.7713764 1.4899211 0.42005455 -0.53629565 0.5479655 0.87954164 -0.5675625 0.18742473 0.64878917 -0.9253493 0.9056723 -0.72130024
26 1.1909555 0.1830041 -1.9735007 -0.5419425 1.1557773 2.1117442 -0.6112458 -0.010748102 -2.174121 0.74626696 -1.5137609 -1.5824033 1.0430663 -0.9807014 0.01599695 -0.35077497
6 0.118465714 -0.22060339 -0.7737568 0.24310532 1.1070902 2.123995 0.6222855 0.702536 0.31110463 0.36132684 0.08689374 -1.0834129 -0.032085445 0.7162235 -0.25506637 0.3723248
53 0.6119598 0.027654901 0.16573375 -1.4897896 0.76450086 1.5025257 0.46589512 -0.6025144 0.5753069 0.8810075 -0.6147559 0.19321898 0.6683149 -0.9136315 0.9404148 -0.7806153
22 0.09272342 -0.22551472 -0.8064112 0.21831241 1.1032574 2.1974547 0.61505795 0.7004053 0.33166108 0.3601442 0.11970644 -1.0862763 0.028505899 0.76333284 -0.24745338 0.37092152
104 0.106777206 -0.18930675 -0.7805737 0.25396392 1.069967 2.0743375 0.6527495 0.6671201 0.31703013 0.36342487 0.14203367 -1.0424895 -0.057344068 0.7536464 -0.22397467 0.40494344
75 0.65803087 0.016199429 0.18778338 -1.495165 0.80283725 1.4877133 0.43334207 -0.5290478 0.5273931 0.9221768 -0.5945964 0.14843017 0.66700035 -0.9492369 0.8848369 -0.7162083
52 0.80192846 -0.3617076 -0.13264741 -1.8515049 2.4573567 0.3355453 -1.0248382 1.7459308 1.4754484 1.8137918 0.48822397 -1.1355399 0.08159992 -0.9611074 0.011154419 0.5142479
80 0.3921046 0.096074015 0.07585302 -1.4194719 0.8105581 1.1205039 -0.5930473 -0.33556756 0.8397103 1.8846997 -1.5579766 -0.9413462 -1.3523577 -0.4731222 -1.89521 0.9232014
39 0.685481 0.0075479085 0.17797254 -1.5287515 0.81564087 1.526663 0.4528724 -0.5582107 0.5573995 0.9816587 -0.66558176 0.20358947 0.7332369 -0.9491658 0.9290939 -0.8119452
16 0.11556267 -0.23150244 -0.80669296 0.30990028 1.1069028 2.154409 0.6332521 0.7127166 0.25934 0.30902418 0.19302894 -1.0649877 -0.02848269 0.79985815 -0.24853423 0.43104187
73 0.42517078 0.053816553 0.052727155 -1.3561622 0.82352126 1.197194 -0.5533815 -0.27828342 0.7847849 1.8187767 -1.5145061 -0.93999296 -1.2905347 -0.45984983 -1.7988604 0.8811993
58 0.7023067 0.017058015 0.19208914 -1.453569 0.8070131 1.5171608 0.46471423 -0.60010725 0.556039 0.92580575 -0.60888934 0.17720465 0.7167036 -0.9283475 0.9599399 -0.76358235
152 0.06367236 -0.23920652 -0.69723856 0.22687972 1.0360358 2.0501506 0.6198374 0.644932 0.2711591 0.31886366 0.13134699 -0.990358 -0.010451767 0.7465244 -0.23275115 0.41215596
27 -0.13742787 1.0939015 -1.2465444 -2.486577 -0.58416325 2.2882621 0.15441044 -0.83595985 -0.75141984 0.961813 -0.25885177 -1.3106608 -0.65643007 0.14097485 -0.47275642 0.09104548
72 -0.42586488 -0.8024382 -1.1096733 -1.4001095 0.29210258 1.8650571 -0.50628245 0.23961179 0.97874045 0.9990056 2.0170386 -0.41471595 0.084122695 -1.5263004 -0.5535312 0.13539337
28 0.038845077 -0.20325698 -0.7726359 0.336748 1.1307274 2.1719441 0.62712747 0.69795173 0.33264616 0.32146984 0.15348025 -1.0949632 -0.0034344825 0.8685451 -0.21679579 0.39481485
70 0.73926693 0.0021896244 0.19469611 -1.6163687 0.80227125 1.5906678 0.45140097 -0.6488288 0.50565535 0.97343385 -0.5987188 0.18767378 0.6936263 -0.93258315 1.0003446 -0.80530256
103 0.65399075 0.04279851 0.14733516 -1.4752345 0.7882405 1.4719373 0.40522027 -0.56540334 0.5831325 0.9145297 -0.61350304 0.16139601 0.6380924 -0.95735806 0.8965733 -0.7274425
38 0.31953377 0.046201278 0.076132245 -1.2327356 0.69778025 0.9266722 -0.5183347 -0.28259024 0.7986152 1.6923693 -1.4290653 -0.88367045 -1.2976806 -0.45307177 -1.8311335 0.88083494
