131 16
112 1.2465737 0.654609 -1.352621 0.3167631 1.0995964 0.60985625 -0.07190643 0.83525276 -0.7856154 0.70326763 0.5858092 0.4311097 1.385252 -0.15462813 0.29642552 -0.8582844
64 0.6656691 0.57596296 -0.09655235 -0.6584786 -0.8884078 -1.2804377 -0.019371573 -0.59303725 -0.59535927 1.3735486 0.34825727 0.692883 0.22939721 -1.1706649 1.3458679 -0.14808871
164 1.223412 0.66878194 -1.2832836 0.3050752 1.0059454 0.62305504 -0.13428025 0.84376377 -0.82329994 0.7227836 0.57836396 0.48241222 1.404844 -0.17389712 0.26018894 -0.88892084
128 1.18668 0.59785455 -1.2074714 0.2618984 0.9644721 0.58930415 -0.11772101 0.7938191 -0.7642648 0.69860363 0.6095108 0.4110398 1.3825727 -0.20094489 0.2801655 -0.80079955
78 1.2235339 0.6203893 -1.3036605 0.29834297 1.0270761 0.64316875 -0.09133766 0.84930766 -0.79242265 0.6971428 0.6094005 0.46574843 1.4303681 -0.1804683 0.2860547 -0.87750363
16 1.2227732 0.6299854 -1.3275045 0.30516446 0.96293044 0.5595254 -0.07744298 0.83716 -0.81269604 0.7191542 0.575944 0.48596802 1.3886592 -0.15366706 0.31031042 -0.8967767
70 0.66625977 0.6377889 -0.035937436 -0.68193954 -0.87516373 -1.3151029 -0.053174775 -0.611507 -0.54829985 1.3821989 0.31120518 0.7059494 0.23118962 -1.2626306 1.368417 -0.23874262
109 1.204319 0.60257584 -0.8433679 0.7971493 -1.7011504 0.67068064 -1.9659244 -0.93274754 -1.8103392 1.0987091 -0.5273476 1.9215928 0.55144966 0.58812946 0.35727295 -0.4359272
7 1.2227271 0.64651453 -1.3158442 0.2924841 0.9406628 0.60723346 -0.10398124 0.84203243 -0.8270266 0.730443 0.5846509 0.4606606 1.4001598 -0.17140059 0.28031492 -0.86491495
35 0.6066219 1.6222066 -1.3028383 0.7984487 -0.8421646 -0.048487905 1.2826291 -1.6449015 -0.46297544 1.7613391 -0.17428215 1.5098616 0.7105167 -0.47415462 -1.1070298 -1.6827991
100 0.7015078 0.6451997 -0.07908733 -0.74522924 -0.976963 -1.326723 -0.028919833 -0.61124325 -0.61918634 1.4404728 0.30801004 0.7256248 0.24104054 -1.2588071 1.3925533 -0.25006175
158 1.2265224 0.65889305 -1.34152 0.26279384 0.9881679 0.57015026 -0.08620252 0.86670965 -0.83015454 0.706029 0.5551801 0.474134 1.3992965 -0.19510198 0.270196 -0.88382035
10 0.5208247 1.4019481 -1.1488981 0.72261477 -0.7310075 -0.027756318 1.1662307 -1.4532017 -0.3706378 1.606851 -0.17860483 1.2977796 0.70191103 -0.4426253 -0.982459 -1.5642807
29 1.1754372 0.6448021 -1.3052682 0.3081446 1.002242 0.59714735 -0.11152504 0.8674623 -0.8079675 0.69272864 0.5674184 0.4536015 1.403681 -0.16978262 0.25679222 -0.873952
142 1.1438344 0.6223042 -1.3297017 0.28334296 1.0238729 0.53712946 -0.14631768 0.8499185 -0.7743801 0.67418003 0.5428909 0.45333868 1.3166467 -0.21125612 0.2599898 -0.86854225
42 0.69928855 0.6201041 -0.0917162 -0.6970591 -0.91880965 -1.3394281 -0.01310636 -0.63722306 -0.59655404 1.4174665 0.30328533 0.7170095 0.25122356 -1.2682282 1.370931 -0.23755752
76 1.2422205 0.64916676 -1.326834 0.30238467 0.9943158 0.53854793 -0.1662065 0.84547424 -0.8113956 0.699181 0.613671 0.45182166 1.3812815 -0.20948124 0.28113955 -0.86981803
55 1.1808618 0.66564536 -1.2953817 0.28492224 0.9972404 0.5986982 -0.12994315 0.8636115 -0.7961088 0.68372935 0.5770413 0.44815627 1.3744118 -0.17608453 0.30466652 -0.86771464
53 0.70001787 0.6438564 -0.04799929 -0.6993062 -0.868691 -1.3094208 -0.040025078 -0.59351486 -0.5652847 1.4004176 0.34334645 0.70144707 0.22200249 -1.2759794 1.390053 -0.20525344
39 0.6892062 0.6495145 -0.051398143 -0.7237426 -0.96273077 -1.3348187 -0.067932196 -0.6108104 -0.59745663 1.3687292 0.3329553 0.75117075 0.21032861 -1.2921319 1.4076778 -0.25885773
66 0.6571865 0.6303944 6.446362e-05 -0.77163464 -0.9422367 -1.359111 -0.020964153 -0.6295366 -0.5916708 1.419402 0.31452483 0.6426048 0.19022943 -1.3121743 1.3965404 -0.19326317
61 0.4008237 -0.037933033 -2.0557468 0.4241231 -0.15017383 -0.103073046 0.72752756 -2.4974236 -1.1088403 1.958726 0.98865676 -0.37394252 1.4909335 0.17054306 2.4364507 0.48876312
151 1.1667768 0.6321809 -0.85945606 0.83114904 -1.7486293 0.64242333 -1.8807565 -0.90651155 -1.749597 1.0345252 -0.44293675 1.8317343 0.5626346 0.5580372 0.30241144 -0.50636125
155 0.6896768 0.6351262 -0.01908607 -0.725798 -0.9458939 -1.3222532 -0.07232242 -0.6214864 -0.5797278 1.3839307 0.33815417 0.70850176 0.25608662 -1.2757827 1.3565528 -0.27889258
105 1.3663613 -0.067064576 0.15699373 0.4541857 0.6800665 1.2967709 -1.9452658 -0.89962316 0.00821984 1.8870264 1.0435615 1.4859307 1.934457 -1.6610302 1.4799112 0.9416841
143 0.6085351 0.5864926 -0.056836214 -0.7265312 -0.92989403 -1.29832 0.0059156218 -0.6481683 -0.5971471 1.3516417 0.25960737 0.7142887 0.20955674 -1.2232144 1.3398689 -0.20128286
146 1.7804409 2.689263 -1.0998292 -0.21681438 1.3864591 -0.32745343 -0.58681697 -0.92460376 -0.8590382 3.013881 0.47255754 0.8137905 0.8286485 0.8398522 -0.557857 0.92799574
44 1.1632289 0.6514046 -1.3169523 0.28214225 0.97847676 0.5795385 -0.1364841 0.8091455 -0.798814 0.69872326 0.5785894 0.45585176 1.3563906 -0.18261452 0.30332887 -0.9224749
18 0.8625796 0.9058091 -0.19770738 1.198335 -0.08695637 -1.7339114 -1.623001 -0.479997 -0.477348 -0.98060477 1.0923703 1.4342399 2.2058098 -1.2397501 1.3708781 -1.5133148
80 0.64162695 1.6085068 -1.322859 0.78606725 -0.83048725 -0.061056446 1.229905 -1.551343 -0.4543218 1.7747903 -0.12528594 1.5263826 0.79692256 -0.5080027 -1.0528675 -1.6610706
84 0.6909126 0.6805377 -0.033448905 -0.7503062 -0.9007533 -1.3059102 -0.050091747 -0.57810587 -0.60688347 1.3753415 0.35164762 0.7638135 0.17409846 -1.2583437 1.4064351 -0.20824929
108 0.63009673 0.5866013 -0.071388565 -0.65434575 -0.8620696 -1.2199442 -0.08322044 -0.5870265 -0.5280861 1.3102349 0.33086511 0.68283886 0.23643978 -1.166136 1.248809 -0.19984677
152 1.1627098 0.68575233 -1.3458779 0.3072546 0.9836159 0.5855972 -0.053075653 0.8518961 -0.8447983 0.6818872 0.58651733 0.47182235 1.3263508 -0.1948403 0.22437231 -0.8671614
171 1.1475382 0.64213496 -1.2772406 0.29295114 0.9379335 0.567449 -0.08713361 0.77004606 -0.78543246 0.6250716 0.50697184 0.37858227 1.3114941 -0.16368428 0.2413143 -0.8283097
162 1.3169638 -0.0800024 0.1268601 0.38888124 0.65239334 1.1891044 -1.8020542 -0.76598316 -0.0039432393 1.7231864 1.0092342 1.3811461 1.8283248 -1.5001708 1.3889267 0.8596794
110 1.2718742 -0.06505806 0.15239714 0.34951097 0.6929246 1.1593064 -1.7864696 -0.7941152 -0.027364174 1.7104914 0.93633765 1.3691758 1.7732502 -1.4595454 1.3570255 0.8728146
133 0.69969094 0.61187494 -0.029642373 -0.73444235 -0.9373078 -1.3188213 -0.06631117 -0.6395094 -0.5850035 1.4273586 0.34104085 0.7273492 0.18044336 -1.3086181 1.4592763 -0.2238902
9 1.1410719 0.67385226 -1.2896234 0.29087684 1.0203776 0.6115405 -0.09872601 0.84681565 -0.73930377 0.6344365 0.5480423 0.3958915 1.3344272 -0.10973062 0.20786484 -0.8505044
139 1.161587 0.65699977 -1.2567967 0.25698906 0.92947733 0.5426077 -0.09782333 0.78131914 -0.783809 0.69230974 0.5867581 0.4287552 1.3564435 -0.17355423 0.30199134 -0.7912717
174 1.8689543 -0.6245589 -0.7812741 0.6794736 -0.60084337 0.7908587 0.98528486 -0.07337705 -2.031627 1.8396415 -0.32609355 0.8193398 2.2296894 -0.18827263 0.19050334 1.6438416
23 0.6709879 0.6467345 -0.045932967 -0.68852425 -0.9253348 -1.2682613 -0.07091991 -0.592539 -0.5732256 1.3880088 0.30580595 0.70427006 0.2161279 -1.2353823 1.3344371 -0.24785767
123 0.39633483 -0.042289786 -2.0776162 0.36525834 -0.08246456 -0.098309696 0.73922265 -2.4980016 -1.0669373 1.9875383 0.95930314 -0.38039947 1.4667188 0.18181297 2.5010228 0.5516261
65 0.62875223 0.61163425 -0.040308625 -0.71611166 -0.90935445 -1.2846164 -0.032182973 -0.61449075 -0.5676334 1.3014672 0.28619114 0.715399 0.1816968 -1.219009 1.2915837 -0.23671925
24 1.2445589 0.68332654 -1.3554007 0.28406587 1.0678449 0.58440405 -0.13928023 0.8341827 -0.7975698 0.7408995 0.5748346 0.4973981 1.3446991 -0.17812164 0.2282117 -0.87924176
97 1.1747968 0.65031785 -1.2889919 0.25553602 1.013589 0.5119986 -0.11621522 0.87495816 -0.81700206 0.6827971 0.56661844 0.42464834 1.3673388 -0.17040181 0.25054848 -0.82706743
122 0.6641066 0.652655 -0.056793503 -0.7223023 -0.8901466 -1.2899635 -0.0884557 -0.5615638 -0.57812124 1.3145378 0.3654357 0.690143 0.20441067 -1.2457755 1.4019346 -0.24272849
37 0.6979036 0.6318965 -0.0906077 -0.7219428 -0.9322493 -1.2661277 -0.07451884 -0.6178735 -0.5670857 1.4010586 0.2993764 0.68556154 0.1845334 -1.1991798 1.3660724 -0.22117767
165 0.68623435 -0.5897404 -0.38645297 1.4887351 -0.94658154 -0.024092607 1.7448211 -1.0074209 -0.017892022 1.2541195 -0.28689122 0.7957571 2.8477404 -0.9439608 0.78408265 -1.9797882
85 0.7669334 -0.9942562 -1.5878431 0.2709554 -1.2682579 -1.8130585 0.7914093 -0.53972834 -1.6843641 1.353356 2.1625786 1.1073185 1.8443087 -0.4696931 -0.37582147 1.0913997
119 0.63692725 0.6118965 -0.10149512 -0.6892152 -0.8944981 -1.2947313 -0.035521872 -0.6412487 -0.5560754 1.4153306 0.33023348 0.6750471 0.24621299 -1.2216172 1.3377591 -0.21522413
75 0.7013218 0.6301107 -0.0505349 -0.7008674 -0.897725 -1.2539288 -0.053009283 -0.628771 -0.5399267 1.3676946 0.34205613 0.67938846 0.24519382 -1.2611969 1.2822062 -0.16998002
148 1.7435849 2.5838292 -1.0729249 -0.16985638 1.2855812 -0.3513093 -0.50000644 -0.9260262 -0.8874253 2.8830376 0.5114568 0.8338004 0.8346384 0.76095307 -0.48237494 0.8923128
33 2.1103854 1.305437 0.12582992 0.76488405 -2.1256163 0.2927293 -1.0400681 -0.71729237 0.007214878 0.7738978 2.2069335 -0.5140455 2.541049 -0.27319753 0.61815554 -0.4297526
5 0.6732582 0.6151903 -0.04096421 -0.7217056 -0.92191213 -1.242942 -0.0746452 -0.6146849 -0.5587643 1.4114752 0.28782186 0.6861842 0.23002434 -1.2739248 1.3995191 -0.18665288
25 0.66695637 0.60197675 -0.04867586 -0.7057445 -0.8956944 -1.3456677 -0.027973738 -0.5858126 -0.6393781 1.3956491 0.3229757 0.75800806 0.21575683 -1.2595601 1.3520336 -0.20425054
154 1.2232083 0.63231003 -1.3482023 0.27211368 1.0043205 0.5660711 -0.152416 0.8305239 -0.8609237 0.7076843 0.58532685 0.48806852 1.3688984 -0.17748381 0.32271892 -0.9257175
180 1.2521136 0.6645986 -0.88671374 0.8969232 -1.8454955 0.7430876 -2.0866976 -0.9542499 -1.9300792 1.1333187 -0.5635151 2.0245814 0.586254 0.6220723 0.37203342 -0.4951827
170 0.55516416 1.4916717 -1.1670618 0.72642916 -0.73618037 -0.11035079 1.2355639 -1.4717548 -0.42882824 1.6330719 -0.20557137 1.3562611 0.67303324 -0.46656677 -1.0461224 -1.5908709
160 1.2187581 0.6121888 -1.2987995 0.27527145 1.0024314 0.6267971 -0.098979026 0.82178676 -0.765146 0.68238354 0.5560527 0.43961132 1.381009 -0.20989309 0.27967831 -0.83651185
125 0.76752675 -1.0348586 -1.6490303 0.25220138 -1.3223044 -1.953126 0.8917782 -0.5935006 -1.8005526 1.4577361 2.20097 1.1331863 1.8544719 -0.50533634 -0.37395716 1.144916
134 0.6785224 0.56590426 -0.024190145 -0.7008853 -0.87517047 -1.2694609 -0.087087855 -0.57080793 -0.575471 1.3792747 0.35494646 0.71891886 0.21839494 -1.260202 1.3965026 -0.21301134
141 0.88797146 0.24231789 -1.6470172 0.6863498 0.39093325 -0.68504333 -0.27026737 -0.2859619 -2.4002824 -0.18516196 -0.75518364 1.8835508 0.09955034 -2.14236 1.3581868 -1.5683725
32 0.9452473 0.18651064 -1.6951456 0.7251273 0.48091018 -0.78950644 -0.32820845 -0.37764564 -2.6096025 -0.26562113 -0.8916698 1.9012448 0.05089955 -2.2787273 1.4003805 -1.6704515
56 0.5873837 1.5671978 -1.2998009 0.7854006 -0.76105684 0.0138613125 1.2830446 -1.5122756 -0.35015535 1.6772254 -0.1689431 1.4273369 0.66163534 -0.44822705 -1.1840777 -1.6637385
81 -0.27027005 0.72236454 0.40667439 0.5414216 -1.6515836 -0.15066828 -0.8112897 -0.8617794 -2.818786 0.9769049 2.6350806 1.3032916 1.5025959 0.6584432 0.7016547 -1.0193545
17 -0.27551785 0.6214085 0.3883284 0.4676688 -1.5576569 -0.094402544 -0.77104414 -0.8304986 -2.6672373 0.9110116 2.4570346 1.3033158 1.4562742 0.6905369 0.71403015 -0.94802374
130 1.9049923 -0.6297495 -0.80087423 0.61476034 -0.5810395 0.84728 0.8885119 -0.112677105 -2.0604794 1.8821982 -0.25166187 0.76275617 2.231891 -0.15921319 0.2314208 1.6672298
156 0.93040955 1.8990822 -1.4423118 0.23295973 -1.6498235 -0.78130484 0.7438182 0.89599377 -0.34702706 0.9072817 1.4433695 3.0418072 0.86247796 -1.6811261 -0.79684 0.6590701
34 0.92578655 1.9024131 -1.4994589 0.20509595 -1.6819079 -0.7956192 0.7629301 0.9531334 -0.33014995 0.85969925 1.524337 3.061679 0.82092696 -1.6309745 -0.8096489 0.786675
124 0.65493965 0.9330465 0.7225253 0.7550745 -0.33728477 -1.5247573 0.36843917 -0.6123923 -2.3785262 1.5248256 -0.84925765 -0.03940851 2.5492618 -1.8811765 -0.7101676 -1.0376723
115 0.62513477 0.9755181 0.8065972 0.7523283 -0.31751984 -1.6617686 0.4576817 -0.6780013 -2.5161197 1.58048 -0.92867094 -0.07023061 2.6184063 -2.0282881 -0.7931298 -1.1594559
127 0.5900474 1.5673445 -1.2401824 0.7081479 -0.80467355 -0.08231545 1.2390273 -1.5058521 -0.37766287 1.6523098 -0.18082188 1.41915 0.69244355 -0.49680433 -1.1055394 -1.6534501
114 1.9926277 1.21063 0.17203061 0.7361593 -2.0686243 0.24135989 -1.0013962 -0.681573 0.07874953 0.71818423 2.1127539 -0.53466415 2.3842196 -0.19989407 0.5745674 -0.39604998
6 1.1926696 0.61116177 -1.2688996 0.27372524 0.91384864 0.5200733 -0.1581966 0.78156 -0.8192224 0.71313435 0.56908363 0.42824084 1.3686154 -0.1991914 0.2933603 -0.82290477
13 0.79531306 -0.63743985 -0.3958123 1.4887654 -0.9379587 -0.049701486 1.821981 -0.99355686 -0.011150291 1.3156261 -0.28697723 0.8383653 2.9537506 -0.989104 0.83286613 -1.9955715
26 1.9860082 1.2709184 0.15963688 0.6902455 -2.0569625 0.30955067 -0.96669567 -0.66024756 0.023746528 0.7113264 2.1040354 -0.46577713 2.4911766 -0.2236182 0.58909756 -0.37920865
47 1.1624737 0.60607886 -1.2869935 0.30690384 0.9205851 0.52319354 -0.10921343 0.8019273 -0.790354 0.6998978 0.5845617 0.45928118 1.334137 -0.20127153 0.24401252 -0.83281076
52 0.8593423 0.87574816 -0.24347743 1.2403592 -0.11643664 -1.6321558 -1.5653402 -0.48890823 -0.49954423 -0.82625467 1.1106819 1.3492112 2.2155476 -1.1541632 1.3115567 -1.4873949
159 0.725765 -1.0530843 -1.5497435 0.31731814 -1.2919463 -1.9211166 0.84626406 -0.50723964 -1.743891 1.3655384 2.141107 1.0697136 1.8679098 -0.5274968 -0.33881766 1.1352301
172 0.6662025 0.59534633 -0.11074424 -0.69356024 -0.91870385 -1.3009651 -0.024052477 -0.60804915 -0.6078399 1.3921685 0.33036476 0.7443412 0.20663667 -1.2610937 1.3716682 -0.15908356
73 0.61436754 1.5294464 -1.256037 0.7055714 -0.7518476 -0.035169255 1.210891 -1.4430989 -0.3891241 1.6840606 -0.14765073 1.3951204 0.72869766 -0.45467767 -1.0474243 -1.6064572
136 0.7728172 -0.6055978 -0.4655982 1.538631 -0.9411891 -0.07361836 1.8372178 -1.0357313 0.009992946 1.3261458 -0.29716632 0.885485 2.9745414 -0.9621045 0.85420334 -2.086383
12 1.7785735 -0.6759199 -0.75551367 0.6048757 -0.49152714 0.835732 0.9568657 -0.080945894 -1.9135379 1.7561849 -0.33303592 0.67044 2.1369798 -0.11672918 0.15912141 1.6665694
157 0.62524694 0.58339685 -0.07521902 -0.68089366 -0.83172584 -1.2017441 -0.06863585 -0.5893615 -0.5553149 1.2791088 0.32242468 0.6989047 0.19435592 -1.2037879 1.2617971 -0.19847164
135 1.1664593 0.59719515 -1.2122222 0.28902975 0.8957558 0.5446019 -0.08660021 0.7730521 -0.7936041 0.65709615 0.53383183 0.46806407 1.2828711 -0.18463063 0.25988457 -0.8264948
106 1.878778 -0.67539275 -0.75717694 0.6459177 -0.5068908 0.89662975 1.029602 -0.07777148 -2.0845566 1.8690156 -0.36428088 0.7536382 2.2031772 -0.15793858 0.19746889 1.7259276
129 0.7192909 0.6239911 -0.05262451 -0.7260887 -0.84540987 -1.2718146 -0.07291124 -0.5433179 -0.5881578 1.3466296 0.32395142 0.65701693 0.22417754 -1.2208662 1.3730752 -0.23289418
54 1.2303271 -0.0098846415 0.019966658 0.40126437 0.5392057 1.0469667 -1.6489593 -0.81147474 -0.10627419 1.705261 0.9266139 1.3510917 1.7240905 -1.4189457 1.2595334 0.80455714
145 0.62589324 0.59470326 -0.059822723 -0.7521943 -1.0053133 -1.3593513 0.020546895 -0.5927759 -0.56164557 1.373231 0.3444253 0.6794521 0.18737127 -1.2832075 1.340447 -0.24198532
178 0.61601555 0.59114873 -0.0040767267 -0.7187876 -0.8865403 -1.2851827 -0.02357087 -0.6059314 -0.5279482 1.3315978 0.29204282 0.6573348 0.1942995 -1.2031491 1.3464842 -0.19929832
57 1.3660606 -0.016012311 0.10834261 0.4310376 0.699624 1.2327996 -1.826588 -0.77709645 -0.032678902 1.7935882 0.9715427 1.426907 1.8150734 -1.5433404 1.371114 0.8688362
104 1.2111077 0.6018593 -1.2740498 0.28732148 0.8843755 0.5092574 -0.07174564 0.7500622 -0.7872172 0.701418 0.50427824 0.43646672 1.3678519 -0.20601559 0.26572925 -0.806479
40 1.1341442 0.55897194 -0.80883783 0.7948367 -1.6778129 0.6389574 -1.8406204 -0.90236115 -1.7482171 1.0413895 -0.47006312 1.8223119 0.5615364 0.5651099 0.330142 -0.4280669
49 0.63373864 0.5914749 0.00612463 -0.66858035 -0.8647495 -1.224242 -0.013960117 -0.57424 -0.5170177 1.3010305 0.30253777 0.6554001 0.18816356 -1.1789426 1.2773734 -0.25146985
22 1.19122 0.6829417 -1.3508571 0.29870263 1.0317633 0.5883386 -0.0800007 0.80506617 -0.7815284 0.6811225 0.60255015 0.4578337 1.3810672 -0.13812536 0.24636535 -0.85021305
36 1.238284 0.6486384 -1.317683 0.29776847 1.0193862 0.64650035 -0.13935606 0.8620392 -0.7734813 0.71346784 0.56991875 0.43571395 1.3482436 -0.13799523 0.24912922 -0.79977804
28 1.2281702 0.62629205 -1.3608601 0.31629676 1.0836207 0.6279951 -0.09868693 0.856211 -0.8486889 0.7123335 0.5989061 0.46763435 1.3768224 -0.14945896 0.25628042 -0.8552614
82 0.9738392 0.9951904 -0.32210347 1.3101606 -0.08845181 -1.792844 -1.6425292 -0.4593755 -0.52922523 -0.88324666 1.1812077 1.5343916 2.2985885 -1.283811 1.4357897 -1.5929865
58 0.6400092 0.5911537 -0.09363239 -0.67136484 -0.91758025 -1.2724515 -0.009343294 -0.5500924 -0.5600899 1.331578 0.34631255 0.66330755 0.21906833 -1.1842465 1.3106291 -0.20596631
126 0.58300185 0.59592015 0.024665087 -0.69632465 -0.868228 -1.2508386 -0.122289576 -0.5336325 -0.54323775 1.2629446 0.29335752 0.72575176 0.17834139 -1.1919765 1.266141 -0.16745546
166 0.6523288 0.5667788 -0.1278578 -0.63579935 -0.85365987 -1.1535058 -0.058544297 -0.5792689 -0.5710653 1.2856371 0.3829251 0.69627184 0.29083037 -1.1453471 1.2536253 -0.23433237
161 0.59596705 0.52888674 -0.07208857 -0.6494836 -0.8014549 -1.2216858 -0.058110096 -0.55035615 -0.5228595 1.2666843 0.3145731 0.6192321 0.24155533 -1.1937368 1.3107852 -0.18765746
111 1.1692575 0.5553229 -1.2855717 0.2660566 0.9710239 0.56756383 -0.07397578 0.81455624 -0.7839227 0.6192269 0.565733 0.44934604 1.3350612 -0.20569871 0.27881715 -0.81136316
21 1.1799524 0.6197256 -1.2280753 0.26507276 1.0134953 0.5315367 -0.120548666 0.8071946 -0.7862973 0.6589165 0.5317428 0.40268478 1.3288699 -0.19056526 0.26789576 -0.8637636
72 1.0789298 0.60509604 -0.7880061 0.8155472 -1.7377944 0.68164486 -1.9358476 -0.86782753 -1.7535188 0.99882364 -0.48414594 1.8328519 0.530293 0.6359593 0.28159314 -0.41251424
8 1.1654578 0.6161942 -0.84255385 0.8753469 -1.7718638 0.67234755 -1.9593642 -0.8933625 -1.8215092 1.0515785 -0.4457097 1.9623518 0.575155 0.6088988 0.31552824 -0.46501175
121 1.1240525 0.597643 -0.76414984 0.79929656 -1.6375203 0.57619655 -1.7627741 -0.88221246 -1.6834084 1.033843 -0.43813586 1.7964534 0.6058295 0.512548 0.3118852 -0.46627375
101 1.1667869 0.6741613 -1.2659391 0.32003382 0.92104876 0.565323 -0.07284821 0.8027581 -0.7562934 0.6536468 0.54962105 0.39957863 1.3559291 -0.15846893 0.24302188 -0.876802
27 1.3154944 -0.05843296 0.12954375 0.36831206 0.6314877 1.1518486 -1.7977188 -0.7606341 -0.06210472 1.7296418 0.998811 1.3729852 1.7856258 -1.5441208 1.339679 0.84491926
98 1.75788 2.699043 -1.0854003 -0.1813628 1.3840077 -0.3099564 -0.5718984 -0.95906216 -0.85573125 2.947548 0.45368412 0.8329643 0.8119663 0.8842279 -0.58265245 0.94364
176 1.1391437 0.5356578 -1.2401744 0.29576302 0.8757296 0.56592065 -0.05338278 0.76084423 -0.73395884 0.63107634 0.5411488 0.41349775 1.2658764 -0.16061449 0.2850549 -0.7975873
43 0.58797807 1.5333775 -1.1944269 0.7436772 -0.8029165 -0.06866193 1.240979 -1.5604814 -0.44113585 1.6717148 -0.16607709 1.4051683 0.73601466 -0.46854997 -1.0353675 -1.6527383
38 0.5977356 1.4092696 -1.1718489 0.6808035 -0.7363794 -0.08094709 1.1168342 -1.43563 -0.41011482 1.5877362 -0.12895936 1.3680708 0.6847753 -0.45873353 -0.9519722 -1.5255886
48 0.60621715 1.521702 -1.2127066 0.7570021 -0.8144222 -0.088196546 1.1811794 -1.510713 -0.41870016 1.6452148 -0.15721062 1.4230659 0.769607 -0.47495046 -1.0265117 -1.6115655
96 1.1600151 0.64083064 -1.3091354 0.22319871 0.93937576 0.5234429 -0.09418919 0.81898475 -0.76747686 0.68099254 0.59841704 0.4618736 1.3307698 -0.17549299 0.24592635 -0.7539306
59 1.1518773 0.6230518 -1.2136616 0.27203414 0.9212646 0.55431247 -0.108548984 0.80044955 -0.78115 0.66824394 0.5230785 0.48137435 1.316327 -0.1903257 0.2825523 -0.8028105
118 1.1308343 0.61706215 -1.2490752 0.26279363 0.9500781 0.6139315 -0.10131282 0.7931719 -0.73018765 0.67776775 0.5401676 0.39452738 1.3056676 -0.14618719 0.2447014 -0.77094895
89 0.6480083 0.59775853 -0.012216097 -0.70548916 -0.86197424 -1.3392388 -0.06345709 -0.6296813 -0.62789786 1.385535 0.29651648 0.7036682 0.2203018 -1.2398337 1.3653188 -0.22378795
79 0.6343888 0.6094025 -0.0465013 -0.75992656 -0.86733174 -1.3074418 -0.006139329 -0.59256554 -0.5557161 1.3548819 0.35341606 0.70079184 0.2059078 -1.2170739 1.3270587 -0.1707592
88 0.3697575 0.013110795 -1.9276685 0.39967015 -0.13746329 -0.15715021 0.70571756 -2.3323379 -1.0553677 1.8442985 0.9569638 -0.27849594 1.3815862 0.10377684 2.3355436 0.45885548
113 1.1798508 0.5892949 -1.2463311 0.2764499 0.9295076 0.57519495 -0.16373685 0.79667526 -0.76903456 0.59879696 0.6067808 0.41327065 1.3053182 -0.16773115 0.27366462 -0.7872015
102 1.1505913 0.6208091 -1.2496984 0.32176664 0.9119252 0.5827794 -0.035262633 0.7783212 -0.7728478 0.72564507 0.51755095 0.394765 1.3112392 -0.1874982 0.21559215 -0.81849277
150 0.66768026 0.6310903 -0.038977567 -0.7617664 -0.9369811 -1.3180166 -0.04511121 -0.6558748 -0.5946365 1.3671747 0.33843505 0.6878793 0.21183707 -1.251922 1.4102585 -0.18524824
103 0.6500465 0.5468697 -0.026803276 -0.68335766 -0.92203426 -1.2607781 -0.015634289 -0.6026636 -0.6126766 1.360668 0.3296681 0.628326 0.3138425 -1.246648 1.3416344 -0.21085647
63 1.1392816 0.6015139 -1.2737443 0.32088628 0.89834327 0.5840246 -0.0921406 0.82035595 -0.7970267 0.66868806 0.5578664 0.4400096 1.3396231 -0.184658 0.2831864 -0.8752213
87 1.1167662 0.5754107 -1.2159908 0.29287493 0.9232794 0.5813672 -0.10357344 0.7873207 -0.74885106 0.61302483 0.5173212 0.43029815 1.2733557 -0.16119397 0.21515198 -0.8157328
149 0.61169094 0.59835917 -0.025463251 -0.668195 -0.86302006 -1.2232443 -0.09413705 -0.585309 -0.5588942 1.2619354 0.28648663 0.6944279 0.18038674 -1.1818556 1.2490015 -0.22185755
77 1.1112853 0.56391376 -1.2182773 0.28620267 0.93061125 0.56138766 -0.129999 0.7949135 -0.74933934 0.6750988 0.56993884 0.43658727 1.2750244 -0.14019962 0.27163503 -0.7740527
175 0.62684107 0.5724048 -0.050727766 -0.7082292 -0.8942432 -1.2680483 -0.033061728 -0.57992244 -0.5150618 1.3432264 0.35109317 0.6466077 0.21898367 -1.1723223 1.3097119 -0.19655693
74 1.1834445 0.6090408 -1.3029661 0.29929197 0.9990863 0.61592823 -0.12939894 0.8528146 -0.7606734 0.62963307 0.5552821 0.4293013 1.2988687 -0.20502715 0.26664388 -0.83943784
15 1.1149019 0.68225306 -1.2426074 0.26020288 0.9674769 0.5247392 -0.088702396 0.7833044 -0.7298418 0.7182136 0.5264743 0.39854512 1.2820497 -0.1814502 0.24540283 -0.83582264
