131 16
160 0.19359829 -0.522954 -0.6638361 0.10884161 1.1720294 2.1580439 0.47513387 0.6952012 0.22668748 0.40415764 0.049308155 -1.1711669 0.20491348 0.8702361 -0.21672605 0.4617118
157 0.548057 -0.18531838 0.17280594 -1.3206488 1.0492389 1.3111525 0.4983016 -0.6640172 0.53995746 1.1748983 -0.43813726 0.2745491 0.74189556 -1.0651288 0.90506876 -0.8426248
5 0.6143845 -0.20269695 0.16677792 -1.3565373 1.042846 1.3152797 0.48853052 -0.66306204 0.53345376 1.1771828 -0.4403024 0.27411675 0.7592128 -1.0962883 0.9422718 -0.9447995
129 0.6143664 -0.18307658 0.23311277 -1.3939073 1.1002648 1.3784008 0.56300116 -0.71237296 0.538377 1.2500715 -0.4753629 0.33870098 0.8019924 -1.1797645 1.0358248 -0.9623109
103 0.58041286 -0.16586256 0.17266142 -1.4023178 1.1084594 1.3258337 0.52001643 -0.73484224 0.54504573 1.2591885 -0.46327162 0.33291528 0.8369578 -1.1654925 1.0188512 -0.9486937
108 0.5283418 -0.20143883 0.16738662 -1.2283823 0.9733078 1.2427529 0.5043988 -0.6547295 0.45384538 1.0749819 -0.41763818 0.27964094 0.78536445 -1.0212251 0.9557969 -0.88857955
175 0.55003333 -0.19920774 0.14480132 -1.2519336 1.0075599 1.2126439 0.4797346 -0.6417545 0.46455035 1.145275 -0.44533387 0.30175593 0.7393987 -1.0817933 0.8632274 -0.88064796
27 0.16804774 1.0329522 -1.2370934 -2.6684468 -0.45558035 2.7249024 0.52298516 -1.0341058 -0.7454934 1.04891 -0.13855954 -1.3393523 -0.45519066 -0.28498992 -0.41221416 0.23745392
122 0.59193695 -0.21813783 0.15834874 -1.3815213 1.1032715 1.3555807 0.5040213 -0.66755736 0.5368806 1.235034 -0.46179557 0.2589212 0.809787 -1.1576741 0.95645046 -0.9285315
25 0.6541494 -0.14109553 0.20239031 -1.3959235 1.1040659 1.3853476 0.49968418 -0.6843509 0.4971549 1.2397442 -0.4923565 0.28447378 0.8360647 -1.1229895 0.98193866 -0.9178716
47 0.23128669 -0.53647447 -0.6465925 0.12486985 1.1670538 2.199619 0.45859075 0.7188087 0.16586855 0.41309378 0.11700398 -1.2116711 0.17947069 0.8847428 -0.21156763 0.52438843
28 0.21483725 -0.5087436 -0.6298729 0.08739672 1.210972 2.163225 0.41673908 0.6334066 0.25818348 0.4421324 0.11159749 -1.2047887 0.17390725 0.819024 -0.1907439 0.4452668
109 -0.24295826 -1.4603114 -0.9204526 -1.2150326 1.2972935 1.4846236 -0.67814463 -0.48430127 0.6447719 0.521294 2.1050797 -1.0841423 -0.38679084 -1.5206553 -0.18510586 0.27934012
78 0.27165633 -0.5207951 -0.6518538 0.14894554 1.1736505 2.1790373 0.44627044 0.7181648 0.20612685 0.44412172 0.11278126 -1.22338 0.1690636 0.8609323 -0.23969463 0.51710635
164 0.26512772 -0.54519224 -0.66434735 0.10494951 1.2122798 2.1773503 0.45931736 0.6545215 0.21016999 0.4005692 0.10659087 -1.2050549 0.13938221 0.7913505 -0.1983028 0.4315492
66 0.5903866 -0.15329835 0.116407946 -1.3790345 1.0759069 1.3448176 0.5049832 -0.69236064 0.47564706 1.1733152 -0.51255673 0.2983822 0.84756744 -1.107834 0.9713062 -0.92742634
155 0.5572522 -0.16726375 0.19279143 -1.3049271 1.0749509 1.308879 0.46634194 -0.68708587 0.50286424 1.1267776 -0.4743881 0.25308642 0.75183713 -1.0587318 0.9413945 -0.9457932
104 0.2499676 -0.49152887 -0.7042338 0.114955045 1.1858982 2.149847 0.48138487 0.67340815 0.18207888 0.4172368 0.08680874 -1.2133142 0.18050224 0.9000477 -0.18997027 0.4918659
38 0.5749363 -0.16924687 0.08989077 -1.5549362 0.77214694 1.1493222 -0.7065194 -0.35312507 0.813527 1.7739083 -1.3355286 -1.1692379 -1.2753881 -0.4274302 -1.8133417 0.7076293
89 0.62215406 -0.17490344 0.23101525 -1.3944626 1.0399944 1.348442 0.53470373 -0.6864094 0.5558616 1.2274021 -0.523813 0.33011955 0.8612039 -1.1211935 1.0434858 -0.9748818
54 0.14995863 0.9905299 -1.1308434 -2.5448189 -0.46427345 2.5349722 0.44111252 -0.9840248 -0.72865105 0.9770422 -0.11004407 -1.1996042 -0.42128 -0.27476418 -0.42523775 0.21488428
64 0.5777554 -0.17466459 0.12714805 -1.2932405 1.0566689 1.3237747 0.4624606 -0.6328011 0.4641082 1.17187 -0.45552734 0.2498541 0.7354812 -1.0695076 0.906915 -0.87310016
73 0.6016875 -0.17532332 0.11692452 -1.56949 0.8110416 1.1753215 -0.8415248 -0.3618302 0.81946677 1.8594269 -1.4462712 -1.1933209 -1.3308371 -0.36832982 -1.897919 0.7607494
87 0.2004416 -0.49390578 -0.62720674 0.078303285 1.1405908 2.016718 0.42158195 0.64741415 0.21787854 0.37839293 0.10490906 -1.1354988 0.14673276 0.7755869 -0.17632487 0.4271676
33 0.80610293 -0.37087235 -2.1039994 -0.55719537 1.3947141 1.9017409 -0.37563264 -0.2723719 -2.2651932 0.61343294 -1.7086345 -1.6151081 1.3042874 -1.0968661 -0.092635244 -0.4394251
24 0.23481885 -0.4982216 -0.63691264 0.13687895 1.1494361 2.1292288 0.4693611 0.6804284 0.21523282 0.41615218 0.030847222 -1.1729006 0.1611737 0.8371848 -0.20587566 0.45978802
174 0.5453444 -1.0745418 -1.860774 0.081738345 0.7885699 0.38299477 1.096404 0.46740922 0.4840083 2.3941662 0.47362489 -1.992871 -0.6004145 -2.0926404 -1.1963974 0.3792122
85 1.4260966 0.794511 -0.0026606675 0.6839934 -1.1744102 3.011082 0.6297442 -0.3181665 1.0870272 2.044009 -0.73477274 -1.4041508 -0.5717004 -2.1183643 -0.015604712 0.19749314
101 0.2270048 -0.49332553 -0.6508329 0.14208832 1.108321 2.0805433 0.4396594 0.7086654 0.19516735 0.3945838 0.14960559 -1.1720724 0.2173303 0.84739244 -0.17093804 0.47759175
13 1.1014366 -0.3480931 -1.439488 -0.3376974 1.7464833 1.2704922 -1.1733524 1.2879943 1.2220051 0.041429255 -1.4446275 -1.0791631 0.1229784 -2.1016734 -0.8604399 -1.6882038
150 0.5609842 -0.15657617 0.18733722 -1.2617007 1.0157219 1.2844049 0.5122826 -0.66148835 0.4862259 1.1397631 -0.46273944 0.2966991 0.7648615 -1.0412232 0.96470135 -0.89447826
7 0.23102398 -0.49125537 -0.68533146 0.15547411 1.2142218 2.1650183 0.4621361 0.66651815 0.23117474 0.3681696 0.01502911 -1.1678107 0.23274888 0.8201432 -0.18009055 0.4782106
36 0.24824287 -0.4867379 -0.60757613 0.07436417 1.1143042 2.1102486 0.44524938 0.5575317 0.16546988 0.38146707 0.07759699 -1.1308728 0.18565306 0.7960476 -0.19316429 0.41096163
82 0.7726741 -0.53510696 0.20012936 -2.0939143 2.1733375 0.15793271 -1.0770632 1.9395086 1.4577527 1.8888407 0.4492391 -1.2444049 0.20314454 -1.1361586 0.0069694794 0.7014019
10 0.5465699 -0.03873595 0.10353362 -1.5363406 0.63257223 1.0606071 -0.7901211 -0.39229372 0.7358228 1.7478852 -1.4211886 -1.1783535 -1.3677324 -0.36291096 -1.9294517 0.7420662
176 0.21088155 -0.51334214 -0.5966626 0.112737104 1.147214 2.1305616 0.4558276 0.65652704 0.17980015 0.4104055 0.1003592 -1.1691029 0.18978067 0.8558591 -0.19579187 0.4980808
123 2.9728227 0.17893109 0.7420867 -1.4171873 0.15545246 1.8783858 -1.2247533 0.7244737 -0.11193843 2.280375 1.1009743 -1.1268301 -0.4998896 -0.9990863 -0.32689354 -0.2757576
162 0.0899123 1.0555259 -1.2620693 -2.715468 -0.4977115 2.6744342 0.50712246 -1.0098194 -0.7814109 0.96284044 -0.0888988 -1.2995167 -0.3874939 -0.19913255 -0.3780395 0.2692611
72 -0.26134688 -1.558977 -0.937386 -1.3109769 1.4215596 1.5670059 -0.76400644 -0.5148517 0.67754215 0.55560535 2.26652 -1.1332302 -0.41567457 -1.5760726 -0.16080996 0.2777974
55 0.24979486 -0.47272688 -0.5992724 0.113587745 1.1344107 2.1018686 0.44176164 0.66767156 0.17869543 0.38818854 0.049116082 -1.1451296 0.16884169 0.7989021 -0.15815322 0.4537995
114 0.7897133 -0.43476856 -2.0079277 -0.57465816 1.331129 1.8413206 -0.31274888 -0.2303673 -2.2388604 0.6080659 -1.658198 -1.5206246 1.2618582 -1.0227578 -0.09409696 -0.33542073
128 0.25502387 -0.5404386 -0.63357013 0.089841865 1.1862625 2.1031542 0.4617839 0.6711639 0.21027273 0.37048185 0.09590644 -1.1329538 0.14058535 0.8009778 -0.17567098 0.47533816
135 0.19582556 -0.5470343 -0.7098228 0.12600356 1.146254 2.2044837 0.4466489 0.63496363 0.17437455 0.4216309 0.09974821 -1.2148161 0.21902473 0.8797674 -0.18659563 0.4988951
74 0.21024115 -0.5403491 -0.64530784 0.15025295 1.1631123 2.160079 0.4706758 0.6505353 0.19244526 0.37078187 0.11089419 -1.2113646 0.2026344 0.8569843 -0.24079454 0.44284293
172 0.56998336 -0.16562513 0.1387362 -1.2958562 1.0212885 1.2573376 0.49954656 -0.7004218 0.48251197 1.1450506 -0.41752714 0.3052824 0.756194 -1.0696626 0.9098081 -0.88769233
111 0.16030627 -0.5056648 -0.6335795 0.08737723 1.1403612 2.077222 0.4278294 0.6734414 0.22888683 0.42072943 0.12910715 -1.1957312 0.13195889 0.7862542 -0.2680164 0.47398877
98 0.598177 -0.56887555 0.9132869 -0.86117196 1.5905508 2.0643046 -0.35545748 -0.3951551 0.10413777 -0.30118182 -0.23435839 -1.4226502 -1.9528362 -2.4957697 0.7414884 -0.15718083
88 2.7694917 0.14427629 0.734102 -1.267499 0.08537939 1.705632 -1.1096425 0.70208323 -0.14740965 2.1219084 1.0179206 -1.0321314 -0.46678886 -0.8686678 -0.30550355 -0.20408636
40 -0.34958106 -1.5806807 -0.9222595 -1.2412125 1.3920805 1.434691 -0.7115454 -0.5274906 0.66871804 0.5003833 2.2736328 -1.1056039 -0.4354326 -1.5810387 -0.20712255 0.30351803
22 0.22984444 -0.50237054 -0.6507727 0.09983993 1.1577483 2.1386416 0.459377 0.68316513 0.20828594 0.3931633 0.084443666 -1.1815614 0.23846188 0.8551106 -0.18723701 0.44276467
48 0.5713015 -0.10884023 0.0837514 -1.5572672 0.7541252 1.1202493 -0.74728787 -0.32916972 0.81199336 1.7988456 -1.3892249 -1.206764 -1.2517862 -0.38013712 -1.8138317 0.7244723
15 0.19723721 -0.50588804 -0.6678182 0.17252897 1.1540085 2.113863 0.5092312 0.64436555 0.18978946 0.40122098 0.07856004 -1.1750962 0.21074425 0.85981166 -0.19821885 0.48753467
125 1.4061973 0.7899831 -0.0046243966 0.681058 -1.185233 2.9924645 0.6353114 -0.30050996 1.0735602 2.0118408 -0.7149015 -1.3239286 -0.52729577 -2.0383 -0.0040144054 0.17939913
75 0.5821616 -0.14018764 0.17858197 -1.3095087 1.0355244 1.3065059 0.501527 -0.611561 0.4536301 1.178316 -0.42458856 0.2656601 0.7814194 -1.0597624 0.93230695 -0.88422066
58 0.580897 -0.18284282 0.17786299 -1.2310336 1.028349 1.178622 0.4601341 -0.66713595 0.45487198 1.1483217 -0.43561053 0.2777246 0.76088506 -1.0470035 0.9020871 -0.88342345
141 -1.2398702 -2.3470995 0.45694384 0.021403896 2.0800924 1.8223321 0.52711445 -0.8817165 1.1299717 0.69578797 -1.9207314 -1.3763803 0.8196429 -0.9070227 -0.690173 0.55654806
32 -1.2285006 -2.356804 0.49561113 -0.036240626 2.077347 1.9559416 0.6051643 -0.9009863 1.1899016 0.7415505 -1.9377265 -1.4416082 0.82085824 -0.90494394 -0.72860986 0.5951799
6 0.22243294 -0.50477713 -0.60816693 0.11425908 1.1427513 2.1091015 0.46723825 0.66342485 0.21487434 0.35953107 0.08272776 -1.1570301 0.1780288 0.83578694 -0.18089904 0.44950548
170 0.56222165 -0.103077985 0.06356265 -1.5634103 0.75458884 1.1307272 -0.7441248 -0.3563542 0.794389 1.801722 -1.3865048 -1.1871699 -1.2314065 -0.3775662 -1.8416933 0.7391968
81 0.6945842 -0.85000765 -0.96689385 -1.169481 0.7501787 2.2092853 0.9048351 0.7478961 0.18110907 0.101037726 -1.5889208 0.46529114 0.6003674 -1.7322061 -1.4888241 1.755345
17 0.8603681 -1.0276798 -1.0854005 -1.3521358 0.88281 2.4878893 0.9996446 0.88880527 0.15325235 0.12482555 -1.8407539 0.5853365 0.7088075 -1.9317412 -1.7567767 2.0621085
35 0.506743 -0.16105676 0.13940896 -1.4845679 0.74434245 1.0315495 -0.77514184 -0.36527872 0.7906795 1.7479271 -1.3887779 -1.1614509 -1.3128164 -0.3619924 -1.8330698 0.6921888
12 0.5298373 -1.0932125 -1.8300433 0.058604784 0.86314154 0.37830362 1.0671358 0.47585484 0.5005933 2.3214102 0.53688025 -1.9902219 -0.68718773 -2.0787287 -1.1996496 0.3903664
156 0.27881476 -0.075779155 -0.3868481 -0.47239515 1.6569521 1.4900894 1.9366904 0.7556171 2.0287983 0.39992964 -0.47381163 -1.0216144 -2.0683327 -1.7214693 -1.1311183 -0.90458167
34 0.3225627 -0.087715596 -0.4442769 -0.47577566 1.6745255 1.551301 2.052796 0.8299639 2.146116 0.42829475 -0.54380244 -1.1617185 -2.149799 -1.7644666 -1.174979 -0.9222615
124 2.2576334 -2.008715 -1.0802406 -0.89521104 2.502121 2.3092618 -0.8918577 -0.015939916 -1.3944061 1.0338306 0.9513704 0.68120027 -1.2575446 -0.09290235 0.055255827 -0.20141733
115 2.1631646 -1.9213091 -1.0263808 -0.79235786 2.3874338 2.2336576 -0.84297264 0.013663721 -1.3491967 0.9974089 0.8758274 0.63919115 -1.1252835 -0.113773875 0.013481462 -0.0916743
53 0.532927 -0.09925631 0.14358118 -1.2975615 0.95938605 1.2979686 0.5019139 -0.6731623 0.4788987 1.1502033 -0.44631112 0.25517008 0.7330407 -1.0466651 0.92561924 -0.8867589
148 0.5927642 -0.5881659 1.0601616 -0.8942086 1.6599147 2.1371386 -0.38721427 -0.49932286 0.13201152 -0.35676986 -0.20050344 -1.4713743 -2.1587648 -2.7584238 0.8092648 -0.22578959
146 0.55104816 -0.6095313 0.99159354 -0.9451647 1.6645867 2.1829653 -0.36843842 -0.49103102 0.1190536 -0.3708004 -0.21317652 -1.49202 -2.1394782 -2.692214 0.81477743 -0.18895273
80 0.5912688 -0.14974657 0.14499734 -1.5907376 0.8191201 1.1720644 -0.78733134 -0.38819695 0.8551142 1.8322383 -1.4313283 -1.1593634 -1.3292696 -0.4462379 -1.8688892 0.7300863
44 0.26042762 -0.4996894 -0.59370613 0.11550735 1.1574892 2.1122491 0.45427808 0.63460606 0.1701315 0.42558235 0.11617974 -1.1279521 0.15691178 0.8722443 -0.21135771 0.4882891
121 -0.3513971 -1.5713344 -0.9854939 -1.3086076 1.3533581 1.5291405 -0.7592853 -0.5778194 0.69330853 0.5214832 2.3526552 -1.1086597 -0.42060676 -1.6487851 -0.21659365 0.2970626
96 0.18416075 -0.5296297 -0.6125532 0.120831564 1.0872654 2.083398 0.44585007 0.6235007 0.17522347 0.3601829 0.12747706 -1.1584077 0.1416783 0.76167506 -0.16921148 0.48849142
143 0.6049118 -0.16627288 0.12229002 -1.3273512 1.0281566 1.2984654 0.52191144 -0.69222605 0.50081366 1.1940542 -0.45260084 0.31368583 0.81899095 -1.0484571 0.9191559 -0.91910547
21 0.23778152 -0.5097879 -0.6434094 0.13255927 1.1649079 2.1463661 0.46035576 0.6943689 0.21805207 0.36977434 0.07212356 -1.1701008 0.1892927 0.8571835 -0.18540213 0.47189543
152 0.23066029 -0.529028 -0.6300453 0.049155425 1.1795323 2.1874022 0.49014193 0.6466642 0.1961204 0.40855408 0.09606503 -1.157494 0.16312663 0.8338411 -0.20524202 0.4697073
63 0.2629588 -0.54666805 -0.6300494 0.07546963 1.168599 2.17602 0.45576823 0.67255986 0.1816068 0.36744043 0.055969946 -1.2045907 0.21591337 0.82510763 -0.24353771 0.45899156
180 -0.3668357 -1.5545561 -0.9310817 -1.3313985 1.3945674 1.5768626 -0.72345513 -0.5613015 0.681494 0.5005963 2.34132 -1.1635771 -0.4227687 -1.6284182 -0.21219824 0.28674608
52 0.8103121 -0.53006524 0.18972205 -2.207161 2.2653358 0.14594099 -1.1008582 2.0011396 1.556205 2.0097172 0.42839918 -1.2468345 0.21047993 -1.2673078 -0.034329228 0.755405
43 0.5878953 -0.10914167 0.10658132 -1.5525521 0.7264189 1.1265994 -0.70071805 -0.346617 0.83080727 1.7870389 -1.3753198 -1.2024038 -1.2905409 -0.40945283 -1.8221278 0.7212952
149 0.53262055 -0.15273033 0.18599547 -1.2675102 0.96351427 1.233847 0.49020803 -0.62367785 0.44657683 1.1465163 -0.46673432 0.30979767 0.75804883 -1.047659 0.89007473 -0.86882704
178 0.57860523 -0.17225286 0.1750668 -1.2841201 0.966909 1.2493333 0.47381186 -0.64157474 0.5075042 1.1513108 -0.41621482 0.27876735 0.7155767 -1.0637655 0.92409337 -0.85918725
139 0.20401098 -0.4613222 -0.63221174 0.10073586 1.099768 2.0889688 0.44973245 0.6007844 0.16949086 0.41542265 0.065190196 -1.1507188 0.14017847 0.7797879 -0.23067698 0.45242053
165 1.1262274 -0.29552048 -1.3734701 -0.37505093 1.7582525 1.236462 -1.22025 1.2461965 1.1272606 -0.022751985 -1.4718364 -0.96879387 0.07948774 -2.11911 -0.78982157 -1.6528016
76 0.19489574 -0.47310507 -0.6629084 0.12861681 1.1353983 2.108328 0.42305228 0.6466383 0.20028949 0.42917415 0.09058839 -1.201647 0.209254 0.8582976 -0.20810094 0.46042386
142 0.20030475 -0.49990535 -0.64669806 0.14742777 1.128248 2.155723 0.41706246 0.67311 0.13783848 0.33951244 0.068693794 -1.1786397 0.17552172 0.8401928 -0.22017989 0.4841879
106 0.6081694 -1.0158713 -1.7308309 0.01896092 0.8161591 0.44700137 1.0305172 0.43264502 0.48285404 2.2774508 0.3552642 -1.9231609 -0.59536237 -2.0199351 -1.1283861 0.3345886
100 0.561445 -0.159154 0.15688474 -1.2874173 1.0339094 1.3212832 0.451977 -0.60897577 0.47671333 1.1346675 -0.42580917 0.26526877 0.7568266 -1.0231929 0.9171986 -0.8688425
119 0.57545733 -0.14263687 0.17451048 -1.27969 1.0130616 1.2536212 0.4276489 -0.6366656 0.49389303 1.115887 -0.44915217 0.24378167 0.7282872 -1.010869 0.8901961 -0.87087727
158 0.2512907 -0.44793072 -0.6396929 0.06158202 1.0943193 2.1447957 0.43959457 0.69820386 0.23399504 0.4517072 0.07573273 -1.1864945 0.17313223 0.80652785 -0.2183652 0.51105773
29 0.22826225 -0.4664768 -0.6629445 0.11574716 1.1627752 2.0570204 0.4412859 0.6961892 0.1900141 0.40009117 0.14982477 -1.1567183 0.13632481 0.8431679 -0.19534291 0.46076807
136 1.1340076 -0.28516832 -1.3210618 -0.38350892 1.7617813 1.2954282 -1.1999015 1.2654583 1.1521235 -0.020900939 -1.4201698 -1.017541 0.116519704 -2.1289785 -0.7478559 -1.6915708
18 0.78076434 -0.534616 0.19082047 -2.1209946 2.2264397 0.12392028 -1.0786986 1.976135 1.5344054 1.93711 0.424813 -1.274614 0.17224011 -1.2593963 -0.051948916 0.7048666
130 0.56910264 -1.0449342 -1.7330271 0.04948111 0.7853856 0.43326437 1.0388429 0.38777906 0.45794404 2.2555125 0.4777571 -1.9072099 -0.6029068 -1.9535863 -1.1107812 0.3617276
9 0.217942 -0.49610826 -0.6826238 0.15588339 1.1057342 2.0762405 0.41636854 0.6616899 0.15230682 0.3663866 0.10790513 -1.1737016 0.2435838 0.8673136 -0.1776386 0.44473746
77 0.23330447 -0.51699144 -0.66148716 0.108834885 1.1712209 2.0827005 0.49454755 0.6577129 0.22590351 0.35745844 0.058254268 -1.1746104 0.15171807 0.867793 -0.21601291 0.48634732
16 0.23556451 -0.48557281 -0.6253163 0.115384914 1.1135572 2.0626 0.43106252 0.6516491 0.17067559 0.3447853 0.08545082 -1.1323035 0.18430278 0.7950229 -0.21518157 0.4999646
166 0.5782837 -0.16126843 0.18865846 -1.2843214 1.0143865 1.2875198 0.48473066 -0.66028255 0.48459634 1.1582725 -0.46572188 0.2275728 0.74125177 -1.030501 0.84655946 -0.87203026
159 1.3671436 0.7682851 0.034587763 0.66888356 -1.154688 2.9806917 0.61598575 -0.3179012 1.0610151 2.0083797 -0.70014817 -1.3523368 -0.51611954 -2.0438328 -0.038491916 0.1826587
23 0.5122676 -0.15500484 0.102499634 -1.2367076 0.96001977 1.2535042 0.46652433 -0.6153848 0.46619886 1.1396239 -0.38756514 0.20831847 0.76526916 -0.98257935 0.8651843 -0.82011485
97 0.23106822 -0.49223793 -0.6320057 0.08952707 1.1108944 2.0481102 0.46751267 0.6735554 0.21341504 0.34107307 0.084541924 -1.095471 0.18706684 0.7985483 -0.2078311 0.42294356
61 2.8229246 0.11920104 0.7274973 -1.2159187 0.066861704 1.8008484 -1.1570035 0.646118 -0.25140268 2.070191 1.0869652 -1.0557524 -0.5338586 -0.84635454 -0.3248159 -0.2065841
126 0.60571766 -0.16157924 0.16287851 -1.3337425 1.0454173 1.3771532 0.46844864 -0.6545029 0.46757853 1.1855985 -0.45126116 0.22646236 0.7355887 -1.0646993 0.9183955 -0.87827057
102 0.18241459 -0.47928774 -0.6390392 0.10719016 1.0906093 2.0313733 0.4469894 0.61486095 0.20698899 0.36050063 0.105192505 -1.1643208 0.15168525 0.8336676 -0.22736496 0.46233764
8 -0.30240858 -1.5239953 -0.9905679 -1.323243 1.4230607 1.6140501 -0.69811773 -0.5231955 0.6885392 0.5505322 2.2260487 -1.1648195 -0.44439682 -1.6385138 -0.23182853 0.29753458
110 0.15243366 1.0453944 -1.2223566 -2.6604834 -0.48246235 2.6517336 0.47198564 -1.0185186 -0.7963889 1.0090843 -0.14345495 -1.2565321 -0.43263945 -0.2535127 -0.41401106 0.23876621
127 0.5398751 -0.05557268 0.14835846 -1.4390824 0.60297126 0.99041224 -0.7327808 -0.358696 0.73344916 1.6622485 -1.3204544 -1.0843924 -1.2444905 -0.3167969 -1.7284393 0.7126828
134 0.58476233 -0.13630797 0.21734686 -1.3350008 1.0209234 1.2699623 0.45722982 -0.61891305 0.51668197 1.1416919 -0.46023303 0.23595753 0.7177111 -1.0991005 0.9086225 -0.88994455
57 0.14297713 0.961412 -1.1767709 -2.5772407 -0.45379373 2.6359773 0.51867366 -0.9800975 -0.743868 0.96361595 -0.13672638 -1.2309618 -0.42958483 -0.2769213 -0.44205326 0.21884754
145 0.5469477 -0.21686783 0.16607776 -1.3064411 1.0625505 1.3085684 0.5063593 -0.6347603 0.5053269 1.1304507 -0.41156566 0.2709628 0.7480087 -1.0844005 0.9125875 -0.92822874
37 0.5461506 -0.14298011 0.10436909 -1.2069652 0.9653562 1.2254364 0.49280965 -0.6616401 0.45020416 1.1160362 -0.42829436 0.29906538 0.7467697 -1.0399721 0.9165575 -0.878784
154 0.1979859 -0.5308172 -0.61846596 0.066369385 1.0932732 2.0249398 0.41629672 0.62699264 0.24326843 0.41889676 0.052535146 -1.1587366 0.15155591 0.7539868 -0.25289732 0.43264523
171 0.19566607 -0.5059848 -0.6715941 0.093896136 1.1584038 2.1388042 0.44507182 0.7028922 0.22525732 0.39651555 0.08769987 -1.2124074 0.15845811 0.8409793 -0.17587042 0.48838693
112 0.23723477 -0.47897342 -0.60630506 0.06339818 1.0394833 2.0173306 0.40584254 0.6196263 0.2080184 0.38011768 0.092043795 -1.0893718 0.19412817 0.76303965 -0.16153654 0.42040858
65 0.5443401 -0.16224302 0.1622345 -1.2609854 1.003511 1.1719224 0.4566208 -0.64526975 0.45049456 1.0831347 -0.415992 0.28646082 0.74786615 -1.0141226 0.8435443 -0.82923746
49 0.5050573 -0.118157916 0.14296432 -1.2271047 0.93850535 1.158952 0.45984685 -0.659736 0.4215156 1.090275 -0.3710322 0.29133543 0.71732146 -1.050688 0.88358724 -0.837082
26 0.86798567 -0.3737867 -2.0712998 -0.6155747 1.3687849 1.953986 -0.34532937 -0.2686792 -2.256618 0.64284647 -1.7090836 -1.5945493 1.3069928 -1.1875039 -0.06406217 -0.3800508
151 -0.34800875 -1.5692028 -0.945896 -1.3254849 1.3566805 1.4565103 -0.77901375 -0.6162559 0.643183 0.45942417 2.3368795 -1.0582784 -0.46022195 -1.6357849 -0.18373574 0.23485146
161 0.57410693 -0.16291697 0.17506763 -1.2955654 1.0132655 1.3186609 0.504599 -0.66642284 0.47131556 1.184541 -0.4463214 0.21106532 0.7794329 -1.0981022 0.9378696 -0.8832563
70 0.5761556 -0.20536217 0.16985826 -1.2954241 1.0351732 1.2720621 0.47499344 -0.64629745 0.47530618 1.1376928 -0.41820234 0.2637033 0.7321444 -1.0857356 0.9333199 -0.89358795
42 0.536849 -0.14512339 0.15414704 -1.2546699 0.99027383 1.2306395 0.4527952 -0.6649197 0.45678434 1.1242083 -0.40517423 0.2513839 0.76901066 -0.98470044 0.8646484 -0.8073803
79 0.5304198 -0.20645525 0.16870649 -1.3140678 1.068845 1.3018486 0.4948825 -0.6451949 0.50902086 1.1482809 -0.45902205 0.29767096 0.7925839 -1.1145808 0.9343595 -0.90830666
133 0.5416366 -0.20900923 0.16869372 -1.2620057 1.0311956 1.2428279 0.48061997 -0.6546172 0.482657 1.1492685 -0.47233906 0.31088543 0.7267215 -1.0517098 0.8648154 -0.89118284
105 0.047894686 1.1221077 -1.2236701 -2.6488454 -0.5801967 2.5856433 0.5193643 -1.0060933 -0.8021366 0.8966696 -0.15364213 -1.2354147 -0.4348711 -0.1775399 -0.3896225 0.2902794
56 0.549769 -0.12620962 0.15610947 -1.5370846 0.7551601 1.0073229 -0.8240608 -0.3269842 0.80622613 1.7878941 -1.4464229 -1.1420454 -1.3302778 -0.35824537 -1.917491 0.70433515
113 0.20690879 -0.5294602 -0.6434357 0.21238925 1.1078608 2.0670784 0.47360545 0.66855603 0.17268236 0.36069897 0.12364222 -1.1358442 0.17602596 0.93408316 -0.17450896 0.50051683
59 0.20493834 -0.4753758 -0.6099938 0.12682034 1.1015943 2.0093226 0.4150044 0.6256714 0.20309699 0.38231605 0.095076054 -1.0964038 0.14677183 0.7871204 -0.20176843 0.43365973
84 0.5193538 -0.18174766 0.14995062 -1.265124 1.0031599 1.2684937 0.4915756 -0.6117684 0.49836805 1.1417289 -0.45242187 0.23186901 0.75417274 -1.0386373 0.8871395 -0.8457432
118 0.25364536 -0.53880876 -0.61730295 0.20640448 1.1200033 2.1566505 0.42518845 0.7239656 0.14879726 0.34730458 0.13405646 -1.1600432 0.18910891 0.9403135 -0.17364655 0.4876434
39 0.5522909 -0.1925893 0.16080128 -1.2312523 1.0206674 1.2528673 0.4654804 -0.5864277 0.45740947 1.1845841 -0.47893023 0.23635875 0.7183057 -1.0220083 0.8252054 -0.87386787
