131 16
119 0.6328736 0.15513973 0.15704386 -1.4398736 0.9184439 1.2503266 0.4504194 -0.57799345 0.60731095 1.0796454 -0.57174337 0.19850366 0.7013776 -1.262459 0.91561043 -0.68008673
70 0.6846317 0.15976617 0.1335962 -1.5278158 0.87551373 1.3018719 0.5072628 -0.6465714 0.47572923 1.0923569 -0.5572993 0.25787416 0.77118295 -1.3240159 1.0296547 -0.7423451
180 -0.17209159 -0.9871364 -1.3635094 -1.5533446 0.59813505 1.4383398 -0.7071449 0.4981389 1.2412703 0.91305834 1.7383871 -0.92806965 0.1753539 -1.9453123 -0.596284 0.42680806
100 0.6168452 0.16006437 0.14882731 -1.3572476 0.8505669 1.2352848 0.42366302 -0.53031623 0.514152 0.9971192 -0.5281935 0.20044541 0.64493906 -1.2361562 0.91196054 -0.6499355
87 0.47789752 -0.25819245 -1.0040216 0.20193166 0.844878 2.1297717 0.62151045 1.0592299 0.22553425 0.5540222 -0.05240203 -0.91273314 0.076168425 0.6173038 0.060990766 0.49573267
161 0.69672245 0.16977638 0.12936606 -1.4818932 0.88726324 1.2954483 0.4628338 -0.5767226 0.51941276 1.1012816 -0.57331336 0.20378385 0.79491097 -1.343249 0.9873636 -0.70480555
27 -0.27454266 1.0334756 -1.4385058 -2.8992414 -0.6486059 2.5297675 0.31849578 -0.67931503 -0.6750584 1.0265863 -0.69949055 -1.4705406 -0.097674884 -0.12519996 -0.008572412 0.088241644
39 0.6327711 0.15214382 0.1852201 -1.4068804 0.87524223 1.2129121 0.49904513 -0.57445407 0.5224167 1.0828545 -0.6199646 0.25552997 0.70860547 -1.289169 0.90717304 -0.7146732
145 0.68329614 0.12065707 0.1341487 -1.4236462 0.8925923 1.31587 0.48950145 -0.5548391 0.5643016 1.0918312 -0.5448167 0.19500872 0.7313885 -1.371275 0.94171447 -0.73253053
142 0.5080459 -0.31042656 -1.0096786 0.25630072 0.9102302 2.2259593 0.6102604 1.1351274 0.21375771 0.55593824 -0.018467786 -0.93471456 0.021161558 0.6613552 0.02062222 0.5512628
158 0.55805576 -0.24144387 -1.0195245 0.16425374 0.8719252 2.2449315 0.6386822 1.0938405 0.23268212 0.61254126 -0.11884497 -0.89706147 0.08483614 0.5739897 0.057072278 0.53495526
157 0.65023863 0.16086261 0.16400935 -1.4591357 0.90022796 1.2710646 0.48470122 -0.6408627 0.5481744 1.0694139 -0.57058537 0.26453754 0.73834324 -1.2892675 0.97951794 -0.68936455
150 0.66008884 0.17805131 0.19702257 -1.4733052 0.89121854 1.2360184 0.5032253 -0.6344552 0.5781759 1.0653961 -0.56788695 0.2842522 0.7102018 -1.3792415 1.0097228 -0.73925245
128 0.48024255 -0.29871848 -1.0044279 0.10894525 0.88728195 2.1706376 0.650287 1.0529941 0.26353467 0.5618996 -0.11796644 -0.9073556 0.05244781 0.5492954 0.026686784 0.5481691
160 0.45321247 -0.29405084 -0.9996591 0.21080229 0.85744834 2.2019203 0.6512323 1.0882744 0.2881595 0.59771466 -0.071210064 -0.9122531 0.08075586 0.6690663 0.037941307 0.5230612
130 -0.083429836 -0.5201561 -1.5934575 0.23719618 0.72515506 0.7655803 1.0130591 -0.124038085 0.062032077 2.045118 0.048445296 -2.5974753 -1.1650368 -2.0629616 -1.1899356 -0.03898947
85 1.8112036 1.3924202 -0.4668469 0.5514359 -1.5449071 2.298877 0.5530246 0.30794278 0.9542739 1.800058 -0.86084026 -0.807339 -0.48502076 -2.1762576 0.25451714 0.4375319
58 0.7000538 0.13913491 0.16513817 -1.409979 0.9034458 1.2662878 0.48995367 -0.6051033 0.5256156 1.0955437 -0.48865256 0.23094866 0.72150743 -1.3156146 0.97918344 -0.6709447
74 0.51797694 -0.28399542 -0.9528846 0.13095498 0.8466221 2.1401768 0.5987635 0.9992864 0.17942278 0.5583294 -0.03586701 -0.89375037 0.05296166 0.5878004 0.015839253 0.4781212
104 0.5532442 -0.25916797 -1.0291568 0.16237602 0.8649608 2.1317196 0.62562674 1.0633377 0.19798207 0.57641196 -0.037015777 -0.89449084 0.03828039 0.6153247 0.04684008 0.56203705
21 0.50654864 -0.30407792 -1.0389339 0.15895441 0.89726555 2.2041566 0.6292771 1.0759537 0.23488383 0.5549488 -0.0827195 -0.9256096 0.07149708 0.5782312 0.019284992 0.52953833
55 0.5577325 -0.2554464 -1.0316755 0.13996787 0.9091305 2.2373827 0.6195069 1.0880446 0.2004365 0.60690403 -0.09635603 -0.9141802 0.053174205 0.58145106 0.07262227 0.5097136
12 -0.080446094 -0.48220587 -1.586086 0.1586641 0.7328444 0.837317 0.9225043 -0.118008375 -0.012384127 2.0779345 0.010723477 -2.577259 -1.1020848 -1.9902971 -1.1730909 0.010869888
172 0.7225306 0.16488521 0.16630234 -1.5021713 0.9421361 1.2719749 0.47508198 -0.64279187 0.5855291 1.1297663 -0.59130234 0.26836804 0.7842872 -1.3772274 0.9949404 -0.7490677
102 0.47525758 -0.26395926 -0.97169423 0.16787606 0.82320946 2.0756133 0.620333 0.96928394 0.22533554 0.5710621 -0.07837203 -0.8916946 0.0821412 0.552583 0.018860642 0.49923953
146 0.84405744 -0.02907443 0.8952342 -0.60151386 1.2259679 2.3265414 -0.37711832 -0.1230404 0.20889069 -0.29840323 -0.19466077 -1.6065356 -1.8752252 -3.06332 0.775239 -0.13334198
88 3.1879945 0.2181058 0.45007512 -1.2507656 0.115358435 1.7508873 -0.93979716 0.77780706 -0.34915116 1.603301 0.701654 -1.0575467 -0.9294205 -1.0477843 -0.25947586 -0.10840508
112 0.49728513 -0.29935777 -0.9743968 0.12060637 0.8380675 2.0807304 0.5617399 1.0214213 0.19472192 0.5491993 -0.07551576 -0.8630081 0.10741591 0.59525794 0.06243653 0.4843072
6 0.5070087 -0.27512252 -0.9779004 0.18396771 0.8757221 2.1523106 0.65475005 1.0500801 0.22830196 0.5628977 -0.0787474 -0.9023532 0.08975623 0.5758692 0.083574556 0.49546957
139 0.51293385 -0.25126117 -1.0167661 0.17788798 0.87161165 2.231625 0.66259986 1.0547 0.19302547 0.6099979 -0.040604066 -0.9146821 0.04229983 0.6270523 0.033682007 0.5318831
122 0.6445414 0.14676742 0.13770927 -1.4610475 0.871746 1.2383193 0.45141712 -0.6003869 0.50593174 1.0638928 -0.54644096 0.19936295 0.7086109 -1.303673 0.959592 -0.7115756
98 0.80631715 -0.038313054 0.7902068 -0.57084596 1.1655428 2.1775935 -0.38869512 -0.058702707 0.1475755 -0.26994517 -0.18241337 -1.5366284 -1.7230864 -2.7803404 0.6940986 -0.061641645
43 0.5375752 0.34917045 -0.078210056 -1.6717666 0.65644324 0.99826527 -0.57931167 0.063518584 0.67385817 1.9436674 -1.8620101 -1.1378555 -1.0514016 -0.516081 -1.9003688 0.8255544
97 0.48664236 -0.27836135 -0.95940614 0.13624807 0.8276607 2.1040697 0.613795 1.0451177 0.25007123 0.55787677 -0.041249186 -0.90162385 0.04910443 0.55631644 0.015667558 0.50777596
113 0.52051145 -0.28617775 -0.9889306 0.18689655 0.82733727 2.1291733 0.62635314 1.0403922 0.22522774 0.5895257 -0.039330695 -0.8821442 0.035247818 0.6044761 0.03938836 0.5352338
165 1.2556423 -0.17720732 -1.2681779 -0.21901205 1.4032991 1.1552207 -1.1129727 1.6399069 1.0578821 -0.2707456 -1.7179574 -1.1518143 0.44943157 -2.6624835 -0.513077 -1.5964073
47 0.476814 -0.30264896 -0.9814756 0.1985408 0.8421292 2.1720955 0.64294004 1.037763 0.16556382 0.56287616 -0.097204745 -0.8940476 0.03895392 0.5779913 0.021582898 0.5430333
33 1.1617923 0.25526187 -1.8677449 -0.6890308 0.9441382 1.5643113 -0.5648854 0.34568372 -1.9989742 0.5076738 -1.8763715 -1.5710307 1.4352694 -1.2570063 0.34873223 -0.07988794
149 0.62720203 0.16612205 0.110391006 -1.4403688 0.86272407 1.2912859 0.49552122 -0.5349668 0.48851743 1.081532 -0.57023597 0.21929449 0.75065327 -1.2408044 0.94713825 -0.6780225
75 0.58545965 0.17164016 0.12687787 -1.4330326 0.8775156 1.2325668 0.51770025 -0.5672779 0.5157536 1.0622562 -0.57828116 0.22899745 0.73434067 -1.26569 0.90115374 -0.66863924
127 0.5416282 0.36405823 -0.030751845 -1.5837629 0.60131943 0.92763656 -0.58693296 0.0584739 0.6166015 1.8908024 -1.7859414 -1.101265 -1.0590897 -0.45729414 -1.843417 0.81535256
49 0.62370974 0.16209829 0.10196368 -1.3644463 0.91609675 1.2226043 0.46048898 -0.5784258 0.5014885 1.0462992 -0.5607765 0.19584806 0.6887627 -1.3056378 0.8963213 -0.67730445
125 1.782013 1.3464198 -0.45912638 0.5144496 -1.4982002 2.2797859 0.57040095 0.30688256 0.98369306 1.7899592 -0.7991679 -0.7412269 -0.4466259 -2.1297567 0.2735612 0.37967706
79 0.55701965 0.11418909 0.1369356 -1.3908572 0.8967234 1.1719241 0.44758263 -0.55565155 0.55676556 1.0071843 -0.51237667 0.2622604 0.7463614 -1.2552897 0.91397595 -0.70212305
22 0.4634811 -0.26437396 -1.0236237 0.17074353 0.83563155 2.19195 0.63261217 1.0663528 0.24620396 0.54882115 -0.04253542 -0.921704 0.101860985 0.6791275 0.031086171 0.5282787
73 0.5178683 0.2955388 -0.042909715 -1.610044 0.680315 0.91764826 -0.6590486 0.06495893 0.63590294 1.9583981 -1.8771914 -1.0957211 -1.1136707 -0.457592 -1.9866301 0.8740602
26 1.3025477 0.24349916 -1.9536928 -0.66930354 1.0163786 1.6798418 -0.5959618 0.4430327 -2.1219788 0.48107108 -1.9677558 -1.6587216 1.5451486 -1.3505102 0.42372346 -0.068773605
103 0.641846 0.20916827 0.12097028 -1.4320788 0.8427717 1.2457658 0.45329967 -0.5818767 0.5202497 1.0432504 -0.5147819 0.23501962 0.6739693 -1.2655295 0.9666655 -0.65610677
57 -0.3488798 0.9834521 -1.3923995 -2.865324 -0.69661295 2.4238274 0.29355434 -0.6925442 -0.7276239 0.9252252 -0.6587187 -1.3838298 -0.08704339 -0.0944212 -0.053039677 0.065852374
48 0.5031469 0.31022853 -0.017876187 -1.5564171 0.671737 0.86185646 -0.597045 0.08392328 0.6693628 1.8654898 -1.7621331 -1.0781475 -1.013173 -0.49146596 -1.8153077 0.789364
154 0.46780813 -0.29395777 -0.9251633 0.17222625 0.7652784 2.0705252 0.5753544 1.0076468 0.23701556 0.5617748 -0.053722333 -0.88200074 0.01912632 0.5616764 -0.018586291 0.5136336
109 -0.11715876 -1.0178726 -1.4144282 -1.5209612 0.61641586 1.4846522 -0.6772508 0.5005593 1.2657763 0.9642122 1.7166075 -0.9342338 0.1806777 -1.9384958 -0.5405584 0.4415864
143 0.6666213 0.16354571 0.135207 -1.4432479 0.8484713 1.2028124 0.466204 -0.6123864 0.53465074 1.0812318 -0.5269303 0.24071358 0.736157 -1.2569569 0.93085533 -0.68219775
38 0.47861132 0.26526526 -0.09661897 -1.5415448 0.6532771 0.95894337 -0.51917005 0.09369443 0.6281507 1.7711539 -1.6674078 -1.0396806 -0.96123606 -0.47770044 -1.7601243 0.77166224
18 0.91909766 -0.04786357 -0.07797156 -1.8926973 2.3236136 -0.12038617 -0.86908364 2.2410796 1.2799375 1.989536 0.035824254 -1.1985619 0.2901006 -1.1506484 0.11107154 0.9537975
126 0.63179195 0.13135695 0.158691 -1.3812236 0.89673513 1.1979171 0.45091498 -0.55452025 0.49236587 1.0108497 -0.52624255 0.234485 0.6568723 -1.2164458 0.91932017 -0.6311694
141 -0.74131095 -1.9947592 0.3633058 0.05376141 1.7510487 2.328143 0.48314855 -0.3656058 1.1721377 0.5909072 -2.2739308 -1.3614243 0.95900035 -1.0561711 -0.55273384 1.0865775
32 -0.7374652 -1.969593 0.42586708 -0.01630978 1.7092252 2.3542285 0.518754 -0.41139957 1.2140739 0.6355799 -2.2469058 -1.4282666 0.9236407 -1.0816703 -0.5541923 1.0582671
59 0.43760294 -0.22703484 -0.94249773 0.19820529 0.77937025 2.0443342 0.5675035 0.9739325 0.19795649 0.53015345 -0.08182988 -0.841677 0.09218154 0.6149243 0.052158758 0.5048015
29 0.4439982 -0.23514447 -0.9933276 0.17199206 0.8768813 2.0873902 0.61373514 1.0825365 0.23572274 0.5652653 -0.04024501 -0.9088547 0.042841323 0.6537147 0.0046723383 0.5584871
170 0.54862076 0.3385451 -0.0848726 -1.57455 0.67521983 0.9816113 -0.5788871 0.08024103 0.64409643 1.939128 -1.8018645 -1.1164523 -1.0065655 -0.4978624 -1.8605417 0.8241871
16 0.50099933 -0.25481993 -0.9762079 0.22999844 0.8173983 2.111947 0.62088525 1.0459919 0.18683359 0.5147467 -0.07055992 -0.87684023 0.09329352 0.618146 0.030600363 0.5644489
152 0.4642203 -0.30891928 -0.93758065 0.16408378 0.86238235 2.1476152 0.65081805 1.0445929 0.24540375 0.5256223 -0.044451207 -0.8479436 0.047293 0.60468096 0.020578578 0.55426615
81 0.76377076 -0.36273026 -1.1128814 -0.6380551 0.18803939 2.353541 0.7924623 0.92618513 -0.2911576 0.34230456 -2.0250835 0.97278666 0.88578427 -2.1920934 -1.3646303 1.817435
17 0.7766103 -0.40527293 -1.0107751 -0.6258292 0.1481057 2.1454444 0.702259 0.86689526 -0.33252403 0.32633162 -1.9361434 1.0323542 0.8726878 -2.1369517 -1.3518689 1.7780621
52 0.8491039 -0.03213937 -0.12524216 -1.8747461 2.243435 -0.14351365 -0.85690904 2.1666067 1.2482524 1.936617 -0.024963887 -1.1410886 0.29478583 -1.1309292 0.08592546 0.9748851
7 0.47300375 -0.22700179 -1.0320101 0.14912711 0.862482 2.1330693 0.6070621 1.0080119 0.27219564 0.55790836 -0.050363436 -0.86604095 0.09143074 0.5683218 0.065469965 0.5372778
156 0.3874816 -0.027388087 -0.7274344 -0.3589148 1.818663 1.2155972 1.8783214 1.4001893 2.01369 0.18241525 -0.5986393 -0.8831132 -1.8657765 -2.0825183 -1.0496562 -0.56504285
34 0.4533646 -0.015583006 -0.7228543 -0.3879222 1.8331784 1.2014995 1.9365706 1.4802425 2.1269004 0.1120036 -0.6604846 -0.9607157 -1.9658893 -2.2036636 -1.0224274 -0.66642165
101 0.51381373 -0.27344635 -1.0112137 0.21542487 0.848943 2.18591 0.65615755 1.1231256 0.22512953 0.5743794 -0.024948392 -0.9150265 0.067901805 0.63333577 0.040802784 0.5597114
124 1.5695956 -1.8578546 -0.8047327 -1.2632103 2.6140308 2.5399039 -0.82360226 0.18646844 -0.9943608 0.49303985 0.6680438 0.46741858 -1.1663916 -0.5740006 -0.2472946 -0.26744083
115 1.6518195 -1.905391 -0.839924 -1.282264 2.7156863 2.68394 -0.8283783 0.23214093 -1.0161576 0.56635374 0.65659153 0.4660502 -1.1730614 -0.63201493 -0.30785036 -0.18858497
89 0.66223043 0.13845806 0.15691333 -1.4468483 0.8286483 1.2516035 0.43986169 -0.5757866 0.5182607 1.0431303 -0.57685757 0.21230468 0.70102143 -1.2500612 0.95014036 -0.68342143
110 -0.270644 1.007054 -1.3953562 -2.751127 -0.67179394 2.3451278 0.23476738 -0.63071465 -0.72510755 0.95754117 -0.67515546 -1.364253 -0.102488205 -0.08500381 -0.060000498 0.08880332
5 0.7190815 0.13351306 0.18750384 -1.5464475 0.932376 1.2615174 0.4863733 -0.59603167 0.62923276 1.0951163 -0.55976605 0.28546822 0.74327224 -1.3433716 1.0029001 -0.7585128
28 0.47274587 -0.21956354 -0.9409885 0.2020875 0.82873666 2.126724 0.5986465 0.9999243 0.2037507 0.5390248 -0.0787675 -0.8472547 0.096020035 0.68400735 0.085999526 0.49676368
63 0.49963197 -0.27293813 -0.9312999 0.121440955 0.8317791 2.107653 0.602338 1.0259223 0.22168513 0.5122297 -0.073726654 -0.9026521 0.10155461 0.57872117 0.028958702 0.46171626
82 0.8149742 -0.109086886 -0.11341029 -1.8491719 2.2966685 -0.17413892 -0.8976681 2.2010398 1.2979181 1.9147824 0.032661267 -1.182571 0.25914013 -1.1202921 0.051347822 0.93479496
105 -0.2889482 0.9918497 -1.3386761 -2.712663 -0.60493624 2.3473105 0.26737085 -0.60050434 -0.65316916 0.92383945 -0.6995648 -1.3574324 -0.08940642 -0.115720175 0.001609771 0.108941145
129 0.62920475 0.17056215 0.16217414 -1.4654658 0.89822745 1.2445859 0.51812965 -0.5956282 0.5446481 1.0687819 -0.57444733 0.26283425 0.76257503 -1.2753923 1.0047967 -0.7119009
84 0.6212611 0.16151176 0.1904355 -1.4087737 0.85902655 1.2252362 0.459694 -0.54474705 0.56032574 1.0634054 -0.54403806 0.19495052 0.6687606 -1.2314907 0.9215957 -0.6681752
136 1.1861771 -0.15532328 -1.1468184 -0.23421986 1.2914172 1.133681 -0.96593213 1.5009109 0.9572593 -0.16451424 -1.5444278 -1.1084442 0.46362782 -2.4483354 -0.431909 -1.4631375
121 -0.18846521 -0.9883238 -1.4549934 -1.5529096 0.5749978 1.492349 -0.6749153 0.47870257 1.2927608 1.0075191 1.74465 -0.96487397 0.17255817 -1.9679002 -0.60804236 0.46275866
80 0.4705515 0.29715955 -0.07570009 -1.5456215 0.649269 0.9598089 -0.5447602 0.04716673 0.59729636 1.8057129 -1.6398599 -1.0256894 -0.97913325 -0.44121316 -1.7306322 0.77977467
166 0.62845373 0.17574403 0.18889481 -1.4795743 0.9039867 1.2653687 0.5040077 -0.66922307 0.5579821 1.0863748 -0.6014223 0.21887068 0.745396 -1.2815133 0.9469374 -0.7433627
66 0.6056862 0.15034904 0.09102607 -1.330749 0.8426376 1.1743871 0.43336087 -0.52359384 0.49527022 0.954122 -0.544939 0.18799794 0.66807014 -1.1925937 0.8671462 -0.64587784
64 0.6212522 0.16363248 0.14803275 -1.4594537 0.9007915 1.2306259 0.43436465 -0.5773961 0.50985634 1.0400139 -0.55263245 0.22826597 0.7313983 -1.2899168 0.9773978 -0.6841789
118 0.4964054 -0.27605012 -0.96842587 0.15426552 0.84611833 2.1934621 0.60666925 1.0709524 0.20173982 0.56759495 -0.060101166 -0.90826094 0.09785734 0.61740696 0.08710353 0.5116166
123 3.306315 0.23106085 0.49206945 -1.1976753 0.11732779 1.7562293 -1.0156046 0.8040956 -0.36196095 1.5618283 0.8086146 -1.0175921 -0.938669 -1.009703 -0.2171847 -0.14981556
13 1.1559505 -0.20533346 -1.1376936 -0.26578602 1.2754309 1.1274489 -1.012628 1.4710823 1.0216113 -0.1471447 -1.5450653 -1.1201272 0.45111853 -2.4440813 -0.4777317 -1.4734727
151 -0.19454096 -1.040141 -1.4476191 -1.5863911 0.63024145 1.4009951 -0.71791196 0.4681898 1.279593 0.9502668 1.8010645 -0.97093683 0.097312786 -2.0300598 -0.6213193 0.3971525
35 0.46411094 0.274112 -0.05935183 -1.4976617 0.6459285 0.9432117 -0.5376131 0.086005986 0.6188554 1.8440108 -1.7659878 -1.0764577 -1.0135088 -0.4571672 -1.8176615 0.7882704
133 0.6824782 0.16816956 0.17251448 -1.5055615 0.92107475 1.3161575 0.49817383 -0.65025455 0.55105615 1.1509377 -0.6120922 0.2507694 0.74704236 -1.3744153 0.9958411 -0.75853145
77 0.5336569 -0.31025654 -0.9675255 0.20375468 0.89012724 2.1929886 0.66225374 1.0519211 0.26525587 0.5332663 -0.043405864 -0.90559405 0.026732992 0.6972649 0.05646536 0.5744779
56 0.50201803 0.3331547 -0.053790044 -1.6048417 0.6635583 0.9323088 -0.58601314 0.11046329 0.6542172 1.9109861 -1.8149889 -1.0845977 -1.0335779 -0.48936105 -1.8986491 0.7649831
37 0.62271476 0.16360663 0.14648898 -1.4156445 0.86611897 1.1406852 0.47863922 -0.6082109 0.5360406 1.0654249 -0.47067797 0.28835928 0.71377033 -1.272046 0.9907035 -0.7004031
164 0.52176565 -0.29081374 -1.0098441 0.2142915 0.8819639 2.2001796 0.6287454 1.0567214 0.19152527 0.5086577 -0.08164984 -0.9236022 0.03865798 0.61309993 0.04741742 0.49324805
135 0.45343715 -0.2838821 -0.9798314 0.18887489 0.8052736 2.1456733 0.60476434 1.0012372 0.20109278 0.5640513 -0.09082649 -0.8850969 0.100521415 0.6911163 0.05158106 0.5594544
171 0.4837735 -0.19059426 -0.9700902 0.1097137 0.7792085 2.0529974 0.5971407 0.9976618 0.16208589 0.5552683 -0.11677043 -0.8648415 0.053230356 0.549006 0.099753305 0.48073882
96 0.43975514 -0.28278175 -0.9821812 0.20680684 0.8192745 2.2040684 0.6644841 1.0239772 0.2057447 0.5414542 -0.07980913 -0.9248787 0.016234366 0.63311774 0.038706068 0.5605539
10 0.5203095 0.34840044 -0.077775046 -1.4982296 0.61301345 0.93089116 -0.58450615 0.09061454 0.5865428 1.8303772 -1.7423555 -1.0761638 -0.98868835 -0.51151544 -1.8008478 0.7532697
72 -0.20758532 -1.0423182 -1.3952522 -1.526279 0.55132645 1.3302765 -0.75537086 0.42795548 1.2850773 0.920035 1.8408536 -0.8946098 0.14995146 -1.988488 -0.56755346 0.40219644
8 -0.1767271 -0.9964499 -1.4673617 -1.569997 0.6285309 1.518237 -0.69427216 0.50016266 1.2743015 0.9718569 1.7293857 -0.9619116 0.17204446 -1.9994315 -0.60615224 0.4566234
114 1.162905 0.1896214 -1.8590117 -0.6105118 0.9091756 1.5290025 -0.52374375 0.43079323 -2.039379 0.45661303 -1.9070617 -1.5495038 1.4753282 -1.1821765 0.34126002 -0.015415309
76 0.4596718 -0.24335186 -0.93020034 0.23106512 0.8293318 2.04187 0.57088244 1.0039718 0.24070454 0.5504714 -0.07089636 -0.87160033 0.05267991 0.5996865 0.008394953 0.47890222
162 -0.33387724 0.97855145 -1.3543293 -2.7438781 -0.71016276 2.2956948 0.2173661 -0.6397409 -0.6837264 0.900034 -0.6021507 -1.3666055 -0.10599321 -0.043113384 -0.045152273 0.13420251
61 3.4358783 0.19667214 0.5417758 -1.2800298 0.10833349 1.8955556 -1.0748569 0.75739104 -0.41792864 1.6207255 0.8440907 -1.0600142 -1.0385063 -1.0633923 -0.25558656 -0.12789053
54 -0.27645552 0.9773011 -1.3091083 -2.6760638 -0.6579175 2.3341546 0.24163958 -0.64998186 -0.6716491 0.93517816 -0.6452686 -1.3567221 -0.075167194 -0.12251771 -0.027779182 0.06713526
25 0.6346923 0.1569103 0.13688733 -1.353272 0.8615048 1.1699383 0.39494306 -0.49912643 0.5121954 0.9915773 -0.54572284 0.14783196 0.6463713 -1.2413318 0.8239275 -0.5943633
40 -0.22169387 -1.0513164 -1.3751438 -1.4825901 0.5929818 1.3547605 -0.70024645 0.46502924 1.2848233 0.8914721 1.777854 -0.9004918 0.12076186 -1.9485775 -0.61329335 0.4265649
106 -0.02935797 -0.45500767 -1.5711311 0.16140816 0.69943815 0.85047054 0.9456839 -0.08115949 0.066869356 1.9592371 -0.0032475567 -2.4676576 -1.0746115 -1.9833286 -1.1060714 -0.040916193
24 0.47778141 -0.2604792 -1.0210481 0.18294469 0.85118204 2.136101 0.6348719 1.0821944 0.22057539 0.5378978 -0.020745048 -0.90423995 0.04169579 0.62826324 0.050815642 0.5028676
111 0.44327524 -0.29708007 -0.95915544 0.1738715 0.8605949 2.0809276 0.5667204 1.0378995 0.17782196 0.5520378 -0.02753802 -0.8823709 0.031601813 0.5650632 -0.011423484 0.51988214
155 0.6240067 0.16876963 0.15532649 -1.3834544 0.8910259 1.2151743 0.4804777 -0.58902264 0.56463987 1.0555307 -0.5605518 0.22865354 0.70857835 -1.2212644 0.9147895 -0.6934972
176 0.43959564 -0.27475408 -0.93623394 0.18398054 0.86089903 2.1062496 0.652816 1.0325323 0.20274709 0.54581463 -0.035840128 -0.8791043 0.074769564 0.64018434 0.05956177 0.5286811
53 0.6044978 0.17834689 0.15800042 -1.4107134 0.85711724 1.1587901 0.43914986 -0.5787205 0.53540057 1.0145196 -0.5408178 0.24437442 0.6840036 -1.248071 0.9299634 -0.7138768
159 1.8291034 1.3803062 -0.42581254 0.50131905 -1.5314593 2.363463 0.58140254 0.28551948 0.9743825 1.8546565 -0.793492 -0.78758734 -0.47020498 -2.1715882 0.255805 0.39971793
65 0.6888882 0.17079031 0.1947627 -1.4321226 0.91499823 1.2066717 0.45483553 -0.59217584 0.54702836 1.0590918 -0.5143298 0.25109276 0.73332286 -1.2675529 0.95793104 -0.6978633
15 0.48943987 -0.25882947 -1.0148777 0.18581341 0.86681145 2.1433475 0.64798415 1.0279553 0.21487862 0.58952415 -0.045405824 -0.8764698 0.11077312 0.62382114 0.063470736 0.5450892
23 0.59018993 0.13021496 0.07509413 -1.3884007 0.8747484 1.2122202 0.42998764 -0.5314849 0.5434176 1.0716908 -0.5010292 0.17788532 0.71439165 -1.1985266 0.879447 -0.64795196
174 -0.0977474 -0.48043358 -1.6014299 0.20507327 0.7120703 0.83315235 0.97929907 -0.10867496 0.05512214 2.0777705 -0.0066414513 -2.5701492 -1.1028875 -2.0714176 -1.1771722 -0.046491906
134 0.6280746 0.18558636 0.20528115 -1.4308575 0.8710239 1.1826128 0.45536834 -0.56486356 0.5417487 1.0154173 -0.53940094 0.22547555 0.70783025 -1.2446216 0.9589085 -0.70426476
148 0.8306442 0.007713685 0.8097584 -0.61660147 1.1911458 2.1967359 -0.36384505 -0.06669288 0.22555451 -0.19199213 -0.2407029 -1.512555 -1.6969314 -2.8840256 0.6764393 -0.12999977
108 0.65693796 0.13583529 0.105762616 -1.3457024 0.80317825 1.2370104 0.43673167 -0.5115337 0.48435703 1.0060629 -0.5260834 0.16798222 0.67573005 -1.2200662 0.9069186 -0.6458433
78 0.5068451 -0.23364441 -0.9555101 0.14006546 0.816991 2.044003 0.5769724 0.98734146 0.18023016 0.56933 -0.057212982 -0.84829783 0.058000147 0.50683177 0.02028775 0.48495305
44 0.54265887 -0.27253264 -0.99315757 0.18755521 0.8956809 2.1816263 0.6379948 1.0642018 0.21486905 0.6155004 -0.052210435 -0.8963451 0.02573015 0.58615506 0.0049889465 0.5482896
36 0.49045825 -0.2644762 -0.99238217 0.23682113 0.80560887 2.111927 0.6020037 1.0179664 0.14251918 0.48249054 -0.033109803 -0.8894603 0.082760945 0.6906418 0.021406166 0.5128933
175 0.6255733 0.118999414 0.113288954 -1.4178575 0.9053631 1.1876723 0.43367827 -0.53326035 0.50749665 1.062482 -0.51636803 0.21276063 0.7003418 -1.2431046 0.8794929 -0.6854692
42 0.58177537 0.16396938 0.17281905 -1.332536 0.8175301 1.1344635 0.40758365 -0.593783 0.5479671 0.9931201 -0.4709448 0.19665019 0.700896 -1.2143087 0.8867409 -0.6196791
178 0.64996344 0.13579707 0.1736424 -1.3484424 0.79342884 1.1526306 0.43990266 -0.5690604 0.5107783 1.0134923 -0.544384 0.251208 0.6680562 -1.2297342 0.90908265 -0.6372737
9 0.44838262 -0.24329776 -0.8857973 0.086812176 0.7593095 1.9332988 0.50441575 0.90660244 0.21124221 0.54644245 -0.10905963 -0.82723147 0.08214413 0.47695756 0.012761675 0.4555985
