131 16
78 0.31558597 -0.16854414 -0.83804566 0.09071738 0.9267942 2.200417 0.62029177 1.1513507 0.38629758 0.2652792 0.07703622 -1.2362143 0.14805363 0.6673334 0.103654675 0.3408904
36 0.3311867 -0.23530385 -0.81889963 0.09815725 0.97458917 2.242536 0.60963684 1.114721 0.3597396 0.20579483 0.038434137 -1.2380824 0.15326242 0.6951957 0.066157416 0.33482277
127 0.5668313 0.18350762 -0.028476808 -1.5204581 0.93149245 1.1354072 -0.6721077 -0.008379309 0.8322147 1.6318538 -1.4971834 -1.0566487 -1.1353223 -0.597883 -1.8201785 0.73223644
160 0.30215326 -0.21198072 -0.86760956 0.094682954 0.97365826 2.2614756 0.6321784 1.1801873 0.4196934 0.27894792 0.027888613 -1.2345626 0.15880486 0.7225218 0.10907335 0.28878984
53 0.45245093 0.22061458 0.12948799 -1.4311523 0.9301224 1.233614 0.61142975 -0.641575 0.84896094 0.94219404 -0.62569505 0.26330587 0.6129319 -0.9229269 0.949736 -0.74255335
40 -0.08943144 -1.220347 -1.6034919 -1.3890237 0.5904733 1.4775357 -0.37557587 -0.311027 1.1574118 1.2507019 1.9396676 -0.85072625 -0.36881268 -1.6280863 -0.46269256 0.58151853
113 0.31232712 -0.20556888 -0.8342016 0.06697914 0.93318355 2.1571507 0.6331792 1.0733135 0.3828605 0.28694382 -0.022152951 -1.1649994 0.110441454 0.6407801 0.08002284 0.3137082
25 0.52118194 0.20399724 0.1570429 -1.424229 0.98660004 1.2818367 0.636739 -0.67287713 0.8592447 0.97202116 -0.67525923 0.27064115 0.668141 -0.95331526 0.96487516 -0.71494657
101 0.32498327 -0.14582075 -0.80847335 0.10104871 0.8808491 2.1270642 0.61227703 1.1725539 0.35523975 0.23792069 0.04451155 -1.2067455 0.12964901 0.6624229 0.09360646 0.34948137
161 0.5364929 0.20049278 0.28245226 -1.5335317 1.0192268 1.2093799 0.65889144 -0.8021078 0.91061455 1.0072063 -0.6987477 0.38174602 0.7860213 -1.0520912 1.1579353 -0.86567473
84 0.48946646 0.22309251 0.26351395 -1.5235981 0.9902706 1.2373029 0.66690683 -0.73882544 0.89926255 0.9990333 -0.68254757 0.34961525 0.7076487 -0.94669884 1.094353 -0.8060726
164 0.28298363 -0.17332073 -0.7547978 0.10197178 0.8675524 2.0696943 0.5754755 1.041335 0.31588075 0.18625459 0.048855804 -1.1662393 0.10121791 0.73106295 0.1157742 0.30247787
47 0.2954818 -0.1788169 -0.7739221 0.023385784 0.8904638 2.1472368 0.6062431 1.072806 0.35338503 0.26871818 0.018270718 -1.1771958 0.11873299 0.59263676 0.10616538 0.30713618
66 0.47981864 0.20566438 0.14379865 -1.3596711 0.9219984 1.1732117 0.6303463 -0.6481224 0.84345734 0.8957504 -0.66101134 0.28461465 0.66695756 -0.9296587 0.9621604 -0.7493972
89 0.4967184 0.17087053 0.16768466 -1.471495 0.9550276 1.2623487 0.6483031 -0.6884846 0.90687406 1.0031229 -0.70065516 0.282243 0.65462077 -0.9672908 0.98984337 -0.76800466
61 3.0076594 -0.28067666 0.7633919 -1.6941981 -0.07678116 2.1970904 -0.8663669 0.6612528 -0.58569175 1.4457451 0.9096318 -1.2620099 -0.5767028 -1.2257645 -0.05789585 -0.47019714
110 -0.32739392 1.2681326 -1.2959788 -2.8557487 -0.6756898 2.5237248 0.32557747 -0.49748516 -0.608466 0.84108824 -0.28199193 -0.9470878 -0.70215774 -0.44299755 -0.3538174 0.2156882
88 2.9398122 -0.28273425 0.68839645 -1.7371705 -0.017712502 2.1502075 -0.76793325 0.6767323 -0.51789635 1.4906157 0.8738464 -1.2295946 -0.52192783 -1.2515616 -0.033918373 -0.49808225
16 0.35043857 -0.20207326 -0.81275845 0.074194424 0.9814251 2.2180457 0.6166327 1.1365087 0.36933386 0.2519809 0.06610617 -1.2208514 0.11931303 0.66248953 0.099188834 0.3429888
158 0.32105193 -0.18275179 -0.81477237 0.067917556 0.8842296 2.0872116 0.54008824 1.1257871 0.3410906 0.28474566 0.0066565974 -1.1813766 0.09496018 0.655276 0.012299879 0.37456563
52 0.9232986 -0.43712488 -0.012614086 -2.0472283 2.4863656 -0.100116886 -0.69799346 2.1879346 1.630055 1.5982778 0.3229558 -1.1839526 0.13781178 -1.2667708 0.0718768 0.4719349
125 1.5867145 1.2173203 -0.48464796 0.35144132 -1.347021 2.6854568 1.0729532 -0.11298657 1.321521 2.0438404 -0.5439965 -0.8851295 -0.4594208 -1.8537204 0.0025077316 0.16983503
85 1.642845 1.2345304 -0.46598017 0.34239247 -1.3415668 2.7327516 1.0684195 -0.13066979 1.3470043 2.0985951 -0.556674 -0.9507454 -0.47147706 -1.9343233 0.026506918 0.17470339
35 0.479509 0.18403308 0.027512593 -1.5562466 0.90014935 1.0505885 -0.78173 -0.10747724 0.8275979 1.7205864 -1.6554921 -1.0544592 -1.2546945 -0.59931767 -2.0369124 0.7846904
114 1.1098146 -0.42092705 -2.0640054 -1.018655 1.4949005 1.8031285 -0.26271033 0.17400736 -2.2426987 0.6863954 -2.3627357 -1.4839691 1.2160547 -0.8264965 -0.3145638 -0.47019735
136 1.1395198 -0.146071 -1.2301109 -0.5057903 1.2451032 1.455846 -0.8630622 1.7300696 1.149344 -0.41587248 -1.1125487 -0.6567946 0.621071 -2.6801949 -0.3900747 -1.8456645
28 0.26242802 -0.14517651 -0.7423731 0.037437066 0.92405325 2.0588057 0.5250162 1.0321946 0.4081306 0.24161352 0.025634842 -1.1490107 0.13400424 0.65371823 0.11162875 0.2742804
178 0.4975117 0.13587715 0.18054375 -1.3878304 0.9697356 1.1934777 0.64170146 -0.66220766 0.90850013 0.98322195 -0.64947313 0.29677463 0.6412372 -0.9539316 0.98243207 -0.7276333
149 0.4596316 0.18970956 0.18168247 -1.4598136 0.9415391 1.2390364 0.6360979 -0.6865191 0.8446472 0.98177177 -0.6855002 0.301595 0.6776573 -1.0131551 0.9881436 -0.75763714
118 0.3103989 -0.22625326 -0.7886904 0.08334532 0.93757874 2.191422 0.56418663 1.1483325 0.39067945 0.26898196 0.03977205 -1.2464126 0.084991954 0.63066906 0.06066902 0.32878152
37 0.48453712 0.20499301 0.12713386 -1.4349529 0.9673867 1.2103947 0.6279741 -0.6678438 0.8651715 0.9976917 -0.6674918 0.2871061 0.6473769 -0.95257914 0.9676635 -0.7551834
98 0.6180106 0.13241377 0.4034053 -1.060622 1.4137981 1.9630398 -0.28020734 -0.29123467 0.49555388 -0.7719909 0.09305298 -1.4503442 -1.8956767 -2.7085397 1.017674 -0.113581434
171 0.27962118 -0.1820552 -0.82399845 0.05407023 0.8748381 2.070666 0.57588106 1.0989472 0.31039542 0.24203813 0.02492803 -1.1663276 0.09770176 0.6789243 0.105714224 0.33884373
63 0.34649804 -0.19230366 -0.7396701 0.02760106 0.9209297 2.170992 0.60099405 1.1297967 0.3852397 0.22913554 0.007667334 -1.2090492 0.14916186 0.6930992 0.04513142 0.32658353
112 0.32169545 -0.17913681 -0.7946853 -0.014905541 0.8473478 2.0943706 0.5656308 1.0465446 0.34131107 0.2970425 0.014704258 -1.1467174 0.14213972 0.6307517 0.07958339 0.32224315
155 0.47274342 0.21381405 0.1980115 -1.4557754 1.0334749 1.2491192 0.640381 -0.70838195 0.90441805 0.9596648 -0.65754884 0.25240615 0.6423952 -0.9113876 1.0301888 -0.80858064
74 0.279198 -0.23245224 -0.7752788 0.06843586 0.9407901 2.1180706 0.58713204 1.0446764 0.33547795 0.24571198 0.024550674 -1.1961399 0.12970641 0.65521747 0.047244202 0.29921055
39 0.49798295 0.17553146 0.21125749 -1.4555675 1.027265 1.2576154 0.6644252 -0.6857029 0.8843927 1.0370433 -0.7087152 0.31326938 0.70691746 -0.9961221 1.0303352 -0.81993794
119 0.48522058 0.20729017 0.18855043 -1.4826572 1.0085987 1.25568 0.62228453 -0.7350021 0.8930312 0.9944686 -0.6868438 0.25827226 0.6815609 -0.938152 1.0204134 -0.76247764
55 0.35440952 -0.19751102 -0.7472458 0.040414404 0.95385253 2.1076007 0.5481507 1.0755917 0.36335924 0.24750787 0.012349147 -1.1369048 0.07238021 0.6291048 0.11059389 0.29082307
106 -0.1982259 -0.77025944 -1.7200862 0.3051716 1.0412371 0.93065876 1.1024996 0.7763702 0.5168741 2.0416973 -0.37119588 -2.0769062 -0.6160685 -2.2919478 -1.3895993 0.10412988
12 -0.23382638 -0.7425463 -1.6806374 0.3457192 0.99130446 0.8596422 1.1231974 0.74786603 0.467432 2.0414193 -0.35869983 -2.0227196 -0.6141708 -2.2878916 -1.3842096 0.105298564
7 0.30096915 -0.1373255 -0.8669603 0.04490077 0.97155327 2.2278228 0.61553526 1.086156 0.37995794 0.2708968 -0.03787427 -1.2382705 0.12454904 0.6593777 0.091106966 0.36989865
33 1.0479856 -0.36760727 -2.0006769 -1.0208925 1.4907427 1.8528442 -0.2625958 0.11473682 -2.0380397 0.69926786 -2.2369173 -1.4574257 1.108586 -0.852404 -0.31534615 -0.46149626
104 0.30304748 -0.15120907 -0.78526276 0.025188934 0.91740066 2.0457284 0.622174 1.0294422 0.41571784 0.26859438 0.04590581 -1.111065 0.096803375 0.63793796 0.13285379 0.31490478
49 0.51179177 0.28667125 0.16606238 -1.5375876 0.99180716 1.3145692 0.6840098 -0.7574625 0.9044904 1.0403217 -0.6699384 0.30125147 0.689878 -1.0631498 1.0722978 -0.80398446
166 0.4862013 0.20517124 0.2036973 -1.4564725 0.97905785 1.2679224 0.66268015 -0.7367182 0.8581256 0.97411096 -0.68346214 0.2805326 0.7032059 -0.8979048 1.0119925 -0.77769977
38 0.5375959 0.17493188 -0.02149437 -1.6529363 1.0081396 1.1447427 -0.72750235 -0.024466474 0.9240369 1.7159212 -1.6259853 -1.073668 -1.1793389 -0.65691376 -1.98117 0.76464206
82 0.96564984 -0.46366125 -0.003149426 -2.0366828 2.5168386 0.027339943 -0.67486966 2.1773572 1.6199312 1.5821922 0.31423214 -1.2018484 0.104511514 -1.2166039 0.09238138 0.4005776
105 -0.37441248 1.3082433 -1.2541786 -2.7807224 -0.7838974 2.4569926 0.3221915 -0.48815122 -0.6011413 0.7953894 -0.2645806 -0.9360017 -0.7464976 -0.42812622 -0.36054072 0.26796797
129 0.48304614 0.22964823 0.21734886 -1.4622605 0.96669257 1.2474793 0.67990506 -0.7052352 0.8926678 0.98491216 -0.7160352 0.32712787 0.63874424 -0.99437547 1.0056481 -0.75513256
121 0.0019060213 -1.0918843 -1.5155439 -1.3579053 0.47168767 1.4685588 -0.38985643 -0.31122032 1.1287234 1.219956 1.8401672 -0.72396415 -0.3146233 -1.5682127 -0.44102776 0.5584801
174 -0.2481375 -0.7546053 -1.6926801 0.37916884 0.9991122 0.869803 1.1333348 0.76822853 0.47621542 2.0451488 -0.46755323 -2.0323133 -0.56830376 -2.3219573 -1.4116938 0.06694908
70 0.49876368 0.16397077 0.14550465 -1.4039171 0.9169948 1.2106018 0.6230821 -0.6772616 0.810802 0.9679381 -0.649202 0.27547255 0.64933896 -0.94316036 0.95630217 -0.732923
54 -0.29242942 1.2388095 -1.2478625 -2.8443294 -0.6546513 2.58481 0.3309794 -0.50366706 -0.5698741 0.87221605 -0.30200756 -0.9873706 -0.6674902 -0.53267264 -0.36980304 0.20938599
148 0.6680931 0.15788573 0.4358791 -1.0773846 1.3926107 2.0003476 -0.3008103 -0.30100858 0.47543567 -0.72633827 0.08738071 -1.4239727 -1.9120818 -2.7057374 0.9789049 -0.12528409
128 0.31067568 -0.20851673 -0.78863037 0.008547345 0.9183819 2.0668342 0.5581432 1.0812156 0.34718212 0.23106305 0.018795172 -1.1508827 0.055979047 0.6265336 0.050287604 0.33129632
151 -0.107643455 -1.2823731 -1.7064632 -1.4698776 0.549586 1.5387715 -0.46428883 -0.4182811 1.2140608 1.2421296 2.0667024 -0.8003644 -0.3774309 -1.6926394 -0.4814371 0.59041375
157 0.4447472 0.18651804 0.1302034 -1.4238918 0.97183067 1.2732813 0.6614302 -0.688401 0.8479014 0.95281 -0.66430694 0.26197958 0.6636839 -0.9247976 0.9769263 -0.71000856
48 0.5388816 0.21711001 0.01247864 -1.6196309 0.95514625 1.0841352 -0.76214236 -0.073864356 0.86722416 1.6845887 -1.6110682 -1.0307554 -1.1809912 -0.60194486 -1.9126861 0.75048023
72 0.019312646 -1.1283875 -1.4721625 -1.3142213 0.54864925 1.4214208 -0.39256835 -0.30847734 1.1058309 1.1848093 1.7757398 -0.74164665 -0.3437288 -1.5579524 -0.38327867 0.51733434
109 -0.01901442 -1.2774003 -1.6655768 -1.347304 0.5264973 1.4888604 -0.4499328 -0.34484398 1.1493484 1.2084666 2.0542371 -0.79790425 -0.38397288 -1.6803598 -0.45002267 0.57854056
141 -1.3869479 -2.0139832 0.04666795 -0.061182823 2.078345 2.2482448 0.49046543 -0.6170586 1.211991 0.48572293 -1.9578463 -1.3892072 1.0832134 -0.9792561 -0.24001367 0.47411597
32 -1.4016728 -2.0571966 0.058950063 -0.10158736 2.1347568 2.3700519 0.57471925 -0.6129527 1.2857103 0.54019386 -2.0119338 -1.4633363 1.1214008 -0.98824435 -0.26372674 0.4854376
81 0.8178982 -0.6352095 -1.2490503 -1.1871411 0.26324317 2.7215588 0.88075864 0.73164165 0.037232004 0.1270122 -1.5790056 1.0835987 0.96001893 -1.8728067 -1.3621219 1.9108164
17 0.8775237 -0.6615876 -1.1789978 -1.234467 0.3283197 2.6094985 0.79620916 0.686502 -0.0035370472 0.20342857 -1.5243187 1.0380541 0.9391369 -1.8667892 -1.3220081 1.829134
156 0.32380462 0.14567013 -0.30110347 -0.64692116 1.722563 1.230181 2.104315 1.0885069 2.436641 -0.028853543 -0.14248653 -0.5775603 -1.9933648 -1.7757841 -1.0462424 -0.75351506
34 0.30897257 0.08488013 -0.3369977 -0.59002995 1.6785961 1.142604 2.0717423 1.1331438 2.4065335 -0.08775784 -0.19525239 -0.6553671 -1.9686408 -1.7728791 -1.0379785 -0.7921375
124 1.8018897 -2.0671294 -1.1827265 -1.3686368 2.7876678 2.416951 -0.74145067 -0.11387087 -0.77876693 0.8064009 0.61448807 0.60812664 -1.0434984 -0.119625136 -0.23370706 -0.3293254
115 1.7717693 -1.984763 -1.1098114 -1.3142625 2.7138324 2.3588233 -0.6882042 -0.09215175 -0.70978266 0.83776206 0.5419961 0.6133352 -0.95059526 -0.17321704 -0.25572097 -0.26848543
65 0.50002575 0.22676052 0.1762888 -1.4462734 0.96947503 1.2233454 0.65512425 -0.7206255 0.85995024 0.9827816 -0.67095196 0.31289974 0.68838364 -0.9428448 0.9794911 -0.74381185
58 0.5555532 0.25029546 0.238008 -1.4564098 0.973645 1.2250285 0.6853766 -0.7779135 0.8914822 1.0024492 -0.662168 0.33168694 0.697685 -1.0459449 1.1025921 -0.8278536
165 1.111142 -0.12994243 -1.2366617 -0.44928363 1.2612067 1.3683478 -0.8304427 1.7366551 1.1902876 -0.41464218 -1.1019872 -0.64247924 0.5624129 -2.6551507 -0.3789755 -1.8035738
76 0.29581875 -0.12592825 -0.7400426 0.09179865 0.8542237 2.0498645 0.55706036 1.0330163 0.3445948 0.2717803 0.003302369 -1.1530666 0.14148527 0.65993065 0.08311559 0.2779414
79 0.4656586 0.1814776 0.18229361 -1.3709347 0.90856224 1.2353102 0.6205428 -0.6710055 0.86132056 0.96483415 -0.6433873 0.29495838 0.65439314 -0.960822 0.95492417 -0.74779385
145 0.47484007 0.15976295 0.19001465 -1.4202029 0.96197677 1.246156 0.67937505 -0.68843174 0.8919911 0.96443886 -0.60300833 0.304832 0.66287583 -0.9747043 1.0255842 -0.7763063
43 0.5284329 0.21457477 0.019907935 -1.5650861 0.8918124 1.0259602 -0.6990815 -0.052127164 0.8357341 1.5993226 -1.525081 -0.9916668 -1.1515982 -0.59309614 -1.8552637 0.7480082
172 0.4938039 0.19962914 0.15255734 -1.3986801 0.97917396 1.2191286 0.6584388 -0.6712414 0.8892524 0.97724503 -0.6078798 0.2597889 0.62121075 -0.93390006 0.9705128 -0.73443913
29 0.26217467 -0.15946457 -0.8034869 0.013331441 0.9741959 2.1730666 0.61873794 1.0914706 0.39407912 0.2873696 0.034898046 -1.2034032 0.10331241 0.67184603 0.088923454 0.33480212
57 -0.2720781 1.1240584 -1.1812423 -2.6521652 -0.64386344 2.4082735 0.32964572 -0.45009783 -0.5833298 0.7421403 -0.2703271 -0.8886495 -0.655952 -0.48292285 -0.36858588 0.18817677
133 0.480322 0.18470815 0.17980275 -1.4040879 0.9685261 1.2340055 0.63905716 -0.6824684 0.8670329 0.9810432 -0.6980027 0.29065874 0.6065882 -0.9810516 0.94413006 -0.76459354
73 0.5297591 0.1660513 -0.022076178 -1.5301077 0.9276054 1.079871 -0.7326763 -0.049945205 0.7927229 1.6378865 -1.5318315 -0.9813865 -1.139178 -0.5961642 -1.8526016 0.74614066
75 0.45194224 0.19085243 0.19605814 -1.4066138 0.9558415 1.1475679 0.6281894 -0.6465914 0.83417296 0.95695895 -0.64877284 0.2977148 0.66331553 -0.96027845 0.952243 -0.73168874
134 0.4670716 0.22139753 0.2413359 -1.4338701 0.9588588 1.1715891 0.6322523 -0.7193568 0.8981115 0.9545238 -0.69085866 0.29178905 0.6766707 -0.9690964 1.0166577 -0.8088937
142 0.27478456 -0.20006797 -0.81683725 0.07034806 0.9913657 2.2130713 0.57601166 1.1589632 0.36684194 0.24290448 -0.039496668 -1.2566326 0.11285299 0.6654132 0.037089907 0.3296706
9 0.30409303 -0.1633415 -0.80257726 0.043717932 0.85580707 2.1055162 0.52982527 1.0889524 0.33413932 0.23037434 0.026928768 -1.1648653 0.12404872 0.6930676 0.05572742 0.32309482
103 0.5106765 0.22405633 0.16319096 -1.4172994 0.980423 1.223681 0.6276586 -0.67557013 0.86979026 0.9870376 -0.68041915 0.31008092 0.672238 -0.96124357 1.0059924 -0.7608025
56 0.524007 0.15146361 0.014357358 -1.5072623 0.96365017 1.0638556 -0.7191795 -0.008119952 0.8506246 1.6525236 -1.5577011 -1.0127842 -1.151349 -0.63102835 -1.9226221 0.7106361
64 0.47561756 0.20081344 0.169656 -1.4286752 0.94428146 1.2548828 0.6045065 -0.6887352 0.81801623 0.96846974 -0.62869304 0.26840684 0.64821357 -0.9405546 1.0047121 -0.7248128
126 0.45147732 0.21373844 0.21041508 -1.4102783 0.9489005 1.1745454 0.66810703 -0.69894004 0.844922 0.9007338 -0.63746274 0.3358096 0.6873811 -0.93258655 1.0585662 -0.7507253
27 -0.27340037 1.28069 -1.2790908 -2.8439512 -0.69721407 2.6266007 0.40388295 -0.5050111 -0.57993263 0.8455489 -0.3196175 -0.9832948 -0.67163056 -0.46762022 -0.30974662 0.22867143
24 0.26952595 -0.17524172 -0.77431434 0.032672055 0.8739299 2.0047686 0.5668155 1.0194857 0.34788734 0.24874456 0.034915846 -1.1339505 0.10652815 0.6026986 0.088024564 0.26797155
96 0.29470745 -0.20280811 -0.7863275 -0.021959383 0.9668073 2.26734 0.6186126 1.0961422 0.42431045 0.2805135 0.0030980192 -1.2053546 0.113388605 0.6337626 0.10802747 0.35701352
6 0.3673615 -0.16440876 -0.7960492 0.05520987 0.926073 2.1962836 0.6111899 1.1253194 0.37587482 0.24535635 0.0036721546 -1.219426 0.10805503 0.63264364 0.10630724 0.28392437
15 0.27290565 -0.21333824 -0.8422616 0.050897032 0.967161 2.131563 0.61540276 1.0618018 0.331062 0.30566514 -0.0033338405 -1.187535 0.13813695 0.6872583 0.054862894 0.37632626
21 0.29029799 -0.21156012 -0.82509845 0.022906406 0.96766466 2.179547 0.59048283 1.1188871 0.3687864 0.21762396 0.007222876 -1.2147772 0.12530434 0.6669188 0.06937928 0.3468872
176 0.25345683 -0.175646 -0.7284315 0.007226776 0.8860011 2.0350592 0.5718971 1.0294416 0.3494881 0.2871877 0.03984302 -1.1557578 0.11084215 0.61578584 0.060205225 0.3491775
175 0.49289837 0.18388641 0.16866787 -1.3816139 0.9350054 1.2108891 0.63902783 -0.66454536 0.815593 0.9568178 -0.64290327 0.3161258 0.68945384 -0.91750383 0.9781185 -0.75817287
154 0.29621008 -0.21638292 -0.7218074 0.011281338 0.8433541 2.0420508 0.5193817 1.0313499 0.37796697 0.29758352 0.040620893 -1.1549667 0.10499881 0.61156756 0.064553194 0.29399756
77 0.2998443 -0.1978443 -0.7924146 0.059345953 0.8902732 2.0532851 0.60689723 1.0620556 0.38494867 0.22547933 0.04403235 -1.1791098 0.089858964 0.6744543 0.05881721 0.3484942
80 0.5515372 0.19579393 -0.034895882 -1.612204 0.99390405 1.2057413 -0.67888844 -0.04914877 0.8758837 1.7033546 -1.5146801 -1.0449332 -1.1508847 -0.6580373 -1.8375396 0.70848715
162 -0.25221282 1.2279367 -1.2109573 -2.804266 -0.613487 2.5471406 0.35484168 -0.49771357 -0.50181425 0.866199 -0.3416213 -0.913863 -0.6051255 -0.5043327 -0.26452577 0.20648803
108 0.5080613 0.17698297 0.1939294 -1.4092175 0.9329302 1.1739699 0.61890984 -0.6924067 0.8099766 0.94197005 -0.6599071 0.28439844 0.66122717 -0.9466217 1.0331227 -0.78203446
102 0.24398096 -0.22476467 -0.8139098 0.099728435 0.92258334 2.0685937 0.5933121 1.104953 0.35886756 0.2233596 0.047812086 -1.2156304 0.1361899 0.72936094 0.026419152 0.35539156
13 1.111596 -0.17855713 -1.2386831 -0.47061488 1.1979074 1.3961878 -0.83289397 1.6874161 1.1858624 -0.3561327 -1.0997182 -0.6565278 0.5778506 -2.6047065 -0.4530182 -1.7926071
23 0.48843032 0.2218017 0.18001613 -1.4867315 0.9697792 1.2571794 0.6450139 -0.7508432 0.88860947 1.0165777 -0.6488834 0.29128578 0.67642397 -0.97084445 1.029715 -0.7944145
150 0.5201836 0.20996296 0.16593604 -1.3902246 0.92124826 1.2511537 0.652527 -0.666281 0.8786828 0.97876346 -0.66222185 0.2741064 0.6203446 -0.9744545 0.9852364 -0.7510194
5 0.5007749 0.15433857 0.19414403 -1.4737058 0.96775043 1.2083644 0.66248727 -0.7039688 0.9180524 0.9642889 -0.676768 0.35169807 0.68448806 -0.92789054 1.0079222 -0.77392006
170 0.493424 0.21709676 -0.04438099 -1.5020204 0.851771 1.0776821 -0.63835377 -0.08873718 0.7873351 1.5558785 -1.4589636 -0.972209 -1.0748684 -0.61694944 -1.7756729 0.6857795
10 0.51188827 0.19985521 -0.009314666 -1.49796 0.91507334 1.0315933 -0.7539406 -0.0071125524 0.84811175 1.657827 -1.4945295 -1.0540743 -1.1770813 -0.626667 -1.9153081 0.74462974
122 0.45902258 0.15904722 0.1484611 -1.4259456 0.96740377 1.222502 0.63153946 -0.6956657 0.8733877 0.9478802 -0.6597579 0.28302982 0.66743225 -1.000801 0.996162 -0.76723725
59 0.2676671 -0.13543877 -0.7616381 0.04298684 0.8567117 2.0474362 0.55003935 1.0259657 0.35643557 0.2790648 0.004158885 -1.1316347 0.08394607 0.623278 0.03462549 0.33529097
146 0.58137083 0.09796734 0.37955186 -1.0946003 1.3465488 1.9626331 -0.24723329 -0.31935397 0.46809778 -0.6674952 0.07983457 -1.3522792 -1.7424666 -2.5101056 0.98633003 -0.121785454
180 -0.037680928 -1.1886928 -1.5610882 -1.4461502 0.5551517 1.5455108 -0.42563117 -0.3346282 1.1463904 1.2028528 1.9772626 -0.7994493 -0.31516925 -1.6080132 -0.44082806 0.5577059
87 0.25767738 -0.15916188 -0.7939228 0.06189122 0.8609759 2.04907 0.59541035 1.0582054 0.38167408 0.26738214 0.049549855 -1.1683959 0.10164669 0.61422086 0.08147914 0.29259908
22 0.2776566 -0.16173151 -0.81167597 0.05389296 0.8698929 2.098543 0.5853473 1.0665665 0.40114257 0.27889743 0.013339756 -1.2057464 0.11875915 0.6296494 0.038998537 0.3011294
139 0.31387854 -0.15010047 -0.78272504 -0.013950804 0.9015874 2.1834662 0.57372177 1.0472666 0.35367128 0.30666912 0.025022391 -1.1814855 0.086372755 0.614936 0.050096508 0.3332405
8 0.037250325 -1.0259366 -1.4076484 -1.302537 0.55892015 1.4091928 -0.3734408 -0.25426877 1.0335431 1.102384 1.6683166 -0.6788739 -0.33517414 -1.491546 -0.4000619 0.5076431
135 0.2833725 -0.20853674 -0.806249 0.025333297 0.8905366 2.1122775 0.5573391 1.021199 0.3540336 0.25825882 0.010505757 -1.1245837 0.1415936 0.6629444 0.090180814 0.32554206
42 0.49184337 0.20776685 0.19676626 -1.4020469 0.95345724 1.2260317 0.619836 -0.7051441 0.8930047 0.9762001 -0.6130931 0.26788804 0.7012566 -0.95831394 0.9904776 -0.7033673
97 0.30455822 -0.19348192 -0.75250554 0.060886428 0.90384114 2.083494 0.59701943 1.0716435 0.3614467 0.21916004 0.0069567086 -1.1739603 0.13156557 0.6288878 0.10301603 0.2835095
26 1.0210066 -0.32324627 -1.8396447 -0.96614313 1.3606226 1.6930333 -0.25514454 0.12416118 -1.9267948 0.64078856 -2.0699155 -1.3627677 1.037074 -0.8390791 -0.24664171 -0.45245305
130 -0.1930807 -0.777624 -1.6680908 0.36795074 0.973689 0.8479551 1.0994024 0.7505066 0.4466746 2.0008473 -0.33634254 -2.0255952 -0.61539346 -2.20502 -1.3857533 0.11757375
18 0.9494676 -0.45232543 0.058264565 -2.0183918 2.492091 -0.14672235 -0.70914733 2.2203739 1.5929346 1.5430251 0.4056115 -1.1499202 0.14355816 -1.2163199 0.12794718 0.4478167
44 0.29391018 -0.1753284 -0.76319474 0.087536626 0.90031785 2.0719943 0.586528 1.0510603 0.2958636 0.2724981 0.07465236 -1.1553025 0.060272437 0.7387162 0.05384045 0.36190382
143 0.5356386 0.17308106 0.15108661 -1.4455965 1.0017948 1.2646028 0.63996947 -0.7203935 0.9133592 1.0065461 -0.6574632 0.2935536 0.69205815 -0.99677676 1.0160384 -0.7714118
159 1.4490176 1.0887392 -0.47433373 0.31926674 -1.1860768 2.5999568 1.0251218 -0.10607267 1.2644931 1.9435129 -0.514969 -0.8859143 -0.4095011 -1.8124547 -0.03720345 0.18450889
100 0.41538545 0.1970165 0.19018142 -1.3248873 0.9316657 1.1420883 0.6067427 -0.6511779 0.8249209 0.878396 -0.6054737 0.27407938 0.60892963 -0.8928076 0.9896292 -0.7302935
123 2.757287 -0.20868908 0.6350134 -1.6089708 -0.056380957 2.0613637 -0.7595694 0.635735 -0.480014 1.3568511 0.82115656 -1.1583189 -0.46873036 -1.1819155 -0.023398738 -0.47314155
111 0.2666095 -0.16135249 -0.75953645 0.009329285 0.86591935 2.07075 0.53314686 1.0508475 0.33752123 0.29551497 0.047516458 -1.1251261 0.06422533 0.60742265 0.02366059 0.3389234
152 0.261685 -0.21022148 -0.70934296 0.03544649 0.89327186 1.982502 0.5581979 1.0291351 0.36327863 0.22554992 0.040644445 -1.1006727 0.100365244 0.60699916 0.072624415 0.3045064
