81 64
王东 0.09576448 -1.1650655 -0.67976505 -0.75289965 -0.36108515 0.104308866 -0.51381236 0.40120772 0.6216437 -0.17253757 -0.15449378 0.3322232 -0.11282754 -0.90953153 -0.4287057 -0.69088256 0.14538825 -0.1816742 0.18459703 0.08595141 -0.4765457 -0.06877084 -0.21360087 -0.6256954 -0.9938746 -0.3226437 -0.42876154 0.12430991 -0.39089233 0.7053056 -0.15880808 0.512683 0.6163704 0.6598114 -0.5177791 -0.44557938 1.4081771 -0.3469702 0.18407255 0.10215524 -0.2757297 0.33194074 -0.43543193 0.38600904 0.6329553 -0.7878174 -0.22575402 0.5192228 0.24358104 -0.49043256 0.40286845 -0.6733803 0.880448 -0.84862936 -1.3182927 -0.17236888 0.5708715 0.07889938 -0.3063549 0.17905818 -0.5057763 -0.96067256 1.161962 -0.70602155
刘世会 -0.6967784 -0.36151123 -0.75483274 -0.26484364 -1.5335451 0.2082836 0.32518375 -0.41712728 0.44089192 0.3161098 -0.5055117 -0.65433073 -0.19534181 -1.1287062 0.054650486 0.52807087 0.050945137 0.28655902 0.36704397 0.16640024 -0.05218237 0.14913957 -0.8707138 0.3161405 -0.7928466 -0.472604 -0.14139098 -0.068489365 -0.3224322 1.0030328 -0.029486364 0.55156016 0.40806198 0.44798398 -0.04698321 -1.0785202 0.09923116 -1.1316402 0.66278994 0.3390878 0.28797913 0.41219333 0.35860005 0.1952329 0.7510397 1.1244215 0.7972782 0.549402 0.99361897 0.37249166 0.4550357 -0.81284475 -0.13269983 -0.027112693 -0.6763391 -0.7837573 0.445598 -0.3852414 -0.24186462 0.19929555 -0.50704247 0.53097904 0.7383295 -0.26667926
皮勇华 0.18326893 -1.1758862 -0.6937701 -0.8121781 -0.32445124 0.08968144 -0.62065774 0.42343843 0.66906625 -0.26664653 -0.24063787 0.2872563 -0.14460291 -0.8547198 -0.4384604 -0.714454 0.15063548 -0.22950566 0.22873296 0.11875978 -0.4700603 -0.056382336 -0.20102139 -0.64492923 -1.07286 -0.312013 -0.45219555 0.12271426 -0.46693224 0.7548942 -0.16644573 0.48475376 0.58287543 0.63263345 -0.5219004 -0.45221627 1.3664054 -0.2176996 0.24397391 0.039211627 -0.3298649 0.43084902 -0.4812844 0.31358176 0.5757425 -0.7852421 -0.26441216 0.5285611 0.32498306 -0.51308244 0.46837297 -0.6754176 0.90458804 -0.8309798 -1.4496788 -0.11383896 0.58470476 0.21363983 -0.41913223 0.12425953 -0.55705714 -1.0063864 1.2060012 -0.70272696
林翰章 0.17306487 0.014739814 0.2777728 0.31742582 -0.67777437 0.31946957 -0.4588029 -0.41798842 0.25021225 0.89133877 0.20473675 -0.6031901 0.1147411 -1.2078179 0.37661302 0.40038845 0.32563454 -0.081528395 0.40760142 0.21292561 -0.12284032 -0.19956483 -0.75848866 -1.0569031 -0.11994023 0.36901307 -0.72435623 0.61079985 -0.19569805 0.5053141 -1.085968 0.5552262 0.49888393 0.6630778 -0.22764154 -0.50915277 0.69531214 0.25650528 -0.12017771 -0.39421254 0.5717594 -0.06566079 0.016626336 -0.18537167 0.8271785 -0.278141 -0.32216665 0.109221175 0.9427741 0.69536 0.8869279 -0.94774586 -0.3045687 0.17168567 -0.28079534 -0.037992276 -0.14738964 0.7136807 0.29335657 -0.15240763 0.16184746 0.006068857 0.525249 0.46774676
刘伟 0.2582693 -0.5135178 -0.9124625 0.36262646 -1.1883144 1.0340679 -0.50101906 0.21222502 0.06482784 1.1158638 -0.8349349 0.32062924 -0.8891044 -0.19522138 -0.48885128 0.036825225 0.8145722 -0.047372315 1.2332312 -0.0545392 -0.43708032 -0.28719786 -0.65750027 0.36569148 -1.1582069 -0.6551541 -0.21221465 0.6294769 -0.38818336 0.4218054 -0.7882727 -0.5034636 0.31769764 0.18404321 -0.2536816 -0.5329569 0.51040053 0.049992077 -0.21188873 0.52603805 -0.25341526 0.513356 0.5213216 -0.009979875 0.48459607 0.6277792 1.2104584 -0.5360446 -0.79710215 1.0082202 0.6665112 -0.6630386 0.17132196 0.29618993 -1.033774 -0.14934069 1.2477112 -0.034663346 -0.6437135 -0.12742417 0.7785934 0.10266696 0.8087019 -0.37486652
郭建 -1.2549924 -0.23166811 -0.38943338 -0.31037003 -0.889506 0.7560953 -0.41015097 0.47106093 0.8791709 1.0850962 0.33717898 -0.03767173 -0.71964407 -1.9333321 -0.17343222 0.11044817 0.3866743 -0.1938417 1.0019972 0.17573836 -0.2285555 -0.42010227 -0.4964296 0.32556698 -0.99674255 -0.21963319 -0.08093464 0.49801207 0.2611187 0.7809225 -0.27822414 0.5388077 0.61110604 0.7770735 -0.44656375 -1.2682443 0.7242441 0.29089192 0.36608163 -1.1771375 -0.27155632 -0.33374032 0.20769013 -0.16308087 -0.18044375 -0.43525648 0.059405424 -0.3273275 0.51715595 -0.58415526 -0.4465893 0.33177844 -0.09561785 0.20855096 -0.5856337 -0.019424852 -0.06043127 0.6939121 -0.3652056 -0.09326175 0.10120873 0.7937426 0.29598764 -0.43215254
谷云宏 -1.2221851 -0.16696957 -0.3415619 -0.27692828 -0.83330274 0.709855 -0.38910517 0.48389757 0.8393109 1.0295382 0.32826775 -0.034512285 -0.6666906 -1.8126676 -0.1667896 0.094675146 0.3896119 -0.17595546 0.9175401 0.13411854 -0.23403841 -0.4080465 -0.45468193 0.31714034 -0.9407671 -0.22080436 -0.064250514 0.4911255 0.2655731 0.7412286 -0.22313577 0.5368367 0.5699354 0.7014753 -0.41708732 -1.2029381 0.6924474 0.2610148 0.34522784 -1.1505533 -0.25181964 -0.3133209 0.1675616 -0.13931097 -0.2091268 -0.42982998 0.030901998 -0.3057442 0.49209124 -0.56616807 -0.46863234 0.36313125 -0.09993582 0.18943557 -0.54715097 0.0013993492 -0.09562382 0.6680943 -0.327483 -0.07041815 0.08348986 0.7878083 0.2444304 -0.43292478
薛峰 -0.6823797 -0.33679396 -0.72957337 -0.26291782 -1.4738369 0.21740836 0.3554638 -0.45079905 0.42997047 0.32041186 -0.46632293 -0.6427087 -0.12580189 -1.0621986 0.055266358 0.51534384 0.049295984 0.29037908 0.33601916 0.17257513 -0.046108447 0.11757905 -0.8469464 0.29330662 -0.716892 -0.45843515 -0.13551877 -0.07173935 -0.31902832 0.97228783 -0.013508883 0.52600086 0.41029173 0.40625405 -0.027284497 -1.0443195 0.10819136 -1.0876743 0.6713552 0.38586187 0.2800021 0.39872104 0.3418358 0.20498642 0.6900897 1.1492895 0.7732412 0.501542 0.9653171 0.36661267 0.4119143 -0.7159598 -0.15039384 -0.041390598 -0.6262202 -0.76922834 0.42457977 -0.3880086 -0.21962829 0.21338347 -0.47632557 0.5423669 0.7026428 -0.267818
钟晓鸿 0.06284443 -0.016564755 0.26153716 0.2876139 -0.6842173 0.24613786 -0.46894285 -0.41131052 0.23702255 0.8797836 0.37035823 -0.4715029 0.1471171 -1.0079706 0.4099939 0.3299328 0.26047924 -0.072764486 0.5971368 0.20973377 -0.19876014 -0.29666576 -0.8447858 -1.0522681 -0.26729894 0.32248324 -0.7817893 0.42814875 -0.05805941 0.585625 -0.876832 0.631562 0.44005585 0.43184066 -0.15130405 -0.4158898 0.6956903 0.1139505 -0.21421513 -0.16621123 0.4534251 0.08641243 0.083208725 -0.15524329 0.5800198 -0.24799441 -0.31398422 0.14800933 0.72211653 0.6872516 0.94273686 -0.88657 -0.452077 0.09975747 -0.18410252 0.04017654 -0.027642928 0.5057964 0.10294161 -0.027287021 -0.08067325 0.026130946 0.7072804 0.5221183
卢旭阳 -0.16687322 -0.08715608 0.076602764 0.13019979 -0.70463806 -0.04455824 -0.69278437 -0.21209851 0.46501678 0.58023167 0.54192877 -0.6021019 0.20876348 -0.9233471 0.43499428 0.4079995 0.26627132 0.107650094 1.26507 0.53863704 -0.70629525 -0.38399795 -0.916391 -1.2660618 -0.6219173 -0.005657024 -0.8382108 0.3477435 0.1104197 0.8585432 -0.6543682 0.8426072 0.5248471 0.21396844 -0.028020957 -0.26343465 0.489862 -0.092198916 -0.55204767 -0.09039534 0.28572515 0.1688059 0.40845492 0.026991202 0.23068827 -0.63077855 -0.25701028 0.049896836 0.64951664 0.904055 1.0933634 -0.62053084 -0.5227121 0.13525547 -0.49125925 0.15224728 0.22296888 0.24457519 -0.3056371 -0.083198965 -0.16362357 0.022507833 0.9551922 0.7768922
朱文芳 -0.40722975 -0.71436006 -0.8822035 -0.23390844 -0.32936043 0.571827 -0.6685865 0.8165522 0.5360236 0.4268477 -0.5358483 -0.07936052 -0.84593517 -0.09815458 0.29298332 0.16489209 0.006321891 -0.6262377 0.47495496 0.5605598 -0.015757581 0.42215195 -0.10581277 0.19872671 -1.0343672 0.40059698 -0.6147428 0.11037251 0.916288 -0.02745867 -0.4612096 0.25740838 -0.3795212 0.8432301 -0.06708609 -0.38996646 -0.69083273 -0.48104665 -0.3802602 -0.823238 -0.12766252 0.7885107 0.7064758 -0.67071366 0.32002926 -0.4457565 0.5648408 0.4136428 0.61457366 -0.6573446 -0.05208957 -1.1895834 -0.16465788 0.15391316 -1.0041379 -0.3597997 0.42313212 -0.03265855 -0.65386444 -0.6476053 -0.16002509 0.22420233 0.9891975 0.8007637
郑晓生汉 -0.4258395 -0.70451176 -0.9098066 -0.26061454 -0.37004143 0.58958364 -0.66091263 0.8371654 0.51566124 0.431154 -0.53235227 -0.07910184 -0.8575173 -0.16675353 0.25931546 0.16744511 0.030088197 -0.5916646 0.493735 0.54926413 -0.031249296 0.40184358 -0.13162984 0.14780623 -1.0401703 0.38321283 -0.6269845 0.11266184 0.891441 0.037855685 -0.54389256 0.25083447 -0.2962576 0.8517295 -0.06609142 -0.41687366 -0.6474707 -0.5019409 -0.34494767 -0.8084186 -0.1405837 0.79329044 0.6883119 -0.6771017 0.3177746 -0.4173729 0.5819261 0.40991375 0.6230818 -0.63969964 0.006796115 -1.1997924 -0.20712455 0.15289438 -1.0286456 -0.35104796 0.4528531 -0.010161235 -0.65263826 -0.64285994 -0.17010416 0.20065883 1.0452796 0.7974233
娄和儒 -0.14043517 -0.71539855 0.5181584 -0.42907774 -0.41202384 0.6806137 -1.1337045 0.8630733 0.04836823 0.18699753 -0.33316335 -0.06923167 -0.3709412 -1.3421355 -0.7720399 1.0607435 -0.13946977 0.017450701 -0.09552472 -0.15762772 0.47497562 -1.1356759 -0.15344024 -0.78961873 0.06439197 0.078478396 -0.060705706 -0.41008687 -0.3578326 0.7495652 -1.0438589 0.3241064 -0.22219558 0.39607182 0.44844037 -0.5878387 0.7622002 -0.6314896 0.8616779 0.09685573 -0.44209173 -0.056188017 -0.06214683 -0.22240256 0.2661873 -0.009733309 0.6304128 -0.68745905 0.1648721 0.43726042 0.97484607 -0.3446627 0.28342584 -0.014696781 -0.69760364 0.38845637 0.835879 0.31100836 -0.22267517 -0.23923881 0.12649219 0.00042692004 0.689603 0.3386617
廖远飞 -0.17667177 -0.6072996 0.5564759 -0.3948282 -0.2751475 0.6501779 -1.1815296 0.8349832 0.006155728 0.023539696 -0.2728182 -0.03365266 -0.41068998 -1.3177243 -0.70356977 0.9523479 -0.21929918 -0.10004321 -0.0110392235 -0.18238503 0.39820632 -1.0682607 -0.2963722 -0.8828116 0.10063102 -0.06439023 -0.018303048 -0.49435925 -0.41915384 0.6510702 -1.0127473 0.30483407 -0.22663958 0.3848261 0.38580573 -0.6249584 0.6442511 -0.6203483 0.73673815 0.059242386 -0.60217464 -0.20500368 -0.03428258 -0.3003389 0.29909933 -0.07816998 0.5854299 -0.6610559 0.059031207 0.34822875 0.9455058 -0.28769764 0.29942638 0.07151675 -0.67335546 0.4288541 0.6762988 0.23159172 -0.29469323 -0.14459692 0.176219 0.11764272 0.6938377 0.30833027
顾楠洲 -0.14331393 -0.63727 0.5195579 -0.41110882 -0.31405154 0.63698405 -1.0942931 0.84094244 0.0063839145 0.056674447 -0.28325787 -0.048089363 -0.3811885 -1.2357069 -0.7318257 0.9731719 -0.17189309 -0.0408066 -0.0831841 -0.19111869 0.44178227 -1.053459 -0.17805007 -0.76742625 0.11079756 0.033858877 -0.011432836 -0.4669379 -0.38152835 0.65965 -0.9718395 0.32102978 -0.24087952 0.3566943 0.4259917 -0.5634711 0.64724064 -0.6066536 0.79499424 0.10362149 -0.5120996 -0.15013018 -0.05712823 -0.23818548 0.26416352 -0.02520019 0.6227079 -0.6301487 0.0885847 0.36019397 0.90420175 -0.27983186 0.25810415 0.007793847 -0.6164687 0.3992141 0.71098787 0.25812322 -0.22763197 -0.1882308 0.11813933 0.051137354 0.6278188 0.31927994
胡晓清 -0.21676451 0.31728333 -0.026641423 -0.22553505 -0.27867377 -0.5745632 -0.33794966 1.1432693 -0.05912483 0.3663376 -0.4327461 -0.010250608 0.28166386 -1.0426242 -0.25839478 0.32183295 -0.605827 0.7330199 0.21466155 -0.20363437 0.36516365 0.87067944 -0.8711109 0.13800591 -0.34792706 -0.36026248 0.94243264 0.28344658 0.39104053 0.30629712 -0.3945448 -0.34538528 -0.015726019 1.1585027 -0.14203155 -1.4382441 0.7250762 -0.54683954 0.11822399 -0.21271373 -0.15308623 0.31434384 -0.085134834 -0.55297333 0.6359715 -0.12777907 0.36490214 -0.35106486 0.67466366 -0.19820449 0.5750494 -1.1122353 0.0009819379 0.5482658 -1.2388084 -0.8251096 -0.0070919134 -0.103153296 -0.51658875 -0.07563024 -0.3877493 -0.18839058 0.13014734 0.64192814
贾长胜 -0.22792484 0.28610516 -0.032325946 -0.22971393 -0.27339146 -0.55695534 -0.35053965 1.1430491 -0.07721857 0.3838107 -0.4252482 -0.004019568 0.25638896 -1.0587215 -0.25016826 0.32800987 -0.55886424 0.6854358 0.20587705 -0.17285526 0.33203965 0.8242522 -0.8629049 0.12534808 -0.35544696 -0.31207237 0.87692124 0.31266394 0.40617502 0.3115021 -0.43514717 -0.35730192 0.0025310018 1.1353353 -0.14865991 -1.3852276 0.68800646 -0.4996899 0.088567145 -0.25160766 -0.16260946 0.30616134 -0.060382992 -0.5622041 0.64968723 -0.17880611 0.31953058 -0.36114997 0.6688977 -0.17605725 0.62926835 -1.1070006 -0.004119177 0.5564744 -1.2426205 -0.83396477 0.028843664 -0.07756027 -0.47300562 -0.104954846 -0.3576797 -0.18981922 0.1679637 0.6248012
许露露 0.10293023 0.005524143 0.28671694 0.28077927 -0.61226034 0.24613099 -0.41162267 -0.40805393 0.20553873 0.8465328 0.3229913 -0.4520228 0.13736321 -0.96477586 0.38432217 0.31233495 0.24438392 -0.06686166 0.44677356 0.14431155 -0.10539639 -0.2338132 -0.7881758 -0.98625225 -0.18827881 0.3439777 -0.7651056 0.4299353 -0.09272709 0.48362693 -0.87161607 0.59221876 0.43178207 0.45339844 -0.17489988 -0.41928732 0.68191016 0.16016582 -0.14057085 -0.2138264 0.4882866 0.083126605 0.041359592 -0.16661258 0.6165192 -0.19578928 -0.3315182 0.18430987 0.7336816 0.60224336 0.9003225 -0.9143261 -0.4026876 0.0819657 -0.16226073 0.012831887 -0.076053075 0.52926403 0.15260099 -0.024386529 -0.06096618 -0.016003909 0.61283386 0.474158
尹杰 -0.06927425 -0.057554413 0.15226473 0.15500356 -0.6437885 0.0757722 -0.58815134 -0.25500047 0.37600604 0.6228708 0.46825674 -0.5439598 0.21449451 -0.8742763 0.45046374 0.34762514 0.2723469 0.07598216 0.98132306 0.42133293 -0.5301794 -0.3429645 -0.817522 -1.1873741 -0.49181372 0.120939344 -0.81396437 0.32143408 0.06720721 0.72670114 -0.68271714 0.76511717 0.4892172 0.24989827 -0.0746641 -0.26491353 0.53033787 0.009627431 -0.41397202 -0.13602151 0.3524105 0.14536455 0.24816844 -0.029690767 0.30232865 -0.47882065 -0.28335553 0.11999866 0.653197 0.74671435 1.0087292 -0.6444323 -0.49046567 0.1206864 -0.32640252 0.13562696 0.09154814 0.3359232 -0.15717201 -0.08675408 -0.16729014 0.038495008 0.8006952 0.6701224
温焕强 -0.3026258 -1.2073897 0.6309962 0.2614411 -0.6189488 0.10717682 -0.7746438 -0.16105388 0.42850298 1.3106788 -0.27501196 -0.12588295 -0.33821887 -1.5772345 0.101268925 0.1484537 -0.47900772 -0.6425971 0.7322888 0.6770557 -0.14987883 0.39949182 -0.5374521 0.19291309 -1.453175 -0.21773139 -0.3146 -0.13864303 -0.23767775 0.42126793 -0.24106266 -0.2204106 -0.38101003 0.105733566 0.34421948 -0.11498235 -0.21061018 0.0882679 0.29976282 0.02833813 -0.078468256 0.29185224 0.109273024 -0.30718046 0.24278012 -0.17589544 0.15556365 0.29145938 0.15974137 -0.4286688 0.77641296 -0.72196907 0.6828159 0.15836278 -0.3603442 -0.03938156 0.88152015 0.6998626 0.091031514 -0.0059487056 0.72224516 -0.40102276 0.21792844 -0.015142876
凌冲 -0.30747372 -1.2528387 0.70816225 0.2983831 -0.59475386 0.0780459 -0.77781934 -0.20815389 0.4483273 1.3788315 -0.264866 -0.1303579 -0.3188493 -1.6255541 0.15013552 0.12566213 -0.5018861 -0.68556064 0.75355834 0.6952694 -0.13232344 0.4232613 -0.5614411 0.23019938 -1.5020787 -0.22061402 -0.2886707 -0.15542956 -0.22059205 0.37773162 -0.20138119 -0.20347722 -0.42702085 0.09006703 0.35491034 -0.08129223 -0.2511506 0.14225785 0.29519823 0.027939802 -0.07214043 0.26962465 0.10735981 -0.284809 0.20110385 -0.1892354 0.1396003 0.3008066 0.16345222 -0.45824236 0.7487543 -0.694604 0.705303 0.14050853 -0.30840278 -0.04231526 0.8708752 0.75265837 0.0986569 -0.030259753 0.7742146 -0.40058163 0.15640533 -0.02525073
徐志斌 -0.68794084 -0.62063 0.24753778 -0.85945207 -1.2846515 0.71326154 0.1565171 0.4212313 -0.29175457 0.72662294 -0.75853944 0.029073596 0.39776698 -1.5123942 0.28385714 -0.2760205 -0.70829844 0.31503254 0.77409494 1.0687166 0.1873134 -0.21314315 -0.2161294 -0.73539376 0.24715002 -0.4785191 -0.7327359 0.00942835 0.9822669 -0.17005104 -1.2081307 -0.38442963 0.8388553 0.34198636 -0.15796076 -0.3826452 0.34050795 -0.61939895 0.09445102 -0.038394958 -0.032937486 0.43976757 0.6199348 -0.50479174 0.059059985 0.46106157 -0.27247357 -0.38005373 1.0660529 -0.4283375 0.51657814 -0.9670834 0.49688208 0.5867699 -0.13698697 -0.8698071 1.3197397 -0.6181707 0.40253174 0.71058404 -0.46230942 -0.8699325 0.4204667 0.24679038
艾传荣 -0.2768574 0.03183796 -1.0269015 -1.0299402 -0.26697424 -0.07772911 0.60313755 -0.27763352 0.38850036 0.7924 -0.03586468 -0.43661004 -1.132724 -0.51669264 -0.016520066 0.4014541 -0.46476394 0.06806849 -0.19970721 0.88244337 0.7879743 -0.16398652 -1.364162 0.22839352 -0.23973563 -1.0021776 -0.5190066 0.12072019 -0.38285816 0.73620427 -0.9199939 -0.24797618 0.2735303 0.7437173 -0.55313057 -0.64925075 0.39512947 -0.09653957 -0.632352 0.23457986 -0.48397216 0.13781127 0.4910069 0.39738965 0.8275122 0.49496374 -0.10057177 0.65403676 -0.4762099 -0.18981409 1.4124967 -0.45778695 0.18438715 -0.36557472 -1.4113038 -0.25358382 0.8168272 0.8722049 0.107315056 0.14472699 0.13153037 -0.9043861 1.1808891 0.59080625
曾岳雄 -0.8724167 -0.37979496 -0.04163528 -0.41446695 0.28338638 0.82783437 -0.9857954 0.33849674 -0.32174182 0.58170784 -0.28299966 0.25085846 -0.6242117 -1.2269641 -0.6506643 0.6457887 0.19317792 -0.13995403 0.6527658 -0.5617407 0.588362 0.5215511 0.018964833 0.31887522 -0.7507679 -0.14655426 -1.0485284 -0.47876537 0.31117836 0.29051223 -1.0897734 -0.3463103 0.9686563 0.12446315 0.5214504 0.1356023 -0.024817705 0.46916372 0.6677471 0.3419822 0.33267358 0.14239866 0.13962401 -1.0322863 0.4068946 0.7192436 0.11908803 0.8535109 -0.11905949 -0.6142935 1.2768062 -1.2432985 0.04816846 0.36327675 -0.824285 -0.37453353 0.49636614 -0.35166985 -0.6733812 -0.66612667 0.13850531 -0.77845955 0.5853447 -0.6609051
沙新华 -0.5451791 -0.9795352 -0.066635594 -0.059526253 -1.5995392 -0.008431831 0.016348958 0.34474483 0.25400698 0.11997518 0.14644074 0.17681229 -0.08736308 -0.9812183 -0.43941146 0.11919158 0.6744074 0.35853714 0.13308223 -0.24752799 0.6594658 0.511099 -0.62865794 0.27566054 -1.0168898 -0.8137839 0.4743897 -0.43788898 0.17800306 -0.47243884 -0.3975897 0.21951285 0.4486144 -0.32783413 0.19031268 -1.4499019 0.66088974 -0.5815373 -0.30545962 -0.8566715 0.5044777 0.7021696 0.6132668 -0.18721801 -0.2248403 -0.13938935 0.59423023 0.17933643 0.6823859 0.41916317 0.07154368 -0.63011503 1.2300352 0.59580266 -1.4662803 -0.5865483 0.32579568 0.11313491 -0.7654824 -1.0868472 0.3024692 -0.10785464 0.17068961 0.09907806
于宝明 -0.38915545 -0.59706753 -0.8504778 -0.8196089 -0.37644467 0.5092967 0.29630655 -0.43376043 0.16398259 0.49940282 -0.18959446 0.026229292 0.38905168 -1.1021999 0.21431687 -0.04378578 0.50781155 -0.6101071 0.855164 0.7967502 -0.37238008 -0.3547913 -0.26809633 -0.08990027 -1.2466075 -0.025451677 -0.41736454 0.81890446 0.5471615 0.42402083 -1.0462021 -0.4338248 0.010468263 0.10636775 0.72331196 -0.6208412 -0.4475134 0.8074448 0.35538182 -0.27968228 -0.4629798 -0.20254701 0.24121918 0.33735052 -0.35727778 -0.30556884 -0.24742575 -0.6485335 0.91483104 0.30904022 0.17266656 -0.09450851 -0.20586722 -0.36076587 -1.1723143 -0.62119704 0.8224807 0.22118318 -0.2440898 -0.87621105 0.15581349 -0.39045262 0.7953453 0.48457623
贾丽巍 -0.36524984 -0.59839356 -0.822672 -0.79559356 -0.3601765 0.47651646 0.26857147 -0.4056514 0.17878227 0.49436212 -0.14865166 0.0039488 0.38115862 -1.0572966 0.2119992 -0.053603444 0.5270056 -0.59602773 0.8617716 0.7664726 -0.38734716 -0.36971956 -0.25744304 -0.115143575 -1.2117184 -0.04055373 -0.44360796 0.811196 0.5304175 0.39953738 -1.0057433 -0.38351944 0.028592424 0.10959957 0.6800925 -0.6325162 -0.38476524 0.79870963 0.36024716 -0.3079738 -0.43052974 -0.1897234 0.24957563 0.3204121 -0.36848074 -0.2937389 -0.25770974 -0.6342381 0.9152618 0.30068466 0.1802277 -0.08227989 -0.17531145 -0.34609345 -1.147196 -0.57673806 0.7728562 0.22138315 -0.2450683 -0.81924057 0.13867797 -0.3711648 0.77998936 0.46531487
周岸标 -1.1739668 0.26506913 -0.9070139 0.4214954 -1.3603542 0.6502127 -0.17813484 0.29743978 0.15451418 -0.35126352 -0.75134 -0.38801906 -0.65814626 -1.5466154 -0.07049527 0.63404334 -0.06771399 0.05171338 -0.39063105 0.2092561 -0.6512548 -0.24138804 0.2564752 -0.033688225 -1.3420573 -0.20541005 0.24474445 0.15668221 0.69069505 0.7218704 -0.55092597 0.010741579 0.26431194 0.1645243 0.51759565 -0.26066607 -0.14719586 0.29377925 -0.12447109 -0.51963913 -0.47559515 0.23869014 -0.4016253 0.18849471 1.0773014 -0.8276906 -0.17556344 0.55430657 -0.57097596 0.09936758 1.1944883 -0.7374669 -0.45897263 0.14821887 -0.7975371 -0.18242489 0.71663 0.32442638 0.64475685 -0.412662 -0.2352022 -0.015226162 0.6007497 0.22764166
邓晓俊 -1.176809 0.24710949 -0.8827709 0.41874257 -1.3421984 0.6544589 -0.18455087 0.311721 0.14128397 -0.3256826 -0.7494261 -0.35887316 -0.6675541 -1.552993 -0.09260952 0.6314335 -0.08767976 0.019086761 -0.3755733 0.23100269 -0.6389423 -0.25667396 0.2614172 -0.040864646 -1.3266155 -0.16088639 0.22367261 0.14363895 0.70066696 0.696228 -0.5574896 0.002202142 0.27281755 0.15756819 0.53090656 -0.229722 -0.16419998 0.279703 -0.10547136 -0.5191116 -0.47227803 0.22099061 -0.36959386 0.17918667 1.0621636 -0.8471476 -0.16688573 0.52320075 -0.56590146 0.11041798 1.1645529 -0.74728274 -0.45624524 0.1577238 -0.79124355 -0.2154985 0.7407903 0.30371314 0.634424 -0.42673868 -0.22517633 -0.042071395 0.5908101 0.22288214
王爱朝 0.5439441 0.27006435 -0.60315436 0.0022480644 -0.9787244 0.7910083 -0.35998762 0.22755305 -0.27405047 0.13032152 -0.48643157 0.46071878 0.29915985 -0.24470606 -0.5013553 0.13518703 0.820257 0.022670493 0.21379575 -0.029790202 0.62590617 -0.41076937 -0.50961125 -0.9198901 -1.3341197 -0.46780786 -0.58468187 -0.062873006 0.12085669 0.8977265 -0.89512634 0.29467455 0.07627674 0.90585023 0.5303662 -0.41715127 0.07427092 -0.0060799555 0.6932529 0.08592703 -0.73738843 0.6968568 -0.7276223 0.2507051 -0.051928796 0.16818458 0.4081196 0.4764163 0.19526435 -0.058203414 1.2362138 0.19949424 -0.5997249 0.47664014 -1.2344131 -0.24907823 0.11827891 0.48905152 -0.12316196 -0.20812048 -0.5674528 -0.027703196 0.8423019 -0.4076614
李福民 0.6009503 0.2796982 -0.67943335 0.023484295 -1.0667039 0.86012185 -0.38681528 0.27293757 -0.29327953 0.14814216 -0.5577184 0.5105863 0.3047038 -0.30566728 -0.56052434 0.1273472 0.89665186 0.037284 0.27349064 -0.044202365 0.68805486 -0.45813322 -0.574023 -1.0183337 -1.4398375 -0.4964889 -0.64385194 -0.04565003 0.09643338 0.97778773 -0.9843187 0.34038275 0.10085024 1.0023924 0.54647124 -0.44449767 0.11108645 -0.02212672 0.7476355 0.094199315 -0.80546504 0.746947 -0.7705148 0.27418497 -0.039591152 0.18006231 0.45192477 0.48894438 0.19873261 -0.07318539 1.3385983 0.18247499 -0.6695399 0.52012384 -1.3370206 -0.25344974 0.15106654 0.5354411 -0.1621582 -0.20215367 -0.60979235 -0.03717633 0.95528734 -0.4580094
吴学龙 -0.22645181 0.03588537 -0.3915515 -0.61355114 -0.60772777 0.25899816 0.09751443 -0.00875818 0.08803074 0.14767918 -0.4779592 -0.5714587 -0.2120688 -1.2400863 -1.3577428 0.15272814 0.019489327 -0.12194579 0.84699804 0.20678523 -0.11987151 -0.15429917 -0.005276135 0.2163072 -0.7537116 0.43532515 -0.96911657 0.28889546 -0.32468444 -0.09381603 -0.01498471 -0.8887159 0.43625456 0.52335614 -0.038295135 -1.0161372 -0.39892066 0.5138564 0.78498167 -0.18842612 -0.120098144 0.9647827 0.5753429 -0.28664684 0.5318404 -0.5692533 0.14614558 -0.49091318 0.6907965 0.8665883 0.6046642 -1.0769064 0.9579236 0.6834963 -0.8420209 -0.22274694 0.7172044 -0.3078999 -0.8608805 0.53772736 0.09901459 -0.7101463 0.7836107 -0.003209188
刘初汉 -0.18884711 0.041409712 -0.36092594 -0.58148485 -0.5655331 0.21583866 0.12463457 -0.0058100238 0.062417563 0.12904648 -0.47142527 -0.555305 -0.22546117 -1.2169619 -1.3769346 0.11348083 0.002500797 -0.11146224 0.823058 0.17264959 -0.110457025 -0.14397 0.029244224 0.24782377 -0.7265349 0.44051203 -0.9536154 0.28143477 -0.37522373 -0.1311006 0.04190943 -0.9000245 0.44206992 0.48623243 -0.07378119 -0.9755943 -0.39047444 0.5296164 0.742664 -0.16531746 -0.11213393 0.9322844 0.5718717 -0.28280884 0.5454853 -0.58194834 0.14320306 -0.49518743 0.6613769 0.8928037 0.568641 -1.0469456 0.98059034 0.6822509 -0.7977121 -0.20214297 0.7136021 -0.32910028 -0.84607106 0.5849632 0.11848408 -0.7072712 0.7212409 -0.0145987915
钟海 -0.16220602 0.22244854 -0.8318234 0.34109575 -0.48783273 0.25097957 -0.38201997 -0.2880933 0.45201108 0.16384885 -0.32540104 -0.9515257 -0.5868854 -0.35555673 -0.40690178 0.60892767 0.88449913 -0.6844374 0.989564 -0.52408063 -0.43082276 -0.5743302 -0.056630928 0.2191327 -0.533932 0.57329196 0.029512724 0.4507261 -0.5843644 0.30393565 -1.2213001 0.10186997 0.27683502 -0.1289997 -0.1947672 -0.5279909 0.27186567 -0.42243934 -0.07406801 -0.82520145 -0.40195507 -0.18808797 -0.57855415 -0.5478837 0.45335802 -0.31557515 0.90926343 0.3221178 1.1496799 -0.54156524 0.9452842 -0.530823 -0.390663 0.696396 -1.2937224 0.29077682 0.9704501 0.82472795 -0.66430867 -0.6831873 -0.8178788 -0.69523406 0.094947636 -0.3162321
余璟 0.28045356 -0.91153497 -1.1829152 -1.018863 -0.66154116 0.6995831 0.05023747 1.2683369 -0.08784548 -0.1804043 -1.0462765 -0.16656092 -0.27803004 -1.4321207 0.25922814 0.13620196 1.0138805 -0.15068978 0.7422932 0.6509998 -0.09447842 0.48201534 -0.3601568 0.17317928 -0.38814262 0.74136823 -0.21108288 -0.13094233 0.31126764 0.6929307 -0.5262757 -0.6357232 0.5453724 0.8978724 -0.37363178 -0.78573084 0.8221327 -0.23936363 0.36313227 -1.1945873 0.114876315 0.37422702 0.08130379 -0.9464952 0.31483746 0.54114264 0.25526664 0.2534563 -0.061753258 -0.04276715 0.73198074 0.14800833 -0.21647564 0.3438216 -0.4312165 0.27143714 0.1825032 0.26443905 0.12288962 -1.0664706 0.49159187 0.06130138 0.0044879676 -0.39946875
蒋小文 -0.58762455 -0.5993775 -0.21867938 -0.26600897 -0.46993807 -0.21216752 -0.6544802 0.072718315 -0.18699491 -0.05083957 0.46034354 -0.07073255 0.1463579 -1.534005 -0.9408152 0.76889366 0.8648814 -0.6253325 0.31171125 0.044258248 0.08166008 0.067360245 -0.8335878 0.162513 -0.080241576 -0.04428228 -0.11153507 0.7700422 0.6236388 -0.28379825 -0.68034434 0.2531762 0.10113518 1.0061133 -0.6998671 -0.83578616 0.15252028 -0.63661426 -0.37238204 -0.017273005 -0.74333817 -0.014705969 1.1658043 -0.51658916 1.2446797 0.11681083 -0.0010054243 0.6556582 0.59287435 0.3572673 0.65785676 -0.013970746 0.5801815 -0.18041994 -0.667587 -0.23607983 1.4362205 0.12239975 -0.1440143 0.43958998 1.0322732 -0.9151081 0.40680403 -0.23172581
蒋溪林 -0.58826256 -0.56044763 -0.18791553 -0.217471 -0.43486267 -0.23266739 -0.6301698 0.039763592 -0.20803079 -0.058845386 0.46166152 -0.067659415 0.16493596 -1.5057284 -0.92799604 0.7756148 0.8594962 -0.63129056 0.3091282 0.057027165 0.081108965 0.048735693 -0.83469355 0.1526975 -0.04551103 -0.06548392 -0.105202 0.7791618 0.6213771 -0.2816496 -0.62205344 0.24686255 0.0892427 0.9994518 -0.70734704 -0.80903566 0.12645343 -0.63969904 -0.41056514 0.0046806755 -0.73837876 -0.018411186 1.1579651 -0.4864368 1.2355683 0.11827293 -0.033591572 0.6641867 0.60149986 0.39769208 0.65084034 0.026231946 0.55835754 -0.18932721 -0.619872 -0.20489633 1.418231 0.09706942 -0.0966973 0.48195633 1.0585253 -0.8939859 0.3831992 -0.2542723
黄臻 -0.8108847 -0.57763237 -0.28412032 -0.7608402 -0.98210925 0.85961777 -0.6038781 0.6190673 -0.16861871 0.6074621 0.5568074 -0.47177297 0.15214142 -0.8878709 -0.25435185 -0.27509534 0.5320261 -0.0027335952 -0.15960182 -0.6913777 -0.4840778 0.54273003 -0.85940486 0.27721408 -0.87750417 0.6177939 0.08886647 -0.47829843 -0.6075069 0.9995003 -0.9506887 -0.39008734 -0.36531907 0.28529987 -0.27519563 -0.52238786 0.7671025 -0.42969 0.0017839787 -0.39440545 -0.59417325 0.3329677 -0.73762727 0.69420475 0.8374292 -0.76013476 0.15373336 0.1453759 0.2962597 0.44308972 0.5159057 0.4703902 0.6064246 0.9440469 -0.9034148 -0.8555814 0.41417438 0.8691776 0.65960616 -0.87012804 -0.4017076 -0.6785782 0.59779924 0.328264
许少英 0.010179881 -0.6318781 -0.3312498 -0.33563703 -1.1929789 -0.24951488 -0.90693843 1.0257227 -0.47354996 1.0335991 -0.36415824 0.13503586 0.7189062 -0.24098442 -0.60359126 0.36484283 0.9549417 -0.77165794 0.056337234 0.51722884 -0.8568845 -0.58956546 0.23026809 -0.1538963 -0.7371989 0.8302069 -0.5733828 0.80119765 0.8213499 -0.2669771 -0.86612445 0.55583787 -0.08655247 -0.25773963 -0.43676952 -0.70524275 0.90472746 -0.43251953 0.40884912 -0.12549542 -0.14127295 0.67147464 0.7604477 -0.76569295 0.5782459 0.13630599 0.91661763 0.12249336 0.91966563 -0.59145164 1.0129353 -0.92210996 0.5402659 0.45907062 -0.8500377 -1.0063628 0.084393725 0.07572423 -0.1750111 0.22895831 -0.7589432 0.08219206 0.16498476 -0.30523616
陈强 -0.051636755 0.37098098 -0.2023208 -0.40199423 -0.36408046 0.6652601 -0.06838135 0.8142371 0.47566265 0.3074966 0.01712266 0.71369493 -0.2952924 -1.1077054 -0.24105977 0.14086752 -0.23807132 0.45267528 0.19120935 0.63415575 -0.19778809 -0.49918953 -0.67552435 -0.45030797 -0.46291232 0.0063468846 0.08534177 0.10266976 0.12758712 -0.060111556 -1.4479368 -0.41109812 1.0496699 0.6503188 -0.60062706 0.6561844 -0.3697477 -0.24540623 0.5346564 -0.8206067 -0.36026412 0.27235147 0.9041294 -0.31660786 0.3624685 -0.5709355 0.020595256 -0.5942411 -0.18576527 -0.30829924 0.94225466 -0.7058737 -0.9566838 0.57473546 -0.92921937 -1.2730347 0.7803706 -0.28249484 0.14659588 -1.2003888 0.31864575 -0.20689361 0.91314304 -0.5445176
杨青 -0.05755427 0.30703104 -0.20423597 -0.38898724 -0.39043608 0.66061586 -0.110001706 0.7922901 0.4311806 0.31313172 -0.00856253 0.66838986 -0.28574577 -1.113723 -0.2494894 0.15433572 -0.22775052 0.38668898 0.2091811 0.6169189 -0.21586627 -0.4823628 -0.6608021 -0.4359985 -0.48831052 0.027619136 0.04565293 0.12430865 0.11158163 -0.03946765 -1.4104885 -0.3830465 1.0031438 0.64261305 -0.57772654 0.58777356 -0.31639582 -0.26960525 0.52547073 -0.7787373 -0.3469435 0.28678745 0.86822486 -0.31232437 0.38168946 -0.5277662 0.03872775 -0.56799 -0.13000987 -0.27819508 0.91625106 -0.730052 -0.8933241 0.55554175 -0.9056392 -1.206733 0.7806412 -0.25702125 0.13658293 -1.1100594 0.28030294 -0.2174545 0.9217349 -0.5108913
高尔剑 0.052580826 -0.8195637 -0.49353784 0.37107894 0.17258033 0.30521378 -0.8044112 0.4662793 -0.032131393 0.5328295 0.23556179 -0.0024918702 -0.5668505 -0.43079 0.30717245 0.34204638 -0.29822168 -0.026674915 0.26592317 0.7888884 0.013298383 -0.86361915 -0.72787434 -0.9133286 -0.9673277 -0.49215212 0.15562965 0.62088424 0.6261602 0.7241706 -0.30850637 -1.0973169 0.15024838 0.55976313 -0.42842484 0.06874981 0.4767535 -0.0061243405 0.104020074 0.19487494 -0.07121793 0.48078158 -0.41508764 -0.45709303 0.36480772 -0.84970754 -0.3892651 -0.16625662 0.6799437 0.26059556 0.6598661 0.042098545 0.4157957 0.26028308 -1.3657954 -0.8938115 0.62395394 0.12224864 0.16523519 0.04649565 0.617617 0.7002417 1.5177687 0.1380849
裘颖颖 0.035813905 -0.81982887 -0.52565247 0.41406775 0.16405101 0.3392659 -0.85007316 0.4644418 -0.04773315 0.56555086 0.24466409 -0.033596747 -0.61642987 -0.46778896 0.33156645 0.41545898 -0.31039742 -0.042154092 0.28614286 0.8333852 -5.372667e-05 -0.9195148 -0.75590545 -0.95236725 -1.0001901 -0.5209878 0.16246575 0.6638654 0.6722518 0.74635124 -0.32656536 -1.1564455 0.16043876 0.55266243 -0.4476435 0.08389549 0.47734994 -0.012686738 0.10484985 0.18988484 -0.07158508 0.4826205 -0.42289463 -0.4814273 0.40692413 -0.88938147 -0.4111747 -0.16454935 0.7150045 0.31039384 0.6897738 0.07498192 0.42238373 0.3088406 -1.4216554 -0.91489714 0.6769975 0.1559112 0.20086713 0.06291178 0.6625125 0.7542307 1.5710847 0.16707328
高瞻 0.06440485 -0.4182027 -1.1485419 -0.415594 -0.80321485 0.8682372 -0.35649964 0.35564017 -0.18197605 0.3141694 -0.2859845 -0.43034762 -0.120536864 -1.2364311 -0.65517086 0.65707344 -0.5643297 -0.21297099 -0.26169202 0.9240515 0.6002678 -0.12645452 -1.1190535 -0.74761635 -1.0900497 0.32231748 0.021515504 -0.09578297 -0.7757326 0.8591858 0.16851297 -0.099511616 -0.00063744874 0.22307898 0.089844294 0.24929272 0.2521813 -0.58489347 -0.60155386 -0.24159631 -0.07514971 0.73927426 0.438751 -0.21469927 0.7826567 -0.5743265 0.88574195 -0.6117938 0.46300393 -0.658137 0.14090797 -0.470428 -0.54619384 0.71376073 -0.1557729 -0.7520741 -0.13279092 0.8711663 -0.482684 -0.8402037 0.41132608 -0.9855288 0.976515 -0.7265937
孙福金 0.4228417 -0.96825975 0.046119925 0.020364186 -0.87679756 0.45349228 -0.56885993 0.8966845 0.020461844 0.2172253 0.4333092 0.18452297 -0.9006798 -0.8874183 0.39984605 -0.65240824 0.52925164 0.32486054 0.66821355 -0.06994518 -0.19114184 0.04944678 -1.1619812 -0.4822631 -1.1993295 -0.38730705 -0.20885539 -0.1013455 -0.6884135 0.9666184 -1.1015288 -0.7689376 0.9790851 -0.2918965 -0.7055246 -0.46476114 0.354752 -0.41678208 1.0305407 -0.5512228 -0.32912993 0.046388574 -0.19926685 -0.7939875 -0.19415538 0.47940925 0.74817115 0.008572051 0.003762452 -0.60708404 0.008075196 -1.2598889 -0.46099538 -0.087773874 -0.30494088 0.019221745 0.61884737 0.7540435 0.08040383 0.53416413 -0.791358 0.016623678 1.0100243 0.9097389
王伟雄 -0.48750234 -0.93173933 0.44498205 -0.31903034 -0.92417806 0.63043106 0.17103668 0.6180054 0.07187668 0.27552482 0.112770915 0.29735434 -0.83169365 -0.5214988 -0.6604653 0.75536335 -0.038950857 -0.73156935 0.4134336 0.43313208 -0.5091633 0.70096946 -1.0863472 0.19225217 -0.19444044 0.01301005 -0.12307672 -0.3834199 -0.02956463 0.41161427 -0.58229053 0.24552079 0.51546097 0.8782649 -0.06635948 -1.1794603 -0.43964028 0.48609078 0.54975647 -0.8900197 -0.65748215 -0.4207489 0.77290875 0.348031 0.8093324 -0.10021671 0.92881507 0.6198416 -0.02505483 -0.17308557 1.390412 0.09932137 0.09302645 1.0398396 -0.9883343 -0.85350525 0.45122653 -0.24557649 0.4546957 0.30666843 -0.039457943 0.30648255 -0.10145795 0.28096816
闵晓波 -0.76663244 -0.46129003 -0.90683925 0.30951023 -0.80587524 -0.26384825 -0.7261257 -0.12162057 0.4253423 0.7298378 0.0010984875 -0.3759786 -0.6440218 -0.6496561 -0.82697445 -0.20454712 0.47843716 -0.34422547 0.6731514 0.4948598 -0.7257254 0.50808984 -0.06758043 -0.80542815 0.109036446 0.029024601 -0.9822754 0.15895493 0.37691057 0.6027575 -1.0739491 -0.17315608 1.0856823 0.61522275 -0.22613674 0.4318487 -0.12737198 -0.9839578 0.1308825 -0.23539267 0.65070635 0.29059047 0.0012281962 -0.67611635 0.59557426 0.33700666 0.331906 -0.14185423 -0.2610396 -0.71505135 1.5173293 -0.87178797 0.10698804 0.5372322 -0.6103769 -0.40578192 0.53137875 -0.74494255 -0.3088942 0.5051711 0.30775768 -1.2011029 0.40783438 0.82643265
梁永生 -0.074025445 -0.98037857 -0.6806672 0.0425561 -0.06466033 -0.16099425 -0.21380532 0.9484452 -0.528272 1.2226493 -0.9303697 0.04211827 -0.08530329 -1.6794848 -0.93517965 -0.31704903 0.121839784 -0.5883414 0.37235698 0.0030384643 0.58411723 -0.716678 -0.6766443 0.53992766 -0.6781835 0.6073531 -0.14400539 0.6496749 -0.24727835 0.70411146 0.05488875 -0.6779895 0.36622474 1.142564 0.7821858 -0.5398674 -0.0037824684 0.12163475 0.3183692 -0.51515067 -0.5974707 0.052781332 -0.4534639 -0.43902335 0.6752519 -0.08991935 -0.10462358 -0.54150707 -0.08826066 0.7135208 0.85401475 0.25779796 -0.6526045 -0.09833112 -0.7480005 -1.086655 0.3237253 -0.4245896 -0.55935436 -0.6809549 -0.5742915 -0.32576382 0.77690095 -0.54523814
王策飞 -0.2140567 -0.41451478 0.2600487 0.04763997 -1.2288648 -0.5771185 -0.9257891 0.02577082 0.88066566 0.52669257 0.16167618 0.15960197 0.1573994 -0.2580072 -0.7452619 0.021819849 0.52170485 -0.668022 1.4615605 0.25965634 0.07927394 -0.5955611 -0.2969782 -0.6745613 -0.37993112 -0.0029688238 -0.0061038197 -0.44264376 0.08768735 0.36439818 -0.95497394 -0.23975146 1.0712221 0.761713 0.66645485 -0.87840474 -0.4977418 -0.6714232 0.2897581 -0.5697913 -0.21929023 0.5214134 -0.10029421 -0.7840764 -0.42525646 -0.29765412 -0.39434096 -0.53934515 0.68122715 0.7781323 0.44205046 -0.07693594 0.4561214 1.0557265 -1.3893547 0.55291843 0.930403 0.88860244 0.3963947 -0.7438055 0.07084428 -0.3734412 0.6855227 -0.48171502
肖民 -1.0447676 -0.87307954 0.08571453 -0.44201314 -0.93522054 0.08167447 -0.8062259 0.62658775 0.20701922 0.73913777 0.65296084 0.10549281 0.27947938 -0.07953317 -0.49030003 0.5815607 -0.35331643 -0.5555535 -0.50675446 0.48308662 -0.6372981 0.621543 0.34868658 -0.309681 -1.1950712 -1.0529654 -0.4918778 0.4337797 -0.64325553 0.27139848 -0.88634294 -0.35324538 0.15570618 -0.39666778 0.4837928 -0.909394 0.26929379 -0.14991395 -0.45868832 -0.69515544 -0.71700114 1.1627656 0.23933922 -0.8182182 -0.1042596 0.51533157 0.43994793 -0.21688518 0.9733669 -0.12729006 0.7295003 0.074262224 0.2840294 -0.22492467 -1.1992786 0.17148346 0.99998534 0.37636584 -0.2431684 -0.14437476 0.31127185 0.23390731 1.3120229 -0.12317558
张涞临 0.7300731 -1.0463927 0.21634147 -0.7610694 -0.05022505 0.23269959 -0.6770473 0.8094416 0.31116763 0.72096735 -0.34212795 -0.2075374 0.40854767 -0.934871 -0.013657792 0.61023396 0.904783 0.5936559 0.882914 -0.12213471 0.4897447 -0.099375 -0.45607772 -0.51685584 -0.19015379 -0.76505905 -0.8095387 0.21991959 0.26748523 -0.22115953 0.038399387 -0.41961652 0.63845885 0.17195512 0.59940356 -1.0090413 0.70640635 0.7851103 0.7377882 -0.7036236 0.30047017 0.4755215 0.7277738 -0.81232005 -0.37252823 -0.3107818 -0.7523505 -0.46026063 1.0586215 -0.5511794 1.2172441 -0.6018545 0.6430848 0.30600625 -1.1925371 -0.26849654 1.0562862 -0.34378576 -0.49874157 -0.19922933 0.7966816 -0.8476035 0.6590078 -0.41798386
杜斌 -0.66026574 -0.43751723 -0.1432028 0.23566423 -0.8966026 -0.29896027 -0.029486129 0.9053522 -0.81381565 0.2501288 -0.5586462 0.6930245 -1.0728928 -1.514374 -0.56724477 0.7824873 -0.6458684 -0.7499192 0.68538433 -0.091628805 0.0889803 0.14429884 -0.9066945 -0.12765862 0.121268295 -0.34536982 -0.26616296 0.5656679 -0.2866794 0.68445784 -0.327136 0.261024 0.28505862 0.28793743 0.74825543 -0.11039363 0.4405486 -0.82648826 -0.85447615 -0.43663985 0.24040739 -0.2924148 1.1946155 0.07788662 0.33597913 -0.9605083 -0.5562702 -0.54360926 0.53934705 0.78900737 0.92716914 -1.1305084 -0.5571375 0.9425323 -1.067407 0.046120238 1.1431416 -0.6283091 0.36917722 0.16888979 -0.07068962 -0.87323797 1.037965 -0.46495953
梅爱民 -0.24101046 -1.1318324 -0.9265833 -0.136722 -1.3181404 0.7687936 -0.5325235 -0.33845702 0.3464871 1.0116279 0.400257 -0.12519266 0.057536967 -0.8722549 0.25779134 -0.2623648 -0.50229627 -0.3403794 0.72379535 0.50507677 -0.16645372 0.69152486 0.0321397 0.23334609 0.16011113 0.585346 0.2872733 -0.47742075 0.43303648 0.14752483 -1.2864454 -0.6004217 0.011866341 1.0374224 0.49444035 -1.3024788 0.9089623 0.3572648 0.6322163 0.49637568 -0.35751623 -0.07745598 0.6564021 -0.51075035 0.90835387 0.2538602 1.0225832 0.28884596 -0.1937898 -0.42879066 0.44642118 -0.39568543 -0.41416192 -0.4763995 -0.2703123 -0.9232625 0.45171872 0.1507679 -0.26141128 -0.77906984 -0.19722207 -0.64479095 0.7157811 0.6278596
张福通 -0.2699083 -1.2185742 0.6599345 0.2807681 -0.5797566 0.094414294 -0.7543896 -0.21756206 0.43626365 1.3478103 -0.29043892 -0.13787732 -0.31957188 -1.5555425 0.16926998 0.10790848 -0.47071487 -0.6488257 0.74087816 0.6911206 -0.14454679 0.40447477 -0.5325178 0.18641345 -1.4709148 -0.22454616 -0.32538444 -0.14874397 -0.21113633 0.39205775 -0.20707548 -0.21572162 -0.38761276 0.07674831 0.3404542 -0.06378341 -0.22569725 0.13969985 0.30633217 0.0493286 -0.05150192 0.2683505 0.07141731 -0.29041162 0.19530627 -0.15020053 0.13523115 0.31812173 0.15607902 -0.4475868 0.74907035 -0.7083204 0.6844212 0.12462148 -0.3159482 -0.040302817 0.8558454 0.7244702 0.10371188 -0.022305328 0.73986316 -0.38403717 0.18214354 -0.014797778
陈郑兴 -0.30959016 -1.2152075 0.65225685 0.28495336 -0.6157189 0.093158975 -0.7699949 -0.19727248 0.44083568 1.3421193 -0.26658478 -0.1273914 -0.3134905 -1.5867856 0.10834759 0.13831602 -0.4532466 -0.6568646 0.7449524 0.6634803 -0.15051281 0.427849 -0.54634136 0.23454866 -1.4789474 -0.20807958 -0.3050619 -0.12772906 -0.23834336 0.3898361 -0.21175382 -0.20270285 -0.41281348 0.09815938 0.33445653 -0.10816174 -0.21125773 0.112797484 0.2773611 0.031252682 -0.07907737 0.28397042 0.11383449 -0.28318343 0.2313569 -0.17982996 0.15420456 0.30732313 0.16669331 -0.41468772 0.72678745 -0.69437087 0.7054618 0.15536283 -0.33998546 -0.045347437 0.8796265 0.7206343 0.0810886 -0.031316653 0.76106524 -0.40117902 0.1851639 -0.02531936
李郑祥 -0.21791424 0.25062916 -0.078308195 -0.20471859 -0.2948999 -0.47859406 -0.33550298 1.0475113 -0.038776703 0.36658952 -0.41172776 -0.03694031 0.21696326 -1.0084532 -0.21484034 0.29690135 -0.5376732 0.647481 0.23087467 -0.15302351 0.29923627 0.7503969 -0.7929483 0.1093443 -0.365626 -0.30489522 0.8085903 0.2682338 0.36418045 0.33433506 -0.40172216 -0.31987044 0.002920971 1.0499485 -0.1087519 -1.2989209 0.659099 -0.4846155 0.11052142 -0.2456705 -0.1399628 0.3037927 -0.0812874 -0.52519137 0.58789945 -0.16244955 0.31965125 -0.3331555 0.6400861 -0.17654607 0.5710603 -1.0575536 -0.019221747 0.51631266 -1.1643449 -0.7598912 0.029264081 -0.05946502 -0.46386462 -0.1172921 -0.36431968 -0.1770517 0.19954145 0.58361286
王幼鹏 -0.57822967 -0.2814318 -0.63708556 -0.22814342 -1.2812893 0.16014056 0.31874487 -0.41408476 0.3904595 0.24652962 -0.39530197 -0.5621063 -0.123312935 -0.8467572 0.0779176 0.4427433 0.04440284 0.2723915 0.2649596 0.13304159 -0.036711168 0.13023213 -0.7058417 0.27238792 -0.6080523 -0.41028327 -0.10378632 -0.09049555 -0.2871703 0.8211075 0.037780438 0.5048144 0.32847428 0.31015942 -0.04722468 -0.88193226 0.08048445 -0.99364793 0.58198315 0.35501146 0.27446815 0.36129516 0.30228266 0.20542978 0.6002181 1.0260392 0.7003052 0.47190636 0.8461393 0.28907007 0.30715007 -0.6442916 -0.10317424 -0.038207605 -0.5165094 -0.6417203 0.3242648 -0.3317884 -0.19099893 0.18574177 -0.4498726 0.49147007 0.5856862 -0.25773466
聂新平 0.20230943 -0.43164343 -0.782355 0.3375267 -1.0215567 0.8821964 -0.4164537 0.17954302 0.03305853 0.9581733 -0.70432156 0.27393007 -0.7771149 -0.15177092 -0.4257534 0.02767889 0.70716465 -0.03567624 1.0555481 -0.07122363 -0.3848804 -0.24383648 -0.5840712 0.35033354 -0.99051464 -0.55693775 -0.14007096 0.5293853 -0.33741823 0.3290436 -0.6676436 -0.45575386 0.2575021 0.16014287 -0.21271288 -0.45545334 0.3985882 0.032649085 -0.19997506 0.42560926 -0.22108205 0.42644465 0.45421457 -0.014990656 0.42391977 0.54974854 1.0524061 -0.4763953 -0.7349359 0.89661795 0.55994457 -0.51829547 0.12506916 0.2778965 -0.87118065 -0.13685748 1.0754488 -0.017686822 -0.53152794 -0.12023446 0.70291394 0.096631244 0.6754743 -0.31481808
邱宣 -0.2138544 0.22457092 -0.061398394 -0.20385648 -0.2658045 -0.46693653 -0.32953176 0.99415535 -0.04584388 0.3415542 -0.38554713 -0.02348276 0.19222523 -0.9738013 -0.22447315 0.3212533 -0.52101016 0.6041485 0.21398115 -0.138677 0.2931228 0.7269138 -0.75645286 0.097032286 -0.32263115 -0.28748846 0.76213515 0.24947394 0.36364225 0.3015356 -0.39904758 -0.2970552 0.0062189433 1.0324655 -0.11709458 -1.2480978 0.6130538 -0.4460716 0.11743298 -0.19310834 -0.13115737 0.27746853 -0.029012624 -0.5165652 0.5761542 -0.121660545 0.31083322 -0.29869464 0.58902144 -0.17490658 0.5742255 -0.98605716 -0.013938724 0.4845853 -1.1058606 -0.7255088 0.044733565 -0.091396466 -0.4467896 -0.09819434 -0.31633633 -0.16315453 0.17131785 0.5558314
贾兴东 -0.20849341 0.21727818 -0.04259714 -0.22528552 -0.26936704 -0.46846122 -0.3469911 1.0711511 -0.06477254 0.39424586 -0.4053838 -0.0020635948 0.20979942 -1.0064437 -0.24218155 0.3236782 -0.52094156 0.6113986 0.20344578 -0.13616714 0.30192757 0.73494965 -0.7997475 0.101346865 -0.35987115 -0.29634276 0.7861664 0.28264233 0.3688204 0.29537645 -0.4152941 -0.33061743 0.013402507 1.0624187 -0.12607296 -1.282791 0.6256702 -0.44210115 0.10197101 -0.23974696 -0.16246636 0.29707927 -0.020993723 -0.53593355 0.6019918 -0.13574985 0.3219904 -0.33441672 0.6187511 -0.17570192 0.59235764 -1.0254129 -0.024262507 0.51832116 -1.1587323 -0.76667875 0.055223428 -0.0844259 -0.44783574 -0.10820178 -0.318278 -0.1782953 0.18218136 0.5560334
陈文清 -0.17358676 -0.54849035 0.49735665 -0.3599868 -0.25242993 0.6318641 -1.067024 0.72240007 0.015700687 0.02479715 -0.27417493 -0.05042349 -0.40103745 -1.1999279 -0.61928153 0.8658384 -0.21209402 -0.09346658 -0.0010495294 -0.16560175 0.3700574 -0.961412 -0.27220222 -0.7845376 0.08611038 -0.08739701 -0.008301553 -0.4792071 -0.40691718 0.5796104 -0.9098082 0.28290322 -0.23552802 0.33008564 0.35272017 -0.5478399 0.54486036 -0.5653743 0.65343523 0.08758584 -0.56096655 -0.2079506 -0.04306001 -0.25881332 0.27861437 -0.024964401 0.55877936 -0.5710443 0.016840592 0.29755965 0.8535359 -0.24159145 0.26417372 0.06524448 -0.5779596 0.38041723 0.60710275 0.21921879 -0.26120666 -0.12711893 0.16803756 0.1419303 0.60662943 0.255097
李喻春 0.05487919 -0.87907386 -0.5498114 -0.54598016 -0.26041144 0.04336595 -0.33284184 0.33016178 0.4349082 -0.107559174 -0.10292517 0.2835976 -0.06775181 -0.6705589 -0.31032398 -0.52830124 0.114542976 -0.13047446 0.10000019 0.05025711 -0.37085223 -0.027446603 -0.14697818 -0.4553043 -0.7075759 -0.24704958 -0.3012214 0.13043074 -0.24116911 0.4823077 -0.1159135 0.40679514 0.47779584 0.48773167 -0.40217945 -0.33030298 1.1043181 -0.32810616 0.07034941 0.09582033 -0.21880038 0.20963685 -0.2937276 0.31002215 0.51290697 -0.5835057 -0.16321966 0.42127454 0.16831739 -0.39500457 0.29338133 -0.5198957 0.6675395 -0.6828873 -0.96174365 -0.18536611 0.42894387 -0.014755673 -0.18270625 0.16390331 -0.36519405 -0.7398646 0.86777663 -0.5541807
郑小霞 0.21073681 -0.9936835 -0.55495137 -0.73274124 -0.22534122 0.046761494 -0.5810702 0.33441347 0.6419772 -0.31813708 -0.23235232 0.17865892 -0.17465466 -0.6626187 -0.3984724 -0.63988245 0.11483863 -0.22842215 0.23504518 0.16136613 -0.37723994 -0.044246163 -0.16895746 -0.5835814 -0.97002697 -0.24925756 -0.39168724 0.081366085 -0.49112242 0.6579888 -0.09771653 0.37120593 0.43509713 0.49453524 -0.4567705 -0.34761766 1.058538 -0.061546225 0.2252245 -0.050385963 -0.28859 0.45888615 -0.44836506 0.24164467 0.39609474 -0.69972855 -0.2744696 0.44011217 0.32847124 -0.45344055 0.4145177 -0.5445794 0.7957813 -0.6598642 -1.3110238 0.0018555177 0.4749591 0.3278841 -0.44329515 0.050902944 -0.49144232 -0.87642074 1.0469666 -0.58727175
张学凡 -0.34821182 -0.5587446 -0.75268584 -0.21078818 -0.26488847 0.4802999 -0.5686737 0.71249056 0.45708153 0.36535782 -0.45342276 -0.07350197 -0.727652 -0.1381659 0.23752607 0.14675304 -0.006324788 -0.48016524 0.40907106 0.46899834 0.026442952 0.36530432 -0.115091495 0.14168406 -0.88290954 0.29906794 -0.50629574 0.08851115 0.77247334 -0.005220866 -0.41021395 0.20937072 -0.28201312 0.72830147 -0.06312067 -0.3431911 -0.5518288 -0.42933488 -0.3230889 -0.6927467 -0.081543244 0.68677324 0.5873635 -0.5830565 0.28600356 -0.36071292 0.45700672 0.3388124 0.54724604 -0.5464588 -0.01620486 -1.04298 -0.16221185 0.13237695 -0.8833178 -0.32591856 0.36483595 -0.048642986 -0.57376593 -0.5651551 -0.114332706 0.16994016 0.8801803 0.68109405
张亚立 -0.13100073 -0.07742384 0.03871166 0.07972606 -0.6135966 -0.052157167 -0.58075136 -0.13689853 0.3839342 0.47525534 0.47138777 -0.5009531 0.19751684 -0.7322141 0.36138126 0.32873467 0.23909235 0.12508431 1.0809193 0.4427852 -0.60104626 -0.30997628 -0.7770863 -1.0832497 -0.5246971 -0.021192187 -0.6997907 0.25074038 0.08932406 0.7402207 -0.5231493 0.74551475 0.45062226 0.18218061 -0.038982254 -0.24883692 0.4543148 -0.12030639 -0.48013198 -0.04920223 0.242044 0.18285707 0.34157205 0.029575128 0.1733498 -0.5086423 -0.1751261 0.06320445 0.5543613 0.7703109 0.93386805 -0.466867 -0.43138862 0.12034152 -0.42531222 0.14980933 0.16569722 0.20596567 -0.3033124 -0.062390402 -0.20636521 0.045712832 0.8163597 0.65983653
高泉 -0.3508172 -0.5836205 -0.80578136 -0.21579152 -0.30060259 0.5159942 -0.558477 0.7336083 0.45531026 0.34847257 -0.46819162 -0.067954056 -0.75887775 -0.12752613 0.23161025 0.15147291 -0.0161679 -0.48226494 0.3869098 0.47943163 0.02072913 0.36235103 -0.120931685 0.14088787 -0.8710352 0.34288868 -0.52089226 0.07890456 0.7750586 0.035370976 -0.44086668 0.20585813 -0.29594162 0.7602614 -0.053162858 -0.32789496 -0.5683122 -0.4077038 -0.31127304 -0.69497097 -0.13457312 0.67603445 0.5721083 -0.5743739 0.27140772 -0.3814002 0.5047297 0.37113577 0.51401275 -0.5650352 -0.0014844607 -1.0215431 -0.20765172 0.13270748 -0.87332386 -0.32279012 0.36876202 -0.0029283585 -0.560473 -0.58873236 -0.17004496 0.16961321 0.90149814 0.6850183
钟伟民 0.24704996 0.014678038 0.29140362 0.2436205 -0.60643977 0.32340997 -0.43299866 -0.2831449 0.21370097 0.80625916 0.0044540376 -0.62324107 0.07754068 -1.2444646 0.27631694 0.4066067 0.2760371 -0.07720361 0.27759603 0.27477798 -0.036964107 -0.10165298 -0.5950094 -0.9309162 -0.0009624491 0.32553202 -0.5618195 0.6886692 -0.28440058 0.4187921 -1.1924874 0.44679153 0.46848026 0.77595115 -0.25062224 -0.5117208 0.5474736 0.2740286 -0.03375147 -0.4953665 0.55285907 -0.20927839 0.017863974 -0.16839641 0.90540785 -0.26340467 -0.22946936 -0.010536174 1.0163698 0.65376806 0.7490809 -0.9209772 -0.10732685 0.22243176 -0.38032535 -0.14779189 -0.19944333 0.7345369 0.37660983 -0.21988626 0.31697914 -0.029356452 0.33060616 0.4325084
郭跃华 0.20620129 -0.37563345 -0.7079458 0.30048662 -0.86977196 0.7970548 -0.36463013 0.16773005 0.027496746 0.8338351 -0.64860183 0.26947847 -0.7001938 -0.11541654 -0.36381385 0.023172572 0.62523395 -0.020595612 0.924314 -0.058914952 -0.32815298 -0.23942505 -0.51579326 0.28667986 -0.85555243 -0.5012942 -0.12531118 0.4619811 -0.28879976 0.28371263 -0.6037905 -0.39877135 0.23260386 0.14036475 -0.20461515 -0.35791722 0.36018276 0.028247131 -0.17881471 0.41214228 -0.18087342 0.37306002 0.4060658 -0.018408326 0.37435877 0.49747357 0.92987245 -0.41229627 -0.6778308 0.78226376 0.5061629 -0.482678 0.09975022 0.22690293 -0.7540807 -0.11872699 0.94607717 -0.03772382 -0.4595597 -0.11395678 0.62662417 0.08522524 0.6192126 -0.28063732
苏剑 -0.14381963 -0.67110556 0.4969814 -0.40368724 -0.36646006 0.5825897 -1.0040792 0.8038651 0.03962215 0.15546323 -0.26268065 -0.07114036 -0.3131968 -1.1922368 -0.71627915 0.95725954 -0.12437094 0.008968479 -0.09623989 -0.16347235 0.42921403 -0.9960678 -0.09282864 -0.6622468 0.11587441 0.11730296 -0.046548434 -0.37634602 -0.31539205 0.65789485 -0.9223854 0.28730986 -0.1873474 0.31490016 0.42373282 -0.53061146 0.6769598 -0.5682329 0.79182804 0.08602269 -0.3718077 -0.054002844 -0.026767308 -0.22000988 0.20866944 -0.013053248 0.57901067 -0.62815803 0.18705803 0.39802787 0.82934844 -0.32381806 0.27113208 -0.008248637 -0.5799046 0.3628743 0.7568383 0.27796167 -0.16074485 -0.2287741 0.1153202 -0.04849979 0.57857084 0.30256408
詹有力 -0.5051056 -0.2063731 -0.5257332 -0.17801565 -1.0937105 0.12243224 0.27871066 -0.33203423 0.3111188 0.19661318 -0.36295995 -0.47180295 -0.11362113 -0.74244046 0.0708276 0.39851797 0.009522647 0.25574878 0.22059967 0.11324552 -0.012871621 0.13071242 -0.62083185 0.23872934 -0.50090224 -0.36225224 -0.079365715 -0.06874005 -0.22863136 0.69298244 0.056075867 0.42861524 0.28557113 0.27706122 -0.026077151 -0.75658494 0.03205983 -0.85868865 0.49020848 0.27647924 0.2465812 0.321443 0.26547524 0.16458777 0.52208126 0.8662797 0.56834644 0.38548154 0.7439083 0.26697797 0.2625156 -0.58096516 -0.10621655 -0.0109113855 -0.43187556 -0.56988394 0.27973908 -0.32751605 -0.16298845 0.17445822 -0.39003795 0.4317126 0.49254984 -0.21317075
张谦 0.053963672 -0.7972674 -0.4881492 -0.51592827 -0.24248955 0.064853586 -0.33415058 0.3085442 0.39343873 -0.10921827 -0.10197118 0.26872498 -0.05329366 -0.58960754 -0.31147978 -0.48700562 0.10806712 -0.12856887 0.10065367 0.030941611 -0.33644223 -0.02492594 -0.10944616 -0.41441962 -0.6435852 -0.19769636 -0.2843995 0.09309768 -0.24889371 0.43981513 -0.12806372 0.35933805 0.42392427 0.4408792 -0.3478633 -0.29756418 1.0034442 -0.28698698 0.106013544 0.07734358 -0.21062645 0.2050985 -0.28997424 0.27129588 0.44920895 -0.53218544 -0.14429012 0.3631405 0.13327432 -0.36116093 0.2685879 -0.46315837 0.61180735 -0.5948744 -0.87664837 -0.15060689 0.39199552 0.0059076427 -0.18201001 0.12616971 -0.361915 -0.694523 0.7759243 -0.49933386
丁强 -0.47705254 -0.22444242 -0.5105827 -0.2079652 -1.0322901 0.14895901 0.24826844 -0.2821011 0.3077963 0.22333853 -0.33880574 -0.46976212 -0.082424834 -0.78649986 0.014461618 0.36702862 0.012192104 0.22684771 0.21137394 0.11904324 -0.018617382 0.09244116 -0.6008954 0.22096711 -0.52589774 -0.30367562 -0.07527249 -0.06025498 -0.24827392 0.6909458 -0.0075041046 0.3501362 0.28287852 0.2902162 -0.005997517 -0.74831593 0.08288483 -0.7763024 0.47809187 0.23249622 0.19673851 0.28539258 0.23423612 0.1419424 0.49256608 0.7808182 0.5453292 0.33179882 0.6968347 0.25359643 0.28299284 -0.5181669 -0.10326902 -0.0022143298 -0.45864046 -0.5388165 0.2694864 -0.2537407 -0.16422953 0.115255386 -0.35647383 0.36911178 0.49449614 -0.20042549
张陆 0.13681395 -0.7033594 -0.4237425 -0.5496152 -0.25058517 0.07624793 -0.48004037 0.27481705 0.48749492 -0.19226608 -0.22402602 0.07964393 -0.18611418 -0.56297183 -0.3165583 -0.39822292 0.08893635 -0.17660308 0.25532645 0.15903163 -0.25371718 -0.042334665 -0.18707609 -0.428871 -0.7703857 -0.1895092 -0.30449262 0.07224004 -0.3843228 0.5312583 -0.15192187 0.2150965 0.32124904 0.35527116 -0.31417412 -0.30164006 0.71233064 -0.022452904 0.21816193 -0.098633446 -0.2314073 0.4067228 -0.2905737 0.087036245 0.27679768 -0.46597975 -0.1639491 0.2659798 0.314422 -0.30847397 0.38938284 -0.4596364 0.5404089 -0.37268886 -1.0429083 -0.0082798265 0.3826062 0.30933347 -0.36978847 -0.0057952963 -0.33992717 -0.6116872 0.8086136 -0.3895232
吴远翔 0.118292935 -0.7239997 -0.4071949 -0.49473387 -0.22112949 0.08135833 -0.37052467 0.2536607 0.40100434 -0.13331835 -0.1584571 0.15153791 -0.07403823 -0.5450789 -0.25609836 -0.41957417 0.09995221 -0.13734862 0.15035738 0.07983793 -0.23050508 -0.0157916 -0.17020303 -0.35805422 -0.686562 -0.19885315 -0.27137065 0.073582575 -0.25165445 0.45062545 -0.11550909 0.3007096 0.34591985 0.42842975 -0.32668272 -0.29432723 0.80938035 -0.1086694 0.14001946 0.01994378 -0.1801366 0.25433433 -0.25922164 0.17759028 0.3468109 -0.473862 -0.1487075 0.32899293 0.21809033 -0.30084336 0.308715 -0.4106796 0.52946025 -0.4747276 -0.9128919 -0.07728944 0.37920254 0.1467726 -0.2944558 0.051237967 -0.33770293 -0.60420084 0.7184601 -0.41215315
徐忠平 -0.4658324 -0.2667269 -0.5092493 -0.20384917 -1.0230217 0.16036838 0.23467274 -0.30699548 0.31104666 0.25433245 -0.3371723 -0.4389802 -0.07334275 -0.7438018 -0.0030119808 0.35824472 0.033604525 0.20999365 0.24447072 0.13120858 -0.038007434 0.067586064 -0.5684812 0.19557674 -0.5182576 -0.3035095 -0.10046907 -0.03856649 -0.22745372 0.66982865 -0.040444475 0.34114867 0.28779423 0.30097705 -0.00077615114 -0.7219273 0.0985568 -0.7401057 0.46839172 0.26835102 0.17466377 0.28481308 0.22776179 0.13666198 0.46117172 0.7885274 0.5567373 0.35334554 0.6562975 0.22563434 0.3138246 -0.5052976 -0.09391451 -0.019459708 -0.4750343 -0.5423399 0.2808813 -0.2630767 -0.16568257 0.114917964 -0.35919088 0.3268772 0.4909402 -0.19328992
张礼卫 0.16970651 -0.02752632 0.1574215 0.15842076 -0.51627153 0.29212818 -0.33214456 -0.1723413 0.17932948 0.61315364 -0.069274426 -0.50271446 0.03398555 -1.0414915 0.13526545 0.33620116 0.24264346 -0.069859795 0.1889258 0.20820983 -0.027701851 -0.056722224 -0.44626972 -0.68546283 -0.020854425 0.22831215 -0.41519803 0.5613855 -0.25598902 0.327833 -0.9790059 0.3029709 0.37063757 0.67001176 -0.18693313 -0.464971 0.40730765 0.21492788 0.010721639 -0.44703984 0.3938223 -0.17243312 0.032048218 -0.13106197 0.75788707 -0.2076011 -0.1314553 -0.015748277 0.8399059 0.4893601 0.59219295 -0.7070068 -0.0207148 0.23094581 -0.39587483 -0.16791514 -0.11427121 0.5801027 0.2949626 -0.20169856 0.2921504 -0.05235662 0.24591844 0.293596
吴登记 -0.001581093 0.0031733317 0.0044589685 -0.006490477 -0.0007378571 -0.004646609 -0.0028486392 9.643973e-05 0.005869285 0.0015903173 0.007066521 -0.006785201 -0.003183438 -0.00043210923 0.002272583 -0.005500209 0.00073741324 -0.00035157162 0.004940925 0.0023588294 -0.0015309335 -0.00064918684 -0.005703097 0.00261411 0.005743673 0.006472479 0.0015629323 0.003251108 0.003831595 -0.0060379575 0.0060355063 0.0057024765 -0.0052765994 -0.0074497377 -0.0012000505 -0.00062732765 0.0072572157 0.0057012886 -0.007462238 0.006802881 0.0029147519 0.0028832126 -0.00572795 0.0077639427 0.0067751245 0.006377644 -0.0005731006 0.0069531724 0.004800303 0.0059936377 0.005836789 0.00027093088 0.0011285059 -0.0006287114 -0.0019213628 -0.0033681917 0.00682853 0.0076164613 -4.9271697e-05 -0.0026369302 0.0063904943 0.005177627 0.0047445702 0.0005851692
高东春 0.0028229386 0.005526203 -0.0008849204 0.0036748324 0.0070464476 0.007167131 0.0042234673 0.005758236 -0.0055635376 -0.0057552936 0.002610873 0.0012603172 -0.00053207134 -1.2956213e-05 -0.005757979 0.0055131144 -0.0055914563 0.0020831523 -0.007245606 -0.0022919625 -0.002601022 -0.0057231733 0.004602912 -0.004655047 0.00725109 -0.0063666115 0.0013240403 0.0076304046 -0.0022550488 0.0028675853 -0.004461782 0.005257339 -0.0077992775 -0.00014944503 -0.004560367 0.0034512067 0.0038382849 -0.0021038982 0.0004151246 0.0025473991 -0.0069307717 0.0049780086 -0.006414062 0.00018917241 -0.0048610885 0.0022176793 -0.004427043 -0.006839227 0.005236572 0.007547115 -0.002801632 -0.00580281 -0.0016094926 -0.0064860457 -0.0059993467 -0.0077156383 -0.0017789793 0.0028858979 0.00566542 0.005068338 0.004873054 0.0028828406 -0.0040856726 0.004882135
陈秋明 0.0017395306 0.0007284917 -0.0013290613 -0.00032319402 -0.004821803 0.0067069116 0.007096704 0.0001787536 0.00732748 0.0018136785 0.0035771201 0.0047522155 -0.002965887 0.001900865 0.0058374023 -0.0038496093 0.0003488184 0.006418798 -0.004561805 -0.0013042259 -0.004620742 0.00321537 0.004587898 0.00089314085 -0.0077047865 0.0057013896 0.0042575635 0.005349136 -0.0027457706 6.798395e-05 -0.005006577 -0.0045021717 0.0053246734 0.0068460056 -0.0067333286 -0.007263228 0.004336909 0.0041269143 -0.0044523994 0.0038001938 -0.0043617487 0.00727538 0.0034214787 -0.007679353 -0.0038103543 -0.0066671832 0.007206962 0.005061948 0.0007159889 -0.0034210356 0.0002619227 -0.004389178 0.005048791 -0.006180085 0.0009582113 0.0032863854 0.0040441323 -0.0059367516 0.00018657984 -0.0011618193 0.0016375501 -0.0021216276 -0.0055552674 0.005466481
李卓 -0.0010845773 -0.0045812554 -0.006178289 0.0014386685 -0.0061414842 -0.005531433 0.007646817 -0.0053526764 -0.0060969377 -0.00693305 0.006990739 0.005180361 0.003323936 0.0066141128 -5.174348e-05 0.0030986292 -0.0051816334 0.000143556 0.0041506104 0.004189114 0.0044240383 -0.006807347 0.0006879171 0.006260308 -0.0028069378 -0.0072333026 0.0061444477 -0.0036103053 -0.00049587066 0.0058864844 0.0072650653 0.0041672927 -0.0068166 -0.006557428 -0.0038062227 -0.0033500954 0.0011660671 0.002812591 0.0005042711 0.003854799 -0.0013667494 0.007738136 0.007625281 -0.002591364 0.004199759 -0.0075617875 0.00078591274 -0.0035629037 0.003086817 0.0018071831 -0.0014464497 -0.0069500855 0.00764375 0.0040962975 0.0048649157 0.00583364 -0.0010091952 -0.00069271465 -0.003025064 0.006705574 0.004629077 -0.0042299773 -0.0030941286 0.0020961221
张素芬 -0.463716 -0.09390463 -0.118381746 -0.10442571 -0.3110315 0.27946442 -0.1659241 0.19120249 0.32201996 0.4040984 0.14198929 -0.0020819579 -0.2563159 -0.7100166 -0.06117979 0.035468295 0.13311335 -0.08852361 0.35851884 0.07856273 -0.088355154 -0.17975642 -0.1759385 0.09202752 -0.3680961 -0.07876213 -0.036593266 0.18182212 0.09881159 0.3043395 -0.109817035 0.19907637 0.22596993 0.27356175 -0.15540399 -0.45644245 0.2732849 0.118278585 0.14407657 -0.44236133 -0.10282084 -0.117061764 0.056842156 -0.05457444 -0.08260793 -0.16806078 0.005283228 -0.13006294 0.17884435 -0.22797647 -0.16921684 0.15667851 -0.024212373 0.06008709 -0.20716448 0.0035383075 -0.028227018 0.2555891 -0.11329903 -0.020902993 0.038110476 0.30404833 0.118860655 -0.15793367
