97 16
张福通 -1.6303045 -0.87562454 1.8470721 -2.7997615 -0.43610805 -0.5339088 -1.676706 -1.5076339 1.2904102 -0.7592613 1.0060611 0.09339441 0.84866256 1.2627312 1.7132338 -0.9567893
凌冲 -0.8641397 -0.5464694 3.3159618 -2.4704757 -0.6201027 -0.31754535 -1.5531657 -1.7272851 0.9069564 -0.55977196 0.38257706 0.15144078 0.5261376 1.6805335 1.3235061 0.029447254
苏剑 -1.6937875 -1.6769748 1.8449773 -1.2617542 -1.8540512 -0.0496211 -1.1515713 0.84769785 0.880283 -1.7071576 1.9116721 1.5177137 1.8169674 0.8366658 1.7839059 -0.6846122
郭建 0.5816596 -1.0109032 2.1180713 0.7455226 0.23118003 1.0860785 -1.2903811 1.7202947 1.5996747 -1.8300878 -2.6101196 1.6167134 -0.8285955 2.2730563 0.36355644 -3.601354
林翰章 -1.9283315 -0.36814442 1.3177323 -1.6699218 -1.8427379 0.40424418 -1.437844 0.16847159 0.45829356 -0.27959862 1.227273 0.19552436 1.6265073 0.1725621 2.7376182 -0.62211305
刘世会 -2.0884645 2.3484652 2.145269 1.8947709 -0.71186376 -2.462273 0.5399716 1.0409511 1.0669929 -1.7355946 -2.4587595 -0.8190483 0.8222088 0.6665401 0.8201689 -1.7741964
王东 0.3414758 0.39051384 2.0829651 -1.8239968 -0.25905475 -1.7677639 1.1731069 0.63741195 -3.4321816 -2.153038 -1.3417637 1.6511377 -1.5946671 0.5969713 1.1721765 -1.8508695
陈秋明 -0.38736868 -1.0470984 -0.14104666 -3.5094452 2.3221965 1.5774498 0.7705887 -0.20173322 -1.3128546 -1.789861 -4.485965 1.8678386 -0.3616927 2.5507257 3.8753905 -0.4387669
贾长胜 -1.8065392 0.5340729 1.233847 0.8930467 2.0815692 1.0429981 1.582649 -0.08489679 -0.59083086 -0.15739068 -2.2970726 0.68154866 -2.063084 0.9537153 1.8146764 -2.0317943
郭驰 -0.7309107 -0.5148542 2.9249527 -1.1544263 -0.29366344 0.29204032 -2.4510481 -2.0068247 0.10012887 -0.26548648 0.7648614 0.32617626 0.100289896 0.9182806 2.9441805 0.27516904
刘伟 1.0480639 0.23566926 1.4091538 3.7787547 -1.9972513 0.2624243 0.57302225 0.6792943 -2.0007348 -4.000719 -1.1424088 1.7973269 -1.6320571 0.25589317 2.4383676 -3.001218
高尔剑 -0.4788507 2.378456 1.7733444 -1.2494884 2.403435 -1.719365 -0.070614256 2.3322442 -0.38895145 -2.6903646 -0.0984192 -2.356947 -1.8432977 0.42920727 3.0491946 -1.0813303
谷云宏 1.3942562 -0.2510614 2.111322 1.693681 -0.43704984 1.3939942 -1.3140744 1.4933633 1.0545667 -2.8161058 -2.274821 0.81644475 -0.6940304 2.5114622 -0.003907663 -4.334155
张涞临 -1.4109552 -1.7648336 3.1356356 0.19729543 -1.0139933 0.22903983 1.8679438 -0.47782835 -0.8071245 -2.7116938 -2.04962 -1.2624224 -1.4684523 -3.4308329 1.260306 -2.5992875
杨青 1.7985789 -1.1334224 0.87112784 0.934821 -0.5294243 0.8058584 -0.45011497 0.37488747 -2.853063 -2.6005213 -4.353512 0.095763326 1.9358635 1.0789707 1.7274796 -1.9048029
王幼鹏 -0.9371348 1.9017732 1.9475609 2.2401319 -1.2595294 -1.878311 0.62694675 0.16340528 0.5008317 -1.731222 -2.2589211 -0.7452535 0.91886425 0.322553 0.58401346 -1.5231706
于宝明 -2.2886724 -2.5353858 0.9701393 -1.459961 -1.3237743 -1.3178529 -0.9628434 0.14866586 1.4922152 -0.6729089 1.7765672 0.7524134 0.07914612 -0.15637581 2.4335155 -1.7555012
高泉 0.6752777 -1.2351334 2.100281 0.8285103 1.6871563 -1.4014205 -0.44138873 -0.17826074 -1.3633676 -4.003859 -2.5207365 -0.52993643 -4.447752 0.04114291 2.1240606 0.5125792
张学凡 -0.2766647 -2.6250262 2.3083794 2.2461846 3.698877 1.7784584 -0.13816898 2.3227267 -0.90081 -1.7316737 -2.111169 -0.13687254 0.28012934 -1.1178087 3.0772514 -0.7007381
杜斌 -1.5297213 -0.7655816 -1.6206157 0.5370058 2.3868275 -1.5253431 -0.30363014 -2.0461013 0.25504705 -3.7842216 -2.6578875 -0.53789264 -0.3924184 -0.12435304 1.2581255 -3.683998
孙福金 -0.49094874 -1.6626954 -0.9996955 -0.051313825 -0.30534396 2.559766 0.12147927 1.2107909 -0.4850688 -4.3687515 -1.9868718 1.3894128 -3.5255508 -0.57971936 1.2956268 -3.010077
赵忠良 -1.8154447 2.4570282 -1.364959 -0.28186837 0.57069075 1.213613 1.4372476 1.6596828 -1.325372 -4.3101745 -3.8818274 -0.93492436 -0.23469819 -1.8557385 0.46188632 -2.3849044
李卓 -2.8668845 0.6722091 0.014057701 0.33099493 1.037378 0.6792771 1.6649656 0.24536611 -2.263931 -5.024289 -0.12971477 0.655054 -1.1238544 2.0499785 -1.0362796 -3.401108
薛峰 -2.2815926 1.7417204 2.0805285 1.4386541 -0.1923601 -2.2793696 0.26257208 0.9426372 1.0342686 -1.5010195 -2.4992483 -0.95908886 1.0043733 0.64095587 0.7067457 -1.0263029
徐志斌 -2.0046768 1.2287282 0.98548204 0.56155354 2.486499 -0.5095243 0.39539522 -0.085776374 -0.97937316 0.38004404 -2.2670722 1.4039159 -1.3437005 1.802885 1.5626358 -2.3644493
陈郑兴 -0.8472157 -0.2220212 2.1438859 -1.7874318 -1.4277695 -0.15642415 -0.81207854 -2.154444 0.6003802 -0.20004474 -0.027228659 -0.051345006 0.2991749 1.1832379 2.1953018 -0.30871987
张素芬 -1.0909135 -0.23245595 2.1221182 -1.8806468 -1.6606163 -0.15208583 -0.8402626 -2.1086075 0.6243404 -0.23687337 0.07018008 0.08842806 0.33653215 1.1638951 2.1348226 -0.27769578
高瞻 -2.053433 0.027752427 0.9677005 1.0460453 1.1170081 0.7991245 1.7790195 0.069234945 0.15657142 0.0668053 -2.3598897 0.22628789 -1.7481775 0.5696897 1.4790409 -2.1544814
刘初汉 0.19834724 0.088290505 -1.0541028 1.7687464 1.3367538 -1.0123862 0.489269 1.6917684 -1.9718398 -4.5099235 0.29594404 -0.95420927 1.9229683 2.614117 2.8852901 -2.4946907
吴学龙 -2.169442 1.4283625 2.9750903 -1.403276 -1.5372635 2.0011497 -1.8404597 2.7537081 -0.6852035 -0.8226957 -2.7932482 -1.7955014 -1.6794357 -1.3507851 0.86543554 -2.1224587
高东春 -1.8787891 0.35633162 -0.19645882 2.5190072 0.23932382 1.2007645 1.5517733 5.2701187 -1.4677173 -2.2564986 -3.2958167 1.806863 0.082024746 1.044616 1.5357039 -0.993013
肖民 -0.19929314 0.7204998 -0.4488441 0.98028326 -1.6107696 -1.9894885 -2.373563 2.9823198 0.5341558 -1.9023975 -3.7023835 0.120652765 -2.2022564 1.1274022 3.8290153 -0.8977597
任继光 -0.9242286 0.9823615 4.033972 1.8537097 1.8148851 -1.0900317 2.0552535 2.1443417 -0.4220025 -4.5328774 0.47915828 1.3650051 -1.6585053 1.1941838 0.19770798 -0.22360498
王伟雄 -3.1549675 -0.54398185 -1.0234293 2.8843327 -1.3286037 1.1873995 -0.36988786 -0.45107692 0.6446609 -3.425901 -2.9905758 -0.5157096 0.03887199 1.3606852 3.737034 0.195621
钟海 -3.4262881 -3.0511136 0.3840551 -1.4228545 -0.5664608 1.1815612 0.596982 -0.52978027 -4.0488563 -2.1618612 -3.6786053 -0.48177373 -1.7924132 -0.2403707 0.6541463 -0.9685321
郑小霞 -0.37360272 -1.2120982 3.158876 -0.07807528 1.7328024 -0.38906723 -0.37434652 2.3243754 1.6431389 -0.46906853 -4.0244837 2.6526272 0.51755637 0.26421288 1.1205735 -1.255825
许建领 -1.8803817 -3.7665486 3.2999694 2.1760452 0.6475561 -2.3206768 -0.1356479 0.4620028 -1.4653914 -0.8808119 -3.225603 0.071708694 -0.02697299 1.827825 -0.23977502 -0.5806473
张亚立 -1.2248327 -1.1744533 1.3498166 0.8489335 0.7665706 -0.93674946 1.3137705 -1.2708197 -1.1539804 -2.8384063 -3.7820091 2.9398947 -0.25547755 -1.9343578 3.218196 0.8511362
徐鹏 1.2395655 -1.6497437 2.757131 -0.27054444 -2.3371181 -0.029574279 0.816145 1.0277559 0.31001416 -5.240013 -3.8083525 0.599786 -0.5323397 -0.66907257 -0.85490865 -0.7499123
梅爱民 -0.040680498 0.9096921 1.4458306 -1.7161815 1.7119656 -1.1126882 -0.8415283 3.1133893 0.9226407 -3.415941 -4.474943 0.65730363 -1.5274825 -2.5258768 1.6350446 0.020301692
黄臻 -4.0829067 0.94679564 2.2809117 -0.09179479 1.4136876 2.0734236 2.214295 1.1782608 -2.5485585 -2.3493147 -1.7097149 -0.6157393 2.0570052 0.2308605 1.6500589 0.44006065
沙新华 0.5530871 -0.10241021 1.9083236 0.87607837 -0.8132544 -0.52719814 -3.2078125 -0.12467547 -2.6662352 -4.503175 -0.81168205 -2.2937279 -0.024523174 -1.4666638 1.088892 -2.6659896
周岸标 -2.6931543 -0.6104242 0.3579763 -0.9173509 0.6112584 0.83407164 -2.75696 2.0324373 -2.1005166 -4.0547843 -3.7814555 1.412081 0.8971706 0.71942794 -0.12653036 1.021099
关苏 -2.6215575 0.053931758 -0.39699274 0.71459943 -1.5227342 -0.44300693 -2.587657 1.7043837 -2.6313846 -1.2900072 -2.66728 -0.90027046 -1.0777013 2.3257837 -0.25718537 -4.1735153
邱宣 -2.0551004 -1.9204757 1.6175994 -2.4998024 0.30166307 -1.7756723 2.2106733 0.89351493 -0.5072694 -1.5803196 -2.3195555 -2.328298 -1.1474944 1.9841918 -1.2644095 -3.6058679
艾传荣 -2.2895808 0.54290307 3.2622237 -0.1071798 2.9017243 -2.134828 1.8501941 -1.7194493 -1.6976081 -2.7054818 0.1606346 0.08327024 2.4017563 1.472962 0.4700061 -3.4671607
许露露 -0.5720289 0.39057982 3.0447385 -1.3153402 1.3937565 2.9438438 2.3706493 -0.28808185 1.3360775 -2.900702 -1.136762 -3.7377498 -1.2847595 1.9077514 1.6906593 -2.4940095
王爱朝 -0.40519404 2.3807003 3.2066166 1.5454828 1.567184 2.7570455 -1.4187815 2.5611088 0.50966907 -3.8670337 -2.207495 -1.313919 0.099894814 1.5455875 0.97392106 0.27510285
余璟 0.5423998 -0.13982522 2.2656224 1.0186257 0.50521713 1.2003832 1.8396577 1.6790676 -2.4048154 -1.915814 -1.6450465 -2.0081985 1.2561996 -0.57277155 -0.23484986 -5.48104
陈文清 -0.34219193 -0.61219794 1.8555801 -1.1840038 0.3270608 -1.5522032 0.108947515 3.8850567 -2.3562737 -0.95046395 -2.7180176 -1.1671475 1.6205128 1.1656138 1.7549855 -0.51168555
廖远飞 -0.4749676 -0.474598 1.8194785 -1.2144047 0.23634215 -1.5658461 0.118991 3.908016 -2.2267277 -0.8581957 -2.6396368 -1.263455 1.6781893 1.1519389 1.703759 -0.31113917
胡卫东 0.44639963 -0.54632217 2.0452929 0.11572943 3.2649841 -1.0740421 2.4267442 0.46903002 0.494274 -3.371577 -3.6114342 -1.0252349 1.4098271 2.9586296 0.55818796 0.2462393
梁永生 -0.5399138 0.38970828 0.3235102 -1.6857544 3.9469771 1.139817 -1.8211482 1.4665176 -1.3619732 -1.2769012 -2.5047274 -0.12545708 1.8448932 -0.41512778 1.7437549 -4.2168956
卢旭阳 -0.38268885 -1.5171877 0.7373817 -1.4620019 1.8640028 0.104274385 -2.5004127 0.33954847 1.2148438 -3.4296725 -3.8350725 -2.7062142 -1.7976278 2.2384346 -0.091932885 -1.1500151
杨平 -0.7649989 -1.169888 1.6858871 -0.38939828 1.6621436 -1.6141379 1.678697 2.2335396 -0.4562492 -3.1856723 -1.5126853 1.9152257 1.5706064 -1.9095879 -0.23950696 -2.6184053
蔡茂洲 -0.83135426 -1.2922319 1.7009364 -0.4568118 1.6343198 -1.7910175 1.6167477 2.3749049 -0.6050792 -3.2525342 -1.7092124 1.9344097 1.7541676 -1.8866018 -0.106817015 -2.6484861
吴登记 -1.6077701 0.17385994 1.7712704 1.7807362 2.5668764 -2.7586718 0.06048953 0.01989593 -3.3465881 -2.352824 -1.7590144 -1.9405338 1.840162 -1.6076411 3.507208 -0.8706196
尹杰 -3.0708544 0.28132355 -1.1572611 -0.14871491 -0.3039911 -1.0977325 0.4321538 1.320331 -2.8279285 -2.5743976 -0.38667828 0.21819817 -2.8961756 3.17125 4.1565623 -0.5723254
王策飞 -0.06793724 -1.8626677 2.379605 1.4573704 0.14212996 1.6653621 0.20935093 3.218324 -3.378307 -2.0566854 -1.0392954 -1.172461 -2.8342822 2.7104719 0.6184002 -1.3148775
许少英 -2.0471935 -2.7798254 0.8452284 1.4867433 -0.6971237 1.7845572 2.931726 -1.1301563 -0.3196388 -3.0646913 -3.1507692 -0.5851596 2.2151341 1.8571177 0.3011291 -2.4918444
朱迪俭 2.2569833 -0.8542349 2.0933795 -0.7389949 0.059143018 0.6976976 2.2033596 0.118076004 -0.47264203 -5.07991 -0.8528393 -1.4750247 0.23789176 -0.2871406 4.0063224 0.16870591
贾兴东 -1.6246274 -0.2569411 1.2189165 0.93797576 1.0359361 1.3189844 2.0189734 -0.03260593 0.101825535 -0.2595253 -2.012919 0.011821507 -2.0260239 0.31752282 1.4035883 -1.6915798
文政 -0.88249564 -0.16369286 2.0451112 -1.8617771 -1.412479 -0.080557816 -0.9089256 -2.0047977 0.61695814 -0.41254336 -0.00019095243 -0.015388893 0.5258903 1.4090017 2.0448296 -0.29456377
钟伟民 -1.2933607 -2.1926157 0.5110755 -1.3312821 -1.2620875 -0.8445623 -1.0400144 -0.65962476 0.5594408 -0.015254895 0.6863747 0.0985634 -0.60228366 0.08483644 2.3810349 -1.3034528
温焕强 -0.9875626 -0.26568258 2.4263783 -1.626613 -1.6687144 -0.16756555 -0.85751706 -2.086371 0.32171208 -0.2751657 0.18335465 0.2025886 0.26464608 1.1697352 2.01627 0.042300068
李郑祥 -1.9385207 -0.022247616 0.9867169 0.99855363 1.0545385 0.7841338 1.7233356 0.044837218 0.15338722 0.13154835 -2.2049983 0.3177406 -1.6624744 0.57552826 1.4795011 -2.0130098
皮勇华 0.37843737 0.42100677 1.758099 -1.7755976 -0.14483938 -1.5410169 1.1447769 0.58810765 -3.1527689 -1.9031246 -1.3316655 1.487006 -1.4006894 0.5319117 0.9017116 -1.3468128
邓晓俊 -1.2033396 0.84839857 -0.36581486 -2.2974234 -1.0504777 1.0387447 -0.99783874 -2.1308374 0.8081282 -2.3806083 0.22981879 0.6266529 -0.008904574 -0.45463625 0.880359 -1.2411075
朱文芳 0.010921511 -1.3694985 3.0685654 -0.87198853 1.1906798 0.99621457 -2.5857139 -1.4744402 0.00842824 -0.2591347 0.6060379 -0.07474907 0.0828303 0.4889141 2.3698666 0.65330005
聂新平 -0.2732481 1.7835679 1.3540077 2.8261807 -1.3884203 -1.5317559 0.62401664 0.075026765 0.17669837 -1.5914695 -1.3785871 0.09078826 0.321386 0.092696846 0.9025047 -1.7810342
李喻春 0.3729784 0.4595405 1.6868694 -1.582129 -0.12812333 -1.4556621 1.1382724 0.5211898 -2.9042828 -1.7612647 -1.1787157 1.2932621 -1.2401882 0.441788 0.7453962 -1.2964181
詹有力 -1.8024467 1.3676754 1.6113417 1.1355232 -0.16984831 -1.9417912 0.28101203 0.6067175 0.8331494 -1.1221892 -2.0069811 -1.0384423 0.8993009 0.47957063 0.4870886 -0.7871991
闵晓波 -1.645479 1.8846604 0.8696077 0.5550604 2.5749092 -0.72586495 0.08025274 0.34039608 -1.208989 0.39742622 -1.944096 1.515533 -0.83410066 2.1507225 1.5103414 -1.9105104
顾楠洲 -2.1235278 -1.3887959 1.144291 -1.6268007 -1.3620415 -0.3813619 -0.9115233 -0.88396007 1.4442694 -0.43497872 0.9208078 0.701699 -0.2601348 -0.009844519 2.021593 -0.88869405
吴远翔 -1.3567284 -0.908722 0.6900079 -1.6141834 -1.222667 0.6140308 -1.1291068 0.6995236 1.9135826 -0.5801673 0.8844412 -0.28588742 1.8916065 0.89061135 2.7309875 -0.9722554
裘颖颖 0.11048437 1.7376283 0.54929537 -0.68359154 1.7630635 -0.8178194 0.90869534 2.373268 -0.94398206 -1.6331067 -0.9458449 -2.7641559 -2.0707474 0.19043925 2.4124138 -2.2063305
张礼卫 -0.48574662 -4.0777655 -0.25347844 0.005242389 0.9093965 -2.2120454 0.26124457 0.38315573 -1.3255112 -0.7931314 -2.0713131 -1.5540376 -3.0033524 -0.14426735 3.916786 -4.467213
钟晓鸿 -0.16782157 -0.16143715 -0.0951246 -0.055431362 0.176477 2.5821822 -0.12167851 3.9573488 1.8518317 -1.6582694 -1.9611719 -2.2033567 2.2534695 1.4155473 3.9219491 -2.7666924
赵立 -1.5169638 -0.66326743 3.320545 -0.33411905 0.59974045 -0.04075486 1.7144802 0.054884687 -0.28575352 -2.2926497 -1.4724519 -2.167776 -1.69811 -3.027666 1.3601079 -0.99320894
陈强 1.7471626 -0.0020905077 -0.29290274 0.50943816 -0.44173932 -0.011833699 -0.018175943 -0.23077905 -1.8734417 -1.3990719 -4.3114953 -1.1060544 -0.4578561 1.6825691 2.4641848 -1.6315818
曾岳雄 -2.2154224 -1.6541932 0.9617368 -0.18568414 -1.2920555 -0.60088336 -1.2458541 1.7753896 0.31061223 -1.3657765 1.7481029 1.3038228 0.5220181 0.10413015 1.6533988 -0.4236806
胡晓清 -1.8011447 0.37308168 0.75539494 0.682446 1.2306588 0.32818866 1.4979107 0.051947784 -0.057345342 0.24575222 -1.7772598 0.4770567 -1.4271256 0.46881446 1.191967 -1.7982028
张谦 0.38474753 0.39324313 1.5608017 -1.5450882 -0.16202085 -1.4230179 1.0493824 0.43896163 -2.7586105 -1.6420146 -1.0412999 1.2817419 -1.191234 0.45525002 0.78593266 -1.211273
郑晓生汉 0.6685287 -1.232244 3.1855273 0.969485 3.1931694 0.34391022 -3.1084929 -0.07374559 -2.0788097 -1.9013863 -1.3497816 -0.14309973 -2.4342325 -0.06954081 2.8665245 -0.2675972
李福民 -1.6704562 -1.5997283 0.96318233 -0.57348216 -1.9753759 -0.8857733 -1.3518729 1.1118214 0.29180175 -1.5774174 1.4023681 1.4398361 1.411541 0.7504113 1.323496 -0.6451439
徐忠平 -1.7448624 -1.5968153 0.6579686 -0.6968781 -1.9125305 -0.9130953 -1.2146633 1.1687566 0.39961034 -1.5245032 1.3574278 1.2793729 1.3231026 0.5534197 1.3710997 -0.81269616
娄和儒 -1.6983789 -1.5315295 0.9317628 -0.59693 -1.7615149 -0.93525505 -1.2944545 1.2781975 0.37616095 -1.696542 1.4121517 1.4425427 1.4097927 0.75305593 1.1161715 -0.6428197
贾丽巍 -1.298922 -1.0933017 1.2371868 -0.6010803 -2.0958123 -1.0173843 -1.2764584 0.96632826 0.09452137 -1.7910001 1.2490906 1.5622509 1.7604713 1.1481383 0.80875456 -0.2000705
张陆 -0.83388287 -0.32015568 1.249482 -1.8651915 -1.5345788 0.105549105 -0.9097823 -1.6065183 0.9033121 -0.6627391 0.29621756 0.22840133 0.2275156 0.5016881 1.7710501 -0.55301964
郭跃华 0.71774244 1.4859754 1.6308559 3.284411 -1.9789485 -0.45040634 0.8583498 -0.34494376 -0.75028783 -2.9151669 -1.5433556 0.96750826 -0.12856802 -0.19109294 1.6164211 -2.9890127
郑雷 -3.9559093 -2.7499013 1.1778214 1.1131797 0.33718264 0.0012544725 -0.20449911 3.4837368 -0.24769303 -2.3107378 1.1887568 2.2080305 -2.7883422 -1.884866 1.6819329 -1.8388683
丁强 -2.0980287 1.2501861 1.2865359 0.56879926 0.29507142 -1.6909155 0.17829959 1.0396496 0.9079646 -0.96283144 -1.6399552 -0.9076113 0.50593746 0.5466107 0.3139603 -0.70040643
吴军军 -1.312745 1.2498629 -0.26724547 -1.442031 0.17724973 1.4769217 -0.27721852 -1.0333917 -0.062604554 -4.141988 -1.0018657 0.95843405 -0.89579046 -0.2724278 0.34681523 -2.5739014
蒋小文 0.35365137 -0.13509771 0.40560696 0.42043206 -0.011493814 0.36400554 -0.25309783 0.28301835 0.29786173 -0.5498802 -0.56562096 0.2645646 -0.26463756 0.5025624 -0.07513445 -1.0005674
蒋溪林 0.45206782 -0.11060226 0.33124775 0.3445391 -0.15300597 0.3672766 -0.33224034 0.3520837 0.30522767 -0.6204188 -0.36935246 0.30388027 -0.1827042 0.53050786 -0.2586217 -0.9819248
郑铁军 -0.067873746 0.103460684 0.33560488 -0.3374769 -0.1389999 0.01924283 -0.12027045 -0.46221352 0.06402244 -0.020495044 -0.071827516 -0.041429263 0.0036158313 0.12587917 0.25893366 -0.020752717
王水发 0.088040754 -0.09112073 -0.11561457 -0.20270123 0.1019397 0.12976846 0.04931675 -0.06834597 -0.12837431 -0.035751365 -0.2579771 0.103503674 0.03528478 0.15609004 0.19196823 0.06224097
