79 64
郭建 0.18203321 0.4873529 -0.09570007 -0.021224435 -0.08829909 -0.27237916 -0.580182 -0.34086275 0.35318387 -1.1517293 0.07127455 0.2914188 -0.4622467 0.25668654 0.15101524 1.034342 -0.32023507 -0.95211315 -0.075562626 0.056917638 -0.3390362 -0.92041576 0.40877494 0.14736915 0.3933837 -0.34115008 -0.14682958 0.4242435 0.7740923 0.31827283 0.4685293 -0.27796558 0.21797706 1.3241087 0.07573662 -1.1230459 0.90266407 0.18270487 -0.87630755 -1.0856055 -0.9709015 0.23248819 -1.4142206 -1.1421095 -0.40243745 0.90204465 0.51717246 0.12305516 0.42117697 -0.24570185 0.71705127 -0.27451622 1.0075066 0.9831747 0.084242515 -0.048797283 0.4452207 -0.5362393 -1.002122 -0.39913586 -0.1758498 -0.052534748 -0.575151 -0.029742124
刘世会 -0.7769439 0.13305889 0.15411416 0.0030566389 -0.42516553 -1.0007688 -0.36223933 -0.28668752 0.44520366 -0.37675375 0.38138476 0.29327732 0.41965565 -0.34986258 0.6948864 0.17279264 0.22170925 -1.0142947 -0.46680343 0.06354101 -0.72612745 0.64730245 -0.31175733 1.1458104 -0.33031324 -0.39129522 0.9066753 0.873267 -0.07339161 0.4925685 1.7090296 0.15700546 -0.1630512 0.553109 0.8589886 0.09850852 -0.36405542 -0.25395402 -0.7759829 -0.66792303 -0.08604391 0.1123639 -1.0991642 -1.2930826 -0.4909927 -0.39576757 0.09542081 0.7488452 0.18137014 0.17966077 0.04668888 -0.65791005 0.466205 -0.81582564 0.09429118 0.7961793 0.039445695 -0.029689005 -0.5005202 -1.0996661 0.21251196 -0.91168034 0.04529451 1.0033419
林翰章 -0.5115531 -0.06474776 0.25571695 0.31044477 -0.3925359 -0.121943444 -0.9897031 -0.21643524 0.4583557 -0.7156601 -0.39125258 -0.31460008 -0.3207071 0.37218893 0.68573636 -0.34768787 -0.19024245 -0.7136364 -0.440014 0.7661874 -1.0408536 -0.88171387 -0.44133726 0.2188163 0.05428206 -1.2224334 0.806019 0.68370885 -0.41721073 -0.56784016 0.48398474 -0.2506896 -0.07703473 0.59653 0.06293622 0.20385566 0.20199709 0.4681031 -0.3184828 0.35616925 -0.8636947 0.7624155 -0.6912521 0.07396894 -1.0865822 0.2128838 0.023952689 0.5879936 0.7893847 0.5639193 1.2341479 -0.9885259 -0.1179302 -0.2183055 0.51907337 -0.5947106 -0.16141221 -0.65719616 -0.7894406 0.35718736 0.78842473 -0.3497009 -0.044910572 0.21460234
谷云宏 0.23679985 0.40734267 -0.18924963 -0.040246308 -0.09569914 -0.33717185 -0.72074324 -0.40451404 0.4616098 -1.1363128 -0.02404543 0.254875 -0.58170617 0.20958574 0.27321228 1.0503724 -0.28195617 -0.9925409 -0.058805462 0.1079628 -0.3944749 -0.8096759 0.49813232 0.22189268 0.42919242 -0.4214962 -0.14544763 0.33794042 0.8208621 0.23876677 0.39694026 -0.32670137 0.29113603 1.3495165 0.08430533 -1.1560053 0.7768463 0.2498534 -0.9602406 -1.0756865 -0.9343763 0.17549834 -1.3960083 -1.2019708 -0.4060378 0.8131469 0.51584667 0.072000846 0.43190873 -0.22854388 0.73422825 -0.27410275 1.0148326 0.91206753 0.16092095 -0.027692586 0.38583007 -0.5960313 -1.0010072 -0.39454627 -0.22481109 -0.06796335 -0.5298998 -0.038762067
王东 0.35567245 -0.12924668 0.1484747 -0.51882255 -1.2639621 -0.10165269 -0.7007602 0.06582994 -0.24965997 -0.1382796 0.7439118 0.59075916 0.04574039 -0.0555751 0.040986534 1.0718402 0.7714048 -0.23095818 -0.44213778 0.56878054 -0.71141946 0.41566885 0.595931 -0.42427322 -0.13581538 -0.34170163 0.74021405 0.73544997 0.54224396 0.1083327 0.73201305 -0.5726337 -0.21493872 0.14817996 -0.100196324 0.40963012 0.21079078 -0.5851985 -0.41271073 -1.4889007 0.22606851 -0.41130933 -0.41061577 -1.0160279 -0.5484863 0.21461156 -0.22280337 -0.13233708 -0.3380661 0.47370645 1.2103115 -1.3047011 0.391751 -0.28486082 1.0410383 -0.26772884 0.0035955305 -0.69013166 -0.90761906 0.11775343 0.4105145 -0.01887371 -0.2199531 -0.7563452
陈郑兴 -0.4734343 0.54807776 0.51870394 -0.19127363 -0.3394559 0.1590388 0.10802518 -0.06146002 -0.27508268 -0.96700543 0.74551845 0.5937563 0.026420465 0.35202497 -0.41129538 0.64738524 -0.06519116 -0.4902312 -0.30570954 -0.2300688 -0.035202634 -1.0863539 -0.1722953 -0.2119842 -0.013701187 0.029294314 0.10268114 1.0532663 0.30844852 0.6342682 0.96456176 -0.12597328 -0.39150405 0.98384523 -0.060712166 -0.5791755 1.2816612 -0.39598283 -0.2034739 -0.90102386 -0.879263 0.74918735 -1.1852751 -0.6423077 -0.46681347 1.2489713 0.37266752 0.7276892 0.33193353 -0.023317374 0.4679018 -0.20162635 0.75241303 0.73540246 -0.0009877665 0.07841798 0.5968332 0.08386866 -0.9370427 -0.5991079 0.30490792 -0.161375 -0.75057954 0.0848338
刘伟 -0.7174899 -0.76537955 0.33438954 -0.3252263 -0.85145164 -0.6796355 -0.65240306 -0.20253949 0.64594346 -0.7501545 0.39112198 0.83417845 -0.4226391 0.25339428 -0.73783684 -0.81408805 0.36337095 -1.1126361 0.5837059 -0.010326252 -0.29325494 -0.20988725 0.31268576 0.26508772 0.43573207 0.429565 0.83668214 0.7826022 0.3621947 -0.45474553 0.6347007 0.19766675 0.5115695 0.054444894 -1.2110435 0.41111898 0.1877382 -0.18670914 0.2891182 -1.0154804 -0.42968038 0.5890998 0.19471839 -0.9810321 -0.8024039 0.7889074 -0.103281185 0.20759529 0.22031151 0.8149078 0.17417 -0.43497258 0.13117038 -0.5301527 1.2772318 -0.7176209 -0.6026647 0.17692067 -1.1813287 -1.2918224 0.41326007 -0.31522077 0.55953604 0.10942965
张陆 -0.0962008 -0.5441162 -0.32317233 -1.190492 -0.0033063649 -0.28436702 -0.5313346 -0.25781667 -0.35881662 -0.19661434 0.098706886 1.0238051 -0.09166461 0.64349276 -0.24319962 1.2727222 0.23455071 -1.3790259 -0.068435565 0.38609996 -0.22090316 0.13416019 0.05193146 0.5602924 0.4062151 -1.3726228 0.4660399 -0.030251693 -0.3646414 -0.31487778 0.43915945 0.7639584 0.56355804 0.7036822 0.026087394 0.5187943 0.7681589 -0.3520256 0.59596354 -1.0488365 -0.32796395 0.31125587 -0.8193703 -0.60367465 -0.24464434 0.76285416 0.66931045 -0.17820808 0.4903636 -0.10629049 0.17745046 0.3355251 0.13398458 -0.7637272 1.3059744 -0.58733135 -0.19864291 -0.06555436 -0.6377701 -0.5276999 0.13359514 -0.6491296 -0.99849683 -0.5212168
郑小霞 -0.07923414 -0.52564484 -0.35369563 -1.1785185 0.045050155 -0.25232667 -0.46434304 -0.24717106 -0.38891247 -0.15787995 0.076492034 1.0148301 -0.0642055 0.64568913 -0.28104582 1.2844144 0.22392567 -1.3418753 -0.07809699 0.37608463 -0.1790267 0.15361482 0.04279601 0.53210884 0.40875807 -1.3586204 0.42296827 -0.11464298 -0.375687 -0.3084856 0.37845317 0.79763246 0.5831333 0.6916436 0.008687735 0.554912 0.7491468 -0.35804024 0.6503285 -1.0087949 -0.2886472 0.27078542 -0.76850003 -0.55346066 -0.19229095 0.7744104 0.70397973 -0.2222538 0.4669086 -0.12580386 0.12979463 0.4263182 0.0971046 -0.74568003 1.2758003 -0.5964286 -0.17592205 -0.043204874 -0.6220569 -0.4957352 0.10312449 -0.6266542 -1.0067065 -0.5326504
钟晓鸿 -0.6286236 0.013126287 0.40508538 0.3592767 -0.32741618 -0.19367377 -1.1302181 -0.1355281 0.39505666 -0.6928036 -0.28209618 -0.29646403 -0.32675266 0.39091238 0.6927129 -0.3423804 0.06616179 -0.53653294 -0.46120828 0.6206077 -0.90428305 -0.68459743 -0.4425654 0.113608725 0.12068778 -1.18577 0.75070304 0.53508216 -0.37815952 -0.51176953 0.6236836 -0.2428457 0.08818479 0.4813955 0.09319127 0.19889465 0.24061587 0.20426212 -0.029903846 0.3098874 -0.6228421 0.7943673 -0.55643153 -0.055437654 -1.0048702 0.2390008 -0.020237654 0.57969505 0.764809 0.63206995 1.2798612 -0.78960145 -0.06939367 -0.051644746 0.29108155 -0.42762008 -0.088518694 -0.40382066 -0.6716046 0.35735825 0.60101277 -0.44981316 0.04970663 0.26157773
郑晓生汉 -0.28703412 0.009318878 0.40019032 -1.4948463 0.10266601 -0.1224076 -0.9470259 -0.21289046 0.17414133 -0.33952123 0.36986074 0.29433218 -1.4294212 -0.24768163 0.68250763 -0.043652683 0.7479066 -0.43697533 0.14911403 0.11099032 0.04220005 -0.37403616 0.54118824 0.56160754 -0.75312555 -0.43664014 -0.12951699 1.0065191 0.30132318 -0.2659512 0.46687654 -1.0747547 -0.44095173 0.49211732 0.13527896 -0.5976618 0.16556576 -0.01256061 -0.96788716 -0.22553575 -0.006363478 -0.29782864 -0.33538148 -0.4844235 0.16185996 0.17295627 0.17815563 0.13328446 1.4338069 0.27482098 0.8045526 -0.47322327 0.39483598 -0.66022086 1.3488853 -0.06036501 -0.43820187 -0.06589855 -0.22814444 -0.65381455 0.06220167 -0.3661762 -0.118576534 0.387975
娄和儒 0.64530003 -0.89494246 0.19182602 -0.73138535 -0.24837537 0.07168288 -0.54570985 -0.7313923 -0.023724861 -0.3166085 0.24152005 0.48198757 -0.40871912 0.9601948 0.92769575 0.4910482 0.6302174 -1.1120448 0.46566564 0.14654733 -0.5855307 0.7033237 0.2694288 0.58460796 0.818192 -0.4613154 0.407549 0.83644444 -0.47110456 0.108626455 0.7726852 -0.24422657 0.09430557 0.04613211 -0.4368717 -0.33481407 0.34744272 0.026067453 -0.37115374 -0.987125 -0.4884172 0.7206964 -0.113067426 -0.22799437 -0.53506005 0.42113438 0.29065585 0.92721766 0.050442263 0.014171695 0.24653749 -0.675862 0.24010809 0.1685681 0.75745803 1.0381564 0.45165944 -0.19145216 0.5451269 -1.1070955 0.44272348 0.076189645 0.4251168 0.47722617
朱文芳 -0.28338718 0.02396141 0.4048739 -1.497916 0.089812405 -0.15008488 -0.95716065 -0.18839023 0.1732165 -0.34671172 0.38253185 0.2630454 -1.428471 -0.23188779 0.6948204 -0.030870512 0.76100224 -0.45493114 0.14935797 0.10287355 0.037830908 -0.41984436 0.51981205 0.51666325 -0.7652636 -0.49092448 -0.12341169 0.9984691 0.29867503 -0.27566698 0.47399452 -1.080483 -0.44686607 0.5238258 0.15467799 -0.58828634 0.21856084 -0.01854352 -0.9341515 -0.19959132 -0.036996417 -0.2859134 -0.36521402 -0.50357133 0.1510244 0.17978537 0.20503183 0.14855537 1.4250655 0.2839524 0.81158954 -0.45139712 0.4030709 -0.6306391 1.3327905 -0.053804662 -0.42907503 -0.07109693 -0.22234754 -0.6193622 0.049659155 -0.3505477 -0.13850203 0.35284945
廖远飞 0.52232236 -0.7944896 0.2163325 -0.6338152 -0.22822155 0.092024475 -0.5735922 -0.82719713 -0.04882902 -0.35091162 0.13714679 0.49763682 -0.4677171 0.95913094 0.9200238 0.5384895 0.5707985 -1.0984348 0.47582507 0.1670121 -0.49463907 0.57934946 0.24096426 0.47233477 0.66995835 -0.462239 0.4728282 0.6933569 -0.45922086 0.11574848 0.75720143 -0.27003124 0.20263536 0.12449333 -0.39302123 -0.19046998 0.26082972 0.07011974 -0.15818807 -1.0000721 -0.4184724 0.77341753 -0.12012507 -0.08572379 -0.45576638 0.31228113 0.2627848 0.88256425 -0.05016055 -0.11885354 0.26781818 -0.60581344 0.29689375 0.12087404 0.64628065 0.985381 0.48339495 -0.07375963 0.56924266 -1.0143607 0.44227237 0.26359224 0.38433418 0.43195796
顾楠洲 0.6084751 -0.833864 0.16929816 -0.6162492 -0.21254523 0.117114045 -0.5100342 -0.70596516 -0.018596867 -0.2913344 0.1897578 0.46376035 -0.39285785 0.9341736 0.8835989 0.47751015 0.56261283 -1.0339277 0.4737459 0.15462996 -0.50040144 0.633979 0.26258028 0.4897608 0.76003987 -0.41510183 0.39249504 0.72280514 -0.44321692 0.096859716 0.6872701 -0.2573985 0.13942507 0.041739218 -0.4290979 -0.27828297 0.28354532 0.043364234 -0.2595145 -0.93419904 -0.4333107 0.70497537 -0.08186196 -0.12236618 -0.47406924 0.3548655 0.26991904 0.86451143 -0.0059783696 -0.05265766 0.19132689 -0.5816596 0.24365366 0.17381485 0.6440648 0.9794964 0.44586822 -0.15070656 0.58455855 -1.0035572 0.423266 0.17918296 0.39508504 0.44258603
薛峰 -0.6881673 0.12175695 0.11800708 -0.00399126 -0.36380696 -0.8831344 -0.2806907 -0.24530986 0.36477584 -0.32500964 0.3261272 0.24749058 0.37524298 -0.32230175 0.6219214 0.16056515 0.2175743 -0.9024494 -0.40181282 0.04174687 -0.60552615 0.6092556 -0.28662217 0.9987361 -0.32713535 -0.35539308 0.77259785 0.7365694 -0.083264105 0.42467168 1.4842201 0.15802273 -0.14345837 0.4617277 0.77189887 0.06832375 -0.33755484 -0.24918526 -0.67920244 -0.571059 -0.022895474 0.06970808 -0.9517487 -1.0982887 -0.40805727 -0.33989963 0.09115063 0.6466834 0.17767766 0.15164424 0.0039655394 -0.5658199 0.40740365 -0.7310403 0.07886472 0.69993937 0.030701434 -0.0022612961 -0.39530772 -0.9499012 0.1717046 -0.82012933 0.06137984 0.8796158
王幼鹏 -0.6991504 0.10164695 0.1153725 0.023403496 -0.3741092 -0.86539567 -0.31674746 -0.25158593 0.3741041 -0.30200118 0.30743393 0.24229978 0.37869245 -0.3128122 0.5913358 0.13156721 0.19117442 -0.8721672 -0.37564987 0.05194513 -0.6119582 0.5924518 -0.28510714 0.98770815 -0.32053483 -0.3348199 0.7863197 0.74174637 -0.072401494 0.45737645 1.4915141 0.15403181 -0.12626317 0.47476366 0.7531409 0.11672336 -0.328903 -0.24076474 -0.63930243 -0.5303346 -0.028959174 0.07508521 -0.9473022 -1.1035722 -0.41050526 -0.362321 0.07728071 0.6548326 0.15895681 0.15625194 -0.0019492314 -0.5554908 0.40340713 -0.77558064 0.08057175 0.68126464 0.011737106 -0.00014558705 -0.4293827 -0.9258683 0.18417218 -0.79019046 0.037428696 0.85127777
杨青 0.37847045 -0.6155893 0.28600672 -1.2375629 0.29173478 -0.30808663 -0.73074853 -1.0024874 -0.63887703 -0.539208 0.49159583 0.64653736 -1.1056291 0.12718178 0.7033681 0.278402 -0.2923117 -0.015234877 -0.62327033 -0.70136297 -0.1696886 -0.67251945 -0.014113766 1.2301372 0.33879855 -0.26859522 0.36857465 0.373869 -0.29159778 -0.28340837 0.5194023 0.23421144 0.52028066 0.116264366 -0.28002918 0.36850643 0.6393788 0.2820299 0.023096992 -0.28722066 -0.41236252 0.8570175 -0.100709856 -1.1104164 -0.927534 0.36348084 -0.19321391 -0.20484701 -0.023488663 0.29469812 1.0507591 -0.6600965 0.335732 -0.26019752 0.08209982 0.040482815 -0.30841744 0.14302729 -0.99692184 -0.05031085 0.07368247 -0.20226772 0.50276667 -0.1859456
陈强 0.39159518 -0.65157807 0.27776772 -1.281631 0.29478756 -0.35809478 -0.762726 -1.0475606 -0.68351865 -0.5793541 0.5067339 0.66504174 -1.1443958 0.114826106 0.72594905 0.25660342 -0.3192078 0.0056280377 -0.66173756 -0.7286205 -0.15932374 -0.7222831 -0.055023253 1.2918727 0.33642247 -0.28820443 0.3763239 0.36887375 -0.31595466 -0.31550658 0.5244608 0.28136915 0.569102 0.09885539 -0.27761576 0.42222738 0.6533335 0.28706557 0.030948356 -0.25628775 -0.422035 0.9127033 -0.09755621 -1.1435207 -0.9545939 0.3488664 -0.21635091 -0.20910738 -0.012951417 0.31666443 1.0986376 -0.65772456 0.3411379 -0.2826767 0.05708952 0.0068669547 -0.3092132 0.13665393 -1.0600526 -0.07717796 0.07519299 -0.24257179 0.52866656 -0.18981095
王策飞 -0.21614528 -0.06397985 0.378317 0.16821773 0.60971683 0.29543644 -0.47115096 -0.958488 0.3031457 -0.29888502 0.5720722 0.9496807 -0.061543368 -0.48086357 0.34087342 -0.17394987 0.516719 0.071253955 0.18470891 1.0256552 0.22021154 -0.6335431 0.0641843 1.3733456 -0.22049862 -0.3404132 1.3900708 0.53187615 0.79067105 -0.59433055 0.48568454 -0.85350734 -0.07694922 0.43765992 -0.32435822 -0.7010587 -0.14169578 -0.3942323 -0.5082026 -1.1670892 -1.0744388 0.804107 -1.1500165 -0.021513546 -1.3219136 0.082325 -0.64222836 -0.12623118 0.017084414 -0.4270686 -0.0071517113 -0.33675787 0.2210953 -0.12594537 1.5007794 -0.13777767 -0.28833655 0.5905267 0.1603977 -0.23974927 -0.046180196 -0.27243203 -0.38136962 0.24650735
钟海 0.5297049 -0.81315124 0.12721111 -1.0083542 -0.9083127 -0.27117258 -0.75096816 0.24183159 0.04766158 -0.39249244 -0.060613032 0.06221204 0.32507768 -0.47979853 -0.5908985 -0.025298884 0.34568346 0.3369348 -0.15234353 -0.39386755 -1.2914262 0.26541126 0.41927493 0.13461924 0.34337014 -0.9270613 -0.30802166 0.27846536 0.25082904 -0.3322113 0.21598516 0.6925564 -0.66632915 0.86914444 0.53001434 -0.8068071 0.8015782 -0.5946704 -0.33876973 -1.1411197 -1.0492915 0.6233381 -0.8096371 -0.71292776 -0.9194901 -0.18611847 -0.6614426 0.7311904 0.22534747 0.037244465 0.5874498 -0.19866286 -0.25463644 -0.20444751 1.2157645 -0.5228228 -0.5144211 -0.09300775 -0.55611265 -0.7775839 -0.52924573 -0.861435 -0.17262506 -0.71888936
黄臻 -0.47148126 -0.5634566 0.72642154 -0.8052075 -0.019459778 -0.87665296 -0.7665638 -0.9490809 0.73502207 0.6909901 -0.39496 0.76623046 -0.61222297 0.19574428 -0.00914452 -0.36415896 0.6334821 -0.17986548 -0.8614472 0.52097195 -0.9055816 -0.60850275 0.2530043 0.60521984 -0.63651174 -0.18985462 0.61092323 0.9338277 -0.5543895 -0.9031451 0.42376584 -0.16050988 -0.51780313 0.38470313 -0.65031415 -0.15173681 -0.3343593 0.2081442 -0.6883559 -1.3691156 -0.10077992 0.7464501 0.3951188 -0.11427384 -0.94878167 -0.08990551 -0.1388384 0.83031005 0.41205102 0.28276145 0.69250214 -0.47430247 -0.41352895 0.6505958 0.54448885 0.023895951 -0.9117056 -0.93919426 -0.062074333 -0.52913165 -0.5361252 -0.75916857 -0.284684 0.3463104
于宝明 -0.0707583 -0.22934523 -0.7074841 -0.4462519 -0.20816138 0.029276852 -0.84196985 0.39845213 0.38024458 -0.31855354 0.8334679 -0.111927725 -0.4275745 0.17285289 -0.31258786 0.5176166 0.10770163 -0.4879196 -0.37058502 0.013231248 -0.46562496 -0.25674403 -0.096314795 1.105728 0.625458 -0.2478477 0.8526925 0.9707351 0.09209623 -0.4827551 0.007858783 -0.3752799 -0.6609409 -0.46374908 -0.43953827 -0.32290846 0.63303065 0.14907803 0.20078933 -0.64407617 -0.86724293 0.21438403 -0.24298602 -0.9223889 -1.2648748 0.1856817 0.20996419 -0.15074706 0.7113921 0.4391466 -0.19359505 -0.3001428 -0.32645923 -1.1145134 0.15824921 0.33114102 -0.9257588 -0.8242971 -0.40195668 -0.2291996 0.20023012 -0.42233232 -0.560722 0.62882304
贾丽巍 -0.108950436 -0.23505738 -0.76150197 -0.45928055 -0.23724571 0.030993555 -0.86920696 0.45468575 0.42613482 -0.33487603 0.8908413 -0.11726631 -0.4285254 0.20393263 -0.32679752 0.5482116 0.10076471 -0.55622023 -0.3570538 0.029239638 -0.4977961 -0.25600722 -0.14399599 1.14915 0.66834986 -0.25819606 0.89091325 1.0296882 0.123250484 -0.5116549 0.0044357073 -0.39191118 -0.6857189 -0.5036132 -0.4592554 -0.33408672 0.67430776 0.1556532 0.252578 -0.66615295 -0.9013904 0.20402122 -0.2514361 -0.99735093 -1.3170363 0.19805808 0.22749268 -0.14264578 0.73084605 0.45025226 -0.21908112 -0.31048012 -0.35231343 -1.1665561 0.13906151 0.38232502 -0.9777911 -0.9007486 -0.41182086 -0.23328175 0.21826702 -0.4276805 -0.6194182 0.6742525
钟伟民 0.22242472 -0.41315666 -0.27865896 -0.296049 -0.45451757 0.14344877 0.009108439 -0.40183806 0.26621 -0.47252792 -0.41417032 -0.099685684 -0.16973256 0.20563684 0.21940802 -0.0752294 -0.61899143 -0.89597726 -0.13899024 0.6482575 -0.9423429 -0.88473123 -0.18315992 0.52778804 -0.2770566 -0.625661 0.6119002 0.74475235 -0.2603629 -0.40830347 -0.1847325 -0.17677666 -0.4956623 0.738794 -0.07468043 0.064820945 0.11320729 0.81950134 -1.0315924 -0.0304164 -1.1391618 0.13940296 -0.76355904 0.26914313 -0.70887226 0.15594946 0.22705123 0.26840127 0.38385007 0.01349018 0.4426912 -1.1012336 -0.24075761 -0.6219747 1.2127453 -0.8212596 -0.22170894 -0.9731291 -0.772182 -0.0833156 0.85318875 0.086768016 -0.32825962 -0.18323521
吴学龙 0.3534993 -0.57089007 -0.47580776 -1.0911402 -0.11896986 -0.4548266 -0.1665679 -0.98921096 0.2485659 -0.46591964 -0.2520195 -0.07256871 -0.12609507 1.0426781 0.96790916 0.93800783 -0.24635564 -0.90597856 -0.9208148 0.41312748 0.24072531 -0.551657 0.87003803 -0.1365857 0.07270644 -0.647515 0.19429357 0.015236125 0.6384045 0.35132173 0.66514784 -0.7992859 -0.6194682 0.36368942 -0.33669844 0.67444414 0.2858811 -0.3543341 -0.60157377 -0.36277232 -0.30641875 1.070137 -0.8722788 -1.0923218 -1.1545227 -0.16092831 -0.012988232 0.34930465 0.77509916 0.43208873 0.12580653 -0.30266076 0.22009058 -0.60515267 0.046365354 0.6585827 -0.7043395 0.20231289 0.28096548 0.09074952 0.34960714 -0.875358 -0.63984466 -0.7676308
邓晓俊 -0.5479503 -0.04526648 -0.6424073 -1.0330669 0.8319357 0.51762563 0.44402522 -0.61924505 -0.06950979 -0.4936394 -0.011825068 -0.419301 -0.9543926 -0.20783918 0.06325918 0.66490597 0.109150454 -1.1914111 -0.29063523 0.543094 -0.8547916 -0.58558697 0.92362195 -0.32054415 -0.17393242 -0.3619607 1.0531437 0.99262655 0.41626403 -0.16748294 0.10053281 0.51579404 0.21934469 0.39656597 0.7990175 -0.29176012 0.97083664 0.16498964 -0.6075945 -0.7705351 -0.5183724 0.9299418 -0.517425 -1.1792535 0.16703129 0.89543325 -0.6472752 0.7442583 -0.16061275 0.83678174 -0.2156315 -0.48675328 0.57018363 -0.2497983 0.69227445 -0.20228785 -0.426555 -0.20724316 -0.019970344 -0.49954212 0.69467354 -0.3154159 0.3093273 0.67379624
贾兴东 0.37434617 -1.1195273 -0.031840313 -0.069050595 0.3558905 0.011006272 -0.7633672 -1.0876911 -0.4708297 0.18331142 0.16751109 0.4340911 -0.15022981 0.886868 -0.42961594 0.4011811 0.18561871 0.16303326 0.008261253 0.19797736 -0.4885316 0.50905675 0.79092854 0.46196657 0.90574723 -0.04951839 0.87678117 1.389588 -0.09634078 0.20696221 0.47946092 -0.32821617 0.14303815 0.6108176 -0.20942782 -0.8264247 -0.10248642 0.7323309 -1.0500443 -1.0045888 0.10569351 0.6172227 -0.8805628 -0.54509795 -1.2754565 -0.6616909 -0.100870565 0.26898724 0.983311 -0.312773 -0.3327945 -1.0441453 0.69191164 -1.1918007 0.40143657 -0.44075266 -0.55937964 0.48832434 -1.0855821 0.28608814 -0.049784437 -0.5140925 0.1778322 -0.7477205
余璟 0.07922071 -0.17251106 0.14128643 0.032998648 -0.86059386 -0.28363642 -0.49639565 -1.120125 0.7213743 0.51023555 0.48186436 -0.094165064 -0.79704356 0.060885377 0.12224621 0.64615685 0.6353354 0.0077890353 -0.73419905 -0.3053508 -0.563943 0.43804818 -0.79367316 0.97691625 -0.27453175 -0.43837547 0.6132195 1.2306415 -0.32498476 0.024029143 -0.4146956 -0.4235986 0.63030666 0.59585124 -0.15267792 0.30567676 0.60096115 -0.8753966 -0.76569074 -0.6313123 -0.22787182 1.0997615 -0.50401276 0.08699444 0.18444015 -0.15184508 -0.56279033 0.07087226 0.46146926 -0.3486161 0.57071453 -0.2562471 0.6708551 -0.83493704 0.88610727 -0.651244 -0.37623677 -0.29110017 -0.52777725 -0.8774625 0.07198879 -0.7858182 -0.35533965 -0.21584068
周岸标 -0.6782063 0.19554035 0.058889925 -0.2962263 -0.89376664 -0.9436091 0.17869899 -0.26810774 0.39275753 -0.32319054 -0.4245636 -0.025682567 -0.22356169 0.31451255 0.67349494 0.9926134 0.58244634 -0.75069165 0.45830914 0.036566295 0.57280374 0.48749715 0.21940841 1.0665493 0.6701278 -0.61696666 0.24819875 1.1808165 -0.51492697 -0.42448395 0.57410115 0.59996283 -0.70166683 -0.37309915 -0.032791495 -0.7894952 0.12366852 -0.1719782 -0.23306525 -1.1929809 -0.5996755 -0.35457188 -0.86280984 -0.94189495 -1.0475526 0.8541803 -0.4434411 0.1275899 -0.39048517 0.42550048 1.105702 -0.5336979 -0.0037994478 0.49216717 1.4163557 -0.09002539 -0.027697936 -0.66718215 0.32461265 0.15015322 -0.55550927 -0.9671586 0.35877335 0.042930633
张亚立 -0.83040076 0.8737594 0.5708554 -0.8242101 0.28234717 -0.14488144 -0.7261899 -0.5037951 0.6900397 0.24753207 0.42745304 0.22905396 -0.1783663 0.27004686 -0.38161382 0.7382357 -0.0021039103 -1.0740517 0.12803094 0.8049956 -0.63144606 -0.25658903 -0.52463186 0.6384028 0.08013429 -1.0962411 0.76762366 1.1584187 0.5141174 0.21388471 0.36689118 0.2649614 -0.104376286 -0.16626005 -0.31007937 -0.2646578 0.69314444 0.36373118 0.7289397 -0.8281333 -0.3189071 0.42607337 0.38858187 -0.415427 -0.6165643 0.81267667 -0.43501583 0.37495217 0.41975662 -0.70244753 1.189963 -0.7025764 0.8728755 -0.64629143 1.1678262 -0.27746615 -1.196989 -0.9368746 -0.07081186 0.41279733 -0.9815647 0.29367173 -0.7444665 -0.61504966
高瞻 -0.73239577 -0.84400135 -0.94159144 -0.9379924 -0.96367353 -0.7751873 -1.1937482 -0.5777137 0.72704786 0.21606371 -0.4429347 -0.005685596 -0.64339125 0.6074844 0.7117968 0.045826983 0.38384 -0.2220192 0.35803023 -0.027311437 -0.7097453 -0.40580273 -0.49412653 -0.24934292 0.2073208 -0.22285433 0.931385 0.21549442 0.42729655 -0.035081856 1.0225537 -0.6813173 -0.043556854 -0.25045952 0.3280577 -0.57707834 0.12323682 -0.5167733 -0.9060623 -0.19896103 -0.8077419 1.0619755 0.07494114 -0.2120176 -0.27094686 0.70506966 -0.08727908 -0.27664626 0.22128928 -0.114809245 -0.31048256 0.2637626 0.54450685 -0.49761918 1.1319038 -0.1185101 -0.48176345 -0.6993434 -1.2858247 -0.48608455 -0.06420493 -0.6513963 -0.8616848 -0.26589873
曾岳雄 -0.9429641 0.44090724 0.03518679 -0.14582354 0.28635705 0.11157261 -0.33693543 -0.6476837 -0.074834436 -0.011818984 0.690907 0.88000643 -0.6280482 -0.6324798 0.34884694 -0.1618441 0.5547499 -0.15175924 -0.8295965 -0.23696512 -1.2423428 -0.0066954573 0.23195033 1.010228 0.246023 -1.1322623 -0.6876706 0.45843527 0.6587972 -0.98982704 0.5940468 -0.18334883 -0.17364882 1.0599909 -0.6013965 0.2798383 0.47138727 0.20306565 0.110852376 -0.6146394 -0.430284 0.13543297 -0.67148113 -1.461392 -0.37563205 1.2047514 0.87124354 0.94800556 0.12995884 0.38672414 0.046792354 -0.110479236 -0.54791945 -0.4426301 1.4283242 0.49735013 -0.15017265 -0.20592843 -1.1374646 0.07477657 -0.6395995 -0.35762143 0.046082586 -0.0887837
李郑祥 0.36295545 0.1911315 0.7043208 -1.0449687 -0.16263978 -0.54653966 0.18809791 -0.007697055 -0.35921058 -0.32163858 -0.23476428 -0.14060014 -0.6614107 0.5999567 -0.004558041 0.03221775 0.49022472 -0.7797888 -0.15756465 -0.05919756 -1.190149 -0.157826 -0.37395695 0.31413758 -0.51952606 -0.6880829 1.0769266 0.11557557 0.68861365 -0.93482643 0.75989795 -0.45730776 -0.52798676 0.5265957 -0.11042158 0.22083375 1.100901 -0.58035547 -0.31464157 -1.2505728 -1.0455072 -0.04854743 0.19223106 -0.6161247 -0.83477753 -0.15142538 0.07174551 -0.42564145 1.0244597 0.46571335 0.5390374 -1.3652077 -0.34716028 0.44781104 0.80040246 -0.24206455 -0.46573907 0.65353614 -0.40681025 0.06666944 0.018295204 0.3134381 0.5136157 0.37864566
肖民 -0.4671495 0.40083867 0.55703723 -0.86539596 -0.21007152 0.70381665 -1.0270498 -0.8484112 -0.49785414 0.08555984 -0.47149256 -0.04888276 0.24135524 0.3302044 -0.10960417 -0.31142667 -0.021519003 -0.4905035 -0.70195264 -0.0034134826 0.14840367 -0.7302084 0.6643492 0.82671475 -0.5437384 0.21003933 0.79925424 0.70755786 0.68821543 0.29717988 0.5380075 -0.28997716 0.2850601 1.101855 -0.08166732 -0.1970237 0.4646202 -0.42433006 0.49539196 -0.046325013 -1.0165416 -0.48293626 -0.89191496 -0.96986485 -0.85684055 0.7983 -0.36077583 0.852938 1.1728044 -0.61915207 0.23123924 -0.73641473 0.015269632 -0.9608127 0.4786429 -0.71576315 -0.40282556 0.27510247 -0.4158805 -0.0832476 0.22504984 -0.9431128 -0.5192794 -0.6634943
徐志斌 0.13254811 0.19563155 0.1454382 -0.32554665 -1.0117989 -0.7777648 -0.72513044 -0.70995855 0.85067797 -0.85264903 0.91512644 0.94204336 -0.80367017 0.44509014 -0.26052308 0.7040363 0.43348297 -0.27137682 0.41823733 -0.7706741 0.54656696 0.18729126 0.58510697 0.20730989 -0.18989867 -0.6126001 0.73893356 0.6303815 0.8493031 0.19189097 0.68168664 -0.547841 0.6685911 0.85000366 0.5303975 -1.0491234 0.4302327 -0.3365109 0.19416457 0.49807933 -0.13083506 0.4144379 -0.324428 -0.73877966 -1.356381 -0.2890103 -0.2993742 -0.28449237 -0.06385248 0.5429776 0.10129294 -0.9970202 -0.14053859 -0.85314953 0.45406404 -0.42336178 -0.6977847 -0.05915891 -0.19503966 -0.6299324 0.21895985 -1.1251738 -0.7014393 -0.40474644
凌冲 -0.96856993 0.28544387 0.6506873 -1.2749989 -0.31820512 -0.41445577 -1.0986073 -0.737458 -0.31830162 -0.5618088 -0.45581955 0.45732912 -0.21140558 0.42276594 0.3943721 -0.26740384 0.06823419 -0.8901106 0.26925617 0.6053372 0.21420848 0.2506864 0.7215229 0.34270358 0.8078289 0.51274395 0.3644504 -0.08067451 -0.09720974 0.3398936 0.9108874 0.15229493 0.38967034 0.6786532 -0.013017902 -0.6108096 0.20100649 0.5306376 -0.5045338 -0.5466565 -0.98390305 0.5545544 -0.85514313 -0.12171135 -1.4363748 -0.3811072 0.8457377 0.26427993 0.11907544 -0.5237375 0.12311463 0.22181329 -0.33166093 -0.9143623 1.1416676 -0.09684212 -0.33514982 -0.12002575 -0.92079866 -0.66604364 0.27126604 0.32434186 -1.030669 0.60755074
邱宣 -0.8793158 -0.49493614 0.06295983 -0.015353557 -0.48873565 0.4732172 -0.4442603 -1.1731383 0.10684501 -0.490228 0.5563828 0.08337607 -0.32894936 -0.018507501 -0.13427922 0.48111522 0.74285334 -1.1838329 0.19957022 -0.7879182 0.0030438327 -0.4625507 -0.0040415283 0.0896111 -0.82125473 0.50563484 1.4721243 0.027506929 -0.068657964 0.011415009 0.055284042 -0.18114722 -0.21473956 1.1060847 -0.036608946 -0.25390348 0.5369412 0.15763563 0.3500247 0.1674013 -0.46306214 0.51434624 -0.9383063 -1.2116355 -1.025852 0.46404687 0.10277693 -0.34517625 -0.06531179 0.49684396 0.95984095 -1.1905005 0.3553801 -0.49915016 0.9785273 0.8554919 0.19531098 0.3750283 0.17817496 0.4561503 0.11003789 -0.57032806 -0.5831728 -0.30286655
高尔剑 -0.8016532 -0.1613258 1.102094 -0.4733894 -0.35090348 0.32159126 -0.4961014 -0.06807972 1.0828105 -0.018811565 0.19038932 0.0002416129 -0.065418795 0.4203376 -0.03461937 0.0635406 0.6261544 -0.47184667 -0.6800922 -0.8024206 -0.24630392 0.2963762 0.42049286 -0.3638471 0.30825454 0.05672899 0.55368924 0.92836326 0.14272077 -0.39649546 0.74023896 -0.49261385 -0.72433215 1.2364988 -0.26748648 -1.0341452 0.08437009 -0.6792316 -0.08948889 -1.5000582 -0.3390068 0.6151343 0.07256739 -0.2597748 -0.813278 0.6782815 -0.73763424 0.8012861 -0.18736425 0.7365855 0.013204673 -0.7827167 -0.034898862 0.0886645 0.49600935 0.018716082 -0.079041936 0.25172055 -0.6382799 -0.059503365 0.46289217 -0.14901231 -0.3797558 -0.18476054
裘颖颖 -0.81639904 -0.14604908 1.136025 -0.49731007 -0.37921032 0.3289762 -0.5031278 -0.03703399 1.1194746 -0.008783164 0.18720636 -0.047202967 -0.03917647 0.4091128 -0.039157208 0.099477716 0.6394969 -0.47055316 -0.7143956 -0.8327096 -0.26329982 0.31716132 0.44999894 -0.40420097 0.32958072 0.04925715 0.5544068 0.9944415 0.16441207 -0.39887688 0.76835334 -0.50322175 -0.79226017 1.2742687 -0.2724983 -1.1071912 0.08445371 -0.7337036 -0.08836582 -1.589117 -0.3429111 0.60131484 0.041249786 -0.27844593 -0.83240575 0.72626054 -0.78500205 0.86137915 -0.20617352 0.7295693 0.034923397 -0.813501 -0.0142531 0.119575016 0.52643067 0.008770899 -0.084500134 0.24697869 -0.6479716 -0.053262312 0.4622896 -0.15450321 -0.40376234 -0.23146845
李福民 -0.35026044 -0.3302842 -0.76973456 -0.42377177 -0.5314497 -0.34294203 -0.1528169 -0.10876322 -0.47510114 -0.7654995 0.7277978 -0.43034053 -0.5763566 0.25705618 -0.052559886 0.07808773 0.9590193 -1.2061286 -0.6475249 -0.45162874 -0.12139837 0.30220008 0.5701239 0.8191173 -0.29195347 -0.5522362 1.0295589 1.2721113 1.0098833 0.8383295 0.73430973 -0.5021884 -0.29441777 0.12910996 -0.26546046 0.19144414 0.28629074 0.5700957 0.14101838 -0.8201129 -1.2928487 0.4970495 -0.5519421 -0.7338505 0.11935567 0.32321402 0.6676595 0.06127268 0.43934095 -0.26142874 0.23607995 -0.305336 0.13714251 -0.24063803 0.86889356 -0.79039574 -0.6602514 0.5471812 0.15058541 0.052506693 -0.24313915 0.7150208 0.16996725 -0.09068993
王爱朝 -0.344332 -0.32292685 -0.72131276 -0.47614554 -0.55713916 -0.33241352 -0.20848481 -0.12833051 -0.42739898 -0.7408541 0.70945114 -0.41680303 -0.5700404 0.2732001 -0.018947132 0.088036776 0.9498217 -1.2026774 -0.6279593 -0.4209648 -0.15755358 0.28560555 0.5282208 0.8108005 -0.27093154 -0.5588802 1.008695 1.2626705 0.95026976 0.7910038 0.72433 -0.50437045 -0.26469642 0.14199151 -0.27564588 0.1644394 0.3187692 0.5231581 0.14567499 -0.82833767 -1.2639009 0.503185 -0.544373 -0.72279614 0.08230453 0.2945305 0.63969266 0.120499186 0.45034292 -0.23679397 0.26101336 -0.31306314 0.122926846 -0.25960526 0.88602525 -0.749698 -0.6428982 0.48306546 0.11654508 0.015095004 -0.21140869 0.66600215 0.12813869 -0.08554043
闵晓波 0.48071793 -0.21822652 -0.009790211 -0.42239195 -0.49161583 -0.72607696 0.22985242 -0.2763689 0.28529498 -0.97737944 -0.0933507 -0.5877064 -0.09269636 0.32671383 0.10324925 1.2350264 0.5679959 -0.29462537 -0.8001858 0.70547414 -0.902068 0.48403162 -0.35681036 -0.015958486 0.25818184 0.15331261 1.5491283 1.0823497 -0.38273987 0.25668857 0.8259184 -0.49451914 0.7347216 1.1380202 0.38345215 -0.15642554 0.26703495 0.21082583 -0.7757292 -0.27669817 -0.49940854 0.27780402 0.10201158 -1.2288922 -0.08940306 0.48524666 0.48767233 0.1538481 -0.16567338 -0.25913417 0.42834076 0.122925445 -0.00045543798 -0.5171853 0.8291702 0.67226917 -0.985521 0.00056019385 -0.8462124 0.0690999 0.6719186 0.2073826 -0.430486 -0.67609584
沙新华 -1.0875137 0.47962993 -0.3620301 0.48309058 0.02804742 0.6972393 -1.3194919 0.11433451 -0.13382655 0.42350018 -0.014202952 0.20615289 -0.8704959 -0.44732058 0.3575646 1.0736107 0.48905882 -1.1466027 -0.29098606 0.86850685 -0.425273 0.8602881 0.12786461 0.9776898 0.4740774 -0.2624814 1.0822755 0.7996833 -0.4837983 -0.050216336 -0.033343226 0.2196344 0.14347376 0.15477508 -0.81740266 -0.5493212 0.1316159 0.5422498 -0.22703096 -0.8334545 -1.0267148 0.528076 -0.59821635 -1.0325617 -0.8885422 0.080818914 -0.17789541 1.1460077 0.6768164 0.50189805 0.036338206 -0.15367174 1.016113 -0.06006951 0.6191618 0.65758675 -1.014264 -0.29758793 -0.25869957 0.41167933 0.5002692 0.14839344 0.17843753 -0.5377268
杜斌 -0.5447996 -0.15135011 0.30672815 -1.0766084 -0.57964367 0.22078596 0.091761746 -1.1314443 0.48396757 -0.18452562 -0.5611672 -0.3860691 0.2739834 0.85755706 0.94014037 0.8087305 0.8361518 -0.69386697 -0.11340091 0.34624964 -0.71093607 -0.11822072 -0.5710417 0.30826262 0.76906466 -0.71913284 0.8540401 0.61858743 0.49805313 0.594416 0.05054923 -0.3873807 -0.19793952 0.19040424 -0.8042149 0.65117323 0.42882207 -0.6400741 0.39566 -0.9153176 -1.1129773 0.50141597 -0.5433544 0.10143943 -0.60839707 -0.54688185 0.3214855 0.76464224 0.08933191 0.1976103 -0.09888152 -0.18927257 0.8989283 -0.09480688 0.932648 -0.89085424 -0.34392065 -0.10660769 -1.0080987 -0.7983982 -0.6472224 0.17583819 -0.122492716 -0.5578023
艾传荣 -0.7714874 0.46445376 -0.69847554 -0.06850023 -0.057263996 0.64033204 -0.47923514 -0.7191542 0.12898244 0.5191311 -0.16071032 -0.28677437 0.29499665 -0.016720619 0.32290372 0.96801513 -0.383069 -0.6431533 -0.7753609 -0.39746478 -0.33235633 -0.76089257 0.33498874 -0.27318954 0.69867134 -0.415066 0.8141319 0.39819354 -0.52315384 -0.43851504 0.35538557 -0.5654395 -0.07983421 0.85934716 0.034030344 -0.31821844 0.19049783 -0.6249614 -0.314076 -1.6171148 -1.0408548 -0.42991042 -0.7313659 -1.0129889 -1.285827 -0.38339192 0.41744035 0.53632534 0.2334605 -0.5738636 -0.04095671 -0.62588865 -0.17149748 -0.048128955 1.3901846 -0.42773706 -0.7265212 -0.6260779 -0.8142434 -0.20202868 0.3317949 0.45716172 -0.31390876 0.49455738
刘初汉 -0.24801545 -0.85938746 -0.69236314 -0.6419487 -0.33996606 -0.018296598 -1.187997 -0.35925576 0.619526 -1.1298575 0.8263799 -0.8573972 -0.45829448 0.763505 0.9166329 -0.078196704 0.84877324 -0.15318587 -0.20194581 -0.81972605 -1.0717357 -0.17221896 -0.12144042 0.6743006 -0.25655845 -0.21989863 0.4460236 -0.13377745 -0.29480726 0.24522091 0.9205259 -0.37607408 0.5202968 0.5844187 -0.21298708 -0.7014436 -0.14446159 0.21991517 0.06908757 -0.6825133 0.2459038 -0.22070241 -0.7025635 -0.90812224 -0.59350216 0.58647984 0.725601 0.81591403 -0.10072954 0.33663863 0.36931834 0.3571612 -0.28709587 -1.0229193 0.7853521 0.9014918 0.17387313 -1.0133162 -0.8654021 0.06308949 0.064094156 -0.59740376 -0.7904727 -0.38868934
张福通 -0.54337376 -0.38660568 -0.10587427 -0.12604614 -0.10576722 -0.32944205 0.20368138 -0.9034789 0.90651876 -1.0686195 -0.42933425 0.32074738 0.13805188 0.5221125 0.13443512 0.5061913 0.5108622 -0.50346565 0.21085197 0.45415848 0.099604756 -0.12978113 1.025673 1.0063684 -0.63520193 -0.6138478 1.1629717 0.94769 -0.62260956 -0.8654264 1.4536988 0.3359455 0.41910717 -0.14005986 -0.51741713 0.47981015 0.73581326 0.2899951 -0.7045146 -0.31189623 0.12878779 -0.11607693 -1.050483 -0.8271093 -0.26485538 0.8573857 -0.27406982 -0.14540534 0.99055976 -0.020440318 -0.3265188 -1.2588943 0.5511021 0.37698686 0.073122844 0.052626193 -0.48352385 0.01581663 -0.4931893 -0.55409944 -0.15877819 -0.43559596 0.061799165 -1.0070323
梅爱民 0.39372984 -0.0112852305 0.110686034 -0.41448087 -0.5432622 0.86388963 0.48562735 0.33382908 0.20276411 -0.9573716 0.65984094 -0.43659878 0.042549044 0.60872674 0.2950135 0.9390849 0.7363396 -0.6072261 -1.1576418 0.77924013 0.09396329 -0.038318016 0.06605979 0.9789357 0.19374707 -0.80489737 0.9780672 0.19192658 -0.78082466 0.45082667 0.14171788 0.158526 0.084826946 0.8699446 -0.7022431 -0.5910469 1.0238708 -0.49426824 -0.19775826 0.05530812 -0.83962345 0.44391063 0.13808352 -0.16446857 -1.1516865 0.5461189 -0.19382557 1.1119121 0.3849409 0.81459767 0.5150988 0.011921426 -0.3474948 -0.14459278 1.1103888 -0.26022696 -0.47488752 -0.24940078 -0.7952922 -0.92716765 -0.36402318 -0.5725373 -0.2701075 -0.026405098
贾长胜 -0.61243546 -0.66103613 -0.236999 -0.7281674 0.5140984 0.27970675 -0.8912002 -0.71851325 0.7853614 -0.062162302 0.7483138 -0.5269974 -0.7910399 0.18507409 -0.7036877 -0.27935743 0.17328328 0.5872409 -0.18036476 -0.21291816 -0.7756037 -0.38681683 0.58595955 0.9386815 -0.66026235 -0.10719498 1.0198691 0.7265258 -0.9385272 0.83229077 0.7096973 -0.18377423 0.12378629 0.9942859 -0.40509275 -0.32909787 0.51870733 0.17763768 -0.22531997 -1.2055335 -0.5303456 0.09743966 -0.29390705 -0.12095874 -1.1034846 0.79367185 0.3724453 -0.074601226 0.23414972 0.77299327 0.6437246 -0.58240616 -0.4377085 -1.0674651 1.11919 -0.2469725 0.035909396 -0.14136219 -0.14855495 0.46317565 0.73965997 0.21029875 0.045251437 0.65394187
张涞临 0.32398 -0.3127078 -0.2513347 -0.74645734 -0.9490214 -0.6280406 -1.0006299 -1.2693298 0.8212282 -0.49632636 -0.28569332 0.63816535 -0.74095076 0.32384968 -0.3744687 0.3891888 -0.09768954 -0.7596601 -0.44780427 0.43997914 -0.9959476 -0.64052767 0.42129657 -0.13337134 -0.37978822 -0.47971782 1.147495 0.9303531 0.4842336 0.31816617 -0.28778926 0.1268168 -0.48092365 0.12180037 0.065925725 -0.18399858 -0.4026871 -0.5407846 0.33467686 -0.8015743 0.33657932 -0.22055686 -0.40558583 -0.09086828 -0.8478413 1.0350276 -0.7138008 0.3803363 0.9726259 0.6932945 1.00803 -0.025293848 1.0089239 -0.6644874 0.074667566 0.5578627 -0.086178035 0.060912076 0.07400497 -1.0770137 -0.5069394 0.09396272 -0.19537923 -0.114288285
胡晓清 0.10488436 -0.8940087 0.8076339 0.23574297 -0.9941376 0.2620272 -0.4209151 -0.095241755 0.7565071 0.17808193 0.27720663 0.95126843 -0.7578076 0.5422401 0.877355 0.36862734 -0.13789049 -0.6073122 0.45163268 0.20785694 -0.083068825 0.0010777678 0.39952892 0.75034314 -0.041766766 -0.45977053 0.14296056 0.9325152 0.016435869 -0.53591913 1.2296741 -0.7392612 0.8026397 0.49819788 -0.015383663 -0.029476939 0.6622083 0.6375996 0.62037176 -0.6068104 0.083016954 -0.16004062 -0.1651601 -1.1795595 -1.1711166 -0.24100256 -0.76636636 0.9181071 0.051512904 0.6934055 0.9044982 -0.56105417 -0.22506452 -0.79625636 0.30163473 0.53540516 -0.43208238 0.03659983 0.0747317 0.28827465 -0.12674198 0.01757533 -0.6659851 -0.25230762
王伟雄 0.3612823 -0.4297904 -0.508549 0.0060390276 -0.9868062 0.33316997 -0.20502967 -0.82605225 -0.50315607 -0.7903155 0.56689405 0.25436482 -0.1720261 0.8079052 -0.64118063 0.9687049 0.7462799 -0.21230581 -0.7434543 0.29694024 -0.011926366 -0.7374393 0.29830608 0.5883199 -0.053579517 0.5382393 0.5523823 0.32241184 -0.017162865 -0.87106186 0.3099936 -0.07319819 0.6884348 1.1180065 0.3828132 -0.5075997 0.20396239 0.6358056 -0.11688315 -0.081605054 -0.6825077 0.51087123 -0.41757488 -0.8394609 -0.58786637 0.14161587 -0.5540244 0.99769944 0.33560622 0.82537067 0.012370262 -0.697358 0.23954481 -0.9848747 0.5179906 -0.46917287 0.20931701 -0.7829944 -0.88381433 -1.1293255 -0.7070392 -0.2681813 -0.30738074 -0.6207148
梁永生 0.19732346 -0.36774927 0.6341225 -0.710403 -0.87975216 -0.23440278 -0.73042923 -0.5037818 0.53207916 0.17163385 0.64697576 -0.40946433 -0.82681745 -0.5384019 -0.0407934 -0.15633135 0.3859939 -1.061987 0.31632707 0.4823954 0.2163102 -0.79478407 0.00019387041 0.061746318 0.4324505 -0.66397434 0.08658253 1.2013214 -0.6081899 -0.13258614 1.2966645 0.74108213 0.57069236 0.9763516 -0.1887062 -0.93504024 0.97602886 -0.7096597 0.35459492 -0.8028113 0.17764594 0.6555458 -0.84816617 0.09253227 -0.11898175 0.6883445 -0.40629184 0.95166576 -0.3280087 0.23124596 0.45594162 -0.2875918 0.77454114 0.39874044 0.9910137 -0.3735468 -0.39468214 -0.119144335 -0.4185176 0.012498357 0.67403185 0.042819444 0.1715805 -0.8413926
许少英 0.040982954 -0.21983461 -0.06582079 -1.0020206 -0.15810403 0.16796464 0.25989944 -0.8265418 0.21472241 -0.23626012 -0.5697124 0.9619722 -0.43410912 0.8215708 0.57394457 -0.16670662 -0.38974264 0.21621168 -0.016681684 -0.49290302 0.15910988 0.13494529 0.548405 1.2272958 -0.20768616 -0.6283094 1.1866094 1.4921567 -0.17259227 -0.9016656 0.3564149 0.5595596 -0.7982877 1.295562 0.23969665 0.31292912 0.2197092 0.057711516 0.48236912 -0.69216186 -0.3900201 1.0417707 -0.26166618 -0.13353463 -0.3246378 0.30074966 0.41370535 0.15108661 0.33103907 0.6004639 0.048115134 -0.6236359 -0.2543416 -0.2970341 0.8118553 0.07629922 -0.3509319 -0.34089574 -0.04184942 -0.70956737 0.8950612 -0.09429825 -0.36186507 0.37367836
聂新平 -0.61406744 -0.6777079 0.3105189 -0.25980592 -0.7242894 -0.61012226 -0.53632635 -0.13541842 0.5576502 -0.6233745 0.33711484 0.72101235 -0.333423 0.20613894 -0.6899647 -0.7686453 0.30991364 -0.92827636 0.5518488 -0.034893904 -0.20764183 -0.14081696 0.2605483 0.17120029 0.38890278 0.45485738 0.6890158 0.6433864 0.3216539 -0.36924106 0.5207288 0.200803 0.45795742 0.0026596244 -1.0757186 0.37515354 0.11378465 -0.16327377 0.2885706 -0.8607008 -0.30817208 0.49594086 0.25527927 -0.8180332 -0.6286941 0.6624947 -0.088830195 0.16009617 0.14271015 0.68677986 0.107355006 -0.3411609 0.10438297 -0.4430627 1.0627059 -0.6118585 -0.51059484 0.20623018 -1.0072111 -1.1234277 0.35973367 -0.2419223 0.5306112 0.0843155
许露露 -0.5781979 0.009595353 0.32722825 0.3584229 -0.28292385 -0.15247996 -1.0021781 -0.118741654 0.39003128 -0.6386266 -0.28297076 -0.28516942 -0.2708518 0.3644252 0.6325584 -0.32128862 -0.02716142 -0.5036163 -0.41499177 0.6017574 -0.8243644 -0.6358113 -0.39981827 0.11793961 0.102866694 -1.0460495 0.6843062 0.49604428 -0.35836035 -0.4504082 0.55445755 -0.19971111 0.094004214 0.4087156 0.083434455 0.21636522 0.18204169 0.26202074 -0.046907824 0.3214738 -0.5819965 0.7116142 -0.5227647 -0.049577113 -0.90647167 0.22350512 -0.00014916061 0.52629584 0.6655624 0.572358 1.1284617 -0.70373964 -0.08536845 -0.10279325 0.23704317 -0.37781653 -0.07280857 -0.40485254 -0.6019624 0.3458911 0.60059255 -0.37548167 0.020104138 0.25114697
皮勇华 0.34238267 -0.12496597 0.12060027 -0.45699006 -1.12997 -0.087914445 -0.5952844 0.025816124 -0.21529296 -0.15555476 0.653522 0.5362795 0.04948628 -0.0040942496 0.031597268 0.94690335 0.69613886 -0.2149434 -0.3540061 0.5028984 -0.6098373 0.35278094 0.51587695 -0.38128784 -0.14129226 -0.29245797 0.6667046 0.6196276 0.48169458 0.123021014 0.632186 -0.511173 -0.17560613 0.12373322 -0.11732889 0.3769295 0.19543606 -0.5110106 -0.33613968 -1.3069414 0.21661906 -0.3709609 -0.3405324 -0.87630427 -0.47223192 0.19683762 -0.18836743 -0.13372634 -0.30166692 0.43305182 1.0744871 -1.147248 0.3599694 -0.23802584 0.89981765 -0.20275065 0.033463135 -0.60318035 -0.7805153 0.06737918 0.34701312 -0.011617153 -0.17745547 -0.6670664
李喻春 0.32195318 -0.0923149 0.122202136 -0.41692847 -0.9887249 -0.08270538 -0.51641524 0.05165919 -0.189926 -0.10058938 0.5651164 0.4728102 0.050488655 -0.03069021 0.0037722467 0.85308284 0.59847015 -0.1671242 -0.32062063 0.44564524 -0.5534943 0.32121354 0.4568568 -0.3673091 -0.11714786 -0.29198426 0.5327434 0.5395317 0.43043342 0.07554551 0.54177135 -0.4336099 -0.17632043 0.09942444 -0.053377233 0.3142328 0.17687169 -0.4677954 -0.29983237 -1.1490679 0.20754606 -0.34771132 -0.27356946 -0.7660572 -0.40856144 0.15536158 -0.19050354 -0.09804752 -0.26750574 0.37269434 0.95533323 -1.0061951 0.31197205 -0.19268684 0.781176 -0.18259317 0.009408741 -0.54386514 -0.6724389 0.07666438 0.27935725 -0.014354899 -0.16243315 -0.5991628
陈文清 0.48576754 -0.7322091 0.18616658 -0.5701689 -0.23074666 0.07020841 -0.50623727 -0.73304516 -0.031753324 -0.31826162 0.112045914 0.46474034 -0.43453854 0.8772225 0.8135246 0.51683474 0.5261295 -1.0173846 0.46687588 0.1571934 -0.4284325 0.5567592 0.23382193 0.43719357 0.60164046 -0.44846138 0.41690865 0.6380361 -0.43420073 0.10814817 0.6920739 -0.24609384 0.18628009 0.10529199 -0.35359174 -0.16320561 0.21554688 0.060269523 -0.11571723 -0.94545704 -0.3326019 0.6891168 -0.096821405 -0.06549564 -0.36438483 0.27819452 0.23756526 0.77380836 -0.04891655 -0.12832347 0.24810323 -0.5156937 0.27314347 0.13023415 0.5961914 0.8952957 0.4431963 -0.058508165 0.5591525 -0.9318571 0.3884953 0.25904256 0.36103135 0.3852087
高泉 -0.21105593 0.025689546 0.35108826 -1.2505326 0.09028876 -0.13519977 -0.7693 -0.17905712 0.11104268 -0.29546145 0.29991814 0.24522026 -1.207605 -0.21689096 0.5752264 -0.018317014 0.63180107 -0.34063455 0.15469305 0.088633284 0.049598902 -0.3201514 0.45647463 0.44551605 -0.64118713 -0.38858175 -0.15248889 0.8043008 0.26450953 -0.23272881 0.3740236 -0.9040748 -0.3475395 0.40048432 0.12659508 -0.5061884 0.15316436 -0.030576974 -0.8136221 -0.13778108 0.019323757 -0.26779503 -0.3028496 -0.4103345 0.15098873 0.14337504 0.15409057 0.088027894 1.2145696 0.2282116 0.6687103 -0.3876205 0.351766 -0.530393 1.124179 -0.034176502 -0.3642037 -0.03538136 -0.16836502 -0.5381587 0.025603237 -0.33124676 -0.0953871 0.30035588
詹有力 -0.52863246 0.08766896 0.08503844 0.017581275 -0.28083548 -0.72195333 -0.21283711 -0.18656327 0.3000239 -0.26189792 0.28202322 0.17046066 0.31513062 -0.2570908 0.45959085 0.12667777 0.14824767 -0.7067824 -0.30445984 0.032035988 -0.48388347 0.482794 -0.25546026 0.77542955 -0.2545212 -0.26043996 0.6328944 0.57072574 -0.052872524 0.35076573 1.1789494 0.14618327 -0.08614978 0.3495242 0.6179606 0.07512316 -0.26169428 -0.1768879 -0.533002 -0.43360695 -0.005733398 0.08017945 -0.74731135 -0.86182827 -0.29265863 -0.27232653 0.095267884 0.4811094 0.120621614 0.09081047 0.0013694717 -0.44413704 0.32373288 -0.57209706 0.024333298 0.53604597 0.04416411 -0.009857974 -0.33381826 -0.74225956 0.13448484 -0.63606155 0.03885354 0.6936412
张学凡 -0.22802635 0.040499855 0.37549207 -1.3239318 0.0969988 -0.10726126 -0.8145183 -0.11643558 0.13703413 -0.26968998 0.32566118 0.2049371 -1.2643135 -0.21884139 0.5983368 -0.066600256 0.67655635 -0.33902055 0.1261028 0.07438682 0.05821739 -0.34890112 0.4561592 0.4316765 -0.69109106 -0.40916684 -0.18350382 0.8536824 0.2713918 -0.25221238 0.379894 -0.96511465 -0.42770466 0.42525396 0.14080948 -0.52465624 0.1667162 -0.0057699643 -0.83588463 -0.12193454 0.017324125 -0.28903064 -0.24016467 -0.37622708 0.20624854 0.11865337 0.18282703 0.12457531 1.2618086 0.25028178 0.68860656 -0.37321153 0.3306555 -0.5187971 1.156307 -0.056867838 -0.37737754 -0.06786756 -0.19409639 -0.5234245 0.026273936 -0.3062488 -0.08398148 0.30956525
尹杰 -0.56596076 0.025569372 0.3459042 0.32796726 -0.26230812 -0.17172521 -0.972522 -0.13096094 0.36712158 -0.6000177 -0.21977118 -0.26235843 -0.2956639 0.3498629 0.6397173 -0.30321717 0.056592856 -0.48034042 -0.40133435 0.5480037 -0.79179204 -0.5962075 -0.38096768 0.11481142 0.10281029 -1.0441453 0.6597019 0.4847205 -0.30848128 -0.45522428 0.585786 -0.24436969 0.056597225 0.41701216 0.069393426 0.18436646 0.2190711 0.19021893 -0.029011587 0.26750574 -0.5454287 0.7066167 -0.4965788 -0.058378387 -0.9046992 0.1605763 -0.011531521 0.51064956 0.68579113 0.5711368 1.0949416 -0.7065759 -0.051528454 -0.07891061 0.25619268 -0.35911193 -0.09400452 -0.35045207 -0.5784319 0.3293331 0.52960163 -0.3669673 0.029427767 0.27328023
郭跃华 -0.57543993 -0.6126492 0.27057585 -0.24463105 -0.6801667 -0.5496526 -0.52474433 -0.1473232 0.5313721 -0.5840488 0.31177816 0.6579585 -0.33246458 0.20189346 -0.6139825 -0.68186754 0.27876404 -0.8760782 0.49135467 -0.03568207 -0.20018059 -0.15523742 0.26160118 0.19594583 0.3466755 0.380428 0.6583829 0.62596124 0.280821 -0.3651877 0.49039543 0.17141008 0.4155604 0.029216416 -0.9722444 0.31907892 0.13616513 -0.14716324 0.25120145 -0.7842299 -0.31358188 0.46822304 0.18188627 -0.77868754 -0.63414955 0.61228496 -0.079881236 0.16983728 0.19237654 0.65009964 0.12176261 -0.3363214 0.10062625 -0.42834434 0.99856585 -0.5748038 -0.48250735 0.17915566 -0.9199842 -1.0355699 0.3453607 -0.253509 0.46353242 0.08775907
苏剑 0.586902 -0.7739436 0.13680132 -0.61125916 -0.17690636 0.08045582 -0.43819568 -0.603209 -0.031222591 -0.27410722 0.22559531 0.41729936 -0.34040526 0.8185009 0.8181774 0.400258 0.51593786 -0.92857283 0.40471098 0.1268697 -0.48665228 0.6089011 0.2573476 0.49700806 0.71833307 -0.38307473 0.33660954 0.7046635 -0.36992463 0.09610918 0.6378746 -0.20468885 0.088758424 0.012825262 -0.39756504 -0.26004532 0.2969522 0.045788746 -0.3033841 -0.81574726 -0.42205915 0.604766 -0.07601135 -0.18760663 -0.447175 0.3663063 0.25772744 0.80005836 0.041146293 -0.0033797142 0.1781047 -0.54564995 0.19706811 0.14891592 0.61697257 0.89773464 0.3849211 -0.14441024 0.51138675 -0.93598205 0.35623854 0.0946267 0.3721189 0.4202949
张礼卫 0.28557226 -0.41795042 -0.32220918 -0.28933686 -0.45092618 0.13432248 0.08157207 -0.38628983 0.24647717 -0.45273048 -0.3758132 -0.04098928 -0.1707634 0.13435017 0.16274837 -0.029368993 -0.5998997 -0.87406504 -0.080488056 0.61244494 -0.87885165 -0.80330616 -0.12731637 0.5240214 -0.2782143 -0.54715294 0.5548918 0.73188764 -0.22972423 -0.3770697 -0.22654563 -0.15187503 -0.49563566 0.7008848 -0.069053926 0.012170891 0.098068714 0.82330024 -1.0733999 -0.029620586 -1.099805 0.101844944 -0.7455109 0.260768 -0.6340829 0.13755548 0.23173548 0.2100207 0.35056436 -0.035023622 0.35391515 -1.0504252 -0.19291012 -0.5956559 1.2002611 -0.7745787 -0.23253012 -0.9334376 -0.7360188 -0.09118073 0.7902203 0.122472405 -0.33235198 -0.21468958
张谦 0.29939097 -0.11701458 0.12310724 -0.4002227 -0.9551149 -0.08189753 -0.50697464 0.055757333 -0.16636609 -0.09977619 0.55065376 0.4532671 0.03242024 -0.056338836 0.031845994 0.80082303 0.5947581 -0.14711574 -0.31104532 0.43535164 -0.5274283 0.3027492 0.4474912 -0.35182846 -0.11143542 -0.2447816 0.513928 0.5287159 0.40939906 0.0893891 0.5374793 -0.4376482 -0.16020723 0.079678625 -0.08386959 0.3204285 0.14596257 -0.439571 -0.32491645 -1.1248121 0.23066235 -0.33305618 -0.26508084 -0.73805666 -0.3556841 0.16174051 -0.16991106 -0.11082567 -0.28278154 0.35716215 0.928221 -0.9536295 0.3289442 -0.1911792 0.7581686 -0.16523097 0.012399639 -0.52486 -0.6806502 0.08728913 0.29764718 -0.0005105377 -0.13620865 -0.59710443
丁强 -0.49535728 0.08747806 0.072466105 -0.014460111 -0.24780369 -0.6473282 -0.24306698 -0.1982333 0.27748087 -0.26042742 0.2324499 0.18749328 0.26794207 -0.21692136 0.44898665 0.13346554 0.16750869 -0.67968476 -0.30464876 0.06981397 -0.4718277 0.45738843 -0.19491893 0.7511518 -0.1966298 -0.25453377 0.5780779 0.5582359 -0.066261314 0.3275002 1.1101351 0.12686507 -0.07660835 0.367368 0.5510127 0.042443622 -0.24503991 -0.17050871 -0.5150892 -0.4423078 -0.0422536 0.063604824 -0.7228934 -0.84969276 -0.31502584 -0.22953852 0.08885541 0.52143127 0.1493446 0.08692307 0.017055817 -0.3816412 0.31561115 -0.53430283 0.097145036 0.5483205 0.024775097 -0.0141814165 -0.3274628 -0.7352876 0.11898147 -0.6043481 0.038271476 0.63349706
卢旭阳 -0.41206065 -0.016118754 0.2919705 0.19523412 -0.21501018 -0.18784882 -0.85237205 -0.16881464 0.32581058 -0.5636248 -0.23623331 -0.20070449 -0.294445 0.33569446 0.53811663 -0.2340064 0.040821124 -0.5124516 -0.34352928 0.50458413 -0.660161 -0.5814109 -0.33204788 0.14036344 0.10189511 -0.9429323 0.628613 0.43629438 -0.32006752 -0.36790818 0.5185386 -0.21518755 0.047290556 0.405391 0.024503676 0.12352225 0.21220662 0.18056445 -0.07891297 0.26592168 -0.53132236 0.6369387 -0.409818 -0.04054673 -0.8351713 0.14840445 -0.033144005 0.4557717 0.6467216 0.44516718 0.9998025 -0.6357377 -0.00962866 -0.08107488 0.24078672 -0.35620606 -0.13449593 -0.33555958 -0.52285033 0.27947858 0.44163066 -0.33460277 0.030075205 0.20940736
徐忠平 -0.45897675 0.042869907 0.10602076 -0.049304683 -0.28058344 -0.58640903 -0.2476144 -0.1963143 0.24540314 -0.20176972 0.23153086 0.20163812 0.23986767 -0.18862213 0.43689665 0.12619227 0.16198201 -0.62002736 -0.26575232 0.058240846 -0.45113924 0.40567714 -0.17720155 0.7031758 -0.17934336 -0.2401225 0.56144106 0.5562017 -0.05725857 0.34489343 1.0561489 0.087803714 -0.11714043 0.32729727 0.5081007 0.083278105 -0.21831577 -0.18675193 -0.4400166 -0.40757027 -0.05868678 0.06735977 -0.63962674 -0.7783619 -0.34406 -0.2519854 0.03059532 0.48392493 0.080071 0.13927767 0.024078581 -0.39788404 0.28146437 -0.5796829 0.11013947 0.50605804 -0.014633293 -0.023335444 -0.28442702 -0.6578623 0.10933374 -0.5309999 0.04070244 0.58096606
蒋小文 0.04657475 0.28406677 -0.022009576 -0.01386329 -0.09551426 -0.13607882 -0.32162154 -0.20139138 0.22871758 -0.68672764 0.08795712 0.154346 -0.26907435 0.16834365 0.07557646 0.56663597 -0.15078112 -0.54630816 -0.05183308 -0.007924458 -0.19013716 -0.5423058 0.20069224 0.06957183 0.19203876 -0.16547056 -0.076731354 0.28543684 0.41913214 0.2001258 0.32127017 -0.14874527 0.12697737 0.753502 0.050006755 -0.6839088 0.5475577 0.057807006 -0.49370053 -0.59771246 -0.56840307 0.17313828 -0.8373634 -0.640634 -0.24270554 0.5449129 0.2737101 0.107800975 0.22391868 -0.13282812 0.429834 -0.15378748 0.56512177 0.5738835 0.03650155 -0.004171679 0.24754311 -0.27949047 -0.5994596 -0.25008342 -0.09889847 -0.05918208 -0.36494038 0.010836494
吴远翔 -0.08949331 -0.34342843 -0.22775944 -0.8543864 0.0364436 -0.19527096 -0.36600602 -0.20058206 -0.27032635 -0.1055942 0.044831827 0.716981 -0.061310936 0.45023027 -0.17543855 0.8759464 0.14466146 -0.94946337 -0.07719013 0.26752234 -0.15372261 0.11535949 0.03046734 0.4014665 0.2855455 -0.96974266 0.32954258 -0.033919968 -0.25134867 -0.19263276 0.29267737 0.5278981 0.38618323 0.47152224 -0.0052533043 0.37561563 0.50283664 -0.24785341 0.42968693 -0.7285164 -0.20920108 0.20514224 -0.55921495 -0.38712993 -0.16254355 0.5343757 0.49922344 -0.14451963 0.35823217 -0.10204039 0.11559818 0.24618472 0.077604294 -0.5326533 0.88949597 -0.39710492 -0.16036338 -0.020388728 -0.4103956 -0.34479353 0.10143786 -0.42765322 -0.7048215 -0.34458497
蒋溪林 0.14046755 0.22141762 -0.09295803 -0.08215451 -0.10359599 -0.22878477 -0.42095265 -0.2545503 0.26605278 -0.68277806 -0.016861504 0.16250479 -0.31854862 0.14621705 0.14531104 0.62263256 -0.15380819 -0.5700369 -0.056018293 0.061954126 -0.2574441 -0.45503 0.31108063 0.14663662 0.2622933 -0.28604797 -0.08197434 0.20507215 0.5014745 0.14198713 0.25912327 -0.21623078 0.17873904 0.8388024 0.03536828 -0.66843736 0.4553311 0.12924185 -0.5543033 -0.6520913 -0.5424964 0.11924959 -0.81995136 -0.70555156 -0.23051104 0.47363138 0.29258084 0.037237242 0.2917273 -0.11448352 0.4371453 -0.19610423 0.5922278 0.52265626 0.10925566 -0.031988937 0.23618989 -0.33988458 -0.6035874 -0.27692083 -0.13853708 -0.077565715 -0.3252872 -0.02419586
高东春 -0.0010981329 0.0068514706 -0.0065418193 -0.0030919223 0.0021275661 -0.003800154 -0.001977316 -0.0074196206 1.3637004e-05 0.002873256 -0.0062965625 0.0076075345 0.0007117179 -0.006868904 0.0074991025 -0.005172278 -0.0019349565 -0.0053232904 0.0034564256 0.000554654 0.0049966876 -0.0038632927 0.007487106 0.005576028 -0.00041138416 -0.007724446 0.0074175834 0.0036810068 -0.0025537729 0.0041363216 -0.0013718745 0.0030279448 0.0013497506 0.006069557 0.003679767 0.005396592 0.005277303 -0.003407875 0.0035609496 -0.004298667 0.0070734546 -0.0016020801 0.004486656 0.0027056427 -0.0016293295 0.003182337 -0.005935939 -0.006804481 0.00661991 0.004392816 0.0036783034 0.0008175468 0.0061234445 0.0060483944 0.0012257806 -0.0065775514 0.0061006937 0.006332733 -0.0044193803 -0.00545965 -0.002260866 0.0030484232 0.0024591652 0.0019295197
张素芬 0.08032482 0.17327644 -0.061982486 0.042089008 -0.0048127705 -0.10316054 -0.20278552 -0.08493789 0.12551527 -0.35658848 -0.022550365 0.0736578 -0.14712112 0.052596673 0.052882474 0.32966995 -0.131085 -0.2949584 -0.0021748026 0.03377453 -0.10219973 -0.28095448 0.1394557 0.01958533 0.1452223 -0.11432955 -0.1090121 0.0765735 0.27830338 0.08848295 0.08315382 -0.08775859 0.090180285 0.42680112 0.040070936 -0.3796147 0.26030177 0.09378524 -0.307064 -0.31492487 -0.2870935 0.045084223 -0.44460094 -0.34671885 -0.08936968 0.26426095 0.17794673 -0.0074597057 0.11688052 -0.114486314 0.2227541 -0.05854302 0.33139876 0.34982127 -0.009697595 -0.03174119 0.16159944 -0.20627837 -0.3173173 -0.09353768 -0.07517652 0.0003644664 -0.18565097 -0.01668542
陈秋明 0.0060297 0.0013015139 0.007280928 0.002460056 -0.0051867277 -0.0044262786 0.0028104668 -0.0028010465 0.0015859834 0.0052576386 0.00096989755 -0.0053219805 -0.0006396248 -0.0037976513 0.0073245973 -0.006718925 0.0018286813 -0.0062807784 -0.0039581503 0.0071852314 -0.0051983343 0.0067885076 -0.0042019906 0.002744978 -0.0037002233 -0.0005300474 0.0018891005 -0.0055167535 0.0044313297 0.0016224043 0.0073737307 -0.002637201 -0.0049982225 0.0074460674 0.0030823352 -0.002582087 0.0012196151 -0.00054175383 -0.0033021148 0.001177286 -0.0016749889 -0.00040669896 0.0026163908 0.0071090334 0.0039142044 0.0010081581 -0.0039398884 0.0018895725 -0.0021643 -0.0048342478 0.006644401 0.0077378848 0.0074269297 0.002129765 -0.004953684 -0.004229015 0.005157806 0.0049560796 0.004347627 -0.004876189 0.001264717 -0.0066746506 -0.0016387062 0.0001306344
孙福金 -0.0056449105 -0.005442825 -0.0065481425 -0.0023125827 0.00399527 0.0059164744 -0.0026691242 -0.003392498 0.00296496 -0.0077499202 -0.004787557 0.004761521 0.0076377993 0.0035076078 0.005053199 -0.0063637667 -0.0065602204 -0.000890955 -0.002657316 -0.0066137407 0.00063502736 0.0019226832 -0.0029887038 -0.00419865 0.005331312 -0.005852544 0.0042106193 -0.0022771286 -0.0069548017 -0.0061130417 0.004865076 0.002499705 -0.007613761 0.0024364411 -0.0016070616 -0.0019120354 0.00310627 0.0022467999 -0.0048105405 0.0051480625 0.005375311 -0.0012272081 0.005149814 -0.0044716303 -0.005363149 0.0039387704 -0.007467691 0.006018249 0.0066283564 -0.0027433746 -0.006928812 -0.0033317772 0.0003770229 -0.005782594 0.0010627586 0.005539909 0.0026900885 -0.001212828 0.001875486 0.00493299 0.0016129857 0.0040149004 0.0044704024 0.007452528
温焕强 -0.19967449 0.1534218 0.18418062 -0.11855045 -0.14420268 0.05395721 -0.0039476915 -0.057814088 -0.08016282 -0.32772905 0.27305192 0.20610268 -0.009541603 0.14708792 -0.09836336 0.22682087 0.012704648 -0.2220451 -0.1296333 -0.065261506 -0.049273122 -0.36490214 -0.052476685 -0.039528515 -0.022010019 -0.016730528 0.10503468 0.40117875 0.07860177 0.18201864 0.38543683 -0.059195384 -0.14115864 0.3550392 -0.017750189 -0.17431414 0.44140756 -0.15094166 -0.04956454 -0.3305588 -0.31767198 0.27721184 -0.39430404 -0.25014314 -0.22595252 0.43215394 0.10401329 0.2826107 0.12425568 0.034709677 0.17637801 -0.11754946 0.21376261 0.1737634 0.07445822 0.027101884 0.16606244 0.027441336 -0.342665 -0.22493291 0.14522155 -0.080655314 -0.26482 0.021955343
