42 64
郑小霞 0.12910111 -0.3453298 0.031067763 -0.84436053 0.28253907 -0.34612274 -0.31200293 -0.41177398 -0.40639877 0.18245152 0.2057647 0.53852993 -0.34049004 0.7616182 -0.040569242 0.5959283 0.43542466 -1.0232224 0.04179345 0.014988599 0.0532026 0.22731186 0.18877381 0.34987897 -0.39577714 -0.41620103 0.12671605 -0.30078402 0.025752133 -0.25555488 0.6443487 0.4894966 0.41354275 0.481892 0.06929684 0.7759266 0.51010257 0.56034863 0.3661626 -0.2679864 0.14640923 -0.08295637 -0.25454545 -0.5530242 -0.01715997 0.39254153 0.8304122 -0.31345508 0.4755052 -0.13335042 0.20979147 0.43793127 -0.20792674 -0.7654639 0.5592557 -0.0965985 0.29612926 0.014644711 -0.445475 0.13746908 -0.48539042 -0.38771588 -0.6558336 -0.41120484
刘世会 -0.34645882 0.07032798 0.34439826 -0.047827635 0.348849 -0.77111495 -0.7150336 -0.45822194 0.14125438 0.23339929 0.35215968 -0.012072331 0.10305822 -0.24721722 0.20350553 -0.35610232 -0.15563177 -0.28882444 0.033503972 -0.060832094 -0.42969266 -0.10844905 -0.16626757 0.6129747 -0.29514962 0.046864208 0.5988735 0.052994054 0.28031772 0.36159 0.87712693 -0.052720025 0.13920955 0.025215391 0.24339807 0.43803346 -0.15057115 0.4220848 -0.35966226 0.05531708 -0.12085822 0.11349308 -0.5856995 -0.7175942 0.19291359 -0.28644955 0.13389777 0.029763369 0.050157335 -0.23019232 0.1466523 -0.3973301 0.039078783 -0.38541582 -0.12568757 0.27499133 0.30111045 0.38837802 -0.07871696 -0.23114109 -0.055348862 -0.31814092 -0.04734675 0.46834335
林翰章 -0.25761792 -0.12447988 0.33739594 0.03471398 -0.3442791 -0.0302128 -0.71933466 -0.1410075 -0.347485 0.050436445 -0.11766647 -0.1989234 -0.29186755 0.09948486 0.45069504 -0.37485248 -0.0045371475 -0.21223989 -0.07636504 0.36182013 -0.7495278 -0.61892194 -0.20411433 0.24438003 0.08811086 -0.4956658 0.08708686 0.037485972 -0.17071326 -0.029197283 0.3001528 -0.26899233 0.13045494 0.36368492 0.031008761 0.16568407 0.086236365 0.737097 -0.3452621 0.483397 -0.45763934 0.08353477 -0.23863833 0.06068439 -0.38294217 0.28472394 0.14264661 0.561594 0.46574116 0.076329365 0.62993014 -0.5266428 -0.36792627 -0.02174139 0.28570712 0.10480776 0.037341665 -0.18311247 -0.424538 0.026101755 0.033920985 -0.51504743 0.31423298 -0.16359407
钟晓鸿 -0.26227766 -0.12750418 0.34841654 0.03671195 -0.35781977 -0.04897601 -0.7180613 -0.11236431 -0.34972918 0.03745947 -0.13338469 -0.21010296 -0.31162345 0.08901346 0.44826022 -0.40073782 -0.00018057035 -0.21352841 -0.06250913 0.37877297 -0.75291485 -0.6387497 -0.2357781 0.23244622 0.08929702 -0.52344763 0.06555729 0.03097665 -0.19361758 -0.036179703 0.27993068 -0.27496293 0.13836695 0.3622531 0.061141632 0.15714157 0.10231073 0.72821426 -0.3511483 0.49657065 -0.45697084 0.07285648 -0.23488502 0.08169453 -0.37164843 0.285122 0.16013296 0.5679123 0.4583039 0.09252936 0.6510591 -0.50363487 -0.3978458 0.003771718 0.29870686 0.08430524 0.043697774 -0.19444835 -0.4292509 0.014247331 0.048986524 -0.52234966 0.32497543 -0.14733192
郭建 0.13706289 0.46770704 0.48873994 -0.09638005 0.6259487 -0.5886208 -0.8516286 -0.38160008 -0.059698414 -0.32409936 0.4388048 0.35810614 -0.57775635 0.41161844 0.18580171 0.3579651 0.00878266 -0.8268324 -0.18627644 -0.25438544 -0.75899667 -0.6591402 -0.059925977 -0.15820423 0.026403995 0.016337141 0.2335786 0.4485376 0.086472005 0.48416206 0.5077731 0.01603835 0.59426713 0.49689308 0.3206017 -0.27166066 0.49104184 0.5148436 -0.6926086 -0.17192169 -0.3886648 0.19998845 -0.5340863 -0.773466 0.3156575 0.66457564 0.4222119 -0.006513652 0.39352512 0.32193825 0.8633892 -0.29060936 0.46772653 0.26905793 0.3866578 -0.32731014 -0.017652806 -0.24184357 -0.23255621 0.19425656 -0.35077688 -0.2017476 0.11012711 -0.3041423
张亚立 -0.5696127 0.46056375 0.4615563 -0.3308662 0.45319209 -0.23289716 -0.46993053 -0.2858869 0.17993565 0.25240713 0.23007056 0.107723854 -0.047893662 0.32749516 0.07179472 0.26294285 0.0036816814 -0.60298437 0.06347858 0.3562146 -0.43851072 0.0041812216 -0.2759463 0.33866116 0.02245196 -0.4767821 0.5380803 0.4834527 0.16326638 -0.005870603 0.48423237 0.20394388 -0.018332617 -0.23246276 -0.06811201 0.14696397 0.22290325 0.5616406 0.16914634 -0.24689882 -0.22088291 0.15115786 0.04993713 -0.28831697 -0.24398375 0.54486006 0.003245979 0.003227089 0.28368902 -0.48712343 0.5935451 -0.49260324 0.29449153 -0.33963662 0.5096652 -0.047439337 -0.33197486 -0.23081395 0.058062375 0.5207336 -0.5448892 0.122970894 -0.34898445 -0.42401257
贾兴东 -0.016041424 -0.38379124 0.16009502 -0.047275748 0.5111464 -0.08212589 -0.5783031 -0.75800854 -0.66611445 0.3616884 0.0719134 0.09700316 0.047824513 0.6639728 -0.035232104 -0.009243476 0.041103404 0.11595737 -0.061770074 0.16096942 -0.19795822 0.35445815 0.31569582 0.428855 0.26187646 0.007000465 0.49884728 0.4409359 0.010327416 0.17611618 0.46832985 -0.027981902 0.12601471 0.18062226 -0.14981243 -0.015234043 -0.19259338 0.9367214 -0.50954145 -0.060543705 0.04375919 0.3045071 -0.62625587 -0.32159346 -0.59901506 -0.39793018 0.20035155 0.33525354 0.75297976 -0.37366286 -0.19541888 -0.51447046 0.081980206 -0.9160918 -0.08390769 0.16812527 0.035733443 0.6158799 -0.31367236 0.4800482 -0.3329091 -0.4173997 0.08744315 -0.44757968
李郑祥 0.01768345 0.21314275 0.41512743 -0.6457681 0.31180385 -0.46727452 -0.25360537 -0.0048730094 -0.64999944 0.08525314 -0.18500543 -0.24934408 -0.32540184 0.40317905 0.23976403 -0.29986852 0.274987 -0.3981902 -0.11038064 0.12407496 -0.64983463 0.08690558 -0.16503093 0.14267525 -0.5028662 -0.13166274 0.58934927 -0.4076862 0.25224373 -0.44956785 0.6005843 -0.06272424 -0.2024181 0.049495276 -0.10469485 0.58025247 0.29976258 0.17197745 -0.28636873 -0.22602174 -0.4249109 -0.18731324 0.06481515 -0.28246567 -0.2814729 -0.2132179 0.39040822 -0.17607047 0.73615044 -0.01985451 0.21150488 -0.6146548 -0.4893811 -0.029040698 0.34285587 0.019117717 -0.076714635 0.6319516 -0.009576351 0.3298205 -0.29255292 0.28010336 0.33164686 0.1886519
沙新华 -0.5115638 0.26963234 -0.027988913 0.13724975 0.4552743 0.16122794 -0.7171753 -0.10886681 -0.34791163 0.2757889 0.0438227 0.08026979 -0.4219523 -0.11740724 0.22486861 0.24599095 0.12490136 -0.5038296 -0.23217644 0.28214732 -0.33749923 0.38472503 0.036385592 0.46650198 0.014808941 0.087917864 0.49445152 0.042309474 -0.22984515 0.027871005 0.18654993 0.28972703 0.29237422 -0.07028566 -0.33880267 0.19713199 0.0017858875 0.74891317 -0.13977298 -0.00423668 -0.38655746 0.29283834 -0.35316217 -0.55473036 -0.04765729 0.016460663 0.17819579 0.34162223 0.2867732 0.06128348 0.030175116 -0.025180828 0.26175216 -0.20774007 0.03571625 0.46394476 -0.2738065 0.187729 0.02530528 0.4550392 0.00652078 0.18632211 0.08492088 -0.26175374
张学凡 -0.15550393 0.19818704 0.23834124 -0.484422 0.18367848 -0.20003346 -0.6079379 -0.01802808 -0.07179667 -0.22810994 0.39280465 -0.17892268 -0.59848017 0.23041464 0.3904093 -0.23199321 0.44728866 -0.16330338 -0.08258471 0.11978018 0.1252913 -0.46705666 0.2648943 0.161916 -0.56272006 -0.31407005 0.14178938 0.36879024 -0.012403169 -0.081900805 0.3458069 -0.40847543 0.11582433 0.34126654 0.15348755 0.24354845 0.33055058 0.5011118 -0.40759224 0.5398071 -0.11149708 -0.09776389 -0.25968766 -0.27204275 0.29859868 0.10201353 0.4063881 0.326505 0.64511925 0.082109965 0.36376452 0.09840214 0.08219319 -0.18277074 0.4388226 -0.1764062 0.16151232 -0.017973632 -0.20923795 -0.10641829 -0.22276822 -0.056749094 0.053296156 -0.10112784
朱文芳 -0.123404644 0.19311565 0.23723522 -0.4892575 0.1959555 -0.21647981 -0.6071244 -0.012567636 -0.09378578 -0.2217647 0.39977837 -0.15457225 -0.6073582 0.2508034 0.40202367 -0.21912006 0.44587684 -0.15871964 -0.07819671 0.11368364 0.121524036 -0.464508 0.2815397 0.13401823 -0.55794007 -0.3137634 0.13216808 0.37874624 -0.011441111 -0.090267986 0.35805777 -0.41483662 0.11606564 0.35386804 0.15089801 0.2534402 0.33998415 0.4841344 -0.4271669 0.5248525 -0.10475178 -0.11550729 -0.2769169 -0.283071 0.29522443 0.11484878 0.4063072 0.31546286 0.67267066 0.09264667 0.36237872 0.08425249 0.08342924 -0.19057845 0.4275717 -0.18929929 0.17457761 0.0028036193 -0.20499752 -0.10097233 -0.22476178 -0.050282583 0.056389242 -0.113565534
刘初汉 -0.38225034 -0.4311018 -0.20861895 -0.37804198 -0.1450315 0.0151118385 -0.8858494 -0.11588789 -0.24458647 -0.2578747 0.57740283 -0.57599664 -0.43738118 0.33157834 0.88631374 -0.39435378 0.5687917 -0.02523506 -0.22306365 -0.45541745 -0.733903 -0.107528575 -0.12566912 0.3003398 -0.45191106 -0.07129036 0.21017021 -0.4146945 -0.16885008 0.021111205 0.57312787 -0.32977155 0.36899364 0.25118446 -0.10151691 0.041203763 -0.29507518 0.49922994 0.01526547 0.049596533 0.118336655 -0.29600912 -0.3881309 -0.5258222 -0.3422794 0.3036162 0.6857871 0.5325607 0.15167375 0.044168007 0.5280261 0.2262687 -0.59569603 -0.6913306 0.58300525 0.5198752 0.2806111 -0.34560934 -0.21680489 0.5828453 -0.2954475 -0.2927967 -0.38907784 -0.30642194
王伟雄 -0.00596793 0.03998663 0.081777185 0.17513861 -0.41470137 -0.0449103 -0.43441173 -0.5057099 -0.46924967 -0.12900779 0.4294884 0.099937044 -0.17490712 0.44006515 -0.22306634 0.34778714 0.47509554 -0.18321013 -0.5919133 0.10688873 -0.06511683 -0.38766694 0.0145925 0.33834338 -0.3272778 0.38540915 0.4369031 0.12927006 0.10159592 -0.31867474 0.406666 -0.21592127 0.5663739 0.50397635 0.26300573 -0.044376925 -0.078021415 0.6536454 -0.047024496 0.27035996 -0.19090484 0.15662253 -0.35419902 -0.57635844 -0.075887844 0.02579743 -0.10908376 0.41704094 0.2465132 0.29153863 0.2778124 -0.5788885 0.005014188 -0.52178085 0.07256954 -0.23118545 0.30287936 -0.15021509 -0.3661954 -0.11005565 -0.49430454 -0.1633893 -0.17811397 -0.48185968
曾岳雄 -0.50391346 0.24616556 0.300553 0.03300819 0.38024545 0.01471247 -0.28115746 -0.5402457 -0.22128698 0.18765637 0.3241083 0.54390305 -0.3565465 -0.44661233 0.27264288 -0.31195784 0.124562986 0.18777718 -0.4518116 -0.04736231 -0.68260187 0.059685025 0.032487027 0.6216997 0.051106717 -0.4476824 -0.2580125 0.11360389 0.25003576 -0.35971478 0.30307984 0.0011792355 -0.003605925 0.41400334 -0.33568424 0.3461082 -0.0015398243 0.4425312 0.08057693 0.03924848 -0.024042236 0.106394894 -0.31694955 -0.5312714 -0.22079709 0.5062973 0.42881396 0.46272162 -0.09183871 0.05959502 0.08453796 -0.23814824 -0.41805226 -0.39814293 0.5313729 0.42620704 -0.12064707 0.1701681 -0.3507871 0.28184816 -0.42193297 -0.13587394 0.1652694 -0.15360321
廖远飞 -0.269689 0.1770696 0.33725107 -0.67626613 0.10317552 -0.5564391 -0.70761126 -0.746085 -0.34507933 -0.28531975 0.43502876 -0.13889852 -0.49575675 0.53689563 0.49792913 0.2008278 0.6598719 -0.47566298 0.01584659 -0.3230652 -0.2285737 0.28236127 -0.3268261 -0.12108569 -0.32887444 -0.1424146 0.7217403 0.2063614 0.31581333 0.52877635 0.7195902 0.21897739 -0.07993667 0.066029504 0.11313202 0.40465325 0.546959 0.07794252 0.22427185 -0.24070436 -0.52778214 0.62719536 -0.47365963 0.18701945 -0.06066607 0.16877013 0.4539614 0.35724327 -0.1638918 -0.21341893 0.23405343 -0.6668226 0.2757608 -0.88846236 0.09875674 0.48727518 0.34533185 0.55063885 0.11348992 -0.20871224 0.08408906 0.041043498 -0.13691951 0.07006475
胡晓清 0.09501577 -0.39821166 0.49399725 0.062382735 -0.23125766 0.0339499 -0.4933547 -0.12211998 0.13904642 0.32773116 0.17728274 0.4483527 -0.6406445 0.3095804 0.580925 0.067420855 -0.14474842 -0.3715559 0.1530888 -0.0062671984 -0.09201645 -0.120692596 0.24488603 0.37048393 -0.23782848 -0.13159223 0.021195339 0.31210917 -0.018700521 -0.20873392 0.7701901 -0.3500088 0.52901864 0.20578793 0.12264328 0.17123103 0.31097373 0.7713604 0.21402305 0.08020619 0.13309269 -0.11680967 -0.16194381 -0.643157 -0.3023306 -0.06495259 -0.14947641 0.4200988 0.09018977 0.1992708 0.5520599 -0.29600364 -0.10759224 -0.348607 -0.059258804 0.38420707 -0.09287534 0.11225781 0.15282053 0.4156284 -0.16429414 0.07825826 -0.3273784 -0.2707013
肖民 -0.045010976 0.26407978 0.50804436 -0.42865112 -0.012856434 0.20886987 -0.69563365 -0.44390258 -0.6156615 0.2727993 -0.16358194 -0.13014093 0.13041373 0.22331949 0.23978373 -0.31566027 0.03733347 -0.13240547 -0.5207111 0.035255767 -0.079333164 -0.2681884 0.4494829 0.25991237 -0.36070675 0.4301811 0.330274 0.11664123 0.5569885 0.13500069 0.54204375 -0.38674143 0.138718 0.46303058 -0.08558439 0.19403893 -0.0021784897 0.07213776 -0.029481191 0.22816128 -0.35995927 -0.3749475 -0.40900406 -0.563672 -0.31208175 0.3225935 -0.09771094 0.37295482 0.61836696 -0.53434825 0.1314784 -0.6643956 -0.20956545 -0.5955743 0.06358335 -0.16284178 0.00092893274 0.37029383 -0.19493087 0.29048866 0.0018792909 -0.4868878 -0.09105758 -0.5207714
高瞻 -0.34980372 -0.35084972 -0.19949907 -0.70881295 -0.2734942 -0.5486025 -0.9153693 -0.42762616 -0.002838523 0.33921427 0.052481968 -0.1301076 -0.5812435 0.49061593 0.5671045 -0.20975971 0.23949471 -0.31283823 0.2102617 -0.16586742 -0.55545753 -0.29224166 -0.33656555 -0.11414063 -0.28921333 0.09289775 0.6311343 0.08010546 0.3793792 0.24240698 0.8713703 -0.45412678 0.2655324 -0.20794313 0.33739808 -0.044877652 0.1774887 0.15328488 -0.5108978 0.3168903 -0.33857355 0.37051764 0.06796695 -0.18743062 0.19972806 0.43479806 0.16922668 -0.0702959 0.3575002 -0.28640407 0.018068364 -0.087130815 0.24729572 -0.5134196 0.45493373 -0.0023740476 -0.13057776 -0.013576583 -0.48586297 -0.100771114 -0.26990238 -0.27027777 -0.34907806 -0.14882675
李福民 -0.21060625 0.0007399743 -0.23082463 -0.19142397 -0.024427356 -0.1911173 -0.41397443 -0.11842381 -0.4561184 -0.21485247 0.59424424 -0.11274055 -0.4826738 -0.011261771 0.06837466 -0.17339693 0.40783954 -0.58493495 -0.31941003 -0.4058868 -0.26999667 0.07486701 0.26972046 0.42206606 -0.30026188 -0.20067795 0.4134536 0.437919 0.5242736 0.40150252 0.3925837 -0.20740883 0.030779077 -0.004139819 -0.12844224 0.22277822 0.10836795 0.6194823 0.20735668 -0.09705675 -0.5381092 0.20461328 -0.28734037 -0.43541518 0.16573511 0.14706215 0.42861 0.10635056 0.19422325 -0.19948934 0.24031639 -0.19895245 -0.06136263 -0.24787988 0.34680277 -0.19941388 -0.30651963 0.33026043 0.25837085 0.22716093 -0.33508757 0.39447406 0.12888007 -0.0050320784
王爱朝 -0.20659891 0.011707094 -0.22449031 -0.20708907 -0.031160483 -0.199122 -0.44892034 -0.12480292 -0.45130268 -0.22683424 0.5915026 -0.12675375 -0.47810712 -0.00068884547 0.07209784 -0.19408883 0.40420496 -0.5943017 -0.3285776 -0.40009692 -0.2741179 0.04755898 0.26286492 0.4290723 -0.31819916 -0.19999138 0.41372028 0.441288 0.5194297 0.3972957 0.39447504 -0.21716306 0.055009715 -0.018035218 -0.12892835 0.21835792 0.12782003 0.63088566 0.21213447 -0.08314301 -0.5473743 0.21899953 -0.30357462 -0.43755737 0.1741337 0.1301794 0.4284833 0.12431129 0.20935583 -0.20897445 0.256865 -0.20384602 -0.077741265 -0.24126354 0.32589602 -0.19661106 -0.3010179 0.32238308 0.26466346 0.23089933 -0.32175514 0.38290834 0.11919396 -0.011294206
吴学龙 0.17027508 -0.18471588 0.090586446 -0.4735036 0.15298888 -0.276615 -0.37596992 -0.46515727 -0.2022583 0.044436105 -0.059245102 0.0026578442 -0.10382868 0.47130257 0.45044002 0.10860413 -0.086271204 -0.35794902 -0.4130652 0.25952208 -0.037992302 -0.25055924 0.40338814 -0.056461483 -0.13473704 -0.13421357 0.023800816 -0.19729738 0.23023549 0.04628238 0.36906755 -0.2838163 -0.12458812 0.16410609 -0.14859687 0.56524634 -0.0034635733 0.21346861 -0.35166064 0.07295294 -0.071507595 0.3287323 -0.4405601 -0.48591572 -0.3827359 -0.19493823 0.12570316 0.22838968 0.500016 0.102743864 0.18507318 -0.18353961 -0.19708267 -0.31724095 0.023605723 0.30245614 -0.046499517 0.29042557 0.2528481 0.22510704 -0.072084814 -0.41222104 -0.16994208 -0.3802655
邱宣 -0.6384295 -0.19323821 0.15579672 0.102592826 0.088385426 0.22989784 -0.53918123 -0.6926952 -0.37267646 -0.07204589 0.5778256 0.10138398 -0.23667182 -0.15448327 0.029199226 0.058914866 0.4522843 -0.5454633 0.07350317 -0.4749749 -0.122706756 -0.2479045 0.10293166 -0.056694366 -0.61379963 0.48732135 0.7938205 -0.3549081 -0.04248338 0.17055354 0.04811866 -0.083653785 0.060498662 0.5582781 -0.19055195 0.22600031 0.119761944 0.42356607 0.20849282 0.34517455 -0.15990125 0.20478204 -0.67233765 -0.70674485 -0.5578059 0.12839262 0.3663356 -0.2635564 0.00057154597 0.16558208 0.53841966 -0.45621377 0.022598734 -0.41437605 0.5692436 0.47231793 0.31329614 0.46410692 0.23542677 0.6589859 -0.2046039 -0.17964332 -0.3412585 -0.2306722
凌冲 -0.5955741 0.35689333 0.482607 -0.6875227 0.20659108 -0.33161905 -0.8073689 -0.37182075 -0.60705936 -0.15714197 -0.14504014 0.11555653 -0.19206095 0.277811 0.44413495 -0.36624527 0.106704585 -0.46089888 -0.048142828 0.3579572 -0.17643118 0.34942216 0.29745552 0.089198865 0.3559778 0.18605776 0.084688276 -0.45515382 -0.13481122 0.14868835 0.4953915 0.2928986 0.24354135 0.37861425 -0.12915154 0.13216783 0.061702155 0.6593603 -0.17257693 0.023141362 -0.4991978 0.33119845 -0.45942363 0.016617538 -0.6865289 -0.2976642 0.8530998 0.336028 0.18420652 -0.34285298 0.10092422 0.29095528 -0.5048408 -0.64303523 0.59946847 0.18747495 0.054114982 0.23539992 -0.34105474 0.0038450798 -0.07320033 0.29482576 -0.50533396 0.2645043
黄臻 -0.2752756 -0.22611919 0.5410034 -0.13629892 0.19653459 -0.52688104 -0.55865055 -0.5643479 0.22535232 0.35960528 -0.1271978 0.52736276 -0.3916774 0.06352592 0.15530188 -0.24623929 0.22751595 -0.21987891 -0.39222068 0.28885242 -0.5943001 -0.25030994 0.08883735 0.2694171 -0.45524648 -0.00048037004 0.3194001 0.31055424 -0.26498756 -0.40873376 0.38423887 0.037699416 0.05457004 0.25512466 -0.20438947 0.21346432 -0.25649452 0.47989896 -0.3524958 -0.37343302 0.16014834 0.2810113 0.052400738 -0.24084231 -0.36645427 0.003582443 0.16641276 0.41344324 0.19764808 0.23294419 0.47108668 -0.34447873 -0.3000787 0.020441616 0.21933484 0.0916187 -0.26056057 -0.33025625 -0.0052938056 0.07509438 -0.29820195 -0.40624458 -0.07580546 0.053365327
张福通 -0.5052966 0.111279815 0.027239433 0.15994088 0.3873041 -0.28151128 -0.21210268 -0.33025926 0.16752441 -0.33004388 -0.08268526 0.17171967 -0.1519092 0.14297855 0.22801764 0.080759116 0.212844 -0.33304244 0.100448884 0.27030578 -0.0805395 0.06307609 0.5779836 0.6080079 -0.5564065 -0.11627001 0.6229011 0.25322554 -0.32791469 -0.47947928 0.8473091 0.37379676 0.35243136 -0.03927926 -0.36366215 0.6726544 0.31638193 0.77267337 -0.451999 0.18533072 -0.019261897 -0.20416987 -0.63579935 -0.6372908 0.057592146 0.55129474 0.17372327 0.020721443 0.65217 -0.13398543 -0.05417979 -0.6405076 0.15233682 0.157099 0.014861608 0.16076876 0.0054929177 0.13401134 -0.07152898 0.09288907 -0.25033158 -0.04055192 0.05868051 -0.56595147
王东 -0.0019531207 0.030754333 0.56025094 0.09866423 -0.28996608 -0.2870192 -0.6880829 -0.13753054 -0.38830507 0.12958553 0.59631443 0.30729556 -0.44569844 -0.032278765 0.3940731 0.3055774 0.21125583 -0.114349015 -0.5557739 0.27717948 -0.55828583 0.21551293 0.40348485 -0.24456455 0.09046333 0.47019193 0.3023765 0.31359494 0.300201 -0.09022001 0.5555379 -0.43766537 0.26477325 0.47631785 -0.23190983 0.36221957 -0.4007489 -0.016055098 -0.35039234 -0.19385491 0.13880154 -0.24251175 -0.6721313 -0.7347129 -0.35982534 0.5241666 0.12114499 -0.102803834 -0.018662585 0.23104285 0.730877 -0.64558524 -0.24685402 -0.2652449 0.7158247 -0.3242806 0.5205664 0.15566534 -0.20814326 0.5805748 -0.07397909 0.27868196 -0.39634067 -0.43013793
苏剑 -0.04966335 -0.29782704 -0.31719458 -0.3745151 0.7617014 -0.25892386 -0.64352703 -0.18753585 -0.20451012 -0.15256001 0.56065655 0.37771383 -0.22426817 -0.20153844 0.65411997 -0.5618168 -0.040704615 -0.02447192 0.3821024 0.29479375 -0.79706573 0.19673876 0.60544693 0.32226107 0.1317993 -0.1705149 0.6086802 0.13017419 0.06586225 -0.124641374 0.67323 0.46951482 -0.17616756 0.11045757 -0.47531077 0.4772771 0.09371904 0.6741338 -0.74548227 -0.10861697 -0.4231228 -0.05731192 -0.2653385 -0.33980575 -0.53756166 0.53561074 0.24037203 0.54487187 0.53525525 0.013028911 -0.021793786 -0.24203683 -0.14907579 -0.2238162 0.68481356 0.47721907 0.3051118 0.36861703 0.348991 -0.018617205 -0.29266068 -0.056118537 0.20720075 0.41126987
杨青 0.46499014 -0.09326119 0.58231926 -0.6464204 0.5240846 -0.13986272 -0.9144188 -0.48840502 -0.7396838 0.35357004 0.49199516 0.58965397 -0.74888086 0.13761579 0.45000032 0.23826876 -0.026680771 -0.25819463 -0.63505375 -0.38160238 -0.6529023 -0.24613817 0.29344866 0.7200613 0.17813894 0.43717864 0.13823372 -0.23865621 -0.2944689 0.09054535 0.56773216 -0.011911369 0.39978155 -0.055573326 0.016116446 0.24241987 0.032896373 0.8018912 -0.036807813 0.38435626 0.17923832 0.25461435 0.0018914788 -0.6534313 -0.12586631 0.31782362 0.0879339 -0.40201575 -0.116691895 -0.3357413 0.5023426 -0.73878604 0.27580574 -0.42283782 -0.13196549 0.41380957 -0.6574883 0.28020853 -0.25658903 0.18865536 -0.43325558 -0.012432704 0.5329337 -0.29716617
许露露 -0.66722554 0.23020226 0.40409258 -0.11189747 0.57897407 -0.050042443 -1.0696534 -0.22635958 0.028047321 -0.23733045 0.036951795 -0.017603233 -0.29092103 0.20293108 0.023104357 -0.50043625 -0.02240131 -0.62569994 -0.7209406 0.50227636 -0.22461537 -0.06310674 -0.36314934 0.17741808 -0.5306225 -0.35660708 0.717086 0.30715877 -0.10432893 -0.5488207 0.24747832 0.35594875 0.36432618 -0.32315972 0.2435041 0.6841813 -0.40360218 0.46950462 0.042228106 0.11438899 -0.17080285 0.63398856 -0.6698855 -0.58613694 0.1634364 0.33428776 0.6061699 0.09201937 0.2976829 0.30273026 0.8136274 0.19262917 -0.6314751 -0.5179062 0.3575497 -0.15549316 0.3110297 0.5438983 0.52804 0.59792584 0.1864896 0.018346107 -0.20530087 0.21586256
王幼鹏 -0.29726312 0.045473013 0.30227503 -0.056116547 0.28816184 -0.68144184 -0.6456329 -0.42149088 0.10419494 0.19904262 0.3024201 -0.01698843 0.06718753 -0.20193431 0.19364533 -0.31685784 -0.1163179 -0.2556691 0.040696047 -0.0469729 -0.395408 -0.09039906 -0.1588862 0.53662527 -0.2942366 0.031464763 0.5447279 0.056369714 0.2633968 0.31192702 0.7991828 -0.051963847 0.123569906 0.03212696 0.20894536 0.40085045 -0.111005634 0.36229602 -0.30539754 0.068005964 -0.09724694 0.09671176 -0.51185554 -0.6340518 0.15698357 -0.23696053 0.11477838 0.053295903 0.06243526 -0.19582273 0.13446817 -0.39085424 0.03267428 -0.37008435 -0.09509411 0.25456876 0.25531983 0.3605381 -0.07658185 -0.19660407 -0.05780952 -0.2786427 -0.03591393 0.39568385
詹有力 -0.28516367 0.041597012 0.28324768 -0.07624415 0.2527521 -0.57601726 -0.5914463 -0.38972774 0.05576815 0.18395807 0.27446482 -0.0027057277 0.027243758 -0.15379398 0.1978964 -0.2632033 -0.08265445 -0.25470215 0.0027263593 -0.02644374 -0.34047887 -0.06956667 -0.10256036 0.47618744 -0.2647565 0.043322194 0.49004355 0.045941386 0.22497435 0.23679748 0.71579844 -0.04571742 0.13630347 0.043653954 0.16453417 0.36480284 -0.106361 0.36224854 -0.27400547 0.06033228 -0.09047495 0.08882665 -0.47006974 -0.58134073 0.09933394 -0.18232778 0.14105324 0.059632357 0.08738083 -0.17641544 0.13420874 -0.34382698 -0.0030259874 -0.3546039 -0.04922644 0.21277423 0.22563091 0.31359905 -0.07381191 -0.12524986 -0.08005105 -0.24379772 -0.04407283 0.30345967
钟伟民 -0.175287 -0.07191631 0.2383031 -0.08257434 -0.10362441 -0.09440473 -0.53400844 -0.17464238 -0.2656781 0.04677319 0.0035568578 -0.069874585 -0.25011998 0.12419469 0.3152222 -0.20566541 0.05342775 -0.21716891 -0.09155814 0.19328927 -0.47376943 -0.33045584 -0.06306751 0.21094339 -0.03690165 -0.25329632 0.15820801 0.03785842 -0.06443115 -0.019530524 0.31394923 -0.15360086 0.11892465 0.24082911 -0.00070434203 0.1854855 0.076775186 0.52918243 -0.23498808 0.24950525 -0.27569866 0.059015036 -0.22528638 -0.11641799 -0.22910105 0.18219496 0.16370292 0.32642817 0.32797632 0.014144924 0.3997831 -0.34996787 -0.21809182 -0.12646607 0.23380366 0.081050135 0.026531694 -0.030913182 -0.23816827 0.062418353 -0.048950978 -0.28625983 0.13834295 -0.13499609
张陆 -0.00861936 -0.13140075 0.05284418 -0.36327383 0.13447325 -0.17828749 -0.24109377 -0.20909883 -0.20153946 0.06436077 0.11418407 0.20248142 -0.18649122 0.3190269 0.044752173 0.19562425 0.20010272 -0.4434716 -0.016258957 0.016414408 -0.057018407 0.0571677 0.07580722 0.17561364 -0.1926902 -0.17954713 0.12289852 -0.099119335 0.01660478 -0.09795659 0.33460125 0.16967611 0.18977398 0.20673722 0.025177721 0.3477125 0.20594074 0.3000891 0.10886893 -0.083695136 0.012764124 -0.007121784 -0.1640192 -0.2779157 -0.027164571 0.18165155 0.3715903 -0.07931115 0.23368257 -0.06784111 0.13668495 0.102977455 -0.09806733 -0.35333169 0.2693769 -0.019437226 0.10879069 0.041324794 -0.18448582 0.08957953 -0.21333928 -0.16089536 -0.2539636 -0.18940765
丁强 0.0025972142 0.0050873565 -0.0015167732 0.0038173976 0.0047524534 -0.004519673 -0.001574913 0.0030295546 -0.000699734 0.0006672816 -0.0027297165 0.005121104 -0.004964781 0.0035547807 -0.0075295125 -0.00027091324 0.000112647125 -0.0060378164 -0.0038015954 0.0032400743 0.0032781167 0.007566193 0.0015792964 -0.007376798 0.0054784906 0.00563179 -0.00128749 0.0033676531 0.0017187436 0.0024391476 0.0012807223 0.0019032564 0.0047890097 0.0060804067 0.007375925 0.0021920884 -0.004821238 -0.0009845997 0.0027356204 0.007018653 0.0030611213 0.0015688312 0.005223769 -0.007088692 -0.0013855727 -0.0048145507 0.004386465 0.0065762266 0.0066224956 -0.0020917722 0.0044075176 0.007363187 -0.00089177274 0.002450487 0.002396087 0.007276904 0.00071593426 0.0056247935 0.0014258826 -0.007431274 -0.00066614145 -0.0026351134 0.0042739976 0.0052304557
卢旭阳 0.003816723 -0.0024042737 -0.0062575736 0.00020318497 0.005778966 -0.004978101 -0.0070830896 -0.0009657937 0.003813154 -0.0044777202 -0.004603867 0.0018265453 0.0026966939 -0.004415894 -0.006439357 0.0024895149 0.007015575 -0.006093945 -0.000477999 -0.0073756566 0.0020812836 0.0014194112 -0.0011765625 -0.00042045378 0.005016394 -0.0075854217 0.006808011 -0.00301477 -0.007640315 0.0047981394 0.0036434438 -0.0023746972 -0.0015116789 0.007539472 0.0031585516 -0.0033661143 -0.0030560074 -0.006789537 -0.00014066885 0.0055783475 -0.0046515316 -0.0014533682 -0.0010958583 -0.0034776279 -0.00093367684 -0.0061717383 -0.0069780606 0.0017525086 0.003581633 -0.0039264425 0.005344091 0.0029661125 0.0062676733 -0.0073218704 -0.006764223 -0.007566343 0.0014008086 -0.0018763058 -0.00020804771 0.005032622 -0.0027728882 -0.0072680204 0.002772769 0.006155468
刘伟 -0.002147869 -0.0034263195 -0.0020515786 0.00433157 -0.0053773113 -0.0014495755 0.0011415817 0.0025792918 0.00061813183 -0.006641798 0.0034924196 0.0051391744 -0.001302853 -0.0017990526 -0.007621547 -0.0044975365 0.0021026959 -0.0077599795 0.0077439845 0.0038845006 -0.0034706953 -0.0009609007 0.003029265 -0.0006371581 0.0059904885 0.0010807933 0.0017679856 -0.000855974 0.0060081277 -0.003063422 0.0036993602 0.0018241836 0.0060049454 -0.004616636 -0.007049858 0.0019446748 0.0023866359 -0.0020667086 0.0018987418 -0.0055860793 -0.0033628077 0.0001936487 -0.0010676414 -0.0028285622 -0.0035500196 0.006664911 -0.006658962 -0.0023614184 -0.0062142704 0.00763105 -0.0064786286 0.0022931008 0.00091380463 -0.0010372804 0.0055264416 -0.0067043407 -0.0044661793 -0.0075540747 -0.0045004487 -0.00624156 0.00051844976 -0.0021115586 0.004364363 0.0018432543
于宝明 0.0047051096 0.0056352825 -0.0042287093 0.005641512 0.0073202313 0.0013016859 -0.0057335966 0.0038742137 0.00071074395 -0.0035732992 0.0039256685 -0.00014411518 -0.0049905516 -0.006503064 -0.003670719 0.0059250826 -0.0033638175 -0.00165634 -0.006397851 -0.004192046 -0.0043999217 -0.0050368463 0.002880501 0.0061824718 0.007646057 -0.0060858377 0.0073588737 0.0039288234 -0.0034906387 -0.004842387 -0.00034615854 0.0016802583 -0.005956508 -0.0056767217 -0.0011893527 -0.0026868146 0.0030869122 0.0023570713 0.0024569114 -0.004822027 -0.0048895753 0.0039066523 0.0014783972 -0.003720356 -0.007486499 0.004175509 0.0008140847 -0.0037079162 0.0037042086 0.0060753557 -0.004710666 0.0017271399 -0.0003679138 -0.0069175665 -0.0010379959 0.0018914021 -0.006985354 -0.0017447144 -0.0040715416 -0.003105678 0.0009383324 -0.0050788363 0.0026203492 0.007587171
高尔剑 -0.0034893502 0.0007304548 0.0069865435 0.0022917676 -0.0032767535 0.0054423264 -0.0026863196 -0.0036648796 0.007783509 0.0011024311 0.00067916175 0.003428731 0.0042280336 0.0029073674 -0.0053315014 -0.0028123942 0.0058843824 -0.0036796504 -0.0021900786 -0.0037913506 0.0007377039 -3.105233e-05 -0.0034664592 -0.0055581364 0.0024027894 0.00062995247 0.0010742308 -0.0034493671 -1.512676e-05 -0.00038721177 -0.00054833345 -0.00052400824 -0.0011723274 0.007721668 0.005354214 -0.0056541045 -0.0010594573 -0.00597396 -0.0013218455 -0.006130095 0.0010427937 -0.0011797834 0.0032385797 0.0014047591 0.00020696124 -0.0012729476 -0.0049848864 -0.0037966347 -0.00049676537 0.0071145813 -0.006546576 2.7598573e-05 -0.00014181378 2.0497644e-06 -0.005428654 0.004532205 0.0034833793 0.0035469243 -0.0041615986 0.007785962 0.0023087952 -0.00016333192 3.6931226e-05 -0.0020135215
艾传荣 -0.004062917 0.0070788306 -0.007543271 0.005307955 0.003167711 0.0070938994 0.0003978474 -0.001235476 -0.00069566007 0.0077558006 -0.0024954977 -0.0043945117 0.005960069 -0.004087886 0.0007544 0.0050978027 -0.0070410194 -0.0004942109 -0.005734196 -0.0034197923 -0.00077703194 -0.0074168644 0.0021793353 -0.006866261 0.005326688 -0.0005691859 0.00089004886 -0.0035718158 -0.0033483412 -0.0036029292 -0.0033793943 -0.0041301413 -0.00032137884 0.0037649956 0.0023856193 -0.0024310776 -0.0007460317 -0.0047003585 -0.0012047954 -0.0077820444 -0.0065784766 -0.007645188 -0.0022946896 -0.003969174 -0.006527934 -0.0074464455 0.0033035716 0.0014926853 -0.0012738773 -0.0069614667 -0.0045632366 7.7964716e-05 -0.003646166 0.0020118372 0.0072294 -0.0049164626 -0.0063738334 -0.005017714 -0.0025438229 0.0015897909 0.00064478227 0.0077730226 -0.0019443918 0.005506494
尹杰 -0.0074794856 0.0071604205 0.001972895 0.007231874 0.007064318 -0.0061450806 0.0036636195 0.00031253477 0.0076570306 -0.003355369 0.004529946 -0.0027982208 0.0009747776 0.007502738 0.007075563 -0.0036425537 0.00086472766 0.006385027 -0.0074795303 0.0024484212 -0.007482645 0.003286683 -0.00080641167 -0.00017368684 -0.0032879652 -0.0024864918 0.0020781665 0.0074891 0.0035112426 -0.0054453993 0.0069085485 -0.001871887 -0.0050572865 -0.0016643886 -0.0014916538 0.0017290649 0.003412792 0.0021442003 0.0022686573 -0.0012076589 0.00419049 0.007480984 0.003622117 -0.000494112 -0.0048467913 -0.004246846 -0.00019249343 0.001801658 0.004085113 0.007235937 0.0022801212 -0.0077876444 0.0048392885 0.0016374186 -0.00033450377 -0.0036246341 -0.0047884933 -0.0060014683 -0.0019706725 0.0034604787 0.0019758549 0.0054516927 -0.0051079965 0.005330071
余璟 0.002748997 -0.00015124641 0.00097100117 0.0034958674 -0.0057460004 -0.0038634744 -0.001128883 -0.006197391 0.0049102562 0.0068215244 0.003561934 -0.0027984527 -0.0051992233 -0.0012983443 0.0005820737 0.0024099061 0.0038423128 0.005254661 -0.0036401523 -0.0056744386 0.00032070265 0.0071427654 -0.007652012 0.007239433 -0.0019912857 0.0012027598 0.00041102048 0.007295242 -0.00422161 0.0019983689 -0.0073352107 -0.003125365 0.005977261 0.00046286502 0.00028326103 0.0026686064 0.0032227568 -0.007580658 -0.006799464 -0.0004973751 0.001392965 0.0066100764 -0.0010285736 0.0041967784 0.007018977 -0.003996698 -0.005368708 -0.0037091197 0.0010390122 -0.005813941 0.0015612543 0.0009952129 0.0043494045 -0.00519961 0.0027107093 -0.0047312104 -0.00082873146 -0.0008551038 -0.000180944 -0.006689914 0.0013655443 -0.0060126544 -0.0010170449 -0.0004024828
聂新平 -0.0032150887 -0.006661018 0.0036094815 -0.0048224432 -0.0031644846 -0.006561371 -0.004135383 0.0062488625 0.004913408 -0.0066741803 -0.0049807685 -0.0023208668 3.0970426e-05 0.0011360977 -0.004554683 -0.0077248574 0.0047193854 -0.005717352 0.0008424183 0.0031502387 0.0024444012 -0.00019508884 -0.0019305891 -0.0028039236 -0.006591709 0.0024010094 0.005307128 0.003984125 0.0021725432 0.0028178527 0.004965758 0.00083498325 -0.004086591 0.0063560917 -0.0036599317 0.0052314294 -0.003595112 0.003691382 0.0031283007 -0.003117947 -0.0032768042 -0.00405369 0.0075961133 -0.002433868 0.00713937 0.0018044082 0.0024494624 0.0016745934 0.002251411 0.0005147916 0.0011230353 -0.0076730014 -0.0041821217 -0.0030519287 0.0011540644 0.004006646 -0.0036599413 0.005104082 -0.0075700358 -0.0054867007 0.0019739764 0.0062004714 0.0033280726 -0.0034824938
