81 64
刘世会 0.27256814 -0.8309511 -0.6427423 0.09513852 -0.7590694 0.13813019 -0.7401936 0.051677547 0.59984666 -0.49312353 0.13530487 0.036168262 1.0568104 -1.0647162 0.428159 -0.17370185 0.24239801 0.178557 -0.14896628 0.4593701 0.7812262 0.48891962 0.45136836 0.20997632 0.7405429 0.03695387 0.7422359 -0.555812 0.026440252 1.1930608 -0.37913483 0.32291946 -0.5113006 -0.72681504 0.26811016 0.07365539 -0.33877456 0.5905588 0.15699744 -0.8298421 -0.32691163 -0.07433444 0.84729534 -0.81485385 -0.8423355 -0.6129658 0.3029658 0.10982205 -1.0645391 0.0763667 -0.21951434 0.10349941 0.44076598 0.047233324 -0.95170045 0.273859 -0.67739445 0.453661 -0.19285356 0.28819063 -0.30318388 -0.3687586 -0.027539976 1.1189103
廖远飞 -0.61121994 0.12805645 -0.15526597 -0.5715153 0.054829724 -0.40772262 0.09924366 0.19831343 -0.34660527 0.26469603 0.18700716 0.40013552 0.67808026 -0.8147882 0.78726995 -0.36058107 0.1290534 -0.09593157 -0.35334998 0.29004303 -0.026398035 0.3031848 -0.21292756 0.78740877 0.40907642 -0.5298079 0.9843448 0.3539059 -0.1972302 0.26203457 -0.38300374 -0.37982714 0.6372625 0.36660907 -0.17494793 0.5433691 0.5076388 -0.3541073 0.26938543 -0.32920805 -0.2743161 -0.23484628 0.77557117 -0.96858925 -0.37568533 -1.2169731 0.73552835 0.9395758 -0.2906543 0.24362075 -0.66354233 0.12046259 0.49387494 0.5819586 -1.028244 -0.23496969 -0.24240963 0.34834373 -0.2980788 -0.068204075 -0.7719311 0.65548325 0.21694218 0.11006641
王东 0.5771046 -0.27329385 0.76629865 -0.38902697 -0.16968042 -0.350167 0.34148884 -0.13970084 0.12209085 -0.6691265 -0.58197147 1.0124217 0.05196512 -0.36887226 0.392017 -0.24875097 0.7328024 -0.47468635 0.32939777 0.21979192 -0.39197227 -0.46495992 0.7159597 0.86952645 1.0957246 -0.7594105 0.7802003 -0.8608232 -0.55653006 0.2530445 0.3373463 -0.53743917 -0.36099058 -0.6774866 0.20387125 0.6712316 -0.34301022 -0.21762843 -0.70015275 -0.49900973 -0.4188168 -0.007556946 0.69678414 -0.32037196 -0.27975103 -1.2479237 0.8138687 0.4805209 -0.1677268 0.22877213 -0.73183185 1.2827027 0.66925067 -0.33378547 -1.402917 0.8209858 -0.7669813 -0.5227548 -0.28879896 -0.51339996 -0.41152295 -0.039318103 0.28286797 0.19881299
钟晓鸿 0.19080189 -1.3236356 -0.69004273 -0.32453692 -0.8770311 0.015197701 -0.41807106 -0.50225526 0.36586165 -0.6765175 -0.2204093 0.11357267 0.48143643 0.084426455 0.9534139 -0.19684392 0.5050428 -0.13099381 -0.19306095 0.26996577 0.574959 -0.118388735 -0.4412655 0.7132304 0.865047 -0.403901 0.5347062 -0.3881286 -0.51940966 -0.2491542 -0.058426525 -0.68423235 0.20729287 0.05650512 -0.11463603 -0.43509403 -0.15514877 0.06333365 -0.58740324 0.7140828 -0.24885888 -0.19353765 0.094952285 -0.6589009 -0.6059532 -1.0207473 0.09966735 0.007085395 0.089539245 -0.04419636 -0.3262589 -0.17503001 0.5354563 -0.6169782 -1.3037362 -0.021160647 0.68371546 0.18100053 0.5695181 0.3068045 -0.31766433 0.24200583 0.2974285 0.23649324
陈郑兴 0.66900235 -0.37515873 -0.7481421 -0.1792604 -0.61613774 -0.30564636 -0.055403035 -0.24148044 -0.66883874 -0.15492357 0.55788887 0.62236816 0.37716284 -0.2166114 0.5125506 0.22171888 0.34842 0.07390724 -0.08121165 -0.4212292 -0.68337953 -0.99645567 0.19175892 0.51300204 0.10554103 -1.1175631 0.59317315 -0.29176694 0.057020973 1.2051765 0.14102463 -0.9669884 -0.24113138 0.12662645 -0.034511197 -0.28597933 0.20561165 0.40385136 -0.2586204 -0.8509859 0.29101503 -1.1060076 0.36836585 -0.3529882 -0.13305783 -0.23606023 0.7633659 0.6983166 -0.33554333 -0.20242453 -0.8555835 -0.34584028 -0.04000466 -0.06907672 -0.99349606 0.7807722 0.09845655 -0.5054829 0.41165656 0.61713904 -0.14200842 0.12230553 0.29180562 0.0453695
顾楠洲 -0.5899318 0.10486281 -0.15820926 -0.53631973 0.01051297 -0.39348125 0.09414198 0.22545926 -0.32511395 0.23513475 0.21183634 0.311776 0.64035416 -0.71641725 0.72565395 -0.36316228 0.11637206 -0.071620725 -0.34398624 0.26401964 -0.03808185 0.31759518 -0.20787987 0.7507766 0.36597908 -0.46364355 0.92211914 0.35103956 -0.23877145 0.2259059 -0.3593504 -0.36004856 0.6750862 0.34239918 -0.19187976 0.4695385 0.46542662 -0.35987774 0.2770769 -0.2817368 -0.29232317 -0.20122266 0.6761686 -0.95590115 -0.3802179 -1.2070835 0.67576206 0.87675124 -0.22919522 0.28523657 -0.64212686 0.11888755 0.4547319 0.5732474 -1.0001365 -0.21665983 -0.17210154 0.34045348 -0.26899818 -0.058325954 -0.7471231 0.6598114 0.24392252 0.115499884
陈文清 -0.55641115 0.07581488 -0.14177956 -0.5439785 0.038392805 -0.40678057 0.09045994 0.15713389 -0.3239518 0.22467571 0.1409785 0.40281212 0.64855534 -0.80233634 0.77522105 -0.3504544 0.1694554 -0.08762048 -0.3663546 0.3082923 -0.02174939 0.26520616 -0.17682591 0.78055155 0.44875205 -0.5399556 0.97870284 0.294152 -0.1567645 0.26099238 -0.36458132 -0.39933157 0.5923431 0.3434376 -0.17615147 0.52805424 0.47961167 -0.34065706 0.23108418 -0.33647886 -0.24281104 -0.26204756 0.7692442 -0.9261531 -0.39532453 -1.204065 0.7316648 0.89595735 -0.26622143 0.21874055 -0.64702326 0.12690292 0.49162376 0.55731845 -1.0384256 -0.21611963 -0.24720874 0.31673685 -0.2552065 -0.06095193 -0.72950727 0.63405704 0.2482074 0.1228574
娄和儒 -0.54441136 0.0675949 -0.21608865 -0.52827567 -0.05475595 -0.3761236 0.05435495 0.21190666 -0.30546725 0.19790111 0.19647217 0.30328742 0.6079329 -0.70895314 0.7205705 -0.34373057 0.11817094 -0.11080063 -0.31589955 0.20722637 -0.03884605 0.29173744 -0.19813874 0.7227721 0.35629666 -0.43293643 0.86517537 0.30872247 -0.24434568 0.23760055 -0.35116887 -0.38474837 0.65861934 0.3300469 -0.1610909 0.40530044 0.39499718 -0.33925653 0.2504123 -0.28193998 -0.30731666 -0.2107896 0.6322142 -0.9331506 -0.39511535 -1.1688995 0.6744739 0.84797233 -0.2731162 0.25557554 -0.61502194 0.14158693 0.43821466 0.49114615 -1.008402 -0.19549902 -0.14517805 0.29279846 -0.24211743 -0.020943522 -0.7169323 0.6290105 0.24700719 0.13420168
刘伟 0.2873256 -0.4194916 0.38734555 0.030885167 -0.088185474 -0.9824112 -0.26373577 0.030019937 0.62779206 0.37884182 0.17660803 0.77036667 0.96647 -0.3056653 0.6062672 -0.18980072 -0.46979105 0.54574174 0.9660635 -0.27430663 0.28359365 0.07424511 -0.6476887 0.9186167 0.48451102 -0.4366341 0.99328655 -0.4110756 0.22170931 0.44857678 0.78808266 -0.6513043 -1.1078013 -0.5149536 0.32531795 0.0020620811 0.58324474 -0.008123211 0.3014831 0.20280033 -0.39735636 -0.7782548 0.95046383 -0.48215264 -1.4756262 -0.8094974 0.09694097 0.5089577 -0.51752394 -0.465083 -1.2391051 -0.66173106 0.67294204 -0.5436554 -0.80265176 0.30219316 -0.8303247 -0.16179058 -0.3244744 0.07254678 -0.12040239 0.300475 -0.6022215 0.41405374
郭建 0.7829939 -0.26931176 -0.58284104 -1.0196685 -0.5208055 -0.01084291 -0.34125635 -0.1024333 -0.536899 -0.44035202 -0.6689305 0.46843916 0.100057155 -1.4089621 1.1546515 -0.19303441 0.6335253 -0.9531108 0.2439274 -0.9080267 -0.02076023 0.007578438 0.3169088 0.2645087 0.6591715 0.19529174 0.5356541 -0.2688139 -0.0061545507 0.17391545 -0.57187825 -0.36662316 0.08660964 0.7800025 0.5333542 -0.39325252 -0.112159364 -0.36666092 -0.09363401 -0.35178977 0.07974667 -0.21172528 0.7593718 -0.1216179 -0.5054233 0.20685212 1.1573954 0.68586755 -1.4877871 -0.6860947 0.08356033 0.22694366 0.46303952 -0.65011233 -1.1250468 -0.25799394 -0.5380182 -0.5002184 -0.046823103 0.5199697 -0.0028381308 -0.4749643 0.18255149 -0.026477274
许露露 0.20674741 -1.2309241 -0.65390736 -0.31270826 -0.84852225 -0.0012953193 -0.40139413 -0.5162989 0.3526795 -0.6298036 -0.21796842 0.08630624 0.46669278 0.057302095 0.94260114 -0.20085643 0.5119714 -0.10114176 -0.20332287 0.23515129 0.5900259 -0.16475071 -0.4103061 0.69103724 0.8162487 -0.39481556 0.51091045 -0.33956158 -0.49146828 -0.22228606 -0.06054857 -0.653506 0.16136576 0.048743743 -0.11334917 -0.40340644 -0.08134557 0.10086598 -0.5635798 0.66841686 -0.21216772 -0.15330803 0.13792649 -0.67641866 -0.6060861 -0.9878915 0.10415494 0.017297968 0.13162763 -0.046571378 -0.3521083 -0.15265287 0.5483671 -0.57461184 -1.239319 -0.00064142223 0.6638565 0.19090082 0.534423 0.23838896 -0.29767016 0.2380227 0.32004496 0.2321833
林翰章 0.19664551 -1.3170674 -0.7165087 -0.34121484 -0.91397226 0.030614743 -0.40733415 -0.52570105 0.3657857 -0.69213486 -0.21552533 0.11872933 0.4864755 0.06553511 0.9717173 -0.21583338 0.5012032 -0.1198962 -0.20294055 0.26159987 0.614567 -0.14605358 -0.4375975 0.7318286 0.8556148 -0.42599943 0.5454574 -0.36861655 -0.5387365 -0.23453724 -0.07878365 -0.6772307 0.1961709 0.04877062 -0.114255756 -0.43687883 -0.12752356 0.10236757 -0.5850607 0.7053199 -0.2512978 -0.18406375 0.1270032 -0.6925825 -0.62424135 -1.0369219 0.11695948 0.0332379 0.095645145 -0.03532683 -0.36194193 -0.16757767 0.57279843 -0.61694115 -1.320179 0.0071782083 0.7097066 0.1860982 0.5678951 0.26448214 -0.32842898 0.22939736 0.31167477 0.2536968
凌冲 0.6060656 -0.33982655 -0.67262274 -0.15090185 -0.5603584 -0.2853218 -0.054462183 -0.19586201 -0.60877895 -0.12926978 0.54444766 0.5496709 0.33710802 -0.16965723 0.47882295 0.19551037 0.30986515 0.09050777 -0.081721276 -0.38393918 -0.62489283 -0.93538535 0.20336564 0.4564282 0.06719941 -1.0223575 0.53978395 -0.26589426 0.062110223 1.099758 0.15776728 -0.87767434 -0.2319335 0.098713376 -0.022963947 -0.29640105 0.19753549 0.39293346 -0.23398587 -0.7793707 0.2928229 -1.0155711 0.32369566 -0.32523054 -0.119061396 -0.1811241 0.67624176 0.59482646 -0.28525445 -0.17720014 -0.777667 -0.35273278 -0.06171908 -0.08050184 -0.8966963 0.7032453 0.11820353 -0.4674881 0.38086334 0.57385975 -0.12183283 0.12733632 0.27537525 0.041778535
谷云宏 0.80157703 -0.2592254 -0.57673484 -1.0084195 -0.5057363 0.008760463 -0.33834517 -0.11182809 -0.5395547 -0.45686626 -0.69258237 0.4168842 0.07709697 -1.382445 1.1268939 -0.18788242 0.64016414 -0.93839073 0.22468002 -0.90756214 -0.009996586 0.0020423483 0.31908658 0.22232099 0.63839036 0.22055428 0.49643597 -0.2777138 0.011829544 0.15037665 -0.5673765 -0.35449716 0.097222224 0.80434793 0.5247867 -0.3930402 -0.10849541 -0.38897476 -0.102095984 -0.33770612 0.11147291 -0.19562417 0.72482204 -0.08379768 -0.47723 0.25253108 1.132873 0.67118496 -1.4579313 -0.68183213 0.1127047 0.23989536 0.43083668 -0.6239894 -1.0899332 -0.27450624 -0.53614527 -0.50428915 -0.01733799 0.52542627 0.034260083 -0.48833433 0.20783931 -0.027862784
张福通 0.58835703 -0.34704557 -0.66749895 -0.15463993 -0.55058223 -0.2886131 -0.051794156 -0.20792958 -0.5853555 -0.12577721 0.52799976 0.5529074 0.34107357 -0.17249158 0.47091493 0.19507346 0.3081238 0.09853811 -0.07668987 -0.37672436 -0.61129737 -0.92898047 0.17317308 0.46256292 0.080491625 -1.0288388 0.53667396 -0.27005288 0.077506855 1.0960737 0.14789037 -0.887603 -0.23630758 0.096254945 -0.025264718 -0.27922812 0.20082633 0.3778804 -0.23949607 -0.7689297 0.27391827 -1.0193621 0.32617524 -0.32807955 -0.14048912 -0.20448868 0.6738197 0.60179347 -0.28331965 -0.18362123 -0.7770863 -0.34548336 -0.052162863 -0.06357095 -0.89565444 0.6934482 0.1155533 -0.45320383 0.38201955 0.5688579 -0.1401812 0.14069676 0.26655966 0.049154703
朱文芳 -0.33031595 -0.7379004 -0.32538378 -0.29445773 -0.88278633 -0.36156535 0.33287624 -0.406392 0.026689863 -0.32479727 0.21501562 1.1222214 -0.7627105 -0.8090613 0.40538087 -0.63948625 -0.15993986 -0.44821858 -0.036569096 0.06491561 0.44750646 -0.75318223 -0.07682787 0.90431756 0.50754887 -0.4351046 0.1973278 0.059829537 0.44876108 -0.028192727 -0.4631554 -0.3225818 -0.43396103 0.2469949 1.0023595 -0.2418751 0.29491588 0.1391016 0.43059233 -0.41476035 -0.2377452 -0.55157363 0.5095506 -0.8511478 -1.5900829 -0.38075715 1.0667611 -0.18269636 -1.0205963 -0.08854478 -0.5623211 -0.024865694 0.36575523 -0.82010657 -0.34264135 -0.061388668 0.49910536 -0.03375424 -0.45899275 0.27158433 -0.20795655 0.46079174 0.027314626 0.2541789
卢旭阳 0.1149981 -1.4724905 -0.53634304 -0.31549025 -0.69584167 -0.20337045 -0.23964626 -0.13307749 0.21718298 -0.8627892 -0.12795846 0.44956258 0.31554008 0.12959987 0.7117687 -0.15150899 0.24073394 -0.37087104 0.05694278 0.47421762 -0.006040385 0.12968646 -0.30698892 0.8098383 1.0524082 -0.21131803 0.61092323 -0.7276045 -0.5592863 -0.11837474 0.23184846 -0.8609261 0.29473594 0.21735916 -0.023717951 -0.55948275 -0.5106357 -0.40454352 -0.45908347 0.64362586 -0.55366147 -0.58585095 -0.09705102 -0.3225828 -0.6808327 -0.8053709 0.12776494 -0.016793597 -0.46054786 -0.20681415 -0.0059541496 -0.08325774 0.06520726 -0.6872015 -1.3215053 -0.12406172 0.42912236 -0.04978865 0.5833411 0.7410689 -0.26473245 0.15687679 -0.114525974 0.08892024
温焕强 0.60706294 -0.344164 -0.66862017 -0.16507342 -0.56312525 -0.28069466 -0.049588516 -0.21270184 -0.5974426 -0.14144418 0.5232273 0.57482 0.3418477 -0.18215512 0.47910485 0.18515438 0.32572073 0.07007832 -0.086153336 -0.376747 -0.6204532 -0.9130161 0.20080574 0.46871045 0.11412424 -1.0182862 0.5537039 -0.27870086 0.059274785 1.0996641 0.13678053 -0.86449575 -0.22791189 0.108226754 -0.020667335 -0.2567803 0.20847464 0.3690311 -0.24178097 -0.7908479 0.27889925 -1.004717 0.33602566 -0.3426317 -0.13171008 -0.22036386 0.6938756 0.6207781 -0.29488522 -0.1680216 -0.7806223 -0.31563735 -0.033947255 -0.061454717 -0.9072566 0.70458823 0.08365696 -0.45999315 0.3560478 0.56056744 -0.15114269 0.12452269 0.277869 0.051331945
薛峰 0.24005811 -0.70487595 -0.57934725 0.102526546 -0.66150945 0.14276564 -0.6701762 0.0643437 0.52316976 -0.426803 0.13713193 0.0073166476 0.96436167 -0.98244196 0.3465832 -0.15874209 0.21927357 0.17847191 -0.15374164 0.44294602 0.739356 0.44956636 0.40948856 0.16367967 0.66034716 0.072140016 0.64682955 -0.4729423 0.039851114 1.0906098 -0.36991066 0.3325112 -0.4605992 -0.64749897 0.23288697 0.07988444 -0.29835713 0.5513125 0.16592504 -0.7528136 -0.28286263 -0.06387264 0.7500498 -0.73660964 -0.7603369 -0.5381534 0.25939003 0.084475726 -0.9446492 0.0696544 -0.18238094 0.118115455 0.37629235 0.0938851 -0.81809115 0.22804645 -0.60479784 0.42473888 -0.17218281 0.23493014 -0.27040598 -0.333399 -0.010678411 1.0386459
郑晓生汉 -0.31634018 -0.6922081 -0.3156788 -0.25409725 -0.85959035 -0.34729725 0.33424792 -0.38856232 0.04866254 -0.28171563 0.20567243 1.0973027 -0.75842917 -0.7688642 0.37111154 -0.6066687 -0.15429063 -0.44654348 -0.03851687 0.033180583 0.41543606 -0.7191347 -0.09461696 0.85597086 0.44913507 -0.39367244 0.17777807 0.06826185 0.44451675 -0.0358185 -0.43906412 -0.28700793 -0.43175185 0.22676885 0.9623201 -0.23738532 0.30185294 0.12986921 0.42102316 -0.39104927 -0.25719705 -0.52962583 0.46646369 -0.8050277 -1.5119653 -0.3399848 1.0286837 -0.18061902 -0.9862786 -0.07132796 -0.5407082 -0.025442448 0.33378577 -0.8031695 -0.31141165 -0.03950956 0.4643633 -0.048330564 -0.45169765 0.23340656 -0.20757529 0.4493834 0.0026259099 0.25877255
胡晓清 -0.024996758 -0.7577343 -0.5668115 -0.26800066 0.17852388 -0.6732145 -0.45548078 -0.6047604 0.30005333 0.26660904 0.083565556 0.30857775 0.16291511 -0.82790554 0.47968662 -0.41901466 0.6448334 -0.8990308 0.22064596 0.07397437 -0.069322415 -0.31553233 0.2564374 0.13980325 0.6264358 -0.57737654 0.043430835 -0.68449676 0.64252764 0.21641858 0.24317355 -0.7306169 0.33333772 -0.2192721 -0.09006823 -0.09425647 -0.97958565 0.29628712 0.12611036 -0.12951228 -0.46546987 -0.24201155 0.6535004 -0.5283434 -0.5836546 -0.10748273 0.39347214 0.9123446 -0.46275455 -0.8229601 -0.86535233 0.44904524 0.9879026 0.0324308 -0.0065340674 -0.022958694 -0.08391983 -0.09302551 0.16398482 0.5934428 0.30200118 0.53281885 0.204778 -0.59665316
李郑祥 -0.014730154 -0.7648812 -0.58595353 -0.27927256 0.15077862 -0.65486294 -0.45257416 -0.59161234 0.2915151 0.25660986 0.08261368 0.3242743 0.1815888 -0.85549426 0.49862984 -0.43190262 0.6298404 -0.89251626 0.22174908 0.048674256 -0.05483819 -0.32076457 0.2354247 0.16197635 0.64133316 -0.5902036 0.06605859 -0.67771584 0.62677544 0.24290861 0.21806161 -0.75184494 0.33274552 -0.21029754 -0.07086728 -0.12062956 -0.96571755 0.28330442 0.11607753 -0.12004337 -0.479798 -0.25704908 0.65650785 -0.5477525 -0.6076154 -0.12383105 0.42130274 0.9255066 -0.5184386 -0.82540286 -0.86535305 0.450497 0.9903767 0.014655223 -0.041438725 -0.031524464 -0.091105916 -0.09077016 0.17047195 0.59264857 0.27375606 0.5125281 0.19659664 -0.5728619
贾长胜 -0.0026261446 -0.77321243 -0.6060877 -0.2900518 0.14464986 -0.66281116 -0.46192017 -0.5939443 0.28660172 0.26570165 0.09287985 0.3187773 0.16306481 -0.8588441 0.50400215 -0.439421 0.6366859 -0.9134799 0.23640843 0.05471497 -0.057280764 -0.32964918 0.25330374 0.13774377 0.64317364 -0.59545845 0.05336614 -0.69195604 0.62787336 0.24810034 0.22093593 -0.73942274 0.335187 -0.22408447 -0.07819457 -0.12908006 -0.974368 0.29328945 0.10845996 -0.13067421 -0.4777247 -0.26696903 0.66427225 -0.56057596 -0.60457563 -0.10776112 0.42784917 0.9236351 -0.51938146 -0.84276396 -0.8781796 0.43613833 0.9946361 0.0005220058 -0.031113287 -0.024344703 -0.09705031 -0.08414401 0.15883458 0.60819227 0.29929367 0.51913047 0.19539487 -0.5971151
于宝明 0.23238291 0.29066917 -0.8909928 -0.65941733 -0.0051479097 -0.13806331 0.4939796 -0.034680173 -0.006304706 -0.7322761 0.14012748 0.0669468 0.39107484 -1.0510353 -0.05262947 -0.51209956 -0.31439677 -0.03572159 0.4234396 -0.039421543 0.50041264 -0.40881044 -0.5040782 -0.11144429 0.35084075 -0.53007245 0.2003868 -0.43244597 -0.20982094 0.36911815 -0.35491356 -0.87398654 0.44295725 -0.17585564 0.003356056 -0.3657774 0.01397602 -0.34145847 0.41754857 -0.029670006 -0.5730658 -1.0891461 1.0583153 -0.02369744 -0.5313054 -0.8157834 0.111193635 0.7863055 -0.97307146 -0.77721226 0.22394976 0.7552903 0.82239896 0.40213314 -1.2592995 0.2519156 0.11324731 -0.26224348 0.15549932 -0.03712809 -0.37632143 -0.6355339 -0.021313569 0.8076063
贾丽巍 0.2232178 0.3051167 -0.9274889 -0.6690596 0.021494577 -0.11452573 0.4804479 -0.01632067 -0.026524223 -0.72308373 0.15433477 0.07289896 0.41880658 -1.093825 -0.05526845 -0.51494706 -0.3290957 -0.03357738 0.4094625 -0.06036267 0.5017449 -0.40503544 -0.5314213 -0.14617811 0.34904993 -0.5250846 0.19117835 -0.41521373 -0.21587768 0.38417447 -0.3825223 -0.88200164 0.47245306 -0.15165688 0.00028217823 -0.36208266 0.017037064 -0.35030094 0.43378866 -0.050331153 -0.5886205 -1.1109535 1.0905863 -0.014912639 -0.50144786 -0.80117947 0.11222456 0.8268841 -0.99824905 -0.79463476 0.24618502 0.77774996 0.84434664 0.44200885 -1.2774339 0.2675898 0.11923997 -0.24291182 0.16772181 -0.023173532 -0.39429176 -0.6502219 -0.043169543 0.8274067
周岸标 -0.21496409 -0.3869059 -0.637969 -0.43922845 -0.86574024 0.2963054 0.05760635 0.33028904 0.13471408 0.05050936 0.46155187 0.97502613 0.35241225 -0.5379125 0.66009694 -0.44554186 -0.49155512 -0.6130013 0.633026 -0.19748724 -0.37576374 0.32448712 -0.21924517 0.2987298 0.022580028 -0.7972239 0.2149371 -0.053944815 -0.84271115 0.43765986 -0.19831383 -0.2607951 0.41928592 -0.62544596 0.48913762 -0.069149196 -0.5044092 0.3346398 -0.60077584 -0.40096444 -0.88648564 -0.026215363 0.35251972 -0.49476478 0.03448411 -0.4962226 0.39281666 0.8759752 -1.3713403 0.13832246 -0.49850065 0.07244683 0.633468 -0.9352538 -0.9204793 0.7897156 -0.14646173 0.007512458 -0.4169286 0.087337956 -0.79703015 -0.06115961 -0.8790789 0.03649631
邓晓俊 -0.22725473 -0.40085816 -0.6652514 -0.4405956 -0.87176424 0.30814978 0.066676855 0.34669054 0.15047157 0.0470092 0.4824484 0.96935767 0.34514672 -0.5300035 0.66594344 -0.4427905 -0.48580328 -0.63871014 0.6438709 -0.19655581 -0.3850063 0.3310703 -0.21773368 0.27262756 0.020731999 -0.8100847 0.19107142 -0.04385211 -0.851429 0.4333203 -0.18133596 -0.25811806 0.44659755 -0.64251375 0.4910137 -0.077143945 -0.5251071 0.33418247 -0.6062385 -0.39197454 -0.88264734 -0.030670611 0.31366843 -0.49888393 0.050860465 -0.47286987 0.39190996 0.8607198 -1.3819327 0.12225383 -0.48455873 0.045704253 0.62050855 -0.962732 -0.9100236 0.79791206 -0.1405696 0.021627426 -0.4270437 0.12590827 -0.7904966 -0.03588234 -0.89696324 0.0097678555
王爱朝 -0.15625936 -0.48294485 0.06774792 -0.3463956 -0.34544516 -0.050010983 -0.16287315 -0.39227217 -0.03258363 0.29409736 -0.9427035 1.0276046 0.45849842 -0.6949618 0.30420062 0.1745586 0.21316889 0.25306472 -0.13195182 0.6584509 0.4377896 -0.63599217 -0.41043067 0.31890395 -0.07728028 -0.6203179 -0.0015348939 -0.14725792 0.6859685 0.6532773 -0.43717593 -1.1305255 -0.5330318 0.631463 0.2162479 0.805331 -0.4688411 -0.17454086 -0.31935826 0.39066476 -0.19553696 -1.063254 0.47080994 -0.1713971 -1.2843895 -0.47320262 0.4040145 0.30803567 -0.88785934 -0.04395307 0.0638838 0.9306483 0.1130894 0.49112037 -0.6913823 0.39705577 0.012125541 -0.5413425 0.2343344 0.35787013 -0.35093775 0.053501297 -0.02014702 0.5525129
李福民 -0.13119008 -0.50688607 0.037987247 -0.39602628 -0.34912094 -0.059208337 -0.17306584 -0.40901604 -0.043733824 0.2852465 -0.93178636 1.038361 0.51419216 -0.7402396 0.3509431 0.16987506 0.22035535 0.24164008 -0.11218364 0.6508286 0.44228038 -0.65337545 -0.39782462 0.32786596 -0.041267037 -0.6480335 0.029142 -0.1595595 0.670147 0.7014885 -0.4298184 -1.163369 -0.5396291 0.63627416 0.22976165 0.80780673 -0.46768317 -0.1583419 -0.3159896 0.36466223 -0.21652178 -1.0988864 0.52098554 -0.2000276 -1.3026298 -0.48572394 0.42889896 0.36847576 -0.9309566 -0.08903345 0.025710512 0.9467083 0.14226525 0.4990712 -0.7283642 0.4174029 0.01132173 -0.5483701 0.24759361 0.36491132 -0.36669624 0.033451147 -0.021529553 0.5476136
吴学龙 0.20479955 -0.59386003 -1.0600811 -0.48435888 -0.25399408 -0.16608989 0.26531264 -0.7403798 -0.26787773 -0.15681683 0.15395664 0.5590294 0.52397424 -0.13320136 0.5893187 0.31645334 -0.0679454 -0.2430079 0.94663006 0.7662502 -0.0068809553 -0.6817098 -0.32980755 0.512544 0.7091441 -0.041846495 0.0071765827 0.02595352 -0.8631057 0.79717547 -0.22717592 -0.36520645 -0.41342852 0.07778564 0.26961365 0.5866766 0.4576222 -0.097328655 -0.19245657 -0.41484547 -0.9678623 -0.3494784 1.3606274 -0.81342304 -0.8848213 0.12030496 0.22133818 0.5108818 0.115575224 -0.62918305 -1.0935246 0.5091286 0.2711151 0.24371009 -0.5014375 0.6716416 0.07856855 0.5958197 0.10960453 -0.30457672 -0.02400343 -0.62101614 0.1757495 -0.054004654
刘初汉 0.17402303 -0.60022 -1.0614033 -0.4542597 -0.27007714 -0.16019587 0.24914819 -0.7336824 -0.24370933 -0.15331666 0.17362165 0.55038035 0.5005508 -0.12768616 0.59002715 0.28832337 -0.045578815 -0.23364854 0.89293 0.74902946 -0.015243944 -0.6764099 -0.31096628 0.5228149 0.692621 -0.054348763 -0.0065331575 0.0084510865 -0.8281386 0.76731235 -0.2539364 -0.36017892 -0.39227673 0.10078862 0.27745596 0.55938643 0.43593034 -0.08552031 -0.1772544 -0.39390352 -0.94180113 -0.37500793 1.318616 -0.8126431 -0.86620444 0.108240634 0.21728727 0.51386094 0.10213753 -0.60311496 -1.0663549 0.5093161 0.24454728 0.22642432 -0.50933075 0.65693927 0.10257834 0.58475655 0.1001065 -0.28197044 -0.050156564 -0.5872933 0.16857257 -0.036960304
陈强 -0.013956442 -0.11011036 -1.2267476 -0.028482331 -0.38831797 -0.18107995 -0.5220348 -0.47412702 1.002299 0.27832195 -0.5947039 0.30509368 -0.24083054 -0.17546466 0.65633684 -0.007931566 0.47887734 0.07655314 0.2513144 -0.050256442 -0.8225484 0.35791475 -0.7100524 -0.11281696 -0.041447733 -0.57450575 0.21491896 -0.5852411 0.7822608 0.23913504 -0.76823205 -1.072053 0.08800581 -0.5649285 -0.24167648 -0.69553655 -0.005208142 -0.3149116 -0.30490395 -0.69573593 -0.76302767 -0.6128158 0.41961652 -0.5241319 -1.3927698 -0.81618524 0.56385696 0.46330667 -0.8710518 -0.108102605 0.16925277 -0.06603057 -0.05111145 0.05031941 -0.94965994 0.29658845 -1.030499 -0.24564315 -0.3874276 0.1593462 -0.31008783 0.5593073 -0.33043262 0.30402648
杨青 0.001791187 -0.15474813 -1.2203817 -0.04399008 -0.38709936 -0.1984233 -0.52761286 -0.44954562 0.9824796 0.24867724 -0.5481196 0.3128322 -0.1947871 -0.2230811 0.6735288 -0.033080738 0.49080402 0.06247208 0.24253504 -0.023595752 -0.77347314 0.33495635 -0.68241894 -0.07656104 0.0029933099 -0.58935297 0.26136896 -0.58884025 0.74249685 0.29134116 -0.7448636 -1.0648286 0.07612493 -0.572861 -0.23356768 -0.6801261 0.012407822 -0.28919712 -0.30909052 -0.70085406 -0.7504686 -0.6262509 0.46718583 -0.573266 -1.3936315 -0.8375891 0.5665824 0.4879677 -0.8912195 -0.117938325 0.11198865 -0.07211659 -0.008821223 0.052491147 -1.0076618 0.28865942 -1.0071521 -0.21604307 -0.35773137 0.1800128 -0.3053447 0.53716075 -0.32244715 0.30972645
高尔剑 0.5032153 -0.1719871 -0.024860913 -0.6285977 -0.25285107 -0.7788072 -0.020507114 0.8343032 0.41212127 0.18084209 0.42409188 -0.30465293 -0.008658084 -0.42432642 1.3492416 -0.6342835 0.98964024 0.2838342 0.91129994 0.9033637 0.023700349 -0.48091784 1.0981288 -0.0071363305 0.24019381 -0.54442537 0.3195871 -0.79027086 -0.12934417 0.46020097 0.22455922 -0.7655514 -0.2508761 -0.2599485 0.24498828 -0.6246643 0.28329423 0.2272448 -0.47492018 -0.13416657 0.06541785 -0.7118201 0.67819095 -1.2976269 -0.8479613 0.034218844 0.13847642 -0.14118715 -0.6182621 -0.25409892 -0.31415272 0.16908853 -0.03883442 0.12884137 -1.4544526 -0.054580055 -0.111116186 -0.055414002 0.17642994 0.63044155 -0.19205612 0.14455174 -0.21004876 -0.06892301
裘颖颖 0.48944673 -0.21174763 -0.020772263 -0.6049924 -0.27178207 -0.74957615 -0.029836442 0.757718 0.3968447 0.1600202 0.3705147 -0.247866 0.020687561 -0.40051776 1.3098421 -0.6297541 0.94541323 0.23613286 0.8762463 0.83774745 0.021573052 -0.4738402 1.0100691 0.022642804 0.2526467 -0.5554355 0.322913 -0.7601282 -0.113890894 0.4558203 0.21341579 -0.7643645 -0.26457804 -0.25068936 0.25116935 -0.59207547 0.28072807 0.21602136 -0.46279284 -0.12960869 0.05908744 -0.7132111 0.6780846 -1.2403835 -0.8576677 -0.011688015 0.17974773 -0.09661699 -0.63183105 -0.24108121 -0.33397716 0.17006266 -0.0018434075 0.07584482 -1.4204814 -0.05172759 -0.09512132 -0.05975484 0.15581271 0.60517186 -0.20779288 0.14551172 -0.2084067 -0.05782791
尹杰 0.12365964 -1.2330256 -0.48663867 -0.2722559 -0.64182824 -0.09879346 -0.23016453 -0.2167478 0.23384693 -0.71650845 -0.14388862 0.28271878 0.2950511 0.15002736 0.6506488 -0.13763067 0.27420315 -0.26994857 -0.038347375 0.34996367 0.14902766 0.05966975 -0.30434334 0.66901 0.8490975 -0.21311311 0.4940167 -0.52813625 -0.50041443 -0.19452693 0.13702954 -0.68339163 0.23087397 0.16186202 -0.057970073 -0.46285504 -0.3517394 -0.23631144 -0.45912054 0.60834044 -0.3900638 -0.37774917 -0.089173555 -0.32578206 -0.5313768 -0.7402573 0.058695763 -0.03211981 -0.20753126 -0.1342069 -0.056995016 -0.09185186 0.16103475 -0.61434466 -1.1244677 -0.094564065 0.46740818 0.013777777 0.51564693 0.50849986 -0.2348687 0.15311967 0.00795328 0.113100015
贾兴东 -0.004722313 -0.7312755 -0.53858453 -0.2708868 0.14775231 -0.6437476 -0.44187275 -0.5629267 0.28275272 0.2506597 0.08935113 0.30848593 0.17468056 -0.81929743 0.4743411 -0.4052596 0.5941994 -0.8641092 0.24260871 0.039707787 -0.057059415 -0.3074415 0.23513576 0.16323851 0.6108826 -0.55555886 0.061137326 -0.65353686 0.59514487 0.22691664 0.2216584 -0.7021337 0.3002991 -0.21361703 -0.06609232 -0.118614115 -0.9105492 0.27844515 0.119238645 -0.12752713 -0.45712823 -0.24044266 0.6500231 -0.51712984 -0.57835954 -0.09761395 0.3887329 0.8808958 -0.49115133 -0.8052858 -0.8411626 0.4154876 0.95625836 -0.008064733 -0.038217697 -0.016438909 -0.09882832 -0.096942656 0.14830837 0.5709256 0.27881038 0.4886381 0.17558646 -0.5598235
聂新平 0.24615075 -0.33910167 0.3092443 0.044213705 -0.06600978 -0.80202264 -0.21027201 0.02390903 0.5352864 0.33566403 0.16154079 0.6689163 0.7984993 -0.24837404 0.47441506 -0.13604473 -0.41200346 0.440343 0.80576295 -0.24007565 0.20846508 0.06430848 -0.55431974 0.7646337 0.3671976 -0.3752719 0.8181026 -0.3132781 0.1648132 0.37280342 0.64804196 -0.5280154 -0.92131853 -0.43938532 0.25900078 0.0073742485 0.4766457 -0.0058617406 0.24414322 0.16227856 -0.34896114 -0.62941104 0.7825048 -0.37297544 -1.2060564 -0.6774469 0.073674805 0.42266604 -0.4301652 -0.39572516 -1.0253236 -0.55626297 0.5634562 -0.45129296 -0.64710957 0.25077277 -0.7039696 -0.14167517 -0.26732552 0.05792356 -0.113234006 0.25217986 -0.5165845 0.33313608
王幼鹏 0.22168772 -0.64053154 -0.52727586 0.11175203 -0.6033976 0.1261429 -0.60013497 0.04922793 0.4698137 -0.38296103 0.1312171 0.0018376689 0.8653273 -0.8668895 0.31700298 -0.12322886 0.19227017 0.15533747 -0.13788857 0.3764571 0.6545325 0.41468963 0.38225225 0.11653763 0.57102656 0.08438651 0.5669384 -0.42035347 0.02910665 0.98147064 -0.32667902 0.3145924 -0.41196567 -0.56469333 0.22495933 0.07324004 -0.2609573 0.5073399 0.16349065 -0.6845998 -0.24311961 -0.04599976 0.66879624 -0.6403014 -0.66034126 -0.44531575 0.23159878 0.06137162 -0.8499632 0.077033155 -0.15242107 0.0794252 0.32835194 0.07271921 -0.692752 0.20404722 -0.5375894 0.39468163 -0.15038726 0.22915155 -0.23601685 -0.32516652 -0.00764215 0.9181688
邱宣 -0.032521132 -0.70806646 -0.5266944 -0.23781557 0.18537228 -0.63267946 -0.43739918 -0.5737952 0.28627452 0.26309398 0.07809033 0.28019744 0.14060311 -0.76636577 0.427746 -0.3911304 0.5922832 -0.8556752 0.21852387 0.045840926 -0.07220818 -0.2952846 0.22984067 0.110582344 0.5808081 -0.52762 0.011404164 -0.63009596 0.6211956 0.19166733 0.24465989 -0.67663634 0.3139325 -0.22137561 -0.082563065 -0.09851477 -0.9249627 0.28472844 0.12086506 -0.120609805 -0.4475202 -0.21756935 0.6019377 -0.484374 -0.5300132 -0.060129803 0.3565158 0.8603862 -0.43627444 -0.79585856 -0.81828606 0.4094278 0.9229517 0.013436232 0.04328861 -0.029842569 -0.078603275 -0.09384179 0.15263617 0.56713635 0.29346192 0.48792544 0.18574771 -0.58997166
皮勇华 0.45338076 -0.21261029 0.64739716 -0.2868678 -0.11434295 -0.278185 0.27103233 -0.10873144 0.098509714 -0.54080075 -0.48500678 0.7892872 0.032463916 -0.25258338 0.27856746 -0.18700005 0.570872 -0.35481143 0.272839 0.16289023 -0.32688284 -0.37679264 0.5710559 0.68275285 0.8652938 -0.60135126 0.6051348 -0.6895987 -0.43945715 0.18435316 0.2809621 -0.41269207 -0.29594794 -0.56272906 0.16425733 0.5495222 -0.27141863 -0.1747014 -0.57468367 -0.3976765 -0.3185316 0.022117807 0.54155916 -0.2345505 -0.19663864 -0.99865156 0.6190431 0.379232 -0.12105646 0.1952767 -0.56201804 1.0307719 0.5283648 -0.27308977 -1.1015731 0.6614801 -0.6255958 -0.44088244 -0.22740771 -0.43040204 -0.32522207 -0.033316873 0.22231166 0.1710026
詹有力 0.21678612 -0.62527525 -0.4890142 0.08778434 -0.56681687 0.10739706 -0.5591273 0.03350356 0.47464162 -0.36938855 0.10710666 0.0011701193 0.80287915 -0.79721314 0.3259603 -0.13609296 0.20374599 0.15792812 -0.100149475 0.37320602 0.60384375 0.37395465 0.3360395 0.12769236 0.5672331 0.059824094 0.53600967 -0.41979706 0.018817075 0.9022121 -0.29569644 0.25787103 -0.4037879 -0.54874563 0.2129022 0.053280275 -0.24649382 0.45408097 0.12869622 -0.62845725 -0.23640169 -0.056116708 0.6361216 -0.6283426 -0.64966697 -0.44371185 0.2183408 0.050465103 -0.7827894 0.061290592 -0.1642969 0.091595665 0.32252136 0.06047347 -0.6894498 0.19399357 -0.514436 0.3644219 -0.14751045 0.20219582 -0.21401846 -0.28471747 -0.009099749 0.8546832
李喻春 0.43396336 -0.18896645 0.64189965 -0.2664817 -0.08807178 -0.25173187 0.2686752 -0.105845846 0.090339795 -0.52178174 -0.46646082 0.7519812 0.015312666 -0.24186152 0.24051061 -0.17506737 0.55152863 -0.37443486 0.23110193 0.15487725 -0.3025995 -0.35093474 0.55983305 0.63904345 0.831576 -0.5568937 0.57144976 -0.65382564 -0.42104778 0.1544622 0.2787119 -0.370072 -0.26539242 -0.52640975 0.15933338 0.5332262 -0.27351153 -0.17099401 -0.53725606 -0.35940334 -0.29578415 0.040267356 0.49651363 -0.18877488 -0.16187619 -0.9369193 0.5909416 0.3580789 -0.08844757 0.17738889 -0.52692115 0.9987656 0.50767934 -0.25694546 -1.0127443 0.6149824 -0.57638955 -0.41685525 -0.20871082 -0.40823588 -0.2879953 -0.03184584 0.21741559 0.14109425
张学凡 -0.29043135 -0.5995113 -0.2798512 -0.24978663 -0.7556529 -0.30935404 0.3098253 -0.3340635 0.025650186 -0.28200215 0.18522054 0.9639062 -0.6707698 -0.6847615 0.33062243 -0.5506036 -0.17089106 -0.37593234 -0.025176615 0.032059122 0.39270353 -0.64511997 -0.07449069 0.758086 0.4136987 -0.3715318 0.17573471 0.06576181 0.36962068 -0.03176506 -0.39530087 -0.26977468 -0.38088542 0.21901491 0.86992043 -0.21127142 0.2580327 0.1248882 0.3894141 -0.35390565 -0.20052087 -0.46776083 0.41969377 -0.7059127 -1.3513 -0.30583617 0.9073569 -0.16567667 -0.88430405 -0.05985456 -0.46695453 -0.052905384 0.31030652 -0.72540075 -0.27830628 -0.050886933 0.4313992 -0.025678892 -0.40037975 0.21959978 -0.18489009 0.3757814 0.009641413 0.22550888
张亚立 0.10708759 -1.2585106 -0.43583483 -0.28075653 -0.57403666 -0.17100811 -0.15843628 -0.08811929 0.171361 -0.762276 -0.09893008 0.40760642 0.23839843 0.12584724 0.55485195 -0.12542425 0.192473 -0.3398987 0.06779979 0.41130623 -0.06216881 0.10233803 -0.24963823 0.687708 0.89742815 -0.18290712 0.51358074 -0.64630693 -0.50308555 -0.09985426 0.2144094 -0.7616346 0.25038013 0.19655737 -0.014852026 -0.47260225 -0.46675548 -0.37125584 -0.41537994 0.5330205 -0.49259904 -0.53427494 -0.108049445 -0.21196876 -0.54838854 -0.66694933 0.089410774 -0.014180201 -0.41741678 -0.18833327 0.017165963 -0.032785054 0.013149201 -0.61765 -1.1418084 -0.09382633 0.34757066 -0.08140517 0.49131045 0.6432522 -0.23317815 0.11254431 -0.11933318 0.08142304
苏剑 -0.49924392 0.06691828 -0.16023688 -0.46205592 -0.029421704 -0.32731402 0.046465512 0.21182534 -0.265509 0.18591057 0.17689686 0.22939128 0.52417004 -0.6031774 0.6372007 -0.31891385 0.109930925 -0.081225015 -0.3005631 0.16852398 -0.03735015 0.3034884 -0.17613442 0.63845277 0.2987089 -0.36170062 0.7766165 0.29563817 -0.24378033 0.15300037 -0.31740832 -0.31156844 0.610477 0.29751113 -0.16615252 0.34774977 0.36066177 -0.3228351 0.2210219 -0.20796672 -0.25969982 -0.1321779 0.5280924 -0.8153304 -0.32638168 -1.0451069 0.581563 0.73058516 -0.20878154 0.26227963 -0.5219005 0.11636498 0.3674868 0.44831 -0.87201756 -0.19186881 -0.12585838 0.26321778 -0.21481559 -0.027830036 -0.62866014 0.5696758 0.22241363 0.09526255
高泉 -0.2844459 -0.6229235 -0.27501285 -0.23655026 -0.77982146 -0.2950581 0.31121737 -0.3384096 0.01852903 -0.26000205 0.19683298 1.0077293 -0.70613 -0.6776604 0.33414695 -0.5423864 -0.13175617 -0.41656488 -0.025392951 0.03209951 0.3771797 -0.6580843 -0.05856904 0.780788 0.42463478 -0.36646706 0.14637175 0.070251055 0.38513365 -0.02724323 -0.37177694 -0.25268456 -0.3786109 0.20648839 0.8776988 -0.18856797 0.27692294 0.12930484 0.36739758 -0.35264704 -0.22516206 -0.47604877 0.42623284 -0.7069563 -1.3575742 -0.30025288 0.92716235 -0.16481405 -0.8811946 -0.07269949 -0.4738936 -0.019294262 0.31043682 -0.73907244 -0.27911115 -0.041060932 0.4359372 -0.052607656 -0.3982964 0.21042411 -0.19360006 0.40509734 0.024027871 0.21915397
郭跃华 0.22825722 -0.31691986 0.30739605 0.044178702 -0.060182575 -0.7373698 -0.18164754 0.018935971 0.46682176 0.29858708 0.1589069 0.59896654 0.712822 -0.21469618 0.42171445 -0.11863521 -0.35905874 0.40751773 0.7100641 -0.19952239 0.19008566 0.037111074 -0.473248 0.7065441 0.33781534 -0.33979726 0.74956983 -0.28231356 0.14485009 0.32593313 0.59375644 -0.4698387 -0.8414405 -0.37013 0.2457131 0.0026877292 0.4416832 0.005481435 0.2258591 0.15692614 -0.28244528 -0.5541372 0.691432 -0.35050172 -1.0662078 -0.5967576 0.0684883 0.34750894 -0.34272403 -0.34089947 -0.9200316 -0.5127815 0.49089694 -0.41366345 -0.56141883 0.20712265 -0.6155901 -0.12809761 -0.24378896 0.061600715 -0.08914639 0.22956568 -0.44819963 0.2881959
张谦 0.40388796 -0.20822956 0.58461154 -0.26058868 -0.09829393 -0.24193375 0.25009623 -0.09801515 0.087578 -0.4710455 -0.44408792 0.72372127 0.0351053 -0.23964915 0.25508413 -0.17038782 0.5310214 -0.35016626 0.25118583 0.16961367 -0.27881426 -0.341476 0.5156527 0.61231166 0.78969264 -0.5348801 0.5391531 -0.63117856 -0.41249216 0.1646282 0.24973947 -0.37228164 -0.258486 -0.50715417 0.14737207 0.5159516 -0.26473525 -0.166182 -0.53069973 -0.3333594 -0.31327122 0.026048021 0.49350035 -0.20687783 -0.17155819 -0.8940255 0.5542106 0.34651962 -0.10263221 0.15636578 -0.51883465 0.95135736 0.48574767 -0.24433371 -0.99064445 0.59965086 -0.5524834 -0.39242133 -0.20518358 -0.38253784 -0.29496175 -0.036750033 0.19730291 0.14030075
丁强 0.18155512 -0.49849266 -0.41775203 0.048968922 -0.48817822 0.096651636 -0.47233883 0.066818945 0.38453948 -0.28320637 0.11804139 0.0009103052 0.6764054 -0.6946555 0.27396947 -0.11933014 0.14404021 0.12684727 -0.06767489 0.31799364 0.51713175 0.31731418 0.2883004 0.1076754 0.46831587 0.04589804 0.47048095 -0.34329647 0.0022721866 0.775664 -0.25437593 0.23097374 -0.3206779 -0.46924394 0.17707884 0.034071743 -0.18159229 0.38156664 0.104559824 -0.5313262 -0.21420345 -0.057605147 0.54939854 -0.549623 -0.5518559 -0.3855018 0.19072913 0.07238008 -0.69249135 0.055297874 -0.14296474 0.055734005 0.2710113 0.05515073 -0.6171538 0.16478 -0.44457948 0.30838808 -0.1435778 0.17582297 -0.20419061 -0.23301704 -0.0342957 0.73839474
郑小霞 -0.3872886 0.0809069 -0.08399589 -0.36458522 0.041460093 -0.2672023 0.070938155 0.11676814 -0.21514463 0.15164118 0.110573746 0.24460395 0.40973628 -0.5180709 0.5051296 -0.243973 0.10628141 -0.060579807 -0.22742255 0.21389039 -0.013715629 0.18545246 -0.1251063 0.4805991 0.26493415 -0.3430167 0.61107355 0.20886987 -0.13201831 0.17170495 -0.23304075 -0.2486305 0.4027625 0.23585592 -0.1259975 0.3525084 0.30264893 -0.23853222 0.15829523 -0.21033943 -0.16626377 -0.1395452 0.4826914 -0.6187407 -0.23316546 -0.7730682 0.4669383 0.59119105 -0.16736497 0.15272824 -0.4080643 0.093763545 0.32282373 0.38280523 -0.66755784 -0.14028765 -0.14200944 0.21045828 -0.17783794 -0.038125418 -0.47828576 0.41086861 0.14848064 0.05975337
钟伟民 0.12414232 -0.8377683 -0.4404341 -0.24722923 -0.5665227 -0.009900925 -0.23368305 -0.30721685 0.20905691 -0.4398428 -0.12842523 0.1129041 0.31917828 -0.0064418716 0.6170841 -0.15745613 0.32772043 -0.10338461 -0.108830296 0.17776954 0.3693552 -0.10862473 -0.25835657 0.4849592 0.5739019 -0.28221685 0.36249134 -0.25574967 -0.35170013 -0.120805204 -0.046856724 -0.45770296 0.12233183 0.0450063 -0.040070318 -0.2591704 -0.077769674 0.047182918 -0.36188343 0.42387378 -0.17369762 -0.13182907 0.110154025 -0.43391466 -0.40918925 -0.65432626 0.10918332 0.04267874 -0.00029266998 -0.04140254 -0.24140912 -0.07540739 0.36092365 -0.39117318 -0.8733047 0.014449856 0.42242095 0.09590146 0.34876645 0.19648048 -0.21051662 0.14490017 0.18267907 0.161771
徐志斌 0.00533872 -0.007149455 0.00402394 -0.004901943 0.005861792 -0.0014591934 0.0010536502 0.0065836115 0.0016755394 -0.004517387 -0.0014007309 -0.0001900916 -0.001974061 -0.0033387544 -0.004832202 0.002775811 0.0036981709 -0.006027055 -0.0032227817 0.004682507 -0.004427023 -0.0020143273 -0.0035625522 0.0030927896 0.005605606 -0.0025632782 -0.0017646143 0.006113018 -0.0077542434 -0.0043614116 -0.0059684473 0.0073271235 0.006013635 -0.0013417889 0.002429452 -0.0014358565 -0.00511888 0.004035745 0.0065317317 -0.0021868756 -0.004907738 -0.0067514563 -0.0069290185 -0.0054253004 -0.00030349265 -0.002112918 0.0074311276 -0.0021154142 -0.00012599924 -0.0018822793 0.0045689964 -0.0007757193 0.006565606 0.0056390166 0.00081764045 0.005071294 0.005360395 -0.007407191 0.004248694 -0.0027057205 -0.0058476864 0.0049933027 0.005856929 -0.004471665
艾传荣 0.005922526 -0.0045194454 0.001981544 -0.0073051434 0.0026482109 3.2466152e-05 -0.0064532096 -0.0023215453 0.0057935184 0.0051256395 -0.0042286487 0.007379506 0.003997265 -0.0072825435 0.0024408838 -0.0034738544 -0.0053944173 -0.0076049343 0.0054071997 0.0046533816 0.0075857057 -0.0066492236 -0.005164395 -0.005738467 0.002076943 0.007181679 -0.0013164047 0.0023611032 -0.0023418583 -0.005687202 -0.0057073385 -0.006083811 0.002047386 -0.0049639507 -0.0005387266 0.0058590914 0.0025198415 -0.0055012973 0.0053031747 -0.0012089855 -0.0075275563 0.0068493146 0.0064003924 0.007781731 -0.004222486 -0.004675661 0.0064321198 0.0011567074 0.004327411 0.0006359019 0.0009228576 -0.0023097764 -0.0012834943 -0.007797242 0.0055127637 -0.0008537323 0.004651101 0.0009732963 -0.006072181 -0.0055702897 0.0073891943 0.001381591 0.005742304 0.006968889
曾岳雄 0.0049858205 0.0048174025 0.0077205338 -0.001123449 -0.0066694813 0.0008303576 0.0047538537 -0.0017447743 0.0028700158 -0.0063910554 0.0069989916 -0.0010080673 0.005681454 0.0030016585 -0.0011679314 0.0014768699 0.0011077428 8.214348e-05 0.0076710414 0.0031745892 -0.0062221983 0.0058101933 0.0010706414 0.004483813 0.0052270046 0.0006077232 -0.006370512 -0.0027752393 0.002573514 0.0013034038 0.003121504 0.004993937 0.0025916086 -0.007358217 0.0050863996 -0.0073024277 -0.00034535766 -0.0057708337 0.0029335234 -0.0053850054 0.00478155 -0.0015003294 0.007363863 0.005945092 0.00012295014 -0.0012622091 0.0006257794 0.00539724 0.0067702024 -0.0045693554 0.0009200336 0.0077299424 -0.0014082137 -0.0067708613 0.0037871662 -0.0013417667 -0.0016613001 -0.00019901813 -0.00521425 -0.0072263605 0.005888031 0.0034104912 0.003984779 -0.0031811965
吴登记 0.007758007 -0.0043842844 0.006257922 -0.00038172762 -0.004747385 -0.0014781369 -0.005796913 0.0026675595 0.004618435 -0.0005730514 -0.0057819053 -0.0044634207 -0.0024691697 -0.0032260874 0.0015179251 -0.00021468036 -0.0045964443 0.0021646973 -0.0040315604 -0.001856074 -0.0033450732 -0.0031927978 0.004485174 -0.0077707055 0.0038622504 -0.006732956 -0.007736494 -0.00049630285 -0.0017297224 -0.0025378931 0.004871997 0.0039365334 -0.0033713076 0.0050938637 -0.0056456905 -0.0011420065 0.0023676532 -0.0037330515 -0.0065103094 -0.0064565325 0.00023135646 -0.00027977876 -0.0033243326 0.005604058 -0.0030351735 0.003786173 0.0015691071 -0.003435866 0.005687622 -0.0023909889 -0.0026079707 -0.0040750373 0.00679542 -0.00359291 -0.0064377626 -0.0042776377 -0.0007559841 0.0066631944 -0.0058223777 2.1260927e-05 -0.004704572 0.0013853782 0.0048917914 -0.0060066846
高东春 0.0014143885 -0.0029513757 0.0036030032 0.00038047647 0.0066005676 -0.00571157 -0.005317545 0.0061955536 0.0015449527 0.004090592 -0.0076503158 -0.0014235794 -0.0003251269 -0.0029866735 0.0024196026 0.004854061 -0.0010111053 -0.005712946 0.0003823421 0.0050814184 -0.002454109 -0.005413638 0.0053079803 -0.0012966801 0.0010206589 0.002886823 0.0030148486 -0.0069680735 -0.0038942692 -0.0076416773 -0.0031279693 0.003724119 -0.005185844 -0.0022602782 -0.0006962007 0.0016953901 0.0031381855 -0.006207797 -0.0016692631 -0.0025961811 -0.0017618649 -0.0020308162 -0.0014698643 -0.0059188567 0.0013578892 -0.0014191478 0.00034403944 0.0038744053 -0.003564303 0.0007840816 -0.0029445465 -0.0005974707 0.00073836755 -0.00549582 -0.005860757 -0.001387674 -0.0057515344 0.0007805104 -0.0055809217 0.002788575 -0.00485497 -0.006653704 -0.0019904766 0.002733688
沙新华 -0.0012058924 0.00429592 0.0044740867 0.0015134024 0.003027194 0.0059016068 -0.005461798 -0.007579566 0.0020717243 0.0066009504 -0.0036421174 -0.0011472616 0.005817959 0.0066190744 0.004447156 0.0057591135 0.0036790222 -0.0041135303 0.005156651 0.004787075 -0.0027821676 0.0050299764 0.0005514588 0.0028603002 -0.00766612 0.002514723 0.0048512 0.00054261327 -0.0076401434 0.00543817 -0.0028809602 -0.0032085825 0.0038043058 0.0049996893 -0.0016382197 -0.0010565616 -0.0042379717 0.0016067158 0.0068441476 0.0024587554 0.0020234748 0.0077917627 0.0031205583 0.0030985598 0.0008766226 0.007630624 -0.00557084 0.0050010984 -0.004801692 0.006381937 0.0023371729 0.0048809643 0.004512086 0.0004549871 0.0010904521 -0.0023638303 -0.005227805 0.0015370222 -0.005543835 -0.000858816 -0.0076102717 -0.00649834 0.0005789203 0.005953854
张陆 -0.18709916 -0.044004288 -0.12675723 -0.25707656 -0.05172771 -0.19328867 0.030778348 0.025045678 -0.10906918 0.0603173 0.068817444 0.23729655 0.2868824 -0.3997811 0.38914827 -0.16379483 0.08797534 -0.0781721 -0.08609943 0.13492736 0.0100682955 0.05299439 -0.076785386 0.3733138 0.24337213 -0.2718949 0.43038607 0.06998276 -0.071847804 0.14940944 -0.14612983 -0.23644431 0.20251924 0.116694644 -0.0074407505 0.17947674 0.17135371 -0.11446947 0.0880047 -0.15527998 -0.15084516 -0.16578148 0.39467737 -0.42658776 -0.2657302 -0.52278376 0.35534063 0.3991303 -0.20556514 0.04685812 -0.32541937 0.09074914 0.253993 0.15966736 -0.50760174 -0.037670385 -0.08991754 0.112308435 -0.0967602 0.017457915 -0.30591318 0.25271577 0.094372466 0.06876547
钟海 0.006114478 -0.0026579625 0.0046886727 -0.0023360087 -0.006616266 -0.00010825245 -0.006951762 0.0040336857 -0.002035039 -0.0076206615 -0.0060155685 0.0052904515 -0.0069939583 -0.006953071 5.9407368e-05 0.004574415 -0.0052496847 -0.004343406 -0.002805305 0.003763912 0.005700097 -0.00026055245 0.0076667853 0.0044452795 0.0029134604 0.0057724128 0.006481326 0.0018825586 -0.003752593 -0.0040121577 -0.0054261433 -0.0023280892 0.00040106615 -0.0013401607 -0.0031088144 0.005402684 0.001627505 -0.0005086035 -0.0003733669 -0.00031677913 -0.0060264533 -0.0006415432 6.405613e-05 -0.0021318702 0.0013626805 -0.0038278599 -0.0038796756 -0.0010293451 0.00088208244 0.001445755 0.006468329 0.001628058 -0.0019644664 0.0016737857 0.0040662787 0.0044656424 0.0025634307 0.0050944146 -0.0051352633 0.0037392888 -0.0046058395 -0.0020609063 -0.0073913513 -0.0037819867
吴远翔 -0.18656223 0.023853688 -0.061674822 -0.20192295 0.017669408 -0.15793198 0.017010553 0.07430481 -0.113526545 0.08360217 0.05270357 0.15052652 0.23539057 -0.2806448 0.29290888 -0.12277747 0.06133518 -0.051738217 -0.08926997 0.0771729 -0.024866251 0.11138165 -0.064291485 0.27191243 0.15825851 -0.19665293 0.3548507 0.08890323 -0.07275542 0.09691893 -0.10626416 -0.15349697 0.21592546 0.10180381 -0.06411416 0.17444701 0.15808375 -0.12264235 0.07474764 -0.122403376 -0.10218736 -0.08021225 0.2801726 -0.3306155 -0.13971344 -0.4280006 0.26181233 0.3417781 -0.11275474 0.064098895 -0.25611356 0.052479465 0.18288992 0.18294854 -0.37610325 -0.07165195 -0.106820144 0.09712965 -0.09802761 -0.009494204 -0.2567863 0.21782762 0.07019163 0.026036462
余璟 -0.0054856692 0.0014464562 0.0018283608 0.0064335847 0.0031970786 0.0017872731 0.005672632 -0.0048265746 0.006611228 0.0077704564 -0.00077228126 -0.0031734048 -0.0049528866 -0.005389138 -0.0061406693 0.007391973 0.007381998 0.0018415425 -0.002905938 0.0045036306 -0.0072527817 -0.0016883393 -0.006884579 -4.6655932e-05 0.0018007652 -0.007067305 0.0056642415 -0.006471323 0.005233242 0.0071229604 0.0013990577 -0.0038330061 -0.0028009596 0.0017183208 -0.004052696 -0.007487797 0.0061379657 0.0078028766 0.00241908 -0.0029581666 -0.0013205827 -0.00077673094 0.0020552631 -0.00058625056 -0.0021855917 -0.0073973862 -0.0071060713 0.00019237201 0.004164579 7.657037e-06 -0.005706629 -0.0015048137 0.0022791347 0.0058133057 0.0019427452 0.0050490275 0.0055563073 -0.006828697 -0.0064668525 0.00022839819 -0.007334593 0.006853757 -0.0078061013 -0.0075398884
蒋小文 0.25799975 -0.13353205 -0.26640454 -0.06490795 -0.21995208 -0.122963026 -0.029093618 -0.08426737 -0.24508555 -0.04483774 0.22217476 0.22259918 0.15418583 -0.06587744 0.1948556 0.087639615 0.13696551 0.04539259 -0.026145577 -0.15615363 -0.26718947 -0.38480315 0.07374256 0.19505008 0.028588755 -0.429253 0.2185131 -0.11661086 0.029950188 0.46365112 0.06700102 -0.36509022 -0.104894705 0.03846381 -0.012188644 -0.10569716 0.08897129 0.15522777 -0.10293581 -0.3235738 0.11930722 -0.42725527 0.12955223 -0.13056897 -0.049659368 -0.08896057 0.27087247 0.2538784 -0.11009344 -0.068944 -0.3310328 -0.14509718 -0.028858567 -0.030600755 -0.3804952 0.30365574 0.03507987 -0.1938835 0.16227446 0.23615158 -0.051858764 0.060318988 0.10067606 0.01957215
黄臻 0.0035173043 0.006962277 0.0060753743 -0.007409496 -0.0037013388 0.006927608 0.002017307 -0.004501789 -0.0072595295 -0.0025210264 -0.0065255496 0.0026043504 0.005832073 0.0056300047 -0.0037427773 0.0069526304 -0.0033598787 0.007339443 -0.0014902786 -0.0059058294 0.0010224428 -0.0026347951 -0.0011560877 -0.0050055287 0.0039957073 -0.006509894 0.0009709012 -0.0075011165 -0.0055230646 0.0019752926 0.0037770993 0.0034293125 -0.0018072157 0.006025513 -0.0067278706 0.0033453556 0.0019617544 0.0029437472 -0.0050582485 -0.006342175 0.0026416164 0.006077295 -0.0050016046 0.0017111951 -0.001188248 -0.004812619 -0.0066512367 -0.00034844858 -0.007754572 0.0064955563 -0.0013414004 0.0036684193 -0.007449768 -0.0017312218 -0.0004391696 0.0046356334 0.0050228904 -0.0029280393 -0.0007329492 -0.00092862255 0.0038230862 -0.000120562036 -0.0059497417 0.0010558445
许少英 0.0078088855 0.005549358 0.0005131615 -0.0008136582 -0.003385125 -0.0033258104 -0.0049357973 5.6064524e-05 -0.001235872 -0.00040567692 -0.0031673904 -0.0077336924 0.0019301766 -0.0035583533 0.0041917632 -0.00449677 0.0016435357 -0.0015692351 0.0047397255 -0.005107839 -0.00016644216 -0.006312918 0.006304138 0.0028555484 -0.005289954 0.005885391 -0.005915396 -0.003260457 -0.0077144946 0.0064563565 0.0071536615 -0.004063957 0.005898329 0.004592941 -0.00048413 0.003354159 -0.003590869 0.0054987753 -0.0056639975 -0.0058652656 0.006490993 0.0012895674 0.002715846 0.004024678 -0.0022776432 -0.0017037281 -0.0004475349 -0.0012069765 -0.0062395786 0.006530936 -0.0019062575 -0.003839929 -0.0053457697 0.0063333474 -0.0061336076 0.0041947537 0.0038669722 0.0073208637 -0.006976737 0.006103668 0.0064798663 -0.0047160713 -0.0053994902 -0.0024809374
陈秋明 0.0012448265 0.0061502145 -0.005500146 0.0032294798 0.004042944 -0.005747077 0.004922149 0.0054275575 0.002942862 0.0051425113 -0.0010356167 -0.0025448056 -0.00034693323 0.004384782 0.0065098447 0.001182473 0.0016359487 -0.005619002 -0.0023136078 0.004912498 -0.0022024142 -0.00034202612 -0.0028271542 -0.0034220784 0.0032776522 -0.0052468823 0.007136438 0.003452552 0.003104938 -0.0039953743 0.0018794115 0.0017906432 -0.0028876187 -0.00048392033 -0.0016843327 -0.0077395407 0.0058729174 0.004038403 0.0006109529 0.0022096962 0.00515173 0.005466601 0.0031188184 0.0064379293 0.004047671 -0.005132742 0.0022501375 0.0045832726 0.007290074 -0.005068908 0.006843777 0.005674574 -0.0065215016 -0.0020327372 0.0035260702 0.0073723127 -0.00017542417 0.0021662412 0.0057323 0.0003929551 0.00021975793 0.00081674143 0.004584389 0.0037922494
徐忠平 0.100378886 -0.2934354 -0.22536509 0.041877232 -0.28815678 0.03846021 -0.27897012 0.038166467 0.22208211 -0.1670659 0.06922429 0.01123297 0.40804252 -0.39941856 0.16173075 -0.060723044 0.09332683 0.07840428 -0.053466033 0.18214212 0.29616868 0.18880823 0.176007 0.08022573 0.26749203 0.011930882 0.27799737 -0.19543143 0.009123007 0.46154222 -0.12907784 0.11296799 -0.19615707 -0.26288798 0.098271385 0.032112245 -0.10981534 0.22839926 0.057053678 -0.31172496 -0.12004432 -0.0432924 0.3115042 -0.31160122 -0.31494656 -0.2280168 0.10566975 0.047483385 -0.4014378 0.03479682 -0.09730726 0.027726738 0.15322581 0.034870923 -0.36608335 0.10180892 -0.24859037 0.1701317 -0.08007672 0.10236086 -0.12824345 -0.1271267 -0.01559996 0.42346296
李卓 0.0069170287 -0.0046841525 0.006521975 0.00291695 0.0010090614 0.0050661946 0.00016557277 0.004026794 0.0019223569 -0.0050706626 -0.007467211 -8.052945e-05 0.0034238144 0.0014109479 0.0045016217 -0.003094857 -0.006376779 -2.8049668e-05 0.0032572981 -1.4917527e-05 0.0075762137 -0.0012382078 0.0017560638 0.006495818 -0.0076282746 0.00022172931 -0.00046404722 -0.0015894074 0.0006224415 -0.006568097 -0.0029707227 -0.007284841 0.005217528 0.0025878928 -0.0071907546 -0.0036298356 0.00085924054 0.004607808 0.0039586695 0.002401547 -0.002504611 0.006284253 -0.006251587 -0.0051141563 -0.0034713657 -0.006143937 0.007714538 -0.00042255849 0.003776095 0.0025517647 0.0038671892 0.00368483 0.0010015162 0.006438353 0.00076636736 0.006885726 0.005873827 0.0015950399 0.0031197402 -0.0035836124 -0.0050346367 -0.0019160162 0.004275098 0.0042495695
高瞻 -0.0052801156 0.00434157 -0.0022767517 -0.0050372686 -0.0044854465 0.0038973647 0.0044471608 0.0034070343 -0.0053553544 -0.0012813347 -0.0031577945 0.006208362 0.0001717849 -0.0022118245 0.0015620355 -0.00021672739 -0.00344044 -0.0075739343 -0.005435831 -0.0041937195 0.00681409 -0.006166972 -0.0061821016 -0.0034636485 0.002087336 0.00086933444 0.0021207356 0.004084783 -0.007690351 -0.00022515008 0.004017858 0.0005110687 0.0009349893 0.004082884 0.0031964374 -0.0031230396 0.0042113476 0.0064613223 -0.00057819014 0.0056890384 0.004898623 -0.0027118956 0.007087847 0.0027698386 0.0015752836 0.0010152981 -0.005583963 0.003405872 0.0022087118 0.0042656623 -0.0018222024 0.0032805966 0.006927152 0.0033805997 -0.0039159013 -0.005403071 0.0014834617 -0.0016944036 -0.007046568 0.0015104897 0.004505371 -0.0030402902 -0.0021010048 0.0073270546
孙福金 -0.0014681797 -0.0019496024 -0.0023270943 0.0033039367 0.001856128 -0.004493291 0.006584269 -0.005720371 -0.0074770628 0.005208917 0.0011346712 -0.0026184618 -0.0029067744 0.0023882976 -0.0043463595 -0.0036767744 0.0016722428 0.0038941866 -0.0017713619 0.0035044798 -0.006904252 -0.0073053087 0.0036486264 -0.003442386 -0.007436074 0.0027846782 -0.0019499297 -0.0070394957 0.00038344238 -0.0042582913 -0.007534759 -0.0012030228 -0.0030847797 -0.0062985914 0.0009320769 -0.0042895777 0.007058015 0.0010117851 0.0028434808 0.006178354 -0.0040520346 -0.0023010038 0.004229232 0.005048637 0.0071280366 0.0022636657 -0.0020036164 0.0007480038 -0.0004901828 0.0025944621 0.0020550531 -0.005285344 -0.0024634234 0.0014297896 -0.0035455876 -0.0055891736 -0.0015486262 -0.00503803 0.00729894 -0.0034298638 -0.0077540018 -0.005922956 0.004917562 -0.0045839236
王伟雄 0.004170352 0.0060935724 -0.0061696814 0.0013208763 -0.00039114823 -0.0007402485 -0.0001232867 -0.007286428 -0.00080633553 0.006789896 -0.0053320928 0.0040611564 -0.006706176 0.00191114 -0.0010959596 0.005078566 0.0075159986 0.0070190653 -0.001902147 0.00076434086 -0.0010144118 0.0018149706 0.00028918128 0.0008075063 0.007658521 0.0033053185 0.0027859304 0.005390718 0.0025662764 -0.0040508197 0.0048068054 -0.0035808566 -0.0052095084 -0.007718049 -0.001013883 -0.0006918131 -0.0019129724 -0.0033821163 -0.0032832026 -0.007672478 -0.007771228 -0.002549567 -0.007330097 0.005496845 -0.0076868427 -0.0028018497 -0.005260325 0.0073915976 0.0029200583 0.00518816 0.0052350764 -0.0025032996 0.0018144237 0.00096929574 -0.0005161608 0.0010193213 0.0032287473 -0.00513807 0.005959586 0.0012154629 0.0032470962 0.0072254553 -0.0065665958 0.005517155
闵晓波 0.0010475386 -0.0070934757 0.0066447435 0.00586285 0.0055855657 -0.0038952215 0.006045465 -0.00023718584 -0.003068261 -0.0015516157 0.0035835034 0.006305473 0.0063361228 0.0036731262 -0.0055203293 0.0039322274 -0.0046102866 -0.0049812347 -0.00026754837 -0.005527828 -0.006342991 0.0047520553 -0.0044473526 -0.0024401625 -0.004142426 -0.0071078427 -0.007211895 -0.0017124404 0.005327881 -0.0065663927 -0.0023093473 -0.003874974 -0.0044741626 -0.006248157 0.00012483452 -0.004126822 8.807555e-05 0.00032287382 0.006288782 0.0017798998 0.0055695763 0.0031282527 -0.0064506787 0.005327498 0.0077379867 -0.0077261385 0.0027963538 0.0072589177 -0.0029840814 0.0010019959 0.0009086695 -0.0014881406 -0.0075047654 -0.00014767112 0.0068209097 -0.0072500207 -0.0060306587 0.0035891072 0.0027201232 0.0014917557 -0.0060065542 -0.007663929 -0.0013816563 0.0030944024
梁永生 0.0068337964 0.006300534 0.0020906548 0.0073074587 -0.00432528 0.007200308 0.0025823438 0.00023579279 0.00059598906 -0.0074434346 -0.0018206688 -0.0033187075 0.0043373727 7.902367e-05 0.0022590575 0.004577682 0.0046021724 0.0070615234 0.003745967 -0.0021095397 0.00013243975 -0.00042130606 -0.0020091678 0.0027821758 -0.001008876 -0.0033037285 -0.0030833862 -0.007089385 -0.002423781 -0.00020018363 -0.0005442246 0.0038121399 0.0033749738 0.00582131 0.005609831 0.00509795 0.0040129544 0.0027707142 0.0039836084 -0.0010141936 0.0051889094 -0.007632851 0.0039292034 -0.006967688 0.0019138722 0.0012583141 -0.0021688673 -0.0057246014 -0.006306358 0.0029348568 -0.0064191627 0.0044395523 0.005664601 -0.0058494085 -0.0053452486 0.004949479 -0.0019579045 -0.004364216 -0.0049984823 0.005535608 -0.0015634745 0.005510233 0.0033192586 -0.0012705604
张素芬 0.29383814 -0.121822126 -0.22796857 -0.3775593 -0.19959262 -0.0075459303 -0.1339359 -0.061145738 -0.19545765 -0.16833358 -0.24706979 0.18602778 0.037711803 -0.5377879 0.42878318 -0.09011422 0.23499972 -0.37352467 0.09850213 -0.34703648 0.0058239317 -0.00992409 0.11485457 0.1107342 0.25863367 0.060737666 0.196313 -0.12156789 0.01189517 0.06525556 -0.2154584 -0.14110169 0.03160153 0.28662518 0.2141514 -0.15673752 -0.052297637 -0.1340749 -0.025876578 -0.1430507 0.013400601 -0.07636172 0.29518712 -0.048291266 -0.22129734 0.067766726 0.4465949 0.26712292 -0.5726585 -0.26617712 0.020517023 0.088386066 0.19066137 -0.24809313 -0.41819778 -0.09089487 -0.19978294 -0.19507752 -0.016847905 0.20347834 0.008651645 -0.17521635 0.07128175 -0.011393478
王策飞 -0.002866541 0.00458197 0.0049704625 -0.0072646798 0.003739442 -0.0029152487 -0.00012431861 -0.0010119749 -0.001635598 -0.006115979 0.002408009 -0.0072662435 0.002578237 0.0056453147 0.005589531 -0.0054678125 -0.003098679 0.0015369512 -0.00647358 0.006209016 -0.002245556 -0.0043171262 0.0003277518 0.0059356457 0.002474899 0.006121367 -0.0045318156 0.0034715054 0.005393937 0.0066161864 0.0015673452 0.0057320604 -0.0053688926 0.00066485314 -0.0027709012 -0.0046026427 -0.00070118374 0.003201524 0.0073885275 -0.0059519643 -0.00063197507 0.00418733 -0.0021251207 0.0012035331 -0.0048939595 0.0015012067 -0.00094549276 -0.0015294029 8.779982e-05 -0.00723364 0.0063957344 -0.0011336013 -0.00047142422 0.0043848986 0.0023654166 0.0002500804 -0.0031140004 -0.0006116867 0.0028616074 0.00022637038 -0.0075950315 -0.0010857305 -0.007181053 0.006508895
肖民 0.0045608645 0.0037706166 0.00624329 0.0048391456 -0.0076893987 -0.005600198 -0.0025210283 0.00058437145 0.0037932827 -0.0032524508 0.004379613 -0.0038478912 0.002855987 -0.00036327753 0.003629045 0.0035597368 -0.0060553984 -0.007219265 0.007195128 -0.0013870755 -0.0020803064 0.0017766096 -0.0042180195 0.006494199 0.0032267985 -0.0042400756 0.0015604013 -0.007100213 0.0033192842 -0.0057739327 -0.006955295 0.0065807006 -0.0056462507 -0.003987265 0.001859162 0.0049162465 -0.0077800155 0.00095684145 -0.0048335707 0.00048791344 0.0045423866 -0.0026086331 0.0018928166 0.001989479 0.007316104 -0.0059747323 0.0044925935 -0.0035179344 -0.007247833 0.0009120037 -0.007626161 0.0046283514 0.003510444 0.0077423006 -0.00042193357 -0.003838817 -0.00022557627 -0.0073192944 0.006177098 0.00172489 0.0070876162 0.0075173294 0.0075866543 -0.00397201
张礼卫 0.093810245 -0.53362364 -0.30156922 -0.180146 -0.38974723 -0.033737738 -0.15452841 -0.21591738 0.1443558 -0.28356245 -0.08171344 0.1293601 0.20994955 -0.06679343 0.4339463 -0.10862209 0.2090283 -0.08820472 -0.032987207 0.09350164 0.22559525 -0.08711357 -0.1650496 0.33642724 0.3918252 -0.21063481 0.27420932 -0.19207527 -0.21625794 -0.03194031 -0.03914836 -0.3281415 0.0612745 0.018959243 -0.0068494524 -0.16514207 -0.04876591 0.026251689 -0.2228683 0.23327339 -0.14575161 -0.1340901 0.1441556 -0.33239314 -0.33191967 -0.46032134 0.112247765 0.07148832 -0.06555531 -0.05412967 -0.18816243 -0.020850806 0.2600801 -0.2724862 -0.6215204 0.026744675 0.22780517 0.046926692 0.1935014 0.12653285 -0.16233833 0.08439751 0.10730357 0.11767554
张涞临 -0.0021690803 -0.0047071255 -0.0057613445 -0.0003979642 -0.0018555983 0.00051175937 0.0020019223 -0.0072781206 -0.0026739647 -0.003981394 0.00081944786 -0.0035098733 0.007107623 -0.0046201833 -0.002281242 -0.0028027226 0.0071288226 0.00536774 -0.0008429618 -0.006620044 0.0066078897 -0.006266288 6.560994e-05 0.00075416715 -0.004359118 -0.0024312355 0.0060736695 0.00076281466 -0.0073818797 0.0031358348 0.0020613596 0.00034868385 -0.00040033387 0.0027105678 0.0022059553 -0.00078826287 0.0070424606 -1.0903697e-05 0.0003685986 0.005615707 -0.003870443 -0.0036906512 -0.002120277 0.0071319425 -0.0033962794 -0.001287206 -0.0062345564 0.0057329717 -0.001444954 -0.0029991346 -0.00024417092 -0.0069012605 -0.0021714487 -0.0060401377 -0.0030638909 -0.0044277655 -0.0045703757 -0.0073742988 0.0069505516 -0.0022267825 -0.0054668663 0.0062346687 -0.0062933 -0.0057598706
杜斌 -0.0049069687 0.00046839335 -0.007628471 -0.007344418 0.006132316 -0.0032485088 0.0021101334 -0.0031156214 -0.00055232056 0.0037639795 -0.006261173 -0.00072204106 0.0014405107 0.0020765802 0.0014029731 -0.0031179856 -0.0013014632 0.0033160057 0.0035604287 0.007410557 -0.0014175297 0.0058447025 0.0068997643 -0.0065574404 -0.0051811733 -0.0014875345 -0.0016609019 0.0034304024 -0.0024343277 -0.00027879875 0.0067653866 0.00070294586 -0.007681032 -0.0031566087 -0.0040899185 -0.0076646134 0.0012930633 0.0068897153 -0.0028192988 -0.0068240236 -0.0059357323 0.0068369904 0.0041783624 0.0050040777 0.007525354 -0.005957823 -0.00032866068 -0.0067841406 -0.0067464043 -0.0009952032 -0.005759284 -0.0039055003 0.006781663 -0.0064054267 0.0058232546 0.0009668461 -0.0027571695 -0.0055821887 -0.004428338 -0.0008929431 -0.0038519972 -0.0017773364 -0.00024141591 -0.0040435423
梅爱民 -0.006449195 0.0036950249 0.0011875428 0.005147178 0.0010456606 0.0024243137 -0.00080279476 0.0066462904 0.00095388206 -0.0022128667 -0.004726228 0.0023662494 0.0065533877 -0.0032533493 0.0017676667 -0.0014579516 0.0028873938 -0.0044129784 0.0078091086 -0.0023537509 0.0022971071 0.005997599 0.002276192 -0.0077879215 -0.004897522 0.0013097834 -0.007440448 0.0010551767 0.007262119 0.0016601293 -0.0044856737 -0.0027470847 -0.00063926046 -0.0061683785 0.0023660643 0.0018256413 -0.0020657268 -0.0062287995 -0.0051008286 0.00089218165 0.0018533975 0.0049123974 -0.006310645 -0.0017292835 -0.0072585437 -0.007027261 -0.007718715 -0.0067760944 -0.007463684 -0.005283644 -0.0026306517 -0.0017038501 0.0055743917 0.0019696914 0.0030631756 0.0033574768 0.0063288733 -0.0045597637 0.0012592388 -0.005744045 -0.0067688767 -0.002603183 -0.0008046759 0.0029214292
蒋溪林 0.2508831 -0.16058521 -0.27269065 -0.067313075 -0.24145398 -0.11547691 -0.01528418 -0.08237617 -0.23188752 -0.06587129 0.21460018 0.25478312 0.15196824 -0.07797933 0.21150038 0.0694956 0.12953815 0.041841786 -0.016084248 -0.14099276 -0.25106752 -0.38007927 0.060023177 0.21074401 0.04568372 -0.42542094 0.22907749 -0.11445285 0.004243271 0.4505832 0.06453859 -0.37016717 -0.10550511 0.01943003 0.0018105151 -0.107103385 0.08753614 0.15717256 -0.1161267 -0.3064595 0.08916406 -0.4123698 0.13985032 -0.14995903 -0.074333675 -0.10681041 0.27720806 0.25870743 -0.12787941 -0.07584802 -0.33846974 -0.12789847 -0.0061698873 -0.043783676 -0.40228835 0.31081483 0.0328303 -0.18628997 0.14876361 0.22003886 -0.06755685 0.044621594 0.09922628 0.04056887
