43 64
钟晓鸿 -0.13943836 -0.11746241 -0.1181342 -0.05508511 -0.06121472 -0.0040162248 -0.0106800655 -0.24605352 0.10848448 -0.13335298 -0.14840439 0.0767756 -0.035461925 -0.029975872 0.21343133 0.019869737 0.114930406 0.22594082 0.019086488 0.25171253 0.21914285 -0.0037400585 -0.014326143 -0.08904243 0.13527952 -0.20636906 0.10047831 -0.048574254 -0.009401619 -0.023892842 -0.20087107 -0.10837508 -0.15203054 0.0004096292 0.14218126 0.12285837 -0.28768563 0.024667624 0.06934581 -0.1520836 0.13558617 0.044770423 0.029343972 -0.031235665 -0.1574074 -0.11956684 0.108572446 -0.13797857 0.053521674 0.27132776 0.07610838 -0.21438995 0.27514926 -0.029641017 -0.1255002 0.02171375 0.17262253 0.065921746 0.05298448 0.19058958 0.009189264 -0.08146875 0.14775273 0.06831377
郑小霞 -0.15601021 -0.0037998408 -0.042897224 -0.044664573 -0.014427802 -0.042701814 0.019427914 -0.25727504 0.060407553 -0.1541777 -0.13554938 0.09375712 -0.03401789 -0.13373779 0.22962873 0.014625705 0.124043636 0.17145915 -0.04713244 0.24502641 0.17261787 0.03459909 -0.029562457 -0.099698894 0.0695217 -0.14605139 0.11164762 0.018779766 -0.054001518 0.08639319 -0.15220945 -0.08515068 -0.21497135 0.09646476 0.08031604 0.1421064 -0.26142392 -0.01611531 0.13347478 -0.18108025 0.15749185 0.10381035 0.039638024 -0.0004934345 -0.09575049 -0.094685175 0.15981098 -0.123584256 0.026338967 0.21729308 0.17906733 -0.15403362 0.24721597 -0.021689184 -0.10730777 0.057069413 0.16892418 0.016875474 0.012786789 0.1650867 0.026608035 -0.1217297 0.12366499 0.01221012
刘世会 -0.15932636 -0.15656856 -0.10927999 -0.011617176 -0.082118124 -0.013025344 -0.012537672 -0.2634165 0.16984951 -0.18696108 -0.1458935 0.06406782 0.04850844 -0.10541432 0.22908169 0.03185633 0.07649844 0.24606863 -0.04480037 0.26302895 0.24955072 0.059314378 0.014586836 -0.10527645 0.08962066 -0.1714767 0.13435732 -0.04852805 -0.027083147 0.08583154 -0.19671442 -0.07203168 -0.2169446 0.02928531 0.16076118 0.16944887 -0.29036647 0.04754348 0.14816509 -0.20031671 0.13859923 0.103921935 0.10021047 -0.029630164 -0.16094883 -0.097558185 0.11281473 -0.19004668 -0.01786291 0.28676456 0.15276425 -0.19012704 0.27086177 -0.01571697 -0.06664705 0.03717862 0.118692674 0.12637685 0.027882416 0.21229948 0.0076552555 -0.17045462 0.14161444 0.088170364
郭建 -0.13702399 -0.0026836009 -0.040779248 -0.049705636 -0.014603175 -0.037485495 0.014211212 -0.22276364 0.048422474 -0.13196759 -0.13034663 0.09324697 -0.02715111 -0.12324889 0.21462552 0.024818761 0.112093925 0.14942576 -0.033501923 0.21049203 0.14644648 0.035490736 -0.015736045 -0.0792517 0.066762835 -0.12570752 0.112364985 0.024444535 -0.04797671 0.07269991 -0.15036312 -0.07697426 -0.1979833 0.087526165 0.080450684 0.12144047 -0.23231052 -0.006717897 0.12252067 -0.16574106 0.14207943 0.08569146 0.04654784 0.0016550937 -0.09461473 -0.08320753 0.14912423 -0.11939278 0.01233366 0.1917069 0.16431688 -0.14516953 0.21917163 -0.030973962 -0.09767328 0.04321152 0.14665903 0.017062394 0.0038311947 0.14575008 0.016475847 -0.11489744 0.10646749 0.008186995
林翰章 -0.112321064 -0.09387157 -0.0982928 -0.04766778 -0.05526384 0.00061270606 -0.007408218 -0.19647753 0.09053791 -0.118757434 -0.12303889 0.058116667 -0.030289566 -0.025492847 0.1745535 0.011426783 0.08976689 0.18010543 0.0070489855 0.20401025 0.17461814 0.011613704 -0.002019008 -0.062064048 0.10347334 -0.15423457 0.09030762 -0.035310425 -0.016175466 -0.014153549 -0.15984531 -0.07677275 -0.122020945 0.004962746 0.10116681 0.09117026 -0.22444232 0.023049079 0.06291883 -0.12247781 0.100438975 0.045293536 0.026882596 -0.027809147 -0.13090971 -0.093106635 0.09147678 -0.100829415 0.039523173 0.21787022 0.063494444 -0.16876543 0.2182621 -0.018647246 -0.097951405 0.018194048 0.13356385 0.04994121 0.04235476 0.13790901 0.009886513 -0.0707628 0.114622235 0.050889146
张学凡 -0.1721549 -0.05348193 -0.04183421 -0.075712554 -0.021765703 -0.039065853 0.04938892 -0.21348557 0.0681066 -0.15262184 -0.1299668 0.09410485 -0.06023679 -0.06318934 0.15591176 -0.021011095 0.0055589126 0.19358134 0.005278162 0.22986838 0.1812396 -0.0485298 0.010078435 -0.05077905 0.09658299 -0.19108105 0.09327079 -0.0044507077 -0.018948857 0.008709901 -0.18994705 -0.11465606 -0.1747614 0.06540616 0.16338222 0.124811545 -0.23626842 0.029255612 0.11211401 -0.17655584 0.14684106 0.06857996 0.054399 -0.034007728 -0.19248039 -0.077279024 0.114591956 -0.1488673 0.0058204383 0.21705721 0.083065964 -0.16195747 0.21242882 -0.043055493 -0.02529051 0.00018932312 0.14674948 0.085300006 -0.019158425 0.13304524 0.012740068 -0.09674787 0.123547554 0.017560033
朱文芳 -0.16721724 -0.064693615 -0.039223474 -0.07691874 -0.022400206 -0.03390423 0.04257154 -0.21811368 0.059876375 -0.15670852 -0.11897992 0.08753649 -0.061701458 -0.06577932 0.15642078 -0.02345783 0.008011419 0.1936468 0.005747577 0.23188336 0.17210713 -0.046812132 0.0056694597 -0.0440884 0.09805947 -0.18731748 0.07908888 -0.0055702897 -0.011516456 0.003995496 -0.19214675 -0.110639974 -0.16807064 0.059834354 0.16192007 0.112106405 -0.22699901 0.020454882 0.105790466 -0.1791294 0.15131435 0.064692795 0.06009511 -0.039663635 -0.19075331 -0.0837748 0.1154315 -0.14794828 0.009900445 0.20298447 0.080602586 -0.15025163 0.20903796 -0.035694744 -0.026679235 -0.0016291722 0.15204377 0.0793376 -0.020176958 0.14003587 0.024258807 -0.09052595 0.12166372 0.011326377
李福民 -0.1237419 -0.0489472 -0.008630061 -0.03503102 -0.019959362 -0.011958101 0.009727444 -0.1778837 0.065454364 -0.07621286 -0.1397651 0.09216503 -0.0041148793 -0.06710463 0.12768106 0.021186704 0.043536834 0.16942614 -0.026582506 0.1977742 0.14911589 -0.019857407 -0.020912945 -0.06612999 0.03055168 -0.14187428 0.051558882 -0.0063171918 0.023318745 0.050835077 -0.12998977 -0.1066461 -0.15819436 0.06553678 0.099685915 0.14020526 -0.2027993 0.0069402684 0.06483237 -0.09189227 0.10262564 0.015657546 0.03388627 0.0039571873 -0.1421604 -0.070857756 0.0834249 -0.1045294 -0.008464374 0.17119408 0.10913271 -0.07298888 0.14974928 0.015856225 -0.03948198 0.03416224 0.10881761 0.018394532 0.021405673 0.11417396 0.00060918916 -0.077462 0.08638737 0.042277873
王爱朝 -0.13282262 -0.058841284 -0.022346046 -0.024573939 -0.03447031 -0.01948328 0.013107402 -0.19365738 0.06232266 -0.08909141 -0.15837917 0.10646067 -0.02079259 -0.07637179 0.13898419 0.023025407 0.06095134 0.18935847 -0.020247553 0.23504913 0.17769183 -0.033784267 -0.017617097 -0.06894426 0.036739886 -0.15656312 0.051945467 -0.020628275 0.027101995 0.049131278 -0.15922302 -0.11820921 -0.17130132 0.074663416 0.11149658 0.16079909 -0.24215068 -0.0007029432 0.06414347 -0.09818808 0.13027252 0.02147607 0.046621785 0.004736769 -0.16537687 -0.06782758 0.09182871 -0.13487054 0.00578657 0.20808809 0.11407611 -0.08895069 0.18041182 0.016390394 -0.061133444 0.03173797 0.11816755 0.030460682 0.029842108 0.14840499 0.019548725 -0.090176195 0.11845859 0.058665734
王伟雄 -0.08204257 -0.06736795 -0.08418252 -0.03561461 -0.041015882 -0.0021805393 -0.00559749 -0.15988067 0.067443684 -0.07970762 -0.09765716 0.04993222 -0.03220152 -0.0142796105 0.13072486 0.0149634695 0.07835558 0.14802605 0.008392798 0.15621738 0.13441385 0.0030108343 -0.003896989 -0.04990021 0.09486396 -0.1214067 0.06941348 -0.023473408 -0.0067915353 -0.021365302 -0.12011206 -0.06767494 -0.09859983 -0.009482953 0.08518591 0.07037933 -0.17720513 0.014143835 0.04146108 -0.10547137 0.07230555 0.029099194 0.009756161 -0.014981204 -0.10857969 -0.07569279 0.06198861 -0.07428858 0.035914566 0.17481753 0.050936844 -0.13912253 0.17224444 -0.01801206 -0.077229954 0.012886173 0.10978509 0.035925195 0.038946442 0.11547846 0.010690597 -0.04250581 0.08236055 0.04742946
王幼鹏 -0.092318356 -0.09964246 -0.0737455 -0.0031240988 -0.05535327 -0.016162826 -0.002611225 -0.16503441 0.10396452 -0.111585334 -0.08731084 0.05058282 0.031039048 -0.06323045 0.14560592 0.018967047 0.051366825 0.14351349 -0.021152234 0.16265255 0.15923692 0.036534216 0.011364375 -0.070719175 0.059689812 -0.1004514 0.079737514 -0.032014783 -0.024228463 0.04483464 -0.12424134 -0.047862954 -0.12192217 0.026916714 0.10635141 0.10602581 -0.17363787 0.03628207 0.09396077 -0.11264785 0.07726408 0.05942111 0.061347127 -0.018555004 -0.11143941 -0.064736776 0.0746673 -0.11633243 -0.011120947 0.18348303 0.0871118 -0.11452384 0.1697535 -0.011725587 -0.030938495 0.020654865 0.079856046 0.08304657 0.0239195 0.13061792 -0.0022224083 -0.10710171 0.092674404 0.05381751
詹有力 -0.09978791 -0.108462855 -0.07604181 -0.008823536 -0.056475695 -0.0038527723 -0.0018840354 -0.17610826 0.11540801 -0.124534175 -0.08790892 0.044049952 0.03503929 -0.069884926 0.15770733 0.010450198 0.05748729 0.16797505 -0.022617027 0.1753395 0.16278131 0.038785797 0.0008366823 -0.0796863 0.06918907 -0.112055264 0.08209641 -0.031884693 -0.02827305 0.055992343 -0.13356565 -0.04983667 -0.1423413 0.022613542 0.11799762 0.10998288 -0.19666588 0.033307042 0.10058672 -0.13584934 0.09853081 0.06414518 0.058739755 -0.025559573 -0.10541722 -0.0643173 0.08274945 -0.1304308 -0.009501462 0.19699009 0.09094596 -0.11974153 0.18530814 -0.005719348 -0.03488021 0.022718266 0.07849549 0.08716553 0.01377196 0.13499698 0.007814806 -0.1096781 0.09940793 0.05722158
钟伟民 -0.036289223 -0.02942018 -0.028956601 -0.017296845 -0.015227823 -0.00016305504 0.0026129999 -0.052210208 0.021820476 -0.029359257 -0.030062165 0.016160443 -0.005658039 -0.006506522 0.039623883 -0.00027394356 0.032101147 0.050062034 -0.0042747725 0.058663186 0.05133102 -0.0058280253 -0.0027630834 -0.015521438 0.030530551 -0.04684423 0.022946164 -0.012416442 -0.0061529623 -0.0041349065 -0.048226207 -0.026296321 -0.032469247 0.0070075784 0.03431093 0.025197677 -0.054619484 0.01245067 0.018329456 -0.029709196 0.032253247 0.018684974 0.0002589363 0.0010968685 -0.02961824 -0.018461656 0.027972097 -0.03256631 0.008801931 0.06315187 0.016086617 -0.052028593 0.052566133 -0.0058948607 -0.029328557 0.0073576253 0.04351116 0.008061591 0.016216943 0.048442643 0.006657855 -0.013680056 0.03120939 0.015922885
张亚立 -0.0008180548 -0.007603779 0.0022605404 -0.006898881 0.0010516263 0.002559439 0.0023539693 0.0068174913 0.0013750071 -0.0061768093 0.0015270462 -0.006499462 -0.0045470768 -0.002474831 -0.0052823527 -0.005712024 0.0055986214 -0.002694197 7.209577e-05 0.003628636 -0.0045587877 0.001637188 0.0014554586 -0.0014595926 0.0029668373 0.0028608392 0.0014187084 -0.005084788 -0.0066533685 -0.00058577553 -0.004399994 -0.00703663 0.006064584 0.0072403816 -0.0011572044 -0.001095513 -0.0043662307 -0.0014943657 -0.0051355646 0.001009593 -0.0020946108 -0.002924128 -0.0019669805 0.0071986136 0.0061317137 0.00058625 -0.005181588 -0.001515401 -0.0073200343 0.00047684394 0.0048612226 0.0048263483 -0.0070045437 -0.006670685 -0.007500514 -0.007580716 -0.00456161 -0.0029490034 -0.0049055554 0.004980563 -0.0063494416 -0.0014205609 -0.00063778646 0.0037262435
丁强 0.005239939 0.0004871189 0.00013271705 -0.0072096656 -0.0053598406 0.006967517 -0.0011603716 0.0031061312 -0.00064509537 0.0068119885 0.00642404 -0.002931287 -0.0067329598 -0.0055341586 -0.006612415 -0.0020070516 -0.0037783503 -0.0064241015 0.0062907287 0.00532684 0.0058889715 -0.0075974287 0.000247239 -0.0077662147 0.006008061 0.0040039727 -0.0015134792 -0.0029757947 -0.0052694962 0.00092323363 -0.001024326 0.007397227 0.0066729933 -0.0025675895 0.0021514674 -0.0034426625 0.0006112721 -0.00039333853 -0.0021550131 0.0037215936 -0.0029507845 -0.0029384622 0.0013571896 -0.0046252534 9.488307e-05 -0.0028536464 0.00445901 0.00514573 -0.00425766 0.0029962447 -0.0023339395 0.00021099621 0.0041516223 0.0027207597 -0.004621004 -0.0011121575 -0.0018539432 0.0017690659 -0.007484805 0.0013517593 -0.0009679291 0.0033661819 -0.002260386 0.007693347
王东 0.0077531138 0.0045355465 0.0072762812 -0.0059243725 -0.0018720271 -0.001824753 0.00413424 -0.00073568214 0.0041593714 -0.0030044995 -0.00386438 0.0077052764 -0.00443404 -0.004529256 0.0056890943 -0.0035376137 0.007565646 -0.0038573523 0.0013316196 0.00046361308 -0.0016694026 0.0009183293 0.0071357847 0.006596351 0.0051930747 -0.0011814829 0.004067994 -0.005174944 -0.0025050528 -0.0027514242 0.0050537414 -0.0049716276 -0.0053828275 -0.0011718124 -0.0030213164 0.0008578672 -0.0054985126 -0.002381683 -0.0017015944 -0.0007419131 -0.0027645025 -0.0013447836 -0.00043004903 0.001051884 -0.0014261362 -0.002608205 0.007757825 -0.005367141 0.0048275637 0.004394109 -0.0059216633 0.0074076797 0.0011809797 -0.0019864826 -0.005618058 0.002741969 -0.0066363867 0.0007487557 -0.006567164 -0.007168062 -0.0010384078 -0.001674882 0.0042437506 -0.004411635
张陆 -0.03846784 0.0062171696 -0.016202416 -0.0065312246 -0.0005572159 -0.011004978 0.009470427 -0.070229836 0.016959967 -0.035517856 -0.02931139 0.021649264 -0.0004481356 -0.0377693 0.06590936 0.012610652 0.03220296 0.043323785 -0.007960938 0.0678828 0.04215597 0.01146843 -0.012045753 -0.017076096 0.017660148 -0.039144777 0.038260035 0.010626924 -0.017513009 0.015606055 -0.033185422 -0.024533242 -0.054535113 0.0195325 0.026081612 0.03051015 -0.060629033 -0.00025289948 0.041580115 -0.04479773 0.039214313 0.030325895 0.018156972 0.007952736 -0.020232713 -0.030142432 0.042412836 -0.03311578 0.01212769 0.061513796 0.042780206 -0.031956147 0.061494086 -0.010031555 -0.023569949 0.02032649 0.048005324 0.008677979 0.008790129 0.040374268 0.009088875 -0.025276547 0.03798232 -0.00018690302
卢旭阳 -0.0016428978 -0.0062351474 -0.0027663002 0.005829146 -0.0022511426 -0.0007461047 -0.005513757 0.00046708927 -0.0046528573 -0.0073752017 -0.0038667854 0.0062765917 -0.0013477571 0.0064091 0.001601199 0.0059544807 -0.0072976593 -0.000115186354 0.0037717097 0.00055214734 -0.006960851 0.0034132607 -0.0033761493 0.003869133 0.0077031613 0.007476259 -0.00074873405 -0.005555826 -0.0005039672 0.0015984669 0.0068101883 0.0009740877 0.0049506896 -0.0014439374 0.0011096017 -0.0064267246 -0.0059991595 -0.0077796467 0.006245535 0.0064837467 -0.0052221552 -0.0012781884 -0.0043678805 0.002482698 -0.0016546728 0.002250042 0.006420933 -0.0047866288 -0.004247161 0.00086035085 0.0062896484 -0.004840136 -0.0067138583 0.0037458146 0.006026841 0.0015230483 0.002915667 -0.0017317183 0.0065237046 0.0056440816 0.004317456 -0.0027390865 -0.0047788867 -0.006777536
李郑祥 0.0010317044 0.00053755235 -0.0006807154 0.006231374 0.0039566606 -0.0010666896 0.0021112456 8.3394425e-06 0.0067269616 0.0047585927 0.0048314454 0.0010891195 0.0030891146 -0.0062248027 0.0020512033 -0.006641453 0.0040852563 0.0014290346 -0.0010362616 -0.0075725643 -0.00028149318 -0.0028350588 0.0024932039 0.005826853 0.005488877 -0.00541893 0.00453192 -0.0024750836 0.0062284605 0.007313821 -8.52112e-07 -0.00745983 0.000507094 -0.0034207334 0.006025603 -0.007073328 -0.0027691606 0.0024363727 0.0035457714 0.0012106701 -0.0044817133 0.006407219 -0.0025435695 -0.0069197924 -0.0068165516 -0.001700992 0.0063414527 0.0065473644 -0.0076467777 -0.00046924714 -0.0071513364 0.006807381 0.0056798416 0.0046901233 0.006052033 -0.0074327383 -0.004819893 0.004234818 0.0043488005 -0.005657937 -0.0047606775 0.0019061373 0.0009976593 0.0013090172
梁永生 0.0068337964 0.006300534 0.0020906548 0.0073074587 -0.00432528 0.007200308 0.0025823438 0.00023579279 0.00059598906 -0.0074434346 -0.0018206688 -0.0033187075 0.0043373727 7.902367e-05 0.0022590575 0.004577682 0.0046021724 0.0070615234 0.003745967 -0.0021095397 0.00013243975 -0.00042130606 -0.0020091678 0.0027821758 -0.001008876 -0.0033037285 -0.0030833862 -0.007089385 -0.002423781 -0.00020018363 -0.0005442246 0.0038121399 0.0033749738 0.00582131 0.005609831 0.00509795 0.0040129544 0.0027707142 0.0039836084 -0.0010141936 0.0051889094 -0.007632851 0.0039292034 -0.006967688 0.0019138722 0.0012583141 -0.0021688673 -0.0057246014 -0.006306358 0.0029348568 -0.0064191627 0.0044395523 0.005664601 -0.0058494085 -0.0053452486 0.004949479 -0.0019579045 -0.004364216 -0.0049984823 0.005535608 -0.0015634745 0.005510233 0.0033192586 -0.0012705604
刘初汉 -0.0027124027 -0.0027208226 -0.0076550306 0.005336901 -0.0007568342 0.0001100648 -0.00030787935 -0.0072822957 0.004483754 0.0028316185 0.0053994497 0.0030659875 0.003884668 0.004833099 0.0043676808 0.0016784999 0.0014768288 0.0018872039 0.005081142 0.0019185874 -0.0036598882 -0.003931338 0.001109349 0.0077023073 0.0030032543 0.0045494484 -0.007261315 -0.003031171 -0.0058923783 6.8873334e-05 -0.0070192595 0.004381854 -0.0066482737 0.006362173 0.006375422 0.0051896814 0.0031351822 -0.0002002461 0.0023013123 0.0039417115 -0.006326729 -0.0055118413 0.00681305 -0.0039788396 -0.001603471 0.007477501 -0.005757924 0.0065799737 0.005165559 -0.0049424097 -0.007115025 0.0073190248 -0.0067589725 -0.0021911338 -0.00026499762 0.00747191 0.00038872234 0.0061421045 -0.004535629 -0.0047829757 -0.0038324683 -0.0062019434 -0.003766964 0.0019168698
刘伟 -0.0051051127 0.003271618 0.0054150675 -0.0009838536 0.00015519811 -0.0039872387 -0.0047808914 0.0019524809 -0.0033208074 0.0013827797 -0.0033881785 -0.0043732594 0.007219337 0.0037255236 0.0064771227 -0.0038063389 -0.004898748 0.006917969 0.006177355 -0.0069707567 0.005708312 0.007100863 -0.005909206 -0.002123899 0.006356771 0.0059826095 0.001466799 -0.005994321 0.0071584233 0.0020992206 0.0075888946 -0.0013034483 -0.0043183407 -0.002863907 0.0031160566 0.0013510538 0.0060391347 0.00060272496 0.0035176785 0.0029513878 0.0018032964 -0.0067324424 0.0014189612 -0.0015610271 -0.005984631 0.0030900298 -0.0017748907 0.0060018 -0.0029191193 0.002447554 -0.006786627 -0.0060860654 -0.0009506151 -0.005729249 0.0004388149 0.007680234 -0.0032075346 0.0018208307 -0.0053901044 -0.0048740013 0.0046417196 -0.0012554119 -0.0044535124 0.0038231062
于宝明 0.0025616414 0.0062481374 -0.0060316585 -0.0048385095 -0.0032574346 -0.003683932 0.007801576 -0.003815766 -0.0007407805 -0.007343957 -0.0017225579 -0.0058376817 0.004021713 -0.006266249 -0.004951408 -0.0012033441 -0.0036148932 0.00068944565 0.003721015 0.0030717386 0.0055745062 -0.0026290244 -0.0013168778 0.0001860734 -0.0045019 -0.0060354997 0.0016127633 -0.0045868736 0.0021312484 0.0074768537 -0.0009638272 -0.0068852785 0.0029303092 -0.0033404476 -0.004625663 -0.0023830787 -0.0041366215 -0.001874258 0.0045441086 0.0033762231 2.3548575e-06 -0.006572153 0.0023628124 0.0030154684 -0.0056023775 -0.006684444 -0.0022577655 0.0035498783 -0.0075172284 -0.0059831403 0.0028175719 0.0036023997 0.0016080865 0.004890759 -0.003425693 -0.0021020055 -0.0013988555 -0.007633128 0.0014623263 -0.0017393328 0.0017175016 -0.0077082017 0.0059267757 0.0049957796
肖民 0.0045608645 0.0037706166 0.00624329 0.0048391456 -0.0076893987 -0.005600198 -0.0025210283 0.00058437145 0.0037932827 -0.0032524508 0.004379613 -0.0038478912 0.002855987 -0.00036327753 0.003629045 0.0035597368 -0.0060553984 -0.007219265 0.007195128 -0.0013870755 -0.0020803064 0.0017766096 -0.0042180195 0.006494199 0.0032267985 -0.0042400756 0.0015604013 -0.007100213 0.0033192842 -0.0057739327 -0.006955295 0.0065807006 -0.0056462507 -0.003987265 0.001859162 0.0049162465 -0.0077800155 0.00095684145 -0.0048335707 0.00048791344 0.0045423866 -0.0026086331 0.0018928166 0.001989479 0.007316104 -0.0059747323 0.0044925935 -0.0035179344 -0.007247833 0.0009120037 -0.007626161 0.0046283514 0.003510444 0.0077423006 -0.00042193357 -0.003838817 -0.00022557627 -0.0073192944 0.006177098 0.00172489 0.0070876162 0.0075173294 0.0075866543 -0.00397201
曾岳雄 0.0049858205 0.0048174025 0.0077205338 -0.001123449 -0.0066694813 0.0008303576 0.0047538537 -0.0017447743 0.0028700158 -0.0063910554 0.0069989916 -0.0010080673 0.005681454 0.0030016585 -0.0011679314 0.0014768699 0.0011077428 8.214348e-05 0.0076710414 0.0031745892 -0.0062221983 0.0058101933 0.0010706414 0.004483813 0.0052270046 0.0006077232 -0.006370512 -0.0027752393 0.002573514 0.0013034038 0.003121504 0.004993937 0.0025916086 -0.007358217 0.0050863996 -0.0073024277 -0.00034535766 -0.0057708337 0.0029335234 -0.0053850054 0.00478155 -0.0015003294 0.007363863 0.005945092 0.00012295014 -0.0012622091 0.0006257794 0.00539724 0.0067702024 -0.0045693554 0.0009200336 0.0077299424 -0.0014082137 -0.0067708613 0.0037871662 -0.0013417667 -0.0016613001 -0.00019901813 -0.00521425 -0.0072263605 0.005888031 0.0034104912 0.003984779 -0.0031811965
廖远飞 -0.0062705283 0.00569541 -0.0026504342 -0.004429631 0.0074294796 0.0018846942 -0.003909113 -0.005379252 -0.00025270297 0.0027879018 -0.0032782326 0.006793838 0.0071849725 -0.0037216481 0.003198803 0.0042568604 0.0018609898 -0.0017721872 -0.0061780727 0.0001891684 0.002777938 -0.0028253885 -0.0055676657 0.0042586024 0.0002285701 -0.003716177 0.004884207 0.0027974609 0.0050336765 0.0005796694 -0.006420919 -0.0009659156 -0.0033893164 0.005732609 -0.00018089428 0.0066695353 0.0037702261 0.002224952 0.0027127287 0.0023443953 -0.0013022736 0.0005471664 0.005784337 -0.0054808795 0.004372502 -0.0005037033 0.0033161046 0.004906149 -0.005883821 0.0013025299 0.0027325328 0.0018447939 -0.001925166 0.004118263 0.0036212192 -0.0066954903 -0.005580555 0.0041813157 -0.0074581318 -0.0023740781 -0.0066810697 0.0020493597 -0.0054229563 0.0005179914
高尔剑 0.0023534687 0.005947343 -0.0047973297 -0.005645393 0.0013852997 -0.0051469635 0.0013583649 0.0073460913 0.0018213275 -0.0005923006 0.007307423 -0.0011161978 -0.006460744 -0.0077819596 0.0071780626 0.002842214 0.0031752933 0.0070004584 0.0041080667 0.002581603 0.0019974727 -0.0007764494 0.007587445 0.00198272 0.002861063 0.0034761159 0.0030049218 -0.005164463 -0.0038580801 -0.005922817 0.003893559 -0.0036497943 0.00406549 0.0021996526 0.0001494424 -0.0065008877 -0.0029368582 -0.00096012396 -0.00024495774 0.0037255883 -0.0039443667 0.0029020682 -0.0015680226 -0.0066942256 0.00041417324 0.005141852 -0.0069151544 -0.0052193347 0.0038362683 -0.006887571 0.0011336653 -0.0028925291 -0.0010647469 0.0030179922 -0.0065934705 0.0029843005 -0.0043383627 -0.0042976923 0.0050382293 0.0023309488 0.005142494 0.0006969221 0.0019479475 -0.0016524034
聂新平 0.0051010326 0.0011439737 0.0068025365 0.0039633536 0.003303281 -0.0016040015 0.0027032208 0.005659804 0.004859655 0.0042206123 0.002252932 0.006692378 0.0012021104 0.002101994 -0.002051086 0.0028749527 -0.00401477 0.00081000046 0.002705377 -0.0026601942 0.0017048158 -0.0028093979 -0.0032097793 0.0063280766 -0.0046149455 -9.305502e-05 0.0025855245 0.007706591 -0.003508391 0.00048326416 0.00709257 0.002665775 -0.0077829612 -0.0036442997 -0.0036166252 0.005169662 0.0063971193 -0.0038239127 -0.0007993732 0.0030391603 -0.0023198992 -0.0025789903 0.0020624078 0.00647446 -0.007526149 -0.0074701123 -0.002558032 -0.0013148459 -0.0024135287 -0.0058660186 -0.0074433098 -0.0031559446 0.0038805678 0.0020367876 -0.005906257 -0.0030717389 -0.0028758433 -0.0018573336 0.0064905533 -0.00044825976 -0.0051909285 0.0059716646 -0.001855788 0.0019698204
贾兴东 -0.0027283381 -0.0010271381 0.0068046567 -0.0010473259 0.0046285596 -0.00030110715 -0.0061646216 -0.0032210487 0.00085371354 0.0057603843 -0.0007005732 -0.0058657597 0.0006858489 -0.0026352184 -0.0053607426 0.004416345 0.00012925453 -0.007563795 0.0030158306 -9.966128e-05 -0.0029666626 -0.004239609 -0.0007143184 0.0068886387 -0.003598519 -0.0020096481 -0.005777338 -0.0032363161 0.0022300503 -0.002788818 -0.006897526 -0.0036712138 0.005743589 0.003186509 -0.0077645513 -0.0074218074 -0.005317152 -0.0021013708 0.0010053366 0.004616822 -0.0028563987 0.0050262683 0.0020164489 0.005083877 0.002748008 0.0060077533 -0.0075627007 0.0014623399 0.0008159873 -0.005407156 0.0043345843 0.007251036 0.0043922886 0.00097812 0.003230964 0.000735831 0.0017410076 -0.005135329 0.003356567 0.0006303393 0.0056082495 0.0045325193 -0.0016245863 -0.006295174
胡晓清 -0.0019963905 0.00030990914 -0.007415084 -0.0021589212 0.003013821 -0.0067602242 0.0018870853 -0.006844372 0.0036567694 0.0036736608 0.0040177167 0.0044307727 -0.0033348098 0.0016370632 0.0047304314 0.0016757487 0.0028028798 -0.006314934 0.005394723 0.006246206 -0.007069408 0.004739217 0.002654118 -0.005815163 -0.0072460007 0.0024789681 -0.004917667 -0.0027979675 0.0043398705 -0.007415323 0.005647933 0.0007428303 0.00037245738 0.0041595623 0.002600818 0.0068980046 -0.0067838416 0.0066808974 0.0074358117 -0.0052104495 0.0020385957 -0.0003047232 0.005772635 0.0069607864 -0.0019943365 0.0048487913 -0.004681795 0.0040378626 0.0063948436 -0.0019275805 -0.0009507386 -0.002329643 0.0052445997 0.0033005993 0.003913075 0.004929158 0.0053266142 -0.0006834147 -0.002356014 0.0029546057 0.00743095 0.0074063092 -0.0044849385 -0.0038624953
高瞻 -0.0052801156 0.00434157 -0.0022767517 -0.0050372686 -0.0044854465 0.0038973647 0.0044471608 0.0034070343 -0.0053553544 -0.0012813347 -0.0031577945 0.006208362 0.0001717849 -0.0022118245 0.0015620355 -0.00021672739 -0.00344044 -0.0075739343 -0.005435831 -0.0041937195 0.00681409 -0.006166972 -0.0061821016 -0.0034636485 0.002087336 0.00086933444 0.0021207356 0.004084783 -0.007690351 -0.00022515008 0.004017858 0.0005110687 0.0009349893 0.004082884 0.0031964374 -0.0031230396 0.0042113476 0.0064613223 -0.00057819014 0.0056890384 0.004898623 -0.0027118956 0.007087847 0.0027698386 0.0015752836 0.0010152981 -0.005583963 0.003405872 0.0022087118 0.0042656623 -0.0018222024 0.0032805966 0.006927152 0.0033805997 -0.0039159013 -0.005403071 0.0014834617 -0.0016944036 -0.007046568 0.0015104897 0.004505371 -0.0030402902 -0.0021010048 0.0073270546
许露露 0.006861891 -0.0031717408 0.0020410542 0.002263659 -0.0063094576 -0.004936607 -0.0042092046 -0.006876021 0.00082628604 -0.0042878143 -0.0038361005 -0.0026447843 0.0059446613 -0.003747769 0.00718031 0.00042553278 0.0017919544 -0.0010662546 -0.007185507 -0.005870496 0.0063084047 -0.0074582063 -0.0040076184 0.0034402094 0.0052725645 0.0058762887 -0.0014283293 0.004315898 -0.006655039 0.0033506553 0.0074996185 -0.006663895 -0.0043092244 0.003020607 -0.00017435319 3.7955262e-05 0.006794309 0.0013629743 -0.00691067 0.005311611 0.0006561814 0.0060302503 0.0040323036 -0.003907123 -0.0048161345 -0.0075469487 -0.006410427 -0.0043347576 0.0046705846 -0.0054947957 0.0054569747 0.0049209194 0.0043872553 -0.0074801133 -0.0015655679 0.0012889962 0.006572961 0.006153865 0.0004520367 -0.003533151 -0.0020936553 0.00040512465 0.0021214348 0.003432238
邱宣 -0.007168714 -0.0056387084 -0.00036517085 0.0005951199 0.0033009662 -0.003603296 -0.004884062 -0.007233057 0.0029844437 -0.006661327 -0.0077074394 0.00013019788 -0.0002758325 4.4634162e-05 -1.5745965e-06 -5.3592947e-05 0.0063087866 -0.003331441 -0.0012274755 0.001729242 0.00083719194 -0.00011715244 -0.002605034 -0.0047962517 0.0072033238 0.004772699 -0.006639483 0.004146584 0.006557975 -0.0061810454 0.007541645 -0.0019551911 0.00082693854 -0.0074006976 0.0029022156 0.007648598 -0.00050580135 0.0040515647 -0.0014180391 -0.0076494273 -0.007304625 -0.0022159328 0.006265186 -0.0033343027 0.0016906209 0.0023320802 -0.0009787705 0.0050674607 0.0008066539 -0.0072236774 -0.003835051 0.003250358 0.00065377884 -0.0025040356 0.00022497014 0.00078233174 0.0059107277 -0.005478924 0.0007884512 0.007786538 -0.006880061 -0.0070281737 0.005950209 -0.0042045116
凌冲 -0.0028833642 0.0022719442 -0.000672142 0.004544123 0.00021759744 -0.0034169261 0.00011819083 0.0043807747 -0.0074410555 0.0011147988 0.0059685484 0.003722668 0.0042254026 0.0019489855 0.0037036936 0.0023770884 -0.006558621 0.0028102105 -0.0027731298 0.0013783603 -0.0067079286 -0.0065024723 0.005331346 0.0037474178 -0.007664972 -0.004818829 0.0077476935 0.0022627094 -0.0051258635 0.0033561508 0.0076982877 -0.0060089026 0.0016482273 -0.007627719 -0.0020080302 -0.0051236446 -0.003712939 0.004401182 0.0038126467 -0.0040633497 0.0005791153 -0.0049001873 0.007712176 0.0018670086 0.0013333267 -0.0003241066 0.00084193144 -0.0024424423 0.0023555602 0.002388918 -0.00474478 -0.003182462 -0.0037536484 -0.0052477783 -0.0072940444 0.0054338705 0.002130908 -0.006136276 0.0006382583 -0.004009723 0.005084381 0.001432658 0.0061635203 0.001966511
黄臻 0.0035173043 0.006962277 0.0060753743 -0.007409496 -0.0037013388 0.006927608 0.002017307 -0.004501789 -0.0072595295 -0.0025210264 -0.0065255496 0.0026043504 0.005832073 0.0056300047 -0.0037427773 0.0069526304 -0.0033598787 0.007339443 -0.0014902786 -0.0059058294 0.0010224428 -0.0026347951 -0.0011560877 -0.0050055287 0.0039957073 -0.006509894 0.0009709012 -0.0075011165 -0.0055230646 0.0019752926 0.0037770993 0.0034293125 -0.0018072157 0.006025513 -0.0067278706 0.0033453556 0.0019617544 0.0029437472 -0.0050582485 -0.006342175 0.0026416164 0.006077295 -0.0050016046 0.0017111951 -0.001188248 -0.004812619 -0.0066512367 -0.00034844858 -0.007754572 0.0064955563 -0.0013414004 0.0036684193 -0.007449768 -0.0017312218 -0.0004391696 0.0046356334 0.0050228904 -0.0029280393 -0.0007329492 -0.00092862255 0.0038230862 -0.000120562036 -0.0059497417 0.0010558445
尹杰 -0.003073792 -0.00065673917 -0.0033904056 -0.0034242135 0.0020651135 -0.004740404 0.0056775906 0.0012044178 0.0019933635 0.004757903 0.004212254 0.0067922845 0.005455796 0.001629534 0.002052556 -0.00014060776 0.00014093683 -0.0071424833 -0.006482886 0.0067938967 -0.0023812216 0.0066391905 0.0024104693 0.0029232458 -0.0027440055 -0.0046652923 0.0055278735 0.002336805 -1.13285105e-05 -0.0038990583 0.0012553092 -0.0027822484 -0.004135953 0.00738667 -0.0023586403 -0.0002303013 -0.002290771 -0.0037359819 -0.005582273 -0.0019314953 -0.0022547168 -0.0059360145 -0.0073978337 -0.004526007 -0.005398485 -0.0018013616 -0.0060545215 0.0065484606 -0.0025175118 -0.004529861 0.003229546 0.0016371213 -0.0020581721 -0.004566431 -0.007716421 -0.0029147041 0.0024618702 0.0016984897 0.0033002438 0.006518304 -0.0017692046 0.006121972 -0.007710862 0.0015072834
吴学龙 0.0033192944 -0.003832342 -0.0052083815 -0.006297154 0.0013807517 -0.0007272049 0.0045535327 -0.0038664276 -0.0076289643 -0.0035194422 -0.0015359499 0.001091585 0.0017220394 -0.00018953571 -0.0022902335 0.0058536786 -0.005112456 -0.0036243312 0.0071379715 0.0065891575 0.004656899 -0.006214123 -0.005101672 -0.0033500502 0.004298102 -0.0006583721 0.0015182837 0.0053637293 -0.00524257 0.007025042 0.0050405585 -0.003315731 -0.00028358272 -0.005380345 -0.0026556132 0.00338831 0.0039587435 -0.0001246819 -0.0030752544 -0.0061168484 -0.004484504 0.0056995726 0.0060990225 -0.0035144174 -0.0050802394 0.0015313382 0.002544837 -0.0052440325 0.0048960852 -0.004872716 -0.005315541 -0.0009771402 0.0057963296 0.005910667 0.005725398 0.00027687152 0.0034119796 0.00385298 0.0063107396 -0.0014473753 0.006192591 -0.004488081 0.006525035 -0.0046996837
张福通 0.00035574258 -0.00044838883 -0.002917291 -0.007579778 0.0022509394 0.0026738117 0.0022319327 0.0035558336 -0.0027818251 -0.005089496 0.0017100114 -0.007420981 0.0006873765 0.0005455892 0.0046895235 0.0032243764 0.0034020091 0.0035433224 0.00082791224 -0.00682416 -0.0012769653 -0.007237645 0.003981038 -0.00235145 0.0022641153 -0.0023853781 0.0011937357 -0.002233248 -0.0014224101 0.006749029 -0.0008823178 -0.0017982788 -0.0005715405 -4.1111252e-05 0.0022268756 -0.0025841675 0.0042255637 -0.0009948597 -0.0076688947 -0.007627083 0.0033947187 -0.0015665699 0.0021668002 0.00260112 0.0060302923 0.006568296 0.002662569 -0.0025061967 0.0031212345 -0.0042179897 0.0044309497 -0.0039989464 -0.0065158685 0.002929075 -0.005741901 -0.0057038767 0.006452792 0.0034180356 0.0073815607 0.0017735816 -0.0070568635 -0.0004719522 0.0051286984 0.0008024814
沙新华 -0.0012058924 0.00429592 0.0044740867 0.0015134024 0.003027194 0.0059016068 -0.005461798 -0.007579566 0.0020717243 0.0066009504 -0.0036421174 -0.0011472616 0.005817959 0.0066190744 0.004447156 0.0057591135 0.0036790222 -0.0041135303 0.005156651 0.004787075 -0.0027821676 0.0050299764 0.0005514588 0.0028603002 -0.00766612 0.002514723 0.0048512 0.00054261327 -0.0076401434 0.00543817 -0.0028809602 -0.0032085825 0.0038043058 0.0049996893 -0.0016382197 -0.0010565616 -0.0042379717 0.0016067158 0.0068441476 0.0024587554 0.0020234748 0.0077917627 0.0031205583 0.0030985598 0.0008766226 0.007630624 -0.00557084 0.0050010984 -0.004801692 0.006381937 0.0023371729 0.0048809643 0.004512086 0.0004549871 0.0010904521 -0.0023638303 -0.005227805 0.0015370222 -0.005543835 -0.000858816 -0.0076102717 -0.00649834 0.0005789203 0.005953854
艾传荣 0.005922526 -0.0045194454 0.001981544 -0.0073051434 0.0026482109 3.2466152e-05 -0.0064532096 -0.0023215453 0.0057935184 0.0051256395 -0.0042286487 0.007379506 0.003997265 -0.0072825435 0.0024408838 -0.0034738544 -0.0053944173 -0.0076049343 0.0054071997 0.0046533816 0.0075857057 -0.0066492236 -0.005164395 -0.005738467 0.002076943 0.007181679 -0.0013164047 0.0023611032 -0.0023418583 -0.005687202 -0.0057073385 -0.006083811 0.002047386 -0.0049639507 -0.0005387266 0.0058590914 0.0025198415 -0.0055012973 0.0053031747 -0.0012089855 -0.0075275563 0.0068493146 0.0064003924 0.007781731 -0.004222486 -0.004675661 0.0064321198 0.0011567074 0.004327411 0.0006359019 0.0009228576 -0.0023097764 -0.0012834943 -0.007797242 0.0055127637 -0.0008537323 0.004651101 0.0009732963 -0.006072181 -0.0055702897 0.0073891943 0.001381591 0.005742304 0.006968889
杨青 -0.003932476 0.00017518392 -0.0073692626 0.0032038593 0.007531251 0.001598338 -0.0059385565 0.0031111483 0.0058849934 0.0029325348 -0.0012053286 -0.0016053856 -0.006639764 -0.00040341658 -0.0026161368 0.00072335725 0.0052485107 -0.0014983568 -0.0066675334 0.0034904801 -0.0061627454 0.0041090525 -0.0077116997 -0.005154141 -0.007605388 -0.00303447 0.0004515589 0.0029921378 0.006329773 0.0047223778 -0.0062977085 -0.0047287103 0.003723584 -0.0057426975 -0.006879489 -0.006169701 0.0059428522 -0.002136217 -0.006954766 -0.004937531 -0.00016350568 -0.002149663 -0.00054327457 -0.004437623 -0.004420617 -0.0022027139 -0.0014207587 0.0033948175 -0.007616217 0.0019695747 0.0048034615 -0.0068583847 -0.0045137843 0.00609295 -0.00600512 -0.004942791 -0.004597721 0.0023255516 0.004074749 0.0040844665 0.005260183 0.002437152 -0.005799745 -0.004321956
苏剑 -0.002297327 -0.004824475 -0.0048280256 -0.0004402775 -0.00079066126 -0.004193886 -0.0044161947 0.0032122708 -3.599259e-05 0.00425863 0.0072232117 -0.0063837003 -0.0035131983 -0.005174299 0.0051750513 -0.006070139 0.005120301 0.0027844317 -0.004237539 -0.007096067 -0.0030363875 0.005077522 0.0028665925 0.003237082 -0.0032749912 -0.0033862125 0.0048902147 -0.0002627906 -0.0056865765 -0.004962698 -0.004290121 -0.004666863 0.006081103 0.00027842942 -0.005752327 -0.0077596665 -0.0046399664 -0.003872057 0.000548094 0.004520225 -0.0009720164 0.006288991 -0.0013076825 -0.0028673622 -0.0070614354 -0.007501034 0.0047012228 0.0010861746 -0.0012359862 0.004897984 0.00038487147 0.007004755 -0.0043559386 0.0076649077 -0.0011197489 0.0051516653 0.0022084175 -0.006302025 0.0048118196 0.0074598733 0.0050723576 0.0041728276 0.0052399742 -0.005879107
余璟 -0.0054856692 0.0014464562 0.0018283608 0.0064335847 0.0031970786 0.0017872731 0.005672632 -0.0048265746 0.006611228 0.0077704564 -0.00077228126 -0.0031734048 -0.0049528866 -0.005389138 -0.0061406693 0.007391973 0.007381998 0.0018415425 -0.002905938 0.0045036306 -0.0072527817 -0.0016883393 -0.006884579 -4.6655932e-05 0.0018007652 -0.007067305 0.0056642415 -0.006471323 0.005233242 0.0071229604 0.0013990577 -0.0038330061 -0.0028009596 0.0017183208 -0.004052696 -0.007487797 0.0061379657 0.0078028766 0.00241908 -0.0029581666 -0.0013205827 -0.00077673094 0.0020552631 -0.00058625056 -0.0021855917 -0.0073973862 -0.0071060713 0.00019237201 0.004164579 7.657037e-06 -0.005706629 -0.0015048137 0.0022791347 0.0058133057 0.0019427452 0.0050490275 0.0055563073 -0.006828697 -0.0064668525 0.00022839819 -0.007334593 0.006853757 -0.0078061013 -0.0075398884
