64 64
林翰章 -0.20145772 -0.6867806 -0.80581194 -0.08698177 -0.69957054 0.005590818 -0.28834233 -0.27797952 0.42980772 -0.70333433 -0.30080745 0.49412742 0.1922959 0.23200679 0.7013135 0.096616134 0.23446333 -0.1530222 -0.36684826 0.5971161 0.4839696 0.31332305 -0.08847378 0.6234435 0.6805715 -0.10735253 0.62209594 -0.5139446 -0.31619748 -0.36960614 -0.07931047 -0.23775846 0.29623345 0.120262876 -0.20883283 -0.46018136 -0.39065275 -0.14479707 -0.15019727 0.6398177 -0.5037852 -0.20782231 -0.18460149 -0.6626655 -0.6646965 -0.76539034 0.15005414 0.0541353 -0.00073995796 0.23827025 0.19412345 -0.10942604 0.27101022 -0.14125995 -1.2138946 0.06388288 0.6185461 0.072097436 0.7369969 0.15038398 -0.21076113 0.21114947 0.01655409 0.3517681
刘世会 0.22191218 -0.3944168 -0.46288723 0.34428018 -0.5432263 0.12583856 -0.52631795 0.09959918 0.59538156 -0.43216017 0.20666784 -0.15751643 0.6512217 -0.76216805 0.16923366 -0.14159761 0.30073258 0.1643554 -0.329147 0.51130164 0.6964722 0.6014621 0.3840618 0.07419983 0.59288824 0.35823336 0.46006265 -0.3361111 -0.1795103 0.5732187 -0.39888027 0.55125576 -0.28655592 -0.45236766 0.04084479 -0.079345755 -0.26584062 0.4277706 0.2194467 -0.4841075 -0.28122592 0.14127208 0.3804302 -0.6377963 -0.39396906 -0.5586121 0.17145446 -0.25281656 -0.4573539 0.36133394 0.16565473 0.3886294 0.2125967 0.18712938 -0.5830471 0.056018706 -0.36527684 0.51919556 -0.037247125 -0.10855008 -0.28631335 -0.18407623 0.06327726 1.0272282
廖远飞 -0.4895027 0.3819584 -0.08234508 -0.39290306 0.008402592 -0.26724568 -0.080257 0.2848501 -0.44220266 0.18397242 0.042479128 0.42819425 0.5569021 -0.7338011 0.6343812 -0.30467644 0.1566423 -0.111075 -0.49263602 0.1445596 0.03489101 0.3383653 -0.17010283 0.6001245 0.21231224 -0.1651139 0.8584814 0.27523476 -0.22880079 0.16339475 -0.46090475 -0.18431394 0.49758068 0.45631853 -0.24881038 0.25358328 0.32010677 -0.26769894 0.36278346 -0.1738665 -0.16516323 -0.053592023 0.5504182 -0.7857932 -0.14722234 -1.0502361 0.7421076 0.5734131 -0.28045332 0.5309272 -0.23657863 0.39444366 0.29406753 0.5394444 -0.89630586 -0.21726687 -0.09054172 0.20461117 -0.27562255 -0.15869111 -0.67735595 0.4475301 0.14248928 0.26990056
王东 0.2963597 0.035433535 0.41489774 -0.07967462 -0.07438943 -0.105332166 0.14826074 -0.023416352 0.21043748 -0.717157 -0.6135503 0.61255854 -0.02427321 -0.13081245 0.17367971 -0.11198972 0.6039929 -0.21254666 -0.10150187 0.2386947 -0.044130854 -0.2071058 0.5990401 0.47480586 0.70920974 -0.40572557 0.5186597 -0.67499965 -0.3917231 0.08503978 0.08387417 -0.23908153 -0.173487 -0.4558792 0.045312792 0.47105253 -0.24416636 -0.11779837 -0.3522646 -0.20404872 -0.26626438 0.17960845 0.40326035 -0.17164494 -0.15534033 -0.9469109 0.52734166 0.19733332 -0.122338876 0.4707617 -0.07680767 1.2160618 0.3557765 0.0073062005 -0.93285143 0.5190347 -0.4900817 -0.29021212 -0.05499843 -0.49495205 -0.29919618 -0.09002235 0.22303602 0.41541955
顾楠洲 -0.420155 0.34445548 -0.06864156 -0.37153634 -0.02890757 -0.25239134 -0.06322626 0.2975462 -0.4115129 0.16471453 0.05587972 0.35848856 0.51430815 -0.653562 0.5484158 -0.29525593 0.12993602 -0.09402693 -0.4209302 0.09903674 0.015267365 0.30787823 -0.14160891 0.5426936 0.16095202 -0.13334112 0.75814223 0.25286257 -0.24726206 0.16408953 -0.41579416 -0.18603988 0.48048848 0.4165784 -0.22594777 0.20907304 0.25700775 -0.2656696 0.33674395 -0.14416496 -0.1761251 -0.041639823 0.4677982 -0.7241319 -0.16958037 -0.9774959 0.66439706 0.53253555 -0.265805 0.5067549 -0.226842 0.3981804 0.27007902 0.5115341 -0.8333223 -0.1627719 -0.06567659 0.17035218 -0.25221342 -0.1252406 -0.6217688 0.40996727 0.14295822 0.2546298
陈文清 -0.45706114 0.34067565 -0.08164726 -0.3667063 -0.019137897 -0.26595986 -0.07253893 0.2874584 -0.40738273 0.18040965 0.036683522 0.39940453 0.5253876 -0.70077175 0.62937516 -0.30687886 0.16109133 -0.09438438 -0.47342223 0.16402039 0.039457437 0.33244756 -0.14446646 0.58129555 0.21516356 -0.15905222 0.8321913 0.24502563 -0.21878545 0.14075723 -0.4405745 -0.19026446 0.4911246 0.42579937 -0.24324964 0.21957844 0.31113604 -0.2602856 0.3253384 -0.1556605 -0.15948606 -0.078457616 0.528671 -0.7634744 -0.17687483 -1.0247555 0.7051786 0.5331468 -0.25711602 0.5088901 -0.22983445 0.36873102 0.28613552 0.5096341 -0.90330607 -0.20419286 -0.073754124 0.19357383 -0.22817454 -0.15124173 -0.6452645 0.43944958 0.15146941 0.27553138
娄和儒 -0.4224723 0.32940435 -0.08606606 -0.3482778 -0.05261464 -0.2514244 -0.08069 0.29999447 -0.38757133 0.15787885 0.06590427 0.33870214 0.5059312 -0.65293545 0.49617767 -0.2784015 0.09663686 -0.10014517 -0.41298342 0.07200096 0.047644593 0.27653015 -0.1332976 0.51576316 0.13513802 -0.11014062 0.6922251 0.24601576 -0.23910463 0.18341996 -0.40234894 -0.18847282 0.45825872 0.40775496 -0.19814478 0.211235 0.2055208 -0.24344873 0.3416757 -0.14476904 -0.1789465 -0.0438235 0.42436466 -0.705138 -0.16733703 -0.949566 0.63235563 0.5007251 -0.27275795 0.48295408 -0.21356417 0.4283822 0.2595904 0.48528364 -0.7875995 -0.16747183 -0.042204678 0.15951933 -0.242593 -0.108106636 -0.6022588 0.39904797 0.15159318 0.28266424
朱文芳 -0.433582 -0.39310777 -0.24669437 -0.08247888 -0.59449494 -0.14955576 0.25840342 -0.17765304 0.23239613 -0.3235403 0.105834834 0.7250798 -0.6904936 -0.69003224 0.22524364 -0.61022854 0.0972952 -0.25073647 -0.3210563 0.3004436 0.64265645 -0.40259472 0.15941215 0.60067445 0.3741171 -0.20049185 0.16188167 -0.0415546 0.27815086 -0.24058293 -0.6801301 -0.00018409832 -0.27063587 0.09902064 0.6574787 -0.21816678 0.15893163 0.101461366 0.4053168 -0.26946002 -0.23697156 -0.17124742 0.3211989 -0.69186187 -1.1622236 -0.46278638 0.7660084 -0.40767804 -0.68633294 0.25657997 -0.019674227 0.4308559 0.27926987 -0.34852573 -0.3497527 -0.12302604 0.46255863 -0.04103545 -0.23855746 -0.09608315 -0.2562402 0.31396762 0.1782742 0.525035
薛峰 0.19535829 -0.35049617 -0.45314938 0.32185194 -0.508619 0.11744517 -0.49792543 0.10648288 0.5326793 -0.40392357 0.21959841 -0.1313627 0.62966263 -0.7536964 0.16498493 -0.1589976 0.28515187 0.14278407 -0.32667544 0.47951514 0.6604507 0.5880918 0.345362 0.0956813 0.5834074 0.34860843 0.4535724 -0.29275382 -0.1792053 0.54257685 -0.40444967 0.5350531 -0.2514671 -0.4163411 0.033782434 -0.08023315 -0.23718646 0.4075862 0.23073739 -0.4744586 -0.27351356 0.13163218 0.36117625 -0.62730783 -0.38207597 -0.5643845 0.19220181 -0.22083548 -0.43698603 0.34305167 0.13963364 0.38541022 0.20481974 0.18368973 -0.5581697 0.040354177 -0.33880723 0.49662614 -0.046265718 -0.12631269 -0.29090926 -0.14893603 0.06775791 0.9828355
郑晓生汉 -0.4033368 -0.38399598 -0.23134518 -0.058553696 -0.5791763 -0.14937013 0.24115859 -0.1604366 0.23841217 -0.2789951 0.099118695 0.6933105 -0.6552937 -0.651575 0.2212573 -0.5701878 0.11107059 -0.25265244 -0.31440315 0.27450448 0.6167261 -0.37780607 0.15577954 0.5628605 0.3340195 -0.16770087 0.15775624 -0.0379933 0.2714443 -0.22877206 -0.6251614 0.01855315 -0.2693592 0.0988634 0.6219109 -0.20584488 0.15861179 0.10490507 0.38263702 -0.2308412 -0.23531042 -0.16196777 0.2824794 -0.6538941 -1.0848905 -0.40742797 0.7214893 -0.39663917 -0.6512395 0.25356564 -0.024799725 0.39071864 0.2502774 -0.3435536 -0.3214532 -0.11383462 0.43777567 -0.045198537 -0.21522519 -0.09095985 -0.24746588 0.30062473 0.15729679 0.50018024
尹杰 -0.17002897 -0.5152844 -0.6109874 -0.0792131 -0.52630615 -0.014939188 -0.20252778 -0.20395665 0.31064612 -0.5277691 -0.21149397 0.40199116 0.15657143 0.15772231 0.54475117 0.06199436 0.17343594 -0.13575381 -0.29640934 0.45653954 0.36561438 0.23904972 -0.06862404 0.49630067 0.5260572 -0.09374164 0.49315596 -0.37774384 -0.24564788 -0.28845936 -0.06312371 -0.18986118 0.22854166 0.11368791 -0.15120831 -0.3443413 -0.28578952 -0.12396969 -0.10691741 0.47623536 -0.38648924 -0.16781327 -0.13639721 -0.5229306 -0.5128247 -0.6029715 0.12502718 0.053315066 -0.0127590485 0.17822467 0.14499666 -0.07431167 0.2121367 -0.11480424 -0.9453878 0.039923348 0.48286322 0.06272768 0.555006 0.124928735 -0.17636766 0.17906311 0.0059715845 0.2704391
钟晓鸿 -0.17809804 -0.5518862 -0.64678687 -0.074724495 -0.5565999 -0.008298931 -0.23315108 -0.22241357 0.33122936 -0.54726726 -0.2334511 0.41501263 0.16131398 0.18324292 0.583364 0.07823987 0.19091737 -0.13227358 -0.29777968 0.4772729 0.380216 0.2502839 -0.087523445 0.51218295 0.5557725 -0.10261428 0.5102122 -0.40723872 -0.24739915 -0.30940342 -0.06796491 -0.20378666 0.25242707 0.10551175 -0.16027804 -0.36225128 -0.3096955 -0.13025655 -0.12219186 0.51400715 -0.39844263 -0.17575061 -0.14645748 -0.5480236 -0.5329343 -0.6366263 0.13308865 0.043743704 0.0038608408 0.19779915 0.14464203 -0.09926578 0.22382511 -0.11873194 -0.99169606 0.04209717 0.50501186 0.06584883 0.58730125 0.13668123 -0.18252169 0.192028 0.02029122 0.2755781
王幼鹏 0.15431203 -0.29141742 -0.3706148 0.2551779 -0.42735192 0.07710199 -0.3854511 0.07584155 0.44465497 -0.33476466 0.16294637 -0.08223486 0.48937047 -0.6170673 0.15001513 -0.13377702 0.24008355 0.10430629 -0.26293388 0.39059818 0.54645157 0.45477718 0.28821895 0.07427257 0.4669631 0.26958364 0.36666733 -0.2512488 -0.14560793 0.4282007 -0.33448097 0.4070801 -0.19729958 -0.3228616 0.04374539 -0.063270524 -0.1821136 0.32221904 0.19369401 -0.3712048 -0.23658636 0.094689086 0.31217235 -0.5147931 -0.33878127 -0.46972188 0.17472146 -0.1810389 -0.37645477 0.2914052 0.123305075 0.33065316 0.18096825 0.14610201 -0.46737587 0.037616026 -0.26114503 0.39546102 -0.03369669 -0.09436822 -0.24895789 -0.1274325 0.059440106 0.80221057
高尔剑 0.50035876 0.098911375 -0.015200923 -0.3404899 -0.37012285 -0.50284 -0.10345811 0.84021366 0.46386015 -0.09177513 0.08143208 -0.32671607 0.08127729 -0.48716903 0.90695655 -0.50533044 0.9457102 0.18319188 0.34115082 0.69910866 0.5794137 -0.3228059 0.8795968 -0.08050164 0.14428194 -0.0839605 0.31759813 -0.646472 -0.29325512 0.22024456 -0.012400696 -0.4484305 -0.13998638 -0.1336282 0.0340143 -0.53633213 0.1602161 0.15819426 -0.2593349 0.23220435 -0.066542454 -0.3166569 0.39227548 -1.0858525 -0.5574184 -0.23236178 0.109180875 -0.38480288 -0.47055697 0.17947873 0.074954115 0.58704305 0.058659703 0.3097691 -1.4690781 -0.14809678 0.06072375 0.020727618 0.2612887 0.2077773 -0.34881714 -0.022715164 -0.034214206 0.53312427
裘颖颖 0.458048 0.082158834 -0.012842278 -0.30917317 -0.3659446 -0.4660448 -0.1102892 0.7851453 0.44062766 -0.0866905 0.055289555 -0.30037162 0.10904685 -0.47590074 0.8570986 -0.5030896 0.8995265 0.16089062 0.2961671 0.6714058 0.56287193 -0.3013225 0.81187046 -0.07454278 0.13804719 -0.08992282 0.3096915 -0.60202616 -0.26718336 0.24092679 -0.04862268 -0.42071337 -0.14275074 -0.12856068 0.033328485 -0.4912011 0.1647044 0.15227489 -0.23189385 0.19985305 -0.06136256 -0.3162282 0.3995088 -1.0432537 -0.5521357 -0.26597 0.14519623 -0.34898192 -0.48335877 0.20536056 0.07961973 0.5932729 0.06791368 0.30369514 -1.4101278 -0.15216735 0.0660215 0.03821682 0.2280811 0.18601939 -0.36703154 -0.015055109 -0.035623852 0.5446415
杨青 -0.11263376 0.21001896 -0.84847003 0.10427103 -0.22409578 0.04231883 -0.35905164 -0.14472958 0.81813496 -0.05214424 -0.6388847 0.03651181 -0.17138663 -0.121164836 0.31163955 -0.040159915 0.5227027 0.19311689 -0.23351865 0.2884631 -0.25687715 0.40460446 -0.33450803 -0.13307841 -0.04853001 -0.17328855 0.19871034 -0.4886074 0.4577668 -0.019344822 -0.77536094 -0.5470004 0.22462699 -0.45084438 -0.38792154 -0.59364915 -0.07069184 -0.2822504 -0.11715665 -0.209779 -0.59915155 -0.15987559 0.13712254 -0.43373227 -0.91590846 -0.7648096 0.35874864 0.086631894 -0.49374643 0.30240902 0.6577375 0.43892926 -0.13969749 0.42969692 -0.82371837 0.16470735 -0.62170494 -0.10626047 -0.09823361 -0.15415765 -0.24511756 0.37360695 -0.14324275 0.60211277
陈强 -0.110881485 0.21260443 -0.8328882 0.0894525 -0.24636169 0.03310568 -0.34812665 -0.13811068 0.7896301 -0.045080964 -0.6156142 0.034421887 -0.13540289 -0.14060827 0.32789633 -0.051254023 0.50384206 0.20326754 -0.22081183 0.2851516 -0.22516754 0.4001831 -0.31838292 -0.1171386 -0.035353635 -0.15895817 0.2042839 -0.47774598 0.4394208 -0.021114713 -0.7666901 -0.5304105 0.21735498 -0.41661862 -0.36967245 -0.57807255 -0.07934752 -0.27202928 -0.08576536 -0.19620383 -0.5918374 -0.16242743 0.1438535 -0.4410554 -0.90803576 -0.7580947 0.3619874 0.0777703 -0.4810936 0.29972163 0.63819087 0.44779795 -0.12621272 0.42564505 -0.8137319 0.16309462 -0.5959314 -0.09865948 -0.11044967 -0.15679215 -0.2686679 0.3713629 -0.12781131 0.6184435
于宝明 0.10832587 0.43147475 -0.6053388 -0.26148272 -0.08635428 0.04850228 0.33174312 0.2275332 -0.029282788 -0.80433285 0.048388407 0.05330976 0.16307649 -0.9083987 -0.28848475 -0.35933515 -0.19971108 0.016592707 -0.12909193 -0.05110826 0.6339826 -0.22224994 -0.20805788 -0.06867348 0.21183564 -0.1261886 0.11575323 -0.24857505 -0.28129694 0.24972229 -0.44098067 -0.41040987 0.3285131 0.032864857 -0.12908791 -0.34851176 -0.011039706 -0.31822002 0.5270471 -0.017571779 -0.538854 -0.5951882 0.6377228 -0.08040033 -0.24266462 -0.6423941 0.10358923 0.37173378 -0.8284642 -0.38239563 0.65596014 0.9692022 0.5597939 0.50391465 -1.1289278 0.2527858 0.24326348 -0.118128374 0.23508397 -0.12994611 -0.37641555 -0.5179943 -0.10871037 0.9729473
贾丽巍 0.10411411 0.42980462 -0.5934389 -0.25502896 -0.061552122 0.061559364 0.3169106 0.23627566 -0.047052655 -0.7852946 0.054936923 0.06040695 0.17209587 -0.88742685 -0.28362834 -0.34549785 -0.20468482 0.013471566 -0.13767357 -0.06968631 0.60916835 -0.20734978 -0.22209775 -0.07477294 0.2186938 -0.111140124 0.11458089 -0.23013633 -0.29723853 0.23217604 -0.4274473 -0.3967433 0.3404874 0.04877927 -0.13578242 -0.3376879 -0.0016218252 -0.32539156 0.5169189 -0.013925098 -0.5351964 -0.5856051 0.6303103 -0.068417326 -0.1985902 -0.6267432 0.09767851 0.3841972 -0.7981008 -0.38194418 0.650976 0.95207936 0.55962193 0.50404197 -1.1185877 0.2574586 0.24809426 -0.100070454 0.24175987 -0.12472171 -0.3767527 -0.50945336 -0.12556852 0.94940054
王爱朝 -0.15949498 0.081872255 0.21738145 0.024250746 -0.1993704 0.0030718225 0.020081379 0.089874856 -0.045620807 0.14411578 -0.65505254 0.8230204 0.1737007 -0.5614076 0.009379447 -0.021525612 0.31447032 0.22483534 -0.3926382 0.6047812 0.4905202 -0.3427787 -0.126744 0.21284814 -0.12302595 -0.19446193 0.089508 -0.13517903 0.3007568 0.35177356 -0.48421293 -0.5317425 -0.26049626 0.4744993 0.05032686 0.59413016 -0.40197435 -0.1865562 -0.13487934 0.44589365 -0.120209634 -0.5695932 0.19323099 -0.16328254 -0.78719866 -0.47274473 0.31225124 -0.067469686 -0.45117226 0.45041472 0.32291454 0.98584104 0.071835265 0.5681002 -0.71074414 0.21127647 0.017915087 -0.3081762 0.22869533 -0.06881205 -0.312736 0.052766815 0.13021486 0.7482733
李福民 -0.18101865 0.076893635 0.21323778 0.015976684 -0.20996031 0.014239211 0.015330611 0.078481704 -0.020414075 0.15523292 -0.68868977 0.8565719 0.18193708 -0.5861227 0.010922417 -0.02436 0.31461927 0.25170654 -0.41825956 0.6318616 0.52016056 -0.35308108 -0.14885587 0.20926432 -0.13558489 -0.21030699 0.08709141 -0.13305923 0.33375654 0.36549762 -0.5184419 -0.5667034 -0.28050593 0.49243924 0.062443495 0.6035584 -0.41699505 -0.18483083 -0.12937441 0.46324033 -0.14409421 -0.61152726 0.19010353 -0.17514686 -0.8501853 -0.50057006 0.32462853 -0.069060184 -0.49519 0.46080044 0.35629106 1.0252874 0.06564378 0.5978021 -0.72626424 0.22317906 0.03284533 -0.3279507 0.23995648 -0.07999831 -0.3399983 0.061638966 0.11747246 0.7875054
苏剑 -0.31957522 0.24187212 -0.093234405 -0.28730035 -0.06443219 -0.20922412 -0.07458489 0.24918523 -0.2870163 0.103425 0.06269634 0.25043616 0.40682468 -0.53032047 0.42505336 -0.24369375 0.10907045 -0.068355195 -0.33049685 0.069529794 0.050249428 0.23395018 -0.08526124 0.422472 0.12150847 -0.09663647 0.5798813 0.16929266 -0.22105592 0.13838525 -0.3323494 -0.16461366 0.37567165 0.31477338 -0.17471823 0.1281077 0.14833498 -0.20148359 0.2679104 -0.09363714 -0.16142169 -0.026109673 0.34364673 -0.5950498 -0.17151377 -0.7894595 0.5123649 0.39930272 -0.23344547 0.4050301 -0.1591406 0.36548662 0.20957658 0.40933222 -0.6817648 -0.1110648 -0.024049832 0.121490106 -0.17052862 -0.0697113 -0.48039812 0.3166858 0.12574235 0.23518622
皮勇华 0.18290296 0.021342985 0.28026795 -0.07349712 -0.07381842 -0.09526368 0.091414616 -0.011343021 0.14339696 -0.5440445 -0.4567935 0.47562695 0.01550749 -0.13960025 0.16353174 -0.10264702 0.4540255 -0.15326007 -0.107626505 0.19050083 -0.017553769 -0.1438284 0.43692327 0.39215118 0.5485423 -0.31547403 0.43158004 -0.4953681 -0.29915437 0.07652205 0.02114733 -0.18649694 -0.1032886 -0.32159922 0.030471299 0.35483646 -0.17192803 -0.09239041 -0.24001122 -0.16862927 -0.2135999 0.13509357 0.336744 -0.19625024 -0.1465585 -0.7787967 0.43285254 0.18105903 -0.1331649 0.38780695 -0.05598757 0.9380608 0.2899243 0.032681376 -0.75792223 0.38093776 -0.36210674 -0.21045886 -0.042441618 -0.37348413 -0.26441976 -0.037410907 0.17586257 0.3538802
卢旭阳 -0.16401325 -0.4985681 -0.5946939 -0.058863927 -0.5140997 -0.008725736 -0.21294118 -0.19970846 0.3067057 -0.51572376 -0.21941021 0.38560435 0.13834263 0.14347696 0.52169186 0.061266698 0.16668083 -0.1159682 -0.27902249 0.43596697 0.34409812 0.23092553 -0.07593864 0.47144827 0.5115392 -0.07813729 0.46420255 -0.37605426 -0.22014032 -0.2634297 -0.0725988 -0.18216799 0.22315094 0.08964688 -0.1410081 -0.3422563 -0.27911246 -0.12286919 -0.08841043 0.45248687 -0.3793313 -0.15708195 -0.12255302 -0.5001669 -0.5082139 -0.5819812 0.14137231 0.03245717 -0.029395921 0.18339701 0.15441087 -0.06733935 0.19318216 -0.09387163 -0.8946984 0.045228194 0.44756076 0.055118494 0.526971 0.116638124 -0.16463168 0.1673631 0.007915888 0.26560983
许露露 -0.1514455 -0.5058406 -0.60032684 -0.066399746 -0.5405065 -0.018139878 -0.21677849 -0.20124274 0.32696778 -0.5323703 -0.22524779 0.38876575 0.15281488 0.11764656 0.54548883 0.047608703 0.19387782 -0.11811637 -0.29750663 0.4530516 0.38392863 0.21771811 -0.0615154 0.48531997 0.52890867 -0.08253556 0.48252887 -0.38592428 -0.23709124 -0.2564233 -0.08082935 -0.19676659 0.21028185 0.09311076 -0.1394301 -0.3420899 -0.2744032 -0.11093337 -0.102635264 0.45950535 -0.38658723 -0.15790066 -0.10286253 -0.5360004 -0.53840584 -0.61865187 0.14029892 0.02736262 -0.03694094 0.19042917 0.15983573 -0.03297124 0.21539797 -0.10104321 -0.9489582 0.048449557 0.45926875 0.06536961 0.5321702 0.10707083 -0.1856085 0.16999845 0.017906195 0.30467328
张学凡 -0.3600852 -0.33450732 -0.22023211 -0.06596067 -0.5220906 -0.13634567 0.20922557 -0.14513776 0.23016001 -0.2842631 0.06319641 0.61917484 -0.56093115 -0.58270705 0.21045835 -0.50999945 0.10261071 -0.20471172 -0.27719977 0.27800584 0.5679402 -0.33048895 0.15472004 0.505284 0.32807788 -0.17076422 0.17137954 -0.058460865 0.21522965 -0.19025615 -0.57602084 -0.009353286 -0.24299774 0.08232676 0.5484561 -0.17694782 0.10506121 0.09925309 0.33764818 -0.21418162 -0.21692082 -0.13987064 0.265252 -0.60455614 -1.001959 -0.40741923 0.6476574 -0.35149145 -0.5888299 0.25190333 -0.007477301 0.36709538 0.24196208 -0.29415613 -0.33506668 -0.09287988 0.38105577 -0.023172561 -0.18663009 -0.08807941 -0.23875144 0.25569326 0.15332443 0.47391856
李喻春 0.1869275 0.03674592 0.29436287 -0.06495297 -0.06788256 -0.08538056 0.10302592 0.0018268764 0.14531516 -0.52130544 -0.44985467 0.48105818 0.008828166 -0.14375472 0.14745165 -0.09813673 0.44966403 -0.15535016 -0.11392211 0.20059192 -0.0019445653 -0.14939705 0.42934716 0.37134263 0.5246549 -0.30796784 0.4167794 -0.48249117 -0.28902495 0.08252887 0.021107472 -0.18515001 -0.112022795 -0.30541623 0.043849006 0.35993814 -0.16338293 -0.092112124 -0.2364509 -0.14656794 -0.20394902 0.11322103 0.32609707 -0.17162155 -0.15650702 -0.75084174 0.42239377 0.1670315 -0.1256805 0.37289107 -0.049276233 0.9317633 0.27767327 0.040884912 -0.73769647 0.37266636 -0.3420252 -0.20914751 -0.03509393 -0.35858127 -0.25246906 -0.041028295 0.16296858 0.35110337
詹有力 0.14031343 -0.26787937 -0.3345692 0.22321595 -0.38068232 0.08348932 -0.35139042 0.072279796 0.39978904 -0.3021551 0.147064 -0.083996125 0.45227545 -0.53861266 0.14273581 -0.119465664 0.21959127 0.10900826 -0.234056 0.35563612 0.4807903 0.41217595 0.24278384 0.06405491 0.42423534 0.23972523 0.3267698 -0.22734524 -0.13804376 0.3860518 -0.29028738 0.3599289 -0.17822048 -0.2885226 0.032984253 -0.06283473 -0.17842363 0.28085783 0.1625029 -0.32481658 -0.19835941 0.07856174 0.26223445 -0.4658937 -0.2844196 -0.4135011 0.14757422 -0.1633833 -0.32338327 0.25867388 0.10721434 0.29125544 0.16044503 0.14203571 -0.4288961 0.032979775 -0.23355415 0.3520692 -0.02328507 -0.08420808 -0.211879 -0.107398085 0.05068012 0.71289825
高泉 -0.29926884 -0.28729385 -0.21978256 -0.06006782 -0.4620135 -0.11125691 0.15177242 -0.08916686 0.19444528 -0.24142204 0.07364993 0.52580386 -0.45592427 -0.5105923 0.22120336 -0.43504906 0.12212062 -0.18869641 -0.24498342 0.24190594 0.49316677 -0.24558003 0.13861465 0.4451632 0.30174038 -0.13559566 0.1677044 -0.058641694 0.17026715 -0.14797011 -0.4729053 -0.0029809575 -0.16974537 0.06394336 0.4409972 -0.16610861 0.11854323 0.07892499 0.28400472 -0.170361 -0.20843373 -0.13659213 0.24841404 -0.5440212 -0.8493451 -0.37580827 0.557374 -0.27272978 -0.5148048 0.20174357 0.0059765168 0.31601742 0.21901387 -0.23307346 -0.35499364 -0.09065625 0.3251996 -0.019931667 -0.1340085 -0.06463923 -0.22558862 0.23410892 0.12768134 0.4203575
张谦 0.15690628 -0.005389362 0.23305725 -0.051866464 -0.08414747 -0.06873118 0.0904876 -0.021683326 0.15026963 -0.495685 -0.43781272 0.4510768 -0.01339926 -0.10477385 0.14580868 -0.08395666 0.4216425 -0.14834554 -0.10375119 0.19700019 0.0054689045 -0.13730302 0.37846938 0.35151646 0.49686372 -0.27986073 0.37958285 -0.46852335 -0.26442066 0.045263287 0.00474693 -0.17750801 -0.095423944 -0.29073206 0.029650211 0.30821678 -0.16732356 -0.099530384 -0.23390058 -0.11138775 -0.21526504 0.10734334 0.28138614 -0.16446958 -0.1596817 -0.6985941 0.3809126 0.14066115 -0.11222812 0.3371643 -0.028263886 0.84015936 0.25184125 0.016017972 -0.69728047 0.34935805 -0.29758146 -0.20180443 -0.018972887 -0.3283013 -0.23422596 -0.035151068 0.15056466 0.32571095
丁强 0.10510019 -0.22573416 -0.32198474 0.15806763 -0.37519598 0.05527752 -0.30484757 0.07662678 0.3606448 -0.28736642 0.11032752 -0.025072442 0.38020194 -0.5278485 0.15922822 -0.13386951 0.21437961 0.06897331 -0.22870284 0.3520272 0.46643057 0.34150532 0.22592396 0.100830674 0.40684766 0.1862874 0.33940554 -0.22841977 -0.13330568 0.3305625 -0.29765218 0.28172794 -0.12783933 -0.24219088 0.025432749 -0.07402363 -0.1498357 0.22488639 0.15057996 -0.26960018 -0.22308877 0.04239466 0.27098748 -0.47823772 -0.32655546 -0.45517898 0.18599951 -0.11851726 -0.33720335 0.26006395 0.10746611 0.31395915 0.17314476 0.14229622 -0.498807 0.03245813 -0.1872824 0.3021213 -0.021249188 -0.078387596 -0.2362236 -0.067436315 0.04844519 0.6882472
钟伟民 -0.13096796 -0.33140364 -0.44114175 -0.07812668 -0.40640026 -0.035164658 -0.14621678 -0.0929201 0.2360838 -0.38767907 -0.1599896 0.31405133 0.1334879 -0.026124757 0.41748333 -0.029850235 0.19277847 -0.08022195 -0.24894191 0.36959237 0.31760955 0.15165335 -0.015486567 0.3816215 0.4033395 -0.08416941 0.4036633 -0.29727364 -0.17656185 -0.1436838 -0.1381638 -0.16405064 0.15767696 0.07500115 -0.08799169 -0.23459907 -0.17616826 -0.07914176 -0.034264866 0.28802085 -0.30151725 -0.12775937 -0.007901804 -0.4578529 -0.44097862 -0.53030264 0.18834275 0.032581765 -0.11192148 0.19655699 0.11477492 0.07777239 0.1766561 -0.010526504 -0.7948098 0.037632696 0.30104998 0.041910768 0.352174 0.062698744 -0.19364567 0.14382343 0.026336947 0.30860358
郑小霞 -0.2515238 0.169865 -0.09185212 -0.20614386 -0.06359194 -0.15354228 -0.05539646 0.14667942 -0.17185245 0.012246669 -0.007703239 0.26694086 0.29436684 -0.44021896 0.39065918 -0.19834839 0.14853312 -0.060696814 -0.29680267 0.15341379 0.08654157 0.18872052 -0.062499937 0.34862366 0.17975555 -0.10330105 0.5048809 0.071858056 -0.15001132 0.103582166 -0.27753413 -0.123649254 0.25554478 0.22334343 -0.13990483 0.10582083 0.13064404 -0.15478693 0.18629453 -0.08675425 -0.13629971 -0.044564776 0.31431365 -0.49670795 -0.16885875 -0.6565889 0.44083518 0.29275405 -0.19544022 0.32050124 -0.08372146 0.2881359 0.1994827 0.30097026 -0.6300899 -0.08234689 -0.030213522 0.09987511 -0.10750183 -0.08844033 -0.39117277 0.23705064 0.088981286 0.23607951
梁永生 0.0068337964 0.006300534 0.0020906548 0.0073074587 -0.00432528 0.007200308 0.0025823438 0.00023579279 0.00059598906 -0.0074434346 -0.0018206688 -0.0033187075 0.0043373727 7.902367e-05 0.0022590575 0.004577682 0.0046021724 0.0070615234 0.003745967 -0.0021095397 0.00013243975 -0.00042130606 -0.0020091678 0.0027821758 -0.001008876 -0.0033037285 -0.0030833862 -0.007089385 -0.002423781 -0.00020018363 -0.0005442246 0.0038121399 0.0033749738 0.00582131 0.005609831 0.00509795 0.0040129544 0.0027707142 0.0039836084 -0.0010141936 0.0051889094 -0.007632851 0.0039292034 -0.006967688 0.0019138722 0.0012583141 -0.0021688673 -0.0057246014 -0.006306358 0.0029348568 -0.0064191627 0.0044395523 0.005664601 -0.0058494085 -0.0053452486 0.004949479 -0.0019579045 -0.004364216 -0.0049984823 0.005535608 -0.0015634745 0.005510233 0.0033192586 -0.0012705604
王策飞 -0.002866541 0.00458197 0.0049704625 -0.0072646798 0.003739442 -0.0029152487 -0.00012431861 -0.0010119749 -0.001635598 -0.006115979 0.002408009 -0.0072662435 0.002578237 0.0056453147 0.005589531 -0.0054678125 -0.003098679 0.0015369512 -0.00647358 0.006209016 -0.002245556 -0.0043171262 0.0003277518 0.0059356457 0.002474899 0.006121367 -0.0045318156 0.0034715054 0.005393937 0.0066161864 0.0015673452 0.0057320604 -0.0053688926 0.00066485314 -0.0027709012 -0.0046026427 -0.00070118374 0.003201524 0.0073885275 -0.0059519643 -0.00063197507 0.00418733 -0.0021251207 0.0012035331 -0.0048939595 0.0015012067 -0.00094549276 -0.0015294029 8.779982e-05 -0.00723364 0.0063957344 -0.0011336013 -0.00047142422 0.0043848986 0.0023654166 0.0002500804 -0.0031140004 -0.0006116867 0.0028616074 0.00022637038 -0.0075950315 -0.0010857305 -0.007181053 0.006508895
艾传荣 0.005922526 -0.0045194454 0.001981544 -0.0073051434 0.0026482109 3.2466152e-05 -0.0064532096 -0.0023215453 0.0057935184 0.0051256395 -0.0042286487 0.007379506 0.003997265 -0.0072825435 0.0024408838 -0.0034738544 -0.0053944173 -0.0076049343 0.0054071997 0.0046533816 0.0075857057 -0.0066492236 -0.005164395 -0.005738467 0.002076943 0.007181679 -0.0013164047 0.0023611032 -0.0023418583 -0.005687202 -0.0057073385 -0.006083811 0.002047386 -0.0049639507 -0.0005387266 0.0058590914 0.0025198415 -0.0055012973 0.0053031747 -0.0012089855 -0.0075275563 0.0068493146 0.0064003924 0.007781731 -0.004222486 -0.004675661 0.0064321198 0.0011567074 0.004327411 0.0006359019 0.0009228576 -0.0023097764 -0.0012834943 -0.007797242 0.0055127637 -0.0008537323 0.004651101 0.0009732963 -0.006072181 -0.0055702897 0.0073891943 0.001381591 0.005742304 0.006968889
凌冲 -0.0028833642 0.0022719442 -0.000672142 0.004544123 0.00021759744 -0.0034169261 0.00011819083 0.0043807747 -0.0074410555 0.0011147988 0.0059685484 0.003722668 0.0042254026 0.0019489855 0.0037036936 0.0023770884 -0.006558621 0.0028102105 -0.0027731298 0.0013783603 -0.0067079286 -0.0065024723 0.005331346 0.0037474178 -0.007664972 -0.004818829 0.0077476935 0.0022627094 -0.0051258635 0.0033561508 0.0076982877 -0.0060089026 0.0016482273 -0.007627719 -0.0020080302 -0.0051236446 -0.003712939 0.004401182 0.0038126467 -0.0040633497 0.0005791153 -0.0049001873 0.007712176 0.0018670086 0.0013333267 -0.0003241066 0.00084193144 -0.0024424423 0.0023555602 0.002388918 -0.00474478 -0.003182462 -0.0037536484 -0.0052477783 -0.0072940444 0.0054338705 0.002130908 -0.006136276 0.0006382583 -0.004009723 0.005084381 0.001432658 0.0061635203 0.001966511
刘伟 -0.0051051127 0.003271618 0.0054150675 -0.0009838536 0.00015519811 -0.0039872387 -0.0047808914 0.0019524809 -0.0033208074 0.0013827797 -0.0033881785 -0.0043732594 0.007219337 0.0037255236 0.0064771227 -0.0038063389 -0.004898748 0.006917969 0.006177355 -0.0069707567 0.005708312 0.007100863 -0.005909206 -0.002123899 0.006356771 0.0059826095 0.001466799 -0.005994321 0.0071584233 0.0020992206 0.0075888946 -0.0013034483 -0.0043183407 -0.002863907 0.0031160566 0.0013510538 0.0060391347 0.00060272496 0.0035176785 0.0029513878 0.0018032964 -0.0067324424 0.0014189612 -0.0015610271 -0.005984631 0.0030900298 -0.0017748907 0.0060018 -0.0029191193 0.002447554 -0.006786627 -0.0060860654 -0.0009506151 -0.005729249 0.0004388149 0.007680234 -0.0032075346 0.0018208307 -0.0053901044 -0.0048740013 0.0046417196 -0.0012554119 -0.0044535124 0.0038231062
张亚立 -0.0008180548 -0.007603779 0.0022605404 -0.006898881 0.0010516263 0.002559439 0.0023539693 0.0068174913 0.0013750071 -0.0061768093 0.0015270462 -0.006499462 -0.0045470768 -0.002474831 -0.0052823527 -0.005712024 0.0055986214 -0.002694197 7.209577e-05 0.003628636 -0.0045587877 0.001637188 0.0014554586 -0.0014595926 0.0029668373 0.0028608392 0.0014187084 -0.005084788 -0.0066533685 -0.00058577553 -0.004399994 -0.00703663 0.006064584 0.0072403816 -0.0011572044 -0.001095513 -0.0043662307 -0.0014943657 -0.0051355646 0.001009593 -0.0020946108 -0.002924128 -0.0019669805 0.0071986136 0.0061317137 0.00058625 -0.005181588 -0.001515401 -0.0073200343 0.00047684394 0.0048612226 0.0048263483 -0.0070045437 -0.006670685 -0.007500514 -0.007580716 -0.00456161 -0.0029490034 -0.0049055554 0.004980563 -0.0063494416 -0.0014205609 -0.00063778646 0.0037262435
张福通 0.00035574258 -0.00044838883 -0.002917291 -0.007579778 0.0022509394 0.0026738117 0.0022319327 0.0035558336 -0.0027818251 -0.005089496 0.0017100114 -0.007420981 0.0006873765 0.0005455892 0.0046895235 0.0032243764 0.0034020091 0.0035433224 0.00082791224 -0.00682416 -0.0012769653 -0.007237645 0.003981038 -0.00235145 0.0022641153 -0.0023853781 0.0011937357 -0.002233248 -0.0014224101 0.006749029 -0.0008823178 -0.0017982788 -0.0005715405 -4.1111252e-05 0.0022268756 -0.0025841675 0.0042255637 -0.0009948597 -0.0076688947 -0.007627083 0.0033947187 -0.0015665699 0.0021668002 0.00260112 0.0060302923 0.006568296 0.002662569 -0.0025061967 0.0031212345 -0.0042179897 0.0044309497 -0.0039989464 -0.0065158685 0.002929075 -0.005741901 -0.0057038767 0.006452792 0.0034180356 0.0073815607 0.0017735816 -0.0070568635 -0.0004719522 0.0051286984 0.0008024814
贾兴东 -0.0027283381 -0.0010271381 0.0068046567 -0.0010473259 0.0046285596 -0.00030110715 -0.0061646216 -0.0032210487 0.00085371354 0.0057603843 -0.0007005732 -0.0058657597 0.0006858489 -0.0026352184 -0.0053607426 0.004416345 0.00012925453 -0.007563795 0.0030158306 -9.966128e-05 -0.0029666626 -0.004239609 -0.0007143184 0.0068886387 -0.003598519 -0.0020096481 -0.005777338 -0.0032363161 0.0022300503 -0.002788818 -0.006897526 -0.0036712138 0.005743589 0.003186509 -0.0077645513 -0.0074218074 -0.005317152 -0.0021013708 0.0010053366 0.004616822 -0.0028563987 0.0050262683 0.0020164489 0.005083877 0.002748008 0.0060077533 -0.0075627007 0.0014623399 0.0008159873 -0.005407156 0.0043345843 0.007251036 0.0043922886 0.00097812 0.003230964 0.000735831 0.0017410076 -0.005135329 0.003356567 0.0006303393 0.0056082495 0.0045325193 -0.0016245863 -0.006295174
徐志斌 0.00533872 -0.007149455 0.00402394 -0.004901943 0.005861792 -0.0014591934 0.0010536502 0.0065836115 0.0016755394 -0.004517387 -0.0014007309 -0.0001900916 -0.001974061 -0.0033387544 -0.004832202 0.002775811 0.0036981709 -0.006027055 -0.0032227817 0.004682507 -0.004427023 -0.0020143273 -0.0035625522 0.0030927896 0.005605606 -0.0025632782 -0.0017646143 0.006113018 -0.0077542434 -0.0043614116 -0.0059684473 0.0073271235 0.006013635 -0.0013417889 0.002429452 -0.0014358565 -0.00511888 0.004035745 0.0065317317 -0.0021868756 -0.004907738 -0.0067514563 -0.0069290185 -0.0054253004 -0.00030349265 -0.002112918 0.0074311276 -0.0021154142 -0.00012599924 -0.0018822793 0.0045689964 -0.0007757193 0.006565606 0.0056390166 0.00081764045 0.005071294 0.005360395 -0.007407191 0.004248694 -0.0027057205 -0.0058476864 0.0049933027 0.005856929 -0.004471665
黄臻 0.0035173043 0.006962277 0.0060753743 -0.007409496 -0.0037013388 0.006927608 0.002017307 -0.004501789 -0.0072595295 -0.0025210264 -0.0065255496 0.0026043504 0.005832073 0.0056300047 -0.0037427773 0.0069526304 -0.0033598787 0.007339443 -0.0014902786 -0.0059058294 0.0010224428 -0.0026347951 -0.0011560877 -0.0050055287 0.0039957073 -0.006509894 0.0009709012 -0.0075011165 -0.0055230646 0.0019752926 0.0037770993 0.0034293125 -0.0018072157 0.006025513 -0.0067278706 0.0033453556 0.0019617544 0.0029437472 -0.0050582485 -0.006342175 0.0026416164 0.006077295 -0.0050016046 0.0017111951 -0.001188248 -0.004812619 -0.0066512367 -0.00034844858 -0.007754572 0.0064955563 -0.0013414004 0.0036684193 -0.007449768 -0.0017312218 -0.0004391696 0.0046356334 0.0050228904 -0.0029280393 -0.0007329492 -0.00092862255 0.0038230862 -0.000120562036 -0.0059497417 0.0010558445
周岸标 0.00087019557 -0.0016779864 0.0021598535 0.0013949214 -0.005078992 0.0004638532 -0.00422054 0.00015791343 -0.0005445905 0.0066200495 0.0033831443 0.004390249 -0.0014120479 -0.00022807212 0.0032468098 -0.005965064 -0.006246606 0.00011082502 0.005165538 -0.003062847 -0.005096884 0.0045533343 -0.0003987738 0.0031809558 -0.005550778 -0.0013132207 0.0013928252 -0.005528517 -0.004880469 -0.0022107956 -0.0038827357 -0.00028144682 -0.00067721494 -0.0023454367 0.004358235 -0.006680545 -0.0050152475 0.0068845996 -0.007486075 -0.00224544 -0.0076534613 0.00719778 0.0052113156 0.00063094957 0.0044453517 0.0007029656 -0.003601352 0.006797411 -0.0053773443 0.006496428 -0.0056669316 0.002954571 0.005453797 -0.006817489 0.0001641156 0.0019646557 0.0012122783 -0.0036525615 0.0019191806 -0.0055301543 -0.0030484346 -0.0074752048 -0.006149401 -0.00056568504
高瞻 -0.0052801156 0.00434157 -0.0022767517 -0.0050372686 -0.0044854465 0.0038973647 0.0044471608 0.0034070343 -0.0053553544 -0.0012813347 -0.0031577945 0.006208362 0.0001717849 -0.0022118245 0.0015620355 -0.00021672739 -0.00344044 -0.0075739343 -0.005435831 -0.0041937195 0.00681409 -0.006166972 -0.0061821016 -0.0034636485 0.002087336 0.00086933444 0.0021207356 0.004084783 -0.007690351 -0.00022515008 0.004017858 0.0005110687 0.0009349893 0.004082884 0.0031964374 -0.0031230396 0.0042113476 0.0064613223 -0.00057819014 0.0056890384 0.004898623 -0.0027118956 0.007087847 0.0027698386 0.0015752836 0.0010152981 -0.005583963 0.003405872 0.0022087118 0.0042656623 -0.0018222024 0.0032805966 0.006927152 0.0033805997 -0.0039159013 -0.005403071 0.0014834617 -0.0016944036 -0.007046568 0.0015104897 0.004505371 -0.0030402902 -0.0021010048 0.0073270546
徐忠平 0.047941584 -0.14271428 -0.20747295 0.100967705 -0.25514448 0.015760249 -0.19276115 0.04371763 0.23804794 -0.20141794 0.045208827 0.02126705 0.24055664 -0.34482962 0.12202582 -0.08500112 0.15909773 0.04012208 -0.16776343 0.2442785 0.3071332 0.21858852 0.1476013 0.09980594 0.2694976 0.1014733 0.23349541 -0.15367751 -0.07873993 0.2071748 -0.19801424 0.14248045 -0.08407188 -0.13715795 0.012932756 -0.040562015 -0.0987104 0.13013797 0.09294624 -0.16408055 -0.1634729 0.011028981 0.17941344 -0.32209432 -0.24444106 -0.32271755 0.13539922 -0.069050804 -0.23144127 0.17981435 0.07009093 0.22800535 0.113259904 0.103746936 -0.36822176 0.028954118 -0.10418961 0.17883721 -0.006893272 -0.06278411 -0.17254148 -0.029545268 0.03730472 0.45351622
吴远翔 -0.16465756 0.11697107 -0.057443194 -0.13887717 -0.028045475 -0.10300134 -0.042113796 0.12280666 -0.13282451 0.035618156 -0.005762315 0.17396434 0.20051116 -0.2862208 0.25156707 -0.116646335 0.08651598 -0.040622517 -0.17611592 0.08072427 0.051004007 0.12515955 -0.03919005 0.21851091 0.09649187 -0.06792199 0.32716003 0.05850129 -0.089172624 0.070415825 -0.17585342 -0.08736934 0.1732248 0.14900388 -0.08972486 0.07679326 0.09249384 -0.09394469 0.11958674 -0.055811245 -0.07943294 -0.035183895 0.21188697 -0.31174636 -0.10269745 -0.412982 0.27881923 0.19349875 -0.13327539 0.2008714 -0.07219759 0.19344583 0.11565547 0.20703757 -0.38775992 -0.070159234 -0.028003937 0.06272374 -0.07374053 -0.04950964 -0.25625116 0.14879355 0.052620564 0.14402005
肖民 0.0045608645 0.0037706166 0.00624329 0.0048391456 -0.0076893987 -0.005600198 -0.0025210283 0.00058437145 0.0037932827 -0.0032524508 0.004379613 -0.0038478912 0.002855987 -0.00036327753 0.003629045 0.0035597368 -0.0060553984 -0.007219265 0.007195128 -0.0013870755 -0.0020803064 0.0017766096 -0.0042180195 0.006494199 0.0032267985 -0.0042400756 0.0015604013 -0.007100213 0.0033192842 -0.0057739327 -0.006955295 0.0065807006 -0.0056462507 -0.003987265 0.001859162 0.0049162465 -0.0077800155 0.00095684145 -0.0048335707 0.00048791344 0.0045423866 -0.0026086331 0.0018928166 0.001989479 0.007316104 -0.0059747323 0.0044925935 -0.0035179344 -0.007247833 0.0009120037 -0.007626161 0.0046283514 0.003510444 0.0077423006 -0.00042193357 -0.003838817 -0.00022557627 -0.0073192944 0.006177098 0.00172489 0.0070876162 0.0075173294 0.0075866543 -0.00397201
胡晓清 -0.0019963905 0.00030990914 -0.007415084 -0.0021589212 0.003013821 -0.0067602242 0.0018870853 -0.006844372 0.0036567694 0.0036736608 0.0040177167 0.0044307727 -0.0033348098 0.0016370632 0.0047304314 0.0016757487 0.0028028798 -0.006314934 0.005394723 0.006246206 -0.007069408 0.004739217 0.002654118 -0.005815163 -0.0072460007 0.0024789681 -0.004917667 -0.0027979675 0.0043398705 -0.007415323 0.005647933 0.0007428303 0.00037245738 0.0041595623 0.002600818 0.0068980046 -0.0067838416 0.0066808974 0.0074358117 -0.0052104495 0.0020385957 -0.0003047232 0.005772635 0.0069607864 -0.0019943365 0.0048487913 -0.004681795 0.0040378626 0.0063948436 -0.0019275805 -0.0009507386 -0.002329643 0.0052445997 0.0033005993 0.003913075 0.004929158 0.0053266142 -0.0006834147 -0.002356014 0.0029546057 0.00743095 0.0074063092 -0.0044849385 -0.0038624953
刘初汉 -0.0027124027 -0.0027208226 -0.0076550306 0.005336901 -0.0007568342 0.0001100648 -0.00030787935 -0.0072822957 0.004483754 0.0028316185 0.0053994497 0.0030659875 0.003884668 0.004833099 0.0043676808 0.0016784999 0.0014768288 0.0018872039 0.005081142 0.0019185874 -0.0036598882 -0.003931338 0.001109349 0.0077023073 0.0030032543 0.0045494484 -0.007261315 -0.003031171 -0.0058923783 6.8873334e-05 -0.0070192595 0.004381854 -0.0066482737 0.006362173 0.006375422 0.0051896814 0.0031351822 -0.0002002461 0.0023013123 0.0039417115 -0.006326729 -0.0055118413 0.00681305 -0.0039788396 -0.001603471 0.007477501 -0.005757924 0.0065799737 0.005165559 -0.0049424097 -0.007115025 0.0073190248 -0.0067589725 -0.0021911338 -0.00026499762 0.00747191 0.00038872234 0.0061421045 -0.004535629 -0.0047829757 -0.0038324683 -0.0062019434 -0.003766964 0.0019168698
吴学龙 0.0033192944 -0.003832342 -0.0052083815 -0.006297154 0.0013807517 -0.0007272049 0.0045535327 -0.0038664276 -0.0076289643 -0.0035194422 -0.0015359499 0.001091585 0.0017220394 -0.00018953571 -0.0022902335 0.0058536786 -0.005112456 -0.0036243312 0.0071379715 0.0065891575 0.004656899 -0.006214123 -0.005101672 -0.0033500502 0.004298102 -0.0006583721 0.0015182837 0.0053637293 -0.00524257 0.007025042 0.0050405585 -0.003315731 -0.00028358272 -0.005380345 -0.0026556132 0.00338831 0.0039587435 -0.0001246819 -0.0030752544 -0.0061168484 -0.004484504 0.0056995726 0.0060990225 -0.0035144174 -0.0050802394 0.0015313382 0.002544837 -0.0052440325 0.0048960852 -0.004872716 -0.005315541 -0.0009771402 0.0057963296 0.005910667 0.005725398 0.00027687152 0.0034119796 0.00385298 0.0063107396 -0.0014473753 0.006192591 -0.004488081 0.006525035 -0.0046996837
聂新平 0.0051010326 0.0011439737 0.0068025365 0.0039633536 0.003303281 -0.0016040015 0.0027032208 0.005659804 0.004859655 0.0042206123 0.002252932 0.006692378 0.0012021104 0.002101994 -0.002051086 0.0028749527 -0.00401477 0.00081000046 0.002705377 -0.0026601942 0.0017048158 -0.0028093979 -0.0032097793 0.0063280766 -0.0046149455 -9.305502e-05 0.0025855245 0.007706591 -0.003508391 0.00048326416 0.00709257 0.002665775 -0.0077829612 -0.0036442997 -0.0036166252 0.005169662 0.0063971193 -0.0038239127 -0.0007993732 0.0030391603 -0.0023198992 -0.0025789903 0.0020624078 0.00647446 -0.007526149 -0.0074701123 -0.002558032 -0.0013148459 -0.0024135287 -0.0058660186 -0.0074433098 -0.0031559446 0.0038805678 0.0020367876 -0.005906257 -0.0030717389 -0.0028758433 -0.0018573336 0.0064905533 -0.00044825976 -0.0051909285 0.0059716646 -0.001855788 0.0019698204
曾岳雄 0.0049858205 0.0048174025 0.0077205338 -0.001123449 -0.0066694813 0.0008303576 0.0047538537 -0.0017447743 0.0028700158 -0.0063910554 0.0069989916 -0.0010080673 0.005681454 0.0030016585 -0.0011679314 0.0014768699 0.0011077428 8.214348e-05 0.0076710414 0.0031745892 -0.0062221983 0.0058101933 0.0010706414 0.004483813 0.0052270046 0.0006077232 -0.006370512 -0.0027752393 0.002573514 0.0013034038 0.003121504 0.004993937 0.0025916086 -0.007358217 0.0050863996 -0.0073024277 -0.00034535766 -0.0057708337 0.0029335234 -0.0053850054 0.00478155 -0.0015003294 0.007363863 0.005945092 0.00012295014 -0.0012622091 0.0006257794 0.00539724 0.0067702024 -0.0045693554 0.0009200336 0.0077299424 -0.0014082137 -0.0067708613 0.0037871662 -0.0013417667 -0.0016613001 -0.00019901813 -0.00521425 -0.0072263605 0.005888031 0.0034104912 0.003984779 -0.0031811965
沙新华 -0.0012058924 0.00429592 0.0044740867 0.0015134024 0.003027194 0.0059016068 -0.005461798 -0.007579566 0.0020717243 0.0066009504 -0.0036421174 -0.0011472616 0.005817959 0.0066190744 0.004447156 0.0057591135 0.0036790222 -0.0041135303 0.005156651 0.004787075 -0.0027821676 0.0050299764 0.0005514588 0.0028603002 -0.00766612 0.002514723 0.0048512 0.00054261327 -0.0076401434 0.00543817 -0.0028809602 -0.0032085825 0.0038043058 0.0049996893 -0.0016382197 -0.0010565616 -0.0042379717 0.0016067158 0.0068441476 0.0024587554 0.0020234748 0.0077917627 0.0031205583 0.0030985598 0.0008766226 0.007630624 -0.00557084 0.0050010984 -0.004801692 0.006381937 0.0023371729 0.0048809643 0.004512086 0.0004549871 0.0010904521 -0.0023638303 -0.005227805 0.0015370222 -0.005543835 -0.000858816 -0.0076102717 -0.00649834 0.0005789203 0.005953854
张陆 -0.18089232 0.11132681 -0.11219779 -0.1520327 -0.08915434 -0.12066256 -0.047871083 0.111948825 -0.08141722 -0.020131366 -0.027802406 0.22696981 0.23426612 -0.35859835 0.33574015 -0.15198143 0.14695968 -0.04367295 -0.23113488 0.1642373 0.10053548 0.14251004 -0.028112922 0.3046248 0.17571954 -0.092727125 0.42677173 0.013909763 -0.1168836 0.061530743 -0.23512812 -0.12175367 0.1915238 0.14035864 -0.089902274 0.046457596 0.09451848 -0.10786733 0.13857943 -0.052543808 -0.14238317 -0.055142425 0.27061898 -0.41585463 -0.19608715 -0.56103384 0.356977 0.20501833 -0.1786634 0.27344903 -0.050848577 0.27678663 0.1614661 0.22681344 -0.5588995 -0.046134487 -0.017397478 0.08243843 -0.05336261 -0.07963221 -0.3204969 0.19587414 0.07750153 0.23740537
郭建 -0.17577681 0.12390122 -0.040866334 -0.15031253 -0.030395035 -0.104654334 -0.035623938 0.11335941 -0.15071215 0.04693841 0.0014645081 0.1857654 0.2030699 -0.2930941 0.2564359 -0.118708454 0.08209126 -0.051002886 -0.18821193 0.07022118 0.0328486 0.12867427 -0.039736357 0.24454613 0.10294806 -0.05746356 0.3393607 0.08498068 -0.09565547 0.06475604 -0.19017111 -0.07357938 0.17311032 0.16808769 -0.08322675 0.08336542 0.1010395 -0.09634004 0.13345858 -0.061670113 -0.0767903 -0.030532463 0.21142365 -0.31776187 -0.09888024 -0.42039573 0.29868352 0.19653298 -0.12899454 0.21020836 -0.07589679 0.17192724 0.12069768 0.18989937 -0.38341802 -0.07311056 -0.023652703 0.067926 -0.094755575 -0.059892956 -0.26693988 0.16358861 0.05807154 0.13019045
邱宣 -0.007168714 -0.0056387084 -0.00036517085 0.0005951199 0.0033009662 -0.003603296 -0.004884062 -0.007233057 0.0029844437 -0.006661327 -0.0077074394 0.00013019788 -0.0002758325 4.4634162e-05 -1.5745965e-06 -5.3592947e-05 0.0063087866 -0.003331441 -0.0012274755 0.001729242 0.00083719194 -0.00011715244 -0.002605034 -0.0047962517 0.0072033238 0.004772699 -0.006639483 0.004146584 0.006557975 -0.0061810454 0.007541645 -0.0019551911 0.00082693854 -0.0074006976 0.0029022156 0.007648598 -0.00050580135 0.0040515647 -0.0014180391 -0.0076494273 -0.007304625 -0.0022159328 0.006265186 -0.0033343027 0.0016906209 0.0023320802 -0.0009787705 0.0050674607 0.0008066539 -0.0072236774 -0.003835051 0.003250358 0.00065377884 -0.0025040356 0.00022497014 0.00078233174 0.0059107277 -0.005478924 0.0007884512 0.007786538 -0.006880061 -0.0070281737 0.005950209 -0.0042045116
王伟雄 0.004170352 0.0060935724 -0.0061696814 0.0013208763 -0.00039114823 -0.0007402485 -0.0001232867 -0.007286428 -0.00080633553 0.006789896 -0.0053320928 0.0040611564 -0.006706176 0.00191114 -0.0010959596 0.005078566 0.0075159986 0.0070190653 -0.001902147 0.00076434086 -0.0010144118 0.0018149706 0.00028918128 0.0008075063 0.007658521 0.0033053185 0.0027859304 0.005390718 0.0025662764 -0.0040508197 0.0048068054 -0.0035808566 -0.0052095084 -0.007718049 -0.001013883 -0.0006918131 -0.0019129724 -0.0033821163 -0.0032832026 -0.007672478 -0.007771228 -0.002549567 -0.007330097 0.005496845 -0.0076868427 -0.0028018497 -0.005260325 0.0073915976 0.0029200583 0.00518816 0.0052350764 -0.0025032996 0.0018144237 0.00096929574 -0.0005161608 0.0010193213 0.0032287473 -0.00513807 0.005959586 0.0012154629 0.0032470962 0.0072254553 -0.0065665958 0.005517155
张礼卫 -0.10777023 -0.24385247 -0.35444182 -0.050998256 -0.33928925 -0.023679173 -0.12669839 -0.080593236 0.20134789 -0.3124595 -0.13244793 0.26837948 0.11197305 -0.06879817 0.32977867 -0.025397446 0.15317449 -0.063056044 -0.21201272 0.29817608 0.2786177 0.12486579 -0.013531932 0.30225343 0.32210365 -0.058170017 0.3376831 -0.24088891 -0.133194 -0.0883055 -0.13776086 -0.124453306 0.11870131 0.060143694 -0.07188839 -0.17513539 -0.1466914 -0.060357034 -0.010569877 0.21856715 -0.2560718 -0.11927012 0.02898103 -0.39620388 -0.38559845 -0.45922342 0.15697566 0.022613164 -0.115878716 0.164158 0.112676896 0.10999 0.14776859 0.0024599656 -0.6570782 0.025294553 0.22468007 0.04110605 0.26398364 0.030665252 -0.18069677 0.10189293 0.025126612 0.28732577
余璟 -0.0054856692 0.0014464562 0.0018283608 0.0064335847 0.0031970786 0.0017872731 0.005672632 -0.0048265746 0.006611228 0.0077704564 -0.00077228126 -0.0031734048 -0.0049528866 -0.005389138 -0.0061406693 0.007391973 0.007381998 0.0018415425 -0.002905938 0.0045036306 -0.0072527817 -0.0016883393 -0.006884579 -4.6655932e-05 0.0018007652 -0.007067305 0.0056642415 -0.006471323 0.005233242 0.0071229604 0.0013990577 -0.0038330061 -0.0028009596 0.0017183208 -0.004052696 -0.007487797 0.0061379657 0.0078028766 0.00241908 -0.0029581666 -0.0013205827 -0.00077673094 0.0020552631 -0.00058625056 -0.0021855917 -0.0073973862 -0.0071060713 0.00019237201 0.004164579 7.657037e-06 -0.005706629 -0.0015048137 0.0022791347 0.0058133057 0.0019427452 0.0050490275 0.0055563073 -0.006828697 -0.0064668525 0.00022839819 -0.007334593 0.006853757 -0.0078061013 -0.0075398884
李郑祥 0.0010317044 0.00053755235 -0.0006807154 0.006231374 0.0039566606 -0.0010666896 0.0021112456 8.3394425e-06 0.0067269616 0.0047585927 0.0048314454 0.0010891195 0.0030891146 -0.0062248027 0.0020512033 -0.006641453 0.0040852563 0.0014290346 -0.0010362616 -0.0075725643 -0.00028149318 -0.0028350588 0.0024932039 0.005826853 0.005488877 -0.00541893 0.00453192 -0.0024750836 0.0062284605 0.007313821 -8.52112e-07 -0.00745983 0.000507094 -0.0034207334 0.006025603 -0.007073328 -0.0027691606 0.0024363727 0.0035457714 0.0012106701 -0.0044817133 0.006407219 -0.0025435695 -0.0069197924 -0.0068165516 -0.001700992 0.0063414527 0.0065473644 -0.0076467777 -0.00046924714 -0.0071513364 0.006807381 0.0056798416 0.0046901233 0.006052033 -0.0074327383 -0.004819893 0.004234818 0.0043488005 -0.005657937 -0.0047606775 0.0019061373 0.0009976593 0.0013090172
钟海 0.006114478 -0.0026579625 0.0046886727 -0.0023360087 -0.006616266 -0.00010825245 -0.006951762 0.0040336857 -0.002035039 -0.0076206615 -0.0060155685 0.0052904515 -0.0069939583 -0.006953071 5.9407368e-05 0.004574415 -0.0052496847 -0.004343406 -0.002805305 0.003763912 0.005700097 -0.00026055245 0.0076667853 0.0044452795 0.0029134604 0.0057724128 0.006481326 0.0018825586 -0.003752593 -0.0040121577 -0.0054261433 -0.0023280892 0.00040106615 -0.0013401607 -0.0031088144 0.005402684 0.001627505 -0.0005086035 -0.0003733669 -0.00031677913 -0.0060264533 -0.0006415432 6.405613e-05 -0.0021318702 0.0013626805 -0.0038278599 -0.0038796756 -0.0010293451 0.00088208244 0.001445755 0.006468329 0.001628058 -0.0019644664 0.0016737857 0.0040662787 0.0044656424 0.0025634307 0.0050944146 -0.0051352633 0.0037392888 -0.0046058395 -0.0020609063 -0.0073913513 -0.0037819867
贾长胜 0.005811146 -0.0077264216 -0.003914859 -0.0045717186 -0.004151259 0.0007165959 -0.0044680955 0.0029048335 -0.0072428905 0.004585113 0.0016446076 -0.00083299447 -0.0011398551 -0.0010406327 0.00091284624 -0.0045973295 0.0009157713 -0.0051438073 -0.003562696 0.0024121837 0.0070847543 -0.002997263 0.0059837345 -0.006147809 0.006557557 -0.0062577995 0.0032881806 -0.007256807 -0.0016441635 0.0069610667 0.0009855719 0.004255204 0.0030395926 -0.00091592525 -0.007602937 -0.0005330755 -0.0066697593 -0.0011125518 -0.006959909 0.0073458333 0.003228364 -0.006543804 -0.005844535 -0.006775454 0.0018632573 -0.0043169926 0.007156901 -0.0017915787 0.0002348991 -0.0017335758 -0.0065971585 -0.0070493827 0.001327103 -0.003952069 0.0029249347 -0.0028000697 -0.004048479 0.0074952096 -0.0014709517 0.004996393 0.0077677136 0.0066521536 0.0032190606 -0.0064715776
邓晓俊 -0.0048341686 -0.00095435226 -0.0068797763 -0.004655938 -0.0026153722 0.004472967 0.006859772 0.006452293 0.0018729054 -0.005349412 0.0040903576 0.0054410803 0.005903155 -0.0062763738 0.0036052167 0.00044493453 -0.00022244426 -0.007366647 0.0025006572 0.0016546377 0.001225572 0.0035555772 -0.0015804346 -0.0021048686 0.006626908 -0.00649262 0.0006476855 0.0066109714 -0.0072981315 0.0044888193 0.0029728343 0.001438628 0.007526417 -0.0064783744 0.002373968 0.0075372662 -0.0016749772 -0.0041778563 0.000603813 -0.002315445 -0.0011307567 -0.0044437894 -0.0042186812 -0.004714662 0.00024918915 -0.005357775 0.0071558515 0.000749998 -0.0071248715 -0.0035106319 0.0019115767 -0.002805949 0.001137468 -0.0053494754 -0.0078000356 0.007151754 -0.0034619751 0.005599727 -0.007560261 0.0067502703 -0.0052461047 0.006579198 -0.003815838 -0.00027337924
