131 16
29 0.13031882 -0.23729418 -1.0013336 -0.16037884 1.0442265 2.1746051 0.7394039 0.9894996 0.22469448 0.24582922 0.067623556 -1.0705452 -0.30846402 0.72917986 -0.07750731 0.96434397
152 0.13798688 -0.2585158 -0.9211751 -0.18257472 0.96190286 2.1626027 0.691169 0.92271066 0.18692937 0.21078372 0.12684382 -0.9943007 -0.351338 0.74186766 -0.057649136 0.9460307
84 0.6252882 0.17820999 0.21455301 -1.6970943 1.0966234 1.3975483 0.59642893 -0.5259715 0.6451319 0.92728895 -0.5115694 0.30271062 0.6481203 -0.86455125 0.9565711 -0.62863785
171 0.14778769 -0.22963358 -0.9296715 -0.19299652 0.9418216 2.0735552 0.64518744 0.9174199 0.15930565 0.21882278 0.083515346 -0.9804537 -0.32116976 0.7057887 0.009216996 0.9035539
157 0.6090684 0.17107382 0.17184602 -1.6974771 1.0736144 1.3899893 0.5820194 -0.57089776 0.61080104 0.89575624 -0.47610393 0.29690024 0.6335514 -0.8096637 0.91641515 -0.5852873
146 0.631789 -0.09445107 0.607926 -0.9961442 1.4969765 1.9698716 -0.60576403 -0.09314224 0.30852368 -0.25602302 -0.32477966 -1.5873954 -2.153658 -2.8562891 1.0402666 0.08557535
110 -0.30880418 0.8705742 -1.4929729 -2.9323878 -0.5425712 2.2341797 0.07350614 -0.88103735 -0.9359104 0.88304394 -0.34381175 -0.68916065 -0.46982938 -0.26164517 -0.7606211 0.10048941
180 -0.6496989 -0.8007695 -0.779956 -1.8047622 1.326423 1.5768982 -0.22706036 -0.43327197 0.4655281 0.6474857 2.113562 -0.2783592 -0.5958037 -1.9298382 -0.8328468 0.47737718
6 0.17744714 -0.26551664 -0.97462523 -0.115426324 1.0271662 2.2203186 0.71616596 1.0186654 0.1947655 0.17230277 0.075060286 -1.0487534 -0.27442506 0.7618517 0.0015652751 0.9491207
66 0.63856506 0.20120284 0.20713565 -1.7542521 1.1050794 1.3393326 0.58617353 -0.5828321 0.69141144 0.9151644 -0.53483796 0.33318827 0.6723974 -0.8941441 0.93384695 -0.65620965
54 -0.34923697 0.90001804 -1.5470682 -2.9959168 -0.6302134 2.3462665 0.07029795 -0.9105378 -1.0022798 0.8928715 -0.28069827 -0.7839965 -0.47777262 -0.20929228 -0.8094623 0.13106592
7 0.16629216 -0.23737471 -0.9333945 -0.13734801 0.99096084 2.0340347 0.6122338 0.8899822 0.21339448 0.17931059 0.110681996 -0.94221854 -0.30872893 0.6800791 -0.028890586 0.9105406
178 0.67457634 0.1451196 0.18704805 -1.7409086 1.1233364 1.4621054 0.6377164 -0.55426943 0.66118383 0.9221751 -0.5613024 0.33111408 0.67082435 -0.89818484 0.9939355 -0.62956864
65 0.62140197 0.17790101 0.20464772 -1.6951185 1.1266586 1.3442916 0.61228275 -0.5544774 0.64720595 0.89311796 -0.49072886 0.31355894 0.6534939 -0.8590781 0.9068789 -0.59956306
8 -0.6602523 -0.8036461 -0.78654236 -1.6478813 1.2727064 1.4484702 -0.25419024 -0.43937647 0.45069164 0.59027904 2.0442283 -0.24202132 -0.57904506 -1.903881 -0.80583173 0.44333375
42 0.70139766 0.18754283 0.23535502 -1.8094862 1.2083967 1.5419511 0.6268623 -0.63220733 0.6921348 1.0013664 -0.53951156 0.28128976 0.72465026 -0.9070981 1.0324575 -0.6250698
113 0.20272455 -0.2668355 -0.9435117 -0.1164477 0.9527248 2.0893319 0.6910731 0.9001405 0.16344279 0.24328439 0.06883147 -0.9597686 -0.3150592 0.6914242 -0.028987978 0.8932415
155 0.6044685 0.18642499 0.2305144 -1.6346269 1.0629233 1.3577306 0.5615232 -0.55806583 0.61439294 0.8308748 -0.4828562 0.2757525 0.590515 -0.80380577 0.93530947 -0.62088776
85 1.1654615 1.1070527 -0.07683801 0.2958092 -1.0146108 2.9990075 0.81524825 -0.1657367 0.6000129 2.3275518 -0.55937046 -0.726021 -0.49894607 -2.0574708 -0.018317413 0.7534877
25 0.62724024 0.20254357 0.2298387 -1.6509473 1.0371583 1.3524594 0.5974024 -0.5689868 0.6126879 0.88340074 -0.51117444 0.3105013 0.68724096 -0.82837284 0.93585575 -0.5856655
111 0.10691587 -0.22700563 -0.9520653 -0.14675184 0.95045453 2.1278331 0.6583586 0.9693559 0.1580816 0.21428798 0.13180542 -1.0413681 -0.32619172 0.7477665 -0.059876896 0.95373344
53 0.5842261 0.19138162 0.21584722 -1.6940213 1.0668598 1.3743614 0.6011316 -0.5801311 0.6348292 0.90353286 -0.4940387 0.32372782 0.62650925 -0.84046584 0.95289445 -0.62300336
134 0.58462363 0.17597383 0.2305648 -1.654673 1.0788227 1.2844716 0.59817517 -0.5231171 0.6574591 0.8639399 -0.5119448 0.29955715 0.6656784 -0.82093674 0.9284064 -0.62993234
80 0.598427 0.463678 -0.04388051 -1.5717372 0.88222533 0.9292975 -0.71295196 -0.14162089 0.5697871 1.9281939 -1.4642321 -0.9718997 -1.342907 -0.37909207 -1.8797866 0.6311843
142 0.13474618 -0.27813148 -0.95424473 -0.17734635 1.0332295 2.1817455 0.6500148 0.9367487 0.18400814 0.22875768 0.08089412 -1.0130575 -0.31514284 0.6881276 -0.08468618 0.9281384
109 -0.5641557 -0.8184035 -0.77965397 -1.7189851 1.3067594 1.5009285 -0.24788547 -0.4201071 0.48312816 0.6511567 2.0165038 -0.29375887 -0.57021093 -1.9407731 -0.73725927 0.43548077
37 0.6363271 0.1614931 0.17104372 -1.6996524 1.139688 1.4343023 0.6287553 -0.5805285 0.6360459 0.93952197 -0.53516513 0.3248214 0.6689087 -0.9156478 0.9719415 -0.6178803
104 0.16597289 -0.22856319 -0.9589857 -0.12706065 0.94389087 2.086358 0.69929445 0.9255511 0.21501695 0.22255144 0.10430902 -1.0012668 -0.3316907 0.7272238 -0.051391322 0.95199126
87 0.14240174 -0.23759261 -0.9192873 -0.17699012 0.9552693 2.0143728 0.644713 0.8785062 0.15501189 0.21000457 0.09500305 -0.94067425 -0.27440545 0.6772392 -0.009613127 0.85019445
43 0.63703996 0.48564905 -0.065540336 -1.5618309 0.8260206 0.91753405 -0.6594038 -0.10403668 0.57349116 1.9365157 -1.4664723 -1.0457771 -1.3229138 -0.4095416 -1.837031 0.6352049
123 3.1346335 0.06959776 0.3944104 -1.5301149 0.4063972 2.0929372 -1.4474134 0.8780252 -0.43163988 1.5642966 1.1193187 -1.218446 -0.61400455 -1.0700717 -0.261209 -0.14855152
100 0.6112731 0.21112753 0.22421402 -1.6983093 1.0621167 1.40101 0.5969249 -0.5506324 0.6318386 0.9102701 -0.49768624 0.3126385 0.6184084 -0.84709156 0.9562378 -0.60663587
96 0.14108297 -0.25680658 -0.8899027 -0.17295966 0.92425 2.0499847 0.6395688 0.8610186 0.1548712 0.23213463 0.06833508 -0.97915006 -0.31552222 0.6274608 -0.039195184 0.8910872
150 0.6694441 0.19318977 0.2073578 -1.7070541 1.0878583 1.3780411 0.5979413 -0.5179578 0.65911406 0.9045353 -0.51816505 0.3075739 0.62519604 -0.8881822 0.94642544 -0.6351991
136 1.0650709 0.101846285 -1.4051895 -0.6995896 1.5169922 1.5891306 -0.7305314 1.7066417 0.91122746 -0.45203987 -1.377003 -0.86804307 0.16345455 -2.5893779 -0.38246977 -1.3985932
106 0.4521373 -1.1475785 -1.757738 0.047655508 1.1010876 0.7664499 0.9905274 0.296916 0.13151306 2.2643507 0.24342453 -2.2590604 -0.56999475 -2.103244 -1.4496562 0.35664126
22 0.13542226 -0.28376332 -0.95127237 -0.1331403 0.9740245 2.1196444 0.67104745 0.9200383 0.18489987 0.1806608 0.08002697 -0.99321705 -0.2537152 0.69595784 -0.07124884 0.90858376
112 0.19712786 -0.28092417 -0.92003655 -0.18106468 0.96876293 2.042251 0.5934632 0.94585264 0.16967082 0.20826688 0.08781213 -0.9636872 -0.2890914 0.7078213 -0.052835003 0.90252703
165 1.1411911 0.12740494 -1.4797244 -0.78958386 1.590745 1.6670568 -0.73057556 1.7266467 0.93239045 -0.35379755 -1.4445112 -0.9047047 0.11526162 -2.6697986 -0.4109255 -1.3724929
170 0.625904 0.4855908 -0.027591644 -1.5945386 0.89990324 0.8454178 -0.7480533 -0.10045297 0.6059079 1.978148 -1.4709476 -1.0467448 -1.3325962 -0.37032238 -1.8745208 0.6443902
161 0.6373916 0.15010236 0.16984555 -1.655873 1.0731803 1.3666356 0.55681115 -0.5122369 0.5784643 0.8475322 -0.46045098 0.26384702 0.6540302 -0.8728641 0.9297691 -0.6278496
145 0.63550067 0.14514232 0.18125315 -1.6601373 1.0707313 1.3792897 0.5909365 -0.49525687 0.59289867 0.88304555 -0.49584457 0.28532776 0.5934886 -0.8400743 0.87752575 -0.61352366
103 0.6381221 0.18518128 0.15961653 -1.7183106 1.1219128 1.3977177 0.58417356 -0.552843 0.59702504 0.9208455 -0.47757804 0.32422423 0.6233523 -0.8523679 0.94150656 -0.5860302
48 0.6358641 0.5041196 -0.009910353 -1.6188091 0.86989325 0.8300604 -0.76538175 -0.091650106 0.6101909 1.9541743 -1.4821391 -1.0077314 -1.3320633 -0.360526 -1.8578713 0.6290882
114 0.8905498 -0.025054323 -2.073003 -1.2622384 1.5095448 1.8295149 0.0033967132 0.36424986 -2.3804617 0.69255567 -1.938316 -1.1605446 0.832486 -0.7040923 0.24980876 0.20816696
59 0.16994154 -0.2351052 -0.9410803 -0.13635343 0.96275496 2.043206 0.6152284 0.9172298 0.1761451 0.23038104 0.09190851 -0.96699095 -0.30176228 0.6573648 -0.069883026 0.8732623
125 1.041696 0.9929983 -0.097933106 0.32190192 -0.9741549 2.7845085 0.7625377 -0.14032477 0.5340617 2.1572595 -0.49518135 -0.6565558 -0.4548729 -1.8443438 -0.054783177 0.7155692
10 0.63387394 0.52640516 -0.076711826 -1.6038082 0.80783707 0.9381872 -0.7574364 -0.10774334 0.51883245 1.9744635 -1.4672626 -1.0605836 -1.3601433 -0.37364787 -1.9347333 0.63872266
27 -0.33575103 0.8332969 -1.4490566 -2.8234842 -0.5684441 2.188145 0.12864669 -0.8671968 -0.88959515 0.8248885 -0.27668327 -0.71320266 -0.45747316 -0.19749625 -0.7250127 0.11257592
128 0.20318604 -0.2350631 -0.8595224 -0.18386605 0.92146677 1.9389352 0.6418052 0.8653212 0.1945856 0.21955313 0.05903442 -0.8925144 -0.30441836 0.6066317 -0.03859887 0.8353488
101 0.20860301 -0.2524343 -0.9056097 -0.118768774 0.92100954 2.0466046 0.6446648 0.93538797 0.15629926 0.2169286 0.12678704 -0.9555578 -0.2825008 0.65160197 -0.043012183 0.8748756
160 0.13848843 -0.24934217 -0.9492285 -0.09782765 0.9748272 2.087977 0.66842103 0.9922459 0.20541842 0.17840636 0.09237191 -0.99837875 -0.25508487 0.79535383 -0.0029990068 0.89040464
70 0.64932567 0.19101651 0.18907356 -1.6849933 1.0076641 1.3749397 0.61539936 -0.5792942 0.5728135 0.91432226 -0.5280494 0.32893106 0.65594494 -0.8353724 0.94084996 -0.6398285
127 0.6092001 0.52209413 -0.042808864 -1.5885448 0.7855164 0.84508306 -0.70476526 -0.13178255 0.54726845 1.9324453 -1.4682634 -1.0249686 -1.3583493 -0.39099678 -1.866513 0.6238674
74 0.15153308 -0.2642527 -0.90843415 -0.15876709 0.9766088 2.052394 0.6811364 0.8941632 0.16206218 0.18514417 0.08362438 -0.9634491 -0.29932094 0.70433265 -0.09509922 0.87697154
164 0.19795862 -0.2333334 -0.8765029 -0.1361512 0.909727 2.005243 0.61751527 0.86867034 0.13845697 0.18240006 0.0788907 -0.93370134 -0.32526287 0.69135976 -0.052835964 0.8423003
82 0.5419543 -0.4690249 -0.0675257 -2.209998 2.2923124 -0.0036707933 -0.5619878 1.9655648 1.678029 1.8213427 0.31635055 -0.9197637 0.22866395 -1.2489036 -0.15610564 1.5305997
12 0.39724958 -1.1784066 -1.8099406 0.12171 1.1187345 0.73736995 1.066254 0.32201338 0.111283995 2.2952182 0.27940527 -2.3191202 -0.6138792 -2.151531 -1.5103555 0.36178225
141 -1.249084 -2.065132 0.52331567 -0.25737843 2.2475796 2.4933083 0.2978709 -0.728408 1.1929538 0.8264627 -1.9182777 -1.1587316 0.7012456 -0.7787319 -0.5932288 1.1095991
32 -1.2011039 -2.0162525 0.5572515 -0.33916318 2.1659935 2.513693 0.35938263 -0.7586498 1.1994647 0.8715206 -1.8604653 -1.1796229 0.6617166 -0.77184266 -0.61055344 1.0862521
5 0.62392306 0.124105945 0.2120673 -1.6808205 1.0341763 1.3379288 0.5648965 -0.54621255 0.63473725 0.85741407 -0.47604918 0.33659664 0.6020077 -0.84020865 0.87545353 -0.5974663
89 0.6252266 0.15988654 0.24792926 -1.6818571 0.9926464 1.2641792 0.5491404 -0.55460364 0.6371405 0.8579865 -0.5045337 0.33887208 0.62881505 -0.8367799 0.9348575 -0.64155537
102 0.15959613 -0.25471526 -0.9243195 -0.18082097 0.9739673 2.0489438 0.6359138 0.8716091 0.170958 0.20613068 0.052707423 -0.9862334 -0.301895 0.6997488 -0.08173398 0.8592773
81 0.4187145 -0.43654287 -0.935692 -1.0126379 0.48578748 2.4666002 0.9672602 0.7990457 -0.18999366 0.043020282 -1.9815583 1.0012218 0.7027504 -1.9022219 -1.7248437 1.7918915
17 0.47383276 -0.4699927 -0.9027895 -1.0373137 0.5006894 2.3810186 0.9092317 0.8145824 -0.20503104 0.046631917 -1.9620062 1.0422543 0.7352724 -1.9396266 -1.7046533 1.7944634
18 0.52768576 -0.4388421 -0.033524908 -2.2211168 2.2742007 -0.048386145 -0.61054045 1.9647721 1.6477611 1.8415737 0.24646826 -0.924375 0.2548725 -1.2314124 -0.18840805 1.5950142
176 0.16394897 -0.26844135 -0.9244191 -0.21743692 1.003563 2.1355877 0.66372 0.8895375 0.11398842 0.24605876 0.14606032 -0.9745655 -0.295448 0.7008349 -0.019204233 0.90528804
156 0.105367236 0.4054311 -0.76183873 -1.0011504 2.0561566 1.1735609 2.0288858 1.3014262 2.1523 0.10758193 -0.51929986 -0.7399866 -1.9898567 -1.6504633 -1.3039712 -0.45861992
34 0.16428122 0.42006797 -0.7395534 -1.0208098 1.9453181 1.1286124 2.0440245 1.2726462 2.108423 0.11496441 -0.566375 -0.7664061 -1.9987587 -1.5594305 -1.2432156 -0.44597346
124 1.7241588 -1.8992434 -0.7054356 -1.3171579 2.7134604 2.8227963 -0.81754494 0.1391407 -1.3818611 0.75832564 0.47550416 0.7226802 -1.5701331 0.5269379 -0.512977 -0.31453434
115 1.5796456 -1.6967275 -0.5887715 -1.1719205 2.4307783 2.501436 -0.7603716 0.112355016 -1.2426283 0.7221293 0.35855997 0.68801636 -1.4019297 0.36636388 -0.5334274 -0.24991046
172 0.6710231 0.16117263 0.24970241 -1.6200045 1.0827394 1.3189292 0.5649652 -0.5708967 0.6301324 0.85450536 -0.49463373 0.3330124 0.6133288 -0.90255433 0.95558536 -0.64605653
63 0.18557699 -0.25063497 -0.827659 -0.19714423 0.8838689 2.0039606 0.5947167 0.8428799 0.14546984 0.15088642 0.09582061 -0.9114711 -0.2555805 0.6710394 -0.043295164 0.805705
162 -0.3460228 0.8720009 -1.4792054 -2.9027216 -0.59788823 2.2287536 0.07321294 -0.87439704 -0.93173087 0.84113485 -0.28035492 -0.7147506 -0.43731 -0.19193436 -0.7266936 0.14130883
52 0.5240599 -0.38073888 -0.13064387 -2.1183238 2.1253872 0.08496431 -0.5120542 1.8040695 1.5256745 1.7662898 0.17666763 -0.87622446 0.22264802 -1.1574574 -0.2103476 1.4847089
26 0.91329265 0.012612918 -2.002157 -1.2303412 1.5100561 1.8254322 -0.000654686 0.34600142 -2.2635765 0.66059005 -1.8864938 -1.1206857 0.8198301 -0.789162 0.29454157 0.17612492
61 2.8876083 0.059172757 0.40820768 -1.3839346 0.30058715 1.9736153 -1.3594611 0.73677725 -0.47097394 1.4259268 1.0164392 -1.1240032 -0.64900154 -0.98432535 -0.26608655 -0.102758855
47 0.11886061 -0.269106 -0.8933849 -0.16484538 0.9511808 2.0638394 0.6825171 0.8995865 0.15939204 0.19204976 0.09619076 -0.93317187 -0.29327685 0.7302693 -0.007687036 0.90903974
58 0.66235626 0.17408071 0.18597165 -1.6434611 1.099561 1.3618679 0.58143926 -0.5372306 0.57995707 0.9112257 -0.5116805 0.26996613 0.61621094 -0.8383561 0.88667876 -0.59171635
55 0.17107248 -0.23421568 -0.8956954 -0.16024435 0.99457157 1.9841805 0.6150017 0.89692307 0.16556856 0.21625097 0.0702557 -0.9674711 -0.34153083 0.6800338 -0.03393422 0.8379041
158 0.19026838 -0.22817744 -0.9384524 -0.17157641 0.92647934 2.077955 0.621277 0.9454548 0.15082227 0.21839087 0.07304375 -0.95773613 -0.28976405 0.70821744 -0.054332335 0.926801
33 0.84266907 0.040525813 -2.0931685 -1.1618971 1.4717096 1.7228469 -0.06116138 0.28543848 -2.4572504 0.60963166 -1.995143 -1.1706512 0.86560315 -0.69694895 0.28955474 0.13131468
72 -0.6722307 -0.8644588 -0.77375776 -1.6554462 1.3085614 1.4236004 -0.23965551 -0.45456833 0.5020198 0.6139958 2.1208658 -0.2314828 -0.5877109 -1.9193907 -0.7704194 0.44893518
143 0.6737183 0.15777273 0.16154823 -1.6538694 1.0571959 1.3321735 0.5614668 -0.5381165 0.6267643 0.9086932 -0.4782569 0.28814554 0.61259437 -0.9074832 0.86114144 -0.6024483
154 0.1449781 -0.30143124 -0.9323948 -0.123039365 0.93276507 2.105121 0.64785844 0.9503885 0.15525456 0.18750647 0.10047981 -1.00198 -0.26666158 0.7561004 -0.046630897 0.9232577
16 0.20183432 -0.25531897 -0.92124236 -0.14832737 0.9733296 2.1152172 0.6530064 0.8964929 0.13994186 0.18629628 0.0863617 -0.9515805 -0.28139788 0.70934546 -0.032602087 0.9296446
130 0.45907822 -1.1526716 -1.7285545 0.010286464 1.0965223 0.74421114 0.9827138 0.27335003 0.10295387 2.2935352 0.2179045 -2.2419732 -0.55869794 -2.098717 -1.4591734 0.3677465
75 0.5956572 0.18832374 0.2142787 -1.669939 1.058782 1.3670864 0.5939234 -0.5039931 0.59838074 0.8722964 -0.5039598 0.31196633 0.6267321 -0.8435461 0.9023334 -0.56751275
35 0.5819668 0.45388782 0.011461217 -1.5265744 0.81582093 0.87290114 -0.7445658 -0.15676418 0.5213519 1.9060887 -1.4757539 -0.9894516 -1.3300769 -0.3416627 -1.8129407 0.58700657
135 0.12971948 -0.2840444 -0.9215907 -0.13000014 0.9026961 1.9849406 0.60438824 0.8307725 0.1343786 0.2137475 0.08275409 -0.9584102 -0.2811425 0.70635873 -0.053658795 0.8650567
174 0.38476014 -1.0709531 -1.6559494 0.056907155 1.030435 0.75990963 0.910641 0.2801678 0.10084402 2.133774 0.13671347 -2.0992606 -0.50842077 -1.9468446 -1.3839961 0.3173055
119 0.62415713 0.1849625 0.24404317 -1.6558843 1.067837 1.2924526 0.5491497 -0.5633523 0.65928966 0.8759694 -0.5363626 0.32729447 0.6822429 -0.83658177 0.92823017 -0.63993275
39 0.61091 0.12608324 0.20937604 -1.6282814 1.0791008 1.3357751 0.5479622 -0.48716325 0.5744001 0.90113556 -0.46725446 0.31079245 0.58527887 -0.8471561 0.85795057 -0.6052512
77 0.14521985 -0.2823428 -0.91106486 -0.19179234 0.9607958 2.0096998 0.64612806 0.8290892 0.18431838 0.20152129 0.070962824 -0.9707278 -0.29313067 0.67678237 -0.06205945 0.9209019
175 0.5891658 0.120948635 0.14937131 -1.5176445 1.0148004 1.2716913 0.5322103 -0.45769858 0.533032 0.821975 -0.4649812 0.3003502 0.5991407 -0.77669036 0.8216802 -0.55356395
23 0.6158017 0.16881475 0.15013184 -1.6450174 1.0810277 1.3285666 0.57692313 -0.532213 0.5943397 0.9120513 -0.5151623 0.27525213 0.63218504 -0.8411029 0.8910992 -0.627468
78 0.17383502 -0.21505894 -0.92430663 -0.12552954 0.9234664 2.0439682 0.6463436 0.902005 0.16253719 0.21536724 0.08739882 -0.9533723 -0.26236162 0.6701411 -0.038742453 0.87531686
36 0.16288202 -0.28968757 -0.9322505 -0.16455837 1.0037075 2.1208189 0.649341 0.87718946 0.16164297 0.20188144 0.102598414 -1.035568 -0.28991553 0.68624043 -0.085069865 0.9058887
40 -0.61420417 -0.82637256 -0.7624047 -1.7714872 1.3942772 1.5339845 -0.21492971 -0.41318756 0.49473494 0.6919111 1.9844548 -0.30007645 -0.608047 -1.9435765 -0.7898411 0.4741423
56 0.65115577 0.48615772 -0.05832029 -1.6874297 0.9410878 1.0159035 -0.74058914 -0.07361945 0.60687655 2.0505562 -1.5437672 -1.072651 -1.397091 -0.43167922 -1.9844751 0.6435027
15 0.17355278 -0.23367953 -0.94846797 -0.1671446 0.97231066 2.0787883 0.6563835 0.881136 0.13723004 0.23397683 0.07614679 -0.9900892 -0.25187594 0.69163173 -0.014847874 0.8974959
88 2.874528 0.045026317 0.40819046 -1.4475802 0.3622458 1.9036291 -1.3081504 0.7635298 -0.4260606 1.4932531 1.0059257 -1.0892931 -0.59556025 -0.98506814 -0.24248356 -0.12388422
9 0.16712604 -0.23913941 -0.91193193 -0.21136513 0.95770067 2.0352519 0.59315217 0.8856802 0.204355 0.20554781 0.08461699 -0.94397765 -0.25400838 0.6505946 -0.052264124 0.84243244
76 0.15587194 -0.22680268 -0.94005454 -0.12076738 0.95961607 2.090117 0.63180125 0.89503413 0.16041015 0.26139644 0.0333756 -0.99326277 -0.23173669 0.73822266 -0.05153123 0.8778412
38 0.59613395 0.44404617 -0.025304405 -1.555433 0.875075 0.88717437 -0.7186553 -0.1137947 0.60344696 1.916742 -1.4992498 -0.99227744 -1.3294426 -0.3578756 -1.8976632 0.6434327
122 0.61171114 0.13518259 0.1453515 -1.6686836 1.07551 1.3556097 0.568369 -0.5441457 0.5856153 0.8962727 -0.5133668 0.29428095 0.61378556 -0.87964135 0.8661508 -0.6017396
28 0.16564126 -0.21217403 -0.95321375 -0.16778791 0.99537086 2.1256852 0.60476357 0.91042084 0.1487838 0.19865426 0.09871816 -0.9935649 -0.32631144 0.7310665 -0.030520275 0.8729871
148 0.67067426 -0.03433796 0.57043743 -0.9890579 1.4842418 1.954175 -0.5860608 -0.042936377 0.3077953 -0.18864618 -0.36974457 -1.5659841 -2.0859823 -2.774074 0.9567728 0.09458272
151 -0.5507569 -0.82348037 -0.8118846 -1.7213382 1.3536886 1.611057 -0.19876362 -0.41316932 0.45134825 0.6457503 1.9099481 -0.2997904 -0.5868008 -1.8325833 -0.7589205 0.42872146
126 0.6162995 0.1558416 0.19470023 -1.6697646 1.0975763 1.3535835 0.59126073 -0.54309964 0.5865547 0.8699905 -0.4882402 0.32230854 0.5950655 -0.82964283 0.89193577 -0.5663885
133 0.57211024 0.106588945 0.17772876 -1.5990474 1.0863179 1.3619925 0.58591074 -0.50783306 0.6179229 0.89124453 -0.48891655 0.2789011 0.5856101 -0.8183828 0.83898413 -0.57496434
98 0.675551 -0.054165058 0.65927446 -0.9162277 1.4540671 1.8544621 -0.6315344 -0.06393469 0.27197906 -0.31053624 -0.3452049 -1.5898619 -2.148687 -2.7936826 1.0578376 0.0838773
73 0.6152277 0.43176374 -0.058939833 -1.5769132 0.8828826 0.93451416 -0.7203306 -0.121465296 0.55743474 1.9777757 -1.4758111 -1.0206503 -1.3338422 -0.37105733 -1.8638008 0.65824807
13 1.0750685 0.056411758 -1.415915 -0.72096676 1.4894999 1.6229339 -0.72151554 1.633038 0.8878668 -0.35516587 -1.347689 -0.9143472 0.15859637 -2.5372322 -0.3718285 -1.3490443
108 0.64436024 0.17289944 0.21503554 -1.6317133 1.0091046 1.3441496 0.5960646 -0.54440254 0.6088713 0.8639585 -0.52144986 0.30486095 0.6446805 -0.87484974 0.9302947 -0.6501371
24 0.13077538 -0.2405753 -0.9033276 -0.1239488 0.9386975 1.9953208 0.6672355 0.8660037 0.17225386 0.17408653 0.092176706 -0.927583 -0.26476476 0.62533265 -0.0043654256 0.8219512
97 0.19349922 -0.25757724 -0.9044014 -0.1338411 0.9222786 2.03365 0.62296295 0.93222165 0.18371044 0.17594957 0.09553309 -0.9584964 -0.30309868 0.6500908 -0.072236374 0.85363865
159 1.1110868 1.0255494 -0.052002918 0.2572914 -0.94806594 2.9240475 0.7581964 -0.16277362 0.5737496 2.2937238 -0.5244945 -0.7100037 -0.45158055 -1.9749684 -0.0808937 0.7366972
49 0.57886034 0.18478894 0.16551875 -1.5824801 1.0246772 1.3180507 0.5294436 -0.5303528 0.5620599 0.8542676 -0.46248668 0.26584217 0.58851045 -0.84570944 0.8708489 -0.5664948
57 -0.4120198 0.91771823 -1.5902413 -3.0825775 -0.7341677 2.386457 0.15013634 -0.95864534 -1.0690553 0.79970986 -0.29623228 -0.7122704 -0.4720464 -0.2116908 -0.8058709 0.0938308
149 0.5612656 0.16558339 0.19052698 -1.6140854 1.0095588 1.3360339 0.60072273 -0.5089554 0.58911926 0.9023741 -0.49132535 0.30611318 0.63852465 -0.8195063 0.8851479 -0.5685359
166 0.59800977 0.16821688 0.1781571 -1.6329122 1.056959 1.3584788 0.58368766 -0.53169817 0.59198475 0.85806125 -0.5186487 0.25236878 0.6102989 -0.79633373 0.8402772 -0.5862301
129 0.6733386 0.14416976 0.19582078 -1.6695149 1.1172156 1.4333881 0.6037104 -0.49306864 0.61658883 0.9086692 -0.48400295 0.32016575 0.6019772 -0.90549284 0.92381674 -0.5813153
79 0.58456045 0.14134684 0.18200931 -1.5289475 1.0489309 1.3511202 0.5733917 -0.4603896 0.63227326 0.830701 -0.4747412 0.26527488 0.60575336 -0.8617937 0.89931256 -0.5992311
118 0.14810713 -0.25736037 -0.86060184 -0.12865792 0.8950196 1.985794 0.6289904 0.87691534 0.16335301 0.1868446 0.09735894 -0.9645099 -0.27047056 0.65399146 -0.0106296055 0.8396024
44 0.16430035 -0.23190361 -0.8661938 -0.12457005 0.9314158 2.0100038 0.6584923 0.8427312 0.11274958 0.17776962 0.08833324 -0.886648 -0.28980663 0.75325644 -0.017991047 0.8705562
139 0.09390071 -0.23043147 -0.9160767 -0.11895833 0.92166847 1.9953969 0.6484855 0.8725154 0.12603357 0.19815809 0.066974156 -0.9531095 -0.28808433 0.7093308 -0.053855468 0.89079386
64 0.6100459 0.20662911 0.19125001 -1.7180566 1.0608101 1.4286726 0.5851692 -0.555734 0.61107516 0.9547959 -0.5132273 0.28264242 0.6060097 -0.87434584 0.9120011 -0.5483967
121 -0.6545212 -0.81635815 -0.7932572 -1.6292969 1.2589116 1.5001435 -0.19820309 -0.41676447 0.4786619 0.55955386 2.0739064 -0.21285206 -0.5197188 -1.842867 -0.73770505 0.44901493
105 -0.3708655 0.91584337 -1.4702715 -2.8420584 -0.65624464 2.154021 0.059004676 -0.84099716 -0.957502 0.8027138 -0.34627342 -0.7118827 -0.4812382 -0.16932322 -0.7457716 0.148802
21 0.13747108 -0.27805805 -0.9422089 -0.16630329 0.94606364 2.0482476 0.665447 0.88089085 0.20163535 0.1900481 0.09682789 -0.95654905 -0.28472048 0.62713736 -0.07891998 0.85779226
