131 16
134 0.64415866 -0.036621 0.38462606 -1.4714847 1.0740212 1.1007496 0.5398231 -0.82358193 0.49590492 0.66483414 -0.61692834 0.15079975 0.5698287 -0.8686869 0.90828615 -0.6517004
118 0.12998703 -0.36535484 -0.48952672 -0.04298487 0.9173215 2.4204767 0.8793058 0.8322207 -0.029203514 0.059362132 0.28795522 -1.17936 -0.10234841 0.5057761 0.12851939 0.6851564
36 0.17038053 -0.3816775 -0.5498491 -0.07946363 0.97758615 2.401986 0.8944284 0.70258844 -0.058856487 0.074691884 0.22994564 -1.1697314 -0.10563025 0.40630665 0.06306141 0.6433058
103 0.6939374 -0.06742496 0.37384906 -1.6154184 1.2292582 1.1929698 0.58068484 -0.95374334 0.4923855 0.7318283 -0.642002 0.22889388 0.59740525 -0.9469145 1.0100224 -0.67015386
22 0.16104394 -0.29826728 -0.5366934 -0.12551709 0.924317 2.3700185 0.8959532 0.79496866 0.022774592 0.09125459 0.2421076 -1.1539499 -0.09988007 0.4377135 0.0861308 0.63475204
104 0.15344313 -0.32246816 -0.5430408 -0.08542209 0.9268617 2.2353516 0.885918 0.7412071 -0.032227382 0.075769536 0.23503551 -1.0753809 -0.11308855 0.44359598 0.12279543 0.6611771
48 0.6813586 0.23884352 0.10747069 -1.6597673 0.87125456 1.1856017 -0.684127 -0.33265188 0.5560468 1.800827 -1.718458 -0.9300136 -1.4711461 -0.53337526 -1.6478728 0.99218816
24 0.13631022 -0.33495077 -0.5287665 -0.085316725 0.9496542 2.3785756 0.93644565 0.7784489 0.014503893 0.093471564 0.31069347 -1.1495432 -0.10218639 0.44936562 0.16132471 0.60670376
72 -0.0071132537 -0.9017803 -0.92418045 -1.3887095 1.0316408 1.5524763 -0.20025976 0.073232345 0.8869998 0.3652882 1.8619777 -0.55047023 -0.2887177 -2.4655888 -0.60776913 0.56386566
58 0.7504058 -0.06275372 0.41458377 -1.5154502 1.1528599 1.1918756 0.55303 -0.8933152 0.46485415 0.7263974 -0.5960231 0.17100728 0.6077784 -0.9058033 0.9887425 -0.65734875
75 0.6802258 -0.050966226 0.40246552 -1.6007122 1.1508262 1.1731306 0.5638642 -0.89427525 0.47865745 0.7156288 -0.5729742 0.20960508 0.598125 -0.9561213 0.9776028 -0.67858136
142 0.11594986 -0.37527803 -0.54312754 -0.056358248 0.9948261 2.4251277 0.8857803 0.8280442 -0.0314554 0.03289906 0.23762153 -1.1757628 -0.12354841 0.4122554 0.07500845 0.67337143
16 0.15425842 -0.31624526 -0.52597666 -0.0365349 0.90831804 2.335214 0.90147954 0.7737253 -0.06269045 0.042445853 0.25372195 -1.0939826 -0.09893671 0.49477428 0.07807591 0.7070861
135 0.08151041 -0.34177315 -0.53386295 -0.08008734 0.91513807 2.3363068 0.8978535 0.7578803 0.033374444 0.12232427 0.2105867 -1.1584731 -0.07479753 0.47291452 0.08773874 0.70230645
5 0.7604922 -0.10276037 0.40623727 -1.6639019 1.2051146 1.2668488 0.61923623 -0.94331753 0.5323993 0.72142196 -0.68123215 0.24943568 0.6544883 -0.9239172 1.0235552 -0.7142795
47 0.090175256 -0.3619451 -0.489642 -0.09038692 0.9246543 2.2609415 0.8979216 0.75598234 -0.009270521 0.077064104 0.28230155 -1.079237 -0.10832707 0.4229119 0.09629749 0.65545833
180 -0.12061487 -0.93701017 -0.9656865 -1.4437726 1.0219235 1.49478 -0.19685401 0.021524705 0.9138814 0.35185954 2.0128272 -0.5389841 -0.2693643 -2.6038508 -0.7051165 0.57619923
70 0.753971 -0.07982304 0.39626294 -1.6558928 1.1998585 1.2951425 0.6256913 -0.95712703 0.4671634 0.77336967 -0.6496937 0.17846164 0.6110474 -0.92033887 1.0299308 -0.7106931
42 0.70602655 -0.0707087 0.40550405 -1.616005 1.2103044 1.2414403 0.5575919 -0.95846874 0.5282218 0.7633312 -0.6067987 0.18078364 0.64201015 -0.9202155 0.98272055 -0.63609356
12 0.19230665 -0.9671535 -1.9233643 -0.056989707 1.1809374 0.58554035 0.8898026 0.09535261 -0.114564 2.1898284 -0.26568985 -1.8768464 -0.7423967 -1.8558259 -0.9375396 0.18055552
172 0.7216936 -0.03551263 0.4201776 -1.5648532 1.1505357 1.1708454 0.6005827 -0.95100904 0.5286403 0.71382093 -0.62592083 0.21869107 0.58716345 -0.9479786 1.0027426 -0.71284693
129 0.6841888 -0.05379584 0.37249216 -1.485257 1.0972159 1.1627842 0.5674376 -0.8322503 0.44668218 0.67734766 -0.6106257 0.20472881 0.56463635 -0.85227746 0.917376 -0.64940715
133 0.63637304 -0.09148987 0.43096384 -1.5196328 1.137744 1.1716416 0.581425 -0.9208177 0.50390613 0.7331828 -0.62302023 0.20578283 0.52553815 -0.8371547 0.9212277 -0.6508535
33 1.2532853 -0.13200866 -2.0568864 -0.7539009 1.3248427 1.9552826 -0.1521163 -0.20278326 -2.38681 0.21748637 -1.9989032 -1.5470514 0.8139947 -1.2193538 -0.19441852 -0.27330914
88 2.8856473 -0.11463074 0.79522264 -1.4517279 0.3416502 1.8649383 -1.2378831 0.5770865 -0.7838825 1.5229791 0.99339837 -1.4389138 -0.5579579 -1.2574408 -0.08203944 -0.28395128
13 1.3076564 -0.37033108 -0.9567227 -0.48138005 1.535702 1.8199158 -0.9525514 1.3106501 0.67532754 -0.6280049 -1.1884018 -0.96714234 -0.13140094 -2.6619794 -0.42158458 -1.4547167
170 0.69416153 0.21633473 0.07443965 -1.6770508 0.9369922 1.2884909 -0.6376973 -0.3096987 0.5470159 1.7933104 -1.6976911 -0.99314004 -1.4130048 -0.58828795 -1.6261232 1.0068138
96 0.116995946 -0.34621626 -0.480199 -0.13027643 0.8836045 2.2637413 0.8360606 0.6921177 -0.048439614 0.085578695 0.2418639 -1.0540768 -0.106397726 0.42115813 0.10732597 0.6531701
157 0.6776925 -0.059786536 0.41307956 -1.6173352 1.1650991 1.1576324 0.59731305 -0.9702938 0.5307863 0.7150565 -0.6192429 0.2738777 0.64493674 -0.9089501 1.0300938 -0.698706
98 0.66128045 -0.008363019 0.7190811 -1.2946217 1.0830686 1.5457155 -0.26275665 -0.5531116 0.5385346 -0.7575415 0.09179137 -1.5450838 -2.4152415 -2.6574368 1.4795086 -0.055785723
128 0.16447556 -0.40403873 -0.5294765 -0.112100884 1.0256629 2.3481982 0.9260564 0.7888147 0.022341639 0.06166966 0.21407264 -1.0886356 -0.10018045 0.40420023 0.104816504 0.6704893
105 -0.08701884 1.1013917 -1.0796871 -2.8971312 -0.6016198 2.4084241 0.49443755 -0.78695816 -0.8410723 0.6293547 -0.06583773 -1.1175488 -1.2896135 -0.4177049 -0.16570827 -0.090989344
35 0.5881557 0.17481305 0.11137439 -1.5421135 0.83733594 1.2067986 -0.5757905 -0.3266907 0.48893207 1.6438743 -1.5900472 -0.8989444 -1.3620348 -0.49855718 -1.4953244 0.90449554
74 0.122130126 -0.38077712 -0.5068099 -0.037130006 0.94877213 2.356643 0.9117703 0.7830128 -0.052318312 0.044104043 0.3063815 -1.1578754 -0.07491859 0.49763024 0.07685087 0.6478921
101 0.1371377 -0.34241223 -0.5266642 -0.04098118 0.9230571 2.3447134 0.9137677 0.8073432 -0.023852827 0.09044058 0.26756823 -1.1353518 -0.07376159 0.4752541 0.118513875 0.683309
55 0.17098281 -0.34342426 -0.5226572 -0.044608697 0.9908818 2.420964 0.9035895 0.8386065 -0.03215493 0.05262838 0.25080502 -1.1490644 -0.10716256 0.4766053 0.16391835 0.6718735
82 0.90709054 -0.49591386 0.46170795 -1.9772683 2.4908395 0.25968233 -0.5382184 2.136293 1.5441308 1.7744917 0.23874201 -1.6540594 0.1997985 -1.1133009 0.016008232 0.7045634
176 0.13772833 -0.34406692 -0.4700356 -0.10407893 0.9586868 2.392378 0.91504014 0.7543048 -0.03408433 0.108731754 0.29421118 -1.1553241 -0.091893315 0.4532119 0.13284218 0.6904228
77 0.113130145 -0.3510057 -0.5057586 -0.07669005 0.87958586 2.0988364 0.8020965 0.6847042 0.012091716 0.06650745 0.23590696 -1.05088 -0.14599505 0.43211618 0.036833737 0.6624529
125 1.7122563 1.1435014 -0.07282923 0.106775366 -1.274825 2.7687826 0.8567379 -0.1676305 0.8616475 1.7927278 -0.7034337 -1.2681183 -0.4382893 -2.0743349 0.4484163 0.41046447
54 -0.13275817 1.1686388 -1.1416196 -2.921685 -0.7689031 2.4001508 0.4617017 -0.863328 -0.97091264 0.61780393 0.0073235044 -1.1365877 -1.3105721 -0.36699197 -0.2288189 -0.14528443
143 0.6955014 -0.1079164 0.36835185 -1.5509048 1.1712449 1.1566504 0.60289985 -0.94684356 0.5097261 0.7229522 -0.5923491 0.24693312 0.6448975 -0.88820523 0.978916 -0.6881938
89 0.7095854 -0.084400825 0.45197517 -1.6259487 1.1397828 1.2006152 0.56023383 -0.9028029 0.5546484 0.7126771 -0.62735325 0.19987755 0.5938654 -0.91487944 1.0244843 -0.6925741
28 0.10236203 -0.31574547 -0.5094376 -0.07180392 0.9662396 2.355693 0.87182873 0.76971763 0.017288081 0.10857647 0.26708305 -1.1471558 -0.09711184 0.52654445 0.120613806 0.66098064
10 0.6872023 0.22698729 0.07084087 -1.6126019 0.85131925 1.2471725 -0.6581129 -0.28927737 0.4646034 1.711227 -1.5727776 -0.9542694 -1.3993796 -0.5449704 -1.5679615 0.93568593
97 0.14090295 -0.36128294 -0.5494533 -0.0974809 0.9595281 2.3261797 0.886392 0.79850215 0.0055976566 0.055618953 0.28289014 -1.1215713 -0.099504426 0.39532968 0.08683979 0.6348025
145 0.7195635 -0.10427749 0.40208274 -1.5814599 1.1544645 1.2297645 0.57901144 -0.898084 0.4817237 0.7412642 -0.63980377 0.20378795 0.60844487 -0.9230164 0.9428771 -0.6896052
154 0.10691933 -0.3807063 -0.46116123 -0.066654615 0.8697282 2.1972344 0.81780505 0.741236 0.05087253 0.095826976 0.25495222 -1.0930364 -0.08588796 0.3944493 0.07748269 0.6193644
9 0.13598295 -0.3348391 -0.5327868 -0.051771626 0.89978343 2.323818 0.8424732 0.784403 0.0048747677 0.078856386 0.24923927 -1.1197232 -0.103732415 0.43418306 0.073005125 0.65670025
61 2.8189545 -0.092550226 0.7874951 -1.3793696 0.26823166 1.856522 -1.2783413 0.52740306 -0.8079591 1.4511431 1.0473803 -1.4234483 -0.58847904 -1.1892201 -0.083179615 -0.243125
174 0.22790766 -1.0756282 -2.0910387 -0.060467847 1.3045653 0.68888676 0.9765072 0.122383565 -0.07321335 2.381375 -0.3333483 -2.0351858 -0.736062 -2.081128 -0.99266654 0.16492726
161 0.6885111 -0.08610167 0.4051736 -1.505968 1.1212885 1.1392632 0.5433668 -0.8935198 0.4566012 0.68215865 -0.6155054 0.19057223 0.6406379 -0.90644085 0.96501005 -0.64675784
110 -0.09793227 1.1341131 -1.1477301 -2.822376 -0.72447604 2.3608372 0.5033878 -0.8528616 -0.95958847 0.5993192 -0.06127072 -1.035589 -1.2042474 -0.35517737 -0.16941538 -0.13898048
52 0.91373074 -0.44882208 0.45567572 -1.9497166 2.4400644 0.21033719 -0.5773594 2.1233249 1.5289798 1.7514176 0.20049417 -1.6289997 0.24671045 -1.1462404 0.0108925635 0.69170105
158 0.10325852 -0.31871557 -0.49681363 -0.029928498 0.8807317 2.2461915 0.8562641 0.7992533 0.0056971814 0.06357385 0.25696656 -1.0754665 -0.07121058 0.48818597 0.10224503 0.67317915
130 0.22161597 -1.0592484 -1.9888057 -0.012450667 1.2081543 0.5213313 0.94064695 0.102583654 -0.09980431 2.3048098 -0.22325611 -1.9647386 -0.7471048 -1.9148108 -0.95227695 0.17934941
23 0.67000026 -0.09252341 0.37026727 -1.5993617 1.2008743 1.2091702 0.56776017 -0.9409946 0.51570094 0.75785786 -0.62017703 0.18484648 0.6343848 -0.91946936 0.9874133 -0.7012859
53 0.6157404 -0.02134326 0.33617666 -1.4972969 1.0516446 1.1298251 0.52651477 -0.8489392 0.47932717 0.67728096 -0.571556 0.16826938 0.52553415 -0.8538538 0.89923143 -0.6390157
73 0.6591227 0.18420343 0.071466066 -1.5589656 0.831238 1.2587426 -0.59859806 -0.31430396 0.4641809 1.6609443 -1.551731 -0.89738876 -1.3603019 -0.5300534 -1.4695282 0.9145944
63 0.15916078 -0.32307813 -0.48130164 -0.09498653 0.82904124 2.3155286 0.8565066 0.75280815 -0.052551232 0.04550893 0.23999946 -1.1089715 -0.08725287 0.47313073 0.05633758 0.65085757
127 0.70097244 0.2527657 0.1159533 -1.675253 0.83090013 1.2468098 -0.6759503 -0.33206832 0.5010743 1.7674661 -1.7004715 -0.95527655 -1.4755793 -0.520597 -1.6339754 1.0257883
141 -1.0436004 -1.9946197 0.6752294 0.0013136752 1.9223378 2.1567316 0.6610596 -0.783185 1.0604106 0.31362298 -1.9149351 -1.3020163 0.59271413 -0.96208817 -0.40654874 0.81521523
32 -1.0454396 -2.088578 0.7491659 -0.10532045 2.0059812 2.305709 0.7082779 -0.85669464 1.1756554 0.39547503 -2.0370038 -1.435962 0.58041424 -1.109182 -0.47830537 0.84078074
100 0.7078385 -0.062009197 0.4183354 -1.6209389 1.1976738 1.2324629 0.57276 -0.9423811 0.4862841 0.70874965 -0.6416022 0.24510725 0.63455147 -0.92369145 1.0448738 -0.7164795
148 0.61517745 0.009448786 0.7253393 -1.2414734 1.0269358 1.53331 -0.2769626 -0.59653157 0.52033216 -0.7578172 0.02430623 -1.5392555 -2.4657893 -2.675833 1.4358621 -0.036255505
81 0.29878134 -0.57727826 -1.0713133 -1.0855796 0.6261525 2.4988139 1.1583706 0.59133667 -0.113536075 -0.29277584 -2.2180495 0.5627597 0.59952676 -1.789696 -1.395869 1.7655385
17 0.3687619 -0.6149032 -1.0091312 -1.1594719 0.61417854 2.4744673 1.1190886 0.5543167 -0.12479775 -0.26238218 -2.2141185 0.6605724 0.6383617 -1.8430047 -1.392645 1.7660044
162 -0.115940906 1.0230529 -1.042868 -2.6460264 -0.64936614 2.171709 0.43768477 -0.74758416 -0.8269852 0.5532945 -0.031333283 -1.0169997 -1.1549623 -0.33163458 -0.17465511 -0.08332571
156 0.27473548 0.12638804 -0.267251 -0.6066364 1.7202717 1.1874101 2.3512874 0.68896645 1.7878239 -0.13027816 -0.3978999 -1.0173953 -2.2633648 -1.9411019 -0.98166645 -0.4507691
34 0.33378854 0.11093189 -0.30984798 -0.63202786 1.713946 1.1872944 2.3678558 0.7436871 1.7951139 -0.1226911 -0.45418483 -1.1504508 -2.3281066 -1.9435494 -0.98246616 -0.4730591
124 1.7570423 -1.8738216 -1.108053 -1.3918445 2.6714299 2.5691173 -0.8639167 -0.13815658 -1.7369201 0.6597022 0.56939906 0.8597192 -0.9755775 0.14165789 -0.36990848 0.31302157
115 1.7458149 -1.7678947 -1.0405047 -1.3812991 2.5970528 2.521793 -0.79612625 -0.141526 -1.6226957 0.7084611 0.47626328 0.813375 -0.89451385 0.016989872 -0.3808956 0.34537867
139 0.1323425 -0.3264746 -0.52516216 -0.083219126 0.94069797 2.3283796 0.8798089 0.78093857 -0.044532888 0.10394116 0.2635702 -1.1272155 -0.09676465 0.44896188 0.0805232 0.657372
84 0.6787869 -0.060750645 0.4297525 -1.5696683 1.1306084 1.1669135 0.58300006 -0.90285784 0.5068948 0.7568426 -0.59355474 0.21863563 0.6405945 -0.8586801 1.0192767 -0.6941383
159 1.6496493 1.0739387 -0.04275929 0.09400453 -1.1862597 2.641129 0.77504927 -0.1515155 0.8319314 1.7297181 -0.6529956 -1.2535024 -0.42466006 -2.095986 0.39492467 0.3894682
113 0.18367961 -0.33276096 -0.51118886 -0.077329606 0.89400625 2.2614489 0.8626442 0.74652255 0.0042447643 0.1322963 0.23068869 -1.0617487 -0.1436619 0.42875874 0.100638054 0.6510295
6 0.12076575 -0.3254388 -0.50313175 -0.044454973 0.90849674 2.268985 0.8935452 0.7985748 0.0080283545 0.0066404524 0.22119938 -1.0867168 -0.10527355 0.4283183 0.09972468 0.6252847
126 0.66135204 -0.07927521 0.3573265 -1.4945527 1.1313878 1.1849909 0.5884978 -0.85054016 0.4523585 0.661319 -0.59440315 0.17768888 0.55387455 -0.8608012 0.92401105 -0.6082038
66 0.66122234 -0.037148327 0.3474135 -1.5441809 1.1311347 1.2113576 0.60691065 -0.8957694 0.50766444 0.6586262 -0.6504872 0.19124445 0.6137509 -0.9055829 0.97919333 -0.6782931
59 0.13139078 -0.3010326 -0.5267537 -0.062828116 0.92509663 2.3965383 0.90444297 0.7988095 0.033558093 0.11964022 0.27643365 -1.1408402 -0.13032638 0.46913344 0.0775357 0.69709605
40 -0.053569682 -0.89374447 -0.91976994 -1.3706303 1.0495942 1.5084693 -0.08925759 0.038927145 0.8690538 0.38388434 1.7909769 -0.5926168 -0.36514074 -2.4616296 -0.65392876 0.5380198
85 1.7583597 1.1529148 -0.00164089 0.15529694 -1.2914296 2.643967 0.77361184 -0.17642586 0.8584932 1.7723862 -0.7036597 -1.2648435 -0.44062844 -2.1483624 0.47692516 0.39096376
57 -0.109514885 1.086597 -1.0793959 -2.8125434 -0.754653 2.2618272 0.46944734 -0.84384054 -0.9606562 0.56665707 -0.024109846 -1.0276626 -1.2706774 -0.36347598 -0.24266668 -0.15587397
114 1.2314296 -0.15879795 -2.0103974 -0.7806506 1.2388775 1.910823 -0.06973788 -0.15204585 -2.366209 0.22755428 -1.9996439 -1.4732633 0.83788615 -1.1416909 -0.18211684 -0.19193675
136 1.2778026 -0.31808904 -0.89026207 -0.45088136 1.5257244 1.720683 -0.975647 1.2974896 0.6230469 -0.6961617 -1.1806916 -0.87559634 -0.09429999 -2.601627 -0.37113056 -1.49315
38 0.65662915 0.18542871 0.10037738 -1.6271787 0.87482184 1.1910995 -0.6570202 -0.29843643 0.5578292 1.734529 -1.6533309 -0.92812496 -1.4291673 -0.53285277 -1.6417859 1.0001527
76 0.1239076 -0.2960466 -0.4883013 -0.063370764 0.94558567 2.3208625 0.8798806 0.72894377 0.03525934 0.12079805 0.14930075 -1.1473529 -0.075413026 0.43343297 0.09793135 0.61262053
37 0.68387926 -0.089378186 0.32908264 -1.500234 1.1539768 1.1886799 0.55795956 -0.8615141 0.49371964 0.73183054 -0.6128131 0.18738532 0.5612874 -0.91290796 0.91422 -0.63637435
49 0.63653976 -0.007196732 0.39823398 -1.5592295 1.104013 1.1368228 0.54480255 -0.9661075 0.47102088 0.723992 -0.6185156 0.19086993 0.56650627 -0.895111 0.9565337 -0.6573352
109 -0.047860663 -0.9547889 -0.92851937 -1.3285055 0.98938215 1.4019389 -0.22201237 0.05325101 0.9007163 0.37073892 1.9387666 -0.5238057 -0.2910939 -2.489601 -0.65106684 0.59473825
7 0.13002138 -0.27118987 -0.50593483 -0.05760837 0.8974419 2.2484963 0.8324267 0.73577124 0.044320613 0.047027078 0.28308946 -1.0677015 -0.093925424 0.42599133 0.12885535 0.6588534
121 -0.0333266 -0.8895971 -0.92860883 -1.3808504 0.97878706 1.5261732 -0.2012573 0.03847157 0.8674751 0.38763148 1.8974754 -0.51920223 -0.29298893 -2.432893 -0.64898807 0.5854541
155 0.7164067 -0.048793938 0.42595196 -1.5730107 1.1823003 1.258835 0.5807817 -0.9161967 0.5304407 0.73197 -0.64816195 0.14663939 0.61012304 -0.9041894 0.9875316 -0.7129058
178 0.7516651 -0.059585813 0.39398184 -1.5649499 1.105713 1.1868254 0.58059484 -0.9113191 0.5058734 0.7380332 -0.65957063 0.24320802 0.6321115 -0.91510916 1.0216328 -0.6914812
26 1.2500834 -0.108402155 -1.9439014 -0.8001186 1.230944 1.9304918 -0.10665495 -0.1806735 -2.302128 0.20516102 -1.9003807 -1.4641187 0.8039317 -1.1845115 -0.12789236 -0.20570628
165 1.3663824 -0.32821444 -0.984268 -0.51385623 1.621982 1.8138285 -1.0084438 1.3348099 0.6513702 -0.65896213 -1.2584074 -0.8990407 -0.11021649 -2.712125 -0.41209325 -1.5118316
8 -0.098486625 -0.9330173 -0.99293125 -1.3669761 1.0144507 1.5250181 -0.20055042 0.033348892 0.89493513 0.30624047 1.9909946 -0.51540387 -0.30551228 -2.585796 -0.6999471 0.58346254
29 0.083437145 -0.30592376 -0.48869598 -0.08209873 0.9111207 2.2278326 0.86636376 0.7439631 0.035695743 0.10354586 0.24573752 -1.1102604 -0.12089892 0.40995526 0.07366741 0.6647706
146 0.6073541 -0.05075497 0.6762616 -1.2706239 1.0766962 1.5904304 -0.23138985 -0.570273 0.54614395 -0.6950221 0.022320768 -1.530042 -2.380371 -2.6104019 1.4075478 -0.026271313
119 0.6939812 -0.025309255 0.37200415 -1.5709496 1.119077 1.2149631 0.518149 -0.86908364 0.5078432 0.71801674 -0.604357 0.11857987 0.5710528 -0.8851275 0.9567749 -0.6617082
79 0.6747359 -0.047490653 0.40493596 -1.5423858 1.1106366 1.1920481 0.53937346 -0.8873026 0.5011397 0.6953729 -0.6439962 0.20474473 0.61524737 -0.93506694 0.9708872 -0.7072259
18 0.87874264 -0.45429412 0.3993093 -1.8087975 2.3133695 0.36509013 -0.45644152 1.9322283 1.410892 1.6049056 0.22648539 -1.5478843 0.17501889 -1.1317365 0.02336141 0.6071384
150 0.72090745 -0.034493215 0.4395805 -1.5550505 1.1251473 1.1519717 0.57955897 -0.92637235 0.54898274 0.73261404 -0.66194606 0.22985463 0.5904342 -0.95309925 1.003971 -0.69814473
27 -0.06682487 1.0331545 -1.068704 -2.7325263 -0.6091243 2.3016274 0.5293884 -0.80596274 -0.840757 0.6185264 -0.029640699 -1.0692159 -1.1953373 -0.38051918 -0.17058887 -0.115531825
171 0.12478284 -0.30022287 -0.4772788 -0.11255219 0.86780435 2.1662555 0.8149243 0.7230041 0.009256524 0.09778366 0.20955542 -1.0751928 -0.11164807 0.38076094 0.13373443 0.61689484
164 0.18315734 -0.31680477 -0.51397616 -0.057459634 0.9089581 2.2620738 0.8202427 0.7480454 -0.056046177 0.06298657 0.25224432 -1.1209494 -0.14707728 0.4276773 0.10692296 0.60119367
56 0.66695887 0.20946339 0.11768593 -1.6211114 0.86081654 1.1832206 -0.6719267 -0.2722747 0.49724418 1.7561989 -1.6645747 -0.89415294 -1.4024965 -0.5142486 -1.637902 0.9535562
166 0.6644583 -0.06879445 0.39610636 -1.4879495 1.1173826 1.1533235 0.57791376 -0.90385264 0.4751617 0.687005 -0.6396501 0.19640703 0.6113961 -0.8458556 0.90608925 -0.6591774
80 0.6511663 0.2091743 0.080405794 -1.6154621 0.8465198 1.2399182 -0.6181199 -0.32821292 0.50620085 1.7092453 -1.5624795 -0.89446133 -1.4001818 -0.55499953 -1.5570399 0.95504606
111 0.113653086 -0.30628228 -0.47507125 -0.0927876 0.8816966 2.1935973 0.78306 0.78299385 -0.0015147096 0.10332833 0.27257153 -1.0810721 -0.13685636 0.37810344 0.05347054 0.6400595
108 0.68574417 -0.09575414 0.376118 -1.4623218 1.0795573 1.1295183 0.5090505 -0.82615083 0.42675483 0.64517343 -0.606583 0.14781803 0.553384 -0.8491179 0.9199686 -0.6408132
78 0.12599199 -0.30470186 -0.51965296 -0.06397817 0.8783114 2.2552087 0.8494424 0.7370489 -0.0025561922 0.13025668 0.25243604 -1.1210772 -0.11771914 0.4187113 0.06926843 0.67098224
149 0.6620995 -0.0837405 0.37092996 -1.5570761 1.1445422 1.2373165 0.59740996 -0.85584754 0.48425558 0.730867 -0.62322974 0.16720445 0.606878 -0.9537022 0.954958 -0.6482215
39 0.67845094 -0.085011 0.38311368 -1.5079011 1.1352365 1.1824324 0.5764463 -0.8350188 0.47489715 0.7886228 -0.6542747 0.16654615 0.6107776 -0.8941266 0.90406716 -0.66605973
123 2.7529063 -0.102032214 0.69835865 -1.4017498 0.3927492 1.8709843 -1.2086729 0.56983525 -0.7324651 1.4315823 0.96981525 -1.3970948 -0.51915735 -1.2043293 -0.07601002 -0.28130895
21 0.16061477 -0.31479087 -0.5129374 -0.0957661 0.87912863 2.173131 0.7767166 0.7314291 -0.0210126 0.07689739 0.22463703 -1.037433 -0.0771408 0.40990955 0.10006728 0.63170534
64 0.66268235 -0.009007075 0.38068557 -1.5178894 1.052477 1.1444176 0.51999 -0.8670524 0.46124232 0.70021194 -0.5976186 0.1721626 0.54278624 -0.8975098 0.94295734 -0.62895817
122 0.6728059 -0.07289541 0.3713206 -1.5057604 1.1092777 1.1324159 0.5619842 -0.90517294 0.4600204 0.70132554 -0.63140357 0.211031 0.61885315 -0.87516654 0.95495945 -0.6680616
65 0.71239424 -0.045869198 0.39883456 -1.5532191 1.1546646 1.1636089 0.597535 -0.9167682 0.4816841 0.6851402 -0.5998803 0.2402791 0.6273475 -0.87753314 0.97543067 -0.6636446
112 0.14572017 -0.361417 -0.4900969 -0.13213049 0.90377355 2.1604462 0.78550756 0.7245858 0.020475948 0.09739221 0.23809883 -1.0450673 -0.08891087 0.38835257 0.09293205 0.60486525
151 -0.09803889 -0.9136141 -0.95289093 -1.348915 0.9752881 1.406014 -0.20173934 0.02658372 0.85398406 0.31386182 1.8857037 -0.49913058 -0.26881617 -2.431207 -0.6738194 0.5155252
106 0.20613392 -1.0203551 -2.0111055 -0.07247512 1.2234446 0.5238877 0.9578306 0.09680656 -0.027157074 2.3261838 -0.27404594 -1.9734231 -0.80349153 -1.9935433 -0.994046 0.1783238
152 0.12868206 -0.35444403 -0.4405188 -0.09830199 0.8999724 2.170839 0.8389031 0.7084125 0.019911394 0.068239346 0.24053602 -1.011886 -0.096096106 0.3742294 0.08582103 0.6154767
175 0.65207976 -0.08089822 0.34841487 -1.5188652 1.1345195 1.1547903 0.58003145 -0.84870785 0.493873 0.7085702 -0.5829596 0.19854899 0.6013991 -0.8991445 0.9228022 -0.6685887
102 0.13054043 -0.3372054 -0.502274 -0.112566866 0.88986164 2.1687222 0.829544 0.66430163 0.0031776284 0.10865523 0.19969483 -1.0708696 -0.08423119 0.35976553 0.065298975 0.59829277
43 0.6722957 0.20591415 0.11459152 -1.5074847 0.7831787 1.1718438 -0.5512803 -0.24691968 0.5205546 1.5992573 -1.4788412 -0.88856286 -1.2914523 -0.5542441 -1.4236584 0.9122435
25 0.6809878 -0.052545123 0.38694113 -1.432079 1.0885938 1.1436878 0.5246729 -0.86557245 0.43998292 0.64061326 -0.61756814 0.17228088 0.5972772 -0.8754273 0.9298824 -0.5975475
44 0.15481679 -0.30638954 -0.4626956 -0.057161625 0.8770567 2.1772394 0.8340723 0.7178247 -0.041970056 0.12671433 0.23272422 -1.035318 -0.13520308 0.45500642 0.043990035 0.6640243
87 0.08515091 -0.3214548 -0.52132314 -0.1300606 0.9125775 2.192428 0.82614297 0.7215961 -0.031154731 0.05135465 0.26521063 -1.0475028 -0.109653555 0.4770865 0.11159474 0.59451777
160 0.084255375 -0.34293404 -0.51873183 -0.07122065 0.87603873 2.1887171 0.8166263 0.74681294 0.0005592976 0.08282118 0.22549295 -1.0453674 -0.08010883 0.44719738 0.07518273 0.6139681
15 0.12123459 -0.3088744 -0.5029327 -0.06852388 0.90845156 2.1936684 0.8769874 0.7049808 -0.0054390538 0.09996154 0.21667294 -1.0536255 -0.084793225 0.44141376 0.10446803 0.63254946
