131 16
175 0.80882406 -0.24729663 0.11358498 -1.6672325 0.8660257 1.3107432 0.47895008 -0.7407607 0.48799548 0.97000307 -0.4598767 0.2819773 0.6198181 -1.0259923 0.61562467 -0.6971814
96 0.49714875 -0.45703483 -0.7134174 -0.034805626 0.7770526 2.2938378 0.5442729 1.0422504 0.024972524 -0.004676838 0.23710796 -1.1532707 -0.014658953 0.33966905 -0.099869624 0.55977845
100 0.8340595 -0.22734787 0.18264635 -1.7874814 0.9034007 1.4247223 0.5322177 -0.8045933 0.5830465 0.9993847 -0.498288 0.30893436 0.65142393 -1.1077374 0.70271254 -0.7347914
75 0.80143654 -0.21323559 0.18619047 -1.7336289 0.8691717 1.3136333 0.5285044 -0.7892388 0.53477967 1.0020351 -0.47344884 0.32298726 0.63916934 -1.0891922 0.6446594 -0.7206992
150 0.7601214 -0.19876184 0.1184176 -1.595472 0.8162044 1.2649655 0.5190006 -0.73247015 0.5443747 0.9466203 -0.50403047 0.28117734 0.56812096 -1.0315161 0.5893852 -0.6587432
44 0.47207895 -0.49686143 -0.7296807 -0.04032249 0.8779758 2.3409052 0.5468797 1.0556955 0.055304166 0.0042520915 0.19995019 -1.1594307 0.050218258 0.42482084 -0.16583048 0.5675619
122 0.85477954 -0.26982102 0.15292948 -1.7398111 0.88672656 1.33653 0.5341578 -0.8384968 0.5465322 1.0319337 -0.5517756 0.34473112 0.703218 -1.1382598 0.673943 -0.7246634
47 0.49321112 -0.4867917 -0.7253651 -0.05586062 0.8225384 2.2692137 0.50608855 1.0427859 -0.032917984 0.022448156 0.22764139 -1.1438462 0.008028048 0.4062396 -0.14924385 0.56671196
111 0.46204185 -0.44604146 -0.7384546 -0.095520504 0.8089133 2.3269203 0.4966986 1.0631 0.04874393 0.03178822 0.19766614 -1.1460005 0.048305545 0.36433113 -0.16943163 0.5548588
87 0.43924797 -0.43688262 -0.7982389 -0.09299682 0.8566923 2.315567 0.5414402 1.0537856 0.06308229 0.01283469 0.20274454 -1.20045 0.06533695 0.40301302 -0.10458067 0.4985552
39 0.838107 -0.2739153 0.1912142 -1.7532241 0.9184684 1.3765011 0.5544983 -0.8086242 0.5409113 1.059988 -0.48760903 0.3410077 0.6337161 -1.0706487 0.6688959 -0.7796272
164 0.51979315 -0.42084542 -0.7508711 -0.038139775 0.79684925 2.3320847 0.53430605 1.0441498 0.020871898 -0.015014058 0.14588982 -1.1997524 0.02487242 0.37855026 -0.13652892 0.53317714
160 0.49007955 -0.49558952 -0.7664608 0.0022313031 0.8498493 2.346497 0.5259084 1.1190332 0.03497828 -0.028369028 0.2428599 -1.1498356 0.07232599 0.4475416 -0.08832493 0.52731115
127 0.74501914 0.01280573 -0.00913148 -1.4414607 0.70121515 1.0551156 -0.6860861 -0.22449668 0.7059642 1.6026776 -1.7754412 -1.1259761 -1.2831746 -0.5329021 -2.262281 0.68699235
174 0.5969051 -1.0723267 -2.0242615 0.45776895 0.90231276 0.6230322 1.073153 -0.14695163 -0.21953014 2.5018554 -0.1885398 -1.9656867 -0.24999648 -1.9755766 -1.4875134 0.6449167
133 0.80318636 -0.24956116 0.15883125 -1.7014868 0.86769575 1.3765908 0.5198463 -0.7958536 0.5439564 1.0034051 -0.4810937 0.28940243 0.59409684 -1.0809273 0.64074314 -0.73134995
73 0.7222771 -0.040607296 0.033785366 -1.458034 0.7637986 1.0095631 -0.72982097 -0.20469822 0.7704862 1.6052833 -1.7924845 -1.1052221 -1.3137698 -0.5686702 -2.2940252 0.6994502
16 0.5098857 -0.4295653 -0.7249362 -0.062496245 0.7992168 2.2908006 0.54730546 1.0273031 0.022727584 -0.045659594 0.19596851 -1.0967007 0.062739804 0.3599079 -0.11832094 0.56591487
63 0.51116943 -0.47525007 -0.74485403 -0.09347489 0.80538213 2.3369017 0.5185358 1.0743932 0.01738228 -0.039527573 0.23587933 -1.1746683 0.05278974 0.41601592 -0.1601729 0.5233727
7 0.4391607 -0.41199648 -0.75958204 -0.006829823 0.80328286 2.1886072 0.5025067 1.015337 0.089888304 -0.041795146 0.18701361 -1.0951498 0.07242009 0.37514606 -0.13237035 0.5704304
157 0.78974766 -0.22950803 0.19104399 -1.7388374 0.86676556 1.272212 0.5103134 -0.8755498 0.5700022 1.0290916 -0.47781822 0.34342796 0.6542227 -1.0545328 0.6765448 -0.7130907
27 -0.2901624 0.8794279 -1.3270406 -2.5371928 -0.8883279 2.2301533 -0.3170462 -0.7100208 -0.8656516 0.98800397 -0.090721026 -1.3003156 -0.63564515 -0.40640187 -0.32208678 0.22464475
77 0.5244145 -0.47897267 -0.76327187 -0.048828233 0.82425857 2.3310525 0.5408016 1.0678889 0.0637924 -0.04752967 0.2161275 -1.1769142 0.06014711 0.402066 -0.103980474 0.57987446
80 0.6766789 -0.04114924 -0.006559023 -1.380929 0.7444306 1.021039 -0.64956456 -0.20156437 0.71450067 1.5229888 -1.584605 -1.0694896 -1.2189467 -0.54432076 -2.123113 0.65093297
128 0.48024017 -0.43150926 -0.74064153 -0.10263202 0.81744766 2.2813056 0.5591754 1.0685458 0.08396106 -0.021741984 0.17896734 -1.131183 0.025865952 0.40023193 -0.11319582 0.55370986
21 0.47537366 -0.45917356 -0.7595955 -0.06426905 0.8006391 2.226639 0.51254195 1.0438882 0.044302076 -0.014565414 0.2298741 -1.1274302 0.044483483 0.38048577 -0.14285588 0.5383425
54 -0.21111618 0.79368496 -1.3511082 -2.567064 -0.7957685 2.4274998 -0.33147806 -0.65143913 -0.81208086 1.0739665 -0.07351485 -1.3419952 -0.6030944 -0.51502955 -0.38670278 0.23855579
28 0.43291676 -0.42372888 -0.7353119 -0.052069083 0.805625 2.2122028 0.49583334 1.0132954 0.06974987 0.0073008453 0.23890612 -1.1192205 0.088864245 0.40574694 -0.11463671 0.5159217
36 0.49145693 -0.42258498 -0.80339384 -0.03053911 0.7868375 2.3707337 0.5557649 1.0472305 -0.025706135 -0.07552203 0.20925474 -1.1680944 0.056900453 0.4526674 -0.15210569 0.5359615
118 0.48170984 -0.45604518 -0.73329234 0.0010004017 0.7763497 2.288224 0.51101655 1.0965796 0.021458566 -0.031826045 0.23902494 -1.1745281 0.007498669 0.41157448 -0.13524146 0.5550982
154 0.48119438 -0.47290498 -0.73491263 -0.06590024 0.76335424 2.260289 0.46022826 1.0606624 0.034895483 0.021423932 0.21395035 -1.1594002 0.06623079 0.41880974 -0.14322545 0.5506583
72 -0.17485523 -1.527842 -1.5349844 -1.0914214 0.34186605 1.4427196 -0.70894694 0.38960728 0.8706764 0.8643479 1.8751017 -0.6542661 0.07911303 -2.1266718 -1.0155551 -0.19493541
82 1.0440682 -0.29200706 0.06131647 -2.387404 2.0471768 0.13736491 -1.0867857 1.5623717 1.3806132 1.8277667 0.5702487 -1.4083145 -0.13791974 -1.2943953 -0.022889474 1.07202
78 0.51102304 -0.44352373 -0.7401499 -0.033530273 0.7802531 2.2535384 0.51798165 1.03425 0.035905663 0.031561293 0.25396854 -1.1199251 0.047802698 0.34870818 -0.12863478 0.5299003
109 -0.22717002 -1.594985 -1.5991703 -1.1102107 0.37207702 1.4164735 -0.7055536 0.4339206 0.90797555 0.8361821 1.9326137 -0.6842333 0.09899692 -2.1673286 -1.0423717 -0.16978177
145 0.7978104 -0.27075297 0.1515221 -1.6318691 0.8259197 1.3434696 0.5167167 -0.7346931 0.5009657 0.962574 -0.41713375 0.26261833 0.6170056 -1.0203575 0.62643903 -0.6708447
5 0.779745 -0.23384959 0.16502686 -1.5779586 0.75319296 1.1692469 0.46059453 -0.70865375 0.51595145 0.87130404 -0.437475 0.3094493 0.56208175 -0.92374426 0.56907874 -0.66526794
57 -0.3337641 0.8747298 -1.4325275 -2.7253938 -0.93089324 2.4211147 -0.33856803 -0.71672946 -0.9189798 1.0204061 -0.07768991 -1.3813859 -0.68474925 -0.5318565 -0.39332527 0.23429151
65 0.8638982 -0.2178687 0.17768772 -1.7411025 0.885828 1.3406322 0.52148217 -0.8097492 0.5366145 0.9958528 -0.46026623 0.30663514 0.63290817 -1.0591393 0.63716286 -0.7227213
129 0.8038198 -0.2539062 0.16016777 -1.703654 0.8736936 1.3683283 0.5114057 -0.7650149 0.52985454 0.98217547 -0.47147593 0.26645675 0.5778103 -1.0832384 0.62220985 -0.67042637
85 1.8717579 1.1777921 -0.33598503 0.279879 -1.5846201 2.6600025 0.66738087 -0.036298648 0.7226975 2.048179 -0.55229175 -0.78881216 -0.7309529 -2.1840718 0.016860638 0.43549198
148 1.0492657 -0.49909097 1.0002856 -0.9441315 1.0051779 1.9730154 -0.50424546 -0.27374595 0.3790843 -0.32168704 0.040944207 -1.5957197 -1.9550135 -2.9602003 0.87786317 -0.042385563
151 -0.23907219 -1.519687 -1.5069125 -1.1277124 0.34473455 1.3279469 -0.73346317 0.33868882 0.82505333 0.7709363 1.8404361 -0.571552 0.07416167 -2.0727932 -1.0180321 -0.18883058
105 -0.3101306 0.93506545 -1.3924731 -2.6860695 -0.8846393 2.3924716 -0.34680706 -0.681537 -0.88358635 1.0405532 -0.15695341 -1.3509258 -0.6750936 -0.46060288 -0.33804643 0.29849106
33 1.1482855 -0.017257473 -1.9956621 -0.8126935 0.94829756 1.8699245 -0.16391985 -0.14887464 -2.4571095 0.34790263 -1.947707 -0.9849647 1.1714005 -1.087925 -0.26152122 0.2904405
114 1.2086356 -0.07489623 -1.9615308 -0.8842657 0.9739311 1.8104978 -0.16349708 -0.13875797 -2.485966 0.41694787 -1.9972293 -0.95141065 1.1692079 -1.1218398 -0.2706802 0.31551966
102 0.47936162 -0.44950777 -0.79851615 -0.06775985 0.8123909 2.3332083 0.5564565 1.0299066 0.038617123 0.009283568 0.22168095 -1.1957011 0.05005141 0.38654307 -0.13824484 0.53877
8 -0.23313853 -1.5233715 -1.5794044 -1.0628995 0.35263923 1.3893038 -0.7013685 0.40364367 0.843053 0.85603076 1.8987911 -0.674627 0.1009309 -2.133971 -1.0486223 -0.15592125
58 0.8575906 -0.24092735 0.1728096 -1.703753 0.90721303 1.3096902 0.47717023 -0.7971344 0.50276953 0.967866 -0.47542876 0.28149888 0.66026765 -1.087234 0.6863028 -0.7275723
56 0.6633634 -0.02380122 0.02828315 -1.40231 0.7563839 1.011731 -0.682457 -0.1571412 0.7366406 1.5023397 -1.7219384 -1.0576037 -1.2613297 -0.5083986 -2.2269788 0.6137729
24 0.44879845 -0.44296342 -0.76626915 -0.016018484 0.7665456 2.1925912 0.4839635 1.0558277 0.011336024 -0.04489317 0.27329755 -1.1023618 0.026349466 0.4143936 -0.1094698 0.5103704
29 0.49818912 -0.44119465 -0.77814573 -0.035455834 0.8496978 2.2921085 0.5443141 1.1058913 0.0570757 0.03331093 0.26029038 -1.1745657 -0.00829539 0.3721994 -0.16894923 0.56728673
18 1.0159428 -0.24826606 0.07247548 -2.2984712 1.9401337 0.17926005 -1.0272716 1.4704269 1.2741735 1.7361634 0.5403135 -1.3467388 -0.1194763 -1.2615585 -0.0027418835 1.0501685
10 0.7188459 -0.042099304 -0.030262642 -1.3402034 0.7301102 1.0487579 -0.6528806 -0.14864554 0.6884954 1.4934689 -1.6416812 -1.0947732 -1.2009294 -0.5823884 -2.1678474 0.6391686
106 0.6429114 -0.97439086 -1.8596715 0.34880137 0.8355364 0.7232758 0.97058916 -0.0873581 -0.17927967 2.268761 -0.12759838 -1.825743 -0.28226465 -1.7799389 -1.348701 0.615884
119 0.80148673 -0.22931994 0.15701547 -1.6941297 0.8646671 1.3090391 0.4526932 -0.7644534 0.569597 0.9597018 -0.46535745 0.25135684 0.6321644 -1.0366336 0.6322928 -0.71205074
70 0.82404363 -0.25051412 0.15186153 -1.6910787 0.8111867 1.3167709 0.49358222 -0.7900192 0.48878065 0.97909755 -0.43615532 0.30414855 0.62835854 -1.0614525 0.65664595 -0.70069104
166 0.79367876 -0.2426607 0.14354287 -1.6495682 0.8521696 1.3542466 0.50387233 -0.77053756 0.5230295 0.9600645 -0.48790947 0.22382824 0.61359227 -1.0255107 0.5725127 -0.6822114
42 0.8415505 -0.25343153 0.15140446 -1.7214143 0.9254004 1.3905643 0.50679916 -0.8169421 0.56859803 0.9970608 -0.46083218 0.29776016 0.6930865 -1.0762383 0.64377904 -0.7252941
104 0.5339483 -0.41542292 -0.7577277 -0.091500394 0.82036185 2.282486 0.56058735 1.0401063 0.051994473 0.0043129697 0.17100401 -1.128989 0.0071020285 0.36630544 -0.11120705 0.54696167
76 0.4261864 -0.40280163 -0.7560751 0.004704106 0.7875607 2.178656 0.4816689 1.0367155 0.029728582 -0.0032937042 0.21430582 -1.1418828 0.04491405 0.40051317 -0.14609864 0.50060123
146 1.0332808 -0.5559944 1.0371284 -0.99060774 1.0538558 2.035135 -0.5199155 -0.29175046 0.39990234 -0.39255962 0.055854015 -1.6588931 -1.9863999 -3.0216982 0.97953886 -0.02981953
61 2.8535414 -0.45383447 0.5169695 -1.0945275 -0.368871 1.7051826 -1.4492447 0.51169133 -1.0474933 1.5875478 1.1141216 -1.0907953 -0.6655989 -0.9099165 -0.5853167 -0.07640199
165 1.2661258 -0.37731218 -1.1423534 -0.39484164 1.1905785 1.5733644 -1.1264386 1.5095086 0.7541769 -0.40683517 -1.3328607 -0.8475921 0.54699785 -2.436919 -0.42876977 -1.6892881
136 1.2576867 -0.3793923 -1.1258422 -0.43651497 1.1883996 1.5743036 -1.1482357 1.5190363 0.80938256 -0.37844893 -1.3648328 -0.87591296 0.6574319 -2.5221145 -0.4323066 -1.7842479
103 0.8194055 -0.20769897 0.15978615 -1.7214025 0.877663 1.3016754 0.47992948 -0.7934711 0.5462709 0.99053115 -0.4449768 0.3021544 0.60339296 -1.0903367 0.67784846 -0.68933004
125 1.8224325 1.1180106 -0.33150586 0.2373234 -1.5106635 2.6190047 0.6548691 -0.017918838 0.703939 1.987967 -0.5375037 -0.7161989 -0.6910039 -2.069358 0.01819821 0.41990337
64 0.8465865 -0.20903443 0.1975854 -1.7927524 0.8828979 1.395751 0.5032806 -0.8443577 0.5183317 1.0253494 -0.4828962 0.308818 0.6276366 -1.0902039 0.72484875 -0.70255613
141 -0.7770847 -2.3513374 0.5313803 -0.17768401 1.7350092 2.451195 0.40484336 -0.7577936 0.97305167 0.7027681 -1.9402454 -1.4629763 1.2582935 -0.9497468 -0.7823098 0.80810726
32 -0.7814586 -2.3536882 0.54780376 -0.21479402 1.7324947 2.5447836 0.5317213 -0.75243217 1.0230173 0.7111956 -1.897791 -1.4943612 1.2376106 -0.8984974 -0.7928879 0.81942266
22 0.4936564 -0.40546268 -0.72615796 -0.06607115 0.7588724 2.2213693 0.4933407 1.0488566 0.06595709 -0.009458045 0.21285954 -1.1395545 0.048973132 0.37045026 -0.13114321 0.50043905
172 0.85363615 -0.27641967 0.14128765 -1.7081751 0.9296944 1.3785087 0.48763 -0.79093546 0.554533 0.98142815 -0.4695644 0.25893196 0.596692 -1.0843449 0.6062397 -0.70093924
123 2.8860755 -0.46254516 0.44280994 -1.2138404 -0.2550955 1.8091954 -1.4126068 0.54056305 -0.98834616 1.639415 1.0742685 -1.1023569 -0.6044263 -0.9916234 -0.5703771 -0.13372874
81 1.1137632 -0.6882605 -1.1288456 -1.0433729 -0.07950136 2.1951084 0.8361244 0.81795204 0.14378557 0.18192933 -1.9123235 0.9088133 0.98247886 -1.8404111 -1.6430602 1.9092233
17 1.1415001 -0.7462654 -1.0745306 -1.0802507 -0.04111215 2.1733735 0.76873976 0.77841866 0.090364225 0.23518884 -1.8709829 0.8899279 0.98380387 -1.8214545 -1.6183904 1.9218029
40 -0.21090028 -1.464267 -1.4224019 -1.0626802 0.3626291 1.3365302 -0.66098994 0.35269153 0.8113436 0.78156495 1.7201116 -0.6296759 0.07562881 -2.0387623 -0.96471786 -0.20241185
156 0.3396575 -0.52369446 -0.40563586 -0.7308569 1.6568304 1.4412553 1.9769766 1.2723867 2.0880897 0.1855943 -0.14817066 -0.9280318 -2.1119573 -2.2610877 -1.6200205 -0.66954094
34 0.42347398 -0.49675393 -0.37033185 -0.8288813 1.5513879 1.4989159 1.856207 1.1854035 1.9646459 0.22179896 -0.24115336 -0.9917181 -2.031057 -2.157911 -1.4882236 -0.6304636
124 1.8523551 -2.071244 -0.929827 -1.2331232 2.3578572 2.2571537 -0.9006387 -0.11585032 -1.6108943 0.6821218 0.81914604 0.8888684 -1.0716085 -0.05084481 -0.3312326 -0.00936228
115 1.8423005 -2.0028298 -0.8876147 -1.1902122 2.2854364 2.190631 -0.8902042 -0.113059685 -1.5715703 0.7098681 0.77682924 0.88194335 -1.0561945 -0.10607069 -0.38241225 0.06735658
161 0.83485186 -0.24020782 0.16584553 -1.6546073 0.8323137 1.3563412 0.46068478 -0.7414216 0.50649965 0.9502725 -0.46800068 0.19616736 0.58471394 -1.0773501 0.6263589 -0.66072464
135 0.42373478 -0.46394923 -0.7406677 -0.017724382 0.7914106 2.215189 0.49065146 0.997893 0.037957285 -0.010858511 0.19325693 -1.1380482 0.07273418 0.4261546 -0.09003455 0.5321971
88 3.0740733 -0.46105462 0.583661 -1.2236757 -0.4241754 1.7443361 -1.5076815 0.57765186 -1.0926992 1.7562532 1.1754813 -1.1520486 -0.6687607 -1.0151627 -0.6135505 -0.12825614
48 0.7131605 -0.05220949 -0.04189125 -1.3717514 0.7400625 1.0727139 -0.60930014 -0.13246527 0.730612 1.5103137 -1.600905 -1.1108378 -1.168346 -0.5965421 -2.0813782 0.62987393
15 0.489476 -0.46122763 -0.8035454 -0.017550696 0.8319127 2.2901015 0.56913346 1.0498363 0.016621066 0.05556826 0.22563703 -1.1675581 0.062694855 0.40660462 -0.16433643 0.60189223
13 1.232318 -0.40341705 -1.1283112 -0.33091888 1.1167713 1.4717731 -1.172289 1.514245 0.8187288 -0.41028917 -1.370965 -0.86480457 0.64199275 -2.480521 -0.46916872 -1.791376
25 0.84208417 -0.21205848 0.20058046 -1.69374 0.8733615 1.2621721 0.4635442 -0.78938293 0.5445648 0.98696405 -0.48359233 0.28064936 0.60688514 -1.0870135 0.6118959 -0.6748118
23 0.72646344 -0.24152093 0.110939525 -1.5809585 0.85152924 1.1983349 0.47814965 -0.74626416 0.5102001 0.9456406 -0.45242414 0.24962531 0.64105713 -0.9755659 0.58514315 -0.6750763
159 1.7106389 1.0457115 -0.326897 0.21817666 -1.441159 2.5498624 0.6239234 -0.047235653 0.63435143 1.9097023 -0.4923595 -0.7492777 -0.6527461 -2.0297756 -0.03219412 0.40139502
121 -0.17876874 -1.5638167 -1.6203548 -1.1262527 0.3576455 1.5116131 -0.7229742 0.4066869 0.8751041 0.9057282 1.9119552 -0.64994025 0.16227075 -2.180306 -1.0545982 -0.15869018
98 1.0566654 -0.51483625 1.0734035 -0.9553164 1.0562699 1.9379967 -0.5546559 -0.25681484 0.4183725 -0.41612887 0.07953769 -1.6531484 -2.0107403 -3.0239134 0.99780005 -0.049121197
9 0.47872415 -0.4532623 -0.73709875 -0.04783706 0.77109206 2.1490982 0.45126835 0.99027133 0.020485789 0.007427129 0.17142032 -1.0841709 0.04369485 0.32893175 -0.17266984 0.5044712
12 0.6218758 -1.0375347 -1.9870365 0.4586732 0.9055348 0.65146065 1.0524907 -0.104799196 -0.22621551 2.4931722 -0.09788579 -2.009609 -0.36716238 -1.889162 -1.5054213 0.687845
53 0.7329359 -0.21023862 0.10437747 -1.5883158 0.7984547 1.273237 0.45670044 -0.70217246 0.49361095 0.9001725 -0.42379653 0.21802703 0.55948544 -0.98506314 0.58376753 -0.6407821
79 0.7800317 -0.2049428 0.17887338 -1.6318666 0.8109569 1.290553 0.4578659 -0.76112014 0.51582867 0.9285035 -0.47552347 0.30998626 0.63016456 -1.0379753 0.64998186 -0.72645324
43 0.72481334 -0.040050708 -0.021764746 -1.3805835 0.71876526 1.019466 -0.5839277 -0.1483069 0.7316086 1.4832817 -1.5535225 -1.0517327 -1.1691356 -0.6134091 -2.0368786 0.6111242
26 1.2452207 -0.057293177 -1.9548105 -0.9151244 0.98595035 1.9421536 -0.1585409 -0.14016567 -2.4028246 0.4204702 -1.9603171 -0.9789259 1.1729219 -1.198624 -0.24679428 0.30741015
55 0.4668347 -0.44276312 -0.718107 -0.029261472 0.8297727 2.2421298 0.51383984 1.0598315 0.06571648 -0.02992512 0.17969632 -1.1227057 0.045756485 0.3917456 -0.09665109 0.5143254
37 0.82878804 -0.22488852 0.11435071 -1.658319 0.8713862 1.3372828 0.48401937 -0.7773401 0.49742395 0.9558922 -0.49960232 0.28324002 0.57555974 -1.0750028 0.6394325 -0.68962246
134 0.77000743 -0.19651273 0.20255789 -1.635549 0.8253605 1.2381024 0.46895915 -0.7389751 0.5272766 0.89891326 -0.45394108 0.25639674 0.59953177 -1.0025631 0.65997565 -0.718908
74 0.49818164 -0.46066585 -0.7070322 -0.0699194 0.79436666 2.247072 0.5225312 0.9731864 0.0040314673 -0.00018602889 0.22253191 -1.12916 0.013886164 0.3270688 -0.14938506 0.48363894
178 0.8190623 -0.25089297 0.16724119 -1.7140331 0.8353448 1.2563753 0.49503478 -0.78994393 0.5623107 0.99693924 -0.48982823 0.34560132 0.64736295 -1.068003 0.65672636 -0.6777932
170 0.6977442 -0.022519069 -0.012694158 -1.3894345 0.74666566 1.0293136 -0.61898386 -0.1760711 0.70532894 1.4995506 -1.6043473 -1.0678177 -1.1438205 -0.5584601 -2.057325 0.6576524
6 0.527092 -0.451502 -0.716649 -0.016960567 0.8138737 2.2606547 0.53948486 1.082461 0.057915952 -0.013769647 0.20302278 -1.1476592 0.017216465 0.37185362 -0.12344962 0.5232147
108 0.85582685 -0.27161154 0.17860557 -1.7055748 0.8617524 1.3036233 0.47431207 -0.7676487 0.53392196 0.96902466 -0.47836697 0.26676306 0.61264926 -1.1369259 0.6639838 -0.72060096
52 0.9982987 -0.24571161 0.035133235 -2.3998404 2.0497313 0.011138834 -1.1292627 1.5974474 1.3827306 1.8422242 0.5841158 -1.403193 -0.104621395 -1.3059855 -0.029407877 1.1750213
126 0.7824904 -0.21989238 0.18010129 -1.6248144 0.8394406 1.2070804 0.4662189 -0.77308404 0.5026117 0.9099779 -0.47910774 0.31829947 0.55758655 -1.0465859 0.6181803 -0.6727363
162 -0.2920807 0.89315784 -1.4124447 -2.6722145 -0.89323217 2.4183047 -0.34673187 -0.66947865 -0.8464278 1.0674579 -0.08187319 -1.3884692 -0.64960694 -0.4482683 -0.34212193 0.2988818
112 0.50343007 -0.45340234 -0.7542021 -0.07131621 0.7758642 2.202104 0.51074773 0.99647343 0.0033365933 0.0036455174 0.16286135 -1.0690634 0.0884876 0.3783909 -0.098292716 0.48607254
130 0.6014931 -1.005645 -1.8323846 0.36564073 0.8577501 0.618116 0.97066844 -0.13482802 -0.16993433 2.2823534 -0.12679504 -1.8303113 -0.30648348 -1.795817 -1.3792801 0.6003058
38 0.667485 -0.04363261 -0.06231705 -1.4009176 0.7102715 1.0667247 -0.6084097 -0.18126209 0.7248089 1.4856943 -1.6641409 -1.0677478 -1.2080555 -0.5306156 -2.1908548 0.63598603
97 0.5043831 -0.47494587 -0.7450241 -0.0719752 0.80448073 2.2472448 0.47986165 1.0450876 0.028364075 -0.026701283 0.23136319 -1.1294185 0.053407762 0.34339505 -0.123729885 0.5069406
149 0.7568427 -0.22571847 0.17630906 -1.6661373 0.8235568 1.2544203 0.5228987 -0.7725719 0.49929097 0.9786057 -0.47758344 0.3430971 0.6740066 -1.0397977 0.6555161 -0.7048386
158 0.5060933 -0.41754904 -0.7488699 -0.1083874 0.8036201 2.2858694 0.5007938 1.0681393 0.030719306 -0.002899242 0.1828188 -1.1010302 0.061221853 0.38721195 -0.111284964 0.5433152
35 0.66205144 -0.050763432 -0.0077022016 -1.344597 0.6858324 1.0961962 -0.63281935 -0.18948913 0.6703013 1.4918377 -1.6397586 -1.0936923 -1.2159264 -0.5225896 -2.1004732 0.6161554
84 0.7903584 -0.22997431 0.1495363 -1.6410186 0.823306 1.3320485 0.49784446 -0.7310186 0.50700074 0.95724624 -0.46179128 0.27341914 0.6035514 -1.0121144 0.62697923 -0.6729738
155 0.7653597 -0.18921927 0.1516413 -1.6559296 0.83811617 1.2917774 0.4761484 -0.7907367 0.5283422 0.9371997 -0.45421207 0.24421999 0.5537402 -1.0016153 0.6240535 -0.70453113
49 0.7691984 -0.20224273 0.1781367 -1.6900709 0.85109466 1.281594 0.4968058 -0.8181785 0.53553665 0.97603804 -0.4436858 0.2966741 0.63521737 -1.0571785 0.6480391 -0.6934688
110 -0.24902685 0.8963369 -1.375893 -2.6252081 -0.87503964 2.3440175 -0.36904845 -0.6899943 -0.89679724 1.0557894 -0.1273635 -1.3153251 -0.642589 -0.45693767 -0.35945278 0.23872438
180 -0.20744666 -1.5104067 -1.5165436 -1.1533998 0.3900385 1.4210029 -0.68133014 0.41538414 0.8731817 0.879484 1.8512315 -0.6789144 0.13233621 -2.1424682 -1.0653363 -0.16585554
89 0.79304254 -0.2687242 0.15481585 -1.6694012 0.7896541 1.2916417 0.4606622 -0.7412787 0.52845436 0.9482704 -0.43004692 0.2607188 0.58009636 -1.0254356 0.62093365 -0.6638048
171 0.4533729 -0.38464555 -0.7390359 -0.10204216 0.72188103 2.1969576 0.47110724 1.0372338 0.022320552 -4.8410147e-06 0.20008767 -1.1430092 -0.015387956 0.3643809 -0.107590996 0.5224186
101 0.48975328 -0.40639755 -0.7380924 -0.0628553 0.73040414 2.1810193 0.49427387 1.0171531 0.017284766 0.038504343 0.22295584 -1.1036941 0.06456968 0.31640518 -0.11036024 0.5209188
66 0.7717462 -0.20597093 0.113230355 -1.6264262 0.8273934 1.2917093 0.49299008 -0.72985965 0.54062074 0.916832 -0.49185395 0.23135531 0.5568193 -1.0494387 0.5752969 -0.6336375
152 0.4735038 -0.4356895 -0.6941918 -0.025102157 0.7860949 2.1944861 0.5296429 1.0466888 0.039833773 -0.037397943 0.21035194 -1.105313 0.020585174 0.38487813 -0.124044806 0.5426886
176 0.41364998 -0.44788197 -0.72070724 -0.02599848 0.78037226 2.2015414 0.5529769 1.0163834 0.029912934 0.0308548 0.2300647 -1.1119788 0.057052024 0.40750453 -0.1457798 0.5706268
143 0.79434925 -0.25021845 0.095213994 -1.627734 0.84758306 1.2553332 0.4529291 -0.71645117 0.52125376 0.9281007 -0.4030833 0.26289594 0.6000602 -1.0035204 0.5882319 -0.6739555
113 0.5009597 -0.44729024 -0.721867 -0.0495337 0.76618975 2.2267554 0.5122197 0.9751789 0.038137026 0.043860756 0.1786136 -1.1003 0.010594355 0.3603375 -0.12085847 0.51504976
59 0.5255137 -0.4315606 -0.7792565 -0.03763511 0.8478581 2.3698268 0.51044416 1.0742422 0.03129232 -0.0046945065 0.16597971 -1.1643348 0.07006128 0.39906085 -0.12357112 0.53658783
139 0.4589204 -0.40567392 -0.7324944 -0.076214656 0.76999795 2.202712 0.52643156 0.96685064 0.02032461 0.03043885 0.16642043 -1.0675209 0.062218864 0.31226426 -0.123384535 0.4964081
142 0.4499979 -0.45556077 -0.7487569 -0.08836877 0.813406 2.2177536 0.42269772 1.0341139 0.06043872 0.0059935907 0.19302887 -1.141279 0.031640165 0.25370216 -0.17918323 0.48415577
