131 16
171 0.32689616 -0.43721217 -0.7338249 0.068976 0.7555532 2.308495 0.758719 1.0508881 0.31980062 0.094428994 0.17880309 -1.0779675 -0.06234672 0.773737 0.12416596 0.37779465
76 0.31025904 -0.44689626 -0.72636694 0.12596348 0.7697739 2.3685296 0.78162813 0.97817445 0.3600808 0.12517892 0.19838777 -1.076687 -0.017657315 0.7732837 0.1190591 0.34991717
37 0.8038047 -0.027625147 0.044255905 -1.4562205 1.0261067 1.3169178 0.6190506 -0.7051224 0.5581056 0.8963852 -0.57735336 0.34318253 0.50786227 -1.0671757 0.9834759 -0.57541347
23 0.7724603 -0.046637725 0.105695486 -1.5282828 1.0609229 1.2355856 0.62157714 -0.76079524 0.6021346 0.9316677 -0.5451541 0.4225116 0.67440784 -1.0424942 1.0883975 -0.67199516
66 0.82152915 -0.013253649 0.08888755 -1.5574597 1.0917311 1.3269758 0.6953901 -0.7546509 0.6300315 0.9273569 -0.6572883 0.3849644 0.6217391 -1.1052674 1.059689 -0.63918674
98 0.9586837 -0.5393504 0.6582934 -0.48079157 1.6473062 2.2614455 0.026132032 -0.33501607 0.2990743 -0.88589543 -0.12704775 -1.7734063 -1.8909309 -2.7031004 1.3793252 0.35819003
75 0.84968525 -0.02019884 0.12190641 -1.6047847 1.0831462 1.3555963 0.6664741 -0.71608883 0.5916831 0.9765964 -0.59018576 0.37761968 0.599323 -1.146919 1.0385201 -0.6112591
100 0.7877503 -0.0124391755 0.10710688 -1.5209545 1.0112638 1.2922429 0.6034874 -0.7218711 0.5533862 0.89410067 -0.56298155 0.4063197 0.59566283 -1.0231131 1.0393388 -0.6115976
160 0.32377 -0.48004514 -0.7282536 0.052212697 0.76439005 2.3137026 0.7329962 0.99034077 0.328006 0.12587395 0.19312978 -1.0389445 -0.015199385 0.72103715 0.11194897 0.32895696
96 0.31350866 -0.46140912 -0.6799564 0.07775368 0.72732514 2.3341124 0.77973276 0.9821486 0.29927924 0.08102298 0.17445533 -1.0643415 -0.017975325 0.746614 0.15108162 0.38321128
70 0.8216392 -0.07337437 0.10388257 -1.5305876 1.0634034 1.3332376 0.6492292 -0.72916067 0.5597743 0.95655733 -0.6084771 0.34312257 0.5863877 -1.0299174 1.02049 -0.5987259
16 0.35533243 -0.43598312 -0.7167088 0.07062746 0.7505163 2.25315 0.73211724 0.93645936 0.27283886 0.0705304 0.20345119 -0.9892402 -0.02617085 0.69111145 0.10575274 0.3658979
35 0.46587932 -0.21905015 0.054419257 -1.3888519 1.0261235 1.2736417 -0.55576485 0.042362966 0.74143517 2.0122483 -1.452501 -1.0212432 -1.2610065 -0.24065371 -2.0566483 1.0005462
40 -0.25023165 -1.1682035 -1.3074038 -1.6101437 1.2090203 1.6477501 -0.23706034 -0.2084888 0.99791855 0.21471338 1.7464787 -0.37223554 -1.0610346 -1.9288876 -0.5429281 0.2695995
133 0.8139715 -0.064892896 0.1243694 -1.530021 1.1089641 1.3270928 0.6695487 -0.741691 0.616277 0.9558929 -0.61185664 0.42337215 0.6237098 -1.0552946 1.0527488 -0.67062455
22 0.314914 -0.4218946 -0.72341704 0.017393565 0.7395191 2.2524679 0.71964216 0.9800254 0.33810472 0.07319121 0.1581567 -1.0208019 -0.04858802 0.70437515 0.040783502 0.34458655
88 2.932982 -0.5970912 0.48391408 -1.3724515 0.09634036 2.0501325 -0.92007273 0.6464529 -0.6337929 1.5562423 1.0665008 -1.0641356 -0.6536885 -0.830109 -0.20570533 -0.07935469
170 0.5140143 -0.16865595 0.01909559 -1.4155606 1.0138811 1.2911259 -0.51829386 0.013547433 0.7429636 1.9896 -1.3919321 -1.0062913 -1.1503963 -0.28591898 -1.9228774 0.9661216
134 0.7985761 -0.026694726 0.10903033 -1.5346864 1.0464613 1.3278346 0.6296236 -0.6811031 0.64234084 0.93071795 -0.5841817 0.30022 0.5561216 -1.0854564 0.9838141 -0.6112328
110 -0.26509777 1.0633637 -1.5596558 -2.8217423 -0.282916 2.2958946 0.3160165 -0.87731594 -0.48171598 0.73420763 -0.3910047 -1.3914326 -0.9896875 -0.23249315 -0.14507443 0.06881571
28 0.3014285 -0.40700227 -0.70962614 0.036333762 0.77664983 2.2743163 0.7188302 0.9716991 0.35088706 0.09597046 0.18823412 -1.0386093 -0.017680727 0.73342717 0.120881476 0.31638905
56 0.53258663 -0.24886994 0.020275239 -1.3973567 1.1041342 1.3488878 -0.47915742 0.10089806 0.7612773 1.9680234 -1.4130281 -0.9882535 -1.141847 -0.3211768 -1.9340397 0.916183
178 0.8377384 -0.057543997 0.11416948 -1.5347713 1.0440125 1.3273582 0.65590566 -0.7447554 0.61268246 0.9322913 -0.5811626 0.39861056 0.5830931 -1.0753666 1.06815 -0.58655655
118 0.34491315 -0.42724138 -0.64727426 0.09393734 0.69326264 2.244132 0.7182565 0.97283214 0.29115945 0.07092777 0.16155024 -1.0077634 -0.01492881 0.6997752 0.14326186 0.31887835
8 -0.27531755 -1.164533 -1.4312009 -1.6154476 1.1868471 1.6550455 -0.272576 -0.19906911 0.9777723 0.232374 1.8345431 -0.39219347 -1.0578059 -1.9561229 -0.59389496 0.29736242
145 0.81443065 -0.08350796 0.13877991 -1.5064025 1.0662384 1.329422 0.67746955 -0.71651393 0.6302612 0.9437261 -0.56194687 0.36976695 0.5792382 -1.0976377 1.021937 -0.62950367
113 0.33130696 -0.447818 -0.71579754 0.10748158 0.7433767 2.3269584 0.8175689 0.9764971 0.33938122 0.11412153 0.16987264 -1.0436301 -0.043966044 0.8066314 0.14569487 0.37144637
9 0.33518925 -0.47478208 -0.7567361 0.09429474 0.76242393 2.3318834 0.7333926 1.0186822 0.31173107 0.07510905 0.20136113 -1.0668403 0.008354693 0.772539 0.12362289 0.33987632
114 1.2661024 -0.25402826 -2.101987 -0.8357273 1.3840661 2.211101 -0.30546272 -0.0141569525 -2.2293656 0.292611 -1.6155825 -1.1892948 1.2515881 -1.1422682 0.0054319054 0.20124035
128 0.37158296 -0.438856 -0.68831855 0.040650547 0.7552584 2.219818 0.7636686 0.95851916 0.30253765 0.08557745 0.12734966 -0.9753178 -0.010313357 0.67247325 0.13161431 0.35255527
104 0.37179673 -0.40494692 -0.7373284 0.037819248 0.7671134 2.2883043 0.8031291 0.9823623 0.32379746 0.12981819 0.18233071 -1.0474956 -0.070208326 0.7459603 0.12807128 0.38064602
103 0.7765673 -0.019548697 0.06883285 -1.4875757 1.0625517 1.2813569 0.62608266 -0.7354347 0.57667017 0.9141355 -0.5896522 0.3623128 0.5618296 -1.0529242 1.0134202 -0.57692313
49 0.80975854 0.00065805396 0.085877754 -1.5526123 1.0862164 1.3433493 0.6602995 -0.78329945 0.5760432 0.96406317 -0.6057288 0.40950623 0.6494883 -1.0865937 1.0685345 -0.6323421
7 0.34027606 -0.43717495 -0.7634796 0.101590216 0.8052726 2.3853724 0.7710175 1.0296013 0.3479641 0.06859681 0.17484958 -1.0554669 -0.015146195 0.79506797 0.10896626 0.41290885
39 0.76143545 -0.04020473 0.14602038 -1.4636441 1.0265691 1.2403102 0.6488587 -0.714572 0.5621751 0.9483173 -0.61741513 0.3767337 0.5918299 -1.022749 1.0003984 -0.61360115
6 0.35837212 -0.4494688 -0.6732938 0.0802811 0.7942621 2.2816439 0.7765326 0.9950716 0.31629595 0.06759256 0.075894766 -1.0462348 0.037543375 0.71631026 0.15022658 0.32167768
43 0.54794705 -0.21650639 0.07493709 -1.4090272 1.0722172 1.3400567 -0.47739226 0.07481897 0.84693795 2.018462 -1.4504182 -1.0324881 -1.2442865 -0.31402987 -2.0033588 1.0043509
74 0.33936235 -0.45189244 -0.65247566 0.07448231 0.73832136 2.2666295 0.7646891 0.9341804 0.31167653 0.09774952 0.17281169 -1.0385065 -0.040204346 0.73339057 0.06910968 0.31541142
58 0.8612983 -0.029557379 0.09345942 -1.6449823 1.1514534 1.3804837 0.705975 -0.79545015 0.613902 0.989344 -0.602584 0.38631725 0.65029585 -1.1262246 1.1141459 -0.6502978
165 1.0408858 -0.41121873 -1.1750282 -0.38807422 1.0073028 1.5672737 -1.0483193 1.5854043 1.1845918 -0.003961575 -1.2311853 -0.9828786 0.3884306 -2.1978114 -0.5046977 -1.5109794
109 -0.22643252 -1.1961896 -1.3557357 -1.5385144 1.1650647 1.5706217 -0.31973463 -0.1565153 0.96703005 0.19737631 1.8259352 -0.36091343 -1.0411304 -1.8806071 -0.5621368 0.28919956
125 1.8785255 1.1632107 -0.22242083 0.25106788 -1.0776095 2.8046634 1.1993723 0.049294677 1.1283286 1.6786855 -0.54576707 -0.91610336 -0.9837534 -2.1311696 0.06747936 0.19992444
29 0.327499 -0.40883565 -0.6748484 0.056988426 0.77727157 2.2295067 0.74767435 0.9293539 0.3116859 0.12948912 0.1537117 -1.0114828 -0.04397062 0.6905041 0.1172899 0.3582529
106 0.54533035 -0.73419785 -2.1033833 0.018235372 1.0476906 0.48843995 0.9623469 0.2775958 -0.22954074 1.9618788 0.25259075 -2.2566128 -0.8337372 -2.1310372 -0.89023536 0.602643
73 0.5127791 -0.22792138 0.01133957 -1.3613225 1.0253639 1.3249347 -0.4712562 0.02707641 0.70761675 1.8913451 -1.3781222 -0.9305953 -1.1368595 -0.29502103 -1.846421 0.9428884
154 0.31507245 -0.47587115 -0.6999651 0.08196654 0.7093624 2.2740655 0.7368076 0.9839629 0.32972333 0.09641035 0.1914796 -1.0690442 -0.05503934 0.7341421 0.08475955 0.3451791
129 0.78897905 -0.056615558 0.12025312 -1.4439584 1.0254964 1.3054273 0.6229584 -0.63904816 0.59089965 0.884294 -0.5340717 0.3218485 0.51567495 -1.0188379 0.9868338 -0.56535125
87 0.3633999 -0.46845752 -0.72076994 0.02784311 0.82320464 2.3761237 0.74650234 0.9805152 0.30360737 0.111094065 0.19531453 -1.0607381 -0.012892975 0.76595885 0.16839802 0.33699608
27 -0.2797354 1.0590782 -1.4996128 -2.757185 -0.29427886 2.1772316 0.31745902 -0.9132081 -0.47699255 0.7121278 -0.39585537 -1.3699088 -0.93840605 -0.21172957 -0.12452906 0.058875374
151 -0.27374804 -1.1673261 -1.3689165 -1.5086653 1.1375529 1.518443 -0.285016 -0.22382146 0.8902732 0.20774007 1.7495313 -0.39695156 -1.1090661 -1.8721514 -0.6352186 0.2929094
54 -0.27364364 1.060952 -1.4927299 -2.7549062 -0.31712335 2.2370799 0.30451715 -0.8910323 -0.4782964 0.71790856 -0.3496511 -1.3857248 -0.94323814 -0.2325668 -0.1338003 0.046476703
55 0.34873417 -0.44387728 -0.6693883 0.07186199 0.77674603 2.2051528 0.70536983 0.959294 0.2855873 0.0764457 0.15624641 -0.9768175 -0.05194897 0.70967513 0.13788554 0.32098517
135 0.29415873 -0.4874001 -0.7520888 0.09206502 0.7612089 2.3256154 0.751133 0.9941324 0.33077836 0.10765792 0.20113747 -1.0835272 0.0066563515 0.8018092 0.12713058 0.3775003
18 1.0125679 -0.7504924 0.0052703987 -2.0034573 2.3699377 0.056825534 -0.5639349 2.078123 1.3546567 1.7572155 0.5440571 -1.3828415 0.3308048 -1.1322627 -0.045802012 0.26454186
64 0.7529256 -0.020803826 0.08207876 -1.506312 1.0128852 1.2683469 0.58274055 -0.7103777 0.54058015 0.9012565 -0.5336857 0.36079106 0.53962463 -1.0178205 0.9867398 -0.5621193
159 1.7338946 1.1366496 -0.14640662 0.3156776 -1.1099186 2.587601 1.1130431 -0.005966795 1.0355608 1.5468231 -0.4827672 -0.86723334 -0.9520688 -2.062909 0.050334007 0.18168393
57 -0.2925657 1.0536426 -1.5365783 -2.8565855 -0.30677438 2.267655 0.34015965 -0.8977481 -0.51449674 0.69752157 -0.39750472 -1.3916024 -0.9908821 -0.26151913 -0.1746829 0.037226208
139 0.33002764 -0.43163347 -0.7038433 0.13931815 0.74375784 2.3334444 0.8093276 1.0173421 0.29651865 0.12676962 0.19115306 -1.0835826 -0.031672154 0.7963828 0.105278485 0.3958617
52 0.93653166 -0.7310504 -0.1188452 -2.0084198 2.3465989 0.18606436 -0.44926074 1.9806128 1.3591514 1.7325066 0.46647987 -1.3699116 0.32747748 -1.1303985 -0.04071928 0.30432102
38 0.43260294 -0.22407559 -0.00026291143 -1.3185865 0.9965429 1.1861764 -0.4426689 0.056618325 0.75713694 1.8555892 -1.3131821 -0.9670862 -1.1722044 -0.27917346 -1.9146384 0.92493373
12 0.53014934 -0.6974202 -1.9490092 -0.08155957 1.0671319 0.63148683 0.92889154 0.2628126 -0.190506 1.8761754 0.21887133 -2.0870388 -0.7561725 -1.9871076 -0.8015034 0.569224
130 0.52424854 -0.7512309 -2.0425622 0.033157174 1.0338724 0.46092668 0.94188243 0.2751324 -0.20835645 1.9122154 0.28659454 -2.2208662 -0.8529218 -2.0915403 -0.88867205 0.5764581
141 -0.8101587 -2.3537664 0.046934396 -0.001332067 2.0918324 2.0578525 0.72543633 -0.59903574 1.2880516 0.47708508 -1.8671519 -1.4956112 0.87183845 -0.90497774 -0.33072403 0.7688112
32 -0.90270346 -2.5515997 0.10676233 0.0054843184 2.2059925 2.1723275 0.8273518 -0.65422213 1.4073162 0.49774212 -2.0000865 -1.6220007 0.96745104 -0.93731654 -0.3901186 0.83830523
81 0.7252202 -0.6920216 -1.2268965 -0.6737185 0.55979264 2.324121 1.2408979 0.8816012 0.0134624215 -0.109236866 -1.605661 0.9948132 0.4900447 -1.8403627 -1.4674037 1.7164457
17 0.77616334 -0.79780066 -1.1459281 -0.79555225 0.6099048 2.3052192 1.1982079 0.8354569 0.052526508 -0.018431667 -1.6141933 1.040666 0.44396496 -1.9718165 -1.5338581 1.768355
72 -0.24793348 -1.1328441 -1.3315347 -1.4884821 1.0895318 1.5077236 -0.28690332 -0.20689735 0.9261481 0.18485923 1.8022982 -0.31632537 -1.0686313 -1.8343177 -0.551967 0.24604422
156 0.15536992 -0.2694161 -0.37270096 -0.50883096 1.8671328 1.3208159 2.1826959 1.2029303 2.073013 0.054720387 -0.45135158 -0.83872277 -2.114799 -1.7865958 -1.0882447 -0.7905496
34 0.14984109 -0.26324117 -0.3194487 -0.445931 1.7645854 1.1808724 2.1822739 1.2154428 2.073438 -0.017164202 -0.5027758 -0.8549774 -2.1286416 -1.7610766 -1.0617784 -0.8276211
124 1.5110096 -2.0028749 -1.1102202 -0.96981925 2.7074742 2.1843116 -0.66380215 -0.029347923 -1.2772098 0.3465568 0.3485683 0.77704024 -1.3960948 -0.06577057 -0.40985867 0.13327192
115 1.508058 -1.9765806 -1.0991561 -0.94076246 2.6877313 2.178809 -0.6611527 -0.023797462 -1.2998759 0.35668448 0.29267636 0.7987676 -1.2923882 -0.06556963 -0.4149511 0.18465063
155 0.8069958 -0.041369297 0.12881556 -1.5237215 1.0804164 1.3138201 0.6239142 -0.7619321 0.60241383 0.915581 -0.60586596 0.36600745 0.58965325 -1.043361 1.0247213 -0.62822175
152 0.31940648 -0.447195 -0.66238797 0.043672044 0.7364509 2.2383177 0.73897344 0.9142694 0.28759417 0.095043115 0.1355342 -0.9921432 -0.04051959 0.7052735 0.09097347 0.34480166
158 0.3343036 -0.42913103 -0.6627624 0.1106825 0.7102807 2.255902 0.7418197 1.007785 0.33033335 0.07648602 0.17725 -0.9784623 -0.0139669245 0.76039743 0.11842298 0.3916962
166 0.76409346 -0.025465928 0.16329241 -1.3985615 0.97506523 1.175984 0.5804883 -0.71800226 0.53363824 0.85382307 -0.5822093 0.34764478 0.5764686 -0.9715968 0.9425981 -0.58840287
47 0.32110927 -0.4805586 -0.6605361 0.036726657 0.7459107 2.2217975 0.72196966 0.9393859 0.28178188 0.10987625 0.20873627 -0.98295873 -0.046367798 0.685561 0.11789183 0.34653288
82 0.9825535 -0.7701254 -0.04797337 -1.9855905 2.3670201 0.15761773 -0.50390553 2.010227 1.3763119 1.7071368 0.5116038 -1.3707846 0.30113938 -1.1460716 -0.0021299017 0.22818677
13 1.0608984 -0.4587843 -1.2144271 -0.38683996 0.93737733 1.6248087 -1.1177026 1.5836724 1.2336375 0.043086823 -1.2518553 -1.0711762 0.47186813 -2.2642143 -0.5315248 -1.6020685
136 0.98426455 -0.41751 -1.1017798 -0.4419252 0.98450917 1.5225153 -0.99805605 1.5011098 1.1515687 0.03167555 -1.1408825 -0.98450804 0.41232255 -2.1339717 -0.47543773 -1.494014
5 0.79758096 -0.07377517 0.10587183 -1.4690932 0.96538323 1.2342134 0.58225447 -0.65806025 0.56694704 0.84341365 -0.5409021 0.3573905 0.5009938 -0.96674633 0.9186443 -0.56581384
126 0.74451816 -0.043919664 0.08652924 -1.427583 0.99949956 1.188931 0.59243006 -0.67789185 0.54258066 0.8484942 -0.5655864 0.40305677 0.5670954 -0.99518174 0.93714494 -0.5668068
89 0.79445857 -0.048880354 0.13243894 -1.4778626 0.9891301 1.2779218 0.6369887 -0.71610254 0.59012294 0.88216215 -0.60051125 0.3484635 0.5614127 -1.0440289 1.0314226 -0.58256805
26 1.200563 -0.18272127 -2.0387154 -0.76115197 1.2981613 2.1312785 -0.30162546 -0.014961066 -2.161222 0.20503 -1.5564969 -1.1589644 1.2275836 -1.1241913 0.009597557 0.22771251
123 2.9515707 -0.56649655 0.46079963 -1.3247474 0.051874653 2.0114992 -1.0245264 0.64773715 -0.67326176 1.5192256 1.1263082 -1.0354658 -0.65244853 -0.8123792 -0.24183433 -0.08220435
24 0.31710964 -0.39191017 -0.70367706 0.066239335 0.72164786 2.2554893 0.7730134 0.9791581 0.30061513 0.07997447 0.15962452 -1.0123562 -0.032182183 0.7809099 0.13526158 0.32507816
97 0.3507668 -0.44625783 -0.6751549 0.029474674 0.740706 2.1696527 0.7160045 0.9523083 0.3176403 0.06730199 0.20020801 -0.9624221 -0.065013856 0.63260615 0.08629643 0.30593514
143 0.8046524 -0.08480823 0.074240565 -1.487264 1.0502621 1.2587192 0.625232 -0.73365605 0.589509 0.9240005 -0.5785629 0.38525817 0.59611374 -1.0442764 0.9446699 -0.56484747
119 0.75015676 -0.010358514 0.089292906 -1.4686704 0.9955185 1.2106524 0.5628991 -0.71044546 0.56612295 0.8589065 -0.5562126 0.36164936 0.58826697 -0.9637888 0.9837607 -0.6010552
21 0.329156 -0.47570527 -0.7104433 0.0801314 0.76319623 2.2255778 0.7361577 0.9617669 0.30782396 0.07906024 0.18273516 -1.0165145 -0.0023351433 0.69392234 0.11919872 0.36241782
112 0.37825772 -0.46759793 -0.7117074 0.021717787 0.7503204 2.308901 0.72465897 0.9997476 0.3280017 0.11316386 0.19907275 -1.0426853 -0.021376893 0.723169 0.1451199 0.33636537
80 0.51740503 -0.22372116 -0.0027649244 -1.3452371 1.0584804 1.3493185 -0.42810994 0.037734218 0.7373159 1.915324 -1.3242707 -0.97732335 -1.141928 -0.31103137 -1.8409537 0.9291626
15 0.35749355 -0.42007264 -0.689678 0.113371946 0.7402259 2.2779107 0.77034956 0.97661644 0.30976087 0.11847469 0.14931953 -1.0341501 -0.011225036 0.7302388 0.11252857 0.3694716
53 0.71352744 -0.014904872 0.06630707 -1.4247891 0.9786797 1.2762139 0.6342216 -0.6826746 0.55200666 0.8537856 -0.5519545 0.32692662 0.54818314 -0.9653717 0.9761646 -0.5734248
48 0.5507301 -0.23066235 -0.0038017714 -1.4108132 1.1100556 1.3735459 -0.45848164 0.06908859 0.80105513 1.9678754 -1.433443 -0.99804354 -1.1432239 -0.3441684 -1.8936626 0.93841213
174 0.516034 -0.7130633 -2.003485 -0.026531663 1.0435641 0.6621795 0.9633722 0.28579867 -0.17704013 1.8886824 0.17155409 -2.1471238 -0.7559297 -2.0183733 -0.83861864 0.5498406
85 1.893958 1.1612316 -0.19508824 0.2311639 -1.0751301 2.7911646 1.134867 0.013082256 1.1135024 1.6703348 -0.54026747 -1.0047016 -1.0877516 -2.2448902 0.043960195 0.23626593
65 0.788199 -0.023974162 0.09313835 -1.4837768 1.018192 1.2664641 0.61452377 -0.7048837 0.5605626 0.8842386 -0.5239455 0.35750544 0.5309627 -0.97926503 0.9263804 -0.54668725
149 0.76924 -0.024508024 0.08407435 -1.5019064 0.99777174 1.3126063 0.64655316 -0.6798199 0.58786505 0.9348502 -0.5690558 0.33970487 0.5801305 -1.0960608 1.008555 -0.6064809
157 0.76328146 -0.031346463 0.12551795 -1.5322326 1.0468119 1.2579148 0.6404874 -0.76407754 0.6195964 0.9107923 -0.57574564 0.39439258 0.5822729 -1.0472227 1.0194399 -0.58645195
33 1.2256404 -0.16892993 -2.0940375 -0.82820505 1.3530805 2.195279 -0.31919178 -0.05857792 -2.1592963 0.28864858 -1.5954591 -1.2181364 1.216253 -1.1517898 -0.0063226 0.14656776
108 0.842128 -0.061852995 0.11509768 -1.5219047 1.0239984 1.3212819 0.6064267 -0.7162949 0.57641786 0.92188984 -0.6028071 0.32330745 0.53458893 -1.1159372 1.0025803 -0.59647876
172 0.7759423 -0.03797328 0.08266478 -1.4036056 1.0079898 1.2591739 0.6289347 -0.70474327 0.5902704 0.86747706 -0.55339664 0.34261563 0.50211495 -1.034306 0.93561685 -0.5489139
105 -0.24536577 1.0056039 -1.4266 -2.626286 -0.2268064 2.1761298 0.3337753 -0.7851754 -0.40090987 0.68346244 -0.40917903 -1.3180715 -0.9059019 -0.25012684 -0.086730585 0.09058767
176 0.33536762 -0.42857578 -0.66826713 0.045457523 0.7701673 2.2763815 0.7756234 0.9489842 0.2931548 0.123014964 0.21744041 -1.0036554 -0.03593669 0.71470606 0.14649653 0.34981278
146 0.750388 -0.46406066 0.6205676 -0.39205652 1.337368 1.910166 0.02357044 -0.35502982 0.24440736 -0.8031804 -0.1098062 -1.4977183 -1.6643536 -2.3222313 1.18512 0.31618032
162 -0.21942978 0.95817596 -1.41476 -2.6653023 -0.21013229 2.1889894 0.29135522 -0.80457777 -0.36234426 0.7284585 -0.3682422 -1.3148031 -0.890258 -0.24424623 -0.11190683 0.09418063
61 2.930909 -0.56687576 0.50905454 -1.2825164 -0.013044323 1.9911689 -1.0159135 0.5920401 -0.73169017 1.4542863 1.1833119 -1.0199369 -0.6678371 -0.77288634 -0.16655013 -0.0908804
59 0.3290054 -0.45158195 -0.7256719 0.07025893 0.79833615 2.3341343 0.7499071 0.97206527 0.31747228 0.096188575 0.16759297 -1.0467343 -0.056906752 0.72437394 0.10577321 0.35180357
148 0.8414567 -0.4414487 0.74697304 -0.34423676 1.4123678 1.9449828 -0.043647856 -0.41036692 0.2158797 -0.91756725 -0.13605377 -1.6238306 -1.8177375 -2.5688934 1.3056779 0.3368475
84 0.77511764 -0.04163738 0.10717565 -1.4893932 1.0159904 1.324262 0.6220704 -0.6766268 0.5833674 0.8869689 -0.5450849 0.35947713 0.56947935 -1.0042219 1.0195302 -0.5982316
42 0.7888237 -0.041339107 0.093949184 -1.4956397 1.0502589 1.2868947 0.57718277 -0.73283476 0.5685146 0.880068 -0.50452197 0.32975104 0.5859457 -1.0483216 0.99047875 -0.5598958
122 0.7347709 -0.05411032 0.043924544 -1.4372225 0.9767705 1.2644197 0.62438565 -0.6947947 0.5302839 0.8784168 -0.56815726 0.3352813 0.54328084 -0.9771315 0.9375855 -0.54262716
101 0.35803688 -0.4050759 -0.6963999 0.07627636 0.6920629 2.3009448 0.7725292 1.0012362 0.30280674 0.120316274 0.18588082 -1.0520248 -0.02641439 0.70534045 0.12777938 0.36881375
175 0.82280284 -0.051102962 0.0984315 -1.5261604 1.0492328 1.3201164 0.6500431 -0.74989104 0.57682645 0.9529992 -0.5727293 0.40301394 0.6010574 -1.0931071 1.0340877 -0.62689966
121 -0.30670986 -1.195 -1.455022 -1.5565904 1.1399386 1.6095604 -0.26297656 -0.20646429 0.9761997 0.23403439 1.9127731 -0.3509536 -1.0461053 -1.9009738 -0.616945 0.32078955
142 0.29932818 -0.42206895 -0.6793697 0.0966402 0.7126393 2.21712 0.70532507 0.92982334 0.27238122 0.064582884 0.13629906 -0.994557 -0.031142998 0.6818623 0.08399089 0.3393087
78 0.35167077 -0.43412316 -0.6907139 0.12245754 0.7315708 2.2294571 0.716412 0.970881 0.2701245 0.11432107 0.19186346 -1.0276839 -0.0019051341 0.75808775 0.096992314 0.35917547
44 0.34971556 -0.4300803 -0.64351463 0.0766312 0.7590459 2.237069 0.7268865 0.9386766 0.26191995 0.1079165 0.1894909 -0.9728523 -0.056608666 0.7943892 0.09889634 0.35756817
111 0.29966685 -0.46615398 -0.66145724 0.08455092 0.7534593 2.3057172 0.7174601 0.99380606 0.29411644 0.06841812 0.19881181 -1.0469522 -0.039455477 0.7471836 0.10964575 0.35986072
63 0.37183523 -0.47972468 -0.67211914 0.033424556 0.74602395 2.212994 0.68979937 0.9408617 0.27781647 0.08023858 0.15551351 -1.043624 -0.023148509 0.62078464 0.04454422 0.33407277
36 0.3963415 -0.46923772 -0.70859843 0.034567263 0.7813311 2.3441298 0.74598134 0.92473197 0.28907853 0.09775919 0.1717735 -1.0065912 0.0095124375 0.71378183 0.104692124 0.34098947
77 0.32172528 -0.45432273 -0.67171 0.06516633 0.7470831 2.1906831 0.75915813 0.92131907 0.33213198 0.07550632 0.17289634 -1.037973 -0.051202014 0.7853396 0.11623105 0.38071525
127 0.5519786 -0.21312116 0.0022493957 -1.4340539 1.0626748 1.3971196 -0.43928212 0.04565304 0.76540005 1.9606153 -1.3613412 -1.0175062 -1.2094443 -0.3348692 -1.8930213 0.95720494
150 0.7477303 -0.044323474 0.09947711 -1.4151254 0.9912647 1.2252641 0.59218603 -0.64292663 0.5980758 0.85520613 -0.54102504 0.31586185 0.48511407 -1.0264953 0.9383011 -0.5538273
10 0.46208763 -0.14975922 -0.032830894 -1.2982872 0.9387493 1.2403266 -0.46322727 0.048108883 0.66566014 1.8193426 -1.2700796 -0.9677299 -1.1252692 -0.2832728 -1.8218827 0.88380986
161 0.78989655 -0.049519394 0.13508527 -1.4362019 1.003232 1.2541336 0.60639036 -0.69832754 0.55808455 0.8758294 -0.57741654 0.31744778 0.60662013 -1.0414059 1.0106298 -0.58369035
180 -0.3407501 -1.182678 -1.4209287 -1.6435916 1.126802 1.6175649 -0.31470612 -0.25767264 0.94675887 0.21501328 1.9211787 -0.339693 -1.044994 -1.9315305 -0.6467311 0.3280225
79 0.7261166 -0.06387233 0.047784034 -1.3969351 0.9917181 1.261728 0.5651489 -0.6253812 0.5350779 0.87319344 -0.5609439 0.31166312 0.564318 -0.9603765 0.8957963 -0.5590403
164 0.34814292 -0.41756424 -0.661493 0.022283476 0.733431 2.1682353 0.70637715 0.86478186 0.26263803 0.07819477 0.12586586 -0.9963691 -0.054773305 0.61635274 0.11253197 0.31583714
25 0.81808084 -0.049812354 0.10117139 -1.4360951 1.0608228 1.2544063 0.6037118 -0.66073495 0.56860375 0.8820743 -0.54951346 0.33167812 0.5771518 -1.0547156 0.973918 -0.5556345
102 0.30019414 -0.441306 -0.6617671 0.03925687 0.72932667 2.1758847 0.74372274 0.86433375 0.31713063 0.10613322 0.18307014 -0.99792814 -0.010602472 0.71079296 0.11976874 0.33905214
